75x1025
75x76
0.089371
-0.312816
-0.090040
0.176192
0.458681
0.146581
-0.075942
0.481243
0.315863
-0.310510
-0.167679
0.277413
-0.195154
-0.316902
-0.396042
-0.147530
-0.389666
-0.283415
-0.201094
-0.016245
-0.173368
0.302705
0.455197
0.241152
-0.300240
-0.053818
0.111925
0.396505
0.359224
0.062917
0.054094
0.393107
0.399208
-0.170665
-0.314572
0.367374
-0.446280
-0.089606
-0.084524
-0.001459
0.224390
0.463666
-0.295753
0.309945
-0.234008
-0.201254
-0.404566
0.452858
0.011010
0.339891
-0.086283
0.488381
0.060906
0.376192
-0.247924
-0.343791
0.325079
-0.395087
-0.316399
0.390357
-0.100695
-0.132992
0.118643
-0.347222
0.470716
-0.268210
0.393850
0.097502
-0.220380
0.045640
0.010858
-0.051239
-0.341788
0.006090
0.488751
-0.209450
0.207389
-0.175540
-0.181538
0.247123
0.504947
0.225271
0.243943
0.234707
-0.245975
-0.429951
0.033373
-0.366822
0.362189
-0.065943
0.069912
-0.167951
-0.283828
0.151828
-0.096066
0.100285
0.283848
-0.094183
-0.013368
-0.465065
0.347737
0.276252
-0.451968
-0.139602
0.435808
0.030675
-0.019977
-0.395685
0.123973
-0.237587
0.474485
-0.234927
0.323603
0.306371
-0.125726
0.318987
-0.184825
0.438536
0.194551
-0.407795
-0.331330
0.486376
-0.194370
-0.233297
-0.034542
-0.298740
-0.204105
-0.252131
0.373865
-0.190174
-0.157413
-0.395199
0.275522
-0.190558
0.111622
-0.310231
-0.071564
0.408574
0.421679
-0.153354
-0.422497
-0.115894
-0.146443
-0.248383
0.188501
0.384488
0.210530
-0.270353
0.007779
0.375406
0.257291
0.542993
0.274193
0.127135
0.208385
0.265809
-0.062092
0.405552
-0.460107
-0.263538
0.076966
-0.493018
-0.322354
0.070018
-0.158184
0.500778
0.335045
0.510787
0.496258
0.270037
0.062701
-0.448710
0.382767
0.139795
-0.045675
-0.193262
-0.126496
-0.405691
0.234733
0.162069
0.244487
0.219514
0.386733
0.182772
0.061831
0.156561
-0.208429
-0.055014
0.379133
0.431950
0.228197
0.347004
0.029583
-0.101575
0.344716
0.316497
-0.058548
-0.036571
0.201211
-0.049849
-0.106612
-0.204262
0.213151
-0.003562
-0.000901
-0.010716
-0.092499
0.250660
0.130648
-0.463311
-0.109044
-0.402760
-0.425866
0.423038
0.481623
0.348000
0.380453
-0.146893
0.067855
0.400545
-0.419785
0.452100
-0.410019
0.423608
-0.003897
0.481538
-0.415279
-0.180220
-0.224777
0.155961
0.069006
-0.046335
-0.278969
0.370577
0.335600
-0.231798
0.463010
0.407779
0.483263
0.486464
0.052578
0.496897
-0.165396
0.089561
-0.186113
0.493455
0.119531
-0.162507
0.163770
-0.289824
-0.329400
0.203744
-0.083302
-0.051147
-0.079658
0.404883
0.491879
0.039094
-0.119136
-0.091510
0.195920
-0.473794
0.428012
0.436763
0.259111
-0.159161
-0.325724
0.473708
0.244764
-0.453566
-0.028888
0.438373
0.090804
0.443741
-0.187218
0.204641
0.024574
-0.246438
0.237024
0.515785
0.433413
-0.313995
0.474970
0.200846
-0.477841
0.041791
-0.020124
0.285305
-0.254536
-0.209742
-0.269377
0.336019
-0.288054
-0.333948
-0.231543
-0.424606
-0.317200
-0.205110
-0.125521
0.515892
-0.445014
0.241135
0.542225
0.083266
-0.366125
-0.240316
-0.269710
-0.148183
-0.257408
-0.099058
0.302792
-0.139778
0.259719
-0.348575
0.358559
0.280546
-0.135105
0.434833
-0.388225
0.499343
-0.496740
0.240421
0.204369
0.206785
-0.020514
0.061264
-0.190961
0.230568
-0.247215
0.086536
-0.206911
-0.449044
0.031238
-0.348514
-0.285595
-0.082521
0.185539
0.157092
-0.348345
0.048961
-0.094074
0.428920
-0.382711
-0.438451
0.368593
-0.485523
0.146205
0.224411
0.013477
0.223713
0.241789
0.100925
0.188460
0.034969
-0.190826
0.446865
0.003842
0.436182
0.281887
0.536124
0.156642
0.194707
-0.102010
0.257500
0.478877
-0.168386
-0.338135
-0.128123
0.342754
0.028626
0.198861
-0.298626
0.450303
0.262429
-0.376675
0.392208
0.508477
0.133427
-0.312609
-0.193349
-0.024247
-0.287890
-0.170910
0.143628
0.345039
0.213897
-0.483321
0.191516
-0.447108
-0.317112
0.335631
-0.184885
0.231352
0.471617
-0.040475
0.212220
-0.224616
0.306909
-0.194172
0.188875
-0.156961
0.345217
0.395629
0.201825
0.285965
0.125666
0.465367
0.091273
0.264792
0.178637
0.396182
0.082640
-0.421224
-0.092003
0.448064
-0.221282
0.289695
0.044936
-0.368033
0.469236
0.222962
-0.232029
-0.275731
-0.034308
0.362014
0.290603
-0.351743
0.363527
0.448210
-0.124484
0.443602
-0.075223
0.272726
0.196848
0.037080
0.160911
0.193456
-0.300336
0.145362
-0.375374
0.454263
-0.111562
0.069044
0.253401
-0.336917
-0.016746
0.361567
0.480117
0.106125
-0.069860
0.320189
0.007390
-0.092552
-0.265788
-0.234503
-0.173687
-0.086989
0.433601
-0.415454
-0.226938
0.530317
-0.406215
0.458883
0.471380
0.367122
0.342811
-0.421888
-0.064633
-0.367306
0.369975
-0.379156
0.102598
0.131173
-0.038663
-0.005946
-0.140644
0.534423
-0.437828
0.125523
0.236535
-0.061160
-0.368469
0.052084
-0.291138
-0.170861
-0.273395
-0.333786
-0.061308
0.022864
-0.198642
0.323991
0.362221
0.533907
-0.356412
0.562973
0.066031
0.100509
0.574044
0.192808
0.497308
-0.372675
-0.432254
-0.455356
-0.308740
0.456898
-0.459630
0.162599
0.525866
0.265902
0.371152
0.217889
0.372205
0.087751
0.217828
0.070424
0.014695
-0.366159
0.443047
0.481974
-0.172222
-0.379824
0.547552
0.146048
0.387703
-0.386330
-0.340154
-0.001413
0.288292
0.375914
-0.088315
0.557791
0.548793
0.133948
-0.279354
0.056033
-0.155815
-0.234747
-0.361394
-0.284688
-0.387332
-0.464753
-0.419505
-0.454408
-0.409053
0.464895
-0.130688
0.174161
0.474405
0.515011
-0.312719
0.295198
-0.395363
0.220421
0.158875
-0.017669
-0.248208
0.022783
0.086199
0.420521
0.492870
-0.299651
0.058277
0.053798
-0.013233
-0.389202
-0.026397
0.393158
0.462571
0.512423
0.116933
0.543710
0.238227
0.102474
0.425447
-0.243190
-0.416777
0.203700
-0.188400
-0.071434
0.025985
-0.041117
0.029366
0.432433
-0.006261
-0.456162
-0.026336
-0.194255
0.407276
-0.087736
0.221405
-0.322101
-0.135765
0.403797
-0.291790
0.087894
-0.109213
0.260656
0.262636
-0.081416
0.395016
0.498364
-0.103177
0.025675
0.321233
0.462375
0.416621
0.379138
-0.148907
0.270876
0.095316
0.100466
0.405049
-0.278026
0.281909
0.306291
-0.199059
0.220917
-0.258811
-0.092903
0.273194
0.266265
0.387384
-0.159058
0.283474
0.290315
-0.097322
0.477505
-0.168746
0.109942
-0.272501
0.225894
-0.029985
-0.394416
-0.264239
0.505844
-0.361860
0.191176
0.375462
-0.021967
-0.337101
0.061530
0.233109
0.076053
0.105948
-0.249147
0.442462
-0.273959
-0.020556
-0.299149
0.216381
0.308779
0.496955
0.336073
0.470410
-0.009679
-0.272816
-0.153898
-0.443258
0.182255
0.424347
0.107242
-0.121928
-0.169084
-0.127233
0.076655
-0.266548
0.040013
-0.103196
-0.141395
-0.348666
0.506841
-0.151068
-0.103685
-0.080359
-0.211912
-0.314881
-0.242415
-0.007147
-0.054126
-0.210465
0.317873
0.212229
0.115588
0.008565
0.145513
-0.147391
0.381959
0.417895
-0.334933
-0.434086
0.448100
0.108308
0.133086
-0.126315
-0.011074
0.269287
0.341027
0.504352
-0.162751
-0.347395
-0.397709
-0.035931
0.066524
0.199281
0.368840
0.231497
0.396417
-0.302251
0.362404
0.417248
-0.295189
0.268980
0.512714
-0.257055
-0.402834
0.500737
0.096667
0.261964
0.117383
-0.270522
-0.226894
-0.172495
0.062560
0.090022
0.400255
0.163265
-0.399542
-0.017334
-0.431501
-0.200786
-0.444845
0.050779
0.489842
0.298315
-0.357999
0.410113
-0.330007
-0.037209
-0.282463
-0.357775
-0.287630
0.166979
0.398291
-0.232760
-0.322356
-0.387766
0.497947
0.434278
0.143123
0.402248
-0.129015
0.333227
-0.331593
-0.265321
-0.263799
0.475851
0.063136
0.297501
-0.345506
-0.478474
0.006310
-0.374308
-0.415687
-0.238076
-0.228372
-0.169506
0.242853
0.424831
-0.494599
-0.025211
-0.428334
0.356984
0.462369
0.038651
0.000930
-0.180709
0.472017
0.255822
-0.212338
0.325771
-0.002446
0.384147
0.058617
0.139071
0.376337
0.516011
0.518040
0.348187
0.269470
-0.284048
0.237575
0.320954
-0.189599
0.425921
0.392248
0.149548
-0.117250
0.477773
-0.455883
-0.248586
-0.349375
-0.173852
0.274316
0.016953
0.117211
0.435340
0.065277
0.061280
0.096033
0.426067
0.093372
0.524895
0.122886
0.325889
-0.148847
-0.207685
-0.259138
-0.433190
0.231987
0.439175
0.505239
0.477657
-0.173161
-0.296705
-0.412834
0.468021
0.115462
0.441786
-0.021755
-0.007025
-0.292788
0.114388
-0.018317
-0.016331
0.426761
0.160899
0.113257
0.328618
-0.105048
-0.374891
0.362396
0.158995
-0.142802
0.161238
0.188899
0.111452
-0.367370
0.285971
0.354286
0.234295
0.204813
0.048366
0.273303
0.003756
-0.050509
-0.088530
0.365025
0.442803
0.386575
-0.074759
-0.012109
-0.349696
0.494012
-0.451688
-0.160734
-0.365619
-0.452107
-0.140526
0.039181
0.387646
-0.292665
0.443074
0.169010
-0.032500
0.330138
0.138456
0.049143
-0.166144
-0.210786
-0.292012
-0.146401
-0.406026
0.187830
0.408318
-0.241995
-0.208527
-0.195601
0.156277
0.034660
0.427083
-0.012577
0.240978
-0.120387
0.207724
-0.295744
0.182850
0.254756
-0.246042
0.304617
0.421984
-0.173831
-0.478370
-0.018695
-0.073404
-0.065830
-0.032485
-0.193235
0.510586
-0.435920
0.374493
-0.187654
-0.173503
0.312244
0.482916
-0.336393
0.500861
-0.214605
0.360470
0.436571
0.385475
0.038472
0.481181
-0.138686
0.063742
0.216007
0.295520
-0.100235
0.368340
-0.257532
-0.322044
0.341179
0.396712
-0.391830
0.157742
-0.478153
-0.009029
0.387362
-0.166310
-0.264202
0.296061
0.109287
-0.264914
0.328748
0.532466
0.484977
0.140447
0.075277
-0.021745
-0.092032
0.086869
-0.064474
-0.197154
0.257090
0.176280
-0.472042
0.104793
0.288080
-0.255553
-0.229872
-0.297365
-0.203930
0.407323
0.070295
-0.331991
-0.142941
0.472114
0.370948
-0.399961
0.385156
-0.321156
0.028317
-0.137412
-0.074973
-0.046278
0.209934
0.287888
0.486334
0.516599
0.546212
0.391651
-0.484924
-0.297021
0.168606
-0.398861
-0.336647
-0.093249
-0.050261
0.314422
-0.348050
-0.086978
0.138220
0.491211
-0.129076
0.090949
-0.012077
-0.108058
-0.049245
0.165136
-0.235012
-0.074922
-0.227837
0.090417
-0.258056
-0.096393
0.336090
-0.216999
-0.140157
-0.077945
0.153049
0.306812
0.217780
0.091020
0.282190
0.376601
0.412979
-0.326726
-0.440233
-0.197234
-0.099332
-0.162289
-0.205786
0.000864
0.372743
-0.225411
-0.369518
-0.525711
0.305187
-0.501348
0.195907
0.225520
0.088972
0.119760
-0.038488
0.092723
-0.129308
-0.108074
-0.257345
0.185212
-0.636741
-0.435094
-0.576753
-0.315363
-0.576251
-0.246061
-0.239678
0.255057
0.307506
0.304780
-0.259066
-0.043845
-0.209424
0.434396
0.177330
-0.242349
0.060553
0.171783
0.007813
0.214839
0.221521
0.059595
-0.083478
0.317389
-0.143382
0.142967
-0.263288
0.171215
0.138253
-0.179466
-0.595867
-0.020030
-0.046410
-1.065638
-0.685838
-0.920712
-0.106769
-0.365644
-0.464872
-0.602017
-0.405194
-0.123784
0.041139
0.088844
-0.594923
-0.155475
-0.072518
-0.800026
-0.496794
-0.046951
-0.530769
-0.029159
0.614171
0.223391
0.469943
0.335578
0.365494
-0.189708
0.129563
0.282591
0.506974
0.235600
-0.456382
-0.307717
-0.585535
-0.225936
-0.654221
-0.617487
-0.500738
-0.427484
0.245953
-0.478520
-0.055971
-0.688750
-0.367859
0.176789
-0.591517
0.250867
-0.603490
-0.106815
-0.303679
0.431558
0.209163
-0.588528
-0.065057
0.399625
-0.117173
-0.104100
0.562606
0.603739
0.480180
0.230803
0.495056
-0.764519
-0.072615
-0.035953
-0.193547
0.012403
-0.331413
-0.567278
-0.029079
0.060821
-0.286092
0.214265
-0.103215
-0.297917
-0.596325
-0.728078
-0.629989
0.071581
0.221228
-0.000486
0.235709
0.300291
-0.267607
-0.050971
0.438283
0.361954
0.156737
-0.154453
0.088131
-0.156928
0.357660
0.537762
-0.071208
-0.324939
0.263524
0.022077
-0.288360
-0.105832
0.077769
-0.277466
0.124972
0.052998
-0.360595
0.052886
-0.107519
-0.221541
-1.029918
-0.403684
-0.637479
-0.233392
-0.233017
-0.320473
-0.030503
-0.161194
0.259399
0.462501
0.411388
-0.269099
0.409778
0.172949
-0.322457
0.320943
-0.422021
0.320504
0.423128
-0.232311
-0.383104
-0.400814
-0.504222
0.227476
-0.173945
0.639780
0.230881
-0.298514
0.208597
-0.628338
-0.015636
-0.426500
-1.091636
-0.843619
0.007186
-0.068772
0.273991
-0.469565
-0.186660
-0.112146
0.764814
-0.105744
0.386396
0.459621
-0.280078
0.204787
0.101031
0.120666
-0.093018
-0.350188
-0.323100
-0.255460
0.067686
-0.495726
0.071239
-0.680782
-0.009668
0.599672
0.838683
0.048182
-0.181728
-0.791590
-0.465125
-0.946853
-0.470415
-1.273843
-0.761489
-0.050622
-0.004659
-0.434162
-0.211346
-0.184377
0.224039
0.019393
0.266174
-0.574079
0.186421
0.040193
-0.646955
0.010089
-0.195536
-0.742890
-0.642088
-0.449689
0.121138
-0.599799
-0.308420
-0.578938
0.325516
-0.328801
-0.110604
0.224733
-0.381679
-0.896743
-0.999079
-1.023933
-0.687507
-1.006766
-0.800617
-0.059094
-0.100824
-0.565181
-0.527141
-0.083667
-0.474655
0.347944
0.249731
0.181590
0.227816
-0.413586
-0.123387
-0.659858
-0.647899
-0.127022
-0.151163
-0.434456
-0.448402
-0.296215
-0.413726
-0.497687
0.718541
-0.567863
-0.445936
0.431324
-0.229666
-0.547686
-1.269529
-0.500894
-0.704285
-0.746850
-0.833861
-0.529550
-0.447533
-0.664467
-0.410716
0.000589
-0.428619
-0.429651
-0.022874
0.313260
-0.211828
-0.704584
-0.931076
-0.001533
-0.671924
-0.427263
-0.155366
-0.071452
0.094238
-0.449475
-0.593202
-0.114345
-0.104403
0.403121
-0.248778
0.157801
0.331853
-0.385304
-0.545941
-0.478985
-0.506597
-0.858978
-0.242105
-0.319570
-0.425589
-0.583589
0.275668
-0.476100
0.342985
-0.061244
0.114489
-0.251884
-0.425052
-0.732957
-0.785209
-0.350077
-0.261631
-0.490576
0.181327
-0.233216
-0.441875
-0.321799
-0.651555
-0.346700
-0.348924
-0.215884
0.417949
0.188991
-0.438848
-0.572411
-0.943348
-0.416660
-1.060846
-0.141866
-0.547702
-0.772061
-1.027205
-0.835271
-0.792783
-0.150576
0.065741
0.300363
0.049384
0.196811
-0.059651
-0.803894
-0.800114
-0.121309
-0.137868
0.168608
-0.708478
0.099814
-0.544543
-0.009712
-0.462556
-0.141802
0.273520
0.425153
-0.080279
0.220312
-0.339460
-0.522253
-0.684069
-0.782520
-0.634022
-0.154775
-0.489268
-0.906653
-0.547718
-0.885650
-0.165390
-0.143246
0.150820
-0.190726
0.351554
0.253054
-0.406400
-0.156668
-0.115122
-0.576110
-0.732058
-0.249791
-0.726896
-0.813666
0.212044
-0.617517
-0.238444
-0.292032
0.621247
-0.203506
-0.045540
0.091333
0.101129
-0.328207
-0.022214
-0.193311
-0.717605
0.003263
-0.792175
-0.105349
-0.851377
-0.503155
-0.205688
0.136701
-0.624368
-0.307960
-0.093671
-0.464479
0.096808
-0.683570
0.060194
-0.074368
-0.169962
-0.651682
-0.629677
0.377151
-0.330571
0.304240
0.305068
-0.540881
-0.134686
-0.068891
0.525361
0.843076
0.267759
0.463967
0.023789
0.534623
-0.068693
-0.020329
-0.525565
-0.538745
-0.498757
-0.867408
-0.939252
-0.535698
-0.401488
-0.343544
-0.155121
-0.707098
-0.161416
-0.678301
-0.126908
0.170594
-0.271846
-0.226155
-0.121691
-0.245087
-0.010825
0.059048
-0.119154
-0.372451
-0.108789
-0.042525
-0.159665
0.518335
0.233057
0.172869
0.568989
-0.088319
-0.135751
-0.329291
-0.167942
-0.028615
-0.068050
-0.739237
-0.149440
-0.096211
0.111062
-0.354705
0.138180
-0.181291
-0.122978
0.280168
-0.103316
-0.141215
0.288214
0.205146
0.220197
0.316915
0.091683
-0.184917
-0.306389
0.313005
0.452094
0.292063
0.382592
0.283028
-0.030609
0.854824
0.574406
1.169156
0.362333
0.273430
-0.438794
0.284844
0.139912
-0.507665
-0.084976
-0.785272
-0.237591
0.265021
0.357946
0.087222
0.147693
-0.405608
-0.257782
0.379253
-0.266416
0.257008
-0.445276
-0.395100
-0.006652
0.022258
-0.160092
-0.165427
0.081069
-0.306152
-0.374892
0.546809
-0.194464
0.225071
0.268704
0.266685
0.937378
-0.083083
-0.086890
-0.274408
-0.313875
-0.106912
-0.276740
0.195468
-0.549768
-0.344591
-0.048944
-0.163154
0.334776
0.016759
0.353537
-0.528847
0.154940
0.305172
0.153408
0.314449
-0.347909
0.491206
0.529734
-0.030834
-0.391324
-0.116057
0.018893
0.238121
0.194370
0.608275
0.167601
0.935602
0.336726
0.303326
0.456968
-0.110135
-0.374092
0.169315
-0.112986
0.185729
-0.650999
-0.114377
0.099743
-0.400858
-0.033653
0.010653
0.384808
-0.358830
-0.662609
0.404328
-0.217595
0.032849
-0.210164
0.233733
0.365036
-0.605951
0.089530
-0.325280
-0.920379
-0.014945
-0.292559
-0.244572
0.757049
0.574612
0.388689
-0.120539
0.037575
0.443231
0.100707
-0.501568
-0.162355
-0.385239
-0.592370
0.419716
-0.505060
0.216458
-0.294478
-0.250156
0.085901
-0.450076
-0.486085
-0.007105
-0.548763
-0.352858
0.246080
0.250521
-0.257430
0.176280
-0.353264
-0.632693
-0.542004
-0.698038
0.233034
0.060185
0.737730
0.402684
0.443538
0.384892
0.178888
0.355967
-0.191583
-0.383680
0.182830
-0.517423
-0.595580
-0.130447
0.198614
-0.307148
0.156112
0.462220
0.414496
-0.054459
-0.787191
0.245415
-0.336674
-0.229849
0.051358
0.385009
0.007086
-0.505401
-0.622301
-0.228563
-1.329060
-0.894691
-0.108916
0.021900
0.176306
0.351477
0.505418
0.616274
0.211646
0.296630
-0.367308
-0.280180
-0.105454
-0.293810
0.319286
0.095908
-0.150130
-0.405949
-0.096270
0.468916
-0.532514
-0.051713
-0.202336
-0.236040
0.304500
0.193722
-0.285480
0.114836
0.127947
-0.590960
-0.131977
-0.594398
-0.830223
-0.442816
-0.150522
0.382209
0.539892
0.779945
0.730699
-0.262935
0.322448
0.283689
0.356316
0.127912
-0.313236
-0.180030
-0.177527
-0.359452
-0.286393
-0.560956
-0.095573
0.197855
-0.152679
-0.149752
-0.006205
0.069486
-0.222191
0.020197
0.540976
0.500699
0.337550
-0.522559
-1.103693
0.019376
-0.726650
-0.004238
0.317113
0.725380
0.661025
0.400125
0.790440
-0.176843
-0.038048
0.568763
-0.384779
0.167018
-0.091164
0.145768
-0.519708
0.080885
0.028189
0.161977
0.233461
-0.085896
-0.106234
0.055042
-0.728333
0.187756
-0.416580
0.216869
0.652866
0.491561
-0.151399
-0.317213
-1.226709
-0.239992
-0.416993
-0.397367
0.086791
0.413447
-0.248989
0.583702
0.790159
0.588859
0.311566
0.205451
0.691615
0.236254
-0.374296
0.282953
-0.452343
0.075723
0.059779
-0.407515
-0.176939
0.467383
0.140550
-0.215939
0.294156
0.027446
-0.615269
0.382770
0.785105
0.597406
0.280645
-0.529195
-0.875784
-0.545078
-0.558929
-0.938156
-0.552278
-0.291105
-0.385344
0.458560
0.587890
-0.196516
0.204208
0.326072
0.059432
0.666554
-0.042234
0.247493
-0.209771
-0.379745
0.476065
-0.245942
-0.262376
0.625834
0.033579
0.330353
-0.210631
0.636408
0.552418
0.533258
-0.005086
0.241693
0.155722
-0.734067
-0.921761
-0.767228
-0.283320
-0.027759
0.214413
-0.085189
-0.204866
0.164493
0.183878
0.343762
0.301506
0.174797
0.252182
0.234199
-0.246186
0.114184
-0.072182
-0.110136
0.700342
0.429721
0.607254
0.565163
-0.090071
0.056268
0.297692
0.414887
0.666595
-0.126932
0.105695
0.841288
0.190425
-0.166968
-0.460345
0.023357
-0.572372
-0.626274
-0.621047
0.013153
0.068254
0.638695
0.323479
0.641845
0.845456
0.230023
0.609150
0.246678
0.030681
0.005463
0.600137
0.157367
0.436196
0.209565
-0.180990
0.478128
-0.001296
0.464988
0.534812
-0.112081
0.013766
0.837978
-0.197935
0.555042
-0.157079
-0.339766
-0.145372
-0.723854
-0.943551
-0.551701
-0.640114
-0.528914
0.185561
0.280857
-0.341029
0.453629
0.147699
0.788256
1.088873
0.183479
0.191515
0.181938
0.847010
-0.141270
-0.053994
0.536103
0.253345
0.458410
-0.021138
0.992410
0.691045
-0.314798
0.435947
0.412690
0.636743
0.574993
0.359758
-0.104332
-0.609400
-0.251177
-0.153864
-0.721725
0.111850
-0.327836
-0.410441
-0.388480
0.011841
0.173069
0.694074
0.204912
0.578241
0.556880
0.056267
0.803933
0.166449
0.537289
0.020982
-0.167961
-0.001930
0.361971
0.629386
0.528856
0.264314
0.457761
-0.680682
0.424268
-0.291765
-0.250452
0.027888
-0.273340
0.104747
-0.641396
-0.883073
-0.002527
-0.428694
-0.375255
0.361258
-0.016331
0.293752
0.903292
0.872620
0.486329
0.928639
0.121067
0.365810
0.467435
0.068563
0.016083
0.404638
-0.113864
0.209999
-0.103807
-0.125645
0.248138
-0.431465
-0.273172
-0.659451
-0.388815
0.122756
-0.261201
-0.264044
-0.043709
0.014790
-0.098665
-0.782945
-0.366048
-0.376668
0.117877
-0.498523
0.116387
0.179252
0.141673
-0.181304
0.429793
0.153660
0.395672
0.429601
0.454303
-0.189220
0.312594
-0.405009
0.379311
-0.191065
-0.252159
-0.540502
0.218542
0.430910
-0.439340
-0.100100
-0.536224
-0.021280
-0.383873
0.125998
0.029845
-0.144802
-0.078444
-0.136041
-0.083690
-0.186144
0.543610
0.142614
-0.022323
-0.221736
-0.258198
0.157289
0.009680
0.379313
-0.251848
0.562091
0.046541
0.356626
0.378507
1.126137
-0.273741
-0.136316
-0.331961
0.490993
0.124297
-0.291418
-0.546890
-0.310631
-0.074474
-0.416330
-0.956379
-1.341854
-0.583577
-0.294039
-0.146850
0.098930
0.100118
0.239372
0.762292
-0.079194
0.692894
0.221426
-0.149666
0.821016
0.523304
0.202307
-0.193221
0.113962
0.224686
0.550915
-0.120212
-0.349260
0.090815
0.305080
-0.624869
-0.186527
0.662381
0.438841
-0.320766
0.199392
-0.431541
-0.505835
-1.020304
-0.829589
-1.535500
-1.168421
-0.528930
0.114720
0.053603
-0.431253
0.353838
0.096417
-0.056868
0.369201
0.394693
0.925691
0.527056
-0.112009
-0.205390
0.745709
-0.290494
0.625528
0.596916
-0.294825
-0.350204
0.266995
0.327241
0.193016
0.048958
0.401362
-0.720640
-0.641082
-0.057482
0.010949
-0.422456
-0.122427
-0.408653
0.040662
-0.279322
-0.308565
0.290270
0.604474
0.052182
0.028294
0.049053
0.865776
0.812320
1.313950
0.738409
0.555506
0.464766
1.081132
0.757615
0.182781
0.067585
0.430363
-0.225417
-0.333053
-0.195474
-0.195644
0.372679
0.497683
-0.254723
-0.226176
-0.439627
-0.180298
-0.250572
0.415925
-0.294286
0.016145
-0.259006
0.454891
0.041182
-0.679905
-0.709516
-0.044422
-0.549046
0.142575
0.039344
0.661694
0.038980
0.247444
0.330842
0.114612
0.661966
0.313583
0.069186
-0.462005
-0.165097
-0.466714
-0.502107
-0.531886
0.084448
-0.340141
-0.301740
-0.090555
0.296205
-0.476202
-0.135005
0.388878
-0.371085
0.034679
-0.252822
0.263593
-0.266644
-0.854263
-1.249453
-0.670245
-0.646993
0.002501
-0.581753
0.383646
0.209624
0.434119
-0.091998
0.722557
0.412333
0.008212
-0.314290
-0.870245
-0.354922
0.159016
-0.690908
-0.327468
0.402528
0.327171
-0.691124
-0.465602
0.182297
0.157459
-0.220707
-0.466085
-0.357485
0.241644
-0.279411
0.331622
-0.918079
-0.918071
-1.259927
-1.776467
-1.579981
-0.726346
-0.996252
-0.675617
-0.434881
0.110235
-0.523493
-0.286200
0.856198
0.086049
0.277086
-0.399149
0.026327
0.123179
-0.277669
0.206857
0.255120
0.630445
0.059776
-0.185279
-0.069374
0.593899
-0.410592
0.042854
0.367492
0.114432
-0.315574
0.164979
-0.369951
-1.401176
-1.854855
-1.846645
-1.991022
-1.295156
-1.001420
0.037845
-0.043531
-0.072261
0.286824
-0.333480
0.399652
0.086560
0.427679
-0.649581
0.484883
-0.219829
-0.445182
-0.403139
-0.304859
0.245724
0.100161
-0.069135
-0.025427
0.237416
0.112542
0.447614
0.214331
0.766389
-0.715506
-0.091038
-1.176719
-0.471447
-1.967730
-1.792971
-1.719539
-0.693278
-0.819311
-0.649317
-0.668306
-0.071263
0.057289
0.554173
-0.529180
-0.237688
-0.368146
0.362140
-0.132458
0.436254
0.061104
0.004440
0.531553
0.170630
0.799966
-0.205076
0.098634
0.485307
-0.319252
0.723306
0.256998
0.030378
0.164429
0.588042
-0.401334
0.378055
-0.451211
0.195918
-0.616369
0.287110
0.128988
-0.968668
-0.465259
0.194634
-0.000092
-0.388520
-0.208872
-0.436636
-0.393016
0.075412
0.279188
-0.189786
0.314144
0.170128
0.680607
0.329016
0.579792
0.523679
-0.001782
-0.275259
0.041555
0.079963
0.478281
0.032511
0.095517
0.501102
0.853873
0.940031
0.278078
-0.346379
-0.265507
0.346390
-0.021738
-0.317885
0.069127
0.127168
-0.833707
0.174649
-0.455047
-0.116188
-0.091845
0.116901
-0.165982
0.411604
0.347190
0.129990
0.706132
0.259435
0.299489
0.655381
0.422682
-0.211701
0.087759
0.527923
0.843676
0.790354
0.730638
0.598122
0.767044
1.345354
1.104877
0.973870
0.299904
0.525309
0.697971
0.081471
0.195173
-0.463722
-0.658385
-0.087138
-0.110164
0.218832
0.320879
0.029145
-0.296322
0.138593
-0.053612
-0.106949
0.322112
0.887116
0.662661
0.313262
0.323860
0.460424
0.024691
1.020198
0.430606
1.173987
1.354151
1.484410
1.393618
1.195632
1.091047
0.937177
1.283380
0.578614
0.460258
0.211278
0.064791
-0.076626
-0.320389
-0.357284
-0.098318
0.183451
0.096879
0.350468
0.258945
0.060258
-0.067940
0.890408
0.160397
0.754400
0.804302
0.259685
0.115886
0.625656
0.336613
0.671866
0.036694
0.256258
0.911185
0.743878
0.605852
0.865392
0.496823
1.183554
0.992517
0.796964
0.386271
0.129732
-0.193214
-0.422484
-0.007870
-0.707143
-0.392639
0.052240
-0.575464
-0.152300
0.307037
-0.029150
0.544335
-0.072913
0.264862
0.480963
0.262912
0.709199
-0.173236
0.494329
-0.450693
0.287719
0.382667
0.229144
0.801793
-0.039924
0.599827
0.762938
0.280326
0.974816
0.522858
0.126094
-0.453795
-0.295297
-0.335254
-0.079287
-0.512241
0.205547
-0.542002
0.179957
-0.045689
-0.691663
-0.011680
0.393246
0.555549
0.031413
0.180961
0.956392
0.393883
-0.119883
-0.262637
0.324656
0.034241
0.560370
0.160084
0.287211
-0.315490
-0.147899
0.690075
0.132986
0.065045
0.229333
0.453826
-0.021634
-0.518648
0.065148
0.281901
-0.129305
-0.539455
0.017085
-0.313061
0.188934
-0.140364
-0.131830
0.428918
0.144752
0.444712
0.392601
0.514795
0.862236
0.627818
-0.396922
-0.244283
-0.337568
-0.183622
-0.711278
-0.230351
0.227471
-0.539950
0.066954
0.487063
-0.028464
0.021416
-0.193860
0.144991
-0.638415
-0.352013
0.007486
-0.069673
-0.610283
0.073600
-0.177129
-0.384729
-0.336368
-0.224223
-0.466444
0.026740
0.459805
0.605411
0.762749
0.650148
0.303042
0.534127
0.317880
-0.089116
-0.211146
-0.305675
-0.716855
0.273882
-0.378740
-0.407580
0.348070
-0.443949
-0.120680
0.130440
-0.251466
0.322721
-0.377473
-0.091553
0.371062
0.162187
-0.087039
0.369686
-0.097304
-0.508660
0.566965
-0.113990
-0.343000
0.455716
0.255730
0.206137
0.360781
0.320213
0.289968
0.617712
-0.331340
0.158338
0.077120
-0.514217
-0.865815
-0.122517
-0.451260
-0.353517
-0.285783
-0.465317
-0.274816
-0.236408
0.444429
0.118113
0.067702
-0.223166
-0.418348
0.101381
-0.544950
0.174272
-0.113889
-0.245760
-0.168780
0.397797
0.086691
-0.416175
0.637339
0.365621
0.519351
0.749882
0.903971
0.110381
0.414171
0.713322
-0.484623
-0.679484
-0.054110
-0.280894
-0.172270
-0.404100
-0.276094
-0.141484
-0.330637
-0.103142
0.101493
0.205374
-0.009227
0.544125
-0.039219
0.418431
0.237874
0.840214
0.784266
-0.168390
0.458941
0.303803
0.005677
0.411344
0.499890
0.206615
0.461661
0.470408
1.047800
0.311109
0.302466
0.502012
0.052047
-0.601002
0.285241
0.277999
-0.072570
-0.548850
-0.481544
-0.726572
0.216182
-0.170508
0.236835
0.065872
-0.492155
0.315485
-0.473703
-0.075232
0.942127
0.659111
0.496914
-0.244683
-0.029921
-0.159095
0.247814
0.107448
0.223686
0.370705
-0.058154
0.416189
0.743006
0.847850
-0.024448
-0.165143
-0.048262
0.332790
0.067532
0.027317
-0.296506
-0.061265
0.052961
-0.371996
0.538080
0.064425
-0.391036
-0.063781
-0.312313
0.411172
0.444273
-0.026402
0.174871
0.578532
0.056705
0.386166
0.225952
0.090162
-0.202235
-0.058711
-0.258375
-0.009853
0.223169
0.256809
1.024753
0.154505
0.031356
0.267142
-0.222696
0.417015
0.062910
0.109670
0.001866
0.391269
0.094510
0.360231
-0.340992
-0.228464
0.148973
-0.469457
0.014122
0.166906
-0.344531
-0.277265
0.264393
0.490579
-0.403501
0.419632
0.483738
-0.496911
0.215353
0.099557
-0.049840
0.096795
-0.021491
-0.020519
1.001937
0.460007
0.227442
-0.115494
0.248965
-0.003968
0.778880
0.100789
-0.032531
0.215246
-0.118499
0.213063
-0.159439
-0.179751
-0.175761
0.032960
-0.119662
0.051934
0.464195
0.324721
0.858113
0.142669
0.339443
0.381956
-0.346933
0.260751
-0.574789
0.307750
0.474286
0.213195
-0.416430
-0.277251
0.625147
0.330855
0.018194
0.511534
1.053149
0.346775
0.853727
0.824419
0.175547
-0.245405
-0.540594
0.140805
-0.037364
-0.109025
-0.628184
0.203929
0.492878
0.306221
0.582100
0.729682
-0.065643
0.100760
-0.112161
0.179071
-0.449662
0.268784
-0.353010
-0.011230
-0.259878
-0.368305
-0.180514
-0.973862
0.046284
-0.178695
-0.493108
0.472430
-0.062945
0.649443
1.110170
0.795735
0.523915
0.587567
0.331542
-0.142131
-0.742903
-0.427360
-0.660919
-0.131406
0.249181
-0.090772
0.053163
0.312234
-0.410327
-0.099116
-1.047615
-0.187326
-0.433529
-0.581990
0.378015
-0.135600
0.194874
-0.118185
-0.321260
-0.477120
-0.289500
-0.233369
-0.759118
-0.276478
-0.310737
0.733197
0.847843
0.180944
0.147247
0.259051
0.015663
0.067419
-0.230932
-0.585874
-0.001310
-0.357433
-0.171228
-0.286078
0.465504
0.148377
-0.553478
-0.782887
-0.640751
-0.017018
0.074484
0.098758
0.078412
-0.238133
-0.081692
-0.548329
-0.690545
-0.946472
-0.895654
-0.820438
-0.239772
-0.067314
-0.140456
0.389562
0.123831
0.586817
0.316784
0.445008
-0.266461
-0.395620
-0.353743
-0.564021
-0.226447
0.287105
0.043549
0.343614
0.020095
-0.049786
-0.537256
-0.019465
-0.604935
-1.138776
-0.926513
-0.270336
0.124140
-0.280628
-0.069599
-0.867025
-0.698342
-0.416983
-0.680260
-0.578107
-0.902523
-0.041237
0.062248
0.405664
0.258307
0.616547
0.664342
-0.470198
0.114406
0.256912
-0.421570
0.054016
0.906988
0.263047
0.019002
-0.140794
0.151323
-0.232616
0.081198
-0.880391
-0.748893
0.070487
-0.338885
-0.350783
-0.339405
-0.083590
-0.586652
-1.064214
-1.193923
-1.424559
-0.881826
-1.792361
-1.024028
-0.399464
-0.676809
0.162359
-0.023990
-0.096528
0.505460
0.438559
0.159785
-0.179594
0.411103
-0.363824
0.280719
0.426531
-0.001339
-0.048990
-0.282829
-0.037643
-0.418572
-1.058285
-0.275218
-0.933242
-0.588225
-0.359436
0.109190
-0.403903
-0.804456
-0.717383
-0.788475
-1.279482
-1.884516
-2.302889
-1.814882
-0.857000
-0.853490
0.248534
0.063023
-0.185681
-0.106783
-0.233949
0.540050
-0.154535
0.141389
0.111210
-0.102967
0.299359
0.408536
-0.095005
-0.544344
-0.693383
-0.008626
-0.677489
-0.497465
-0.796173
-0.337132
0.254918
-0.389491
-0.254767
-0.860301
-0.415476
-0.730319
-1.070550
-1.570254
-1.662054
-1.422558
-0.802415
-0.245280
-0.193265
-0.473736
0.066476
-0.449197
0.393307
0.160041
0.434276
-0.046270
0.463296
0.554982
0.342807
0.838279
0.456777
-0.235947
-0.288165
-0.715882
-0.112801
-0.285186
-0.408707
-0.814453
-0.018175
0.086621
0.027965
-0.153876
-0.888819
-0.275944
-0.961250
-1.202860
-1.938742
-1.911124
-1.740246
-1.161763
-0.423689
-0.921866
-0.639840
0.211035
-0.133559
-0.662926
-0.123538
0.600853
0.667617
0.386865
0.091821
0.713009
0.200278
0.049605
-0.501634
-0.664344
-0.730606
-0.126835
-0.639561
-0.476892
-0.727704
-0.265715
0.461539
-0.198640
0.121341
0.475183
-0.107403
-0.065574
-0.457242
0.169388
-0.524190
-0.235426
-0.575175
-0.497084
-0.365253
0.127956
-0.175263
0.391335
-0.001893
0.343126
-0.387909
-0.336658
0.265816
-0.127633
0.575056
0.041170
0.645547
-0.092728
-0.053410
0.473337
-0.318194
0.505304
0.090058
-0.290102
0.443435
-0.421732
0.229149
0.434523
0.234374
0.193151
0.145246
0.382183
-0.222359
0.216270
-0.723278
-0.122601
-0.649076
-0.297259
0.105620
0.211160
0.160974
-0.203993
-0.208921
-0.267197
0.179726
-0.304196
0.000027
0.356797
0.545045
0.205097
0.176822
-0.071973
0.138319
0.299633
0.586120
-0.123208
-0.158160
0.040635
0.199836
0.497409
0.468390
0.415802
0.114832
-0.210111
-0.191726
-0.518895
-0.529329
-0.030091
0.448380
0.654900
0.309686
-0.597927
0.228160
-0.323313
0.630936
0.414505
0.725584
0.545098
-0.145281
-0.256300
0.036983
0.367936
0.421990
0.179736
0.193626
-0.239791
0.208037
-0.354059
0.557353
-0.164043
0.377283
0.311375
-0.108112
0.330088
0.421745
0.133811
0.158636
-0.137712
-0.012510
-0.113381
0.115659
0.428073
0.258876
-0.041014
-0.122269
0.640334
0.425113
0.079862
0.442949
-0.054031
0.279823
0.292839
0.093915
0.189433
0.549336
-0.048272
0.719575
-0.157860
0.473020
0.004800
0.120584
-0.148933
0.140188
0.540614
-0.129245
0.383042
0.699202
0.892550
0.242799
0.227543
0.468679
0.046476
-0.090519
0.213639
-0.057678
-0.300538
0.654390
-0.016641
-0.245696
0.418247
-0.298644
-0.514246
0.409111
0.492299
0.509645
0.653077
0.652725
0.332066
0.202416
0.754341
0.377579
0.305176
0.028065
-0.268689
-0.189098
0.551529
0.508122
-0.126484
0.466214
0.681686
0.223218
-0.042272
0.170610
0.834903
0.362947
0.742171
0.130347
-0.062217
0.474532
0.657132
0.856322
0.204751
0.012218
0.460858
0.652878
0.568391
0.081434
0.781416
0.411184
-0.020468
0.729345
0.653776
0.059737
0.084924
0.302485
0.412097
0.483286
0.315878
0.144114
0.582565
0.578953
0.050822
-0.096547
0.533390
0.690736
0.410763
-0.109983
0.397576
0.395451
0.552780
0.707908
0.369423
0.523113
0.335631
0.161603
0.930333
0.030930
0.582396
0.521232
0.169183
-0.087270
0.573235
0.271757
0.876336
0.074627
0.509404
0.405337
0.216706
-0.362614
0.130034
0.104720
-0.042618
-0.161689
0.115197
0.571323
-0.114670
0.327255
0.467699
0.219855
-0.150160
0.419608
0.594402
0.750749
-0.084200
-0.278600
0.416993
-0.305304
-0.151601
-0.093458
0.529823
0.199773
0.043182
0.494700
0.137921
0.491276
0.299610
0.219600
-0.247420
-0.310065
-0.233202
0.230324
-0.227412
0.315027
0.741124
-0.093903
0.300907
0.384391
0.420566
-0.265243
-0.398836
-0.146043
-0.178347
0.315635
0.164197
0.757381
0.485394
0.592184
-0.197370
0.098871
-0.324811
-0.080024
0.503000
0.068607
0.229872
0.303684
0.686855
0.589213
0.471883
0.694119
-0.317300
0.360082
-0.294526
0.307225
-0.196879
0.437382
0.412121
-0.249418
-0.128622
0.324747
0.365850
-0.468604
0.327493
0.178015
0.187586
0.406258
0.339052
0.668041
0.325092
0.310518
0.379701
-0.320171
-0.349099
-0.185807
0.072495
0.626950
0.484407
-0.351426
-0.098725
0.540073
-0.093575
-0.228577
0.179652
-0.293590
0.282762
-0.271321
0.501141
0.330942
-0.182536
-0.025481
0.032602
0.344600
0.099476
-0.291396
-0.818795
-0.637900
0.342032
-0.230038
0.464351
-0.245342
0.080190
0.173225
-0.423157
-0.395842
-0.645693
-0.306133
-0.274460
-0.539895
-0.108088
0.278213
-0.072975
0.365306
0.118202
-0.213640
0.517477
0.187665
0.293715
0.447079
0.021195
-0.120018
0.198493
-0.063292
-0.030911
0.192084
-0.513268
-0.532488
-0.324908
-0.387565
0.319349
-0.067351
0.192317
0.297221
0.514308
0.424871
0.036502
-0.575667
-0.384184
-0.491808
-0.382398
0.080397
-0.663567
0.173337
0.086963
0.204896
-0.250635
0.308703
-0.381114
-0.282975
-0.099198
-0.062861
-0.146409
0.639133
0.572975
0.013475
0.679936
0.155728
-0.465410
0.038318
0.251515
-0.175778
0.142141
0.622036
-0.318894
-0.299368
0.066946
-0.341893
0.164972
-0.595817
-0.269124
-0.591744
-0.994640
-0.434063
-0.343755
-0.209370
-0.382407
-0.383995
0.460004
0.418084
-0.398989
0.096189
-0.320844
-0.071616
0.277040
0.240045
-0.041701
0.160025
0.083214
-0.191176
0.438524
0.436773
-0.546753
0.385084
-0.314719
0.561406
0.291884
-0.397626
0.604321
-0.363597
-0.060269
-0.101477
-0.452609
-0.662592
-0.458013
0.244652
-0.019617
0.045391
-0.180554
-0.003672
0.369776
0.503879
-0.071012
0.134262
0.299709
0.337728
0.381992
0.108918
0.649821
0.013807
0.167764
0.696625
0.376799
0.013548
-0.163172
-0.256229
-0.321393
-0.142318
0.202623
0.229107
0.341780
-0.240034
-0.632801
-0.105535
-0.126586
0.120698
-0.587031
-0.723336
0.055583
-0.144645
-0.174122
0.519125
-0.301844
-0.024695
0.028032
-0.232082
0.524641
-0.256892
0.034306
-0.163286
0.640599
-0.275542
0.480873
0.733912
0.052456
0.813595
0.122572
0.466718
0.553412
0.486961
0.189481
-0.380338
-0.030415
0.020987
0.117727
-0.561696
-0.712763
-0.371791
-0.630744
0.125107
0.205363
0.115429
-0.344797
-0.021760
0.211268
-0.221698
0.332927
0.183605
-0.284206
0.152017
0.090784
0.101496
0.589216
0.487228
0.617228
-0.055591
0.889924
0.427537
0.097144
-0.002049
-0.320320
-0.361342
-0.012073
-0.476854
-0.137913
-0.138221
-0.504128
-0.277443
-0.196106
-0.474267
0.159527
-0.045333
0.118095
-0.356379
0.342497
0.041131
0.305917
-0.112545
-0.178949
0.043896
-0.442695
0.455230
0.302656
0.709143
0.526169
0.323617
0.882404
0.460546
0.353349
0.738386
-0.062252
0.088775
-0.088691
-0.039144
-0.147737
0.054947
0.278384
-0.094602
0.261231
-0.080995
-0.191395
-0.256441
-0.332271
-0.401197
0.277548
-0.176389
0.452865
-0.221179
-0.220474
-0.083229
0.144900
0.038784
0.301480
0.337292
0.099971
-0.171205
0.661772
-0.193936
0.385951
0.100476
0.799001
0.772894
-0.015257
0.348295
-0.228863
0.012339
-0.551645
0.233259
-0.609902
-0.196290
-0.504480
0.017094
-0.413365
0.373816
0.464206
0.160484
0.506529
-0.039764
-0.065203
0.026900
-0.140632
0.147626
0.259398
0.216329
-0.264841
-0.251347
0.521933
0.529704
-0.166170
0.449002
0.103869
-0.046573
0.098953
0.244875
0.573647
-0.268132
-0.220546
-0.458009
-0.409624
-0.214299
-0.504735
-0.686513
-0.301158
-0.461472
-0.437071
-0.610214
0.380417
-0.138444
-0.115395
0.468836
-0.022107
-0.061490
-0.125364
-0.326932
0.364036
0.046276
-0.441704
-0.348229
-0.317889
0.241119
0.080404
0.640636
0.805740
0.804213
0.241351
0.567477
0.665303
-0.275805
-0.190663
-0.697522
0.124137
-0.434356
-0.464284
-0.564464
0.224067
0.450710
0.052108
-0.137970
0.429089
0.065906
-0.018138
0.137630
-0.265603
0.400962
0.151366
-0.117715
-0.115055
0.006226
0.054594
0.165663
0.267699
0.292982
-0.223914
0.407803
0.004208
-0.069001
-0.030182
-0.082588
0.704598
0.401022
-0.467192
0.158348
-0.009162
-0.498890
-0.236281
-0.551704
-0.353333
0.083125
0.244995
0.768650
0.112667
0.132897
0.268018
-0.519851
-0.450767
-0.107829
-0.309554
-0.204749
-0.032992
0.165562
0.016814
0.336844
0.302758
0.347763
0.086577
0.259804
0.278791
0.530548
0.082986
0.319502
0.674293
0.169194
0.417400
-0.000223
-0.008702
-0.058373
-0.099715
0.030674
0.194363
0.242648
0.388325
0.058895
0.179504
0.069215
-0.310207
-0.419048
-0.196185
0.193744
-0.009581
-0.391623
0.318623
0.075217
0.350790
-0.268482
-0.222191
0.602157
0.323252
-0.279610
0.443237
0.540948
0.138170
-0.174446
0.291519
0.076875
0.667565
-0.044649
-0.288239
0.004224
-0.617575
-0.471166
0.504873
-0.037515
0.682387
0.433487
-0.192536
0.091656
0.531862
-0.090269
0.352466
0.191446
-0.099876
0.095275
-0.437874
-0.471935
-0.353712
0.426531
-0.268055
0.278361
0.725168
0.260599
0.659640
0.488908
-0.078819
0.615806
0.000498
0.016778
0.706086
-0.208051
0.163762
0.444297
0.032285
-0.511855
-0.199688
0.608640
0.650836
0.582262
0.439020
0.333314
-0.130703
0.313014
0.385325
0.399103
-0.328594
-0.182943
0.355306
0.052747
0.342777
0.285367
0.458608
0.369047
0.550550
0.179026
0.448904
0.665961
-0.123629
-0.077843
0.177699
0.500198
-0.008917
0.509431
0.023839
0.489405
0.347213
0.057825
0.444420
0.245393
0.594122
0.498506
0.482904
0.407594
0.133230
-0.221597
-0.322242
0.367409
-0.577855
0.392534
0.010769
-0.233476
0.243660
-0.115214
-0.203834
0.685866
0.736615
0.304771
0.043237
0.706055
0.584995
0.192184
0.556545
0.532408
0.864665
0.652937
0.596314
-0.050201
0.238296
0.531099
0.690953
0.023632
0.094553
-0.005076
0.456427
0.272307
0.311606
0.346220
-0.279886
-0.281755
0.052122
0.074800
0.231041
-0.242150
0.464834
-0.200197
0.031695
-0.120819
-0.242567
0.240317
-0.041039
0.022573
0.138443
0.161029
0.251299
0.007855
0.080802
0.853242
0.779229
0.543214
0.496298
0.196429
0.712331
0.650920
0.143611
-0.258777
0.305825
0.588462
0.105112
0.354166
0.047913
-0.021762
-0.381986
0.289184
-0.056953
-0.389657
0.270879
-0.102528
0.175795
0.322027
0.338958
-0.530273
0.016584
0.153855
0.453368
0.178138
0.424806
0.121188
0.598319
0.605110
0.646686
0.166057
0.895843
0.465926
0.447224
0.314255
0.498950
0.285902
-0.240033
-0.052946
0.150546
0.146939
0.739460
0.270933
0.382182
0.025049
0.177644
0.138139
-0.106561
-0.275531
-0.133542
-0.411280
-0.380239
-0.609516
-0.729257
0.234048
-0.235084
-0.098436
0.704596
0.258541
0.932955
0.521188
0.565177
0.613314
0.374232
-0.054903
-0.177116
0.511841
0.043163
0.348363
0.561107
0.114122
0.385075
0.510638
0.552028
0.173807
-0.370231
-0.067521
-0.492632
0.303371
0.350637
0.009313
-0.501405
0.088330
-0.152564
-0.451959
-0.580344
-0.590623
0.114682
0.463514
-0.370309
0.365594
0.430542
-0.048643
0.638895
0.528278
-0.146800
-0.016769
0.742903
0.618475
0.101585
-0.052588
0.356629
-0.417792
-0.107068
0.582896
0.142330
0.293989
0.458099
-0.278655
-0.537943
0.010132
0.224483
0.253119
0.047868
-0.011533
0.086737
-0.051220
-0.776597
0.139250
0.280819
-0.063903
-0.384204
0.266147
0.437373
-0.033255
0.567094
0.743325
0.789058
0.364106
0.305482
0.116134
0.315942
-0.240932
0.091896
0.182295
0.376214
0.085409
-0.288452
0.291857
0.369543
-0.249371
-0.263251
-0.034127
-0.005358
-0.152375
-0.077444
0.440785
0.246825
0.411154
-0.269231
1.114463
0.898048
0.317922
0.626107
0.510254
0.763863
1.037712
-0.103473
-0.036688
-0.043256
-0.798637
-0.673372
-0.289923
-0.326565
-1.064201
-0.733799
-1.271761
-0.930217
-1.213825
-1.150510
-0.920170
-0.473991
-0.094777
-0.675189
0.205240
0.131667
0.485206
0.552541
0.017149
0.158369
0.211104
-0.036780
0.796654
0.282264
1.007312
1.115962
0.586966
0.889668
0.539193
0.336745
0.343000
-0.316792
-0.210661
-0.880571
-0.204850
-1.071767
-1.122216
-0.737906
-1.409362
-0.769678
-0.328088
-1.001049
-1.128916
-1.265026
-0.393884
-0.480157
-0.033530
-0.434109
-0.231455
-0.061930
0.328000
0.187255
0.243623
0.464272
0.574276
-0.006565
0.294267
0.670688
-0.382663
-0.348764
-0.611502
-0.147531
-0.734508
-1.221429
-1.468996
-1.354560
-1.008805
-0.663166
-0.445011
-0.400393
-0.743060
-1.237600
-1.235534
-0.797434
-0.593208
-0.756395
-0.572006
-0.310303
-0.373424
0.055649
0.253363
-0.235167
0.374514
0.139845
-0.553987
0.383472
0.861726
-0.293779
0.376548
0.058411
0.430469
-0.583897
-0.313605
-0.614584
-1.499966
-1.048779
-1.105990
-0.957858
-0.872442
-1.214152
-0.268497
-0.812949
-0.832918
-0.690201
-0.748853
-0.872269
-0.076443
-0.946027
0.099556
-0.523551
-0.835094
0.067459
-0.610703
0.339579
0.458866
0.156233
0.378082
-0.174434
0.560563
-0.017139
-0.216947
0.160865
0.088375
-0.061925
-1.116480
-1.195718
-1.183146
-0.998115
-0.444337
-0.984550
-0.620463
-0.903858
-0.541159
-0.636363
-0.483425
-0.475337
-0.402091
-0.159814
-0.735300
0.101844
0.298689
0.023716
0.291462
-0.005288
-0.202647
-0.110644
0.052244
0.203450
-0.150339
-0.253490
0.028925
-0.056452
-0.733973
-0.499687
-0.438779
-0.050673
-0.611833
-0.809641
-0.689474
-1.304084
-0.962739
-0.566771
-1.095742
-0.883513
-0.086703
-0.148766
-0.876772
-0.183694
-0.721980
0.116162
-0.466932
0.267569
-0.103928
-0.243860
-0.503862
-0.340897
0.088542
-0.510750
0.279871
-0.010587
-0.061814
0.093301
-0.064840
-0.515064
-0.721566
-0.829038
-0.017319
-1.019078
-1.055794
-0.952765
-1.068449
-0.996414
-1.211174
-1.040837
-0.760901
-1.106788
-1.039614
-0.556916
-0.899913
-0.327183
-0.587415
0.215598
-0.763704
0.079387
-0.048626
0.191651
0.165533
-0.051252
-0.292030
-0.435874
0.353300
0.263417
0.228380
-0.467585
0.043989
-0.680880
-0.583298
-0.673350
-0.477068
-0.784821
-0.860384
-0.742209
-1.212723
-0.277293
-0.518927
-0.611243
-1.353025
-0.483822
-0.783018
0.075029
0.139293
-0.388071
-0.059957
0.464096
0.295443
0.478895
0.152462
0.033348
-0.337416
0.251417
0.079375
-0.466411
0.282384
-0.397908
0.089353
0.324687
-0.649909
-0.721166
-0.003734
-0.470030
-0.391037
-0.912102
-0.764334
-0.118107
-0.013479
-0.197180
0.379843
-0.717413
-0.905169
-0.601203
-0.517172
0.154502
-0.111663
0.488138
-0.179794
0.685973
-0.047608
1.183394
0.527588
0.418064
0.403409
-0.564306
0.410083
0.195863
0.191086
-0.472774
-0.185855
-0.331852
-0.827813
-0.333406
-0.050258
0.218690
0.336748
-0.265603
-0.014914
-0.251882
0.038023
-0.125491
0.006422
0.016988
-0.413915
-0.398835
-0.007603
-0.246014
0.365117
-0.040262
0.032100
0.633155
0.584477
0.841531
0.396440
0.592476
0.495697
-0.473006
0.096443
0.183910
0.090216
-0.126466
0.019888
-0.428230
-0.349621
0.127478
-0.405861
-0.547215
-0.129315
-0.454157
-0.177804
0.133011
0.083600
-0.266987
-0.827672
-0.088826
-0.453736
-0.889508
0.152591
0.353651
0.403473
0.476305
0.264074
0.496025
0.799767
0.412482
-0.381342
-0.035415
-0.063865
-0.392423
-0.375547
0.070354
0.008385
0.111975
-0.275840
-0.403911
-0.853812
-0.051587
-0.081199
0.361541
-0.260901
0.212618
-0.027002
0.063252
0.891818
0.275080
-0.225896
0.221473
0.004927
-0.355239
0.106355
-0.225195
0.242775
1.025688
0.549539
0.823103
0.568504
0.539140
-0.192377
0.031050
-0.007600
-0.618996
0.337045
0.398289
-0.405614
-0.504277
-0.655630
-0.017663
-0.449022
-0.732221
-0.703748
-0.217975
-0.131722
-0.094142
0.543141
0.287789
-0.427412
-0.665220
-0.715907
-1.000175
0.009496
-0.464634
-0.071326
0.212163
0.618021
0.566849
0.447334
0.136385
-0.572919
-0.394074
-0.157126
-0.281982
0.478630
0.323594
-0.394387
-0.093366
-0.786519
-0.311813
-0.587691
0.093930
-0.184944
-0.815606
0.099986
0.165929
0.536007
0.033685
0.953918
1.182743
0.904378
0.412677
-0.133433
-0.442674
0.390087
-0.082017
0.765519
0.496849
-0.182467
-0.070603
0.486079
0.116582
0.279279
0.216272
0.394468
0.074340
-0.045595
-0.584683
-0.414029
-0.084393
-0.873792
-0.298911
-0.508889
-0.068564
-0.256016
-0.544464
-0.830859
-0.634332
0.264317
0.168061
0.568079
0.930248
0.741347
0.339600
0.016263
-0.502959
0.195685
0.426295
0.957850
0.433912
-0.032790
0.291478
0.426627
0.300617
-0.219036
0.263226
0.146602
0.131887
0.357954
0.055499
-0.545698
-0.690522
-0.402700
-0.701401
-1.074880
-0.461421
-0.017603
-0.477759
0.316306
0.443808
0.601365
0.669819
0.352611
0.392826
0.839955
0.382260
0.184820
0.642612
0.621326
0.343629
0.212955
-0.002014
0.219949
-0.384778
-0.922093
-0.336848
-0.141380
-0.203203
-0.023752
0.420166
-0.290662
-0.470066
-0.572319
-0.492098
-0.588528
-0.573745
-0.203597
-0.264615
-0.842706
-0.243424
-0.168308
1.054501
1.081788
0.737260
0.663927
0.888115
0.465171
0.462945
0.701490
1.159248
1.159902
0.518730
0.536149
0.411848
-0.403266
0.432659
-0.004058
-0.870754
-0.286932
0.014671
-0.516929
0.039452
-0.166827
-0.352815
-0.233947
-0.347866
-0.045450
-0.619467
-0.699560
-0.724194
-0.669774
-0.276025
0.256638
1.026130
0.699540
0.234629
0.316859
1.223576
0.749618
0.108553
1.233131
0.722354
0.612926
0.040747
0.082947
-0.230705
-0.552602
-0.064987
-0.243909
0.020631
-0.624510
-0.000201
-0.041499
0.515070
0.559971
0.144822
0.263701
-0.102186
0.061342
-0.391236
-0.596670
-0.291681
-0.501539
0.108841
-0.037370
0.846701
0.491671
0.452231
0.698359
0.739756
0.347855
-0.078039
0.207682
0.331643
0.418006
0.338964
0.279015
-0.242456
-0.298600
-0.097968
-0.756625
0.071660
-0.313091
0.255216
0.175799
0.248264
0.332237
-0.388310
0.312146
0.158617
-0.279689
-0.964322
-0.797813
-0.572537
-0.672588
-0.109758
-0.400145
0.054771
-0.225775
0.457367
0.556072
0.272382
0.372962
-0.410861
0.260355
0.006253
0.906101
0.780555
-0.123696
-0.484093
-0.092879
-0.349120
-0.909935
0.001984
-0.374050
-0.235464
0.232496
0.117538
0.335078
-0.378731
0.010098
-0.046761
-0.763784
-0.428871
-0.195325
-0.556288
-0.480606
0.092239
-0.464130
0.697496
-0.173681
0.231571
-0.248167
0.090563
0.235852
0.126717
0.226801
0.326629
0.522173
-0.483258
-0.552671
-1.035374
-0.965495
-0.650932
-0.212436
0.339890
0.507279
-0.079490
0.475614
0.072352
-0.177508
0.496500
-0.179385
-0.637690
-0.659451
-0.505157
-0.037175
-0.347621
-0.404080
-0.647858
-0.326375
-0.317226
0.029306
-0.530508
-0.234865
-0.150500
-0.287094
-0.327751
0.132142
-0.058810
-0.519859
-0.214984
-0.401969
-0.156711
-1.062956
-0.071329
-0.167120
0.700121
0.652697
-0.053561
0.225595
0.569303
0.549265
0.550473
-0.294324
-0.390819
0.013051
-0.281347
-0.456223
0.386493
0.247663
-0.514200
-0.088135
-0.774617
-0.226227
-0.568779
-0.402794
-0.638026
-0.561330
-0.365260
0.182619
0.038429
0.298484
-0.611290
-0.471208
-0.310577
-0.438951
-0.457948
0.373780
-0.048134
-0.072982
0.545404
-0.272453
0.152111
0.445484
-0.027395
0.140769
0.102630
-0.184179
0.162663
-0.283485
-0.276415
-0.119062
0.296322
-0.405998
-0.473799
-0.687215
-0.815162
-0.954985
-0.974453
-0.427092
-0.426716
-0.849214
-0.819921
-0.333197
0.170142
0.114612
-0.624923
0.255399
0.203589
0.491894
0.328407
-0.035425
0.480544
0.157835
-0.147543
-0.176337
0.221314
0.006232
-0.477425
-0.077303
0.578810
-0.113302
-0.062053
0.162235
0.350961
-0.289781
-0.042929
-0.233010
-1.230137
0.010401
-0.609786
-0.126838
-0.140626
0.679119
0.959991
0.507124
-0.148810
0.472066
-0.213200
0.443693
0.201847
0.093505
-0.076024
0.172162
-0.391072
0.111706
0.234469
0.391240
0.566426
-0.308544
-0.120182
0.063482
-0.035875
0.274525
-0.289866
0.204022
0.665888
-0.361500
-0.813952
0.150494
-0.540371
-0.131042
-0.839032
0.212516
0.027664
-0.102349
-0.187385
0.162785
0.019854
0.320743
-0.042439
-0.039322
-0.159898
0.755497
0.248774
-0.102695
-0.349608
0.217037
0.202199
0.194957
0.081496
-0.283985
0.150018
0.269227
0.417338
0.581402
-0.641074
-0.019931
0.290353
-0.237409
0.184298
0.397426
-0.701828
-0.399879
0.045714
0.716850
0.462109
1.005404
0.900678
0.494355
-0.326204
0.810634
-0.154302
0.621570
0.359186
-0.353284
-0.349812
0.084357
0.184715
-0.423126
0.099502
-0.129837
-0.179625
0.211333
0.309271
0.469763
0.112007
-0.105129
-0.679574
0.174320
-0.135661
-0.670265
-0.564993
0.443826
-0.285469
0.035624
-0.561611
-0.301582
0.587620
0.849924
0.775540
0.551158
0.537320
0.684097
-0.148703
0.953833
0.539425
-0.552651
-0.627419
-0.079252
-0.508824
-0.041708
0.202024
0.441357
0.582276
0.434674
0.577961
1.033590
1.219402
0.192990
0.110341
0.406267
0.428873
-0.313041
0.276091
0.768059
0.305691
-0.722897
0.273931
0.457626
0.447886
0.918025
0.809122
1.063891
0.273610
0.527859
1.075279
0.164368
0.195873
0.099881
-0.276658
-0.001492
-0.442734
-0.227900
-0.248893
-0.328877
0.016629
-0.381581
0.194331
0.221123
0.642289
0.190082
0.682367
0.082450
1.050185
0.885213
0.027567
0.384425
0.436361
0.382452
0.741391
0.473325
0.249116
1.031205
0.438774
0.986639
0.124057
0.950021
0.577691
-0.567667
-0.107155
-0.215469
-0.166842
0.017758
-0.683651
-0.366993
-0.170640
-0.473960
-0.305482
0.325065
0.128152
0.477719
0.339760
0.490694
0.132936
0.314847
0.232981
0.415902
0.155470
0.252996
0.346477
0.338384
0.119024
0.308143
0.216625
0.635990
0.137554
0.708927
0.739860
0.288782
0.296296
-0.611825
0.105509
-0.243718
0.462134
-0.149799
-0.509381
-0.400840
-0.172844
-0.201740
-0.085942
-0.169882
0.390967
0.474881
0.096395
1.022024
1.090996
1.574709
0.767346
1.162460
1.060826
0.370890
0.313242
0.788129
0.142783
-0.002529
0.451502
0.251447
0.357173
-0.164843
-0.554070
-0.455668
-0.016247
-0.024151
0.241808
0.295906
0.296589
-0.108927
0.013740
0.458198
0.404447
0.568403
0.192723
0.690850
-0.448280
0.043800
-0.471402
0.153715
-0.033898
0.041396
0.687664
0.773629
0.431274
0.942041
0.596474
0.094475
0.198846
-0.718569
-0.071091
-0.511534
-0.132256
0.485038
0.656221
0.713785
0.111299
0.943085
1.063628
0.070460
0.399806
-0.051417
0.096764
0.657234
-0.817699
-0.106939
0.194897
0.317196
0.390909
-0.026528
0.244384
0.302339
-0.033544
0.268505
0.563521
1.155294
0.267636
0.596075
1.072701
0.142158
-0.431227
-0.403262
-0.000158
-0.136506
-0.558099
0.670926
0.354380
0.306887
0.585991
1.118907
1.069659
-0.319187
0.171987
0.201846
0.340099
0.308663
-0.586134
-0.478124
0.049544
-0.379723
-0.332507
-0.616702
0.085449
0.253028
0.408434
0.454855
0.020462
1.045397
0.462047
0.332865
0.904716
0.483397
-0.646528
-1.012791
-0.805094
-0.595029
-0.208038
-0.220645
0.329752
0.620839
0.429775
0.379805
0.288801
0.251264
0.054083
0.186518
0.625254
0.534373
-0.465694
-0.194671
0.033328
-0.106784
0.213101
-0.305707
0.180847
0.387583
0.386579
0.352003
0.505994
0.336631
0.409054
0.718983
0.551864
-0.317076
-0.726070
-0.706198
-0.063938
-0.545671
0.114987
0.548142
-0.421863
0.597314
0.480908
0.316261
0.654292
0.571019
-0.084779
-0.167275
0.683420
-0.042913
-0.182521
0.028563
0.224133
-0.215557
0.464970
0.164224
0.412774
0.215624
0.278722
0.475577
0.772946
0.603194
0.286693
0.204743
-0.007008
-0.229683
-0.578971
-0.470577
-0.319406
-0.478681
-0.254193
-0.174393
-0.164829
0.035778
0.468485
0.941354
-0.137744
-0.276860
0.369479
0.430511
0.086899
0.490416
-0.396128
0.052731
0.368959
-0.237240
0.014967
-0.092257
-0.072916
0.377730
0.335979
0.505493
-0.401284
-0.109533
-0.179869
0.118931
-0.761055
-0.067314
-0.669003
-0.809351
-0.335931
-0.296985
0.142375
-0.587357
0.117365
-0.151514
-0.068070
0.408220
-0.113694
0.354565
0.838726
-0.086474
0.405315
0.397350
0.153156
0.143712
0.501923
-0.298792
-0.019655
0.445843
0.394250
0.426966
0.331497
0.657670
0.010760
-0.390921
-0.117828
-0.020058
-0.653097
0.140197
-0.959110
-0.222714
-0.316838
-0.126599
-0.614371
-0.686713
-0.257463
-0.138691
-0.215607
-0.432609
-0.854214
-0.319714
0.689892
0.188875
-0.172409
0.084293
0.158140
0.132900
-0.210631
-0.029092
0.188815
0.006798
0.404331
0.456948
0.095973
0.594443
-0.338567
0.225420
-0.796872
-1.158174
-1.032227
-0.729576
-0.469370
-0.614214
0.406169
0.458169
0.787850
0.715674
0.520844
0.079929
-0.264040
-0.323518
-1.174390
0.282506
-0.327014
0.175320
0.392234
-0.087861
0.792947
-0.121942
0.705660
0.605589
-0.179577
-0.259289
-0.223865
-0.148994
-0.358183
-0.374448
-0.594142
-0.499869
-1.020354
-1.045882
-0.674174
-1.111931
-0.225042
-0.199388
0.202572
0.852792
0.939676
1.378168
0.985133
0.450702
0.077853
-0.721883
-1.081694
0.569913
0.025284
0.168649
-0.258047
-0.391189
0.144197
-0.370553
0.616084
-0.140033
0.403591
0.395290
0.122663
0.398301
0.329722
-0.246323
-0.162349
-0.168598
-0.530318
-0.552958
-0.709189
-0.082412
0.090184
0.486415
0.368606
0.558020
1.507928
1.020296
0.715288
0.946707
0.190308
-0.793228
-0.984540
0.457882
0.472246
-0.519328
0.475500
0.511899
0.636646
0.298114
0.344496
-0.296244
0.367894
0.382746
0.511075
0.080829
-0.351973
-0.117568
-0.331076
-0.305797
-0.250140
-0.665209
-1.128049
-0.960182
-0.764449
0.161723
0.496997
0.891714
0.790747
0.186871
0.566511
1.130249
0.760916
0.124027
-0.872523
-0.206715
0.423193
-0.460415
0.285252
-0.043796
0.638330
0.435997
0.363017
-0.275816
0.204237
0.417330
-0.084455
-0.219372
0.254018
0.295109
0.164255
-0.655683
-0.186658
-0.448864
-0.657717
-0.883236
-0.446813
-0.195149
0.401530
0.143256
0.532415
0.491193
1.046821
0.555114
0.389583
0.584274
-0.089350
-0.105091
0.314297
0.044499
0.471350
0.002258
0.427784
0.782945
0.366186
0.011118
0.265215
-0.006401
0.256611
0.215964
-0.471726
-0.517679
-0.560555
-0.467795
0.226732
0.519222
-0.157145
-0.343205
-0.334846
-0.349912
0.400284
0.434856
0.587377
0.408446
0.679184
1.029058
0.161366
0.368171
0.450723
0.041192
-0.315289
-0.111191
-0.401080
-0.353134
0.665307
0.401372
0.001892
0.403906
-0.525358
0.462787
-0.157781
0.274021
0.455356
0.236427
-0.658708
-0.184015
-0.036209
0.227126
0.119494
-0.459544
-0.932233
0.069520
-0.286108
-0.345890
0.260808
-0.216004
0.146949
0.627031
0.148561
0.539923
-0.067110
0.014158
0.113775
0.006903
-0.323942
0.410817
-0.224473
0.762479
0.612562
0.509139
-0.261936
0.202855
0.160795
-0.007927
0.308212
0.036620
-0.564618
0.009603
0.170481
-0.228794
-0.360962
-0.022979
-0.417049
-0.193158
0.460458
0.112328
0.170097
-0.384125
-0.228711
0.707145
0.115212
0.102385
0.249150
-0.155763
-0.605449
0.016967
0.046064
0.456308
0.753534
-0.050268
0.234754
-0.069592
0.119017
0.522854
-0.207053
0.306777
0.186318
0.085280
0.111292
0.366660
0.855912
0.036131
-0.248218
-0.294237
-0.016584
-0.233118
0.618731
0.266049
0.191807
0.294330
-0.221999
-0.221593
-0.341810
0.411816
0.175201
-0.542498
-0.394777
0.355150
-0.020872
0.157382
0.537558
0.150294
0.034437
0.436686
-0.019334
0.257326
0.511032
0.584504
0.105347
-0.720037
-0.825522
-0.189322
0.486293
0.210861
0.583187
0.003760
0.277511
0.584492
0.038800
0.270670
0.069772
0.557866
0.238572
-0.196972
0.223490
0.309770
-0.380854
0.235391
-0.363078
-0.400699
-0.128600
0.070617
0.391831
-0.144823
0.717546
0.478271
0.395945
0.372280
0.206964
0.025019
-0.000633
0.109553
-0.035396
0.229265
-0.009951
-0.439515
-0.096459
0.363942
0.086538
0.450768
0.583721
0.574663
0.301621
-0.183629
-0.167950
-0.212875
0.043250
-0.328914
-0.193421
0.106389
0.073929
-0.390873
-0.153681
0.226069
-0.286557
0.008577
0.012789
-0.087638
-0.208467
0.424724
0.108619
-0.047114
0.177643
0.173843
-0.675235
-0.034780
0.013598
0.522828
0.351579
0.786770
0.149993
0.902111
0.667223
0.425375
-0.483726
-0.103701
0.524286
0.538121
0.188846
0.624443
-0.484440
-0.420492
-0.092601
-0.516336
0.083747
-0.294354
0.210801
0.246513
-0.236688
0.388304
0.067707
0.228077
0.304365
-0.218306
0.024146
0.000576
-0.183409
-0.101231
0.179027
-0.032665
0.412873
0.501212
0.023340
0.122862
0.525331
0.498646
-0.548260
-0.029638
-0.089081
0.135624
0.406158
0.340047
-0.267077
-0.136721
0.170300
-0.505879
-0.412886
-0.319205
0.615003
-0.391558
-0.513699
-0.238339
-0.239044
0.166425
0.035196
0.384866
0.616956
-0.189241
-0.065590
0.315708
0.645337
0.566614
-0.082106
0.546624
0.125253
0.256010
0.363761
0.019172
0.069801
-0.360369
-0.425217
0.029381
0.110591
0.120268
-0.312216
-0.014653
-0.727529
-0.401903
-0.092699
0.332919
0.230113
-0.039010
0.118066
0.350671
-0.391170
0.271861
-0.057099
0.157658
0.563909
0.034408
-0.548197
0.583839
0.067002
0.216372
-0.286577
-0.321382
0.107275
-0.056571
0.220347
-0.657486
-1.278943
-1.061521
-0.727759
-0.537572
-0.299069
-0.372201
-0.686204
-0.534043
-0.384343
-0.096743
-0.580462
-0.657030
-0.429311
-0.022973
-0.513813
0.288940
-0.613778
0.371780
-0.424952
-0.197132
0.792100
0.246694
-0.493969
0.086846
0.279856
-0.472316
0.289688
0.390767
0.425084
0.499835
-0.056387
0.072352
-0.773765
0.145645
-0.570636
-0.652336
-0.692780
0.391158
-0.480627
-0.680094
0.057572
-0.299941
-0.535420
-0.646587
-0.577285
0.103616
0.066514
-0.356589
0.195034
-0.301994
0.123443
0.470310
-0.253311
-0.049085
-0.210117
-0.067446
-0.415738
-0.618983
-0.615439
0.363539
0.106441
0.684514
0.026288
-0.194535
-0.813452
-0.004274
-0.369933
-0.884046
-0.296742
0.132297
-0.443719
-0.133958
-0.728655
-1.041830
-0.197382
-0.506331
-0.202612
-0.097154
-0.314480
-0.687563
-0.347446
-0.489463
0.272381
0.439522
-0.084136
0.206146
0.067255
0.282057
-0.060372
-0.245437
0.305797
0.197268
0.105649
0.416463
0.417057
0.761756
0.760918
-0.030210
-0.144582
-0.370040
0.297551
-0.263788
-0.181654
-0.758112
-0.667340
-0.788044
-0.745817
-0.262889
-0.447722
0.299475
-0.774594
-0.599432
-0.426525
0.513022
-0.067569
0.272199
0.351871
0.249888
-0.366121
-0.051396
-0.577723
-0.710676
0.209371
0.369594
0.092312
0.718953
0.921748
0.289402
0.177446
0.522238
-0.325048
-0.283775
0.493511
0.099042
-0.173784
-0.610907
-0.689142
-0.581717
-0.415905
-0.491108
-0.631871
0.021212
-0.404630
0.031739
-0.268979
-0.290693
-0.074133
0.066913
0.664067
0.632462
0.366260
0.145461
-0.135683
-0.125772
0.799173
0.284147
0.617479
0.709422
0.629075
-0.333239
0.063968
0.259950
-0.257012
-1.026123
-0.233465
-0.744482
-1.030123
-0.910696
-1.048040
-1.088300
-0.656289
-0.182992
-0.291158
0.521385
0.167153
-0.324842
0.192765
-0.134982
0.127659
0.172990
0.638856
0.360592
0.353396
0.115754
0.029635
0.956611
0.593150
0.592157
0.754488
0.416713
0.032948
-0.063395
-0.027769
-0.687164
-0.628028
-1.038758
-0.642058
-1.044714
-1.480749
-0.919328
-0.618570
-1.367910
-0.931736
-0.264849
-0.185047
0.173806
-0.375429
0.235057
-0.182935
0.915456
0.346336
0.137528
-0.155928
0.573452
-0.222705
0.119511
0.963468
0.206045
0.425115
1.182524
0.596143
0.092279
0.192182
-0.547208
0.092562
-0.328674
-0.496861
-0.655459
-0.622364
-0.863205
-1.511989
-1.083087
-1.252108
-0.667480
-0.313233
-0.193228
-0.194580
-0.104393
0.039892
-0.128215
0.493224
0.242569
0.075542
-0.064778
-0.375007
-0.431913
0.445004
0.572475
0.393882
0.380925
0.455730
0.263904
-0.405091
-0.021609
-0.209056
-0.613263
-0.561133
-0.891529
-0.947036
-0.746649
-1.179601
-1.451950
-1.571241
-1.469053
-0.865654
-0.164170
-0.778601
-0.626362
-0.054376
0.043737
-0.463470
0.057560
0.164673
0.454088
0.166809
0.048308
0.322031
-0.478979
-0.483520
-0.064058
0.037021
-0.461555
0.079303
-0.776752
0.352999
-0.063369
0.103132
-0.436545
-0.132665
-1.003828
-1.464031
-1.321524
-1.107997
-1.015861
-1.936485
-1.185705
-1.544006
-1.083866
-0.447721
-0.049381
-0.143731
0.090542
0.186041
0.038827
-0.099575
0.197941
0.377935
-0.214264
-0.562955
-0.185623
-0.641560
-0.685100
-0.328602
0.221792
0.317286
-0.335473
0.018786
0.072633
-0.008411
-0.480064
-0.883332
-1.353685
-1.926294
-1.334080
-1.321458
-1.055425
-1.540611
-1.883280
-1.067691
-1.286919
-0.268948
-0.514457
-0.266103
0.040680
0.185974
0.508441
0.667088
0.484422
-0.250375
-0.478417
0.055760
-0.325659
-0.153666
-0.810043
-0.683496
-0.127821
0.104796
0.027407
-0.448724
0.018752
-0.277493
-0.081989
-0.695387
-0.332740
0.094977
0.633720
0.938536
0.265091
0.824609
1.031732
1.149856
0.708915
0.253376
0.156378
0.279332
-0.815022
0.185006
-0.673103
-0.502890
-0.324844
0.212838
0.228641
-0.408845
-0.282932
-1.059811
-0.947778
-0.135788
-0.511759
-0.722484
-0.315254
-0.234466
-0.380131
-0.499544
-0.637386
-0.361710
-0.268740
-0.152229
0.763319
0.375761
0.481869
0.585110
1.030758
0.634145
0.812242
-0.318497
-0.130261
-0.223252
0.002326
-0.172322
-0.312899
-0.046311
-0.130223
-0.293043
0.041194
-0.042707
-0.123074
-0.126444
-1.219152
-0.335696
-1.013414
-1.202973
-0.159041
-0.187238
-0.154563
0.227686
0.294785
0.357921
0.780800
0.408002
0.658961
0.459383
0.814003
1.021813
0.664701
0.706962
-0.301580
-0.169960
0.332177
0.317375
-0.798539
-0.800808
-0.454798
-0.748881
0.178090
0.082912
-0.451185
-0.146973
-0.560061
-0.395117
-0.870530
-0.738238
-0.853807
-0.510711
-0.565010
-0.240968
-0.684980
0.371074
0.072787
-0.602826
0.232220
-0.047437
0.573116
0.567973
0.133050
1.355206
0.292699
0.871701
-0.268388
-0.147420
-0.036048
0.134284
-0.806734
-0.027919
-0.533028
0.149690
0.427050
0.079860
-0.051091
0.235459
-0.656724
-1.006764
-0.881316
-0.557345
-1.110081
-0.065352
0.421899
0.085216
-0.167099
0.252644
-0.542993
0.288035
0.120424
-0.285198
-0.111006
-0.095446
0.036702
0.789420
1.258445
1.033425
0.675478
-0.513032
-0.058983
-0.113022
-0.012997
-0.205165
-0.280952
0.016738
-0.289452
0.474375
-0.148672
-0.319160
0.135622
-0.481077
-0.605026
-0.041213
-0.213013
0.378442
0.092790
0.143631
-0.093573
0.110583
0.015622
0.442295
0.326449
0.000557
-0.183708
-0.362054
-0.035969
0.280043
0.596084
0.776305
0.524336
0.691915
0.600919
-0.247619
0.046747
0.271362
-0.380709
-0.131113
0.302477
-0.393928
0.029724
0.311111
0.475908
0.281021
0.035686
-0.079341
-0.124140
-0.426197
-0.488836
-0.109690
0.487745
-0.344680
-0.053435
0.558577
0.447922
-0.643080
0.236175
-0.123611
-0.352595
-0.005953
0.202961
0.880217
0.613481
0.594003
0.046228
0.189890
0.109787
-0.359053
0.019916
-0.128539
-0.097850
-0.045531
-0.079562
0.190969
-0.351389
0.277756
0.241761
-0.819092
-0.594370
-0.461632
-0.789030
-0.276346
0.048228
-0.026851
-0.145551
-0.405371
0.130857
-0.871264
-0.656450
-0.230937
-0.376184
-0.707342
0.428824
-0.099562
0.038435
0.218295
-0.210095
-0.447200
-0.192503
-0.229647
0.317925
-0.619940
-0.363669
-0.756524
0.003727
-0.401140
0.415887
-0.568029
-0.226829
-0.577773
-0.783675
-0.423038
-0.909070
-0.074380
-0.075588
0.450634
0.485914
0.196258
-0.115752
-0.477823
-0.404735
0.156736
0.583254
-0.060394
-0.685221
0.056069
-0.648623
-0.284678
-0.483609
-0.515570
-0.182771
-0.336994
0.086435
-0.433558
-0.299943
-0.021807
0.024265
-0.518295
-0.162347
0.133638
0.032288
-0.104620
-0.279168
-0.898049
-0.353600
0.056037
0.285279
-0.103574
-0.061903
0.283150
-0.348912
-0.459446
0.135529
-0.070825
-0.025954
-0.728451
-0.395870
-0.169538
-0.839723
-0.687207
0.026036
-0.055155
-0.287807
-0.287057
-0.471993
-0.454855
0.109037
-0.753648
-0.403590
-0.395066
0.470831
0.187498
0.242524
-0.367007
-0.314173
0.053363
-0.137856
0.274389
-0.385163
-0.408110
-0.101292
-0.659446
0.161840
0.063488
0.937663
0.042448
0.884243
0.468520
-0.203603
-0.118813
-0.628489
-0.127126
-0.456612
-0.164065
0.692692
-0.033679
0.027437
-0.103225
-0.153911
-0.648814
-0.378608
0.234733
0.754024
0.410082
-0.036785
0.428457
0.171051
0.639740
0.303475
-0.075395
-0.847097
-1.072507
-0.838585
-0.652522
-0.493410
0.415628
0.484902
0.495659
1.163229
0.883441
0.056316
-0.410811
-0.757022
-0.883183
0.259224
0.535280
0.305058
-0.507069
0.351139
0.061453
-0.528663
-0.520350
-0.225773
-0.541226
0.086596
-0.082605
-0.116883
0.193408
0.249454
-0.044741
0.044036
-0.801064
-0.597347
-0.331660
-0.613305
-0.606874
0.103608
0.452445
0.920596
0.603965
0.958540
0.203405
-0.049638
0.048812
-0.386799
-0.317372
-0.171620
0.030499
0.474533
-0.235126
0.120024
-0.230594
0.119764
0.430097
-0.327269
0.062399
0.482380
0.221558
0.894253
1.079088
0.141841
0.465258
0.217441
-0.252613
-0.331370
-0.786574
-0.906051
-0.607202
0.003960
0.092673
0.971541
-0.127275
0.296701
0.515436
-0.573508
0.140040
-0.578797
0.226129
0.148374
0.292139
0.621716
0.583150
0.106873
0.192064
-0.348957
0.225139
0.450763
-0.019951
0.065537
0.444705
0.656134
0.509088
0.602324
0.047328
0.173694
-1.013931
-0.924376
-1.141476
-0.465248
-0.470757
-0.610960
0.158945
0.903848
0.077805
0.739246
0.882823
-0.050733
0.098867
0.212431
0.455796
0.645793
0.844172
-0.053749
0.549637
0.103880
0.266329
0.385545
0.226540
0.224927
-0.089910
0.613938
0.559360
0.675266
0.405224
0.514225
0.276855
-0.368329
-0.537287
-0.571570
-1.132534
-0.842330
-0.576242
-0.011383
0.328424
0.358738
-0.138810
0.725975
0.539201
0.248519
0.217528
0.635176
0.483785
0.392156
0.423278
0.229066
0.599327
0.292802
-0.385308
0.465920
0.000706
0.522567
0.328697
0.616592
-0.147714
0.826809
0.050402
0.211268
-0.568444
-0.325127
-0.555511
-1.026375
-0.339790
-0.141485
-0.786485
0.243856
0.352303
0.511458
-0.172461
0.390033
0.475028
0.350201
0.099129
0.325618
0.140952
0.570858
0.731953
0.605952
0.115363
0.404335
-0.079175
-0.263218
-0.119166
0.075893
0.636204
1.005677
0.376570
0.775263
0.452361
-0.160566
-0.356113
-0.652302
-0.720514
-0.910580
-0.111582
-0.191509
-0.757238
0.087452
0.054599
-0.040174
-0.128434
0.462013
0.202928
0.314384
-0.377538
0.265426
-0.086895
0.457743
0.295153
0.389552
-0.115448
0.683551
-0.262811
0.324256
0.141220
-0.042241
0.482938
0.441451
0.388237
0.307083
0.728895
-0.236588
-0.561400
-0.363234
-1.135413
-0.819463
-0.935498
-0.467037
-0.414688
0.566797
0.121185
-0.426339
-0.400125
0.221830
0.475709
-0.622099
-0.369684
-0.049612
-0.444490
-0.165888
0.233249
-0.331047
-0.288772
-0.069754
0.219984
-0.279627
-0.299581
0.547164
-0.133235
0.321933
0.396737
0.894959
0.018786
-0.084453
-0.417832
-0.194799
-0.690167
-1.275789
-0.436232
-1.284667
-0.116407
0.053344
-0.069461
-0.378489
-0.739843
0.053222
-0.489912
0.235094
-0.335695
-0.247338
-0.187881
-0.308773
0.016731
-0.251522
0.506103
-0.381123
0.289186
-0.215380
0.092120
0.403806
-0.313859
0.476718
-0.098661
0.214327
0.310682
-0.360698
0.069946
-0.617227
-0.993646
-0.790085
-0.058589
-0.816781
-0.144618
-0.340863
-0.054492
-0.476067
-0.227184
-0.471196
-0.348891
-0.007677
0.154729
-0.170987
-0.478340
-0.358784
-0.226398
-0.017865
-0.021378
-0.271807
-0.588814
-0.325953
0.269776
-0.036657
0.452114
0.407598
-0.176110
0.504632
-0.159423
0.557137
-0.485904
0.049400
-0.322863
-0.417178
-0.697188
-0.915472
-1.224745
-0.001510
-0.198684
-0.352392
0.018770
-0.374967
-0.819706
-0.924597
-0.594285
-0.996832
-1.145721
-0.804778
-0.197533
0.446210
-0.004608
-0.282252
0.216939
0.404170
0.290911
0.225545
-0.389853
-0.121160
-0.462605
0.267934
0.700279
0.502731
-0.193093
-0.347675
0.176314
0.559674
-0.637169
-0.565142
-0.457063
-0.188080
0.224493
-0.229907
0.192595
0.081935
-0.306742
-0.884131
-0.004948
-0.256538
-0.560272
-0.502356
-0.216692
0.505239
0.004648
0.050285
0.103985
-0.476995
0.482115
0.363826
0.174589
0.258204
0.144051
0.370336
-0.019816
0.876728
0.008134
0.449708
0.294876
1.092236
-0.087131
-0.454676
0.635934
0.610717
-0.461009
-0.182863
0.108151
-0.011838
-0.110889
-0.544172
-0.689696
-0.092101
-0.392069
0.185736
0.670130
0.616584
-0.187601
-0.060380
-0.397647
-0.510503
-0.203012
0.072382
-0.604952
-0.148354
0.321826
-0.263305
0.405503
0.613434
0.673768
0.855021
1.077193
1.367817
0.829533
0.543884
0.273862
0.329699
-0.258568
0.516359
0.141188
-0.074606
-0.056520
-0.375759
0.294240
-0.065767
-0.046343
-0.108274
0.044059
-0.325474
0.099717
0.126284
0.311666
-0.312303
0.206573
-0.281242
0.046812
-0.165078
0.012071
-0.177123
-0.374448
0.273931
1.032365
0.524405
0.726330
1.704811
0.850423
0.732137
0.938515
0.071888
0.018306
0.826944
0.737709
0.262868
0.621638
0.011144
0.545812
-0.129170
0.038796
-0.310094
0.414029
0.267230
0.021075
-0.176818
-0.031517
-0.436248
-0.491842
-0.605472
-0.376811
-1.159719
-1.109243
-0.869973
-0.806117
-0.253486
-0.354003
-0.023958
0.600985
0.704990
0.618416
0.217029
0.298310
0.534724
0.308194
0.663246
0.323358
0.021808
0.822520
0.723708
0.613734
-0.391515
-0.364957
-0.052401
0.372533
0.551325
0.525149
-0.134338
-0.313323
0.129972
-0.080691
-0.515173
-1.016597
-0.756761
-0.873658
-0.691919
-0.318274
-0.402008
-0.283970
-0.275750
-0.219514
0.045110
0.258709
-0.134371
-0.044434
0.297097
0.041172
0.332056
0.150247
0.216549
-0.026929
-0.057356
0.010876
0.351071
0.346554
0.340422
-0.276945
-0.124162
-0.104227
-0.158673
0.075983
0.024605
-0.362611
-0.696273
-1.251643
-1.213664
-0.698710
-0.502104
-0.126406
-0.033215
-0.170957
0.364318
-0.470463
-0.206466
0.015353
-0.619810
0.035005
-0.663595
-0.113570
0.216799
0.335846
0.236314
0.962421
0.491830
-0.068623
-0.400352
-0.067184
0.295269
0.028419
0.173373
-0.212124
-0.131527
0.101951
0.143050
-0.693281
-0.916636
-1.199443
-0.752280
-1.009457
-0.641509
-0.277728
0.138715
-0.591086
0.446443
-0.206293
-0.052475
0.221826
-0.176504
-0.475693
0.355519
0.329177
0.599141
0.715295
0.191373
0.509222
0.033272
0.373990
0.169865
0.055275
-0.179918
0.563168
0.165831
-0.270221
-0.427543
0.171327
0.258032
-0.478855
-0.102500
-0.285086
-0.733799
-1.198794
-0.438892
0.064335
0.417752
-0.359567
-0.420165
0.128958
0.064285
0.212887
-0.990892
-0.807479
-0.666103
-0.281597
-0.579084
0.044401
0.230484
0.751092
-0.072215
0.349020
-0.379163
0.008602
0.194329
-0.296314
-0.412335
0.335694
0.275962
-0.192176
-0.186978
-0.131771
-0.764923
-0.190014
-0.809659
-0.473676
-0.830965
-0.397828
0.345190
-0.227465
0.066632
0.023073
-0.467426
0.216597
-0.169983
-0.021261
-0.178576
-0.355227
0.334661
0.262144
0.720705
0.485990
0.634989
0.742378
0.751611
0.127251
-0.014884
-0.190126
-0.213697
0.325675
-0.117006
0.357967
-0.488939
-0.247472
-0.362109
-0.515814
-0.288104
-0.154919
0.273293
-0.593785
-0.071659
-0.281391
0.361141
-0.257105
-0.007274
-0.544884
0.292558
-0.297306
-0.033986
-0.300376
-0.366278
0.230986
-0.295644
-0.042503
0.482072
0.259335
0.414582
0.698752
0.577009
-0.136331
-0.240962
0.223716
0.040617
0.216398
0.124359
0.316633
-0.352573
0.286084
0.316222
-0.101678
-0.172863
0.357508
-0.050987
-0.395260
-0.110357
0.072150
-0.674531
0.269191
-0.140895
-0.062911
-0.464474
-0.417526
-0.089572
-0.179269
0.398569
0.209438
0.473029
-0.054020
0.464675
0.497768
0.378329
0.784932
0.084808
0.159841
0.083855
-0.038638
0.303637
0.010041
-0.474526
0.133407
-0.216872
-0.248299
0.341878
-0.190285
-0.301541
-0.003157
-0.274821
0.349131
0.246028
-0.157043
0.290003
0.108069
-0.600582
-0.279994
-0.050358
0.023356
-0.314562
0.326465
0.715639
0.274005
0.088634
0.057600
-0.006681
0.579463
0.502509
0.163820
-0.174415
-0.581498
0.251256
0.103839
-0.324207
-0.454721
-0.500161
-0.198163
0.327141
0.216317
-0.503604
0.128726
-0.087301
-0.005035
0.164743
-0.094262
-0.835924
-0.732344
-0.788052
-1.004757
-0.565586
0.140666
-0.497886
0.073048
0.005613
0.461343
-0.079870
0.326978
0.559473
0.040385
0.398124
-0.165453
0.179798
0.270154
0.083121
-0.409253
-0.150561
-0.567631
0.282855
0.145159
-0.316448
0.133932
-0.500084
0.160661
-0.073492
-0.524773
0.041613
-0.136011
0.306773
0.114794
-0.626571
-1.003277
0.080075
-0.004505
0.175761
-0.166591
0.535856
-0.230870
-0.701492
-0.253627
-0.198907
-0.217468
-0.267509
-0.343035
-0.013131
-0.171450
-0.482025
-0.096772
-0.426379
0.053115
-0.116486
-0.358775
-0.433327
-0.173529
-0.175207
-0.411443
0.099962
-0.304929
-0.027669
-0.528611
-0.007569
-0.442902
-0.147033
-0.781552
0.361671
0.664795
0.765410
0.022689
-0.118539
-0.101470
0.211567
-0.114303
-0.338881
0.217628
-0.427637
-0.783526
0.024531
-0.358487
0.104671
-0.015397
-0.457602
-0.172745
-0.655757
0.162814
0.000265
-0.534953
-0.639477
-0.070689
-0.213162
-0.302849
-0.236177
-0.697561
0.096847
0.108329
-0.624824
-0.115550
0.908864
0.448361
0.691214
0.265450
-0.354173
0.111347
-0.436667
-0.066781
-0.145456
0.289368
-0.265584
-0.748799
-0.657252
-0.397612
-0.742667
0.061036
0.354644
0.131324
-0.203057
0.156318
-0.492154
0.087055
-0.626049
0.027593
-1.008416
-0.714143
-0.271557
-0.910807
-0.945047
-0.511245
0.141630
0.258840
0.824546
0.586107
0.666340
-0.022713
0.141290
0.288798
-0.208500
-0.303243
-0.417636
-0.037833
0.047617
-0.056949
-0.344613
0.089750
0.211329
0.159755
0.129815
-0.294345
-0.316964
0.096075
-0.289731
-0.082880
-0.095610
-0.434681
-0.436146
-0.422433
0.177752
-0.352848
-0.671597
-0.671405
-0.227842
-0.245331
-0.111832
0.167379
0.489766
0.388373
0.361879
0.098463
0.391473
-0.406116
0.141399
0.287498
-0.545948
0.069490
-0.105853
0.139964
-0.453558
-0.040391
0.362871
0.213225
-0.401610
0.226023
0.177107
-0.521118
-0.158688
-0.136648
-0.585855
-0.147925
0.294417
-0.615469
0.222414
-0.422718
0.347979
-0.399295
-0.058930
0.529345
0.643588
0.458909
0.701547
-0.309195
0.113940
-0.428868
-0.226296
-0.029918
-0.554149
-0.394558
-0.316187
-0.005264
-0.102069
0.102933
0.498496
0.522048
-0.066186
0.405954
0.446023
-0.111684
0.243732
-0.289087
-0.504545
-0.687559
-0.018084
-0.844143
-0.016985
-0.859964
0.197650
-0.007404
0.779370
0.712028
0.064480
-0.368006
-0.192897
-0.109255
-0.409469
0.430733
0.311068
-0.264637
-0.657696
-0.350955
0.515032
0.286503
0.344002
-0.329392
0.538682
0.384317
-0.163809
-0.286617
-0.704251
-0.369614
-0.586906
0.007395
-0.271225
-0.308362
0.213930
-0.263688
0.313358
-0.351025
-0.172033
0.029600
0.866177
0.312412
0.188377
-0.482140
-0.170012
0.279675
-0.050793
-0.240109
-0.054119
-0.457697
-0.089183
0.266644
-0.215621
-0.366537
0.251417
0.300159
0.409014
-0.004215
0.552654
-0.356537
-0.745416
-0.816819
-0.224683
-0.677131
0.274474
-0.172306
0.288532
0.287949
-0.348253
-0.303028
0.250693
0.330989
1.206834
0.587217
0.630479
-0.385644
0.400286
0.536293
0.021460
-0.183069
-0.310177
-0.172780
-0.539292
-0.117750
0.084080
0.029737
-0.017253
0.141955
-0.041142
0.251092
0.387056
0.016261
-0.555146
-0.142161
0.009720
-0.179869
-0.523285
0.020287
-0.255660
0.178360
-0.279631
0.608710
0.636842
0.217224
0.937315
0.099291
-0.177926
0.214140
0.242752
0.492431
0.368903
0.018892
0.132684
-0.413666
-0.400703
-0.486100
0.327290
-0.125439
-0.519753
0.412488
-0.227969
0.073870
-0.599460
-0.353481
-0.224650
-0.147975
-0.683692
-0.886751
-0.314071
-0.466880
-0.363786
0.461186
-0.113527
-0.194768
0.769780
0.701383
0.465300
-0.046286
0.386177
-0.081029
1.078695
0.182853
0.336109
0.367661
0.125067
0.386344
-0.431311
0.034644
0.274654
0.081313
-0.129544
-0.312952
-0.447475
-0.335219
-0.670821
-0.225304
-0.748124
-0.233611
-0.400327
-0.266506
-0.530232
0.030687
0.197705
-0.230671
-0.493884
-0.022286
0.448108
-0.091416
-0.164877
-0.188980
-0.187556
-0.473351
-0.232630
-0.269585
0.116856
0.469735
0.310835
0.473833
0.163639
-0.287464
0.517821
-0.130094
-0.431736
-0.193431
-0.450651
0.082887
0.082297
0.103443
-0.339795
0.080710
-0.131495
0.510973
0.587668
0.015041
-0.170286
-0.108761
-0.367372
-0.164650
-0.814805
-0.102631
-0.053513
-0.088444
-0.655630
-0.553727
0.428571
0.251762
0.304976
0.071975
0.250933
0.152797
-0.021140
0.698195
0.506710
0.154601
0.218176
-0.025630
-0.232551
-0.037963
-0.490486
0.273361
0.351412
0.005466
-0.230808
0.311994
0.291903
-0.505420
0.020629
0.231409
-0.680460
-0.814003
-0.222974
-0.325126
0.274743
-0.109294
0.152240
-0.319335
0.435679
-0.101331
-0.035399
0.430161
0.595246
-0.200173
-0.277239
0.601212
0.227865
-0.105984
0.044805
0.122626
0.216342
-0.175168
-0.323457
-0.008663
0.014562
-0.057332
0.223230
0.470898
0.592860
-0.358789
-0.079985
0.007287
-0.258407
-0.422532
-0.492221
-0.681051
-0.601683
0.198589
-0.051342
0.216618
0.540037
0.239971
0.919972
0.579955
0.898163
0.689136
0.044167
0.804487
-0.128498
0.149102
0.373808
0.140348
-0.004958
-0.331812
-0.568729
0.550692
0.110693
0.104885
-0.077338
0.449563
-0.010481
0.345068
0.016046
0.094033
-0.583810
-0.758894
-0.734275
-0.361023
-0.416352
-0.568102
-0.166502
-0.499064
0.528300
0.487696
1.274263
0.978772
1.005124
0.159615
0.365312
0.609358
0.346650
-0.418321
0.033009
-0.485011
-0.089714
0.083436
0.430355
0.577606
-0.010131
0.819167
0.800194
0.864932
-0.299938
-0.306483
0.351839
-0.420863
-0.429798
-1.136347
-0.715569
-0.863976
-0.431276
0.085018
-0.216162
0.780837
1.041085
0.650739
1.147804
0.823919
1.451398
0.606025
0.976319
0.797840
-0.191715
0.482618
0.399989
-0.264423
-0.471221
-0.268641
-0.088971
0.288547
0.266028
1.140297
1.227447
0.815379
0.029322
0.341680
0.208203
-0.342967
-0.436448
-0.064086
-0.458253
0.306938
0.333766
0.223501
0.169736
0.877940
0.530238
0.445869
1.131525
1.172909
1.213025
0.563875
0.386039
0.114956
0.093851
-0.220571
0.038448
0.156756
-0.425567
0.349866
-0.419696
0.914584
0.510503
0.687248
1.438324
0.965855
0.434269
0.278295
0.191829
-0.497791
-0.668295
0.197181
0.245517
0.448449
-0.052868
1.071888
0.903025
0.648648
0.659554
0.839063
0.702441
0.972134
0.458923
1.127891
0.513333
0.061488
-0.018969
0.304790
-0.223339
0.282431
0.086856
0.479861
0.088304
0.468860
0.229431
0.690857
0.528067
0.580195
0.124105
0.473549
0.632609
-0.129665
-0.256398
0.214455
-0.054879
0.124725
0.447775
1.158100
0.492617
0.707345
0.062863
0.207682
0.870703
0.628717
0.284699
0.361694
0.025655
0.343673
0.423274
-0.509883
0.077856
-0.461090
0.219462
0.608679
-0.270018
0.764379
0.230689
0.354041
0.401052
-0.182229
0.157373
0.110263
0.156632
-0.660579
-0.767882
-0.824916
-0.809364
-0.763780
-0.322852
-0.115788
0.173692
0.677856
0.169060
-0.115001
-0.174310
0.053447
0.148955
0.129519
0.028697
0.182458
0.065796
-0.305238
-0.244909
-0.365844
0.464030
0.417056
0.024357
0.435226
0.823741
-0.097761
0.154548
0.259583
0.373200
-0.093971
0.706258
0.095560
0.439788
-0.252006
-0.710633
-0.542267
-0.021155
-0.116771
0.218285
-0.304710
-0.321259
0.394222
0.430226
-0.256771
0.100382
0.020458
0.243426
0.296584
0.434641
0.128090
0.461898
-0.048669
-0.058704
0.754862
0.641244
0.016677
-0.307366
-0.067510
0.576187
0.503992
-0.452745
-0.783693
0.116070
-0.211594
-0.554217
-0.622854
-0.527311
-0.132428
0.336288
-0.129592
0.201839
0.053761
-0.178719
0.243082
-0.184099
-0.675821
-0.358392
0.001682
-0.163062
-0.176737
-0.062191
0.031580
-0.478529
-0.366526
0.240164
0.393752
0.690277
0.074385
0.656258
0.413027
1.117918
0.903032
1.286553
0.236919
0.148850
0.506196
0.497422
0.078314
-0.088629
-0.021572
0.206755
-0.600665
-0.639094
-0.188714
0.089080
0.210556
-0.620057
-0.405068
0.317292
-0.658596
-0.594601
-0.095250
-0.507343
0.016679
0.062131
0.452583
0.307035
0.803777
0.152737
0.334933
-0.070174
0.175918
0.877801
1.107217
0.048440
-0.181892
0.584231
0.335558
0.275314
-0.209469
0.034139
-0.665420
-0.168821
-0.650133
-0.342810
-0.593346
-0.228282
-0.077690
0.047774
-0.114075
-0.378878
-0.417292
-0.624966
0.009379
-0.546730
-0.517399
0.065757
-0.256945
-0.126621
-0.326917
0.220803
0.655775
0.173678
-0.402723
0.268321
-0.285471
0.046655
-0.789075
0.272295
0.170962
-0.523866
-0.010230
-0.374828
0.270834
0.249862
-0.099753
-0.774487
-0.085391
-0.226771
0.103217
-0.303019
-0.673660
-0.581365
0.105117
-0.129749
-0.242626
0.174722
-0.405243
-0.134072
-0.173255
0.326578
-0.551909
0.251470
-0.391965
0.818476
-0.373111
0.124785
-0.205115
0.603938
0.641575
-0.193702
-0.302606
0.098593
-0.249858
0.002687
-0.165580
-0.995817
-1.254650
-0.266336
-0.807077
-0.472796
-0.963486
-0.454598
-0.519370
-0.900081
-0.418699
-0.593687
-0.485194
-0.371113
0.246891
-0.451328
-0.465483
-0.323893
-0.509244
-0.200669
-0.180604
-0.028978
-0.659481
0.332377
-0.601315
-0.595913
-0.624304
-0.250385
0.251951
-0.524210
0.164343
-0.417210
-0.901788
-1.440252
-0.704625
-1.020207
-0.927370
-0.001199
-0.587795
-0.959234
-0.176559
-0.357486
0.186010
0.489816
-0.284003
0.435849
-0.324616
0.243012
-0.417510
0.354611
-0.548562
0.348395
-0.594367
0.013865
-0.255724
0.278832
0.059399
-0.506164
0.131827
-0.075425
-0.115030
0.591772
0.062865
0.257214
0.538701
-0.396817
0.497789
0.161179
0.001007
-0.282773
0.138059
0.331676
-0.429709
0.214885
-0.291204
0.062182
-0.274071
-0.038577
0.168306
-0.092954
0.429356
-0.184380
-0.493868
0.228925
-0.587363
-0.783263
-0.018521
-0.549745
0.242817
-0.071343
0.353478
0.075294
0.382308
-0.572714
0.172905
0.386257
-0.669337
-0.228638
-0.408035
0.215414
-0.522304
0.444463
-0.266448
-0.042514
-0.210521
-0.546262
0.065132
-0.492601
-0.542783
0.067862
-0.184573
-0.062545
0.065333
0.192770
0.387873
0.153385
0.041964
0.066106
-0.518506
0.109208
0.169054
-0.222295
-0.250205
-0.150441
0.729103
0.205826
0.354046
0.097915
-0.122823
-0.459230
0.416242
-0.037027
0.368904
0.493617
-0.094192
-0.325099
0.093817
-0.034758
-0.544592
-0.214376
0.177541
-0.028358
-0.394129
0.173234
-0.335096
-0.272623
0.176122
0.184798
-0.170231
0.040134
-0.172046
0.008949
0.012055
0.111289
-0.217087
-0.021084
-0.073669
0.588665
0.444423
0.009513
-0.346408
-0.175541
-0.057804
0.086165
-0.205731
-0.358602
-0.290839
-0.196263
0.081848
0.076332
-0.406418
-0.168486
0.272815
-0.212854
-0.210839
-0.209693
-0.069412
0.084970
0.063362
0.316903
-0.108324
-0.130940
-0.556211
0.178333
-0.318732
0.082828
-0.108230
-0.256652
0.292283
0.519032
0.061685
0.458031
0.167087
-0.619173
-0.078089
-0.567347
0.220757
0.199852
0.108068
0.287889
0.120560
0.166022
-0.316338
0.234176
-0.195980
-0.463941
-0.000530
0.000309
0.043898
-0.493047
0.118899
-0.028652
-0.283110
-0.451772
-0.451259
-0.431404
-0.398445
0.227753
0.418147
0.633117
0.333331
0.742911
-0.435903
-0.467785
-0.209705
-0.893261
-0.828840
-1.184575
-0.532142
-0.144931
-0.083252
-0.355051
0.267315
0.044631
-0.033992
-0.314088
0.327455
0.225391
0.085726
-0.191437
-0.377099
-0.692786
-0.488216
0.259224
0.316446
0.166000
0.055005
-0.202584
0.390932
-0.047400
-0.076658
0.217326
-0.131026
-0.089765
-0.285771
0.186805
-0.975928
-0.447373
-0.818314
-0.338267
-0.322676
-0.188837
-0.074375
-0.337217
0.233408
-0.095003
-0.075528
0.073595
-0.124642
-0.446777
0.088426
-0.488306
0.056532
0.083984
-0.693513
-0.033099
0.040440
-0.110728
-0.459794
-0.283216
-0.422757
-0.529706
0.174127
0.777541
0.790076
0.021607
-0.695213
0.101822
-0.049902
-0.947023
-0.928623
-0.718057
-0.947950
-0.610287
0.183762
0.487727
0.447208
-0.132831
0.114254
-0.080389
-0.075649
0.440781
-0.111159
-0.406878
-0.054589
-0.094264
-0.176456
-0.760740
-0.260888
-0.572368
0.087793
0.313992
-0.451204
-0.086744
0.040847
0.785943
0.485985
0.354165
-0.443782
0.089681
-0.401713
-0.293633
-0.839400
-1.109204
-0.947975
-0.115502
-0.562651
-0.050789
-0.575201
0.119679
0.020438
-0.034768
0.119268
0.310750
0.184554
-0.445058
0.261426
-0.216078
0.262939
-0.400792
-0.491979
-0.008834
0.045265
-0.196356
-0.128037
0.310291
0.941632
0.550366
-0.103361
-0.201270
0.112800
-0.552459
-0.750069
-0.269958
-0.758652
-0.599192
-0.970275
-0.462422
-0.139226
0.568725
-0.288241
0.340381
0.418518
0.316206
-0.140777
0.000593
0.390134
-0.302395
0.551054
-0.276956
-0.336260
-0.479277
0.454096
0.396915
0.437775
0.169273
0.568130
0.418868
0.546102
0.611571
0.334242
0.410937
-0.174478
-0.191407
-0.197004
-0.162850
-0.494170
-0.927000
-0.749153
-0.505454
-0.358449
-0.196277
0.311404
0.176744
0.014476
0.237453
0.252146
-0.383395
0.326843
0.399265
-0.163735
-0.463551
-0.035705
-0.234910
0.205837
-0.082849
-0.035086
0.070773
-0.029331
0.805092
0.720776
0.717859
0.131953
0.684890
0.067538
-0.010228
-0.191218
-0.745350
-0.427590
-0.620742
-0.002532
0.149362
0.461213
0.353256
0.684362
0.634712
0.313291
-0.293649
0.257303
0.544009
-0.281427
0.110307
0.453782
-0.080262
-0.258121
-0.316985
0.244578
-0.281688
0.130628
-0.139573
0.431186
-0.074181
0.543797
0.849495
0.079662
0.375287
0.378321
0.055271
-0.177068
-0.287723
-0.358420
-0.593414
-0.156671
-0.242878
-0.240929
0.593486
0.610822
-0.321308
0.552939
0.211956
0.554023
0.155337
-0.392627
0.434673
0.067058
0.092107
-0.163313
0.269445
0.116638
-0.122485
-0.070327
0.042521
-0.119383
0.348517
0.262578
0.711144
0.821503
0.602348
0.375013
0.411431
-0.135812
-0.697609
-0.553048
0.133169
-0.180572
0.147582
0.005962
-0.190179
-0.037847
-0.485870
0.438621
0.195286
0.351852
-0.005984
0.284237
0.140898
-0.279485
-0.584184
0.026954
-0.024223
0.302460
0.124479
-0.271863
-0.171736
-0.091342
-0.269978
0.439040
0.487814
-0.166236
0.063736
0.191053
0.207126
0.038711
-0.199827
-0.178683
0.081040
-0.397019
-0.149281
0.329307
0.530963
0.416272
-0.142760
-0.132445
0.185746
-0.289754
0.015964
-0.468478
0.020626
0.235370
0.082629
-0.644610
0.021391
-0.310624
-0.095697
-0.161374
-0.415540
-0.268874
0.056849
0.332245
-0.328282
0.459190
-0.338615
-0.007028
-0.591551
0.065944
-0.303559
-0.722932
-0.130594
-0.611943
-0.188599
-0.232270
0.039605
-0.474088
-0.484918
-0.405353
0.405412
0.181093
-0.015712
0.379463
-0.626325
0.236259
-0.267933
-0.188661
-0.340273
0.023284
-0.227236
-0.426930
-0.490029
-0.274754
-0.021761
-0.376866
-0.654028
-0.388612
-0.281177
-0.117401
-0.243532
-0.025960
-0.228408
-0.330452
-0.287098
0.020896
-0.284070
0.386790
0.114320
-0.272735
-0.409087
0.241601
0.207879
-0.352585
-0.217663
0.100570
-0.364012
-0.229540
0.047663
0.264504
0.092533
0.245549
0.056578
0.438751
-0.154866
-0.482697
-0.354681
-0.082489
-0.517690
-0.082387
-0.037978
0.166113
-0.340511
-0.357959
-0.376290
-0.779134
-0.561402
-0.780743
0.489168
-0.385941
-0.110947
-0.091781
-0.348343
-0.334531
0.064042
-0.456640
0.270940
-0.418045
0.135049
0.205746
-0.254596
0.214052
0.317178
0.290017
0.515861
0.218183
-0.291673
-0.035870
0.074202
-0.151461
-0.110631
-0.213478
0.109049
0.206464
0.039554
-0.379381
-0.109620
-0.075827
0.062869
-0.536985
0.116568
0.270145
-0.184850
-0.060423
0.361581
-0.209946
-0.394169
0.245397
-0.266974
-0.325764
-0.457554
0.066151
0.216509
0.090649
0.155394
-0.073703
0.478053
-0.368793
-0.381967
0.174369
-0.470561
-0.287839
0.247643
-0.541446
-0.099926
-0.446307
-0.262527
0.443969
0.498610
-0.098574
0.071314
0.245447
0.015145
0.298953
0.391913
-0.021004
0.120767
-0.276602
0.364456
-0.124697
0.272801
0.383573
-0.200721
0.111014
0.168297
-0.198095
0.097316
-0.095602
-0.237141
0.374005
-0.504591
0.122553
-0.432481
-0.067126
-0.533289
-0.222422
0.303051
0.278799
0.237155
0.283745
0.182400
-0.179277
-0.173460
0.249222
0.685217
0.676910
0.549181
0.522707
0.220104
0.185177
-0.391146
0.001277
-0.114476
-0.028810
0.421377
-0.042643
0.325000
-0.122364
-0.488113
0.117858
-0.447759
0.332700
-0.517095
-0.036199
0.030758
-0.551242
-0.513892
-0.264871
0.217799
-0.003079
-0.001239
0.280723
-0.246124
0.274798
0.406493
-0.224823
0.002340
0.275061
0.752035
0.512844
0.309785
-0.157757
-0.424141
0.056368
0.119487
-0.117943
0.143874
0.523212
0.204849
0.541607
0.151933
-0.442692
-0.434541
-0.410748
-0.356756
-0.037805
-0.486235
0.318462
-0.007217
-0.407994
-0.378321
-0.281256
0.292653
0.636824
0.786655
0.214622
-0.179812
0.220283
0.778642
0.786688
0.326702
0.478475
-0.305746
-0.309917
-0.186189
0.120478
-0.508706
-0.417426
0.495443
-0.066746
0.182266
0.050359
0.311365
-0.591777
-0.054963
-0.557809
-0.080733
-0.255770
-0.409519
-0.140888
-0.600300
-0.145759
0.012778
0.150389
-0.409105
-0.254368
-0.180330
0.631805
0.163802
0.356562
-0.032458
-0.034523
0.719974
0.751922
-0.338887
-0.076053
0.261154
-0.183000
-0.501003
-0.344305
-0.271186
0.178419
-0.446089
-0.592719
-0.181472
-0.027498
0.267352
0.468087
0.334181
-0.045455
-0.044471
0.339189
0.009084
0.144338
-0.241297
0.044110
-0.705840
0.076568
-0.217644
0.267993
-0.676020
0.067221
-0.186129
0.455767
0.072317
-0.445329
0.014776
0.234882
0.208497
-0.228982
-0.376475
-0.172540
0.008271
0.216232
-0.271893
-0.699911
-0.412730
-0.336059
-0.340863
-0.279231
-0.071444
0.487570
0.196849
0.007041
0.068438
-0.554909
0.121067
-0.018859
-0.638841
-0.463338
-0.640557
-0.363936
-0.727173
-0.290558
-0.315468
0.016694
-0.045492
0.368997
0.073405
-0.078641
-0.301609
0.342660
-0.389790
-0.447981
0.038743
-0.186984
-0.305098
-0.776923
-0.195786
-0.084143
-0.405472
0.246913
0.820722
0.421132
0.437726
0.487996
-0.218699
-0.336151
-0.079317
-0.447493
-0.546484
-0.670120
-0.609895
-0.577755
-0.289201
0.197600
-0.128408
0.429592
0.597270
0.418736
-0.163411
0.781545
0.381813
0.442659
-0.327706
0.080822
0.367991
-0.111065
-0.653448
-0.821048
-0.166141
0.127971
0.378963
0.202560
0.299710
0.324855
-0.177653
0.254126
-0.084460
-0.417430
0.127114
0.020490
-0.252257
-0.672131
-0.194442
-0.245988
0.091066
-0.490861
0.428394
0.198165
0.575225
-0.016173
0.851652
0.029374
-0.213467
-0.143585
-0.479282
0.123882
-0.018033
-0.292663
-0.781073
-0.089076
0.077869
0.048417
0.535248
0.121237
0.412699
0.036457
0.483040
0.552784
0.624405
0.412632
0.127583
-0.013146
0.127275
-0.198288
-0.247709
-0.508855
0.185258
-0.242859
0.218031
0.455036
0.710624
0.127585
0.065742
0.940568
0.338205
0.084153
0.127885
0.203608
-0.440798
0.168164
-0.578661
-0.844437
-0.378015
0.088700
-0.035673
-0.050688
0.632554
0.265133
-0.094703
0.769988
0.392652
0.348915
0.342031
0.014503
-0.276135
-0.295118
-0.816833
-0.005538
0.338411
-0.427724
-0.255489
0.143291
0.665111
0.211859
0.089621
0.258051
0.191996
0.442354
0.316218
-0.139375
0.304522
-0.350074
-0.645103
-0.726294
0.010268
-0.487212
0.296675
0.412888
0.779380
0.509668
0.535365
0.335665
0.419580
0.487021
-0.208833
-0.560704
-0.655184
-0.717935
-0.626693
-0.914555
-0.133826
0.087041
0.619130
0.831323
0.304794
0.766183
0.332763
0.551744
-0.015257
0.140138
-0.034795
-0.044616
-0.511656
-0.098847
0.316716
-0.443109
0.115015
-0.323068
-0.247531
0.228823
0.751294
0.093876
0.813580
-0.100995
0.377825
0.676768
0.582526
0.222601
0.401775
-0.258770
-0.787528
-0.748646
-0.447860
0.433873
0.053104
0.337059
-0.081437
0.446345
0.088476
0.412999
-0.212488
-0.007989
0.091269
-0.322430
0.307384
-0.297862
0.246097
-0.293366
0.491133
0.086818
0.445029
0.190670
-0.070194
-0.161738
-0.238821
-0.115880
0.603080
0.477684
0.805804
0.584389
0.602321
0.819084
0.209110
-0.282487
0.488214
0.226618
-0.207526
-0.332914
-0.448545
0.313760
0.290593
0.133943
0.010119
0.637161
0.436565
0.393732
-0.228161
0.382276
-0.221851
0.022691
0.031684
-0.435354
-0.393038
-0.129809
-0.337713
-0.037877
0.357102
0.434092
0.029957
0.091830
0.448919
0.548200
0.438436
0.439376
0.329047
0.184188
-0.073488
0.675026
0.399499
0.283393
0.194283
-0.126857
-0.269523
0.250224
0.153221
0.604727
0.188753
-0.355195
-0.351383
0.217703
0.456427
0.016880
-0.015757
0.309161
-0.196906
-0.089251
-0.216791
0.560022
0.094119
0.163351
0.252641
-0.048953
0.584514
0.425392
0.385287
0.484697
0.149075
0.120196
0.069145
-0.415422
-0.355625
0.089502
0.461494
0.396428
0.189818
-0.235502
-0.154546
-0.222299
0.056878
0.134242
0.498223
-0.284512
0.246941
-0.303674
0.482596
0.042815
0.047476
0.194068
-0.089482
-0.068901
-0.125223
-0.356175
0.389777
0.163222
0.176325
-0.096270
0.414666
0.198319
-0.566694
-0.074888
0.179516
0.155273
0.355124
-0.238274
-0.258114
-0.050438
0.430879
0.245307
0.171268
-0.118172
-0.119354
0.100770
-0.299064
-0.036048
0.485753
0.072910
0.089630
0.260159
0.028262
-0.340515
-0.176265
0.439452
0.461501
-0.070589
-0.436254
-0.260361
-0.149506
0.298064
-0.170378
0.288611
-0.779902
0.073234
-0.221373
0.459312
-0.340552
0.284214
0.161805
0.188509
-0.288223
0.684367
-0.279607
-0.288702
-0.013382
-0.202597
-0.450524
0.449442
-0.178877
0.421642
-0.415257
0.427885
0.107662
0.473246
0.507015
0.222606
-0.384983
-0.188932
0.175371
-0.447210
-0.253570
-0.654750
-0.259586
-0.804183
-0.256015
-0.413098
0.037929
-0.214940
-0.232538
0.415776
-0.356400
0.073250
-0.429276
0.393287
0.274099
0.507231
0.444393
-0.396952
-0.080573
-0.170324
0.395136
0.033061
-0.260643
-0.271675
0.193421
0.142714
0.300937
0.511595
0.046753
-0.338647
0.276507
0.513346
0.163346
-0.012705
-0.389376
-0.597292
-0.386518
0.198354
0.070319
0.507243
0.407892
0.052870
0.052906
0.400805
0.171766
-0.101917
0.543834
0.381585
0.425978
0.478570
-0.128695
-0.145557
0.170021
-0.201875
-0.132764
-0.428749
-0.395632
0.301976
0.351200
-0.444584
0.290129
-0.045389
0.402743
0.165841
0.201990
-0.338536
-0.599099
0.325428
0.359724
0.456945
0.205195
0.438410
0.501960
-0.082610
-0.385812
0.244714
-0.446147
-0.350203
-0.211612
-0.249044
-0.251865
-0.034541
0.504975
0.209063
-0.077666
-0.366558
0.216276
-0.396234
0.390578
-0.412261
0.191709
0.349211
-0.302516
-0.150967
-0.171922
0.304279
-0.161960
-0.168798
0.225305
0.333509
0.286522
-0.221503
-0.093815
-0.322523
0.470493
0.394041
-0.110919
0.312682
0.093380
0.267413
0.400019
0.387742
0.405456
-0.273914
-0.253719
0.279655
-0.335501
0.102412
-0.129254
0.086599
-0.104163
-0.427364
0.423656
-0.174336
0.499738
0.487184
0.542619
0.510575
0.491408
-0.265667
0.248329
0.147308
0.176499
-0.338324
0.298617
-0.023313
0.294517
0.090167
-0.416969
-0.038120
-0.128901
-0.387122
-0.069881
-0.450496
0.325485
-0.392082
0.318323
-0.268233
0.185875
-0.256241
-0.314536
-0.493908
0.209030
-0.274208
0.151768
-0.176703
0.082734
0.585169
0.277345
-0.040121
0.085243
0.453846
0.117940
0.709666
0.561034
0.006872
0.129869
0.127944
0.090892
-0.392921
-0.089671
-0.082146
-0.312082
-0.208257
0.102186
-0.276719
-0.107288
-0.016168
-0.284229
-0.426576
-0.203479
-0.323410
-0.343639
0.025630
-0.031922
0.483330
0.298286
0.152600
-0.178366
-0.247705
-0.237829
0.216290
0.583425
0.591476
0.183555
0.590865
0.680494
-0.042852
0.600660
-0.028053
0.614332
-0.134892
-0.121177
-0.009374
-0.414975
0.466730
-0.217690
0.425975
0.162034
-0.164786
-0.347828
0.152920
-0.377186
-0.272311
0.236317
-0.461757
-0.450500
-0.195228
0.494987
0.433343
0.114089
-0.128429
-0.271547
0.643085
0.004785
-0.201578
-0.046396
0.756140
0.202700
0.688151
0.350545
0.555540
0.552140
0.115305
0.317724
-0.347284
0.581202
0.230589
0.569467
0.469957
0.446243
0.329666
0.107967
-0.326801
0.248640
-0.258097
0.185620
-0.490862
0.389775
0.407872
-0.023725
0.266954
-0.210555
-0.056604
0.065860
0.119264
0.394381
0.589772
0.283581
0.361543
0.127094
0.303506
0.152651
0.430234
0.070624
0.502984
0.358402
0.363846
-0.307202
0.031572
0.414590
0.280149
0.497722
0.119611
-0.075593
0.440439
0.043347
-0.444825
-0.266809
-0.365095
-0.351784
0.222450
0.089904
-0.003760
0.469188
-0.228783
0.145518
-0.267878
0.524994
0.157626
0.303033
-0.117544
0.661138
-0.175358
0.722402
0.558027
0.113463
-0.300047
0.583039
0.057988
0.159948
0.445946
0.334147
0.044896
0.241212
-0.001278
0.138610
-0.202609
-0.358043
0.476258
-0.371431
-0.407848
-0.103849
0.450871
0.052512
-0.264749
0.577166
0.312569
0.096576
-0.062653
0.128472
0.363027
-0.247709
0.187650
0.570334
0.518529
0.154561
0.030985
0.788852
-0.034448
0.104885
-0.396649
-0.392616
0.030134
0.303628
0.322017
0.081133
0.414161
0.415910
0.100462
-0.225935
-0.055528
-0.490266
-0.018777
-0.416954
0.336731
-0.134633
-0.031949
0.447897
0.211326
0.124932
-0.275919
0.343348
-0.300599
0.434371
-0.003303
-0.082072
-0.478238
0.646148
0.451210
-0.216492
-0.433246
-0.649680
-0.158275
0.419436
-0.414171
0.072035
0.399332
0.091969
0.441344
0.339000
-0.323988
0.328191
0.138637
0.442005
0.196584
-0.085049
-0.486751
-0.082847
0.517274
-0.101872
0.192259
-0.026723
-0.111014
-0.038627
-0.060472
-0.225811
0.334364
-0.507590
-0.261664
-0.001961
0.255917
-0.173276
0.301421
-0.516313
0.314761
0.420994
-0.116186
0.453912
0.212529
0.476043
-0.454494
0.405168
-0.425984
0.089056
0.038129
-0.035843
-0.432556
-0.125840
-0.077628
-0.417537
-0.450847
0.158716
0.559691
-0.109931
-0.124245
0.434305
-0.359470
-0.089623
0.438818
-0.232031
0.154581
-0.037612
0.242732
-0.396376
0.141742
-0.260181
0.149163
0.487610
-0.017430
0.260991
0.201872
0.336160
0.404460
0.504082
-0.006101
-0.398663
-0.265988
0.414152
0.178054
0.146420
-0.253666
-0.361800
0.215172
0.014281
-0.018428
0.490849
-0.036333
-0.260464
-0.119400
0.395774
-0.395988
0.203642
-0.009822
-0.183257
-0.095461
0.221108
0.355486
-0.472086
-0.128999
-0.062449
0.493988
0.070925
-0.326023
0.080452
0.176681
-0.013053
0.386233
0.236370
-0.263233
-0.337370
-0.034729
-0.106161
-0.462703
0.511177
0.123657
0.367954
-0.210585
0.444210
0.108362
0.319902
-0.352954
-0.317869
-0.580099
-0.305095
-0.222954
-0.133572
0.084465
-0.013927
0.343084
-0.051395
0.552485
-0.280409
-0.395961
-0.366260
0.400470
0.110809
0.497539
-0.474103
0.183620
0.118362
-0.029885
-0.015348
-0.042314
-0.000653
0.486140
-0.361694
0.344320
0.425648
0.591189
0.119523
0.525040
0.230785
0.134121
-0.191775
-0.265409
-0.437892
0.410943
0.392295
0.484216
-0.643736
0.177254
0.298727
-0.094456
0.095051
-0.012508
-0.012038
0.099976
-0.130291
0.111764
-0.222463
0.288309
0.133304
-0.100780
0.440924
0.118998
-0.195702
0.024312
0.230376
-0.071619
-0.298995
0.425854
0.332894
0.101303
0.204731
0.324044
-0.129894
-0.269706
0.259669
-0.116259
0.006321
0.050157
0.066480
0.411692
0.189549
-0.104474
-0.330001
0.095789
-0.504116
-0.206115
-0.166765
-0.308958
-0.056125
0.093762
0.283486
-0.200651
-0.295573
-0.461966
-0.419609
-0.460810
-0.382969
-0.369651
0.468476
-0.242153
0.458067
0.362239
-0.062311
-0.294153
0.539755
-0.684236
0.095481
-0.078283
0.352828
-0.025025
-0.305910
0.065067
-0.514786
0.322998
0.080927
0.129325
0.178927
-0.061319
-0.225153
-0.385555
0.358661
-0.205668
-0.374289
0.131863
-0.362534
0.362363
0.476396
-0.042724
-0.380261
0.088558
0.454954
-0.079874
-0.082980
0.042664
0.315886
-0.264072
-0.097235
-0.814879
-0.645915
-0.377451
0.476674
0.250015
-0.240562
-0.063593
0.461095
0.408719
-0.318016
0.284678
0.069298
0.374149
0.430225
0.183188
-0.327922
0.191883
-0.386182
-0.341368
-0.266500
-0.153070
0.300877
-0.073829
0.004148
-0.215510
0.545891
0.578306
-0.122343
-0.316741
-0.391002
0.185815
-0.003042
-0.363272
-0.003756
0.373791
-0.400943
0.053748
-0.328525
0.233438
-0.398305
0.175756
0.248608
0.025006
0.266711
0.403715
-0.237737
-0.380086
-0.162946
-0.009711
-0.268169
0.068719
0.018728
0.238147
-0.425172
0.494118
0.503681
0.414916
0.032083
0.323247
-0.354584
-0.013812
0.048375
0.433706
0.483244
-0.427421
-0.225412
0.113472
0.067621
0.700103
-0.096568
-0.338498
0.258148
0.438767
-0.406863
0.475470
-0.348907
-0.339411
-0.365223
0.392786
-0.255663
-0.101661
0.321485
-0.327765
-0.315975
0.016798
0.201830
0.499501
-0.311290
0.182560
0.499827
0.491051
0.121730
0.331889
0.249754
-0.421995
-0.155220
-0.385818
-0.503640
-0.072832
0.158953
0.064289
0.134754
-0.110123
-0.102300
-0.408443
-0.073649
0.135322
-0.103002
0.475456
0.425763
-0.214195
-0.419562
0.250168
-0.336320
0.298805
0.273697
-0.315184
0.326550
-0.041181
-0.233011
0.280132
-0.023064
0.336719
-0.094343
-0.126117
0.074349
-0.140328
-0.405748
-0.108566
-0.358678
0.384515
0.163128
0.021846
0.504829
-0.243211
-0.149833
0.181473
-0.368849
-0.131941
0.401535
0.091865
0.104912
-0.480637
0.373028
-0.339481
-0.153975
-0.280595
-0.353778
-0.237387
0.251202
-0.196087
0.283573
-0.034004
0.267295
-0.311634
-0.365035
-0.184426
-0.139102
-0.369068
0.323205
-0.313086
-0.258123
0.703322
-0.143709
0.019623
0.590952
0.247448
-0.014573
-0.078206
0.375722
0.508476
0.239199
0.064261
0.308717
0.319273
-0.479060
-0.111055
-0.360068
-0.150135
-0.487033
-0.005997
-0.320439
0.160627
0.525777
0.843471
-0.307257
-0.071868
-0.526872
-0.583254
0.065117
0.069475
-0.170099
0.309637
0.310753
-0.239617
0.685383
0.233790
0.029142
-0.203900
0.313537
-0.495161
-0.300039
0.148169
-0.393760
0.136885
0.427302
0.093365
0.346147
-0.008035
0.470190
-0.029069
-0.493462
-0.025215
0.089263
-0.283480
-0.101788
0.533688
-0.239730
-0.506309
-0.653258
0.144830
0.350064
0.456989
-0.375738
0.474304
0.013404
-0.176587
-0.317980
-0.292529
0.076217
-0.347508
-0.003745
-0.064389
0.218786
0.092464
-0.078165
-0.181672
-0.198473
0.016489
0.155586
0.007927
0.098446
0.638481
0.301332
0.272744
0.603192
0.644151
0.590761
0.483485
-0.140770
-0.178091
-0.500840
0.298630
0.082140
-0.102162
-0.472769
-1.096823
-0.906598
-0.062329
-0.450943
-0.094519
-0.209589
0.245090
0.453766
0.281649
0.420480
-0.099260
-0.159609
-0.661031
-0.582325
-0.686696
0.332768
0.466568
-0.227907
0.282380
-0.029175
-0.348478
0.291506
0.482141
-0.007490
-0.174269
0.200959
-0.287350
-0.903741
-0.379272
-0.538763
-0.534674
-1.116255
-1.298692
-0.644274
-0.674036
-0.465991
-0.892042
-0.598822
0.360708
0.496976
-0.381812
-0.300228
-0.898448
-1.080677
-0.548250
-0.773619
-0.657271
0.570533
0.811641
0.448596
0.320080
-0.524666
0.294898
0.528111
0.118179
-0.287613
0.226537
-0.146196
-0.103366
-0.787802
-0.983762
-0.802857
-0.236170
-0.990214
-0.953594
-0.360439
-0.630840
-0.613145
-0.731303
-0.447823
0.168257
0.365813
-0.098343
-0.509449
-0.391816
-1.118223
-0.886281
-0.590524
-0.384092
-0.281932
0.001181
-0.438360
0.128010
0.191032
0.207418
0.167655
0.355636
-0.190288
0.322243
0.110894
0.568997
-0.172752
-0.198830
-0.021477
-0.053950
-0.198379
-0.806992
-0.451054
0.091818
-0.737126
-0.537201
-0.111735
-0.220084
-0.172464
0.126877
-0.247429
-0.437914
0.329712
-0.026776
-0.448061
0.075558
0.574179
0.555021
-0.166476
-0.059327
-0.011360
0.250770
0.092523
0.040785
-0.288461
0.296853
-0.189734
0.293680
-0.196221
-0.339584
-0.410553
0.367052
-0.152910
-0.648892
-0.530371
0.362534
-0.268103
0.039422
-0.183864
-0.013695
0.370303
0.030279
0.643781
0.379985
0.164980
0.095431
-0.596963
-0.384278
0.143304
-0.186945
-0.176038
0.176233
0.082612
0.033167
-0.173803
-0.841812
0.003945
0.237814
-0.889116
0.363015
0.234759
0.466891
0.535654
0.804176
1.026040
0.787918
0.807510
0.439459
0.447518
0.110591
0.562834
-0.103070
0.198160
0.639236
1.042130
1.066354
0.371398
-0.210234
0.122859
-1.024844
0.334220
-0.174765
-0.249047
0.054935
-0.171732
-0.048571
-0.415483
-0.100183
-0.046648
0.228176
-0.620942
0.368979
0.913579
0.993088
1.220807
0.813524
0.910358
0.666702
-0.150423
0.746248
0.074223
-0.294499
-0.143827
0.045796
0.004940
0.220234
0.734500
1.178108
0.772144
0.770985
0.257398
-0.662960
0.105649
-0.386047
-0.541697
-0.151742
-0.181888
-0.414671
-0.492320
-0.628764
0.174610
0.008364
0.421346
1.170560
1.275472
1.114781
1.368948
1.354346
1.356949
0.792015
0.398516
0.695440
0.716145
-0.175961
0.300734
0.097074
0.027061
0.924270
0.800923
0.449148
0.630970
0.444404
0.359691
-0.113123
-0.450549
0.310825
0.184460
-0.288374
0.182284
-0.287026
-0.136857
-0.334008
-0.601549
0.419094
0.590774
0.505055
0.641856
0.733397
1.223541
1.005416
1.260840
0.946654
0.829486
0.349030
0.885081
0.425845
0.453753
0.064718
0.593654
0.062502
1.246690
1.123579
