90x1025
90x91
-0.268875
-0.119156
-0.219970
0.050504
-0.076473
-0.016305
0.162267
-0.384755
-0.479950
0.073743
0.494741
-0.166667
-0.064583
0.253598
-0.368184
0.165263
-0.397187
-0.008561
-0.013970
0.243708
-0.318677
0.344383
-0.013740
-0.048200
0.085877
-0.153033
0.472419
0.319230
-0.409206
0.327537
0.480318
-0.029751
-0.096307
0.439890
-0.115241
0.450114
-0.250969
0.445847
0.302385
0.093819
-0.060305
0.451394
-0.257686
0.264736
0.212923
-0.106371
0.030921
-0.400548
0.205899
-0.070354
-0.250605
0.175702
0.491723
-0.170316
0.070957
-0.025852
-0.331788
-0.040047
0.147799
0.153512
-0.281879
0.036413
0.499363
0.212572
-0.377632
-0.234395
-0.464557
0.231201
-0.186111
0.310351
0.354367
0.186413
-0.447233
0.157314
-0.090733
0.172980
-0.416202
0.263569
-0.123576
0.236961
0.145152
0.298119
0.168024
0.448003
0.533769
0.516210
-0.083609
0.440079
-0.361878
-0.444020
0.255816
0.312007
-0.234010
-0.277455
0.084393
-0.028244
0.297867
-0.161938
-0.202257
-0.256894
-0.450728
0.116713
-0.443120
-0.333661
-0.387075
0.121061
0.209446
-0.214064
0.093582
0.502502
0.106513
-0.101128
0.359883
0.501785
0.463697
-0.149575
0.334481
-0.295440
0.410366
-0.151424
0.291376
0.009171
0.474858
0.304602
0.053203
0.197281
0.479180
0.342611
0.431736
-0.072874
0.113639
-0.254592
-0.119586
0.364414
-0.012926
-0.235811
0.325127
0.023680
-0.372946
-0.302327
0.154941
0.085344
0.228237
0.512793
-0.282004
0.263211
-0.052157
-0.203497
0.112163
0.344649
-0.207081
0.200512
0.275501
-0.056665
0.294860
-0.251107
-0.268500
0.368213
0.116373
0.127849
-0.157701
0.490234
-0.444618
-0.096665
0.279100
0.463742
-0.274997
0.246803
0.355159
0.504532
-0.339080
-0.195429
0.076020
0.309614
0.278248
0.225398
0.463461
-0.148730
0.098920
0.283404
0.018016
-0.054401
0.321743
0.429618
0.441153
0.326874
-0.013409
-0.465965
-0.272716
0.448151
-0.070891
-0.170353
-0.393616
0.148444
0.339511
0.368431
-0.167093
-0.035023
-0.263993
0.032254
-0.021190
0.335440
0.326125
0.357476
0.094513
-0.362791
-0.334864
-0.230169
0.185304
0.288162
-0.005123
-0.063103
-0.206686
0.223668
-0.407992
-0.099305
-0.122361
-0.432287
0.343044
0.414489
0.080991
0.304777
0.085623
0.437454
-0.057932
0.030183
0.404337
0.217615
0.380477
0.449337
-0.199951
0.403770
-0.431077
-0.217300
-0.221704
-0.180387
0.330000
0.105021
0.362779
-0.241184
0.022117
-0.103896
-0.010134
-0.079859
-0.226970
-0.381556
-0.124584
0.118349
0.422410
0.458271
-0.254222
-0.259192
0.309588
0.265935
-0.214659
-0.115523
0.147684
0.290000
-0.258705
-0.338022
-0.327961
-0.394933
0.437062
0.382885
0.147394
0.447135
0.107479
0.469404
-0.197639
0.202359
0.509746
0.111779
-0.196071
0.345742
0.525567
0.383637
-0.121673
-0.059033
-0.361892
0.454856
0.096267
0.290725
-0.136419
0.160306
-0.067858
-0.034457
0.480423
-0.420696
-0.395123
-0.405083
0.095660
0.244963
0.020231
-0.310191
-0.000143
0.206282
0.287833
0.085671
0.542496
0.266509
-0.266787
0.225716
-0.065169
-0.036143
0.407051
0.499410
0.204053
-0.178966
0.441187
-0.008920
-0.350522
0.207618
0.283356
-0.058407
0.344007
-0.449350
-0.383236
0.290862
-0.024060
-0.237650
0.167573
-0.260876
-0.044673
0.353752
-0.206148
-0.432537
-0.053801
0.313448
-0.268886
0.400550
0.135299
0.175195
-0.329844
0.076816
0.258825
-0.102216
0.523998
0.377324
-0.313328
0.278341
0.462534
0.572056
-0.323874
-0.271716
0.294608
-0.396969
0.009903
-0.241231
0.299963
-0.335838
-0.170720
-0.430120
0.052339
0.100233
0.414232
0.483578
0.038935
-0.065659
-0.273435
-0.247508
-0.151115
-0.340758
-0.139602
-0.194435
-0.088617
0.197018
0.204807
-0.212006
-0.153793
0.278581
-0.210213
-0.109094
-0.028183
0.273915
0.186317
0.183449
-0.137714
-0.154485
0.234718
0.474492
0.329861
0.425237
-0.338384
-0.056496
-0.180786
0.110614
0.362919
-0.424627
0.506434
0.344883
0.478533
0.300556
-0.320004
0.519168
0.519407
-0.194699
0.226959
0.009099
-0.235359
0.501919
0.024433
0.511544
0.386924
0.219723
0.445698
-0.039806
0.607214
-0.001817
0.552168
0.275173
-0.269038
0.246270
0.089487
0.089241
0.566764
-0.280795
0.467999
-0.420742
-0.258744
0.069827
0.274979
0.237375
0.135217
0.291380
-0.288128
-0.299128
-0.344787
-0.064833
-0.298291
-0.077106
0.063670
0.098667
0.141195
-0.365148
0.358736
0.242045
0.449335
0.333318
-0.411387
-0.133513
0.482881
-0.273905
-0.087345
-0.292235
0.435588
-0.239431
0.382172
0.024227
0.252379
-0.423372
0.030643
-0.435071
-0.121258
0.494306
0.431767
0.072945
0.492290
0.287939
-0.295586
0.229294
-0.292056
-0.180380
-0.018600
-0.292674
-0.216982
-0.265551
0.426482
0.363191
0.134244
-0.247016
-0.252779
-0.347553
-0.291280
0.336803
-0.452174
0.423668
-0.358351
-0.415249
0.127326
0.252384
0.458226
0.376028
-0.205967
-0.080060
0.227472
-0.284432
-0.012673
-0.078495
-0.186769
0.211869
-0.111146
0.064411
0.017359
0.341198
0.477649
0.511890
-0.118619
-0.353094
-0.357373
-0.011938
0.452520
-0.122152
0.476728
-0.278441
0.044568
0.040459
-0.089500
0.407896
-0.191550
-0.296100
0.322153
-0.584929
0.390203
0.353376
-0.133414
-0.274551
-0.440828
0.406392
-0.175752
0.234360
0.427645
-0.083820
0.264288
0.419756
0.207753
0.184486
0.442778
0.527640
-0.190950
0.551140
-0.332664
0.110299
0.239577
-0.256810
0.468466
-0.118831
0.436249
0.032476
-0.286085
0.122911
-0.043956
-0.130940
-0.233327
0.388887
-0.500344
-0.015918
-0.439111
-0.003563
0.172504
0.481893
-0.094266
0.275114
0.295431
-0.099095
-0.124050
0.005147
0.062917
-0.051829
0.042393
0.381417
-0.166796
-0.368094
0.399849
0.285675
-0.360119
-0.311537
-0.358651
-0.270758
0.085726
-0.186668
0.189497
0.432202
-0.311040
0.243773
0.334927
-0.302050
-0.387958
0.204884
0.613018
-0.273569
0.209203
0.268154
0.497229
0.490349
0.671725
0.569324
0.676347
-0.000698
0.169600
0.143999
-0.303336
0.121258
0.154280
0.425086
0.427990
0.637307
-0.194722
0.637429
-0.256440
0.311050
0.202916
0.348782
0.572127
-0.065174
0.426343
0.483729
0.148901
-0.423756
-0.353525
0.050115
0.457513
-0.258417
0.135017
0.216652
0.002067
0.179073
0.003552
0.079860
0.301007
0.561929
0.327777
0.653305
0.360151
-0.264203
-0.142720
-0.279035
0.115272
-0.110208
0.053313
0.495911
0.200988
0.321431
-0.222388
0.534630
-0.248512
-0.199754
0.490997
0.484387
0.441279
-0.012954
-0.206011
0.416095
0.143515
0.503707
-0.166973
-0.352906
-0.048234
-0.201428
0.295282
-0.078964
0.503624
-0.429517
0.276183
-0.110761
0.410511
0.213578
0.355771
-0.411675
0.055278
0.339425
-0.023903
-0.194853
0.004833
0.102693
-0.214582
-0.212455
-0.131404
0.173558
-0.018872
-0.377726
-0.121152
-0.208110
0.433994
-0.201914
-0.361873
-0.342743
0.297518
-0.256536
0.081788
0.083748
-0.419476
0.552723
0.477837
-0.036314
0.431966
0.096212
-0.267911
0.012191
-0.389787
-0.088212
-0.068340
0.239632
0.322944
-0.324612
0.423016
0.349085
0.279711
0.081480
0.363099
-0.196437
-0.262656
0.277454
-0.401976
-0.008207
-0.363544
0.479081
-0.310829
0.401586
0.436291
0.413239
-0.108466
0.168144
-0.333918
-0.392246
0.199673
-0.379740
-0.142957
0.349258
-0.289231
0.296699
0.483601
0.231079
-0.138556
-0.264835
-0.322357
0.549296
0.340034
-0.135152
0.339437
-0.312798
-0.293593
0.516625
0.147466
-0.134108
-0.125728
0.168226
-0.320964
0.307800
0.320107
-0.334657
-0.113894
0.517138
0.020800
0.019167
0.363721
-0.358605
0.158793
-0.227134
0.311269
-0.160179
-0.258189
-0.076492
0.443942
0.291015
0.183730
0.049720
0.345227
-0.333716
0.402349
-0.055116
0.108755
0.076183
-0.225543
-0.162420
0.055419
-0.168439
0.145164
0.015309
0.355509
-0.470327
0.302794
-0.341855
0.460884
0.366901
-0.386065
0.417630
-0.105820
0.083865
0.160793
-0.346900
0.359608
0.091490
0.460865
-0.139934
0.335231
0.247928
-0.070711
0.533172
0.122674
-0.085598
-0.052091
-0.366702
0.312388
-0.138507
-0.331792
0.144285
0.268039
-0.120381
0.455515
-0.270839
-0.134365
-0.373435
-0.360438
0.247908
-0.399630
0.158051
0.344603
-0.209657
0.377332
-0.026154
0.055722
-0.237278
0.238837
-0.091211
-0.448609
-0.245457
0.448284
0.302948
-0.407119
0.353246
0.291198
-0.216726
0.272412
-0.326988
-0.086726
0.269617
-0.044646
-0.173594
0.167378
0.352591
-0.385704
0.399278
-0.042817
0.107902
-0.459894
-0.089759
0.296951
0.469418
0.345893
-0.303604
0.415439
0.322741
0.149490
0.507382
0.530256
0.250339
0.333470
0.394187
-0.069178
0.358152
0.498395
-0.259242
0.027835
0.257118
0.285391
-0.413855
0.068529
0.092261
0.042458
0.121982
-0.415140
-0.401386
0.321759
0.343848
0.077755
-0.428210
0.418847
-0.287113
0.266553
0.164390
-0.474304
-0.341871
-0.204294
0.429224
0.110286
0.181924
-0.290310
0.189989
0.351496
-0.119083
0.032245
-0.432076
0.371948
0.424450
-0.334106
-0.380772
0.371403
0.435631
0.062847
-0.285117
0.296730
0.204546
0.263295
0.123008
-0.039952
-0.033060
-0.172698
-0.441190
-0.213336
0.290945
-0.046325
0.352445
-0.260051
0.363115
0.463946
-0.278326
0.105687
0.373932
0.038774
-0.041241
0.353483
0.075775
0.455855
-0.105255
0.290311
0.254169
0.497517
0.315297
-0.452707
-0.063405
0.041677
-0.109116
0.150882
0.055288
-0.093338
-0.315935
-0.084735
0.374529
-0.353176
0.047611
-0.250310
0.159927
0.339646
0.104427
0.104778
0.483886
-0.014511
-0.152772
0.218596
-0.126366
0.206907
-0.174696
-0.392513
-0.072648
-0.176543
-0.464858
-0.352536
0.121154
0.267854
0.064921
-0.004721
0.357626
-0.216882
0.110493
-0.020539
0.253955
0.331497
-0.298120
-0.304008
-0.471729
-0.236826
0.290511
-0.251987
-0.153762
0.231741
0.183685
0.149091
-0.261095
-0.387164
-0.175051
0.369409
0.494280
-0.304429
0.121809
-0.365156
0.003372
0.103473
0.444423
-0.401564
-0.430463
-0.156114
-0.307454
-0.185195
0.222408
0.191157
0.362664
-0.327253
-0.274076
0.310648
0.501956
-0.338851
-0.341008
-0.377628
0.293617
-0.233792
0.384503
-0.372330
0.129939
-0.393180
0.519925
0.205897
-0.155940
0.118005
-0.059660
0.206446
-0.418915
0.503701
-0.179757
0.411615
0.331565
-0.267031
-0.223051
0.394776
-0.419642
0.083830
-0.271224
0.268378
0.094110
-0.018917
0.160910
0.012874
0.410972
-0.061233
0.271119
-0.163214
-0.503275
-0.381720
-0.045048
0.323934
-0.110235
0.279919
0.173048
-0.321602
0.529932
0.497379
0.001354
0.466537
0.177367
-0.021274
-0.054942
-0.112720
-0.494498
-0.774132
-0.117691
-0.457318
-0.141812
-0.763119
-0.278870
0.090433
0.289126
-0.354579
-0.108642
-0.482147
0.326293
-0.283711
0.184283
0.403463
0.206121
-0.098430
-0.487833
0.221125
0.263041
-0.131124
-0.444124
0.250180
0.628879
0.998646
0.305338
0.944876
0.215644
-0.300824
-0.165579
-0.721393
-0.197586
-0.900953
-0.473531
-0.367698
-0.887659
-0.391387
-0.037164
0.684269
0.592103
0.306361
0.472467
0.105386
-0.373308
0.084085
0.068862
-0.021431
-0.100682
0.212306
-0.158046
0.378441
-0.293080
0.031768
0.050610
-0.210204
0.536033
0.371176
0.184465
0.413577
-0.646585
0.019456
-0.840645
0.174827
-0.736533
-0.874252
-0.117962
-0.351142
-0.525386
-0.335039
0.101446
0.334082
-0.135318
0.261326
-0.011699
-0.514565
-0.197814
0.010664
-0.229887
-0.188813
0.028953
-0.094213
-0.100071
-0.243899
0.223077
-0.004590
-0.144878
0.361303
0.348275
0.534183
-0.022269
0.119510
0.070564
-0.421686
-0.301805
-0.277592
0.055899
0.062244
-0.196591
-0.219597
-0.687603
-0.757152
0.343225
0.027856
0.351667
0.647535
-0.212147
0.364193
-0.257687
-0.017577
0.300717
0.297392
-0.230420
-0.197102
-0.116328
-0.354999
-0.173320
-0.215539
-0.459914
0.011848
0.005910
-0.431349
-0.266036
-0.587157
-0.129267
-0.437692
0.079459
0.122262
0.045765
0.085759
-0.187312
0.516046
0.340246
0.056401
-0.286813
-0.209987
0.217834
0.278991
-0.210002
-0.241165
-0.358900
0.525416
-0.046469
-0.049018
-0.414996
0.110240
-0.602535
0.055133
-0.191165
-0.521537
0.135533
-0.032322
-0.273287
-0.647373
0.037670
-0.381064
0.466963
0.083209
-0.021871
-0.250330
0.057772
0.496853
0.869334
0.111576
0.067332
-0.387978
-0.046738
-0.382851
0.000104
0.260226
0.180973
-0.092706
-0.328840
0.668860
0.409948
0.067489
-0.335802
0.319747
-0.113226
-0.217752
-0.028621
0.100155
-0.772817
0.014157
-0.146849
-0.091959
-0.074423
-0.637968
0.107672
0.304657
0.369601
0.181855
0.301184
-0.150864
-0.036276
-0.034486
0.317386
0.267811
-0.220347
-0.006768
0.181210
0.293696
0.031756
-0.443006
-0.514712
0.198130
0.178667
0.174203
-0.089948
-0.526127
-0.747975
-0.001326
-0.512443
-0.544738
-0.581395
-0.812971
-0.480660
-0.519812
-0.465412
-0.317047
0.279293
0.101677
0.303173
-0.053391
0.183227
-0.375222
0.087128
0.379997
-0.393107
-0.121082
-0.627992
0.200381
-0.372830
-0.592104
-0.455946
-0.626106
-0.324667
0.363716
0.156289
0.090273
-0.227678
-0.657647
-0.086466
0.222503
0.031025
-0.086875
-0.575305
-0.109173
0.084980
-0.942417
0.226443
0.001315
0.084703
-0.166669
-0.264302
-0.217369
-0.092983
0.372179
-0.560857
-0.129960
-0.528935
-0.236453
-0.678206
-0.374493
-0.401662
-0.704276
-0.058936
-0.050701
-0.538474
-0.517098
-0.429228
-0.245390
-0.451739
-0.017545
-0.596372
-0.589606
-0.327142
0.092758
-0.731695
-0.340712
-0.731313
-1.079663
-0.343863
-0.091471
-0.502655
0.508548
-0.554383
-0.823773
-0.251132
-0.213616
0.197768
-0.347758
-1.131337
-1.231080
-1.229953
-0.440059
-0.476087
-0.095376
-0.536916
-0.254018
-0.327356
0.034927
-0.529297
0.132548
0.119071
0.253802
-0.379817
-0.336988
-0.301305
-0.790420
-0.558216
-0.561465
-0.752817
-0.305103
-0.142166
-0.053155
-0.618086
0.437033
-0.047001
-0.299809
-0.057963
0.118944
-0.227996
-0.428932
-0.757828
-0.977143
-0.201863
-0.620435
-0.416128
-0.845269
-0.007302
0.003008
-0.618599
-0.260243
-0.040062
0.119452
-0.301965
0.273564
-0.677582
-0.389431
0.134971
-0.340314
-0.459775
0.034186
-0.484880
-0.176210
0.149012
0.231332
0.194633
0.014217
0.185441
0.353324
0.293076
0.269516
-0.174302
0.250957
-0.910087
-0.789546
-0.583173
-0.535179
-0.203098
-0.621825
-0.313939
-0.593444
-0.663936
-0.164042
0.135507
0.159571
0.190918
0.003833
-0.553778
-0.272858
-0.066181
-0.938396
-0.468088
-0.562183
-0.028291
-0.550846
0.245533
0.331428
-0.485063
0.308699
0.436287
-0.048337
0.020474
0.608636
0.139026
0.324889
-0.028042
-0.267721
-0.089011
-0.097344
-0.596889
-0.574295
-0.915540
-0.582194
-0.457265
-0.566821
-0.138618
-0.375522
0.373537
-0.332937
-0.136806
-0.416938
-0.323410
0.078945
-0.233229
0.288694
0.388631
0.307527
0.120722
0.513716
-0.000087
-0.472239
0.261799
0.021089
-0.094334
0.067253
0.441634
0.319088
-0.146940
-0.602025
-0.733663
-0.342143
-0.213997
-0.637618
-0.714285
-0.740248
-0.857831
-0.339137
-0.428564
0.029508
-0.565183
-0.508596
-0.059630
-0.560970
-0.711829
-0.181480
0.084346
0.342884
-0.092482
0.232961
0.218182
0.016076
0.125806
-0.404442
0.229559
-0.086720
-0.119159
0.668158
-0.112983
0.322166
-0.399797
-0.464998
-0.363830
-0.582476
0.013213
-0.289957
-0.426292
-0.131667
-0.477900
-0.566972
-0.410694
-0.392552
-0.535049
-0.324783
-0.757526
-0.341872
0.173495
0.082834
0.101592
0.358058
0.116251
0.472514
0.518256
-0.039179
-0.039362
-0.119048
-0.520373
0.017381
-0.352244
0.558702
0.552111
-0.579247
-0.305190
-0.261682
-0.062663
-0.041021
0.188256
0.248335
0.048162
0.105643
-0.475364
-0.376260
0.176722
-0.327663
-0.207684
-0.162564
-0.611829
-0.228216
0.018163
-0.502672
-0.622153
0.564527
0.492624
0.046524
0.523822
-0.352589
-0.405582
-0.137248
-0.180879
-0.444876
0.276260
0.084445
-0.063006
-1.117623
-0.741761
-0.329985
0.045465
0.376017
-0.596192
0.332558
0.175981
-0.093345
-0.038920
-0.233924
-0.105099
-0.541780
-0.222531
-0.284159
-0.647036
-0.105186
-0.517130
-0.253739
-0.243265
-0.068952
-0.232105
0.183255
0.017214
0.209072
-0.430809
-0.864062
-0.586228
-1.100139
-0.750128
-0.416650
-0.528038
-0.717289
-0.012096
-0.457612
0.501182
-0.166061
-0.527870
-0.010214
-0.197127
-0.502616
-0.517402
-0.396683
-0.786459
-0.061142
0.038636
-0.398403
0.107076
0.041370
-0.215798
0.289218
-0.385261
0.481189
0.127376
0.056539
-0.358407
-0.264531
-0.728451
-0.369210
-0.503079
-0.631294
-0.368326
-1.244151
-1.096482
-1.283271
-0.747248
-0.120953
0.112905
0.177415
-0.339579
-0.221743
-0.519313
0.013793
0.444541
-0.224561
-0.080377
-0.217244
-0.226280
-0.328819
-0.282707
-0.531345
-0.159923
0.139782
0.194224
0.174379
-0.528998
0.258673
-0.407341
-0.428930
-0.872528
-0.819853
-0.797366
-0.897175
-0.434519
-1.075388
-1.231078
-1.359086
-0.726462
-0.330259
0.048416
-0.122128
-0.053698
-0.095525
-0.623480
-0.188883
0.136645
0.068541
-0.104638
-0.103751
0.300294
0.210468
0.050332
0.247239
-0.451401
-0.314820
-0.512064
0.116025
0.326277
0.246198
-0.352216
-0.563129
0.346589
-0.392305
-0.386281
-1.490344
-1.614652
-0.901068
-1.281023
-1.263100
-0.542656
-0.127977
0.275286
0.598788
0.208886
-0.012833
0.244858
-0.304764
-0.604119
0.301472
-0.357751
-0.126302
-0.506896
0.137912
0.025623
0.414384
0.133586
-0.254418
-0.059795
0.290118
-0.290827
0.169432
-0.441317
-0.489285
-0.325563
0.034623
-0.887493
-0.902014
-1.353089
-1.425339
-0.625200
-1.051710
0.135050
0.423269
0.210324
0.184817
-0.377997
-0.035000
0.046212
-0.126539
-0.458092
0.332880
0.202226
0.375268
-0.157516
-0.290280
0.184497
0.566897
-0.139385
0.088142
0.114906
0.238090
-0.281382
-0.341021
-0.375672
0.218737
0.062895
-0.566376
-0.877676
-0.802704
-0.958681
-1.475024
-1.473143
-0.350846
-0.469388
-0.301054
-0.330119
0.030089
0.187375
-0.651621
-0.280891
0.056602
0.058967
-0.334267
0.467087
-0.146525
0.081738
-0.435415
-0.407681
0.371376
0.451040
-0.098227
-0.679091
-0.123732
-0.681144
0.014909
0.224251
-0.355409
0.010578
-0.210006
-0.660564
-0.419646
-0.154928
-0.880030
-0.505966
0.284255
0.083573
-0.194425
-0.444917
-0.154334
0.178939
0.098844
0.181764
0.142090
0.662949
0.385787
0.327304
-0.246790
-0.017332
0.259131
0.452361
-0.170020
0.868722
-0.264777
-0.254513
-0.108211
0.169679
-0.074010
0.318013
0.406827
0.317514
0.544678
-0.594363
-0.607902
-0.236284
-0.415010
-0.030695
-0.382457
0.136912
0.071011
-0.201561
-0.264763
0.152804
0.141205
0.059235
0.049531
0.467921
-0.432897
0.343943
0.072678
0.344093
-0.556144
-0.156600
0.581766
0.018233
0.060639
-0.573493
0.019064
-0.264791
0.451626
0.033513
0.047259
0.453910
0.052745
-0.426789
-0.494750
-0.250645
-0.332488
-0.303885
0.351938
0.021635
0.483627
-0.173761
0.170242
-0.031151
-0.413913
-0.585491
-0.371355
0.222661
-0.112854
-0.306437
-0.268327
-0.157220
-0.546435
-0.066119
0.772402
1.050677
-0.286639
0.397365
0.071216
-0.464270
0.077109
0.359215
-0.222278
0.726517
0.165250
-0.086767
-0.247603
-0.285331
0.047909
0.130423
0.503397
0.666625
-0.143311
-0.328225
-0.348365
-0.576231
-0.595973
0.189106
0.453747
-0.364826
0.155642
-0.271482
-0.637548
0.093678
0.217519
0.352033
0.587483
1.093231
0.376752
-0.114547
-0.417803
-0.176265
-0.353669
0.130453
0.787909
0.117465
0.459302
0.448474
-0.039582
0.413970
0.020388
0.176998
-0.052078
0.658133
0.324148
0.161679
-0.027731
0.392441
0.231861
-0.055517
-0.004822
-0.438371
0.266483
-0.305140
0.160251
0.191042
0.320319
0.875600
0.941659
0.394013
-0.241426
0.150696
-0.228860
0.270635
-0.287602
0.234667
-0.081485
-0.399818
0.055259
0.689819
0.174009
0.512725
0.333026
0.198451
-0.069210
0.588650
0.425000
-0.284641
-0.503020
0.050377
-0.088283
0.169229
-0.124537
0.360439
-0.163979
-0.126726
0.455302
-0.152170
0.059751
0.385920
0.070943
0.254481
0.384160
-0.049031
0.545952
-0.225741
-0.056855
0.427754
-0.338287
-0.205116
-0.173572
0.239502
-0.433778
0.185782
-0.197780
0.541908
-0.145250
0.193100
0.222197
-0.107316
-0.264110
-0.592167
-0.252335
-0.241366
-0.058467
-0.074194
0.063887
0.060915
0.002240
-0.448460
0.355473
-0.313571
-0.442115
0.009592
-0.366762
-0.467785
0.132602
0.432124
-0.350785
-0.026477
0.095508
-0.384426
-0.195505
-0.402746
-0.159393
0.116627
0.261167
-0.235747
0.050687
0.122450
0.146512
-0.910386
-0.155440
-0.384272
-0.279779
-0.310075
-0.263429
-0.548238
0.086083
-0.265312
0.248311
0.389575
-0.116306
0.095848
0.375832
-0.323100
-0.197362
0.664357
0.339936
0.685869
0.361232
0.185272
-0.408857
-0.420549
-0.425679
-0.288747
0.073049
0.163942
0.058772
-0.246133
-0.739930
0.050348
-0.051047
0.127792
0.097066
0.242698
-0.055162
-0.456688
0.163234
0.030618
-0.401896
-0.518660
-0.199001
-0.234398
-0.361564
-0.287282
-0.518494
-0.190956
-0.092057
0.045891
0.202876
-0.356553
0.141461
-0.669052
0.278254
-0.751721
-0.239765
-0.477067
-0.240988
0.736487
0.312352
0.364140
0.692255
0.465756
-0.327475
-0.303285
-0.316662
0.365296
0.397015
0.110628
0.498270
0.019562
-0.269965
-0.202222
-0.332586
0.478305
-0.326270
0.006556
-0.285911
-0.520055
-0.055048
-0.260246
-0.653148
-0.256005
-0.472258
-0.550472
0.092121
-0.531021
-0.185385
-0.701073
-0.145593
-0.063291
-0.098628
0.212122
0.131848
-0.294534
-0.091973
0.223612
-0.160411
0.620189
0.176233
0.419886
0.386044
0.238361
0.246276
0.122241
0.351277
-0.223164
0.040619
-0.202943
-0.237231
-0.305420
-0.204304
0.207378
-0.497342
-0.443203
-0.652958
0.038029
-0.605620
0.063759
0.791759
0.430009
0.875169
0.560653
0.269376
-0.245175
0.028152
-0.223916
-0.168302
-0.318979
0.187211
-0.270515
0.364072
-0.193780
-0.222438
0.438372
0.684552
0.526119
0.631681
0.384229
0.217792
0.184603
-0.063923
-0.612306
-0.124783
-0.547479
0.137590
0.163075
-0.390133
-0.882652
-0.914472
-0.539919
0.520296
-0.510255
-0.090807
0.323884
0.104253
0.093169
0.107236
-0.103908
-0.022859
0.258768
-0.181345
0.122906
-0.137381
-0.075088
0.144980
-0.401387
-0.001116
0.413598
-0.242557
0.054713
0.185227
-0.570691
0.206816
0.121440
-0.582169
-0.594832
0.235562
-0.439582
0.483936
-0.284775
0.515349
0.479057
0.410171
-0.201432
-0.405039
-0.075359
0.461304
-0.232502
0.158248
0.298454
-0.439576
-0.306905
0.160309
0.200328
-0.212954
-0.434061
0.228221
0.094707
-0.057117
0.633493
0.257947
0.636027
-0.172286
-0.020346
-0.339500
0.153621
-0.504476
-0.039583
-0.367158
-0.359692
0.562477
0.613781
0.492364
0.348240
0.586051
0.656387
0.033172
-0.273789
0.411258
-0.383266
0.065651
-0.043511
-0.252529
0.267090
0.145204
-0.008278
-0.195042
-0.053962
-0.273044
-0.319550
-0.208209
-0.157504
0.594014
0.325787
-0.259509
0.291441
-0.226090
-0.030209
0.350429
0.246593
-0.696347
0.292809
0.342704
-0.307315
0.075495
0.521770
-0.026973
0.439256
0.416989
-0.285487
0.078271
-0.512741
-0.176771
0.164679
-0.167226
-0.350712
-0.464702
0.361153
-0.482894
-0.369644
0.440939
-0.547341
-0.373046
0.399572
0.248350
0.291063
-0.300052
0.166835
0.013655
0.394222
-0.378827
0.218567
0.376036
-0.026636
0.010671
-0.412067
0.292749
-0.165080
-0.196448
-0.350532
0.422478
0.137574
0.010644
0.417864
-0.079945
-0.551055
-0.457072
0.292351
-0.342650
-0.586976
-0.301160
-0.456188
-0.481755
-0.814900
0.094068
0.059417
-0.109166
-0.112092
0.355518
-0.382098
0.053821
0.246314
-0.492154
-0.188773
0.545242
0.277135
0.465310
0.046842
0.598537
0.547102
0.200032
-0.479461
-0.410417
-0.935169
-0.280156
-0.534446
-0.681584
-0.193917
0.188154
-0.174394
-0.638485
0.254327
-0.234537
-0.421397
-0.492863
-1.033705
-0.190434
0.142420
-0.384495
0.365200
-0.402533
-0.464550
-0.359638
-0.504871
-0.175897
0.201583
-0.265875
0.463634
0.026222
0.320682
-0.263687
0.419135
-0.172510
0.594810
0.143921
-0.313085
-0.441338
0.058763
-0.331558
0.272745
0.239428
-0.088541
-0.361839
-0.075875
0.036766
-0.833953
-0.848421
-0.592269
-0.546173
-0.257432
-0.331720
-0.106192
-0.193542
-0.390219
0.452138
0.561547
0.833622
0.526610
-0.059606
0.463948
-0.094643
0.332004
-0.116915
0.180890
0.015230
-0.522889
-0.300168
-0.262934
-0.664110
-0.192027
0.152570
-0.258187
-0.064697
0.108521
-0.537657
-0.358167
-0.775171
-0.336481
-1.084367
-0.790328
-0.448159
-0.459883
0.292622
-0.377270
0.230034
0.010727
-0.493909
0.267283
0.695027
-0.385236
0.593908
-0.108126
0.130611
0.582555
-0.063908
0.728007
0.411799
0.337850
-0.401133
0.063749
-0.518867
-0.350324
-0.150600
-0.123015
-0.565352
-0.119474
0.203560
-0.154168
0.298610
-0.742359
-0.544283
-0.231108
0.168940
0.217115
0.068069
-0.556051
-0.044425
-0.313009
-0.552568
0.057822
0.220302
0.303659
0.005835
0.082342
0.304290
0.569344
0.467060
0.420653
-0.231533
-0.201557
-0.024507
-0.663612
0.277731
-0.231721
-0.433551
-0.218125
-0.225633
0.292888
0.013135
-0.429009
0.159017
-0.032790
-0.063961
-0.848070
-0.755785
-0.355682
-0.560120
0.299099
0.322668
-0.007952
-0.035765
0.689099
-0.063770
-0.226056
-0.078408
0.256733
0.239831
0.210104
-0.101364
-0.006815
-0.456806
-0.359134
-0.247720
-0.069294
-0.113086
-0.465673
0.121135
-0.168718
-0.388023
-0.060216
0.279796
-0.508371
0.034624
-0.403825
0.167384
-0.154564
0.017558
0.125885
-0.517235
-0.449159
-0.489800
-0.381229
-0.135324
0.117943
-0.210578
0.137429
0.384284
0.663638
0.228161
0.470960
0.231481
-0.079470
-0.403781
0.060468
-0.007696
0.194742
-0.200718
-0.352534
0.041182
-0.172671
0.132954
-0.090859
0.161828
0.235251
-0.236340
-0.285017
0.179828
-0.642827
-0.261647
-0.668171
0.039151
-0.566614
0.132286
-0.253828
-0.601403
0.295786
0.268510
-0.292556
0.200729
0.318807
0.226584
0.469730
-0.398583
0.081424
-0.006303
-0.558986
-0.878341
-0.271245
-0.602913
-0.244667
-0.727947
-0.020764
0.253676
-0.398499
0.118705
-0.499132
-0.448305
0.187747
-0.245380
-0.065077
-0.200140
-0.593500
-0.580418
0.225257
-0.325672
-0.246682
0.247874
0.549183
0.664457
-0.110150
0.239299
-0.208841
-0.090292
0.076910
-0.188124
-0.521947
-0.190205
0.093027
0.041262
0.043770
-0.226103
-0.208248
-0.670465
-0.077995
0.233272
0.178507
0.012669
-0.219434
0.060214
-0.161858
-0.286319
-0.363883
-0.343548
-0.730349
0.287284
0.051934
0.095699
-0.037407
0.288124
-0.079404
0.302303
0.282126
-0.534895
0.287292
-0.031990
0.446040
-0.091990
-0.517949
0.203864
-0.509834
-0.105101
-0.057349
-0.328655
-0.405560
-0.168780
-0.689718
0.291042
0.025805
-0.223631
-0.561541
0.062801
-0.596852
-0.702574
-0.296663
-0.246723
-0.657348
-0.537723
0.056419
0.202638
0.212970
-0.259169
0.457652
0.659893
-0.570368
-0.090986
0.560623
0.144389
0.443853
-0.404754
-0.250550
-0.288532
-0.512633
-0.029741
-0.204729
0.027953
-0.295139
0.160808
-0.471626
-0.147014
0.010955
0.359578
-0.265621
-0.275828
-0.193979
-0.398535
-0.685385
-0.121123
-0.265203
-0.285961
-0.612977
-0.495775
0.240852
-0.409462
0.220811
0.335521
-0.110818
0.214781
-0.235774
-0.034979
-0.147673
0.159560
0.506909
-0.139631
0.045829
-0.589799
-0.238360
-0.196629
0.316568
-0.102276
0.305842
-0.499905
-0.216907
-0.077340
0.289775
0.059461
-0.528887
0.174588
-0.761341
-0.693478
-0.234868
-0.419351
-0.292174
0.038878
-0.431441
-0.094647
0.364055
0.263217
-0.232428
0.250955
-0.078137
0.109213
0.059395
-0.290753
-0.148893
0.432594
-0.112088
0.320147
-0.482261
-0.312062
-0.051243
-0.333950
-0.327638
-0.531512
-0.268886
0.256741
0.236774
-0.104814
-0.170207
-0.226184
-0.143021
-0.008389
-0.665209
-0.382062
0.284566
0.324273
-0.453934
0.000475
0.302786
-0.083719
0.280898
0.168028
-0.413422
-0.127725
-0.046089
0.259037
-0.111187
0.545835
-0.207017
0.161504
-0.143251
-0.322848
0.445677
0.436030
0.318507
-0.213746
-0.113938
-0.200572
0.294624
-0.221271
0.015532
0.020829
-0.726605
-0.460093
-0.130029
0.046008
-0.317551
0.363220
-0.166675
-0.160716
-0.233401
-0.215278
0.166034
-0.094655
-0.349178
0.571001
0.285647
-0.280047
0.295714
0.164403
-0.037040
-0.081858
-0.536447
0.510834
0.567017
0.089797
-0.111653
0.422230
-0.424044
-0.612074
0.282503
-0.443284
-0.352943
-0.292907
-0.198871
-0.833589
-0.589993
0.236511
0.056140
-0.043925
0.297820
0.351668
0.104089
-0.198978
0.051529
0.077490
0.291339
0.198828
0.155115
0.514704
0.419654
0.225262
0.178032
-0.406811
0.006436
-0.349391
-0.200994
0.155216
-0.485434
0.334269
-0.430992
-0.046178
-0.065737
-0.535107
-0.548913
-0.202529
-0.415916
0.368413
0.055008
-0.017069
-0.292690
0.161398
-0.415239
-0.340495
0.046323
-0.178601
-0.094760
-0.068249
0.347364
0.203147
-0.279598
-0.245250
0.224548
0.036432
0.627496
0.474030
-0.314515
-0.038963
0.436170
-0.141450
-0.441204
-0.471133
-0.437515
-0.256099
0.268013
-0.342268
-0.082791
-0.444814
0.042446
0.135974
-0.072523
-0.386672
0.516753
0.312358
-0.302750
-0.142137
-0.293947
0.042515
-0.096413
0.151471
0.040432
-0.372248
0.255662
-0.527737
0.254352
-0.154536
0.547378
-0.179087
-0.172365
0.066233
-0.124723
-0.242521
-0.043098
-0.540390
-0.108405
-0.460509
0.107425
-0.003537
0.208390
0.222277
0.246167
0.186127
0.131255
-0.102499
0.502556
-0.430503
0.364199
0.353764
0.148451
0.610809
0.466230
0.379683
0.102520
-0.390044
0.089271
0.213372
-0.449098
0.138476
0.338499
-0.394748
-0.350246
0.085582
-0.180525
0.035129
-0.416728
0.149348
0.233747
-0.131568
0.699246
0.568795
0.121181
0.477165
-0.241870
0.264055
0.443389
0.403642
0.051592
-0.484062
0.198089
-0.499893
-0.081923
0.267415
0.052455
0.052751
0.398785
0.242724
0.310063
0.074866
0.411168
-0.325714
0.017627
0.124367
0.552586
0.630660
0.379342
-0.059947
0.183393
-0.192748
-0.229218
-0.088917
-0.111665
0.414090
-0.369512
-0.110231
0.003989
-0.266675
0.060367
0.184236
-0.016676
-0.050793
-0.447418
0.030132
-0.547316
-0.326737
-0.238602
-0.118490
0.027387
0.389089
0.292921
-0.394593
0.434920
-0.070247
0.104072
0.417981
-0.500832
-0.401960
-0.499433
0.198244
0.206714
-0.027001
-0.098054
0.198104
-0.385933
-0.054753
0.276681
0.631574
0.316329
0.070916
0.411289
-0.324911
0.390660
-0.437351
-0.019223
-0.227468
0.231354
0.095767
-0.342120
-0.464735
0.218681
-0.244745
-0.239028
-0.387636
-0.094864
0.563608
-0.231797
-0.057542
-0.152392
0.528421
-0.187932
0.230367
-0.299064
-0.258298
0.272625
-0.185173
0.275477
0.306232
0.019430
0.532672
-0.225624
-0.001567
0.020094
-0.153171
0.299612
0.330905
0.138396
0.101375
0.353881
0.118276
0.218463
-0.480874
0.421374
0.148137
-0.006562
-0.237465
0.254137
0.401954
0.243870
0.438153
0.323697
0.009936
-0.039116
0.202924
0.174002
0.361376
-0.025642
0.376674
0.674096
-0.198879
0.453851
0.235361
0.992935
-0.050868
-0.257010
0.547557
0.109480
0.076377
-0.059035
0.083702
-0.381720
-0.208329
0.199211
0.343967
-0.482511
-0.306483
-0.662075
-0.393909
-0.396432
-0.272706
-0.652489
0.366284
0.175348
-0.054349
0.442582
0.627606
0.690515
0.483462
-0.219995
0.357735
0.415344
-0.692937
-0.300981
-0.403356
0.015582
-0.117491
-0.174623
-0.118607
-0.041666
0.072208
-0.455392
-0.319634
-0.482642
-0.315996
0.712017
0.070874
-0.324287
0.847266
1.073504
0.647067
1.165030
1.165690
1.395912
1.208161
0.578814
0.830139
0.185527
0.198597
0.170377
0.107298
-0.393534
-0.880005
-0.937362
-0.428438
-0.433625
-0.671218
-0.394117
-0.166031
0.093323
-0.044711
-0.080100
0.777857
-0.181319
-0.275838
0.124153
0.016920
0.385463
-0.097754
0.602502
0.377301
1.166588
0.763825
1.109030
1.018753
1.345766
0.689895
0.620631
0.130263
0.536093
0.183379
0.148545
-0.430370
-0.714281
-0.699483
-1.127270
-1.130049
-0.267098
-0.911860
-0.474155
-0.556386
0.356989
-0.849487
-0.254388
0.550748
-0.395277
0.019664
-0.087438
-0.297640
0.346141
-0.289710
-0.104522
0.906039
0.976636
1.348292
1.809296
1.545250
0.672937
1.961868
0.809379
0.334543
0.397240
0.378434
-0.395827
-0.909079
-0.261040
-0.724440
-0.350245
-0.306966
-0.095334
-0.328690
0.344688
0.099235
0.622659
-0.917227
0.196389
-0.342945
-0.749702
-0.476499
0.189758
0.556567
0.680536
0.244396
0.080081
0.710001
0.414244
0.874269
1.264192
1.045862
0.328570
1.295201
0.462437
0.455499
0.386993
0.493672
-0.315099
-0.480095
-0.230530
-0.733396
-0.512275
-1.237480
-1.376595
-0.647408
-0.109349
0.285090
0.381706
-0.763447
-0.556753
0.321127
-0.605919
-0.702563
-0.328271
-0.235964
-0.546831
-0.647315
-0.241842
0.543412
0.379978
-0.095300
0.503740
1.096521
0.397081
0.353739
-0.160826
-0.508237
0.113071
-0.712813
-0.380180
-0.769484
-0.307080
-0.253982
-0.410415
-0.933669
-1.044780
-0.557888
-0.536285
-0.296907
0.095705
-1.119783
-1.243977
-0.621925
-1.282512
-0.338651
-0.490004
-0.850860
-0.527874
-0.510775
0.109793
-0.297702
-0.136419
-0.551196
-0.337350
-0.718252
-0.571275
-0.796832
-0.587807
-0.441750
-0.276873
-0.565102
0.003187
-1.170960
-0.797263
0.089446
0.076566
-0.608065
0.334638
-0.509667
-0.426225
0.332091
-0.080132
-0.386871
-0.869580
-0.620655
-0.540042
-0.283748
-0.271574
-0.608912
-0.417683
-0.482116
-0.162971
-0.313636
0.458381
-0.792808
0.472927
0.578937
0.127340
0.218041
0.033102
-0.923810
-0.424029
0.194263
-0.686734
-0.885100
0.144946
0.905348
1.260070
-0.180132
0.772586
-0.490380
-0.608640
-0.350555
0.582657
-0.073416
-0.495663
-0.831859
-0.698600
0.187079
0.240489
0.516928
0.069013
0.383325
-0.554504
0.550793
0.059845
0.144970
0.928094
0.536922
0.286952
-0.297928
0.388992
-0.094317
-0.196256
-0.094857
-0.291804
-0.392788
0.346035
1.341789
1.827137
1.029361
0.986308
0.527773
0.980120
-0.231562
0.225626
0.066888
-0.056258
-0.260387
-0.084837
-0.279162
0.308874
-0.466572
-0.557144
-0.854023
0.263978
-0.606987
-1.124171
-0.346569
0.642221
0.208817
0.563710
0.017400
0.182136
-0.240695
-0.048747
-0.379322
-0.390961
0.858688
0.603862
1.167382
1.972920
1.731409
0.529493
-0.322379
-0.037587
-0.120618
-0.661878
-0.439411
-0.232524
-0.521472
-0.357944
-0.336473
0.304326
-0.153792
-0.692396
0.037841
0.566218
0.017514
0.157846
0.701941
0.396783
0.825276
1.088330
0.317228
0.038226
-0.612167
-1.169899
-1.423205
-0.559612
-1.006436
-0.315735
0.741252
0.731626
1.316695
0.823596
0.731493
0.501315
0.021100
-0.257592
-0.596667
-0.330546
-0.016724
-0.596431
0.390193
0.235196
-0.030435
-0.134167
0.207908
-0.081282
0.441890
0.444153
0.032932
0.144008
-0.122457
0.567595
-0.532855
-0.292859
-0.725506
-1.216373
-0.588357
-0.171894
0.291779
-0.065813
1.210163
1.599027
1.561587
0.398591
0.482263
0.302208
0.595701
-0.204049
0.589586
0.256811
0.162275
-0.499759
-0.093821
-0.147804
0.253080
0.033773
0.291951
0.316196
0.169174
0.431145
1.217095
0.785983
-0.114437
0.040675
0.023703
-0.483506
-0.895099
-1.595160
-1.752686
-0.929398
-0.464300
-0.550158
0.782253
2.086497
2.726779
1.470320
1.664782
1.782013
0.357052
0.803068
0.183143
-0.002641
0.557465
0.317677
0.499693
0.319447
-0.311364
0.004410
0.392984
0.140391
-0.241703
-0.228729
0.258654
0.426860
0.511446
0.279339
-0.133934
0.390535
-0.709835
-1.019885
0.067754
-0.645529
-0.024740
0.596309
1.058662
1.070872
1.540759
0.831816
0.703871
0.898251
0.962488
0.769366
0.120352
-0.417301
0.352685
0.089937
0.407460
0.058636
0.047050
-0.450787
-0.186305
-0.396790
0.166508
-0.134812
0.105797
0.719918
0.081772
0.149402
0.845674
0.122995
-0.145088
-0.837505
-0.120218
-0.464043
0.601865
-0.079681
-0.136079
0.564003
0.657051
0.326281
0.435958
0.130763
0.788883
-0.032797
0.364051
-0.313784
-0.010732
0.372454
-0.316758
-0.193967
-0.392993
-0.184134
0.287366
0.047191
-0.339514
-0.840998
-0.521774
-0.275693
0.052611
-0.134453
0.463369
-0.603359
-0.923190
0.043897
0.127949
-0.189001
0.247109
0.405725
-0.153004
0.808818
1.167709
-0.146356
0.629192
0.130260
0.314625
0.114705
0.269762
-0.329491
-0.225581
0.023365
-0.442555
0.034441
-0.341407
-0.392710
0.015402
0.118407
-0.318319
-0.829473
-0.484915
-0.729217
0.034581
-0.015209
-0.708173
-0.105231
0.246711
-0.269519
0.179351
0.202038
-0.244906
-0.146815
0.735488
0.181356
-0.085114
-0.778842
0.209952
-0.510601
0.214771
0.065941
-0.010831
-0.031584
-0.142702
-0.305213
-0.294836
-0.245842
-0.878205
-0.837506
-0.621409
-0.623593
-0.125899
-0.327278
0.129603
-0.312371
0.479787
-0.272268
0.205353
0.678581
0.023728
-0.708418
-0.236862
-0.376464
-0.300363
-0.579470
-0.352085
0.061695
-0.266593
-0.064165
0.115514
0.379532
0.488327
-0.019829
-0.357759
-0.443030
0.316958
0.161943
-0.576793
-0.545384
-0.123168
-0.373386
-0.238541
-0.853175
-1.042751
-0.531650
0.151153
0.223307
0.570943
-0.330734
-0.011718
0.225770
-0.144201
-0.788819
-0.175193
-0.441685
-0.871490
-0.225190
0.261422
0.186232
-0.731410
0.152049
0.013032
-0.026079
-0.437881
0.589931
0.678985
-0.044594
0.321327
0.342426
-0.186621
0.295506
0.173471
-0.490702
-0.498943
-0.330801
-0.183203
0.007532
0.087972
-0.491413
0.927289
0.475073
0.988427
-0.160424
-0.428430
0.362851
-0.031717
-0.215482
-0.559388
-0.153216
0.432105
-0.006421
0.565311
0.189533
0.449336
0.394722
-0.124151
0.674180
0.326286
0.066782
0.240473
0.085131
0.054038
-0.022546
-0.415486
-0.290941
-0.347643
-0.653517
0.133076
-0.486689
-0.124576
-0.733353
0.454564
0.274519
0.983237
0.881913
-0.070602
0.487777
0.474051
-0.284573
-0.054562
0.182404
-0.353988
-0.247655
0.404039
0.594954
0.185578
-0.050977
0.443460
0.428820
0.517743
0.233499
0.951967
0.425448
-0.095487
0.172170
-0.479352
-0.457080
-1.014231
-0.784831
-0.077064
-0.064785
-0.039907
0.203468
0.331483
1.184145
0.963297
0.807878
-0.050715
0.769433
0.440577
-0.050348
0.155021
-0.256977
-0.280491
0.306737
0.838422
0.649429
0.278926
0.606434
0.743228
0.418446
0.177835
0.436850
0.701108
0.728358
-0.592731
-0.598596
-1.095140
-0.681754
-1.203197
-1.056634
-0.580428
-0.257040
0.813994
0.616248
0.982941
0.729394
0.588481
0.900409
0.590002
-0.265669
-0.390798
-0.713902
-0.803772
-0.083128
0.255325
0.747055
1.322880
0.944680
0.899807
-0.117601
0.733309
0.524488
0.044632
-0.030435
-0.007290
0.510752
-0.335238
-0.598270
-0.767154
-1.120732
-1.497879
-1.455903
-1.287771
-1.218613
-1.462981
0.290580
0.621036
1.049799
0.980740
0.976734
1.027483
1.249817
1.012984
0.822406
-0.213980
-0.762724
0.174667
0.761202
0.639299
-0.230393
0.382475
0.321908
0.414224
0.504108
0.207868
-0.208522
0.221653
-0.283333
-0.011941
0.012946
-0.446112
-0.782417
-1.689092
-1.339410
-1.029795
-0.993713
-0.831891
-0.452860
0.083458
0.470353
0.957990
1.113960
0.313370
0.502191
-0.291458
0.107066
0.495026
0.107006
0.378558
0.815245
0.629504
-0.118877
0.360211
0.489974
0.158466
0.418134
-0.463792
-0.540539
-0.382765
-0.258656
-0.327713
-0.451693
-0.828072
-1.033014
-1.215618
-1.482251
-0.978103
-1.475092
-0.500208
-0.416196
-0.266060
0.333205
0.170183
-0.337109
0.041856
0.300307
-0.561898
-0.137096
0.221863
-0.050476
0.274071
-0.078200
0.357787
-0.089950
-0.232323
0.605339
0.428210
-0.115706
0.192809
-0.018699
0.179224
0.106162
-0.598983
-0.471818
-0.867284
-1.939208
-1.789271
-1.720156
-1.180059
-1.564697
-0.388593
-0.487741
-0.855608
0.249371
0.206121
0.515165
-0.068283
0.143989
-0.601048
0.447972
-0.120439
0.878912
0.785949
-0.084410
0.154198
-0.397079
-0.567713
0.394309
0.359882
0.011146
-0.633976
-0.383353
-0.323210
-0.346300
-1.214792
-0.910563
-1.559691
-1.629464
-1.209645
-1.255864
-0.340363
-0.616121
-0.178199
-0.197436
-0.679353
-0.377674
-0.993994
-0.935494
-0.269020
0.302365
-0.128033
0.654575
-0.032813
0.101995
0.359850
-0.360047
0.087188
-0.664420
-0.274392
-0.158338
-0.616890
0.141127
-0.726365
-0.399267
-0.202124
-0.688844
-0.674076
-1.376017
-1.179337
-1.705298
-1.385032
-0.851929
-0.321397
-0.772511
-0.635802
-0.681009
-0.529851
-1.125684
-0.141254
-0.614185
-0.593607
0.050678
-0.814935
0.593476
-0.200298
0.003326
0.496415
0.220578
0.085516
-0.511926
-0.055132
-0.109339
0.085315
0.471369
-0.290236
-0.692780
-0.619773
-0.956061
-0.833017
-1.408766
-0.835241
-1.371646
-0.770367
-0.074142
0.880230
0.096260
-0.149333
-0.394695
-0.051424
0.508671
-0.242248
-0.481730
-0.968463
-0.335445
-0.860177
0.150072
-0.136039
-0.036852
0.188868
0.147375
0.810643
-0.054953
0.365138
-0.164338
-0.357093
-0.739177
-0.994761
-0.473258
0.092118
-0.566263
0.077843
-1.050751
-0.238534
0.527189
0.051326
0.349892
0.184741
-0.077688
0.080310
0.410250
0.196662
-0.338620
-0.133270
-0.199931
-0.051945
-0.130999
-0.379649
-0.166904
0.726001
0.169808
0.427469
0.104841
0.449235
-0.580636
-0.262527
-0.646903
-0.802317
-0.087225
-0.706806
0.033595
-0.258735
-0.302800
-0.127419
-0.859855
-0.299787
-0.143695
0.029342
1.174305
0.685745
0.951035
1.223934
0.864896
1.434109
0.309563
-0.213382
0.173402
-0.329054
-0.242178
0.288330
0.554283
0.699810
0.601561
0.567578
0.374283
0.603280
0.622430
0.097891
-0.511848
-0.174803
-0.216948
-0.419169
-0.261696
-0.061493
0.070873
-0.519945
-0.282992
0.448322
0.625742
0.373854
1.140496
1.127030
1.138960
1.620614
0.877400
0.694556
0.583003
0.031167
0.158918
0.004006
0.334083
-0.059209
-0.024471
0.133937
0.365083
-0.700095
-0.214168
-0.079946
0.358989
-0.122329
-0.259834
-0.763734
-0.126769
-0.938463
-0.282540
-0.280273
-0.179054
0.320958
-0.053514
0.288040
0.119257
-0.420710
-0.331081
0.548326
0.459665
0.274908
-0.303791
-0.230540
-0.330149
-0.495048
0.430423
0.119134
0.137690
-0.597082
0.014222
0.514040
-0.279437
0.689492
0.827434
0.915719
0.979772
1.004705
0.928602
0.792751
-0.099961
0.230188
-0.455804
-0.275243
0.286011
0.324460
-0.186416
-0.041065
0.273996
0.251145
0.274340
-0.176762
-0.306177
0.121417
-0.126368
0.343762
-0.051774
0.309982
0.316457
0.014638
0.137802
-0.376809
0.154520
0.097321
-0.140331
0.577390
1.005531
1.012904
1.333736
1.094159
1.010601
0.521063
0.576484
0.066423
0.362012
-0.272652
0.058515
-0.512266
-0.218845
0.475482
-0.248502
0.259846
-0.107527
0.168324
0.023265
-0.096430
-0.767339
0.068232
-0.594895
-0.422985
0.183744
0.074737
0.497624
0.308380
-0.009305
0.566391
0.441266
0.800175
0.482342
0.274358
0.982759
0.717853
-0.217571
-0.085815
0.435125
-0.297661
-0.053264
0.211256
0.012900
0.119914
0.153140
0.136146
-0.064728
0.320930
-0.171179
0.066557
-0.095163
0.348552
-0.166641
-0.741305
-0.039787
-0.608700
-0.836087
0.043738
-0.203456
-0.292047
0.000357
0.500373
0.450621
0.538561
0.655884
-0.011810
0.519971
-0.052714
0.411820
-0.293472
0.188778
0.246938
-0.463130
0.134050
0.109912
0.346169
0.305430
-0.298984
0.134751
-0.059439
-0.473005
-0.077257
-0.033316
-0.424157
-0.662482
0.250474
-0.346681
0.006576
-0.545300
0.502970
0.862953
0.474028
0.762174
0.640102
0.922934
0.799409
0.200875
0.016090
-0.039469
0.078852
-0.260741
0.213896
-0.255490
-0.401747
-0.098073
-0.077093
0.000709
-0.291183
-0.099587
0.106514
-0.388920
0.324695
-0.130497
-0.033963
-0.908095
0.134126
-0.309745
-0.288817
-0.720497
0.106565
-0.109150
0.826915
0.768673
0.242510
0.659070
1.009493
0.782186
0.313959
0.339918
-0.282390
-0.142591
-0.611791
-0.201440
0.390268
-0.687286
-0.226391
-0.361942
-0.061485
-0.094574
0.515926
-0.347756
-0.192915
0.062553
-0.153402
-0.560132
-0.783284
-0.247264
-0.572078
-0.014328
-0.477005
-0.161875
0.261526
0.502480
0.859738
0.723636
0.597064
1.069926
1.454352
1.369870
0.572597
0.706321
-0.426818
-0.121962
-0.374391
-0.752242
0.474179
-0.722615
-0.271762
-0.020871
-0.464924
0.340315
-0.134313
-0.167248
-0.080064
0.151547
-0.485314
0.030099
0.251848
-0.507127
0.272034
-0.005087
-0.525670
0.227015
0.581377
0.577651
0.955898
0.559565
-0.361545
0.623280
1.388605
1.376227
0.898509
0.200930
0.684059
0.356402
0.137671
-0.433206
0.202073
0.200436
-0.455531
-0.122643
0.227269
0.150155
0.498823
0.014587
-0.260587
-0.495196
0.293970
-0.248848
-0.507062
-0.707019
-0.091624
0.114491
-0.214737
0.283110
0.179378
0.445466
0.312414
0.395087
-0.498673
-0.214036
0.411861
0.384871
0.808955
-0.372610
-0.456573
0.230056
-0.267515
0.143526
-0.642374
-0.079555
-0.742684
-0.147662
0.278625
0.210927
0.136890
-0.258204
-0.209366
-0.077772
-0.521587
0.049746
-0.085296
0.083236
0.367778
-0.140096
-0.724406
0.467889
-0.228343
-0.662577
0.225526
0.419155
-0.556179
-0.166017
0.260154
0.677522
0.597341
-0.037931
-0.554601
-0.280782
-0.656709
-0.085650
-0.290835
-0.135529
-0.663950
0.428908
0.184304
0.369690
-0.108265
-0.526545
0.362360
0.127323
-0.058123
-0.033432
-0.379875
-0.363819
0.329430
0.342573
-0.011216
-0.319306
0.240343
-0.496692
0.035752
0.174594
-0.244112
-0.454092
-0.352775
0.093099
-0.607003
0.015764
-0.542544
-0.735831
-0.911997
-0.556803
0.003381
-0.501823
-0.760639
-0.713300
0.056354
-0.466516
0.488736
-0.305771
-0.050564
-0.381629
0.255856
0.232493
-0.147655
-0.539160
-0.273550
-0.136386
0.060207
-0.172500
-0.091475
-0.123616
0.005507
-0.158323
-0.237017
-0.263349
0.075614
0.130173
-0.614471
-0.773076
-0.221608
-0.983110
-0.418776
-0.383268
-0.654548
-0.281540
-0.774042
-0.497625
0.318963
0.435259
0.201735
-0.000895
0.125268
0.286937
-0.392415
-0.485131
-0.591262
-0.653640
-0.233101
-0.264299
-0.542176
-0.467201
-0.280861
-0.754655
-0.264681
-0.414030
-0.589600
-0.546530
0.136025
-0.980100
-0.347008
-0.461370
-0.669336
-0.341732
-0.068968
-0.360310
-0.376776
-0.756160
-0.991893
-0.671427
-0.446806
-0.046810
-0.111378
0.122374
-0.239825
0.338400
-0.530210
-0.407223
-0.470966
-0.694134
0.350361
0.235190
-0.563618
0.156799
-0.151550
-0.654744
-0.470509
-0.656749
-0.045578
-0.519774
-0.388358
-0.246568
-0.370745
-0.530983
-0.462172
0.552136
0.859138
0.537291
0.360667
-0.300276
-0.119093
0.238786
0.571081
0.076085
0.308922
0.272908
0.361969
-0.186828
0.344316
-0.240034
0.148725
-0.892295
0.247136
-0.398844
0.145144
-0.475039
0.161478
0.073177
-0.413481
-0.684211
-0.478811
-0.704914
-0.407366
-0.633878
-0.737414
-0.387995
0.307335
1.023798
0.060509
0.501590
0.273508
0.032702
0.114795
0.223105
-0.003146
-0.407286
0.272698
-0.197421
-0.200757
0.514551
-0.268255
0.268943
-0.494788
-0.169565
-0.054213
-0.258987
0.383417
0.213159
0.394481
-1.020657
-0.836816
-0.486251
-0.310273
-0.857402
0.067911
-1.005618
-0.495542
-0.657486
0.395839
1.190407
0.600020
0.066737
0.000759
0.360974
0.143120
0.500359
0.643661
0.409007
0.323098
0.008682
0.317744
0.420706
-0.395198
-0.498945
-0.433869
-0.700956
0.604228
0.583273
-0.200642
-0.319104
-0.729314
-0.878784
-0.673304
-1.188220
-0.829534
-0.984526
-1.333220
-1.351048
-0.698785
-0.062245
0.302139
1.274530
0.740946
0.080381
0.234484
-0.175039
0.390578
-0.254149
0.527466
0.104705
0.025387
0.245468
-0.000753
0.260068
0.017693
-0.279152
-0.125513
0.310555
0.595393
-0.128990
0.041254
-0.435666
-0.113499
-0.764678
-0.607501
-0.486297
-0.617185
-1.146388
-1.326585
-0.515786
-0.411373
-0.478117
0.774468
0.916989
0.734887
1.003298
0.137569
0.156792
0.154260
0.079550
0.441899
-0.315979
-0.312982
0.263760
-0.499280
0.105119
0.412206
-0.052480
-0.174406
0.366412
0.358645
0.184252
0.014718
-0.682140
-0.046005
-0.289364
-0.281045
-0.242180
-0.482505
-1.015442
-1.772159
-1.465787
-0.740035
-0.144754
0.422009
0.670626
0.920664
0.706834
0.150703
0.580113
0.460270
0.222578
-0.360060
-0.403502
-0.407581
-0.302045
-0.462730
0.160657
-0.498796
-0.491858
-0.070613
-0.218480
0.236796
0.211356
-0.337505
-0.334560
-0.286427
-0.623555
-0.714819
0.038283
-0.519946
-1.605878
-1.295360
-1.199680
-0.851202
-0.757107
0.412188
0.294991
0.481039
0.055046
-0.345135
-0.391902
-0.374464
0.262833
0.031549
0.125438
-0.100994
0.122151
0.276168
-0.219279
-0.003214
-0.451018
0.324685
0.269979
0.086857
0.259371
0.244525
-0.420295
-0.546433
-0.353437
0.002737
-0.539062
-1.008539
-1.143454
-1.069802
-0.962051
0.186032
-0.226872
0.115945
0.784052
0.594773
-0.257070
0.023631
-0.376764
-0.369357
-0.107708
-0.440234
0.183546
0.018596
0.135657
-0.374682
-0.550724
-0.405740
-0.209537
-0.645401
0.448553
0.192993
0.302991
-0.216893
-0.113990
-0.323161
-0.543118
-0.450655
0.264913
0.149533
-0.694819
-0.401189
0.178537
0.446516
0.042798
0.286107
-0.064721
-0.801742
-0.454532
-0.539349
-0.680416
-0.554133
-0.209416
-0.431258
0.306346
-0.262571
-0.216127
-0.202103
0.206195
-0.006372
-0.195475
0.214380
0.282813
0.784631
0.462770
-0.140215
-0.177081
-0.131390
0.040523
-0.396655
0.401583
-0.613901
0.062193
0.515333
0.224089
0.123161
-0.309159
0.475241
0.255937
0.020944
-0.507105
-0.474092
0.084337
0.245164
-0.417621
-0.537583
0.404712
0.348069
0.454269
0.168472
0.199989
-0.397516
-0.271602
0.333867
0.400585
0.518746
0.369555
0.268264
0.080940
0.596669
0.166285
0.224703
0.224800
0.027786
-0.254334
0.434555
0.057957
-0.062930
-0.135740
0.361989
-0.328263
-0.679266
-0.400992
-0.518729
-0.637064
-0.131281
0.111471
0.238703
-0.208511
-0.222338
0.028543
-0.192826
-0.327212
0.114568
0.335209
0.444682
0.610476
1.113439
0.189614
0.163997
0.552973
0.797400
0.558011
0.161869
0.343323
0.158359
-0.162647
0.351527
0.638159
-0.030370
0.529448
-0.604276
0.233818
-0.968863
-0.453060
-0.751453
-0.185950
-0.176306
-0.181960
-0.273682
0.397820
-0.158641
0.178345
-0.336590
-0.096401
-0.231310
0.355775
-0.115447
-0.003052
1.031294
0.206327
0.069790
0.145986
0.624579
0.646836
-0.065883
-0.138923
-0.504560
0.112441
-0.006547
-0.424953
-0.250627
-0.490305
-0.700811
-0.811909
-0.569263
-0.826059
-0.263080
-0.453832
-0.052966
-0.096305
0.088946
0.168053
0.328909
0.446123
-0.399370
-0.200054
0.289306
-0.144935
-0.269061
-0.233723
0.422241
0.201457
-0.450664
0.375028
0.844389
0.042866
0.099874
-0.171423
0.146408
-0.652949
-0.680906
0.093316
-0.679619
-0.365664
0.039398
-0.915311
-0.819065
-0.748913
-0.982756
-0.748107
0.146454
0.314688
-0.178604
0.345309
-0.130537
0.535849
0.259323
0.393425
0.202295
0.523498
0.044375
-0.365861
0.476806
0.918708
0.215527
0.749875
0.271739
-0.843024
-0.161542
-0.594430
-0.468296
-0.773363
0.300950
-0.880774
-0.744101
-0.956543
-0.418817
-1.106370
-1.095252
-0.389249
-1.003769
-0.485934
-0.074643
0.268802
-0.367008
-0.439066
0.122709
-0.362987
-0.125568
0.448235
0.460465
-0.348957
0.170739
0.293046
1.127772
0.321296
0.433551
-0.234598
0.214707
-0.481669
0.252297
0.375341
-0.718143
-0.473248
-0.620153
-0.560510
-0.471566
-0.617538
-0.417900
-1.107713
-0.534792
-0.905577
-0.956808
-0.607940
-0.080006
-0.284706
-0.242427
-0.257836
-0.260732
0.341815
-0.151647
0.542584
-0.081019
0.105732
-0.023356
0.521213
1.034484
0.817259
0.427531
0.380555
-0.088735
-0.677756
-0.187715
-0.861287
-0.404130
-0.591418
-0.897406
-0.189428
-0.356765
-0.396746
-0.306263
-0.552371
-0.369436
-1.080454
-0.154771
-0.331945
-0.474306
-0.113475
-0.439528
0.021675
-0.201861
0.277594
0.185788
0.043548
-0.230375
-0.007128
0.096571
-0.126158
0.908728
0.157451
1.109091
0.190450
-0.488935
-0.434630
-0.251153
-0.800223
-0.911025
-0.793595
-0.073832
-0.634872
-1.032769
-0.118206
-0.780425
-0.019870
-1.082280
-0.385273
-0.095151
-0.261772
-0.430485
-0.255512
0.487259
0.040817
-0.225547
0.156463
-0.562073
0.018131
0.444692
-0.173417
0.253029
0.238103
0.597315
-0.453885
-0.222176
-0.160363
-0.507108
-0.007501
-0.216933
-0.317897
-0.025381
-0.308780
-0.852332
-0.374399
-0.277060
-0.612343
-0.747611
-0.487872
-1.531416
-1.101091
-0.961012
-0.229067
-0.243768
-0.261312
-0.195835
-0.233495
0.133106
0.700052
0.298330
-0.025777
-0.213758
0.474216
0.343416
-0.477591
-0.318085
-0.680918
-0.324708
0.294607
0.497405
0.413777
-1.024970
-0.839484
-1.017785
-0.602101
-0.660890
-0.722324
-0.028446
-0.257954
-0.385394
-0.492618
0.195267
-0.348713
-0.478852
-0.424846
-0.813020
-0.922957
-0.450108
-0.180061
-0.766241
-0.076715
-0.385978
-0.184358
0.379339
0.215722
-0.642227
0.020903
0.065042
-0.210935
-0.690732
0.030324
0.996662
-0.261258
-0.762203
-0.821123
-0.205341
-0.691630
-0.120234
-0.026668
-0.024724
0.179312
-0.333741
-0.376475
-0.055414
-0.067572
-0.780199
-0.589889
-0.848196
-0.937873
-0.215112
-0.611900
-0.580107
-0.213860
0.011876
-0.628693
0.126809
-0.675882
-0.032760
-0.729235
-0.212931
-0.537862
-0.038088
-0.130594
-0.708829
-0.923620
-0.513134
-0.189870
-0.540252
-0.348380
-0.031416
-0.250443
-0.093920
0.407574
0.592591
-0.145811
-0.290282
-0.948012
-0.815899
-0.240511
-1.056472
-0.168953
-0.522630
-1.066406
-0.621848
-0.230514
-0.340765
0.405480
-0.288834
0.370718
-0.255919
-0.399592
-0.110395
-0.187414
0.907179
0.495575
0.002426
-0.420620
0.737871
0.142536
-0.372991
0.202038
0.766465
0.750639
0.448483
-0.027704
0.795672
0.213213
0.195777
0.073992
-0.268176
0.060068
0.022797
-0.212712
-0.191817
-0.151175
-0.473774
-0.485499
0.054241
0.065059
0.450105
-0.175262
0.213865
0.545741
0.375985
0.083553
0.379034
0.154925
0.224505
0.237821
0.231100
1.016133
0.747661
0.693633
1.081787
0.436173
-0.135294
-0.391550
0.119048
0.631401
0.704610
-0.372055
-0.365478
-0.269999
-0.080641
0.361773
-0.275896
-0.064191
0.683916
-0.129631
0.391169
0.236433
0.734149
0.593464
-0.025026
0.522489
0.254577
-0.499525
-0.125812
0.138934
0.008654
0.757119
0.209647
1.188092
0.259897
-0.467263
0.795274
0.770338
0.066537
0.578569
0.689694
-0.254398
0.644986
0.548614
0.572462
-0.080280
0.112964
0.963503
0.981420
0.458820
0.281756
-0.114225
-0.099099
0.585807
0.087754
0.320783
0.002217
0.239965
-0.004593
0.240828
-0.512083
-0.509725
0.255502
-0.044365
0.240592
1.563491
1.154288
-0.346495
0.544220
0.105129
0.124346
-0.412376
0.058688
-0.095212
0.887159
0.218926
0.288534
0.636280
-0.210933
0.376809
1.040695
1.062221
0.932518
0.686104
-0.407858
0.162854
0.570424
0.766149
0.829297
0.045127
0.909514
0.079773
-0.078388
-0.329610
-0.406123
0.019725
-0.089074
0.396472
0.271526
-0.858164
-0.224967
0.227739
-0.052005
-0.179630
0.041600
-0.644739
0.133874
0.348830
0.274352
0.335969
0.834507
0.503747
0.783247
0.608258
-0.060295
0.317421
0.280992
0.006947
0.095771
0.589312
1.107034
0.736260
-0.030857
-0.638478
-0.490643
-0.645206
-0.829791
-0.201778
-0.362842
0.068426
0.091726
-0.609787
-1.071885
-0.695425
-0.557691
-0.945108
-0.724227
-0.160904
-0.336956
0.120009
0.013931
0.141094
0.364331
0.289666
0.725036
0.719529
0.859444
0.679030
0.089547
-0.304098
-0.085694
0.142893
1.095631
0.683828
0.485092
-0.140817
-0.062860
-0.471641
-0.385572
-0.421490
-0.949192
-0.185386
-0.465774
-0.853543
-0.938245
-1.198429
-1.060287
-1.646144
-1.210485
-1.008297
-0.463439
-0.781476
-0.391056
0.070644
0.554966
0.542906
0.257471
0.383221
0.048091
0.126336
0.177784
0.076935
-0.073328
0.076448
0.800886
0.221656
0.039581
-0.588009
-0.821868
-0.309086
-0.441366
-0.651833
-1.074361
-0.774937
-0.192426
-1.280401
-1.626188
-1.038469
-1.200861
-1.337727
-1.229195
-1.064335
0.213150
-0.149539
0.133075
0.334284
0.120996
0.439139
0.122076
-0.030977
0.393693
0.469913
0.010765
-0.139569
-0.358617
0.503184
0.595256
-0.116547
-0.010615
-1.182039
-1.447597
-1.231865
-1.433906
-0.631165
-1.030070
-0.379938
-0.160479
-0.807961
-1.323411
-0.932970
-1.020444
-1.585952
-1.190700
-1.141230
-1.204545
-0.572901
0.295798
-0.296539
-0.032743
0.280541
0.390736
0.462799
-0.129270
-0.331889
0.384960
0.102396
0.184394
0.390026
1.148745
0.204359
-0.185725
-0.279329
-0.437516
-0.202049
-0.775569
-0.783985
-1.548119
-0.157041
-0.223321
-0.754176
-0.940355
-0.997735
-1.355158
-1.234202
-1.211542
-1.086358
-0.894800
-0.245526
-0.078776
0.161980
0.322021
0.430711
0.331045
-0.148033
0.228995
0.142946
0.540834
0.245471
-0.032319
-0.163362
0.827913
0.414640
0.496377
0.303156
-0.479091
-0.198538
-0.544184
-0.352812
-0.942496
-0.564794
-1.082358
-0.692786
-0.550767
-0.967537
-1.234787
-0.831673
-0.716745
-0.752936
-1.428572
-1.141070
-0.456916
-0.228447
-0.103040
0.666553
1.036348
0.651358
0.284000
0.077955
0.853559
0.193423
0.572745
0.438264
0.199538
0.992292
0.122369
-0.115145
0.219336
0.323091
-0.188867
-0.579659
-0.401972
-1.140147
-0.377227
-0.157427
-0.206643
-1.063126
-0.605631
0.030472
-0.697664
-0.974360
-1.226906
-0.556661
-0.429056
-0.158442
0.717857
0.511326
0.263359
0.402196
0.660805
0.431243
0.262492
-0.506809
0.502897
0.237849
0.220381
0.932443
0.836542
0.180542
0.364842
0.443074
-0.161226
-0.512914
-0.230706
-0.378075
-0.183082
0.047708
0.047479
0.768977
-0.068833
0.264533
-0.026262
0.444510
0.153830
-0.180332
-0.286950
-0.101881
-0.074540
0.365012
0.072906
-0.451676
-0.259858
0.522180
0.520804
0.070438
-0.042847
0.230337
1.301010
0.384152
0.674606
0.611909
0.591151
0.277391
0.045277
0.168453
0.419549
0.477503
1.274534
0.974417
1.483250
1.390116
-0.305657
0.294786
0.309150
-0.221214
-0.202871
0.441146
0.316941
0.156212
-0.202578
0.175610
0.269776
0.438501
0.440300
0.223350
-0.201466
-0.246611
-0.276432
0.143965
0.459891
0.924150
-0.058484
0.825889
0.391221
-0.253272
0.005316
0.707380
0.182609
0.721494
0.971226
0.834940
1.637051
1.194805
0.175758
0.085952
0.027059
0.099343
-0.461788
0.305190
-0.514897
0.079273
0.273440
-0.038733
-0.459949
0.328046
0.600251
0.410893
-0.415123
0.352677
0.123085
0.694090
0.726634
0.628427
0.040005
-0.504433
0.329605
-0.243266
-0.230229
-0.475516
0.238584
1.369544
1.605778
1.450996
1.476541
1.008714
0.648952
-0.234414
0.158541
0.322002
-0.953994
-0.745544
-0.775408
-0.569917
-0.360685
0.109888
-0.340699
-0.075634
-0.161252
0.222798
-0.374352
-0.344573
-0.165821
0.926454
0.110053
0.005151
-0.256270
0.133409
-0.321035
-0.550888
-0.294002
-0.443081
0.138098
1.287284
1.624365
0.672515
1.090610
0.850257
-0.065871
-0.042098
0.073702
-0.190021
-1.167271
-0.772315
-0.784882
-0.607415
-0.665000
0.049373
0.082631
-0.090481
0.177701
-0.332777
0.121568
-0.085365
0.237722
1.339944
0.661179
0.369090
0.070509
0.081826
-0.304445
-0.798851
-0.448746
-0.644373
-0.425933
-0.065522
0.677287
-0.497475
-0.327891
0.259152
-0.384391
-0.615287
-0.411877
-0.555496
-1.918242
-1.043477
-0.819115
-1.086522
-1.145245
-0.119715
0.098673
-0.225226
-0.287661
-0.401201
0.135913
0.067679
0.479634
1.108934
0.571831
0.079973
0.579183
0.436014
0.305306
-0.256461
-0.486587
-0.941446
0.371128
0.308414
0.560813
0.479155
-0.736867
-0.418671
-1.127148
-1.097074
-0.792075
-1.242750
-1.494741
-1.537163
-0.788388
-1.071106
-0.299216
-0.089207
0.311767
0.368831
0.436816
-0.476253
-0.251442
-0.216496
0.386112
0.933479
0.116733
0.592118
1.110312
0.628362
0.158392
0.033701
-0.005583
0.319540
-0.162483
-0.707219
-0.417309
-0.639014
-0.731220
-0.632040
-0.385803
-0.425942
-1.410866
-1.772313
-1.512778
-0.956566
-1.613568
-1.002544
-0.622424
-0.432017
-0.065449
0.267270
0.430871
0.288192
0.498301
0.300428
0.813127
0.456680
0.541405
0.018452
0.623711
0.333088
0.137586
0.038788
-0.622161
-0.356112
0.350250
-0.007713
0.439199
0.040008
-0.078753
0.042290
-0.305208
-1.110542
-0.939380
-1.361261
-0.900362
-0.743162
-0.854318
-1.034102
-0.034350
-0.057990
0.814690
0.359630
-0.242196
-0.091823
0.103909
0.541143
0.459500
0.162549
-0.241269
0.433034
0.574775
0.057037
-0.301646
-0.038561
-0.120746
1.015346
1.084246
1.219423
1.670943
0.852644
0.637678
0.372317
0.344237
-0.780263
-0.813953
0.063202
-0.318992
-0.534205
-0.056770
-0.028531
0.339776
-0.429287
0.044026
0.186192
0.340527
-0.345280
0.034514
0.162227
-0.107667
0.758439
0.529790
-0.182364
-0.046332
0.336577
0.287337
0.025245
0.579531
0.626563
1.577035
1.183388
1.153760
0.715931
1.139212
0.082093
0.554300
-0.366553
-0.424946
0.145323
-0.365414
-0.383238
-0.444914
0.142030
-0.038546
-0.255179
0.366961
0.184244
0.354946
0.103308
0.595113
-0.117505
0.707030
0.581268
0.485496
0.286877
0.816475
0.234810
-0.426148
0.168031
0.288052
0.761580
0.580901
0.102261
-0.203196
-0.452809
-0.354872
-0.833285
-0.438396
0.282383
0.272251
0.245642
-0.095363
-0.187896
0.129265
0.185076
0.410902
-0.058307
0.178480
0.011015
-0.027151
0.587763
0.136108
0.513997
0.461598
0.381183
0.674077
0.129503
-0.112938
-0.388300
0.136187
-0.320101
0.034894
0.095740
-0.415827
-0.033492
0.023008
-0.293025
-0.091900
-0.084145
-0.410811
-0.398039
-0.075578
0.380423
-0.600455
-0.760278
0.118721
0.619593
-0.064246
0.920868
0.116656
0.007868
0.672692
-0.384754
-0.441192
-0.098116
0.125476
0.332024
0.626961
0.169180
0.131548
-0.236081
-0.132869
-0.851298
-0.130974
0.232084
-0.427444
0.804843
0.571457
0.121659
-0.164529
1.011880
0.352441
0.399000
0.996227
1.285556
0.233622
0.911508
0.753876
0.523855
0.606259
1.177957
0.972778
0.224574
0.239980
0.561406
0.416852
0.547268
0.020209
0.615158
1.001200
0.499073
1.137673
0.518385
0.033315
0.709355
0.778484
0.811848
0.423681
1.175648
-0.103322
-0.536270
0.171841
0.383000
0.640084
1.257529
1.545372
1.438138
2.216423
2.222267
1.769728
2.162072
0.762837
1.287021
0.610130
-0.031544
0.180538
0.056871
-0.343741
-0.162826
-0.546078
0.314466
-0.215677
-0.274267
0.496256
0.494202
-0.540108
0.101586
-0.270642
0.249092
0.372960
0.475666
-0.349907
-0.003089
-0.290215
0.656303
0.876787
0.905259
1.282689
0.643230
1.701511
1.463932
1.351084
1.234972
0.964064
0.639237
0.439775
0.566973
0.227685
-0.328181
0.151666
-0.447842
-0.418812
0.282157
0.562272
0.340177
1.745149
1.784362
1.077847
0.744743
0.649288
0.734448
0.825405
0.493717
0.665869
0.092253
0.606375
0.636939
0.785466
1.354041
1.356852
2.396281
2.084612
1.778784
2.332884
1.340851
0.502689
0.085674
0.047706
-0.086499
-0.259616
-0.253613
0.737368
0.563669
0.335415
0.601184
0.099368
0.026061
-0.057431
-0.267994
0.301513
-0.579164
-0.082626
0.196764
-0.287633
-0.040606
-0.233739
-0.331312
0.447084
-0.497030
-0.326563
-0.168725
-0.481966
-0.266543
-1.199571
-0.207450
-0.458185
-0.793836
-0.604116
-0.231073
-0.536428
-0.274073
-0.290932
-0.026335
0.351179
0.628745
0.306965
0.609397
-0.007158
-0.152793
0.575045
-0.027484
-0.553962
0.043035
0.173572
-0.069466
-0.299228
0.068703
-0.402818
0.230349
-0.323606
0.247360
-0.404756
0.028813
-0.784629
-0.531935
-0.862857
-0.399249
-0.962193
-0.800206
-0.246495
-0.516025
0.081225
0.158032
-0.040635
-0.118388
-0.325535
-0.227076
0.067488
0.336220
0.034056
0.053220
0.319158
-0.332497
-0.300801
-0.103224
0.335359
-0.158331
-0.412281
-0.069328
0.099313
0.068043
0.153859
0.480395
-0.526041
-0.554486
-0.181211
0.242515
-0.073623
-0.481510
-0.410467
-0.590292
-0.534555
-0.482243
-0.204060
-0.282176
0.395734
-0.524000
-0.332710
0.338342
0.133579
0.394440
0.383318
0.406305
-0.104371
0.395366
-0.151752
0.410940
0.226746
0.091818
0.375034
0.252508
0.116557
0.034568
-0.263279
0.368988
-0.098118
-0.008569
-0.085019
0.059029
-0.004747
0.165123
-0.352331
-0.017171
-1.114647
-0.929943
-0.093488
-0.164472
-0.252548
0.180158
-0.077772
0.500859
0.098951
0.303696
-0.158718
0.486758
-0.134864
0.776213
-0.065953
0.349261
0.527550
-0.247088
-0.340267
0.192694
-0.211477
-0.586183
0.617376
-0.005771
0.215112
-0.788649
-0.489417
-0.520512
-0.100709
0.030777
-0.446813
-0.034938
-0.039002
0.118961
-0.447188
0.066381
-0.094109
0.080329
0.255995
0.477727
0.049039
0.073345
0.276171
0.474268
0.387273
0.587987
0.436382
-0.010728
0.676565
-0.361177
0.423672
-0.407276
-0.449356
-0.393088
-0.344573
-0.612568
-0.570664
-0.084401
0.192898
0.221393
0.182691
0.675634
0.206013
-0.452790
-0.151980
-0.520913
-0.106335
-0.529862
0.155910
0.210707
-0.105298
0.021010
-0.087881
0.274589
0.650154
0.603108
0.006374
0.749742
0.686009
0.526623
0.358443
0.522334
0.543919
-0.007807
0.064132
-0.304662
-0.252489
-0.341315
0.190440
-0.258880
-0.202890
0.533891
0.334812
0.143159
0.094699
-0.505058
0.410052
-0.208388
0.441782
0.206625
0.040529
0.026624
0.099749
-0.051990
-0.098185
0.325725
-0.155372
-0.262376
-0.189051
0.634284
0.411671
0.063078
0.582657
0.147329
0.242507
-0.092316
-0.301784
-0.075049
-0.059087
0.265630
-0.444700
-0.052905
-0.323266
0.430978
0.636532
0.904819
0.605607
-0.113420
0.145600
0.068664
0.531385
0.260667
0.397590
0.467520
0.166351
-0.240341
-0.161721
0.342771
0.438566
0.261507
0.674835
0.602630
0.256333
0.586056
0.190911
-0.196784
-0.257856
0.062211
-0.307339
-0.368934
-0.954462
-0.369914
-0.058164
-0.431385
0.019030
-0.360265
0.095776
0.732474
0.057439
0.795094
0.467922
0.297139
-0.125592
-0.172113
0.141105
-0.120467
-0.056048
0.292397
0.402323
0.245432
-0.231092
0.346292
0.321916
0.552420
0.158154
0.074109
0.003925
0.193116
0.119113
0.070627
-0.003098
-0.549557
-0.764185
-0.695739
-0.143230
-0.211614
-0.168742
0.074448
0.119230
0.298492
0.606178
0.106906
0.468591
-0.240116
0.032435
0.336286
0.232947
0.572774
0.443488
-0.315510
0.135150
0.303271
0.115607
0.275335
0.545925
0.406750
0.727365
0.034077
0.125028
-0.314318
0.269993
0.368252
-0.283838
0.047009
0.258414
0.068386
0.463357
0.200999
0.561994
0.027222
0.143525
0.817634
0.983847
0.666714
0.477225
0.573450
0.562720
0.319021
0.365862
-0.189197
0.263462
0.197926
-0.120204
0.181196
0.425461
0.627226
-0.139424
0.262314
0.179622
0.043784
0.037994
0.495623
0.530151
0.364843
-0.270070
0.088828
0.896660
0.030584
0.862338
0.593894
0.485194
0.807696
0.849050
0.777567
0.575213
1.228694
0.518351
0.416594
1.006250
0.316129
0.499869
0.250964
0.421100
0.357045
0.368248
-0.051939
-0.132815
-0.155652
0.148258
-0.106957
0.216972
0.365492
0.177778
0.463868
0.825662
0.500991
0.336924
0.656093
0.157375
0.257266
0.660491
-0.356238
0.595540
0.749983
0.885753
-0.039247
1.111878
0.249011
0.200073
0.134453
0.290780
0.645506
0.364697
0.538017
0.069838
-0.111819
-0.344678
-0.282884
0.157591
0.237227
-0.091763
0.105610
0.201107
0.707433
0.308865
0.658923
-0.064037
-0.276584
-0.257793
0.865227
0.720264
-0.057677
0.111796
-0.024107
0.455340
0.346575
0.730738
0.014034
0.548722
-0.105132
-0.036480
0.866419
0.040427
0.456096
0.149595
-0.263152
0.492908
-0.134380
-0.487925
-0.114276
-0.263880
0.483335
0.346322
0.010535
0.735813
0.369385
0.531476
-0.215399
0.446101
-0.153895
0.073003
0.243474
0.794582
0.886819
0.383961
0.666393
-0.315766
0.479855
0.397516
0.151113
0.263211
0.463338
-0.155604
0.369601
0.451007
0.774919
-0.184710
0.367648
-0.235581
-0.139749
0.210373
-0.141262
-0.242296
-0.232493
-0.128713
0.596608
0.474805
0.510848
0.086035
-0.110409
0.394917
0.230588
0.515779
0.706946
1.143897
0.767063
0.342945
-0.300917
0.169244
0.432416
-0.015170
-0.371527
-0.003641
-0.385428
-0.212437
0.131095
0.725571
0.197496
0.368196
-0.136784
-0.163878
0.120993
-0.335667
-0.020635
0.387389
0.396393
-0.305876
0.208257
0.066790
-0.071775
0.181011
0.741346
0.846084
0.562611
0.720394
0.632257
0.464831
0.890752
0.468678
0.372492
-0.083236
-0.595715
-0.046721
-0.036978
-0.366702
-0.390853
-0.289292
-0.485942
0.090849
0.382842
-0.224384
-0.326232
-0.403198
0.209629
-0.172824
0.204041
0.065729
-0.231115
0.417640
-0.021929
-0.476600
0.238343
0.010441
0.588038
0.868670
0.610146
0.492987
1.069396
0.298944
0.798132
0.463378
0.234289
-0.392127
0.182252
0.191423
-0.660091
-0.596857
-0.401260
-0.356345
0.276048
0.149124
-0.340370
-0.294875
0.244941
-0.396282
-0.297081
-0.142798
-0.252335
-0.118072
0.039941
0.527457
-0.025344
-0.449759
-0.193956
0.159852
0.066814
0.054689
-0.052795
0.091165
1.139384
1.004404
0.771745
0.598396
0.277623
0.040052
-0.533107
0.112788
-0.293677
-0.357323
-0.639880
-0.427899
-0.294944
-0.448917
0.299541
-0.234366
-0.037805
-0.160210
0.227637
-0.016436
-0.146926
0.125165
-0.160273
0.488417
-0.050576
-0.145908
-0.019079
0.008519
0.297382
0.353129
-0.058297
0.496462
0.902508
0.933758
0.698050
0.302152
-0.174810
-0.077922
-0.438516
-0.673054
-0.011771
-0.119792
-0.579459
-0.384639
-0.382029
-0.154076
-0.382160
-0.043947
0.527736
-0.310063
0.312733
-0.369441
-0.031768
-0.038500
0.133127
0.475185
0.176727
0.210259
0.170479
0.065279
0.900747
0.738333
0.341545
0.018537
0.356600
0.210211
-0.223110
-0.237014
-0.435997
-0.203269
0.283785
-0.260108
0.106657
0.323430
0.482181
-0.482192
0.030293
0.078432
-0.559794
-0.203160
0.257814
0.134907
-0.059848
0.194326
0.509843
0.485976
0.489500
0.530955
0.102390
-0.069040
0.389273
0.213421
0.560903
0.345765
0.334916
0.793933
0.551093
0.309286
-0.414559
-0.155259
-0.693266
-0.304962
-0.301453
0.239883
0.267213
0.390873
0.128063
0.273165
0.141493
-0.592714
0.246597
0.323537
0.122647
-0.193991
-0.023505
-0.008743
0.139187
-0.004815
-0.066299
-0.043712
0.148003
0.504760
0.467675
0.255230
0.257032
-0.135710
0.351528
0.790973
0.764764
0.288213
-0.428388
-0.076628
0.101885
-0.672161
0.429116
0.583547
0.031575
0.325150
-0.141821
0.085037
0.074698
0.160201
0.081405
-0.246681
0.185896
-0.210922
-0.132686
0.344479
0.115601
0.490380
0.368336
-0.001828
0.117202
-0.362763
0.494709
0.397789
0.005316
0.217685
0.251409
0.295000
0.250310
0.483613
0.455502
-0.458021
0.192419
-0.162444
0.099706
0.343633
-0.334258
0.110418
-0.654175
-0.751533
-0.006511
-0.050673
0.212073
0.170615
-0.048842
0.023713
-0.334371
0.427700
-0.049255
0.419584
0.348067
-0.403320
0.317042
-0.184474
0.622969
-0.007451
-0.055016
-0.419253
0.565508
0.552438
0.237941
0.019547
0.752706
0.728481
-0.031638
0.347303
-0.226226
0.553233
0.569860
0.141113
-0.448607
0.184830
0.358204
0.190531
0.099753
0.384377
-0.451543
-0.320058
0.506478
0.470253
-0.011612
-0.040966
0.425979
0.144421
-0.227520
-0.193265
0.460321
0.687631
0.330547
0.440648
-0.199235
0.217253
0.514424
0.452568
0.258450
0.564079
0.336497
0.566602
0.435148
0.407002
-0.366345
-0.311868
-0.346023
0.281370
0.293898
-0.438818
0.475575
-0.045690
-0.175150
0.033951
0.393855
0.354093
0.009538
-0.566694
0.311141
-0.417797
0.387481
0.160251
0.485510
-0.183252
0.754942
0.292081
0.006060
0.762205
0.218744
0.222836
0.733853
-0.151000
0.530139
-0.397522
0.077090
0.166608
0.484857
-0.226495
-0.009287
-0.048722
0.155636
0.170829
0.423165
0.409155
0.434426
-0.052797
-0.394508
-0.062914
-0.453692
-0.237986
-0.497448
0.288568
-0.112376
0.367523
0.575319
-0.162907
-0.115312
0.494546
0.596897
0.255625
0.457401
0.737739
0.100616
0.187447
0.592617
0.344065
0.680723
-0.062543
-0.098676
-0.040900
0.193981
0.293060
-0.371744
-0.100672
-0.376754
-0.252559
-0.207350
0.124220
-0.164292
0.403820
0.284610
-0.470018
-0.516733
-0.714840
-0.164924
-0.287462
0.416850
0.344369
-0.004328
0.209284
0.152880
0.567426
0.373450
0.903850
0.601189
0.451247
0.185289
0.200419
0.174468
0.535617
0.487527
0.310733
0.812494
0.079618
-0.355226
0.037542
0.010436
-0.286338
-0.585070
0.493525
-0.165617
0.179334
-0.355184
-0.083163
0.248123
-0.197228
0.077155
0.478689
-0.124417
0.180253
-0.071530
-0.200623
0.289287
0.581704
0.299995
0.560655
0.259116
0.121348
0.642568
0.654332
1.140758
0.843402
1.087436
0.488904
0.911495
0.323309
0.135726
0.243143
-0.349272
0.310914
-0.157122
-0.318331
-0.248580
0.578104
0.470624
-0.232134
-0.581490
0.108116
0.370867
-0.081836
-0.138409
0.088017
-0.140341
-0.310845
0.090986
0.467734
-0.167080
-0.234360
0.197442
-0.145250
0.463099
0.486090
0.742015
0.695978
0.747912
0.507111
0.600753
0.529580
0.044612
0.243417
0.146362
-0.167438
0.164694
0.318522
0.093711
-0.301002
-0.451983
-0.193827
-0.637899
-0.120752
0.186798
0.466651
0.311489
-0.345589
0.499561
0.231750
0.036352
-0.244183
0.578347
0.115940
0.322360
0.877017
1.069318
0.565449
0.859534
1.253501
0.347582
1.044948
0.176015
0.639733
-0.332245
0.104377
-0.357357
-0.439349
0.398530
-0.114432
-0.621522
0.403199
-0.053191
0.137758
-0.333114
-0.255437
-0.492107
-0.557393
0.021111
-0.663180
-0.229893
-0.464853
-0.516699
0.293382
0.264624
-0.502105
-0.735359
-0.189640
0.299974
0.286643
-0.318593
0.119930
0.006209
-0.228946
-0.131386
-0.449696
0.473673
-0.029552
-0.016898
-0.084925
0.128257
-0.338583
0.365380
-0.040924
-0.370664
-0.001934
-0.381303
-0.444775
-0.218323
-0.338956
-0.945879
-0.647012
-0.122210
-0.459198
-0.069637
-0.315994
0.190038
-0.317304
-0.733316
-0.448293
-0.055243
-0.075968
-0.933538
0.355436
-0.480463
0.369211
-0.380621
-0.251426
0.360938
0.187733
0.423625
-0.352932
-0.108160
0.033192
-0.781475
-0.059901
0.236552
0.113038
0.024805
-0.161146
-0.435118
-0.700264
-0.622121
-0.515729
-1.020318
-1.156045
-1.553170
-1.577285
-1.163437
-0.291054
-1.138676
-0.584939
-0.089740
-0.509262
-0.663391
0.339254
-0.132179
0.293022
-0.678236
-0.435143
-0.083525
0.003206
-0.527859
-0.546202
-0.555495
-0.832267
-0.128901
-0.108867
-0.016280
-0.016880
0.424589
0.010492
-0.289826
-0.241851
0.088359
-0.437866
-0.036935
-0.183436
-0.040243
-0.655473
-0.521275
-0.368541
-0.197686
-0.735163
-0.268315
0.245934
0.156779
0.587355
-0.368528
0.724822
-0.383171
0.534614
0.140247
0.434533
0.389801
0.387231
0.219721
-0.767682
0.110337
0.461212
-0.052551
0.169208
0.319838
0.539080
0.202336
0.051243
-0.645123
-0.471698
-0.512399
-0.787416
-0.507460
-0.149188
-0.361924
0.048124
0.246941
0.375985
-0.106248
0.607662
0.390575
0.285072
0.270053
0.115732
-0.234008
0.411686
0.089899
-0.177909
0.313114
-0.121697
0.583673
0.272609
-0.159142
-0.095675
0.236494
0.048970
-0.030312
-0.282252
-0.549676
-0.154751
-0.240970
-0.446601
-0.473726
-0.440305
-0.745120
-0.523093
0.232840
-0.530404
-0.360642
0.708323
0.919736
-0.095597
0.566951
0.770431
1.037609
0.846541
0.832749
-0.007193
-0.079559
0.357726
0.119678
0.161637
-0.221610
0.342568
0.450088
0.312597
0.334004
-0.469281
0.007049
0.051501
0.025889
0.206971
-0.042994
-0.168011
0.191541
0.200262
-0.869561
0.333989
0.422148
-0.133181
0.386958
0.729000
0.910569
0.053953
0.257352
0.390716
0.195176
1.097435
0.746675
0.312147
0.498543
0.059235
-0.401479
0.143110
0.047017
-0.324906
-0.421693
0.448798
0.177723
0.258378
-0.259669
0.405166
0.093494
0.468577
0.048541
0.716264
-0.558331
-0.321388
0.207115
0.071321
-0.050449
0.687807
-0.313499
-0.019160
0.173974
0.082840
0.324908
0.176556
0.828709
0.499949
-0.036698
-0.205378
-0.150284
0.210163
-0.070425
0.669674
-0.113779
-0.272812
0.422995
0.451588
0.232360
-0.051098
-0.411899
0.079098
-0.220700
0.467298
0.424038
0.996712
-0.125055
0.364687
0.497245
0.914349
0.225023
0.218052
0.640495
0.272039
0.343444
0.265805
-0.062179
0.038237
0.218690
1.165377
0.466854
0.625743
0.591816
0.693433
0.475297
-0.102496
-0.066689
-0.230970
0.108490
0.112094
0.448655
-0.422500
0.549907
-0.043891
0.341370
0.099969
0.065419
0.860653
0.337104
0.482361
0.107775
0.747368
0.584421
-0.406255
0.029458
-0.269367
0.285277
0.305684
-0.418008
-0.684475
-0.159636
0.308867
0.350664
0.042913
0.562955
0.282835
-0.153814
-0.152704
-0.136903
0.232907
-0.338400
0.272892
0.161920
0.240144
0.071796
-0.080664
0.670714
0.923011
0.742600
1.063210
1.248019
1.373182
0.200861
0.842721
0.149294
0.014356
-0.008164
0.270311
-0.091952
0.174165
-0.044276
-0.831378
-0.198329
-0.067523
0.381784
0.576052
0.832670
0.711524
0.980102
0.417053
-0.120931
-0.374878
-0.017816
-0.309503
-0.293561
-0.295237
0.515308
-0.063183
0.656580
0.720991
0.346106
0.200527
0.551052
0.750026
0.112946
0.223244
0.320892
-0.292968
-0.235455
0.034388
0.289421
0.573360
0.324170
-0.858220
0.302314
-0.020077
0.201192
0.573758
0.050377
0.386189
0.290745
0.284167
0.007574
-0.490922
0.563018
0.102368
0.263176
0.031388
0.485099
0.108529
0.053990
0.406058
1.036905
0.618764
1.336344
1.077942
1.194304
0.355038
0.325660
0.385319
-0.122340
-0.205605
0.047852
-0.384016
0.237182
-0.096378
-0.231787
0.223275
0.044435
-0.086589
0.504631
0.317623
-0.242143
0.029186
0.322767
0.299292
0.452353
0.362884
0.208437
-0.118032
0.657131
-0.065143
0.837332
-0.048738
0.638505
0.982950
0.406540
0.806284
0.850600
0.882840
0.530457
-0.639480
-0.639653
-0.000750
0.317529
-0.304159
0.384361
-0.075697
0.484104
0.227565
0.193787
0.664115
-0.211513
-0.079630
0.297130
0.157573
0.353252
-0.333172
0.065239
-0.320620
0.134671
-0.653305
0.751225
0.214068
0.232069
0.164624
0.865077
1.025499
1.027316
0.151813
0.392076
0.450616
0.425371
0.197184
0.241562
-0.070642
0.336551
0.394764
0.434151
-0.258473
0.886908
-0.431848
0.146358
0.510956
-0.374141
0.358146
-0.405691
0.150983
0.176650
-0.147640
0.089793
-0.325611
0.551047
-0.374515
0.984528
0.170478
0.000993
0.198640
0.488279
0.876117
1.288256
0.964713
0.181339
0.539492
0.390184
-0.679289
-0.798013
-0.237834
0.205366
-0.059700
0.336215
-0.116508
0.758623
-0.055421
-0.069503
0.291572
0.263199
0.367200
-0.403295
0.359106
-0.023866
0.283313
-0.226475
-0.339241
0.088920
-0.521421
0.601299
-0.030734
0.158257
0.695546
0.330673
0.573606
1.223589
-0.024167
0.422779
0.027548
0.128547
-0.570687
-0.671794
-0.492267
-0.355589
0.637394
-0.133897
-0.014455
0.950931
0.154000
0.356038
-0.343933
-0.189908
-0.365923
0.143115
0.194700
-0.491435
-0.230669
0.603867
0.288169
0.103622
0.289100
0.524924
0.153077
-0.098052
0.604761
0.593804
0.184733
0.660584
0.438740
0.534622
-0.064143
0.155343
-0.717711
-0.654372
-0.321664
0.221758
0.067810
0.059883
-0.218496
0.519646
1.029374
1.002209
-0.031615
-0.297614
0.221506
0.361203
0.301520
-0.327043
0.007538
0.634519
0.428961
-0.119664
0.170117
0.909679
0.287735
0.894871
0.150567
0.415159
0.435642
0.088479
0.260874
-0.368099
0.172597
-0.400835
-0.375387
-0.491373
-0.357566
-0.147990
0.262493
0.721452
-0.060611
1.300132
0.090857
1.121105
0.232796
0.092188
-0.345979
-0.088445
0.408360
-0.152750
-0.269407
-0.141064
-0.301668
0.340665
0.537500
0.802925
0.091656
0.380895
0.464053
0.185733
0.157684
0.337003
-0.217396
-0.459418
-0.464888
0.105656
0.244648
0.085632
0.207681
0.012467
0.015008
-0.113737
0.229683
0.004680
0.112570
0.919838
-0.168789
0.465848
0.452450
0.587468
-0.051265
0.027724
0.322943
0.528152
0.335580
0.391289
0.267390
0.214273
0.202759
0.303367
0.158876
-0.259846
0.208565
0.626642
0.073981
-0.933644
-0.877955
-0.160117
-0.712491
-0.562170
-0.674980
-0.466879
0.164826
0.307625
0.900578
0.606006
0.979606
0.572826
0.495076
0.301567
-0.101332
-0.006051
-0.032182
0.457172
0.340605
0.461440
-0.398236
0.114698
0.627205
1.045093
0.151259
0.750697
0.437731
0.472806
0.110595
-0.276149
-0.571984
-1.107702
-0.518096
-0.051884
-0.459983
-0.066389
0.696772
0.289038
0.526001
1.066281
0.888527
0.971312
0.172169
0.933782
0.606712
0.020678
0.513229
-0.061358
-0.156431
0.292406
-0.357823
-0.079419
-0.131563
0.427814
0.528398
0.674468
0.389357
0.249128
0.871674
0.497809
0.660367
0.662999
-0.429121
-0.467344
-0.514168
0.179408
-0.299891
-0.628838
0.437580
0.645816
0.613581
0.280066
0.784986
0.896024
0.692892
1.200396
0.095556
0.894914
0.543997
0.178144
0.060823
0.314546
0.314928
0.202678
-0.269731
0.006913
0.554849
0.762891
0.175729
0.312672
-0.053158
0.499539
0.179231
-0.395892
0.203992
-0.041416
-0.283741
0.123955
0.237004
0.005264
0.736378
0.052035
0.432873
0.332779
0.114663
-0.055867
-0.217606
0.717997
-0.156850
0.333003
0.860817
0.059443
0.530460
-0.119231
0.226523
0.382299
-0.384599
-0.520244
0.180700
0.969494
1.032546
0.514289
0.143850
0.619902
-0.189085
-0.169524
-0.329569
0.247114
-0.099921
-0.294386
0.133181
0.349929
1.004751
0.280478
0.833683
0.464920
-0.254712
0.382680
-0.497870
-0.129742
0.023097
0.402174
0.634000
0.235848
0.366057
0.015806
0.080066
0.606635
0.247518
0.106266
0.221742
0.109161
0.842965
0.522293
0.444462
0.565824
0.354921
0.194573
0.083973
-0.113063
0.134362
-0.031605
0.121777
0.516740
0.744400
0.580181
0.486745
0.705788
0.048181
-0.435439
-0.731814
0.235723
-0.179545
-0.187407
-0.215001
-0.067039
-0.037238
0.101319
0.018230
0.160316
-0.279139
0.510509
-0.248870
0.022530
0.194717
0.637325
-0.372558
-0.022122
0.408124
-0.316139
0.348827
0.190187
-0.339736
0.176801
0.421400
0.179617
0.443180
0.070366
0.317071
-0.314533
0.357475
-0.506796
0.153337
-0.059073
-0.152211
-0.092054
-0.049308
-0.132951
0.214203
0.449556
0.502414
-0.285330
0.219009
-0.352834
0.560233
0.108477
0.565919
0.603759
0.303877
0.159138
0.196263
0.325539
-0.008606
0.033442
0.140982
0.067970
-0.365073
0.531419
0.167460
-0.264307
0.704169
-0.331941
0.207707
0.016315
-0.295601
-0.303406
-1.014630
0.023937
-0.561981
-0.742096
0.200953
-0.058970
0.286687
-0.121732
-0.069686
-0.086541
0.141323
0.589127
0.421748
0.110765
0.237285
0.076937
-0.123206
-0.345713
0.036737
0.245913
0.455073
-0.086270
-0.511599
0.033066
-0.125346
-0.351144
-0.299423
-0.274225
0.013273
-0.973437
-0.841544
-1.534940
-1.576388
-0.427093
-0.532497
-0.553247
0.190637
0.360308
-0.186754
0.167672
-0.414967
0.327624
0.095057
0.152324
0.050508
-0.110279
0.764680
-0.007750
0.716948
0.175199
0.065435
-0.310402
-0.025088
0.123502
-0.519327
0.060148
-0.154412
-0.246962
-1.022346
-0.986238
-0.474796
-0.845559
-1.361305
-1.076024
-0.330405
-0.747055
-0.248705
-0.318402
-0.440426
0.428734
0.132724
-0.144040
-0.413663
-0.053100
0.150348
0.050906
-0.651642
0.032083
-0.781908
-0.145946
-0.552891
-0.558329
-0.602670
-0.404808
-0.423411
0.167022
-0.708227
-0.043030
-0.174379
-0.819708
-0.543188
-0.638054
-1.295952
-0.859232
-1.213366
-2.311343
-1.269403
-0.995395
-0.353863
-0.825260
0.230120
0.171950
0.252831
0.422115
-0.303171
-0.149389
0.255677
-0.317079
-0.419352
0.241126
0.291724
0.507303
-0.094192
0.056269
-0.188156
-0.588952
0.169829
-0.182594
-0.069837
-0.534399
-0.654238
-0.270462
-0.158324
-0.886995
-0.118381
-0.740773
-0.244374
-0.700744
-0.979406
-0.818726
-0.082232
0.162757
-0.468225
-0.153397
-0.248552
0.417414
-0.109675
0.247658
-0.050748
0.385929
-0.383358
0.003305
-0.435032
0.004302
-0.422411
-0.871854
-0.757860
-0.504020
-0.396872
-1.055043
-1.180397
-0.291049
0.433849
-0.298160
-0.852477
-0.102817
-0.291294
0.221946
-0.218200
0.471831
0.585934
1.047332
0.452978
0.365948
0.615200
0.498638
-0.012653
-0.300622
-0.419345
0.059614
0.022259
-0.228951
-0.262851
-0.092568
-0.456110
-0.354810
-0.898579
-0.629696
-0.648198
-1.146701
-0.481150
-0.648055
-0.782539
-0.031494
0.085207
-0.511426
-0.841094
-0.663866
-0.125719
-0.209311
0.042811
0.287476
0.217996
0.707375
0.350019
0.212707
-0.173218
0.145511
0.439062
-0.401286
0.185431
-0.124872
0.049810
-0.322659
-0.260861
-1.016685
-0.552203
-1.078094
-0.586169
-0.533224
-1.149026
-0.221261
-1.035347
-0.747330
0.124479
0.201948
0.811413
-0.034437
-0.822995
0.402727
0.175285
0.137305
0.355823
0.253404
0.059184
0.352034
-0.316155
0.357789
0.343676
0.663651
0.882347
0.590546
-0.115361
0.137413
0.461962
0.723389
-0.304558
-0.622992
-0.510586
-0.413929
-0.930331
-0.358219
-0.970279
-0.258031
-1.023048
0.233655
0.035754
0.115546
0.777266
-0.766944
-0.398650
-0.132870
-0.821497
0.256924
0.150999
1.151868
0.246201
0.719002
0.531055
0.904284
0.867440
0.285733
1.119545
0.611749
0.629727
-0.051735
0.191899
0.229340
-0.148270
0.109145
-1.259889
-0.341975
0.042160
-0.864005
-0.493405
-0.709971
-0.812741
-0.344416
0.117340
0.230725
0.100100
-0.687157
-0.176300
-0.161988
-0.354077
1.005941
1.074110
1.188176
0.697823
1.476884
0.545157
0.525083
0.559742
0.120431
1.367813
0.100418
0.591105
-0.070557
0.313823
-0.042301
-0.317567
0.362659
0.136552
0.378539
0.523413
-0.200310
-0.269661
-0.002471
-0.712339
-0.350557
-0.320921
-0.244750
-1.237238
-1.181231
-0.638380
-0.142869
0.362805
1.208531
0.870677
1.668364
0.557755
1.253946
0.846593
1.184077
0.300130
0.100265
0.464886
0.632533
0.586614
-0.547778
-0.830748
0.057485
-0.784432
-0.297288
-0.260239
0.102969
0.236276
-0.614429
0.014278
-0.873262
-0.221176
-1.000470
-0.212966
-0.059091
-1.202472
-0.433137
-0.272643
0.028216
-0.092255
1.648401
1.510292
1.202139
1.156266
1.271663
0.867316
0.642205
0.232803
0.086485
0.245991
0.371686
0.350280
0.238686
-0.016986
-0.482116
-0.394328
-0.900062
-0.182118
-0.637632
0.102592
-0.016205
-0.179297
-0.754188
-0.132214
-0.664567
-0.524811
-0.984165
-1.147041
-0.978897
-0.974065
-0.438660
0.307097
1.932465
1.724657
2.383398
1.173764
1.127762
1.124582
0.720101
0.132416
0.318670
0.146284
-0.252178
0.240174
-0.024799
-0.041267
-0.389293
0.427222
-0.325764
-0.747786
-0.394131
-0.148352
-0.172901
-0.806404
-0.532788
-0.178040
-0.420734
-0.516888
-0.382587
-1.418343
-1.018900
-0.673265
0.111342
0.096436
2.023827
1.506547
1.785412
0.729996
1.208499
0.756765
1.497253
0.749705
0.402221
-0.219145
-0.149565
0.195637
0.196160
-0.471708
-0.614121
0.227104
-0.596642
-1.227110
-0.361441
-0.614591
-0.181552
-0.373235
-0.399549
-0.673920
-0.696664
-0.586773
-0.694383
-1.827918
-1.988440
-1.588930
-0.401116
0.042327
1.032086
1.435462
1.138742
0.777980
0.892845
0.719095
1.046905
-0.081635
0.688518
0.097848
0.072718
0.480694
0.251182
0.033089
-0.463879
-0.334384
-0.120683
-1.228509
-0.330090
-0.965702
-0.407000
-0.769664
-0.319508
0.292057
-0.030987
-0.195362
-0.774763
-1.015046
-2.129673
-2.249516
-0.763700
-0.147553
0.942884
1.011982
0.490815
0.431587
0.987805
0.188076
0.294520
-0.841811
-0.332276
-0.141664
-0.683556
0.571371
-0.095037
0.539181
0.329808
0.485785
-0.549264
-1.131034
-1.077673
-1.042200
0.248121
0.174902
-0.044849
0.122951
-0.470275
-0.972471
-1.260935
-1.535861
-1.351730
-1.021097
0.056084
0.735131
1.031711
1.274487
1.091552
0.899708
0.777632
0.348498
-0.469996
0.036768
0.209708
0.231265
-0.325654
0.762880
-0.220543
-0.042076
0.348216
0.338368
-0.343863
-0.589761
-1.590652
-1.146031
-0.116362
0.139228
0.007976
-0.135688
-0.756571
-0.322862
-0.973840
-1.238442
-0.534218
-0.498470
0.226330
-0.290176
0.459738
-0.084194
0.382129
0.775409
0.562732
-0.366341
-0.542684
-0.237745
0.068486
0.451658
-0.337690
-0.371317
0.627065
0.699859
0.237702
-0.306768
0.122677
-0.731817
-1.871830
-1.518665
0.497339
0.199002
0.195330
1.114512
-0.292660
-0.140218
0.850961
0.907567
0.689351
1.131267
0.954648
1.913765
1.563115
1.080360
1.348218
0.227730
-0.033299
-0.045190
0.279012
-0.903245
0.702600
-0.237233
-0.306830
-0.421106
0.142572
1.105297
-0.200747
-0.334784
-0.253493
-0.225784
-0.742943
-1.550954
0.018549
-0.465286
-0.098050
0.857192
0.155041
-0.035743
0.602247
1.263059
0.237455
1.088571
1.156144
2.174190
1.956400
1.009345
0.242576
0.146755
0.352172
-0.966798
-0.092380
-0.425146
0.133312
0.286397
-0.312030
0.332841
0.758613
1.082762
0.473915
-0.139509
0.143897
-0.333387
-0.844491
-1.479312
-0.779908
-0.184292
0.555329
0.283408
1.014072
0.530216
1.464979
1.346315
1.830751
1.691261
1.726443
2.131234
1.965475
1.164240
1.219752
0.050475
-0.592831
-1.445432
-0.645108
-0.703458
0.132965
0.058665
0.028461
-0.045316
0.646212
0.558331
0.113590
0.502794
-0.097450
-0.413417
-0.886751
-1.072832
-0.134813
-0.093630
0.663244
1.080566
0.899215
1.509017
1.587168
1.851153
1.233544
1.660954
1.370491
1.148932
0.832834
0.512090
0.485238
0.700906
0.081221
-0.805100
-0.344283
-0.851926
0.645736
-0.299036
-0.237229
0.560395
0.883385
0.025444
0.226479
0.691199
0.195782
-0.009704
-0.685634
-0.617206
-0.578584
-0.715725
-0.022551
0.434418
0.258998
0.882421
1.266891
1.804430
1.104398
1.196548
1.829146
0.947681
0.784656
0.526719
0.690429
0.542436
0.500145
-0.835256
-0.106052
0.020725
-0.332182
-0.103575
-0.308182
0.247577
0.814356
0.636919
0.632324
0.001467
0.190122
-0.152681
-0.746851
-0.292056
-0.375310
-0.538215
0.757053
0.390586
0.864985
0.505562
1.005301
0.478067
0.172272
0.374122
0.033582
-0.238592
0.921033
0.457878
-0.068777
-0.004774
-0.866338
-0.632123
-0.503436
-0.375843
-0.153162
-0.381790
-0.361159
0.610290
0.596787
0.897863
-0.030021
-0.136902
0.155250
0.047884
-0.787230
-0.767838
0.380223
0.228676
0.147804
0.422053
0.925300
1.289391
1.389454
0.502205
0.150740
0.092781
0.479509
0.019859
0.351707
0.391633
-0.529526
-0.035936
-0.370287
-0.808714
-0.822315
-1.036933
0.498911
-0.236925
-0.083431
0.496075
0.225947
0.116340
0.216832
0.290602
0.558646
-0.104189
-1.100505
-0.365225
-0.021644
0.754332
0.497744
0.154686
0.568165
1.369307
0.885327
0.150794
0.338096
-0.525163
-0.630720
-0.545786
0.540101
-0.491413
-1.337691
-1.319769
-1.315035
-1.083576
-1.056976
-0.718667
0.072656
0.489164
0.233049
-0.318164
-0.037217
0.141081
-0.375992
0.018522
-0.043784
-0.455713
-0.508183
-0.512633
0.146333
0.680315
0.033614
0.138230
0.172738
-0.043551
0.717963
-0.931579
-1.186688
-1.824126
-1.457658
-1.032525
-0.382296
-0.582431
-0.301014
-0.864229
-0.912569
-0.588695
-0.834970
-0.179759
-0.272553
0.148314
-0.122463
0.169045
0.449208
0.941044
-0.193927
0.506227
-0.081605
-0.795749
-1.334600
-1.296238
-0.679243
0.482974
0.593860
-0.248759
0.464134
-0.285634
0.046730
-0.836905
-1.328903
-1.990458
-1.029327
-1.554760
-0.719020
-1.688631
-1.110602
-0.490736
-1.271096
-1.095779
-0.362629
-0.076289
0.610501
-0.264851
0.517062
0.344545
0.595696
0.099258
0.387873
0.395655
0.650890
0.479038
-0.112217
-0.854297
-0.544844
-0.103811
-0.440296
-1.134881
0.356156
-0.271029
0.004554
-0.574726
-1.839344
-1.335591
-1.629594
-1.582975
-1.350383
-0.557745
-0.894228
-0.279460
-1.201236
-0.509478
-0.484765
0.059830
0.706325
-0.213913
0.165057
0.561828
-0.474955
0.091386
-0.890853
-0.314712
0.222644
-0.499365
-0.194760
-0.715236
-0.932684
-0.700119
-1.187447
-1.040741
-1.067988
-0.647451
0.002164
-1.024718
-1.314526
-1.533581
-1.311488
-0.946530
-0.659404
0.198465
-0.682614
-0.022355
0.169999
0.149449
-0.426674
0.252238
0.101041
0.329199
0.204468
-0.307840
0.118684
0.109496
-0.215336
-0.330378
0.656525
0.182988
-0.496664
-0.303868
-0.588905
-0.719546
-0.567896
-0.492493
-0.030046
-1.109130
-0.920608
-1.325598
-1.153239
-0.949369
-1.235723
-0.774648
-0.328290
-0.339433
-0.663483
-0.201906
0.042374
-0.317349
0.607491
0.629122
0.383909
0.518221
-0.402318
0.336525
0.433075
-0.400409
-0.517574
0.032381
1.076828
0.881753
0.214926
0.564147
-1.204578
-0.968933
-0.640920
-0.283944
-0.936113
-1.105764
-0.449956
-1.256666
-0.639237
-0.707417
-0.071313
-0.437717
-0.473314
0.463958
-0.383428
0.594316
1.145170
0.289637
0.745138
0.922076
1.331488
0.986863
0.398917
-0.529338
0.578853
-0.150573
0.124680
0.156236
1.223634
0.727275
0.233518
0.189119
-0.719464
-1.213379
-1.319805
0.228712
-0.577065
-0.200076
-0.400526
-0.834207
-0.481824
-0.379833
0.333228
0.028254
-0.266671
0.379369
0.107775
0.300582
0.301796
0.689212
0.529110
0.709519
0.978252
0.419635
-0.209604
0.482815
-0.336175
-0.216723
0.011240
0.207823
0.382966
0.158711
0.191057
-0.395762
-1.164685
-1.080895
-1.110996
-0.520788
-0.023855
-0.216974
-0.654295
-1.560202
-0.360513
0.372388
-0.182536
-0.860566
-0.345156
0.495899
0.340061
1.164643
1.990968
1.050312
0.324642
0.735196
0.229840
0.111929
-0.253022
0.295939
0.194969
-0.278265
0.213730
0.284094
0.116639
0.027631
0.360470
-0.180253
-0.030214
0.131075
-1.486197
-0.455830
0.071791
-0.264900
-0.914085
-1.179345
-0.700077
-0.410762
-0.671185
0.440570
-0.241082
0.164372
-0.023057
1.108412
0.372730
0.631905
0.677030
0.196538
0.697034
0.521321
-0.085181
-0.339394
-0.162054
0.233167
0.025319
0.547894
0.947767
0.408416
0.301472
-0.122603
-0.648236
0.144168
-0.410489
-0.113869
-1.004983
-0.750458
-0.740181
-0.664138
-0.504041
-0.903052
0.168606
-0.376153
0.163516
0.553503
0.982598
1.045823
1.005355
0.119634
0.031438
-0.325806
-0.145198
0.009386
0.191698
-0.270694
-0.020764
0.150121
0.181782
0.140742
0.664749
-0.050496
-0.239072
-0.321004
-0.769297
-0.378928
0.238215
0.419551
0.543715
0.315900
0.102887
0.322983
-0.470089
-0.421023
-0.864833
0.088623
1.231802
0.318053
0.749674
1.482810
0.452062
0.035844
-0.280799
-0.101465
0.690966
0.726269
0.262980
0.123457
-0.619259
-0.257641
-0.029319
0.234416
0.313365
0.139646
0.199052
0.756042
0.921508
0.727957
0.775535
0.485520
0.256000
0.346729
1.037160
0.833031
1.129965
0.240741
-0.131360
-0.147335
-0.556502
0.466376
0.297501
0.744467
0.112446
-0.037283
-0.294880
0.662447
0.195617
-0.322788
0.600179
0.271449
-0.015235
0.317082
0.287908
-0.179173
-0.226839
-0.090190
0.317822
0.216659
0.785819
0.930361
0.639256
0.443400
0.103232
0.716385
0.820348
0.695087
1.285333
0.980656
0.609016
0.249241
0.134463
0.044003
0.523819
-0.101731
0.658092
0.377962
-0.343066
0.364611
0.411600
-0.027450
0.502681
0.108178
0.068888
-0.335888
0.039766
0.024614
-0.441928
0.239561
0.229376
-0.200569
-0.506006
0.005642
0.509167
0.228656
0.002028
0.317215
0.278398
0.064301
0.246274
-0.069344
-0.135786
-0.052702
-0.722793
0.084958
-0.543060
-0.208591
0.055937
0.084245
-0.061080
0.542674
-0.459298
0.245033
0.107226
-0.826559
-0.195139
-0.050359
-0.446337
-0.380418
0.186802
-0.029137
0.597037
-0.314988
-0.649058
-0.452393
-0.587982
-0.107612
-0.503573
0.299723
0.818917
0.807523
0.707064
0.131406
-0.329125
0.183281
0.299550
-0.052786
0.196385
0.118712
-0.341565
-0.419773
-0.344360
0.171080
-0.385637
0.037166
-0.390802
-0.047380
-0.375296
-0.199956
0.090045
0.199483
0.147816
0.188574
0.072290
0.094059
-0.631051
-0.551270
0.234562
-0.290822
0.391780
0.428631
0.947356
0.429501
-0.127444
0.022169
-0.474752
-0.249042
0.173250
0.200496
0.023620
0.387615
-0.369443
-0.318557
-0.114634
0.856321
0.361796
-0.018205
-0.328405
-0.334899
-0.398293
0.465108
-0.126937
0.500749
-0.275621
0.036548
0.313494
-1.022304
-0.086129
-0.206909
-0.518730
-0.129527
-0.063512
0.348023
-0.061820
0.213312
0.887118
-0.020265
-0.598499
-0.308926
0.276203
0.906271
0.930169
0.516096
0.824944
0.347886
0.769399
0.586158
-0.221306
-0.471424
0.558736
0.066897
-0.490263
-0.126382
0.025618
0.386258
0.097549
-0.123487
0.116038
-0.221777
-0.129837
0.005496
0.570373
-0.362551
0.296093
-0.170748
-0.174276
-0.108550
0.219248
-0.211227
-0.853607
0.591599
0.710202
0.966667
1.002243
0.991923
0.651411
0.608243
0.717124
0.893222
0.031333
-0.177888
0.648791
0.295702
0.116788
0.339249
0.454218
0.498960
0.322309
0.165282
0.298573
0.264323
-0.400268
0.749430
0.600517
0.328180
-0.098316
0.753613
0.351377
0.392134
0.809114
0.696360
1.182159
1.483141
1.421190
0.594047
0.790561
1.293614
0.501112
0.775220
0.903335
1.130012
0.023842
0.273408
-0.281551
-0.174290
0.411058
-0.549825
0.270941
-0.215097
-0.027091
0.077123
-0.437242
0.008221
-0.577774
0.489132
0.045220
-0.043881
0.227545
0.188882
0.680752
1.365672
1.753850
1.146852
0.739741
1.809459
1.545209
1.571420
1.205164
1.328632
1.473852
0.920622
0.503335
1.373050
0.126069
0.121563
-0.405799
-0.094742
-0.055163
0.187211
0.316422
-0.106285
-0.386535
-0.181347
-0.506562
-0.024935
0.027708
0.330267
-0.334658
0.118479
0.022646
0.587828
0.512778
0.791386
1.220654
1.179287
1.082131
1.989318
1.115506
1.346742
0.798492
0.918890
0.966084
1.173538
0.377724
0.942982
0.423021
-0.396302
0.124669
-0.376968
0.610051
-0.486217
-0.354526
0.040437
-0.520716
-0.391483
-0.640259
-0.615579
-0.168731
-0.211437
-0.801046
-0.444530
0.242026
0.216785
0.628207
-0.015607
0.379668
0.518684
0.195499
0.678293
0.926994
1.041741
1.162908
1.566889
1.082508
0.907022
0.444291
0.269578
-0.301832
-0.337438
0.425903
-0.198637
0.656513
-0.202950
0.051507
-0.274253
-0.323013
-0.050788
-0.359892
-0.847133
-0.428829
-0.522202
-0.198084
-1.121198
-0.464216
-0.436412
0.234374
0.203685
1.110122
0.918311
0.209864
0.723428
-0.173097
0.261405
0.424587
0.777112
0.757366
0.343588
0.400063
0.800559
-0.209969
-0.087051
-0.565824
-0.132229
0.368888
0.046679
0.055119
0.058747
-0.494321
-0.634030
-0.060289
-0.582887
-0.395474
-0.715310
-0.296038
-0.795733
-0.382266
0.237051
-0.523582
0.092018
0.489152
0.338657
0.246464
0.305521
0.541416
0.572301
1.102902
0.368303
0.821384
0.039186
-0.801003
-0.023738
-0.702709
-0.367469
-0.351993
-0.123215
-0.472003
-0.750019
-0.076160
-0.205669
-0.546817
-0.952756
-0.766827
-1.142946
-0.688055
-0.961142
-1.119865
-0.817619
-0.362343
-0.069924
0.343898
0.883643
0.700977
0.783642
0.177007
-0.068602
-0.124313
0.442749
0.407491
0.135542
0.415975
0.195411
-0.240730
-0.162569
-0.973128
0.033126
0.071736
0.213347
-0.274896
-0.800640
-0.139584
-0.017750
-0.224039
-1.146248
-1.062434
-0.771287
-0.704364
-1.499715
-0.877377
-0.196213
-0.168992
0.375614
-0.114448
0.645738
1.498280
0.321791
0.759008
0.537673
0.587319
-0.050946
0.005586
0.543342
0.463293
-0.019683
-0.150778
-0.098716
-0.930250
-0.474884
0.048540
-0.187573
0.150493
-0.833154
-0.192508
-0.181016
-0.758425
-0.976030
-0.282744
-0.722722
-1.005692
-1.276496
-0.482956
-0.531265
0.074273
-0.078854
0.079727
0.593534
0.657840
0.351312
-0.067704
-0.215217
-0.659697
0.126428
-1.019642
-0.298944
-0.088173
0.068132
-0.653736
-0.950410
-0.484749
0.208571
0.131233
-0.473156
-0.274310
-0.233986
-0.519032
-0.340522
-0.579186
-0.706128
-0.274586
-1.480815
-0.600835
-0.480572
-0.204089
-0.202376
-0.019158
0.503782
0.539045
0.637600
0.279874
-0.170315
-0.013131
0.282483
-0.471877
-0.975349
-0.629095
-0.354132
-0.035526
-0.149559
-0.816607
-0.560429
0.048602
-0.233904
-0.394558
-0.160898
-0.115910
-0.264733
-0.738994
-0.220250
-0.652032
-0.285628
-0.803633
-1.284422
-0.193975
-0.606449
-0.407453
-0.773957
-0.139222
0.568810
0.151490
-0.065711
0.827751
0.276028
0.502739
0.383910
-0.310567
-0.243652
-0.713481
-0.061223
0.601366
-0.194431
-0.417407
0.249714
-0.270441
-0.493654
-0.010073
-0.686568
0.001276
0.293124
-0.443085
-0.394832
-0.134250
-0.591526
-0.411382
-0.594781
0.287197
-0.265191
0.103416
0.103254
0.277367
0.027809
-0.425967
-0.766208
-0.358205
0.738486
0.287707
-0.390590
-1.057334
-0.401198
-0.671760
0.359880
0.534803
0.178178
0.595057
0.839875
0.093465
-0.374243
0.347552
-0.057850
0.199366
-0.223112
-0.267402
-0.215806
0.169188
-0.210053
0.593509
-0.001569
-0.017749
-0.174974
-0.429949
-0.469666
0.391139
0.242151
0.199334
0.107365
0.117131
0.170528
-0.046907
-0.363219
-0.371733
-0.006683
-0.969282
-0.578773
0.302873
-0.235215
0.149877
0.540814
-0.412308
-0.341738
-0.199495
0.170446
-0.083326
-0.341277
-0.245701
-0.029657
0.109744
0.711385
0.393056
-0.227859
0.141347
-0.401645
0.166235
0.202580
-0.280935
-0.147063
-0.855634
-0.179639
-0.129385
0.327420
-0.399644
-0.246726
-0.982548
-1.196054
-0.406885
-0.537917
-0.362188
0.094744
0.504609
1.394754
-0.204958
0.565944
-0.102249
-0.065853
-0.332528
0.193542
0.087509
-0.388494
0.196380
0.362681
-0.062464
0.209373
0.036449
-0.516505
0.373753
-0.549560
-0.933317
-0.072838
-0.623869
-0.226071
-0.509198
-0.079848
-0.245736
-0.031436
-0.124793
-0.975678
-0.579459
0.335650
0.582143
0.560789
0.706812
1.195981
0.303621
0.164814
0.186293
-0.242271
-0.550211
-0.398444
-0.009347
0.269493
0.547406
0.480927
0.040411
-0.148647
0.123143
-0.323384
0.699390
0.121464
-0.457508
-0.210143
-1.049775
-0.155704
0.399566
-0.250342
-1.021668
-0.792278
-0.410061
-0.194475
-0.079366
0.219259
0.558275
0.224502
1.145237
0.942861
0.404125
-0.111955
0.726202
-0.236824
0.036871
0.437280
-0.123051
0.412905
0.297841
-0.124887
0.687647
0.367048
-0.311946
-0.303762
-0.416815
-0.724537
-0.757834
-0.078233
-0.085595
0.258414
0.379915
0.122280
-0.959429
-0.666447
0.323515
-0.920730
-0.082791
0.502988
0.073098
0.661066
0.618450
0.756238
0.145380
0.641403
0.112085
0.383685
0.576096
0.455256
0.436737
0.029056
0.594716
0.663333
0.599917
-0.183139
0.159280
-0.465779
-0.155339
-0.828584
-0.652059
-0.269191
-0.848579
-0.012466
0.072877
0.083158
0.101095
-0.626743
-0.318035
-0.270500
0.215323
0.688515
0.913284
0.477292
0.968724
0.973207
0.231690
0.909349
0.110960
0.610896
0.274682
-0.222163
0.566801
0.232884
0.213578
-0.325353
-0.219841
-0.396679
-0.420970
-0.594695
-0.220362
-0.208619
-0.850317
-0.648303
-0.400159
-0.636244
-0.410476
0.169699
-0.432114
-0.649406
0.339330
-0.703373
-0.157037
0.593330
0.099560
0.491606
0.397180
0.874960
-0.149290
-0.183512
0.217468
0.366752
0.778967
0.082316
0.619879
0.225080
-0.109860
0.414478
0.457774
-0.504916
-0.110296
-1.141071
-0.718177
-1.112588
-0.149177
-0.468566
-0.418299
-0.686698
-0.733630
-1.037997
-1.152249
0.144300
-0.623957
-0.386311
-0.366056
0.496853
-0.192552
-0.163461
0.434562
0.038909
0.303902
0.127392
0.443822
0.590722
0.262864
0.216046
0.100879
-0.085633
0.415622
0.150849
-0.271988
-0.451481
-0.993934
-1.348080
-0.672856
-1.091794
-0.538175
-0.387427
-1.045447
-0.674113
-0.829132
-0.470600
-0.775302
0.089086
0.440288
-0.519651
0.064952
-0.301826
0.451306
0.014678
0.593305
-0.334485
-0.068290
0.283117
0.529463
-0.221987
0.693043
-0.617424
0.020257
-0.185799
0.226425
0.145678
-0.162190
-0.661942
-0.732770
-1.420601
-0.920174
-0.297226
-0.592457
0.046926
-0.220222
-0.875666
-0.681195
-1.000561
-0.869292
-0.691632
-0.688278
-0.878381
-1.217777
-0.494888
-0.363407
-0.380601
-0.077451
0.375866
-0.433653
0.132412
0.554125
0.209221
0.228788
-0.444711
0.579703
0.153810
-0.013764
-0.188064
-0.355476
-1.059106
-1.208797
-1.223780
-0.539622
-0.595922
0.176570
-0.121761
-0.465404
-0.505670
-1.262666
-0.850982
-1.297829
-1.233991
-0.897987
-1.478345
-0.881108
-0.875890
-0.485367
-0.371481
-0.275197
0.618280
0.255998
0.316167
0.064393
0.127898
0.201220
0.500089
0.708041
0.294259
-0.103624
-0.397963
-0.675580
-1.123574
-0.945322
-0.494415
-0.150023
-0.937661
0.324898
-0.335744
-0.682132
-1.014695
-0.643026
-0.323380
-0.846500
0.280206
-0.629535
-0.127242
-0.734706
0.021124
-0.809643
-0.423037
0.042794
0.613921
0.186894
0.473975
0.372769
0.645870
0.063573
-0.045837
-0.213710
0.034796
0.119934
0.098299
-0.523496
-0.877183
-0.105004
-0.797686
-0.182882
-0.148815
-0.517428
-0.334846
-0.384827
-1.139986
-0.543332
-0.567008
0.251271
0.370938
-0.583569
-0.583869
-0.405006
-0.749602
-0.427925
-0.080681
-0.161597
0.453773
0.169857
0.013226
0.472262
-0.217185
0.569381
-0.303632
0.006458
0.246553
-0.056304
0.143374
0.198593
-0.342125
0.064454
0.327838
-0.320062
-0.391747
-0.296492
0.312959
-0.360596
-0.116181
0.744923
0.823053
0.383065
1.124807
0.457577
1.069778
0.595758
0.042257
-1.075810
-1.298014
-1.399046
-1.048468
-0.928867
-0.832006
-0.448086
0.127558
0.155006
-0.646748
0.078683
-0.306428
-0.081692
-0.113196
-0.002428
-0.132438
0.244207
-0.079077
-0.425342
-0.615892
0.187809
-0.060785
-0.138655
0.082282
0.679244
0.707686
1.205136
0.409777
1.193464
0.289777
-0.231357
-0.112499
-0.966013
-0.664392
-1.067282
-1.287645
-1.142696
-0.861690
-0.382557
-0.122621
-0.174074
-0.341596
0.054399
0.247439
-0.223777
-0.647387
0.111369
-0.277867
0.236109
-0.345196
-0.271312
-0.024491
0.172557
-0.071700
0.333267
0.448406
0.609573
0.251589
0.691532
0.033614
0.161006
-0.171009
0.136640
0.442423
-0.530653
-0.990024
-0.613443
-1.319960
-1.320916
-1.370140
-0.621704
-0.498787
-0.557692
-0.808229
-0.603178
0.188988
-0.390254
-0.196581
-0.793742
-0.556866
-0.021535
-0.072937
-0.667895
0.050576
-0.141328
-0.662828
-0.378959
0.429387
0.096293
0.208272
0.905517
0.682228
0.015560
0.259469
-0.181714
-0.444689
-0.505541
-0.488587
-0.885137
-1.154059
-1.073811
-0.810495
-0.651850
-0.599099
-0.264414
-0.174703
-0.302123
-0.273909
-0.398856
-0.551597
-0.024001
-0.450573
-0.769828
-0.184758
-0.016843
-0.108293
-0.452126
0.041634
0.081227
-0.527501
0.195271
0.619648
0.735243
0.827115
0.920284
-0.144293
0.067343
0.462107
0.046507
-0.241514
-0.970947
-1.289431
-0.780795
-1.123587
-0.667296
0.043864
-0.612321
-0.675334
0.272707
0.200272
0.078944
0.196306
-0.088346
-0.781688
-0.544097
-0.531734
0.017720
-0.245254
-0.488339
0.043012
0.120466
0.016187
0.502641
0.623582
0.344840
0.349740
0.209343
0.449983
0.140159
0.245410
-0.092910
-0.063246
0.127672
-0.054185
0.162151
0.043269
-0.704104
-0.459859
0.482361
0.393541
-0.160897
0.045281
0.206703
-0.290444
-0.240412
-0.178346
-0.006074
-0.620915
-0.148872
-0.443954
0.155604
-0.498723
0.024559
-0.471280
-0.141706
0.375051
0.421849
0.931547
0.541615
0.787223
0.193527
0.352710
0.214320
0.391083
0.030654
-0.281077
-0.228638
-0.066363
0.337873
0.081148
-0.313479
0.377939
-0.017947
0.073579
0.231225
0.074700
-0.293626
-0.486728
-0.556237
-0.645832
0.117584
0.212825
-0.302648
-0.472007
-0.265301
-0.415663
0.003558
0.612093
0.535379
0.324089
0.226968
-0.085156
-0.022924
-0.320971
0.301875
-0.373755
-0.169731
0.358981
0.522566
-0.072866
0.581402
0.209484
-0.050466
0.351829
0.033172
-0.497715
0.040517
0.071855
-0.762866
-0.487371
-0.632216
-1.178735
-0.441132
-0.136192
-0.613734
-0.468180
-0.204310
0.148684
0.445054
0.104463
0.137375
0.586692
0.456918
0.380938
