90x1025
90x91
0.838644
-0.290117
0.025679
0.064460
0.347987
-0.181686
0.300380
0.667616
0.079187
0.776098
0.399276
-0.054972
0.022560
0.341123
0.241540
-0.119904
0.607594
0.919692
0.281435
0.650028
-0.082834
0.024889
0.724234
-0.236890
0.292167
-0.442174
-0.204359
0.034240
0.010676
0.013537
-0.279783
-0.093311
-0.595466
0.211341
-0.080320
0.501996
0.021763
-0.111556
-0.110628
0.433359
0.781064
0.198026
-0.079961
0.423470
0.312925
0.796325
0.370720
0.827865
0.890695
0.522336
1.036160
0.376811
0.610108
-0.198180
0.441458
-0.148605
-0.386625
-0.139697
-0.739947
0.254903
-0.424697
-0.485522
0.168245
-0.016588
0.170065
0.435397
0.158811
-0.049680
-0.358113
0.281098
0.207883
-0.109503
0.698608
0.551473
0.599726
0.318736
0.973749
1.335342
1.245943
0.338980
0.623287
0.855052
0.241170
0.387247
-0.192029
-0.392593
0.155615
0.146417
0.287378
-0.181382
0.316844
0.597045
-0.362644
0.341499
-0.364504
-0.038125
-0.528135
-0.200408
0.555420
-0.247619
0.126753
-0.143881
0.201660
0.091856
0.012276
0.087611
-0.511791
0.306353
-0.098316
0.639609
0.641812
-0.090143
0.622980
0.432610
0.750106
0.198238
0.322294
-0.133262
0.050896
0.023952
0.338561
-0.745265
-0.620799
0.321145
-0.610486
-0.536682
-0.156223
-0.397062
0.113177
0.286511
-0.057739
-0.360974
-0.004938
0.587484
0.015848
0.706710
-0.008145
0.573614
0.299755
0.610138
0.158563
-0.023576
0.773510
-0.026539
0.515349
0.234547
0.843721
0.626093
0.061068
0.794565
0.397614
0.853734
0.574556
-0.118356
-0.190000
0.244736
0.383054
-0.275836
-0.656200
-0.283011
-0.327347
-0.163104
0.075961
0.233191
0.579119
0.058432
0.105525
0.173492
0.811763
0.203484
0.400844
0.230804
0.197752
-0.172371
0.360248
-0.158390
0.022860
0.192376
-0.134817
0.692926
-0.091075
0.547059
0.508088
-0.215334
0.202353
0.197337
-0.150039
0.233321
-0.094296
-0.394748
0.254804
-0.544117
-0.516394
0.084666
0.420007
0.376259
-0.117261
0.394481
0.190273
0.271417
0.611317
0.529200
-0.120449
0.358771
0.122637
0.538695
-0.313325
-0.035628
0.418117
0.740521
0.735919
0.903727
0.437973
0.030622
0.545186
0.706215
0.678539
0.614603
0.504410
0.090022
0.607566
-0.212540
-0.503293
-0.308797
0.250131
0.455277
0.097967
-0.244291
0.008924
-0.122758
0.248580
-0.111873
0.540651
0.387402
0.055727
0.364484
0.064315
-0.276418
-0.438684
0.616770
0.436813
0.662949
1.206359
1.527519
1.296497
0.466904
-0.341646
0.387201
-0.510030
-0.203782
-0.234871
0.210671
0.292905
0.449398
0.437497
-0.349024
0.364857
0.042854
0.171975
0.065825
0.455834
-0.233562
-0.007160
0.401211
-0.355070
-0.415810
0.011400
-0.190013
-1.100395
-0.536241
-0.362581
0.433782
0.530905
-0.399159
0.202837
0.630237
0.675385
-0.167933
0.203278
-0.425434
0.176726
-0.105666
0.017108
-0.274625
0.205926
-0.030136
0.401795
0.300321
-0.230385
-0.320532
-0.334912
-0.023603
-0.149286
0.338244
-0.634337
-0.134511
0.171394
-0.609105
-0.113975
-1.040904
-1.048826
-0.263232
0.218385
0.132249
0.294158
0.314854
0.454937
0.528497
1.050023
-0.045374
-0.376951
-0.375142
-0.275988
0.134837
0.018255
0.512371
0.422744
0.119745
-0.073784
0.306613
-0.414419
0.174629
-0.303830
-0.170776
0.536616
-0.063019
0.074898
0.285926
0.245416
0.235168
0.029123
-0.760441
-0.502620
-0.559766
0.320783
0.078410
0.147153
0.024860
0.386528
0.934499
-0.019695
0.020778
-0.479521
0.145277
-0.575863
0.301106
-0.386100
-0.343191
-0.387750
0.263966
0.213536
0.360476
0.373408
0.019236
-0.554924
-0.104401
0.004425
-0.458780
0.156389
0.425486
-0.121060
-0.555215
-0.105017
-0.883286
-0.712004
0.160629
-0.305657
0.097771
-0.399876
-0.179261
-0.245885
0.049607
0.502899
-0.359299
0.408180
0.353247
0.538792
-0.272474
-0.029443
-0.336610
-0.158674
0.121205
-0.246670
0.350577
0.281070
-0.137709
-0.572266
0.081720
-0.490228
-0.007815
0.088442
-0.140540
0.209165
0.226493
-0.630278
-0.426278
-0.009989
0.046901
-0.082861
0.025911
0.512696
-0.208719
0.200510
0.635667
0.301828
0.047220
0.464166
-0.250392
0.140029
-0.354978
-0.179425
0.194670
0.394962
0.211336
-0.105899
0.233523
-0.183759
0.316609
0.012602
-0.051323
-0.484619
-0.277591
-0.592209
0.353680
-0.444276
-0.735829
-0.606912
-0.685757
-0.439662
0.049222
0.431322
0.213671
0.717794
-0.066058
0.424372
-0.100316
0.262135
-0.971185
-0.606387
-0.019596
-0.218322
0.557280
-0.062995
0.711765
0.347548
0.250688
0.228432
0.209139
0.165080
0.268036
-0.238460
-0.021899
0.161878
-0.138674
-0.432227
0.206514
-0.478307
-0.784607
-0.957459
0.043670
0.019657
0.261259
-0.127463
0.333106
0.087575
0.729184
0.451259
0.169647
0.178034
-1.093965
-0.720095
-0.500461
-0.566437
-0.138935
-0.085399
0.285896
0.242271
0.242039
-0.087556
0.725705
0.528548
-0.411906
-0.331643
0.031160
-0.288561
-0.299697
0.188062
-0.334724
-0.631925
-0.454219
-0.773217
-0.156222
0.039181
-0.025542
0.676581
-0.139679
-0.132197
0.042908
-0.306476
0.114299
-0.298351
-0.590526
-0.755911
-0.278407
0.133100
-0.553013
0.031912
0.926841
-0.006363
0.550710
0.235073
0.622158
0.241615
0.093944
-0.204777
-0.310051
-0.496966
-0.290476
0.015175
-0.385770
-0.815672
-0.226852
-1.199401
-0.786076
0.315259
0.497617
-0.057353
-0.343243
-0.652978
-0.334417
-0.855211
-0.113471
-0.314538
-1.032691
0.042297
-0.104330
0.234295
0.369325
0.919280
0.601090
0.696708
0.628196
0.732649
0.011221
-0.187195
0.086867
0.173180
0.531461
0.421825
-0.430249
-0.517581
-0.829683
-0.862857
-0.936538
-0.835622
-0.162886
0.375761
0.141131
0.335507
-0.297566
-0.065346
-0.368472
-0.391639
-0.183463
0.145797
-0.502481
-0.208022
0.259472
0.217151
0.733245
1.008560
0.393090
0.062157
-0.037030
0.600561
0.603733
-0.090904
0.140446
-0.557483
-0.495235
0.392015
-0.798451
-0.226929
-0.035036
-0.874134
-0.409662
-0.458978
0.289671
-0.359671
-0.223532
-0.189944
-0.812511
-0.526570
-0.135638
-0.451346
-0.781524
-0.235242
-0.573888
-0.192306
-0.037640
-0.236288
0.768585
0.360391
0.146277
-0.230910
0.692514
0.150745
0.201863
-0.157004
0.071811
-0.310592
0.445616
0.287027
0.020465
-0.002658
-0.070634
-0.933382
-0.318862
-0.248724
0.135152
0.010496
-0.064155
-0.730536
-0.926502
-0.330658
-0.093764
-0.493417
0.060169
-1.029812
-0.495795
0.514328
0.156680
0.728970
0.586662
0.731251
0.051662
0.599280
0.343768
0.072886
-0.045133
0.269255
-0.753188
-0.063423
-0.628143
0.006070
-0.003162
-0.973264
-0.338837
-0.714568
-0.627014
0.008087
-0.342458
-0.180403
-0.523472
-0.382730
-0.465314
-0.395597
0.201998
-0.272950
-0.767222
-0.658411
-0.684482
0.209086
0.042817
0.133203
0.451682
0.606120
0.288047
0.128413
0.387853
0.462849
0.476884
-0.506092
-0.307306
0.026313
0.327009
-0.233866
-0.753482
-0.430841
-0.097451
-0.703550
-1.198300
-0.496754
-0.340317
-0.903811
-0.278951
-1.006088
-0.618551
-1.075377
-0.824789
-1.276793
-1.167761
-0.200224
-0.455186
0.557628
0.078661
0.816227
0.865844
0.768120
0.928187
-0.387751
0.646793
0.133173
0.495193
-0.278494
-0.545684
-0.159681
-0.242202
0.314986
-0.607950
-0.307692
-0.291368
-1.278028
-0.884090
-0.918806
-0.393519
-0.003289
-0.075643
-0.204921
-1.112544
-0.049116
-0.267368
-1.128222
-0.557272
-0.572043
-0.147794
-0.024765
-0.000307
0.711532
0.376937
0.764952
0.650885
0.204025
0.485951
0.654646
0.285204
-0.656579
-0.300388
-0.161564
0.197974
0.021372
0.025795
-0.265139
-0.157267
-0.405495
-0.691213
-0.578036
-0.093035
-0.211906
-0.468704
-0.983537
-0.352138
-0.420248
-0.653970
-0.258857
-0.413703
0.142171
-0.191676
-0.020474
-0.104859
0.327557
0.722742
0.263112
-0.081147
-0.189773
0.465609
-0.173744
-0.009659
0.313234
0.481352
-0.471154
-0.172512
-0.746800
-0.893744
-1.049506
0.088815
-0.761354
0.035114
-0.376592
-0.862133
-1.097210
-0.612319
-0.074683
-0.391622
-0.190945
-0.589335
-0.625206
-0.077797
0.150531
0.183787
-0.352371
0.113611
0.474613
0.569316
0.462663
0.051129
0.138031
-0.303118
0.199221
0.132869
-0.041277
0.002334
-0.141439
0.412454
-0.843518
-0.580566
-1.026383
-0.681037
-0.289828
-0.351932
-0.172667
-0.486625
-0.942992
0.016596
-0.338094
-0.040848
0.010053
-0.445782
-0.163212
-0.320818
0.012375
0.589249
0.420184
0.467488
0.111710
-0.070618
0.884222
-0.111790
-0.311153
0.048458
-0.025684
0.123247
0.014662
0.347377
-0.038716
-0.242386
-0.514407
0.048586
-0.200211
0.326737
-0.530895
0.060638
-0.572899
-0.214575
-0.334419
-0.323157
0.395181
0.316036
0.135147
-0.404245
0.633296
-0.356371
-0.336188
-0.158897
-0.359513
-0.172657
0.553155
0.092624
-0.024764
-0.565268
-0.331930
-0.232289
-0.323005
0.317215
-0.109584
0.021448
0.193898
0.201770
0.410446
0.053568
-0.706259
0.186008
-0.500041
-0.322289
-0.845469
-0.452050
-0.155620
-0.106146
0.082386
0.754664
0.135185
0.372859
0.259271
-0.513459
-0.057580
-0.371856
-0.376308
-0.383799
0.511383
0.118996
-0.381159
0.140671
-0.512214
-0.093541
0.233126
0.063423
-0.390393
-0.471613
-0.069847
0.013967
-0.160432
-0.015287
-0.231864
-0.435592
0.182037
-0.180899
0.214364
-0.755099
0.014746
0.477471
0.145017
-0.057193
0.506712
0.079623
-0.312603
-0.378457
-0.359088
0.099426
-0.461453
0.153940
0.086611
-0.248305
-0.474011
-0.154873
-0.548891
-0.409487
-0.384482
-0.300056
-0.319773
-0.443622
-0.132463
0.418419
-0.554548
-0.243834
0.046175
-0.370355
-0.542120
-0.557418
-0.300899
0.120726
-0.464122
0.400571
0.548783
1.014733
0.596271
-0.004959
-0.432036
-0.756216
-0.647791
-0.707915
-0.490273
-1.011431
-1.227607
-1.293164
-0.798124
-0.885320
-0.639451
-0.543235
0.214397
0.051775
0.131002
-0.297880
0.141623
0.158752
0.635875
0.947664
0.895959
0.159145
0.299847
-0.192685
-0.126673
0.230116
0.208262
0.368566
0.381208
0.579360
0.021844
-0.384538
-0.334263
-0.025136
-0.310213
-0.544167
-0.240293
-0.014529
-0.392220
-0.579413
-0.285005
-0.684709
-0.881809
-0.614117
-0.423474
0.390866
0.313143
-0.210069
0.592059
-0.239591
-0.588997
-0.264918
-0.302704
-0.722288
-0.650571
-0.175320
0.029446
0.018123
0.811587
0.620181
0.501277
0.706826
-0.091432
-0.150534
-0.045025
-0.294416
-0.382048
-1.179986
-1.800409
-1.844804
-1.210671
-0.655113
-0.195330
-0.360718
-0.651776
-0.552780
-0.139173
-0.037622
0.308134
0.112650
0.198584
-0.232515
-0.025987
-0.332018
-0.547620
-0.130430
0.082256
-0.198271
-0.293520
-0.220524
-0.086196
-0.820929
-0.986271
-0.511025
-1.510206
-1.051295
-0.389084
-0.759127
-0.332637
-0.732523
-0.820987
0.018274
-0.132062
-0.222459
0.394900
0.170540
0.155272
-0.689680
0.013737
0.065554
-0.328640
0.064351
-0.167868
-0.358348
-0.558434
-0.252649
-0.254161
-0.349452
-0.438882
-0.388448
-0.965581
-0.041343
0.019712
-0.451235
-0.269495
-0.349738
-1.054234
-0.768690
-1.237332
-0.391912
-0.882421
0.017890
-0.378100
-0.572425
0.271827
0.218540
0.498496
0.168878
-0.138419
-0.244931
0.119398
-0.294859
0.168667
0.093303
0.127513
0.299136
0.214311
-0.510578
-0.265597
-0.604178
0.146533
-0.427987
-0.374349
-0.248173
0.070590
-0.218470
-0.210089
-0.634968
-0.489731
-0.243361
-0.437586
0.109605
0.266443
0.074120
0.330494
-0.276421
-0.697753
0.195240
-0.342856
0.324293
0.075511
0.075325
-0.291411
-0.015752
-0.098208
0.851998
-0.271363
-0.184437
0.331386
0.459183
-0.409085
-0.326168
0.319595
-0.411511
0.692796
0.885838
0.692138
0.519522
-0.342062
-0.288919
-0.347527
-0.562791
0.377143
0.149989
-0.104367
-0.005885
0.455452
0.905804
0.600020
0.298040
0.728569
0.157801
-0.089767
0.347330
0.962718
0.202158
0.463620
-0.019952
0.293012
0.807691
0.278752
0.016976
0.298612
-0.419558
-0.019254
-0.165095
1.012946
0.728146
0.323781
0.487321
-0.328273
0.278039
-0.049383
0.404187
0.586204
0.230015
0.488227
0.033492
0.731003
0.239402
0.797915
0.743105
1.276978
0.035567
0.681785
-0.022906
0.993497
1.070503
0.221969
0.534750
0.456905
0.839100
0.755192
0.750084
0.520682
0.813968
0.884675
1.123078
1.494292
1.205157
1.355506
0.581898
0.747132
0.012594
0.332285
0.183697
0.829400
0.488701
0.340711
0.700395
0.674115
1.043550
0.925674
0.613235
1.051726
0.530330
0.861979
0.234812
0.597392
1.427815
0.993177
0.352696
0.083244
0.297529
-0.184291
0.536113
0.117700
0.572769
1.031597
0.309823
0.406808
0.850486
0.346420
0.739015
0.707691
0.256952
0.085639
0.067115
0.173988
-0.027174
0.263015
0.365866
-0.075955
0.557708
0.815005
0.320635
1.047431
0.832017
0.656878
-0.397024
0.010999
0.437386
0.193784
0.655815
-0.106963
-0.205594
0.673363
0.490006
-0.329808
-0.097099
0.565365
0.686163
0.819640
0.127532
0.251629
-0.115952
0.374793
0.577137
0.078966
-0.742678
-0.876608
-0.168588
-0.700795
0.258042
0.137383
-0.428953
1.076243
1.006898
0.845776
0.074333
1.431542
0.301192
0.102941
0.539505
0.244876
0.420308
0.341948
0.173748
0.753887
0.504136
-0.097507
-0.348457
-0.208438
0.273076
0.240459
-0.001059
0.536093
0.019471
0.184856
-0.440285
0.452426
-0.671724
-0.320437
-0.866660
-0.671223
-0.652087
-0.769095
-0.073620
-0.304209
0.496613
0.077146
1.156471
0.990976
-0.117222
0.067324
0.436997
-0.334817
0.176966
-0.182596
-0.008052
0.448157
0.503380
-0.091899
0.509130
-0.509721
-0.432258
0.149621
-0.066505
0.302241
0.323371
-0.227697
-0.514898
0.663264
0.027526
-0.364560
-0.427335
-0.684980
-0.804927
-0.549367
-0.338715
-0.421620
-0.128937
0.166166
0.026580
0.137884
0.446958
0.164184
0.550570
-0.226538
0.125247
0.239381
0.386802
0.075346
0.228177
0.468668
0.378798
-0.510643
0.293297
-0.612970
-0.229246
0.604939
0.763479
0.794387
0.235475
0.546501
-0.576959
-0.475753
-0.747192
-0.806050
-0.827115
-0.422047
-0.881034
-1.076393
-0.419041
-0.486736
0.045905
0.142620
0.586125
-0.074818
0.307237
0.343669
0.537156
-0.260208
-0.135465
0.586114
0.643550
-0.032711
-0.289932
-0.177910
0.219743
0.362601
-0.267463
0.010108
0.644396
0.677927
0.192305
1.357910
-0.311173
-0.540286
-0.320333
-1.259837
-0.983440
-1.225933
-1.257888
-0.846718
-0.741492
-0.960021
-0.881732
-0.929691
-0.343072
0.434466
-0.198975
0.216690
0.369833
0.001658
0.310730
0.113374
0.686977
0.014098
0.343888
-0.010487
-0.271048
-0.277713
-0.056128
-0.515584
0.327848
-0.151902
-0.138847
-0.097664
-0.381177
-0.057641
-1.286336
-1.620897
-1.737031
-1.849341
-2.123607
-2.022376
-1.226629
-0.340220
-0.197033
-0.906437
-0.259946
0.245792
-0.555285
0.486436
0.085639
0.030895
0.070064
0.551997
0.389510
0.160034
-0.143956
0.610715
-0.190505
0.464520
-0.239891
-0.077108
-0.422254
-0.703356
-0.714086
-0.361866
-0.871886
-1.290539
-0.783339
-0.555418
-0.585350
-0.918765
-2.066570
-0.944499
-1.447178
-0.674933
-0.018233
-0.111305
-0.430709
-0.369689
0.168472
-0.486306
-0.226798
0.057724
0.206102
-0.068477
0.608760
-0.229739
0.261255
-0.570298
0.152931
0.198699
0.022529
-0.392654
-0.206113
-0.449000
-1.058291
-1.161059
-1.673715
-1.244803
-0.898904
-0.707332
-1.217242
-0.825658
-2.040775
-1.515386
-0.577602
-1.158495
-0.384107
-0.940974
-0.647053
0.173657
0.094064
0.418076
-0.314662
0.537617
0.403461
-0.450005
0.364054
-0.005014
-0.132068
0.378922
-0.036032
-0.530946
-0.081698
0.381563
-0.662453
-0.899656
-0.316229
-0.366909
-0.529802
-0.267843
-0.361117
0.173381
-0.630157
-0.825562
-0.937682
-0.315780
-0.414867
-0.235622
0.129510
0.047412
-0.003230
-0.294739
-0.393003
-0.366121
0.441151
0.290125
-0.292280
0.539651
0.699884
0.212970
-0.324181
0.007478
-0.363315
0.090534
-0.239612
-0.302497
-1.245626
-0.382053
-0.275945
0.660915
0.679169
0.241175
0.411391
0.248842
-0.223021
0.070271
-0.490757
-0.292952
-0.728319
-0.987018
-0.388863
-0.487669
0.270456
0.496313
0.280377
-0.473397
-0.187871
-0.269241
-0.209877
-0.134920
0.033795
-0.378826
-0.359345
-0.302195
0.015852
-0.137291
0.133637
-0.787050
-1.219480
-0.703821
-0.457047
0.255113
0.260245
0.928303
0.661347
1.020404
-0.119446
-0.216276
-0.519371
-0.650592
-0.131534
-0.266227
-0.659038
-0.318878
-0.165571
0.317896
0.621217
0.237113
-0.166974
0.219756
0.134669
-0.167966
0.419424
0.089802
0.209603
-0.840412
-0.614330
-0.613867
-0.582291
-0.204455
-1.247729
-0.360887
0.616360
1.296518
1.248555
0.510927
0.227408
0.867564
0.438602
-0.508175
-0.933212
-1.197283
-1.094478
-0.845848
-0.190953
-0.476715
0.235104
-0.281605
-0.438923
0.068750
-0.217644
0.429812
0.399857
-0.226855
0.140290
0.007049
-0.098154
-0.347505
-0.492317
-0.305946
-0.910410
-0.849461
-1.028101
0.243579
0.604837
0.890877
1.249346
0.780334
0.540431
1.122349
0.612616
-0.358938
-0.374116
-0.289318
-0.655934
-0.624555
-0.087163
0.487250
-0.341750
-0.382811
0.084693
-0.153293
-0.095539
0.230147
0.219831
-0.481427
0.123675
0.283201
0.204988
-0.068909
-0.865412
-0.202231
-0.169576
-0.862369
-0.651220
-0.479387
-0.052992
1.007849
0.665416
0.275603
1.429284
0.632048
0.912995
-0.137570
-0.166009
-0.787142
-1.102445
-1.200373
-0.932207
-0.191524
0.275111
0.000646
0.356019
-0.085924
0.347749
-0.455419
-0.386737
0.437598
0.354578
0.379892
0.454151
0.054868
0.027236
-0.495947
-0.406498
-0.288418
-0.827752
0.119186
-0.159990
0.309447
0.334057
0.866292
1.166767
1.231614
0.482693
-0.110819
-0.716050
-0.323966
-0.880554
-1.021852
0.091844
0.090703
-0.024951
0.299811
-0.198976
-0.527175
0.261281
0.238085
0.290474
-0.192886
0.363147
0.091984
0.051348
0.225488
0.150118
-0.056641
0.292117
-0.097670
-0.840421
0.219374
-0.058738
-0.235142
-0.308921
0.621070
0.286637
-0.228988
-0.155954
0.435635
-0.236351
-0.394060
-0.059504
-0.195468
0.084037
0.235013
-0.237422
0.466248
0.048957
-0.379148
-0.442057
0.039712
-0.235782
-0.413400
0.404428
0.000442
0.870430
0.565198
0.751766
0.094329
0.126107
0.440920
-0.753325
-0.141649
-0.333157
-0.125911
-0.623661
0.391003
0.898552
-0.174451
0.440531
0.051343
0.070371
-0.211851
0.339953
-0.022427
0.485363
0.211281
0.350627
0.332264
0.081919
0.068223
0.007879
-0.285773
0.138935
-0.433878
0.067760
0.060532
0.822540
0.564663
0.111941
0.091946
-0.186303
-0.004211
-0.525130
0.367673
-0.557977
-0.083987
0.115309
0.524976
0.188411
0.598001
0.312084
0.011935
0.055937
-0.013936
1.050077
0.420343
0.539993
0.497721
0.253908
-0.098079
-0.393432
-0.309125
-0.222481
0.010992
0.460962
0.275621
0.647328
0.575512
0.200980
0.906551
0.427131
0.438648
0.684748
-0.111411
-0.227709
-0.397716
0.117357
0.418947
0.632270
0.653420
-0.107748
0.460092
0.175304
0.585284
0.136202
0.612590
-0.077351
0.704354
-0.225742
0.651160
-0.177334
0.244239
-0.099909
0.029299
0.258291
-0.118723
0.373551
0.697360
-0.015558
0.247386
0.363164
0.369969
0.418498
-0.008191
0.355937
0.217263
0.026513
-0.219676
-0.458588
-0.333528
0.290995
-0.043695
-0.010850
0.204369
0.322853
0.290170
0.373061
-0.074410
0.276525
1.108142
0.271880
1.325199
0.242361
0.064285
-0.450075
0.454595
-0.030901
0.052984
-0.181789
0.377579
0.055958
0.144831
0.474938
-0.037349
-0.354378
0.270352
-0.129823
0.688279
0.066454
-0.689768
-0.565610
-0.433356
-0.403717
-0.380436
-0.162120
0.293686
-0.490239
0.197419
-0.374772
0.181067
0.135158
1.110748
1.116659
0.486681
0.394176
0.302658
-0.276345
0.532811
0.000505
0.093618
0.866623
0.133319
0.833962
0.020388
0.208883
0.815135
-0.721511
0.060067
-0.235314
0.340987
0.000594
-0.359293
0.166782
0.783661
0.555509
0.366557
-0.024681
0.106952
0.596416
0.360047
0.111127
0.642786
1.359090
1.166231
0.630693
0.136194
0.236795
-0.370545
0.175906
0.227442
0.140772
-0.204368
0.375374
-0.011322
0.053807
0.420555
0.372990
0.688913
0.179972
0.988007
0.114732
1.182765
0.538996
0.113004
-0.183851
0.350059
0.103641
-0.676898
-0.092497
0.015947
0.342359
0.833804
0.622136
0.595188
1.466043
0.993302
0.576149
-0.040974
-0.170464
-0.169307
-0.044322
-0.042546
0.318677
-0.115069
-0.279127
-0.259964
0.172509
0.086450
-0.015444
-0.308405
0.187514
0.205089
-0.147545
0.208517
-0.278663
-0.573193
-0.131203
-0.178175
0.219778
-0.452225
-0.335397
0.563012
0.553772
0.422716
-0.103790
-0.102180
0.646646
1.101464
0.557825
0.054245
0.006592
-0.371823
-0.117739
-0.237020
0.247331
0.443288
0.432951
-0.427011
0.308573
0.748281
0.109763
0.350014
0.786800
1.167422
1.124162
0.416962
0.205619
-0.173163
0.498851
0.877892
0.511385
-0.396876
0.522958
0.641926
0.995561
0.538476
1.221276
1.251418
1.543607
0.681416
0.950575
0.098540
0.100096
0.163307
-0.142588
0.559578
-0.184414
-0.567130
0.355201
-0.357418
0.431198
-0.299901
-0.211728
0.484036
-0.250784
-0.189914
0.429685
0.452893
0.480621
-0.139633
-0.089355
0.094491
0.193282
0.223032
-0.312536
0.256167
0.067184
0.066126
-0.220985
0.150753
0.246814
-0.121258
-0.234770
0.467032
0.289459
0.399283
-0.297354
-0.353110
-0.159928
-0.128105
0.362530
0.448661
-0.446530
-0.448115
-0.368012
-0.449850
0.495094
-0.161176
-0.134460
0.519053
0.261376
0.203702
-0.465837
-0.350576
-0.117092
0.143814
0.362947
-0.413533
0.091480
0.456147
0.473567
-0.078203
0.392278
-0.381603
-0.017546
-0.441411
0.083822
0.398859
0.225539
-0.106630
0.059796
0.355691
0.246420
-0.354068
0.425189
-0.421530
0.079932
-0.446993
0.402690
0.350179
0.428592
0.330693
0.391285
0.454337
-0.053720
-0.568338
-0.502924
-0.266730
-0.421318
0.182222
-0.435158
-0.215846
0.510480
-0.416744
0.009883
0.005648
-0.067754
-0.215018
-0.268520
0.092530
0.202949
-0.168276
0.326521
0.025802
0.049269
-0.378600
0.305667
0.117703
-0.185210
-0.239180
-0.015619
-0.160408
0.242302
0.101874
0.234663
0.534607
0.094979
0.069000
-0.044709
0.086425
-0.567062
-0.491594
0.266620
-0.169120
0.491643
0.185056
-0.273665
-0.065331
0.171252
-0.219181
-0.164814
0.109786
-0.313660
0.273041
0.368246
-0.330812
-0.414644
0.264852
0.151038
0.374920
0.515405
0.482860
0.516304
-0.170802
-0.310195
-0.039769
-0.124971
0.106064
0.334703
-0.033356
-0.117345
-0.562313
0.449591
0.079895
-0.095547
0.441058
-0.300136
-0.115938
0.383841
-0.051292
0.273332
-0.439410
0.109474
-0.004451
-0.108689
0.278348
-0.491682
-0.007795
0.281967
0.481194
0.148754
0.471925
-0.255873
-0.438493
-0.259326
0.033324
-0.352223
0.263212
-0.349188
0.242201
-0.080658
0.061331
0.459633
-0.084700
0.319191
-0.110600
-0.462282
0.307802
-0.097832
-0.113702
0.411762
-0.056316
0.314880
0.385795
-0.159887
-0.188999
-0.379987
0.141844
-0.045637
-0.331813
-0.147695
0.294726
0.103162
0.110472
0.250820
0.375212
0.196413
-0.509170
-0.398441
0.095445
0.088854
-0.423891
-0.649784
-0.485239
0.531454
0.500194
0.103164
-0.339258
-0.047674
-0.189326
-0.363458
-0.121312
0.438744
0.219939
-0.203755
0.483570
-0.009865
-0.421818
0.081413
0.243276
-0.416268
-0.416445
0.004121
0.234051
0.266962
-0.438752
-0.115609
-0.135193
-0.103684
0.093302
0.141928
0.273911
-0.364913
0.389155
-0.378801
-0.274346
0.443692
0.356964
0.220035
-0.298951
0.155477
0.281844
0.202527
0.429163
-0.134656
0.077944
0.402706
0.390420
0.151363
0.013773
-0.556643
0.249047
0.035839
0.202598
-0.178659
-0.100052
0.405750
-0.431160
-0.077087
-0.200086
0.350557
0.073397
0.182413
0.488728
-0.208301
-0.449817
0.512682
-0.036474
0.207146
-0.006272
0.139450
-0.743098
-0.745049
0.040668
-0.287730
0.195563
0.090670
-0.206813
0.112595
-0.470984
-0.229662
0.344568
0.183977
0.019969
0.307889
-0.167258
-0.468859
0.215420
-0.215602
-0.153656
-0.230227
-0.380025
0.015535
-0.065113
0.451071
-0.149318
-0.206513
-0.013114
-0.174646
-0.423867
-0.005983
-0.104877
-0.171589
-0.243109
-0.416526
0.032960
-0.119241
0.290029
-0.266084
-0.609251
-0.282942
0.245546
-0.180638
0.504995
0.458439
0.294644
-0.469495
-0.164752
-0.093113
0.485347
-0.140817
0.313772
0.295624
0.495363
0.384914
-0.163700
0.146169
-0.213577
0.156029
0.412828
0.018622
0.344236
0.356616
0.074249
0.116556
0.032817
-0.440244
-0.645880
-0.539055
0.287638
-0.295380
-0.539131
0.161379
0.347914
0.239008
-0.101573
0.527701
-0.123595
-0.469939
-0.179216
-0.378420
-0.165077
-0.069440
0.357577
0.329349
-0.194747
0.513155
-0.359379
0.048113
0.004118
-0.292419
0.284169
0.164832
0.218421
0.007928
0.066627
-0.091011
-0.100575
0.045991
-0.356046
-0.421172
0.305943
-0.334009
-0.462504
0.015561
0.202601
0.240336
-0.120937
0.312681
0.184371
0.220889
-0.484794
-0.113715
0.239942
0.471098
0.451374
-0.473905
-0.214071
0.048450
-0.184331
0.401837
0.326938
-0.105630
0.511418
-0.141019
0.134903
0.203145
0.451850
0.562720
-0.128120
0.170212
-0.590812
-0.626176
0.297700
-0.619544
-0.628702
0.117545
-0.362051
0.176549
0.136842
-0.451169
-0.314465
0.265932
-0.212463
0.369478
0.194663
-0.311273
-0.453054
0.123316
-0.008853
0.277948
-0.475715
0.272682
0.276754
-0.225178
-0.268038
0.473754
0.187638
-0.259395
0.310308
0.136362
0.045579
-0.524540
-0.050408
-0.568366
0.201248
-0.489794
0.006231
0.526200
0.272697
-0.002398
-0.449678
-0.297309
0.478664
0.346489
0.336344
-0.405624
0.178569
-0.224114
-0.290113
-0.250805
0.087826
-0.423018
0.192365
-0.044680
0.087679
0.139353
-0.043633
0.245004
-0.207760
0.516853
-0.008374
0.068261
-0.400260
-0.422853
-0.201511
-0.367174
-0.145047
-0.550083
-0.210990
0.014369
0.162586
-0.044286
0.470561
0.042597
0.235631
0.548619
0.528322
0.322531
0.276264
0.151836
-0.378609
0.052046
0.490208
-0.082533
-0.178097
-0.541104
-0.214470
-0.032596
0.334391
-0.276418
-0.286864
0.029259
0.528304
0.332582
0.219358
-0.548778
-0.255899
-0.070117
-0.235015
-0.505504
0.372512
-0.523814
-0.163339
0.468372
0.358161
0.141691
0.097614
0.385668
-0.382665
-0.133291
0.130260
0.031288
-0.129239
0.126607
-0.432177
0.116960
0.037728
0.305121
0.156313
-0.299754
-0.302400
-0.389350
-0.128274
0.102555
-0.051668
-0.278796
-0.275243
-0.433580
-0.541331
-0.066722
-0.514198
-0.057091
-0.160574
0.252240
-0.237533
0.112085
0.255644
-0.367373
-0.053756
0.126025
0.360362
0.185310
-0.195045
-0.308735
0.498739
-0.364299
0.420776
-0.404601
0.308119
0.007191
0.349025
0.251104
0.001712
-0.496292
-0.303790
0.362395
0.063382
0.241708
-0.028344
-0.254300
-0.765216
-0.589391
0.271976
0.261831
0.231346
-0.316469
-0.450371
0.075740
-0.271271
-0.109950
0.510886
-0.118252
-0.312974
0.021681
0.277501
0.533653
-0.357250
-0.132944
-0.409727
0.212831
-0.467538
-0.409628
-0.403286
-0.119948
-0.403833
-0.432027
0.008427
0.285031
0.458701
-0.561070
0.008255
0.189056
-0.206931
-0.348268
-0.688306
0.107435
-0.178195
-0.200263
-0.147706
-0.418084
-0.521789
-0.166703
0.182308
0.169055
0.177726
0.176049
0.191575
-0.145947
-0.154015
-0.449047
-0.498669
-0.401267
0.008777
0.157889
0.079173
0.002794
-0.339136
-0.629910
-0.017751
0.471544
-0.280785
-0.085121
-0.284306
-0.432781
-0.831609
-0.298157
-0.513813
0.194725
-0.393332
-0.098448
-0.100887
-0.606618
0.153642
-0.104215
-0.102739
-0.286361
0.025965
0.404777
-0.034926
-0.190341
-0.375660
0.243765
-0.359682
0.113463
-0.192119
0.166833
0.147311
-0.467076
0.016084
0.267086
-0.126100
-0.195112
-0.332127
-0.200212
-0.726950
-0.273430
-0.490443
-0.295183
0.307865
-0.246646
-0.385098
-0.351803
-0.558436
-0.363829
-0.372964
-0.146251
-0.491006
-0.313197
0.002538
0.116220
-0.493464
-0.533090
-0.480239
-0.496938
0.055035
-0.549258
-0.629147
-0.594944
0.137461
-0.067537
-0.462828
0.016241
0.535726
0.299447
0.042641
-0.199441
-0.689624
-0.686486
-0.479516
0.302975
0.322987
0.125272
0.233177
-0.393132
-0.553037
-0.232933
0.056847
-0.024960
0.391025
0.036038
0.475365
0.003126
-0.465812
-0.480239
0.062229
-0.232889
-0.645623
-0.079827
-0.640180
-0.501679
-0.122859
-0.193298
0.606456
0.389323
-0.149717
0.309581
0.123242
0.113459
-0.259531
-0.109637
-0.442323
-0.077745
0.408698
-0.086517
0.272489
-0.559657
-0.696165
0.058581
-0.532999
0.298432
0.081267
-0.052558
-0.377738
0.104490
-0.298795
0.063330
-0.039215
-0.205277
-0.335265
0.303811
-0.206755
-0.068055
-0.085137
-0.356293
0.396605
-0.085303
0.495674
0.395502
0.139974
0.300601
-0.470976
-0.601418
-0.539077
0.166182
0.090227
0.267172
-0.291886
-0.018089
0.019688
-0.428727
0.009138
0.356222
-0.187431
0.289243
0.100420
0.134983
0.541551
-0.095623
0.009529
0.160442
-0.226106
-0.143667
0.423967
-0.093155
0.323183
-0.131167
-0.355540
-0.130881
0.388008
0.150833
0.148500
-0.506627
0.045991
-0.538891
-0.021557
-0.379546
0.082725
-0.479285
0.232044
0.112284
0.190845
-0.026223
0.434175
-0.012646
-0.465403
-0.102392
0.101911
0.203490
-0.274047
-0.440153
-0.140132
0.093108
0.274015
0.338835
-0.361817
-0.517173
-0.257150
-0.128459
-0.088050
-0.140585
-0.240528
0.498199
-0.501847
-0.334276
-0.600049
-0.545087
-0.662625
0.275964
0.340347
0.129332
0.338840
-0.444345
-0.358397
0.257360
-0.126372
-0.273968
-0.336120
0.318187
0.058968
-0.056699
0.393753
-0.192263
-0.156491
0.454801
0.078690
0.340410
-0.248351
-0.297428
-0.130464
-0.516893
0.615391
-0.028011
-0.251368
0.205445
-0.265788
-0.053670
-0.381571
-0.324726
-0.217018
0.043193
0.348175
0.425591
-0.030356
0.360038
0.257587
0.388447
0.091730
0.137068
-0.333116
0.239045
-0.506016
-0.458279
0.475415
-0.118489
0.006442
-0.334752
-0.145810
-0.404035
-0.362937
-0.554192
0.330945
-0.538618
-0.331682
0.437599
0.315279
0.223560
-0.001233
0.304136
-0.150005
-0.510650
-0.270323
0.295249
0.202391
0.362370
-0.365688
-0.301937
0.234501
0.122504
0.375218
-0.466961
-0.382051
0.349310
-0.188041
-0.368892
-0.181308
-0.071448
-0.135858
-0.242138
0.354092
0.488307
-0.431790
0.354116
0.381843
-0.191324
0.159336
0.201315
0.027416
-0.464854
-0.511084
-0.360487
-0.592966
-0.271539
0.199239
0.512431
0.500943
-0.238343
-0.193585
0.331536
0.457922
0.282474
-0.291358
0.448132
-0.359314
-0.484564
0.330342
0.413284
-0.004984
0.267835
0.231372
-0.215527
-0.256795
0.289438
0.502169
0.301402
-0.305867
-0.061156
0.370585
-0.608812
-0.675903
-0.486587
-0.713219
0.063852
-0.151288
0.141155
0.389277
0.523778
0.544515
0.267566
-0.192632
0.205651
0.228341
-0.434271
0.368631
0.096614
-0.115689
-0.350155
-0.016930
-0.264497
0.189779
0.267361
-0.247743
0.159926
0.079894
0.324869
-0.322803
0.319967
0.432724
-0.301919
0.157243
0.145421
-0.823272
0.167101
0.177774
0.258867
0.003967
0.480179
0.204864
0.090201
0.361368
0.367913
0.152331
0.049586
-0.149884
0.247257
-0.237328
0.245374
-0.496591
0.413056
0.399311
0.203218
0.163906
0.097690
0.256530
-0.486652
-0.339762
0.698690
0.366881
-0.311182
-0.297451
-0.133140
-0.256002
-0.434273
-0.686636
-0.042153
0.135042
-0.085538
-0.195219
0.287443
0.500266
0.471150
0.052978
0.080531
0.067134
0.717640
-0.213395
-0.387392
-0.473941
0.337371
-0.207050
-0.234141
0.170626
-0.098454
-0.083594
0.174601
0.185382
0.181695
-0.201463
-0.474111
-0.053647
0.015994
-0.606547
0.017109
-0.394661
-0.382178
0.132340
0.454577
0.288236
0.308422
-0.021626
0.318687
0.001190
0.536473
-0.134633
0.702528
-0.047323
-0.548428
0.078751
-0.816265
0.156911
0.552074
0.038310
-0.348158
-0.351696
-0.108039
-0.545997
0.277639
0.498540
0.236357
0.473647
-0.239145
0.469029
-0.561061
-0.516058
0.064808
-0.220728
0.396915
0.050867
0.281688
-0.382836
-0.634811
0.330500
-0.363005
0.043017
0.728046
0.384565
0.455632
0.280945
-0.025757
0.128832
-0.083024
-0.238008
0.182872
0.224575
0.470487
0.157007
0.280210
-0.129252
0.459510
-0.370877
-0.057604
0.419805
0.384321
0.334560
0.011089
0.506231
0.549864
-0.184835
0.192422
0.573081
0.402285
-0.100179
-0.178436
-0.187235
-0.091901
0.617428
0.152492
0.024128
0.236622
0.231040
0.138085
-0.340555
-0.091054
-0.144150
0.170839
0.412051
-0.199871
0.271851
-0.401307
0.383782
0.314985
-0.068314
-0.397638
-0.072214
0.291257
-0.277994
0.407099
-0.411390
0.526745
-0.614456
-0.356585
0.303435
0.009126
-0.582454
-0.642343
-0.887037
-0.542732
0.154346
0.111123
0.113839
-0.264841
0.513921
-0.321821
0.467722
-0.206013
-0.502434
-0.627162
-0.093922
-0.302970
-0.189045
-0.348237
0.151223
-0.344734
-0.279176
-0.074283
0.090089
-0.390537
0.543194
0.043354
0.811029
0.058816
0.398574
0.439944
-0.105121
0.001512
-0.462649
-0.633331
-0.430534
-0.612476
0.278398
0.577363
-0.091070
-0.487608
-0.271256
0.296587
0.448236
0.666446
-0.324584
0.338617
-0.273747
-0.479887
-0.228318
-0.214472
-0.138700
-0.236484
-0.427809
-0.227025
0.281938
-0.229140
0.639016
0.066220
0.051061
-0.396437
0.585664
-0.308034
-0.257848
0.150072
-0.114254
-1.075571
-0.494610
-0.767344
-0.494102
0.230710
-0.065360
-0.346028
0.545419
0.134218
-0.171850
0.589231
-0.138261
0.226741
0.059589
-0.261169
-0.180683
0.416227
0.542339
-0.120114
0.132780
0.346164
0.057214
0.569141
0.256723
-0.008889
0.118378
0.312973
0.327493
-0.203609
-0.085757
0.562634
-0.178905
-0.606929
-0.306227
0.069151
-0.361029
-0.136172
0.041754
-0.211357
0.409693
0.494756
-0.078355
0.462497
-0.237824
0.140046
-0.370940
0.284119
0.621592
0.233157
0.702424
0.769415
0.079091
0.568833
0.524672
-0.074627
0.334268
0.023809
-0.357875
0.049208
0.538491
0.062947
-0.001943
-0.537352
-0.661755
-0.932887
-0.357913
-0.184621
-0.177543
0.688700
0.029666
0.328615
0.445539
0.338659
0.435153
0.460947
-0.082747
0.276154
0.010252
-0.421063
0.201208
0.799190
0.586652
0.302570
0.077156
-0.124335
0.557531
0.470126
0.509234
0.443092
-0.086123
-0.510704
0.360236
0.469385
-0.101185
0.146179
-0.167544
-0.319702
-0.876774
-0.354920
-0.548676
-0.315003
-0.630122
-0.118096
-0.371177
0.243989
0.720774
1.028176
0.785909
0.481870
0.244673
0.203046
0.133910
0.097452
0.771458
0.009922
0.365841
0.154463
0.184618
-0.416117
-0.377952
-0.205433
-0.064562
0.299752
-0.013300
-0.146928
0.037569
-0.187372
-0.118950
-0.001606
-0.450308
-0.676408
-0.068625
-0.202966
-0.129873
-0.362681
-0.166359
0.053231
0.894872
0.705498
0.966850
0.653345
-0.163724
0.546467
0.712630
0.292165
-0.263343
0.354702
0.224354
-0.133165
-0.080947
-0.353402
-0.287388
-0.380243
0.098282
-0.193689
-0.141551
0.131348
-0.222051
0.271441
-0.327568
-0.073378
0.268659
-0.084450
0.112783
-0.476722
-0.011111
0.450297
0.291212
0.590102
0.599270
0.419825
0.276217
0.100069
0.548555
-0.010186
0.429515
0.283418
0.594160
0.564921
0.024991
0.040883
0.067285
-0.097759
-0.127653
-0.021709
0.203018
-0.068214
0.325871
0.575691
0.083840
0.066643
-0.095285
0.304515
0.142471
-0.147521
-0.313511
-0.244802
-0.217512
0.646815
0.652968
0.611753
1.104835
0.007149
0.359621
-0.244770
0.277062
0.654527
0.747401
0.710458
0.536627
0.356260
0.188577
0.186811
-0.238286
-0.431913
-0.716813
-0.135481
-0.254606
0.076043
0.415170
0.464488
0.790922
0.229392
0.284942
0.178869
0.683250
0.349389
-0.530138
-0.429386
-0.075930
0.319196
0.499944
0.660730
1.033561
0.953835
0.731705
0.072267
0.837126
-0.000341
0.851680
0.227243
-0.044296
-0.248035
-0.167741
0.176274
0.130770
0.076782
-0.247158
-0.599248
-0.284593
0.316663
0.440669
0.492599
0.247841
0.147837
0.431166
0.691176
0.106257
0.383749
0.038558
0.204291
0.310376
-0.056372
0.675174
0.749231
0.370829
0.143657
0.875679
0.262399
1.059692
0.331324
0.349651
0.139094
0.107418
0.270059
0.391588
0.068744
-0.680807
-0.429193
0.427569
-0.379601
0.076065
0.171881
-0.308002
-0.078837
-0.124096
0.158235
0.692034
-0.089904
0.089272
-0.339697
-0.561962
-0.147390
-0.319333
0.224973
-0.114986
0.517841
0.938692
0.909733
1.092677
0.785313
0.946833
0.803913
0.752744
0.285899
-0.146452
0.184234
-0.107839
0.499391
0.222170
-0.797391
-0.215819
-0.543861
-0.256855
-0.315296
0.357753
0.217881
0.262906
0.046459
0.259535
0.354528
0.611497
0.510702
0.643034
0.334593
0.359326
0.394877
0.363615
0.436794
0.281917
-0.022065
0.863037
0.726036
0.456804
0.668524
0.442225
-0.179036
0.807931
0.095147
0.142016
0.310613
-0.419647
0.145305
-0.327076
-0.251059
-0.434835
-0.236334
-0.243421
0.327449
-0.306368
0.193114
0.036099
0.117099
0.422853
0.549836
-0.012572
-0.230357
-0.053344
-0.139631
0.816334
-0.175453
0.611100
0.454600
0.298607
0.653301
0.163516
0.377179
-0.001644
0.263016
0.446615
0.150913
-0.158132
0.353411
-0.090352
-0.127129
0.111719
-0.577016
-0.663646
-0.398510
0.455028
0.263022
-0.069057
-0.313167
0.421013
0.009312
0.500011
0.040850
0.656738
-0.077166
-0.080352
-0.073372
-0.045265
0.097986
-0.111931
0.765565
0.616303
0.519062
0.013769
0.146112
-0.004000
0.324807
-0.068985
0.081587
0.567917
-0.075914
-0.355890
-0.119803
-0.254193
-0.131255
0.137280
0.414004
0.587567
-0.355019
-0.835399
-0.060320
-0.381762
0.214771
0.905043
1.087959
0.731616
0.680412
0.455553
0.706500
-0.134306
0.770400
0.729854
0.905459
0.307326
-0.166590
0.299286
-0.563421
0.038577
0.297383
0.441156
0.393318
0.306952
0.677091
-0.054843
-0.525846
0.037653
-0.339274
-0.244661
0.105155
0.366671
-0.268677
-0.801799
-0.359679
-0.117561
0.101276
0.684830
0.807305
0.649267
0.219503
-0.155379
0.139660
-0.312223
-0.000995
0.391118
0.502362
-0.435723
0.238924
-0.101185
0.120016
0.125192
0.037549
-0.098338
0.796859
-0.038723
-0.176006
-0.111704
-0.566133
0.076364
0.315383
-0.052224
-0.648956
-0.026694
-0.481916
-0.024253
0.126202
0.034689
0.009301
0.340407
0.131172
0.111800
0.534284
0.118478
0.818460
0.379545
0.339001
0.494978
0.952368
-0.528367
-0.242509
-0.306147
-0.466901
-0.146676
0.148099
-0.196800
0.008472
0.558892
0.121130
0.087251
-0.149743
-0.182345
-0.291632
-0.167376
0.202151
-0.102293
0.547065
-0.525127
-0.610157
0.093237
-0.736694
-0.501340
0.072249
0.237327
-0.236928
0.622810
0.141820
0.041780
0.976000
0.738085
0.429416
-0.176127
-0.386836
-0.275232
-0.245192
0.293847
0.010741
-0.125864
0.755179
0.371908
-0.090447
0.356954
-0.630215
0.011987
0.075055
0.240669
0.240874
0.301070
0.100737
-0.341612
-0.472988
-0.328120
0.091136
0.018489
-0.221038
0.028932
0.413649
0.982236
0.947688
0.510730
1.232212
0.806621
0.606902
0.023904
-0.732793
-0.215495
0.298946
0.375847
0.345798
0.742534
-0.071238
-0.096921
0.152642
0.361384
-0.285485
0.036415
-0.175618
0.115580
-0.160239
0.202598
0.106554
-0.228051
0.156440
-0.373410
-0.534443
-0.007847
-0.150092
-0.129770
0.414722
1.027766
0.453349
0.670529
1.085075
0.241779
-0.046835
0.074889
-0.505322
-0.117578
-0.076765
0.131710
-0.018246
0.155561
0.041830
0.490710
-0.379756
0.336574
-0.190722
-0.004009
0.486571
0.721335
0.347488
0.525989
-0.087263
0.194119
-0.070416
0.071129
-0.419710
0.023896
-0.059131
-0.043418
-0.000489
0.212521
0.433036
0.937769
0.231271
0.441567
-0.255602
0.085815
0.091609
-0.551519
-0.426569
0.358095
0.082553
0.015830
0.079371
-0.065243
-0.447777
-0.391923
0.561639
0.290092
0.186551
0.337842
0.185437
0.395505
0.258319
0.405885
0.490086
-0.259340
-0.500947
-0.484981
-0.204615
0.715193
1.015765
1.053898
0.965400
0.925147
0.728921
0.717632
-0.175084
-0.412377
-0.089479
0.000422
-0.291504
-0.165703
-0.499446
0.386695
0.044653
-0.173807
-0.131163
0.231508
0.513773
0.442392
0.369060
0.542795
0.590412
0.605736
0.199793
0.361722
0.351897
-0.015761
0.055161
-0.168497
0.301102
0.711457
0.563821
1.117764
0.085427
0.559678
0.762415
0.256580
-0.315275
0.083066
-0.263663
0.241524
-0.256712
-0.169515
0.158627
0.352483
0.294132
0.179562
-0.010634
0.420982
0.231251
0.818874
0.143478
0.988279
0.748715
0.383577
0.542290
0.546605
0.385774
0.745392
0.324714
-0.111777
0.823127
1.187795
1.015181
0.362449
-0.112903
-0.022462
-0.071965
0.569820
-0.341500
-0.396657
0.239962
-0.570371
-0.649868
-0.486090
-0.257236
-0.300011
-0.436707
-0.670802
-0.303667
-0.099454
0.053935
0.906321
0.823140
0.028057
-0.008730
0.517171
0.261474
0.646690
0.252821
0.350094
0.075912
0.717995
0.038353
0.685739
0.243094
0.363054
0.901745
0.140285
-0.093473
-0.001854
0.345566
0.153946
-0.341809
-0.286963
0.146121
-0.405408
0.300061
0.072740
-0.396695
-0.159896
-0.550349
-0.014334
0.058809
-0.217160
0.284000
0.034760
0.563698
0.487735
0.592495
-0.165637
0.650821
0.144342
0.439644
0.836568
0.866673
0.786620
0.774682
0.572973
0.625909
0.017803
-0.042859
0.423954
-0.114897
-0.030730
0.318602
-0.327406
-0.359480
-0.390159
-0.329488
-0.259933
0.310743
0.473761
0.027146
0.197181
0.096696
0.342121
0.780167
0.182151
0.419161
0.421838
-0.004807
0.707298
0.288553
0.815140
0.335829
0.361130
0.189477
-0.238894
0.154411
0.884509
0.903756
0.840384
0.316348
0.062448
0.174325
0.716088
0.234266
0.569852
0.262289
-0.119222
0.037726
0.377458
-0.127423
-0.243864
-0.141829
-0.480322
0.040124
0.254359
-0.155907
-0.024539
0.234052
0.200852
0.582572
0.209207
0.003786
0.688223
0.334895
0.166023
0.294028
0.106634
-0.043123
-0.446385
-0.046257
-0.132333
-0.020606
-0.053384
0.725487
0.561083
0.241348
0.206439
-0.094859
-0.067583
-0.251624
0.570918
0.309560
0.239156
-0.240010
0.204185
0.261762
0.256725
0.502644
-0.165515
-0.115715
-0.259435
-0.126995
0.570684
-0.031923
0.689086
0.799174
0.237294
0.341874
1.032643
0.434239
0.575091
0.991160
1.151639
0.361327
0.570459
0.573786
0.666197
0.587784
0.728980
0.480901
0.600594
0.240420
-0.349654
0.258216
0.247103
-0.084397
-0.151069
-0.392789
-0.331321
0.403313
-0.053444
-0.540204
-0.546539
0.240577
0.115973
0.465359
0.782073
0.252814
0.938338
0.419391
0.703971
1.006160
1.152175
0.838762
0.928820
0.469568
0.297579
0.241934
0.406365
0.159802
0.057364
-0.011091
-0.076422
-0.220626
-0.244148
0.275120
-0.171938
-0.003739
-0.676555
-0.479231
-0.764145
-0.020093
-0.248282
-0.725761
0.440428
0.615607
0.239973
0.298722
0.593105
0.867714
0.708559
0.390832
0.185362
1.104068
0.643478
1.160555
1.602280
1.149790
1.162306
0.376460
0.148509
0.790138
0.115810
0.145647
0.158113
0.006708
-0.174690
-0.302598
0.084343
0.482354
0.278138
-0.212739
-0.346924
-0.617869
-0.060633
-0.595132
-0.571862
0.531111
-0.191127
0.095603
-0.213975
0.812082
1.151791
0.986140
0.530351
0.631199
0.232191
1.099472
1.763884
0.903303
0.808136
0.603382
0.574209
0.636354
-0.132674
0.159293
-0.383994
-0.122607
0.236252
0.929876
0.189915
0.419438
0.189828
-0.072352
-0.636275
0.522734
0.244154
0.632676
0.264761
0.334265
0.500167
-0.304136
0.154586
0.353239
0.826315
0.573452
0.223292
0.370167
0.223906
0.950452
1.260511
0.711949
0.190179
0.642080
0.497386
0.140605
0.795623
0.194616
0.028727
-0.287239
0.284333
0.048898
1.129799
0.344180
0.516313
0.712136
-0.161025
0.038031
0.127930
-0.111800
0.311149
-0.632553
0.002702
-0.558739
0.103770
-0.110626
0.474795
-0.068606
-0.276051
-0.149002
-0.517866
0.115117
0.233280
0.868875
0.264849
0.005575
0.126294
-0.024584
1.030928
-0.083608
0.538204
0.344172
0.058193
0.614576
0.600841
0.868799
0.905382
0.597115
0.165810
0.517899
0.750775
0.266122
-0.359424
-0.065530
-0.425447
-0.507706
0.230433
0.254733
0.776316
0.954135
0.219469
-0.109851
-0.584476
0.356980
-0.461649
0.092633
0.167052
0.340966
0.312294
0.782415
1.014723
-0.091110
0.389620
0.544382
-0.133638
0.736501
0.350688
0.562767
1.352151
0.348964
-0.079325
0.363874
0.557444
-0.283409
-0.475885
-0.443850
-0.564509
-0.766522
0.173556
0.441725
0.908796
0.646693
0.830229
0.676043
-0.511631
-0.612473
-0.264379
0.151381
-0.633100
-0.942438
-0.317656
-0.052142
0.299965
-0.250290
0.124290
0.385963
-0.099707
-0.153577
0.097567
0.867940
1.356520
0.727293
0.512047
0.267794
0.095162
-0.023225
-0.476182
-0.052294
-0.231978
-0.685313
-0.250274
0.283027
-0.197181
0.954308
0.068083
0.374821
0.674357
0.499533
-0.060884
-0.262852
0.257392
-0.306030
-0.776438
-0.065584
0.254881
0.701145
0.438141
-0.041783
0.354887
-0.151009
-0.296427
0.636550
1.256623
0.829845
0.358586
-0.021581
0.582552
0.200043
0.103938
-0.151008
0.358552
0.454869
0.087141
0.547343
0.493852
0.107774
-0.007622
0.288211
-0.102279
0.462970
-0.099713
0.622834
-0.079028
-0.318554
-0.110767
0.532401
-0.051336
0.627761
0.374871
-0.108703
0.297473
-0.371257
-0.008067
-0.123491
1.138071
0.541684
0.521369
0.027764
0.064984
0.835261
0.007297
0.101657
0.104958
-0.557155
-0.167020
0.144320
0.069556
-0.229043
-0.952308
0.159461
0.159548
-0.253954
0.374715
-0.208852
-0.021730
0.224435
-0.285078
-0.028346
0.061494
0.563912
0.028661
-0.399706
-0.197842
0.376713
0.026583
0.358531
0.116436
0.602033
0.825201
0.001780
0.427931
0.750003
0.146659
0.783757
-0.237339
-0.031211
0.186900
-0.048497
-1.041189
-0.488079
-0.151540
0.403968
0.309941
0.867224
0.416092
0.991312
0.095618
0.220221
0.571830
0.230439
-0.179247
0.005071
0.308436
-0.240341
0.484847
0.482843
-0.132037
0.002677
0.166913
1.036269
0.554160
0.360876
0.450086
1.002853
0.749622
-0.000711
-0.283742
-0.379271
-0.157241
-0.526315
-0.647554
-0.121670
-0.692597
0.098417
0.485263
0.991928
0.897442
0.347624
0.137648
0.345014
-0.164567
0.380680
0.405797
0.677544
0.314618
-0.003542
0.325366
0.253223
0.500556
0.597106
-0.000724
-0.034658
0.658380
0.272184
-0.005356
0.001958
-0.124605
0.255058
0.581116
0.029429
0.257440
-0.106230
-0.940262
-0.413753
0.086937
-0.219704
0.755804
0.674669
1.298345
0.434956
0.099268
0.241064
-0.157096
-0.236117
-0.235291
-0.292206
0.340069
0.129306
0.064794
-0.516289
0.406491
-0.188298
-0.274486
0.265971
0.520636
-0.091123
0.149286
0.034262
0.229998
0.762326
0.085198
-0.111946
0.488299
-0.334222
-0.055643
-0.774462
-0.583689
0.398601
0.722781
0.938748
0.902065
0.505617
0.236478
0.176253
0.067245
-0.250454
-0.275595
0.174228
0.074583
0.085534
-0.035613
0.399844
0.026185
0.269256
-0.308457
-0.330436
0.248756
-0.612675
-0.420925
-0.753727
-0.453102
0.151058
0.523155
-0.065649
-0.413317
-0.202674
-0.731386
-0.367282
-0.393929
0.042442
0.369667
1.425524
0.195208
0.781046
0.204418
-0.661410
-0.382313
-0.300378
-0.750811
0.220074
0.099715
0.318010
0.691404
0.155230
0.509074
-0.320995
-0.394119
0.006471
-0.906060
-0.488456
-0.882122
-0.727292
-0.244894
-0.119904
0.674541
0.247113
0.487485
-0.554808
-0.340267
-0.112606
0.250752
0.232983
1.294141
0.968314
0.723862
0.471892
0.028514
0.263812
0.055100
-0.720216
-0.545656
0.226276
-0.329329
-0.263247
0.399394
-0.283519
0.127348
-0.208542
-0.123440
-0.114772
-0.657599
-0.192899
-0.783563
-0.566762
0.368312
0.092033
0.834658
0.510177
0.265979
-0.060227
-0.736720
-0.174640
0.573023
0.941969
0.679245
0.643317
0.783358
0.689365
0.884919
-0.399749
-0.125697
-0.282909
-0.697472
0.341694
-0.362923
-0.431844
0.150011
0.422411
0.003762
-0.167752
-0.647202
-0.474963
-0.892098
-0.463926
0.044961
0.289982
0.331026
0.465781
0.965152
0.153545
0.446316
-0.588414
-0.472548
-0.005220
0.428180
0.595265
0.729384
0.881681
0.840398
0.910700
1.204701
-0.042414
-0.301365
0.040902
-0.149545
-0.252943
-0.030452
0.037404
0.341793
0.207748
-0.390237
-0.507728
-0.410998
0.049563
-0.979787
-1.029875
-0.502002
0.315077
-0.143768
0.201601
0.320530
0.419252
0.593458
-0.115972
-0.059886
0.626273
0.727154
1.236989
0.824791
1.411210
1.147331
0.452411
0.531763
0.140717
0.284466
-0.291514
0.182668
-0.209577
0.240648
0.560477
0.668289
0.120403
0.283688
-0.484952
-0.772736
-0.490980
-0.317242
-0.284517
-0.338926
0.164022
-0.092339
0.782436
-0.042789
0.394601
0.298922
0.108830
-0.386978
0.416907
0.613884
0.451839
1.014741
1.199587
1.390635
1.025508
0.915902
0.409952
0.248794
0.322306
0.107764
0.392254
0.318047
0.358057
-0.055824
-0.150997
-0.117008
-0.188411
0.444862
0.268559
-0.184975
-0.330796
0.249582
-0.243074
0.097602
-0.034425
0.220520
0.211348
0.497013
0.508465
0.283674
0.338030
0.070451
0.618495
0.359091
0.604486
1.104351
1.166545
0.384479
0.114937
0.419037
0.889325
0.000120
0.353905
0.373737
0.393618
0.011482
-0.439019
-0.412769
0.302717
-0.125522
-0.397990
-0.056603
-0.284633
-0.003437
-0.332056
-0.551353
0.460132
0.435111
-0.128559
0.323542
0.299305
0.333923
0.058885
-0.028760
-0.142073
0.037670
0.804541
1.271284
0.974544
1.169243
0.554336
0.405247
0.678781
-0.172899
-0.091956
-0.588217
-0.032754
0.119599
0.100025
-0.472916
-0.181844
-0.285140
0.258748
-0.604885
-0.190356
-0.346968
-0.889867
-0.099885
0.276572
-0.697394
-0.589095
0.388359
0.034923
-0.079342
0.058720
-0.289772
-0.428165
-0.271848
0.897566
1.361326
1.227169
1.041566
0.569096
0.639376
0.461451
-0.226295
-0.529300
-0.354547
0.119208
-0.429510
0.422843
-0.444672
-0.277841
0.102411
-0.131371
-0.154746
0.205336
0.411141
-0.240093
-0.564296
-0.305615
-0.564766
-0.500237
-0.531772
-0.252914
-0.208044
-0.392837
-0.378434
-0.766962
-0.220995
0.930387
0.074479
0.199454
-0.495711
-0.272103
-0.440996
-0.113282
-0.180487
0.403724
-0.494218
0.255442
0.117474
0.167391
-0.128474
0.299410
-0.101232
-0.292912
-0.242480
-0.118383
-0.552751
-1.155461
-0.760129
-0.473462
-0.780064
-1.058417
-0.644397
-0.408564
-0.165764
-0.491478
0.017533
-0.136731
-0.695545
0.533397
0.202667
-0.028439
-0.117120
0.052097
-0.441521
-0.049470
-0.003344
-0.084762
-0.127151
-0.193269
-0.169768
-0.594566
-0.241063
0.439577
0.263284
0.032345
-0.216364
0.337986
0.392473
-0.136644
-0.731580
-0.340150
-0.144611
-0.671465
-0.091614
-0.341034
-0.870708
0.008341
-0.784868
-0.433938
-0.110697
0.216871
-0.113114
-0.626852
0.352267
-0.311265
0.144295
-0.479636
-0.598572
-0.199352
-0.323904
-0.326719
0.208563
0.158102
-0.207125
0.351973
0.401902
0.598563
0.133091
0.047226
0.258660
0.044999
0.436063
-0.007020
-0.249456
0.197677
0.018346
0.322018
-0.623134
-0.467238
-0.609023
0.191423
-0.227205
-0.469707
0.099507
-0.612676
-0.137066
-0.432345
-0.344541
-0.851186
-0.122628
-0.197742
0.008399
0.284378
0.483214
-0.262798
0.174705
-0.268916
-0.079778
0.123723
0.163680
-0.261773
0.646577
0.287247
-0.064997
-0.316102
0.573437
-0.089683
0.337406
0.301581
-0.362291
-0.252374
0.155331
-0.223048
-1.205431
-1.085442
-0.256694
-0.865581
-0.949866
-0.808906
-0.517809
-1.369957
-0.458513
-0.850834
0.133182
-0.008932
-0.253359
-0.255631
0.069960
0.251121
-0.200780
-0.756912
-0.570626
-0.362110
-0.675819
0.206807
0.314686
0.065670
0.396445
0.409367
0.638131
0.226030
0.110820
-0.065143
-0.898249
-0.019851
-1.126245
-0.582179
-0.290830
-0.753526
-0.639059
-1.014897
-1.140672
-0.449984
-0.926401
-0.374817
-0.383743
0.396914
-0.387107
0.076231
0.129349
-0.231138
-0.446513
-0.408505
-0.083004
-0.701606
-0.252168
-0.118312
0.192027
-0.014790
0.250115
0.081998
0.439469
-0.003890
-0.258337
0.456454
-0.213434
-0.264905
0.195082
-0.822419
-0.866258
-0.690835
-0.186631
-0.797937
-1.181968
-1.190883
-0.535979
0.028907
-0.199221
-0.024127
-0.338023
-0.524215
-0.369209
0.333987
0.275990
-0.693627
-0.362025
-0.611899
-0.153533
0.070410
-0.600178
-0.259467
0.876242
0.036652
0.442395
-0.518076
0.014957
0.477829
-0.092779
-0.665376
0.351359
-0.756686
-1.066995
-1.568216
-0.935638
-1.339210
-1.336389
-1.382169
-0.949540
-0.216349
-0.526961
0.074085
-0.009078
-0.446046
0.039364
-0.416109
0.338093
0.225378
-0.335875
0.378788
-0.788264
-0.631119
0.060084
-0.578660
-0.543968
-0.133410
-0.100085
-0.069104
-0.324993
-0.162260
0.318679
0.612454
0.302482
0.130723
1.029324
0.638934
-0.074560
-0.682481
-0.795563
-0.597774
-0.757771
-0.195608
0.241611
-0.320085
-0.150534
0.009782
-0.247719
-0.254446
-0.124161
-0.026677
-0.623011
-0.561112
-0.144406
-0.838258
-0.425969
-0.861152
-0.379377
-0.027541
0.294129
-0.091956
-0.367936
0.392893
0.419695
0.457670
0.554699
0.377429
0.777953
0.446705
0.255803
-0.489032
-0.465917
-0.859924
-0.549269
-0.419550
0.548544
-0.225371
0.331985
0.374549
0.328801
0.441865
-0.461287
0.007052
-0.209430
-0.279595
-0.531524
-0.567724
-0.547966
-0.197811
0.165595
0.011449
0.345844
0.467761
0.012237
-0.093593
0.234703
0.521521
0.127318
1.120290
0.990351
0.414463
-0.110794
0.246518
0.064588
-0.843569
-0.396603
0.316399
-0.239422
-0.193363
0.338469
0.275579
-0.430600
0.085836
0.461534
-0.143365
-0.185969
-0.263269
-0.020119
0.528956
0.446576
0.059601
-0.283523
-0.408334
-0.491497
-0.165778
0.613621
0.429841
0.045211
-0.327871
0.372281
0.092749
0.441712
0.934489
-0.182185
-0.031764
0.391297
-0.151404
-0.812821
0.078220
0.430491
-0.312046
0.150759
0.421553
-0.049249
0.078738
0.335474
0.110613
-0.138478
0.475205
-0.532293
-0.058744
0.302798
-0.209229
-0.443712
0.465604
0.104630
0.327602
-0.019629
-0.345410
0.203909
0.208984
0.619883
0.754342
0.224045
0.178610
1.055164
1.150932
0.180341
0.269178
0.340829
-0.122184
0.206034
0.286586
-0.379578
0.484629
0.132147
-0.327135
-0.476661
0.351640
-0.623186
-0.307129
-0.268656
0.442934
0.255103
-0.658639
0.550794
0.355749
0.364777
-0.134582
0.424914
0.174449
-0.348040
-0.289420
-0.087773
0.391438
0.100707
0.723932
0.922872
0.986305
1.159502
0.276510
0.147043
0.497360
0.432694
-0.253080
-0.563037
0.423130
-0.456077
-0.442225
-0.008671
-0.077043
-0.039299
-0.207338
0.061759
0.131293
0.420622
-0.729498
-0.124937
0.325851
0.078932
0.300077
-0.423323
-0.277191
-0.580290
-0.068625
0.316961
0.547217
0.390515
0.263047
0.772698
0.576941
1.075918
-0.180533
0.485986
0.267029
0.059319
-0.104946
-0.212085
0.049093
0.404066
0.137714
-0.450624
0.021343
0.033374
-0.172976
0.401592
-0.280626
-0.163750
-0.291415
-0.411408
-0.596607
0.436354
-0.335584
-0.623462
-0.130086
0.205690
0.268620
0.417546
0.577748
0.640660
-0.095124
-0.162978
0.254979
1.173349
-0.148655
0.124911
0.628372
0.124534
0.061701
0.491061
-0.238995
0.201994
0.247480
-0.381024
0.551380
-0.255769
0.179718
0.204357
-0.045646
-0.316199
0.205631
0.094210
-0.171999
0.379674
-0.558833
-0.182573
0.350591
0.449642
0.735874
0.549481
0.663898
0.356063
0.582436
0.853412
0.836010
0.944106
0.565962
0.842770
0.233446
0.416228
-0.039389
-0.267292
0.442577
-0.191003
-0.177488
-0.180530
-0.382361
-0.001578
0.324040
-0.168310
-0.401592
-0.514960
0.018086
-0.457397
-0.196646
0.138102
0.167455
0.079867
0.955251
1.170692
1.074530
0.896565
0.634121
0.744324
0.628411
0.395057
1.172414
0.441441
0.716451
0.362325
-0.358199
-0.577278
-0.050059
0.033673
0.480047
-0.130186
-0.209641
0.076090
0.568426
-0.606545
-0.151221
-0.933861
-0.607420
0.006655
-0.355313
0.143004
-0.309046
0.521212
0.413280
0.020214
-0.131597
-0.028547
-0.040750
0.433367
0.802652
0.719894
0.973916
1.120256
1.212017
0.821134
-0.079266
0.464584
-0.208204
0.059729
-0.357541
-0.025526
0.497173
-0.170473
-0.306669
-0.060979
-0.209709
-0.709806
-0.636783
-0.715487
-0.223855
-0.889948
-0.967271
-0.084116
-0.375855
-0.426921
0.224730
0.434114
0.330446
-0.170211
0.153715
0.493015
0.699972
0.478360
1.209367
0.523114
1.122579
0.456487
0.098748
0.402663
-0.546290
-0.742617
0.486111
-0.098604
0.488720
-0.402265
0.549739
-0.054470
-0.215954
-0.350763
0.065145
-0.786693
-0.868445
-0.227042
-0.653699
-0.295676
-0.370797
-0.153864
-0.149960
-0.742362
-0.705444
-0.193812
-0.287037
-0.437120
-0.412912
0.197226
0.076493
0.564352
1.076576
0.077400
-0.082958
0.490148
-0.274122
-0.622851
-0.061708
0.147651
0.192927
-0.369248
0.406079
0.059095
-0.274770
-0.002046
-0.577213
-0.540673
-0.787889
0.128468
0.181741
-0.343829
-0.446592
-0.365860
-0.853494
-0.654367
-0.994738
-0.459578
-0.182564
-0.001274
-0.577917
-0.360982
-0.321076
0.351402
1.237683
0.506602
0.518725
-0.162194
-0.517687
-0.025705
0.223982
0.013173
-0.034542
0.479154
0.228440
-0.301946
-0.007617
-0.471343
0.028114
-0.333710
0.131813
-0.261179
0.514920
0.730704
-0.275700
-0.036166
-0.206934
-0.800507
-1.069383
-1.264467
-0.441557
-0.955238
-1.122292
-0.212303
-0.471352
0.791215
1.173999
0.154870
0.474637
-0.495313
-0.172453
-0.099909
0.295996
0.040046
0.312279
-0.217129
0.210413
0.392115
0.184238
0.019308
0.347771
-0.427783
-0.120104
0.283288
0.785906
0.315662
0.369555
-0.954271
-0.467201
-0.604911
-0.394166
-0.362389
-1.098079
-0.747095
-1.184196
-0.345525
-0.112973
0.629576
1.237184
0.332224
0.836247
0.406272
-0.662979
-0.319695
-0.316826
0.129756
-0.008172
0.027286
-0.196952
-0.296068
0.420091
0.279114
0.200925
-0.385657
0.046343
0.257640
-0.148983
-0.416806
-0.537687
-0.219739
-0.232779
-0.443207
-1.049909
-0.387424
-0.629804
-1.178072
-1.420530
-0.036057
0.276279
0.868862
1.241754
0.056411
-0.205594
-0.383210
-0.184900
-0.468486
0.273237
-0.160536
-0.361630
-0.250035
0.518065
-0.304040
0.177552
0.095207
0.007076
-0.381811
0.297830
0.494709
-0.456200
-0.513258
-0.499735
-0.996928
-0.998828
-0.910653
-0.592381
-0.858982
-1.102171
-1.090362
-0.726619
-0.097624
-0.246118
0.856048
0.942439
-0.029716
0.024141
-0.534069
-0.478887
-0.326751
-0.260600
0.109797
-0.649848
0.235899
0.635850
0.383711
0.347045
0.144185
-0.253461
-0.172968
-0.003771
0.160615
-0.632583
-0.999261
-0.515254
-0.748963
-0.944785
-0.420714
-0.304596
-0.699651
-1.102623
-1.145560
-0.234586
-0.382946
-0.045022
0.653424
0.342582
0.190160
0.271484
0.106968
-0.128401
0.102476
-0.437871
0.257413
-0.305773
-0.300897
0.746624
-0.074207
0.384745
0.487222
0.400164
0.435031
-0.063052
-0.121219
0.163282
-0.026975
0.141389
-0.196398
-0.202991
0.256241
-0.069768
-0.042542
-1.031636
-0.488450
-0.726000
-0.512082
0.162116
0.166221
0.158939
0.187500
0.281872
-0.164449
0.417277
-0.023828
0.013630
-0.602033
0.176326
0.345168
0.547586
-0.053922
0.462550
-0.012778
-0.207894
-0.377267
0.315672
-0.265538
-0.117651
-0.518500
0.450567
0.510003
0.182224
-0.336714
-0.456252
-0.388198
-0.006618
0.000672
0.241626
0.006684
-0.088817
0.480022
0.225215
0.018176
-0.137139
0.325194
-0.267395
-0.284489
0.087760
-0.412093
0.289524
0.447080
-0.127953
-0.748985
-0.694846
-0.500322
-0.250684
0.192535
0.398035
0.195278
0.154596
-0.148799
0.171954
0.658210
0.699794
0.628133
0.456838
0.348239
0.022305
0.503258
-0.116399
0.002535
0.311182
-0.046466
0.166551
0.331414
0.021218
-0.331961
-0.060202
-0.096855
0.297752
-0.498380
0.247354
-0.131112
0.292644
-0.346581
-0.766507
-0.866499
-0.079822
-0.497522
0.149807
-0.323969
0.262978
0.446289
0.955744
0.358611
0.606248
0.482141
0.711574
0.258089
0.391340
0.663588
0.693891
0.642167
0.305605
-0.203423
-0.326523
0.246285
-0.329407
-0.404393
0.074234
0.177295
0.048076
0.202465
-0.554192
-0.248600
-0.251988
0.268788
0.174905
-0.697169
-0.344516
-0.174350
0.306668
0.904143
0.028530
0.745752
1.265392
0.516054
1.052036
0.281070
0.459195
0.442653
0.267910
0.661732
-0.023963
0.634584
0.459798
0.222961
-0.361728
-0.060517
0.142528
-0.001498
-0.377497
-0.039289
-0.712702
-0.405446
0.050021
0.230489
0.084968
-0.311506
-0.538476
-0.401574
0.452295
-0.467186
0.489045
0.064185
0.332110
0.828250
0.643952
0.974706
0.917056
0.269763
0.646977
-0.280285
-0.401708
-0.255881
0.210282
0.070661
0.234301
-0.272532
-0.290556
-0.641431
-0.280660
-0.210700
-0.199417
-0.430517
-0.136163
-0.100223
0.010577
-0.242983
-0.360281
-0.025930
-0.479892
-0.233032
0.301487
0.190286
-0.156816
-0.322807
0.124501
0.729391
0.149380
0.459022
0.624930
0.379306
0.154554
-0.173805
-0.012757
-0.465712
-0.793097
-0.357164
-0.471759
-0.018742
-0.671402
-1.035708
-0.286983
-0.909219
-0.113619
0.125482
-0.126186
0.173770
0.400394
0.493036
-0.280650
0.331983
-0.289746
-0.485377
0.114049
-0.857568
-0.058478
-0.122210
-0.149499
0.592672
0.518112
-0.032801
0.549925
-0.759175
-0.625555
-0.679572
-0.573827
-0.148676
-0.085388
-0.298182
-0.158949
-0.764617
-0.991643
-0.080266
-0.268421
-0.625197
-0.630403
0.136610
-0.812320
-0.344160
0.276767
-0.458834
-0.269380
-0.120024
-0.025549
-0.117409
0.100580
-0.429754
-0.742126
-0.594037
-0.508393
0.306575
0.705383
-0.156818
-0.195412
-0.604486
-0.028504
-0.701472
0.138727
-0.037045
0.019431
-0.192633
-0.554124
-0.192591
-0.997744
-0.141477
-0.637526
-0.072679
-0.566747
-0.387017
0.150653
-0.443374
0.150181
0.420112
-0.042781
-0.300651
-0.242047
-0.387345
-0.474189
-0.537334
-0.102524
-0.750238
0.209759
-0.307530
-0.048348
-0.202609
-0.615107
-0.499997
0.057236
-0.875890
-0.616118
-0.853418
-0.701458
-0.077623
-0.135235
0.405025
0.129103
-0.477901
-0.573579
-0.029619
-0.382671
0.340453
-0.013696
0.234183
0.054844
-0.138009
-0.107788
0.206089
-0.221558
-0.359573
0.058609
-0.012626
-0.077468
-0.133797
-0.165528
-0.203811
-0.426024
-0.096275
-0.343754
-0.869643
-0.936930
-1.559105
-0.737895
-0.563808
-0.570615
-0.200428
0.090379
0.200823
-0.335567
-0.253620
-0.260752
-0.517626
0.291158
-0.210207
-0.313884
0.375530
0.051408
0.492198
0.518363
0.196181
-0.218755
-0.008440
-0.226853
0.023869
0.311342
0.318948
-0.404919
-0.295401
-0.135903
-0.434874
-0.705346
-0.600156
-1.212526
-1.343927
-1.322055
-1.042532
-0.073969
-0.148078
0.711549
0.415691
0.129539
0.129197
0.032839
0.426939
-0.001966
0.083200
0.244777
0.188094
-0.263088
-0.409430
-0.041244
-0.088388
0.122164
0.031370
0.357386
0.385764
0.090555
-0.496415
-0.016101
-0.330505
-0.498344
-0.431953
-0.383077
-1.049437
-1.296969
-0.774156
-0.407688
0.120724
-0.232617
-0.104993
0.225793
-0.104656
0.320377
0.167180
0.445277
-0.154207
-0.067145
-0.406049
0.068386
-0.266074
0.030897
-0.090678
0.317248
-0.309102
-0.213138
0.133349
0.311484
0.368837
0.056933
-0.178665
-0.201305
-0.168868
-0.229367
-0.195481
-0.537869
-0.640507
-0.121934
0.158863
-0.218300
0.467322
-0.216591
-0.457553
-0.699086
-0.376112
-0.497009
-0.071433
-0.061530
0.453778
0.223313
-0.117413
0.386313
0.603407
0.531738
-0.242323
-0.203625
0.585406
0.211102
0.356741
0.480225
0.075796
-0.180472
-0.196918
0.252378
0.544131
-0.024302
-0.155613
-0.678336
-0.596421
0.678799
-0.310754
0.301343
0.185811
0.746847
-0.403763
-0.743595
-0.725517
-0.875724
0.361065
0.043295
-0.138978
-0.210742
0.459780
0.122883
0.423194
-0.063717
-0.330891
-0.161100
0.057674
0.091201
0.552135
0.604974
0.273795
0.059783
-0.099963
0.140030
0.064212
-0.145865
-0.687996
-0.489385
0.076997
0.644246
0.183693
0.080452
0.687224
0.534574
-0.681792
-0.108214
-0.257197
-0.270102
0.248847
0.065810
-0.017552
0.328114
0.005906
0.609586
0.050224
0.574350
-0.086677
0.067896
-0.007885
-0.145979
0.543765
0.492974
0.241764
0.644436
0.630072
0.039517
0.877619
0.151061
-0.811269
-0.619229
-0.014402
0.607412
0.125001
0.317271
0.495840
-0.119668
-0.522288
0.189218
0.153168
-0.448433
0.384596
-0.209590
0.139302
0.068829
0.233628
0.298917
0.474518
0.097543
0.183201
-0.030223
-0.015317
0.289655
0.450042
0.365110
0.822184
0.087761
0.165458
0.223175
-0.154694
0.172896
0.234062
-0.452894
-0.599990
0.110604
-0.079380
0.182644
0.630293
0.348057
0.446544
0.682938
0.278059
-0.023223
-0.392652
0.379154
0.286546
-0.080766
0.083388
0.166865
0.229078
0.088517
0.145084
0.173906
0.219630
0.293202
-0.151953
0.204948
0.113601
0.893344
0.201767
0.079114
0.147241
-0.307878
-0.492155
-0.215401
-1.116114
-0.423129
-0.624905
0.491623
0.180610
0.291441
-0.046480
-0.431647
0.447138
0.518259
-0.439254
0.505299
0.531229
0.106684
0.012735
-0.046487
-0.160891
0.249377
-0.435398
-0.084164
0.543882
0.635163
0.369824
-0.164614
0.385946
0.328096
0.318402
0.001431
0.132414
0.199403
0.195225
-0.403173
-0.987993
0.038746
-0.043473
-0.218815
0.084171
0.674612
0.137153
0.416846
0.371354
0.763615
0.293312
0.197171
-0.147379
0.356021
0.531533
-0.212652
0.091284
0.413893
-0.035517
0.078351
0.444688
-0.251653
-0.009141
-0.060641
0.629963
0.223920
0.029136
-0.110114
-0.205683
0.296160
-0.027151
-0.826487
-0.242494
-0.374641
-0.555763
0.331256
0.796879
1.464929
0.977675
0.254765
0.935973
0.833256
0.950421
0.203908
0.243562
0.331976
0.358516
0.105524
-0.430620
-0.393574
-0.279137
0.394318
0.128960
0.328331
0.306512
-0.013816
0.535504
0.443210
0.088608
-0.030401
0.271580
-0.312722
0.315306
-0.525161
-0.452570
0.060564
0.121889
0.514003
0.283095
1.090297
1.194239
0.869319
0.880267
1.210192
1.162762
0.895839
0.335127
0.034102
-0.256246
0.394868
-0.185229
-0.272263
-0.097032
0.042956
-0.127370
-0.278048
-0.278412
0.589425
0.552682
0.659325
0.890387
0.423827
-0.033197
-0.482277
-0.467068
-0.257347
-0.222794
0.331041
0.278060
0.191154
0.366077
1.795692
0.808204
0.806966
1.071313
0.944582
0.119973
0.568395
0.007941
-0.450395
0.436930
0.206213
-0.075982
-0.120589
-0.363347
-0.233484
0.021307
0.013368
0.461294
-0.088265
0.206928
0.488871
0.016622
0.234490
0.946722
0.749897
-0.240980
0.075337
-0.520931
-0.637908
-0.810453
0.077364
0.129643
1.180953
1.133735
1.079271
1.119074
0.694120
0.395479
0.809919
0.146455
0.585178
0.352998
-0.190806
-0.131751
-0.290833
-0.250748
0.154888
0.217328
-0.373900
-0.133412
0.549867
-0.098886
-0.317859
-0.137811
1.126779
0.844733
0.164440
-0.243349
0.106657
-1.037536
-0.452342
-0.148505
-0.023332
0.582395
0.951282
1.161851
0.925928
0.719112
0.760545
1.069076
0.254939
0.512296
0.341361
-0.069486
0.666619
-0.067551
0.590198
0.571654
0.361340
0.511239
0.493245
0.143101
0.289564
0.157802
0.200367
0.668316
0.162064
1.324055
0.406009
0.188307
-0.619483
-0.937379
-0.996926
-0.415756
0.063576
-0.023160
0.956273
1.114849
0.745254
1.151314
0.110044
0.532589
0.644920
0.861598
0.421611
0.057241
0.019949
0.171372
-0.139066
0.540619
-0.474326
-0.113608
-0.183625
0.403628
0.266137
-0.176022
0.243204
-0.146466
0.367574
0.146756
0.872156
-0.038792
-0.117977
-0.188183
-0.568879
-0.958988
-0.745993
0.472149
0.922041
0.784185
0.785336
0.692893
-0.386895
0.400514
0.081471
0.234058
0.652817
-0.273975
0.107202
-0.195965
0.361103
-0.328559
-0.326462
-0.245699
-0.345557
-0.190592
0.029337
0.572550
-0.048948
0.649517
-0.522271
-0.056550
0.176248
0.261808
-0.529513
0.092926
-0.677567
-0.926225
-1.089053
-0.415551
-0.090290
0.104531
0.148873
-0.056396
0.082477
-0.094335
-0.145637
0.088349
0.038605
-0.138496
-0.297204
0.367227
0.031498
0.306517
-0.592977
0.249829
0.231851
-0.090076
-0.007103
0.583166
0.002379
-0.165084
0.307173
0.338705
0.222982
0.520136
-0.032738
-0.734742
-0.386538
-0.668205
-1.214838
-0.989599
-0.038053
-0.363692
-0.386059
0.535809
-0.438154
0.373307
0.279381
-0.521396
0.215175
-0.123775
0.288406
0.016529
0.281329
-0.349303
-0.127161
0.252617
0.571036
-0.302153
-0.381157
0.078638
0.582725
0.689033
0.714560
0.653422
0.668487
0.471464
0.288410
0.045608
-0.361082
-0.896046
-0.530377
-0.964606
0.268693
0.184012
-0.508326
0.560148
-0.218661
-0.125122
-0.418962
0.034706
-0.138819
-0.636886
0.103677
0.168177
0.263476
0.036407
-0.404761
0.578591
0.488280
-0.266354
-0.369548
-0.328471
-0.184356
0.028147
0.523502
-0.138666
0.181109
0.153560
0.285516
0.009899
-0.730849
-0.389281
-0.843203
-0.459886
-0.551571
0.194313
-0.893134
-0.495962
0.002966
-0.735209
-0.090105
-0.344938
-0.587668
0.001411
-0.308795
0.036123
-0.266640
0.078314
0.404037
0.493232
0.063625
0.108625
-0.186441
0.553269
0.259346
0.391401
0.297713
0.954167
0.766023
-0.264115
0.133661
-0.033648
-0.406988
-0.298851
-0.544750
0.042586
-0.406343
0.243695
-0.138119
-0.476823
0.092495
0.235406
-0.401224
-0.441135
0.229793
0.074774
0.261770
0.317033
0.110761
0.052617
0.706477
-0.041610
0.892550
0.917903
0.714216
0.726727
0.182415
0.900063
0.405090
0.587133
0.381155
0.636853
0.661778
0.497089
0.705593
0.694532
0.605138
-0.166038
-0.069263
-0.132650
-0.484391
-0.036322
0.089206
-0.036906
-0.089519
-0.103820
0.036997
0.837194
0.204539
0.474642
0.646548
0.497877
-0.240363
0.055225
0.591101
0.159260
-0.179044
0.550134
0.450370
0.385134
0.594515
0.581572
0.632508
0.436304
0.310015
0.474202
0.364160
0.109136
0.281476
-0.200600
0.365582
-0.953654
-0.533415
-0.230672
-0.495336
-0.282612
-0.355494
-0.442217
0.304786
0.281508
0.137947
0.110126
-0.348076
0.377685
0.294816
0.319741
-0.202488
0.107997
0.559570
0.172624
-0.112798
0.664999
0.756920
0.637768
0.551916
-0.305368
-0.352229
0.359645
-0.254659
0.182580
0.036458
0.588572
0.183222
-0.302164
-0.123103
-0.372172
0.027038
0.164014
-0.408358
-0.089609
-0.277923
-0.032822
0.319211
0.326305
-0.251087
-0.151521
-0.196176
0.250524
-0.253207
-0.074499
0.367859
0.559607
0.332810
0.583027
0.891308
1.048881
0.938303
-0.312834
0.027901
0.675924
0.393390
0.132779
0.728046
0.531662
0.060036
-0.340525
-0.416864
-0.833276
-0.653321
-0.301328
-0.182084
0.190173
-0.046893
-0.183917
0.157523
0.132421
-0.160711
0.229365
0.526600
0.180228
-0.320511
0.108515
-0.076556
-0.221344
-0.238140
0.162707
-0.082492
1.022398
0.342565
0.440890
0.134279
-0.323125
0.455011
0.265246
0.706461
-0.404747
0.206469
0.045921
-0.521565
-0.882709
0.258422
0.221306
-0.463710
-0.313873
-0.238613
-0.041167
-0.398567
-0.348916
0.038006
-0.393167
0.323721
-0.275936
-0.178138
-0.037394
-0.406568
-0.450206
0.167441
-0.311866
0.649944
0.520473
-0.375503
-0.233562
-0.125712
-0.537774
0.518667
0.052993
0.163174
-0.531019
-0.326163
-0.732310
-0.388763
-0.741122
-0.091402
0.104568
0.197446
0.444148
-0.165234
0.460758
0.196725
-0.016099
0.435718
0.377011
-0.159502
0.099508
-0.485320
0.279332
0.510588
-0.407760
-0.419812
-0.312676
0.620902
0.642257
-0.032458
-0.149415
-0.036207
-0.149245
0.349595
-0.278885
-0.645673
-0.301915
-0.197425
-0.366564
-0.366384
-0.667857
0.022716
-0.200983
-0.481319
-0.094987
0.709548
-0.084660
-0.348399
0.231231
-0.068328
0.075104
-0.081481
-0.223613
-0.030430
-0.292752
0.454882
-0.291898
0.118058
0.325157
0.153187
-0.000553
-0.133673
0.090619
0.005743
0.047624
0.491699
0.626349
0.261140
-0.140634
-0.004144
-0.453664
-0.593001
-0.419941
-0.211871
-0.210665
0.093144
0.271246
0.552636
-0.083849
0.384492
0.537243
0.409878
0.083715
-0.133560
-0.005660
0.212211
0.602351
-0.120114
0.027634
-0.551446
0.326587
-0.386827
0.011377
-0.499606
-0.798494
-0.493412
0.406485
-0.129571
0.585441
-0.495169
-0.303311
-0.222936
0.022481
-0.039728
-0.098527
-0.046411
-0.023318
-0.637948
-0.170535
0.209058
0.117470
0.213502
0.133289
0.358454
-0.225751
-0.166299
-0.249724
0.125728
0.284129
0.130759
0.191707
-0.124715
-0.346937
0.042609
-0.311159
-0.598265
-0.101004
0.536218
0.213886
-0.171668
0.407338
0.791848
-0.150720
0.027746
0.088505
0.128290
-0.281712
-0.000950
0.154627
0.185847
0.819175
0.330814
-0.164202
-0.240240
-0.185598
-0.034062
0.304435
0.508155
0.188127
-0.220893
-0.265108
-0.243574
-0.041951
-0.184986
0.416139
0.223800
-0.711889
-0.899814
-0.973934
-0.406913
0.075967
0.630894
-0.036992
0.714827
0.696932
0.675419
-0.464407
0.284117
-0.413754
0.610623
0.511414
0.677971
0.500819
0.597885
0.355569
-0.165261
-0.435282
0.407566
0.004634
0.299958
0.660404
0.300615
-0.423655
-0.119707
-0.192447
-0.442297
-0.757104
0.172353
-0.503265
-0.355505
-0.949117
0.123657
-0.168311
0.048822
0.066958
0.263019
-0.265821
-0.588821
-0.429081
-0.242247
-0.230804
-0.032651
-0.383686
0.499280
0.542862
0.662709
-0.226418
0.101346
-0.200901
0.090755
-0.334238
-0.289092
0.483106
0.050851
-0.283764
-0.384569
-0.356791
-0.154374
-0.411190
-0.016448
-0.840797
-1.039053
-0.995912
-0.824594
0.112068
-0.102913
0.113536
-0.419904
0.153068
0.424702
-0.096190
0.054017
0.413856
0.102448
0.491551
0.726173
-0.159323
-0.342618
0.459454
0.284798
-0.314842
0.384597
0.537832
-0.774733
-0.122247
-0.496905
-0.249714
0.087985
0.456226
0.004174
0.539222
0.483255
0.442094
0.780154
0.870933
0.917732
0.482269
0.193047
-0.433083
0.154666
0.166302
-0.471801
-0.708076
-0.302418
-0.694109
-0.544425
-0.432401
0.198990
0.599261
0.734039
0.170546
-0.678979
-0.201213
-0.160337
0.190451
-0.243004
-0.191644
-0.344427
0.122339
0.011496
0.056777
0.655993
-0.049934
0.641141
0.473592
0.359502
-0.017718
0.310830
0.146063
0.210328
-0.569043
-0.673026
-0.517950
-0.929626
-0.383125
-0.095895
-0.589166
-0.657023
-0.077841
0.166484
-0.292592
-0.397404
-0.155208
-0.477359
-0.594933
0.051829
-0.409280
-0.426907
-0.136584
-0.430059
-0.652236
0.078641
-0.221469
-0.222355
0.267923
0.636755
0.488895
0.894867
0.169184
0.299811
0.383939
-0.214184
-0.208514
0.193040
-0.555484
-1.016687
-0.093278
-0.169320
-0.667047
-0.071071
-0.507802
-0.549396
-0.117958
-0.044424
-0.332342
-1.080559
0.002511
-0.245048
-0.479142
0.311848
-0.486807
0.028978
0.060524
-0.673807
0.249964
0.050155
0.695578
0.917724
0.786103
0.787166
0.653150
0.000650
-0.060907
0.385153
0.288917
-0.077323
-0.553202
-0.094684
-0.328866
-0.260379
-0.264775
-0.071966
-0.209069
-0.723389
-0.617219
-0.183465
-0.764967
-0.826720
-0.431305
-0.411720
-0.020041
-0.105808
0.007547
-0.248362
-0.089574
-0.250338
-0.094216
0.168718
0.298522
0.972572
0.559219
0.426113
0.810441
1.175221
1.015291
1.216654
0.034926
0.130428
0.340437
-0.135249
0.008603
0.434918
0.458005
0.308041
0.229865
-0.347061
-0.874587
-0.979862
-0.803455
-0.384447
-0.467927
-0.495345
0.205914
-0.011649
-0.581262
-0.090292
-0.432221
0.109672
-0.040419
0.242789
0.170122
-0.118273
1.052580
0.500185
1.187908
0.690963
1.241958
0.759774
-0.055708
-0.257304
-0.294019
-0.322308
0.397675
0.796607
0.552216
0.887339
0.077887
-0.564137
-0.957734
-0.970372
-0.024918
-0.669406
-0.566814
-0.481334
-0.240926
-0.465172
0.145115
-0.280266
-0.287014
-0.121313
0.171995
-0.677993
-0.024892
-0.006362
0.109662
0.206002
0.894599
1.322754
0.830445
0.754016
0.110573
-0.089628
-0.651322
0.059907
0.035405
0.456472
0.148597
0.157540
-0.468224
0.068422
-0.654018
-0.546064
-0.511678
-0.427056
-0.642839
-0.644390
-0.133002
0.369668
0.421172
-0.017192
-0.134331
-0.391104
0.538995
-0.214072
0.261661
-0.260542
0.470875
0.821014
1.391760
0.782034
0.466009
0.729140
-0.559126
-0.582125
-0.602184
0.113999
-0.396547
0.138760
-0.365344
0.385568
-0.132248
-0.977912
0.068905
-0.675455
-0.869028
-0.609472
-0.348616
-0.017848
-0.549561
0.099332
0.035380
0.424976
0.484669
-0.147542
-0.000025
0.297819
0.005517
-0.142724
0.367028
1.523366
1.377493
0.535304
0.853994
0.777348
0.068140
0.225310
-0.904604
-0.292608
-0.422626
-0.451810
-0.405826
0.060392
0.318603
-0.319263
0.075897
0.290921
0.911948
0.130652
-0.074295
-0.660142
-0.562754
-0.059294
-0.348326
-0.037480
0.363309
-0.358579
-0.079095
-0.033210
-0.899885
-0.753776
0.024216
0.782342
0.518082
0.918489
-0.194729
0.574493
-0.163057
-0.244835
-0.267973
-0.170700
-0.698274
-0.643814
-0.677664
0.244185
0.091495
0.100952
-0.666791
0.311052
0.003985
-0.696656
-0.604479
-0.307652
-0.078554
0.087936
0.210240
0.189164
-0.399495
-0.376455
0.361994
0.019083
-0.067199
-0.093264
0.348663
0.374409
0.414624
0.383750
-0.447327
0.355569
-0.441265
-0.847712
-0.891583
-1.191533
-0.776415
-1.248515
-0.405607
-0.091706
-0.218204
-0.310825
0.362360
-0.355230
-0.243672
-0.233051
-0.456797
0.311087
-0.651485
0.483430
-0.117631
-0.358189
-0.380649
-0.879569
-0.269691
-0.284642
-0.849925
0.137103
0.229224
0.088319
0.828699
-0.148717
-0.804174
0.035342
-0.087085
0.117448
-0.678687
-0.784627
-1.254775
-0.661628
-0.147559
-0.260830
0.237597
-0.570667
-0.508512
-0.777641
-0.573862
-0.619147
-0.852258
0.056083
0.104446
0.047353
0.629737
0.471485
-0.156244
-0.905915
-0.517621
-0.546745
-0.257371
-0.055320
0.020723
0.369819
0.727688
0.069457
-0.599571
-0.300510
-0.637660
-0.197418
-0.916876
-1.499189
-1.067781
-1.106794
-0.546970
-0.231742
0.791159
0.479689
-0.324800
-0.215889
-0.201695
-0.455829
-0.145212
-0.080481
-0.096016
0.443349
0.643113
-0.058876
-0.206645
-0.477032
-0.315021
-0.261951
-0.561947
-0.584251
-0.589115
-0.057166
0.218723
0.034386
0.287299
0.165607
-0.057634
-0.078504
-0.110661
-0.184328
-0.812834
-0.174730
0.137085
-0.286831
-0.041799
0.487186
0.167872
-0.038615
-0.223092
0.459614
-0.320886
-0.450925
0.200554
-0.068366
0.520867
0.642223
-0.630344
-0.699407
-0.277573
-0.452288
0.074556
-0.631693
-0.885153
-0.446793
-0.266988
0.401535
0.732403
0.213898
0.259569
0.489841
-0.754169
-0.726662
-0.921188
-0.309262
0.509815
-0.230369
-0.073570
-0.270706
0.410816
0.160079
0.065352
0.085082
0.158790
0.171846
0.202431
0.661404
0.464597
0.329234
-0.304302
-0.309427
-0.463305
0.333955
-0.063868
-0.091423
-0.253034
0.549626
0.339681
1.001198
0.135384
0.941502
-0.153957
0.128853
-0.169101
-0.433656
0.560760
-0.667366
0.435971
0.268361
-0.058718
0.635217
0.582690
0.276299
0.434374
0.022637
0.158617
0.249639
-0.228917
0.134399
0.112804
0.318478
-0.202127
-0.021352
0.454227
0.582202
-0.431216
0.326260
-0.127515
0.523113
-0.654415
-0.022983
-0.197092
0.465516
0.778605
0.041257
0.551668
0.447901
0.356350
0.128280
0.185268
1.118650
0.332793
0.694848
0.823925
0.365926
0.340180
0.205104
0.622869
0.172603
0.328371
0.445960
0.377739
0.139245
-0.604948
-0.490783
0.055314
-0.109404
0.181957
0.304447
-0.522569
-0.182448
-0.167680
0.480993
-0.526677
0.220496
0.484626
0.230685
0.518737
0.739080
0.748135
0.500196
0.179210
0.957625
0.242623
0.712781
0.583263
0.470447
0.747607
0.325585
-0.185662
-0.169664
0.353975
0.527350
0.463329
0.361586
0.149542
-0.136988
-0.174551
-0.224847
-0.164471
-0.046376
0.159645
-0.035070
-0.882244
0.210517
-0.587822
-0.108764
-0.190978
0.005081
-0.079129
0.249047
0.125514
0.091580
0.922376
0.713254
0.765776
0.384247
0.780618
0.425430
0.521173
0.801761
0.384601
-0.080294
0.455046
0.533466
0.229919
-0.016153
0.366091
0.186432
0.198000
0.316745
0.458110
0.087864
0.339706
-0.039623
-0.294459
0.557119
0.024811
-0.029883
0.223950
0.149449
0.437837
0.337552
0.421438
-0.110065
0.463700
0.575539
0.390005
-0.157460
0.612095
0.813501
0.163371
0.491400
0.564136
0.672819
0.070154
0.160466
0.572377
0.157231
0.364753
-0.459218
-0.412923
-0.015489
0.455665
-0.211816
0.168112
0.424709
-0.036681
-0.118906
-0.203279
-0.326117
-0.194468
-0.455358
-0.003686
-0.877538
-0.472398
-0.064461
0.226623
0.270058
0.641573
-0.093194
0.457480
0.810907
0.669096
0.249963
0.245568
0.479422
0.363156
0.437604
0.628968
-0.218123
-0.426361
0.454127
0.074473
-0.364267
-0.657408
0.127311
-0.744406
0.120045
-0.893666
-0.326402
0.224224
-0.553821
0.061673
0.102281
0.611949
-0.691683
-0.032014
-0.255119
0.287399
0.140625
-0.024601
-0.107885
0.058770
0.019090
0.665810
0.070088
0.076154
0.519991
0.366220
0.241260
0.627908
-0.115617
0.210390
-0.095720
0.110237
0.387351
0.760655
0.247047
0.023229
0.029947
-0.516297
-0.711203
-0.840087
-1.012264
-1.090665
-1.046782
-0.681328
-0.178961
-0.521141
0.129431
0.107310
-0.258251
0.200961
-0.546631
0.507191
0.645096
0.258934
0.318324
0.563864
1.129028
0.462855
0.247172
-0.087637
0.341623
0.184791
0.619615
0.756247
0.343822
-0.078310
0.321715
-0.351796
-1.114866
-0.539864
-0.845211
-0.785262
-0.854241
-0.953508
-1.196830
-1.017673
-0.636514
0.061722
-0.729807
-0.396410
-0.443828
0.113198
0.086803
0.209855
0.514636
0.718085
0.159577
0.005461
0.699669
0.450893
0.121229
0.561371
0.168634
-0.119236
0.321883
0.236348
0.914062
-0.214394
-0.362608
0.143117
-0.707692
-0.735211
-1.366418
-1.372707
-1.875658
-1.435427
-1.031663
-1.452699
-1.119168
-0.389326
-0.533933
0.198589
0.602245
0.401865
-0.210905
0.980751
0.228758
0.908862
-0.358741
0.274274
0.344181
0.137056
0.040400
0.816371
0.465131
0.218446
0.470149
0.372252
0.738259
0.009548
0.154112
0.364312
-0.925411
-0.620933
-1.313452
-0.750234
-1.648317
-1.046904
-1.487792
-1.074824
-0.474246
-0.798908
-0.199435
-0.228145
0.185057
0.458813
0.869491
0.799333
0.713770
0.072426
-0.560526
0.040084
0.480015
-0.073953
-0.076239
0.288791
0.554226
0.287864
0.567461
1.011350
0.809587
0.796405
0.865704
0.113265
0.265891
0.104038
-0.764396
-0.550218
-0.533710
-0.482551
-0.143064
-0.780800
-0.392333
0.277992
0.331313
0.595525
0.647719
0.062131
0.212587
0.855869
0.871998
0.869056
0.310037
0.119021
0.319636
-0.253856
0.543111
0.446658
0.923978
0.706396
1.327732
1.217813
0.767728
1.137754
1.057812
0.509186
0.047955
-0.635265
-0.240225
-0.458031
-1.008307
-0.294561
-0.429753
-0.035166
0.058183
-0.359736
-0.375864
-0.062835
0.366793
0.269392
0.821289
0.859524
0.999358
0.773567
0.572437
0.772729
-0.053788
-0.091618
0.466932
-0.130313
0.313132
0.757910
0.709060
1.226563
1.481145
0.270468
0.606836
0.690993
0.611383
0.244351
-0.613850
-0.502231
0.288063
-0.439154
0.413522
-0.309802
-0.258804
0.234956
0.329134
0.471914
0.398311
0.022121
0.554103
0.591000
-0.080232
0.426699
0.509447
0.217485
-0.104801
0.708260
-0.064890
0.407629
0.700238
0.532384
0.330729
1.348581
1.350607
0.563386
0.956311
-0.030378
-0.060036
0.066750
0.195800
0.180224
-0.105652
-0.368945
-0.610386
-0.418439
-0.361847
0.018201
-0.471288
0.222843
0.044224
-0.148567
-0.415665
0.161569
0.298283
0.646667
0.825414
0.992635
0.746319
0.768004
-0.070714
-0.112745
0.302151
0.779994
0.588049
1.095903
0.627170
1.126720
0.500941
0.794323
0.520504
0.535614
0.679764
0.148768
0.446546
-0.367015
0.174609
-0.287156
-0.281682
0.316315
-0.300071
-0.357246
-0.369554
0.200673
0.196863
0.254453
0.588734
0.182029
0.328232
0.646449
0.058293
0.743685
-0.150247
0.766577
0.834885
0.736645
0.906687
1.301084
0.570424
1.019322
1.365007
1.471744
0.605206
0.881294
0.881133
0.058254
0.359610
0.455281
-0.044203
0.019587
-0.441212
0.242173
0.332100
-0.079218
-0.308638
0.393113
0.634149
0.410645
0.363730
0.491667
0.208226
0.747875
0.269050
-0.086359
0.638144
0.204797
0.354127
-0.008691
0.332682
0.762325
0.292181
0.574440
0.655136
0.105936
0.407680
0.644596
0.136251
0.309404
0.879521
0.729280
0.593683
0.131828
0.238830
-0.759510
-0.737323
-0.571643
-0.420180
-0.001487
0.142247
-0.401423
0.295579
0.185642
0.503150
0.587133
-0.097643
-0.299535
0.295099
0.381338
0.565672
0.062425
0.054571
0.402441
0.737556
0.264211
0.258966
0.617529
0.633806
0.693685
0.442275
0.687293
1.121717
0.986899
0.651758
0.064157
-0.631786
-0.254348
-0.566588
-0.401717
-0.621556
-0.776465
-0.055928
-0.457690
0.338730
0.675552
0.053112
0.146106
0.403365
0.341456
0.337769
-0.150807
0.246375
-0.197369
0.779561
0.002987
1.023662
0.493638
0.256936
0.211174
1.048587
0.825981
0.515829
-0.101337
-0.071299
-0.076390
0.193667
-0.537693
-0.144460
-0.430327
-0.493358
-0.485758
-0.329162
-0.640008
-0.208041
0.014860
0.128651
-0.250871
-0.299570
-0.072239
-0.567397
0.159961
0.421761
0.290064
0.411765
0.127421
0.478635
0.266383
0.225859
0.305276
0.766654
0.770659
1.119005
0.524978
0.407669
0.608066
0.064651
-0.190148
0.076368
-0.490457
-0.318741
-0.906507
-0.846797
-0.119520
-0.183235
-0.025641
0.126756
-0.044481
-0.338362
-0.141746
-0.213722
-0.078462
0.351707
-0.345196
0.476241
0.058814
-0.054376
-0.430775
0.376792
0.328592
0.703034
0.395760
-0.050677
0.364106
0.697314
0.556414
0.741195
0.109234
0.474770
-0.653499
0.240557
0.017299
-0.240555
0.231145
0.111090
-0.118180
-0.400356
0.093693
0.476275
0.083885
0.205155
0.042805
-0.100096
-0.339309
0.099543
-0.170092
-0.411295
-0.023672
0.098810
-0.115656
-0.258502
-0.203753
-0.331019
0.170755
0.342835
-0.078559
0.378834
-0.425699
0.167617
-0.046204
-0.047246
0.018923
-0.425747
0.269283
-0.178594
-0.397563
-0.542777
-0.559118
-0.247030
0.456218
0.397108
0.492077
0.189164
-0.195736
0.103375
-0.075066
0.057752
-0.404728
-0.495631
0.247941
-0.378533
0.522030
0.003821
-0.235509
0.326532
-0.341067
-0.304439
-0.260960
-0.032788
0.223177
-0.232574
-0.543287
-0.725056
-0.218476
0.021118
0.339823
0.466980
-0.388071
0.127070
-0.135959
-0.175442
-0.090628
0.071727
0.017707
0.012222
-0.405093
0.052290
-0.478224
-0.476351
0.147020
-0.352987
-0.377129
-0.030121
0.375905
0.101814
0.057274
0.193878
0.127728
-0.121050
0.414147
-0.412108
0.321317
0.447106
-0.198400
-0.399827
-0.026503
0.120624
-0.191575
-0.352856
-0.112818
0.038176
0.125743
0.424881
-0.146545
0.019764
0.018641
0.204178
-0.041007
-0.124441
0.375679
-0.194355
0.094744
-0.089818
-0.182538
-0.412325
-0.448334
0.213341
0.168356
0.165424
-0.125019
-0.313573
-0.201769
0.045056
0.059392
-0.168784
-0.086994
0.203571
-0.040992
0.664539
0.005807
0.498525
-0.186838
0.144823
-0.354580
0.218801
0.467712
0.509713
0.293758
0.195897
0.498957
0.282157
0.019447
-0.098735
-0.261105
0.039039
-0.426522
-0.107072
0.407696
0.134071
-0.162783
0.330660
0.200335
-0.529018
-0.184242
0.303760
0.399817
0.281589
0.124396
0.056163
-0.253412
0.191374
-0.058456
0.613936
0.540407
0.262663
-0.410027
-0.130415
-0.164957
-0.319875
0.317962
0.685999
-0.136914
-0.220824
0.533572
0.495138
-0.055361
-0.378549
0.123465
-0.442265
0.351237
-0.328262
-0.436684
0.279518
-0.249165
-0.771856
-0.319515
-0.160447
0.005204
-0.336335
-0.400215
-0.003187
0.007577
0.380009
-0.116871
-0.079671
0.473133
-0.132347
0.061693
-0.620246
-0.166703
-0.163644
-0.148394
0.386633
0.363581
0.177289
0.285151
0.472848
-0.261135
0.160657
0.464155
-0.404121
0.071909
0.131561
-0.439750
-0.391970
-0.628698
-0.412299
-0.596869
-0.574748
-0.303567
-0.200431
-0.453348
-0.387414
-0.386452
0.075107
0.712421
-0.347399
0.173351
-0.287298
0.398206
0.079897
-0.491108
-0.636972
0.279459
0.534493
-0.325587
-0.158959
-0.093211
-0.036675
0.117701
-0.185897
0.467892
0.457962
-0.339658
0.287969
0.292120
-0.402858
-0.489209
-0.158540
0.222132
-0.059332
-0.473595
-0.122054
0.215737
0.139108
-0.219833
0.284999
0.624763
-0.098217
0.048167
0.437536
-0.652827
-0.793454
0.177403
0.269778
0.140715
-0.078079
0.207437
0.084876
0.310505
0.530065
-0.228553
0.431476
0.490198
0.139843
0.059134
-0.436036
-0.391391
0.223010
-0.503858
-0.463708
-0.384832
0.466385
-0.246219
-0.022831
0.301494
0.239307
-0.089679
-0.075544
0.238457
-0.425730
-0.514140
-0.735965
-0.574282
-0.496943
-0.498277
-0.481334
-0.099214
0.480163
-0.035366
0.228896
-0.087788
0.216958
0.100154
0.438169
-0.081573
-0.223590
0.166140
-0.662110
0.152418
0.431092
-0.115272
-0.593980
0.457454
-0.023758
-0.093506
0.186735
-0.013769
0.195497
-0.495169
0.458316
-0.349582
-0.504291
-0.484479
-0.643058
-0.143949
-0.007230
0.398305
0.141882
0.101549
-0.034333
0.132242
-0.000243
0.497171
-0.121853
0.395272
-0.038984
-0.276418
-0.036558
0.166601
0.238300
-0.047748
0.098324
-0.112763
-0.616824
0.052345
0.577686
0.418982
0.093057
-0.736341
0.194892
-0.326173
-0.307114
-0.794556
-0.464489
-0.698334
-0.201496
-0.277501
-0.744285
-0.711040
0.062650
0.555882
0.092800
0.052473
0.179444
0.357342
0.468854
-0.100472
0.265511
0.146413
0.445500
-0.485109
0.085532
0.138651
-0.284806
-0.036294
-0.339638
0.019225
0.326996
-0.605689
-0.345660
0.024065
-0.169975
-0.016925
-0.151704
0.037730
-0.646507
-0.487723
-0.378298
-0.914575
-0.530487
-0.073680
-0.562027
-0.045127
-0.061814
0.029822
0.029120
0.106856
-0.263815
0.190983
0.446537
-0.096055
0.295954
0.383433
-0.066295
0.071206
0.226518
0.390025
-0.030809
-0.594690
0.411728
0.052543
0.237371
0.051604
-0.125266
-0.127833
-0.506593
0.087416
-0.877924
-0.141527
-0.159718
-0.861633
-0.765244
0.124506
0.035367
0.049042
0.373669
-0.368162
0.652126
0.405673
0.257028
0.290407
-0.310386
0.423250
-0.127037
0.223895
-0.068363
-0.268653
-0.146849
0.366198
0.040351
-0.255818
-0.219309
-0.184775
-0.152022
-0.593650
-0.274597
0.013574
0.269664
-0.503764
-0.092509
-0.281193
-0.471592
-0.785892
0.194751
0.417158
0.313587
-0.065117
-0.037772
0.609659
0.086767
0.374370
-0.390112
0.245683
-0.248514
0.131290
-0.471515
-0.196709
-0.374207
0.340909
-0.020546
0.268261
0.103694
0.337400
-0.536742
-0.711423
-0.810474
-0.545656
-0.646382
-0.117009
-0.331748
-0.410254
-0.621170
0.279900
0.012322
-0.339233
0.149848
0.088098
0.183733
0.159493
-0.199581
-0.120835
0.097549
0.437210
0.156898
-0.280335
-0.237854
-0.102729
0.072375
0.188543
0.170229
0.502102
-0.112311
-0.449468
-0.169701
0.091148
-0.526090
-0.467706
-0.153556
-0.516013
-0.667003
-0.240232
0.060588
0.379018
0.342362
0.722274
-0.101154
-0.296734
0.258151
0.146826
0.724525
0.232769
0.668049
-0.361665
0.059745
-0.098172
0.364319
0.204681
-0.145490
-0.007272
-0.475367
-0.201990
-0.052619
-0.117596
-0.171342
-0.049580
-0.100596
-0.233132
0.003804
-0.739931
-0.384846
-0.507788
-0.223630
-0.524917
-0.355161
0.380098
0.465419
0.196738
0.565975
0.538100
0.156322
0.611145
0.303488
0.360240
0.548307
0.438698
0.410550
-0.165379
0.140299
0.126529
-0.091655
0.077750
-0.030644
-0.367311
-0.001361
-0.201542
-0.471558
0.058190
-1.114293
-0.811458
-0.226219
-0.233047
-0.715909
-0.515715
-0.215894
-0.783559
0.480317
0.151567
0.603802
1.044349
0.430351
0.917881
0.697982
0.690806
0.493914
0.406661
0.841418
0.151295
-0.084962
-0.101900
-0.004820
0.148863
0.219247
0.541214
0.179571
0.041460
-0.122761
0.156459
-0.064590
-0.549856
-0.863714
-0.433366
0.286599
-0.016363
0.105519
-0.247260
0.146147
-0.729307
-0.273056
0.077591
0.511382
0.221910
0.688772
0.630265
0.031681
0.746820
1.017896
0.758998
0.513529
0.079405
-0.267150
0.267481
-0.268625
0.020379
-0.488728
0.364522
-0.221330
0.409217
-0.362423
-0.073788
-0.705582
-0.427437
-0.604579
-0.068971
0.126680
-0.259322
-0.587122
0.160129
-0.419658
-0.828274
-0.585807
-0.671497
0.597279
0.250934
0.594965
0.729373
0.277544
-0.109223
0.189838
0.385521
0.022324
-0.113135
-0.342202
-0.799293
-0.491471
-0.350987
-0.159386
-0.424999
-0.151555
0.281684
-0.004467
-0.244823
-0.879091
-0.087451
-0.754948
-0.516958
0.014739
-0.328143
-0.900141
0.054473
-0.983841
-0.420474
-0.518227
-0.310916
0.352195
-0.048168
0.066880
-0.013726
-0.332529
-0.086025
0.361932
0.231276
0.148588
-0.059733
-0.929081
-0.946016
-0.209506
-0.377966
0.044295
-0.376307
-0.390790
-0.373665
-0.119700
-0.138321
-0.545659
-0.185523
-0.848730
-0.668291
-0.391559
-0.493460
-0.216495
-0.188258
-0.585852
-0.771310
-0.200291
-0.270409
-0.020418
-0.026873
-0.544377
-0.690103
0.049397
-0.350565
0.043873
-0.138671
-0.766222
-0.584831
-0.524435
-0.418248
-0.328133
0.007307
0.474667
0.013257
-0.232241
-0.464864
-0.521511
-0.513541
-0.834410
-0.761505
-0.976160
-0.865421
-0.810445
-0.501498
-0.741319
-0.817257
-0.355011
-0.302211
-0.022753
-0.686211
-0.343691
-0.265430
0.008291
-0.614202
-0.333306
-0.324539
-0.163295
0.039493
-0.662944
-0.291682
-1.071011
-0.785879
-0.160327
0.029168
-0.143526
0.136561
-0.410285
0.184730
-0.088175
-0.163467
-0.110362
-0.219091
-0.198991
-0.357137
-0.551551
-0.529372
-0.644969
-0.947259
-0.420318
-0.295965
-0.701722
-0.920063
-0.555443
-0.350178
-0.661006
-0.946144
-0.361902
-0.758571
-0.304767
-1.031856
-1.052184
-1.319449
-0.544856
0.006513
-0.526306
-0.120130
0.205863
-0.090897
0.243476
0.527800
-0.234761
-0.267865
-0.572099
0.525303
-0.378181
-0.636194
-0.294890
-0.906062
-0.252595
-0.359112
-0.974521
-0.748511
-0.835416
-1.002352
-0.759459
-1.321534
-1.249060
-1.428220
-0.702203
-0.556866
-1.151840
-0.985370
-0.724204
-0.410447
-0.254037
0.250866
0.191188
0.110002
-0.077351
0.358817
0.299246
0.515645
-0.006121
0.005553
0.155679
-0.386813
0.406372
-0.788526
-0.014716
-0.497707
-0.556931
-0.419401
-0.691748
-0.866146
-0.940634
-1.258698
-1.592705
-0.952301
-1.232542
-0.886610
-1.030637
-1.000338
-1.070407
-0.464264
-0.488899
-0.443369
-0.361851
-0.378429
0.110749
0.054330
0.502910
0.230696
0.090092
0.048209
0.073114
-0.686134
-0.055711
-0.674062
0.090509
0.025152
-0.097113
-0.371646
-0.538398
-0.072169
-0.299326
-0.778044
-1.400438
-1.149769
-1.405665
-1.124903
-1.080036
-0.826148
-1.365606
-0.345174
-0.965310
-0.301074
-0.761408
-0.014562
0.153933
0.107323
0.101852
-0.298921
0.230930
-0.211453
0.935341
0.079296
-0.502264
-0.219092
-0.198300
0.436906
-0.000731
0.890072
0.937405
0.861387
1.565541
1.399876
1.536908
0.899504
0.595890
0.628577
0.242093
-0.206639
-0.299319
-0.299478
0.490901
0.063479
1.202293
0.508865
-0.259501
-0.066320
0.358358
0.053888
-0.216402
-0.327677
-0.201525
-0.316234
0.275433
0.132634
-0.370001
-0.188198
0.386244
-0.233381
0.365685
1.063319
1.234448
1.044751
1.714995
1.607451
1.151559
1.630291
0.428557
-0.091552
-0.002681
0.154122
-0.501707
0.042024
-0.166667
-0.380684
0.644836
0.578748
0.711262
-0.081981
0.054667
0.842083
0.727326
0.074825
-0.530063
-0.129494
-0.118565
-0.533949
-0.314715
0.028733
-0.165657
-0.107934
0.677066
0.124166
0.448663
0.125992
0.393920
0.229195
0.551136
1.188143
0.266463
0.116605
-0.262801
-0.114109
-0.594978
-0.840354
-0.396411
-0.241316
0.527336
0.753919
0.664441
1.148503
0.720670
0.909400
0.249521
-0.265792
-0.290114
-0.299437
-0.576108
-0.380560
-0.669543
0.165053
-0.263772
-0.313555
-0.124874
0.275949
0.323953
0.522220
1.116442
0.285448
0.561537
0.863377
0.587317
-0.698932
-0.130220
-0.538542
-1.007958
-1.112492
-0.506036
0.122622
0.184985
0.756813
-0.060293
0.972100
0.373965
0.413400
-0.324967
-0.210328
-0.041788
0.190737
0.047794
-0.268982
-0.160320
-0.323653
-0.511430
0.278569
-0.139788
0.413182
-0.703955
0.514121
0.169408
0.650809
0.154917
-0.077704
-0.111001
0.118392
-0.030684
-0.636782
-0.526300
-0.353705
-0.542236
-0.572904
0.020432
-0.084932
-0.119955
-0.011515
0.426478
0.158653
0.163240
0.156153
0.452045
0.859916
0.402505
-0.607022
-0.497170
-0.194085
0.248390
-0.152853
-0.535214
0.151918
-0.762175
-0.254158
-0.181966
-0.085403
-0.271672
-0.256542
-0.384582
0.085545
-0.191467
-0.161693
-0.929735
-0.571637
-0.792665
-0.782368
-0.731317
-0.915937
-0.002807
-0.252330
0.303370
-0.267501
-0.192458
0.346043
-0.071792
0.497915
-0.656046
-0.314298
-0.878771
-0.450739
-0.103774
0.191236
-0.500798
0.113926
-0.271953
-0.113816
0.460868
0.107952
-0.397486
-0.090891
0.289214
-0.153904
0.389627
0.713032
-0.085683
-0.295094
-1.370895
-0.499783
-0.226451
-0.909941
-0.658541
-0.165432
0.358138
0.211832
0.014362
0.284080
-0.277115
-0.421799
-0.613252
0.228890
0.259224
0.165398
-0.276388
0.379192
0.308832
-0.046741
-0.089038
-0.354473
0.310571
-0.392645
0.379911
-0.541423
0.285712
0.089386
-0.008719
0.242577
-0.406289
0.006388
-0.782679
-0.438683
-1.092085
-0.929839
-0.288178
-0.172792
0.172522
0.240487
-0.361007
0.351827
0.293306
-0.121510
0.105704
-0.217844
-0.138855
0.315045
-0.131130
-0.096332
-0.403361
-0.140628
-0.583888
-0.007795
-0.566644
-0.717185
-0.451897
-0.469233
-0.075936
-0.048492
0.539303
-0.565249
-0.315959
-0.503784
0.146402
-1.033946
-0.399017
-1.209523
-0.892514
-0.044755
0.153823
0.286791
-0.452916
0.134685
0.430068
-0.161810
-0.336591
-0.078394
0.006403
-0.050500
0.255165
0.472447
0.375252
0.388976
0.310133
-0.057464
-0.057860
-0.811389
-0.214979
0.567200
0.328938
0.406628
-0.081339
0.116262
-0.065885
-0.291121
-0.514358
-0.564901
-0.853999
-0.845275
-1.056438
-0.087701
-0.479938
-0.151889
0.528486
-0.082191
0.188660
0.121138
-0.235451
-0.443935
-0.432348
0.388714
0.380034
0.183004
0.278043
0.822523
0.241555
0.035913
0.129884
-0.079675
-0.003028
-0.043139
-0.232665
0.277730
-0.087437
0.337151
-0.097521
0.521037
-0.395149
0.065613
-0.756957
-1.193399
-0.963350
-0.707363
0.033816
0.198171
-0.565213
-0.310423
0.306396
0.283893
-0.009837
0.401330
0.313289
-0.000748
0.595975
0.290218
0.456590
0.121210
0.181842
0.562910
0.194285
-0.169054
-0.560606
0.025527
0.030355
0.307379
0.489872
0.706779
0.762692
0.633063
-0.550965
-0.084224
-0.730101
-1.078609
-0.676741
-0.232436
-0.492918
-0.392898
-0.140877
-0.142796
-0.036328
0.081428
-0.213257
-0.043412
-0.342455
0.382349
0.158408
0.535036
0.445636
0.284503
0.514201
0.262347
0.055427
-0.206841
-0.402359
-0.460475
0.088436
0.248284
0.639807
1.300439
0.723094
1.013028
0.613450
0.151091
-0.261658
-0.376768
0.204363
-0.225980
0.467378
-0.084957
0.019161
0.637052
-0.068283
0.508451
-0.349838
0.083252
-0.232499
-0.219399
0.286244
0.181963
0.020138
0.783916
-0.099159
-0.261685
0.280130
-0.085694
0.194245
0.003949
0.817445
0.433873
1.367767
1.412387
1.066235
0.972393
0.816032
-0.037362
0.353978
0.193010
0.227715
0.629862
0.223456
-0.005227
0.253810
0.132671
0.014712
0.009931
-0.447315
-0.274775
0.171608
0.218462
0.626454
0.552027
0.294095
0.248831
0.571402
0.232983
-0.088705
-0.459610
-0.475534
0.368372
0.492966
0.316869
1.209850
1.326765
0.856144
0.366947
0.731659
0.439059
0.402483
0.249154
0.188770
0.140975
0.528285
-0.005141
-0.022612
-0.084770
-0.091287
-0.241175
-0.622198
-0.737243
-0.343079
0.219841
0.084656
0.448820
0.639956
0.414635
0.354548
0.120510
0.259598
-0.509967
-0.561662
0.306292
0.079920
0.268329
1.120302
1.093178
1.174671
0.560013
0.593318
-0.134414
0.584686
1.107645
0.264965
0.537569
0.316966
0.400446
0.486701
-0.070376
0.281744
0.504685
-0.303738
-0.533668
-0.499223
-0.196131
0.227182
0.241413
-0.308396
0.559808
0.650902
-0.738585
-0.394745
-0.061582
-0.138800
-0.220258
-0.684350
0.229591
0.707406
0.050313
0.431752
0.194000
0.374330
-0.100336
0.060300
0.997924
0.728675
1.067209
0.680218
0.839791
0.248228
0.259642
0.228730
0.426275
-0.233052
-0.490603
0.311658
-0.156605
0.088543
0.706147
-0.168259
-0.267044
-0.162355
-0.054106
-0.841846
-0.537814
-0.519630
-0.995155
-0.880044
-0.680619
-0.069485
0.466405
-0.130739
-0.028663
0.235210
-0.467945
0.228072
0.754196
0.291849
1.019870
1.073857
0.801794
-0.046943
0.735783
0.010884
0.645681
-0.628156
0.099125
-0.407539
0.465478
0.123096
0.130706
-0.257956
-0.089158
-0.597995
-0.677633
-0.328274
-1.016341
-0.284532
-1.019676
-0.907267
-0.552537
-0.569962
-0.153120
-0.833269
-0.263642
0.266819
-0.081345
0.366988
0.667965
1.002279
1.291260
0.791766
0.462261
0.916666
0.856629
0.298474
0.533645
0.204630
0.106141
-0.597112
-0.395458
0.148609
0.344186
-0.228335
-0.809040
-0.965594
-0.630590
-1.165052
-0.553414
-0.281225
-0.372264
-0.844310
-1.035385
-0.274039
-0.431995
-1.143604
-0.600566
0.003058
-0.045321
0.344904
0.806109
1.189349
1.255926
1.261068
0.631263
0.627786
0.158877
0.785242
0.191865
-0.505694
-0.164266
-0.507338
0.255690
0.224007
-0.068924
-0.584618
-0.798964
-0.807649
-1.109883
-0.253969
-0.868351
-0.425261
-0.364439
-0.773603
-1.290167
-1.267570
-0.981920
-0.559208
-0.351004
0.050875
-0.594469
0.085544
0.754374
0.881497
1.397245
1.155675
0.462572
0.799936
0.933163
0.185295
0.125651
0.128664
-0.096060
-0.515504
-0.294246
0.083217
-0.527248
-0.840011
-0.514119
-0.575289
-0.621322
-0.512937
-0.905653
-0.201977
0.336912
-0.873464
-0.834273
-0.366766
-0.349935
-0.022123
0.425049
0.274441
-0.098032
0.180578
0.765406
0.463408
0.659689
0.849327
1.248494
0.484284
0.603008
0.890699
0.110744
-0.484697
-0.179908
-0.382494
-0.651416
0.241471
-0.380138
-0.557326
-0.990152
-0.154762
-0.500571
0.002240
-0.475426
-0.485014
-0.731537
-0.878780
-0.397225
-1.013528
-0.848462
-0.606222
-0.352695
0.357707
-0.040159
0.276494
0.180743
0.699920
0.533732
0.823054
0.227260
0.099673
0.320864
0.695413
0.569768
0.115031
-0.704971
-0.034285
-0.429154
-0.363862
-0.278143
-0.787805
-0.049872
0.109738
-0.384502
-0.073559
-0.420628
0.378670
-0.078660
-0.207736
-1.168016
-0.308319
-0.056947
-0.582751
-0.056653
0.337821
0.215880
0.461368
0.432099
0.822891
0.593383
1.028982
0.345274
0.135275
0.061273
0.290631
-0.333961
0.262111
0.395755
-0.021372
-0.161326
-0.342425
-0.811636
0.078530
-0.454529
0.428431
-0.114814
0.075961
-0.049923
0.349506
-0.389382
0.401582
0.076031
0.245787
-0.152893
0.030578
0.240229
0.143800
-0.430538
0.446811
0.433738
0.333703
-0.036349
0.190000
0.368115
-0.147186
-0.063040
0.561536
0.018703
-0.677834
0.152665
0.148496
-0.168387
0.403425
-0.757748
-0.553028
-0.215159
0.170933
0.344215
0.720227
-0.291768
0.604655
0.707980
-0.328864
-0.539544
-0.003730
-0.063680
0.533352
0.588810
-0.189195
-0.599265
-0.074382
0.449383
-0.275004
0.533556
0.571760
-0.024101
-0.092860
-0.257878
-0.135333
-0.531406
-0.184275
0.558782
0.209302
0.640600
0.567188
-0.720425
0.238737
0.300185
0.078122
0.526742
0.241938
0.101332
0.524425
0.391440
0.405042
-0.310245
0.046645
0.956996
0.720743
-0.327619
-0.202861
-0.366146
0.011032
0.605461
0.265394
-0.338189
-0.468563
0.272728
-0.183000
-0.386995
-0.186363
-0.251226
-0.723433
0.152079
-0.336890
0.750121
0.488321
-0.170309
0.159285
-0.111650
-0.262495
0.472159
-0.438628
-0.293715
0.602125
0.281107
0.544386
-0.144942
-0.077102
0.271168
-0.160396
-0.002599
0.575302
0.271406
0.303250
0.510320
0.070266
0.508799
0.190998
-0.025186
-0.790805
-0.426595
-0.230178
-0.239388
-0.407728
-0.254129
0.449242
0.735675
0.415754
0.245159
0.884357
-0.198982
-0.397010
-0.038299
-0.332626
-0.309042
-0.294578
-0.574388
0.606032
-0.132871
0.555729
0.301963
0.209884
0.224947
0.347852
0.089171
-0.378133
-0.300061
0.438482
-0.227014
-0.760894
-0.728805
-0.977818
-0.653918
-0.227767
0.289493
-0.343007
-0.345414
-0.555978
0.527513
0.065638
0.668668
1.070966
1.003196
1.133864
-0.237882
-0.067992
0.762276
-0.221448
-0.049380
0.075078
0.014134
0.128345
-0.469500
-0.441599
-0.018672
-0.615406
-0.052698
-0.093432
-0.764405
-1.328765
-0.898726
-1.312179
-1.717124
-1.407783
-0.855630
-0.655476
-0.421551
-0.062534
-0.418561
-0.635980
0.037600
0.009647
0.721187
0.636886
0.702370
0.984770
0.726537
0.598428
0.691177
0.186405
0.002153
0.408689
-0.393455
0.392799
0.397098
0.355879
0.691396
-0.105814
0.025034
-0.183823
-0.318195
-0.664370
-0.466733
-0.773845
-1.047049
-0.604909
-0.393166
-0.521760
-0.318969
0.123362
0.289369
0.196074
0.325789
0.352027
0.589165
0.592239
0.873730
1.465593
1.221268
0.245755
0.349881
0.551284
0.291418
-0.153129
-0.367603
0.178449
-0.246906
0.299996
0.164020
-0.285281
0.133249
-0.088871
-0.935581
-1.020226
-1.612904
-1.325343
-0.919748
-1.149550
-1.133957
-0.542209
-0.139899
-0.647486
0.215382
-0.033672
-0.208225
-0.256390
0.442913
0.192611
0.022306
0.108702
-0.297605
0.146574
0.323927
0.338220
0.279519
0.122443
-0.463345
0.552125
-0.277908
0.553283
-0.278970
0.139548
-0.381933
0.434114
-0.350318
0.077899
0.102199
0.159014
-0.330240
-0.349904
-0.008601
-0.406333
0.071369
-0.264527
-0.033350
-0.170066
-0.237278
0.477200
0.063077
0.352538
0.427096
0.239307
-0.268664
0.262859
-0.101446
0.246552
-0.121209
0.370633
-0.402490
-0.201706
0.173056
0.282568
-0.261301
0.154671
0.388980
-0.002377
-0.102203
0.168282
-0.212719
-0.039365
-0.172164
0.288288
0.169749
-0.252327
0.440986
0.260052
0.353146
-0.189135
0.386231
-0.011151
0.218939
-0.278100
0.462143
-0.153753
0.361885
0.102759
0.257178
-0.124191
-0.052867
0.278832
0.245996
-0.083067
-0.414861
-0.302027
-0.177740
0.331785
-0.337754
0.220581
-0.152064
0.011443
-0.049607
0.229340
-0.303682
-0.024352
-0.082384
-0.461331
0.118576
0.219998
-0.425228
-0.499478
-0.017725
0.113581
0.439986
0.135135
-0.407493
0.274593
0.228168
0.205162
-0.054915
0.475280
0.356169
0.407216
0.464717
0.329924
0.571079
-0.006637
-0.185085
0.025663
-0.310106
0.267063
0.491289
-0.308962
-0.036807
0.002503
0.104305
-0.334100
-0.098765
0.408213
0.026220
-0.408366
0.496418
0.379229
0.402376
-0.283786
0.241739
-0.362535
0.490641
0.035609
0.327662
0.349088
-0.356551
-0.405271
0.079302
-0.232391
-0.075836
-0.110963
-0.033048
0.158598
0.071250
0.517589
-0.282741
-0.080032
0.301801
-0.299833
-0.284220
0.462935
-0.289747
-0.216951
-0.183327
0.500580
0.235061
0.441057
-0.424083
-0.288899
-0.062600
-0.063828
0.427403
-0.427518
0.028160
0.062993
-0.467414
-0.117068
0.198340
0.186322
0.272551
-0.294720
0.357520
-0.121297
-0.119502
0.595239
-0.200523
-0.253350
-0.450945
0.048623
-0.078642
-0.215047
-0.214428
0.427040
-0.455857
0.267536
-0.287819
0.078804
-0.125656
-0.287378
0.405143
-0.401695
0.359751
0.318229
-0.359861
-0.237342
-0.144997
0.500256
0.419357
0.106716
0.015283
-0.425491
0.537007
0.030071
-0.154046
-0.068543
-0.340486
-0.009544
0.180937
-0.096647
-0.181017
0.013474
0.059202
0.309726
-0.077811
-0.348454
0.232517
0.221922
0.116209
-0.275027
-0.378186
0.432028
0.034517
-0.172285
0.491323
-0.155896
-0.324524
-0.297867
0.242240
0.098709
0.231751
-0.081049
0.169339
0.336446
-0.287356
-0.069999
-0.299715
0.090238
0.339279
-0.209264
-0.343813
-0.184907
-0.234807
0.359032
-0.379759
-0.196670
-0.333841
-0.290217
-0.389178
0.323847
-0.266060
0.078787
0.135403
0.497774
0.379591
-0.009363
0.421476
0.413828
0.364142
-0.046352
-0.236337
0.465430
-0.301999
-0.034530
-0.454137
0.048530
0.037045
0.163316
0.526603
0.033432
0.256895
-0.187245
-0.270961
-0.188615
0.398830
-0.018795
0.345469
0.539196
-0.220470
-0.080089
-0.300882
0.433227
-0.289033
-0.020993
-0.382594
-0.434068
0.079022
0.179934
-0.274242
-0.218345
-0.351459
0.100921
