58x1025
58x59
-0.483155
-0.011352
-0.392866
-0.540107
0.145485
-0.467384
-0.391050
-0.045315
0.265197
-0.300357
-0.320131
-0.053325
0.584849
-0.143364
0.344151
-0.793671
-0.017357
-0.737682
-0.344592
-0.295211
-0.143519
0.177040
-0.065716
-0.402599
-0.899373
-0.768588
-0.251853
-0.152370
0.500064
-0.415228
-0.570299
0.070365
-0.293188
-0.071820
-0.160201
-0.323668
-0.111476
0.099923
-0.275923
0.615606
-0.109946
0.118538
0.653965
0.602967
0.316372
-0.371348
0.201522
-0.580481
-0.492745
-0.815610
-0.306396
0.006323
0.034141
0.040341
-1.076209
-0.586451
-0.497442
-0.630418
-0.828740
0.219550
0.378886
0.183234
-0.033340
0.395015
0.720862
-0.407671
0.019125
-0.856962
-0.017939
0.393841
-0.328164
-0.311823
-0.620754
-0.606075
-0.409809
-0.671704
-1.047833
-0.846393
-0.950747
-1.545358
-0.650579
-0.404513
-1.093298
-0.586113
-0.266844
-0.675979
-0.765041
-0.575630
-1.133425
-0.308609
-1.007573
-0.704411
-1.262407
-0.360243
-0.424768
0.302560
-0.019190
0.120881
-0.273236
0.057641
0.671467
0.176707
0.078129
-0.167476
0.915533
0.685634
1.229821
0.209129
-0.672800
-0.072508
-0.325469
-0.696536
-1.369858
-0.685448
-0.417192
-0.483334
-0.401312
-0.089508
-0.065033
0.191806
-0.091391
-0.196075
0.157082
-0.152888
-0.107939
-0.000301
-0.317622
-0.223555
0.337572
-0.079937
-0.043955
0.099711
-0.179556
-0.266335
-0.257618
0.169643
-0.613833
-0.636917
-0.078182
-0.590929
-0.293294
-0.714780
-0.650677
-0.716163
-0.528448
-1.109807
-0.230515
-0.130461
-0.610296
-0.095880
0.282994
0.661838
0.168730
-0.919769
-0.621059
-0.939671
-0.054850
-0.191044
0.547922
0.120738
0.397709
0.023218
0.160509
0.528687
-0.105290
0.161167
-0.079767
-0.092636
-0.104822
0.089541
0.152587
0.149490
0.156875
-0.579275
-0.343574
-0.304043
-0.823495
-0.360728
0.106416
-0.517620
0.324398
-0.177716
0.760180
0.881423
0.140331
-0.464990
-0.781809
-0.256100
-0.532604
0.584150
0.644944
-0.179558
0.539860
0.491501
0.045169
0.078335
-0.073972
0.293839
-0.210971
0.005022
0.701712
0.090972
-0.063154
0.287677
-0.322783
-0.229696
-0.442696
-0.904859
-0.594111
-0.547052
-0.499373
0.268510
0.013882
0.185069
0.903072
1.164008
-0.068965
-0.641325
-0.658233
0.169183
-0.308304
-0.270066
-0.149624
-0.208657
0.451079
-0.062008
-0.549111
0.171206
0.680079
-0.008226
-0.236761
-0.432804
0.266286
-0.555400
-0.693067
-0.405529
-0.122540
-0.725075
-0.638937
-0.733603
-0.464722
-0.606263
-0.713807
0.084906
0.393113
0.954836
0.762123
0.134278
-0.098670
-0.061620
-0.609313
-0.137653
-0.515767
-0.152189
0.131218
-0.201620
-0.357251
-0.427064
0.364148
0.417686
0.757607
-0.712268
-0.405624
-0.227826
0.232771
0.094066
-0.173543
0.223852
0.482155
-0.490074
-0.405389
-0.541264
-0.710044
-1.715076
-0.725813
-0.555922
-0.745846
-0.308167
-0.607646
0.214994
0.409666
-0.079458
-0.212826
0.530769
0.398987
0.321642
-0.093393
0.223166
0.321997
0.115505
0.112387
0.315093
0.312748
0.498192
-0.227496
0.214424
0.513742
-0.646894
-0.050045
0.192457
-0.000948
-1.075118
-0.979563
-1.283085
-0.877489
-0.945386
-0.607436
-0.161677
-0.426680
-0.324882
0.299031
0.197735
-0.147254
0.442986
-0.313726
0.619920
-0.096605
-0.462933
-0.636183
0.156502
-0.316105
0.098538
0.353376
-0.063323
-0.056807
-0.129032
-0.159674
0.500058
-0.045069
-0.577645
0.032499
-0.230963
0.275339
-0.395366
-0.393303
-0.192690
-0.612346
-0.802606
-1.387001
0.022542
-0.308013
-0.125160
0.516254
-0.156016
0.304947
0.652030
-0.409266
0.284115
0.422962
-0.334963
-0.240799
-0.312276
0.532969
-0.099115
-0.284453
0.067126
-0.067347
0.198469
-0.166613
-0.154904
0.440533
-0.053167
0.081209
-0.358415
-0.007094
-0.151464
-0.030031
0.596854
-0.288022
-0.402473
-0.042841
-0.185278
0.245285
-0.230153
0.115785
0.794333
-0.523414
0.455229
-0.087295
-0.284283
-0.800340
0.257747
0.286509
-0.235828
0.496396
0.525089
-0.050024
-0.254310
0.241483
-0.077597
0.496609
0.518349
0.301505
-0.406640
0.390077
0.109799
0.689291
0.917002
0.140533
0.448144
-0.130755
-0.644117
-0.158638
-0.069749
0.543476
0.360008
0.000471
0.738015
-0.056526
0.400729
0.455219
-0.128632
-0.274073
-0.000735
0.218735
-0.476818
-0.283772
0.094761
0.323539
-0.619542
-0.117123
-0.072688
-0.298848
-0.120237
-0.170223
-0.103069
-0.012224
0.356173
0.409235
-0.084334
-0.591406
-0.654814
-1.076706
-0.419356
-0.819758
-0.736520
-0.532712
0.175676
0.303811
0.790437
0.719015
0.959769
1.189329
0.266781
0.031509
-0.487232
-0.724574
0.007037
-0.012160
-0.041791
0.251593
-0.185712
0.195912
0.341732
0.147060
0.231552
0.009048
0.370473
0.148218
0.598214
0.377247
-0.488395
-0.473885
-0.676064
-1.664005
-1.496099
-0.997059
-0.273064
0.001790
-0.279434
0.326042
0.669755
0.389416
0.999657
0.315648
0.720104
-0.112959
0.320868
-0.487449
0.255314
-0.115928
0.268172
-0.496343
-0.797672
-0.145031
-0.417931
0.251233
0.560126
-0.257902
-0.272928
0.075041
0.478572
0.049833
0.242149
-0.847788
-0.703207
-1.276942
-0.988794
-1.437598
-0.552834
-0.361656
-0.309992
0.122442
0.732180
0.622784
1.067006
0.204679
0.433917
-0.472773
-0.115267
-0.573592
0.027691
0.026326
-0.094430
-0.166977
-0.704948
-0.584367
-0.070632
0.155056
-0.166216
0.089503
-0.352885
0.226272
-0.323879
0.274179
-0.085355
-0.906126
-1.648411
-1.512421
-1.606501
-1.149701
-1.464980
-0.791460
-0.030015
-0.165465
1.134737
0.171877
-0.116442
0.601343
0.568201
-0.596470
0.246629
-0.023340
0.018606
0.556800
0.576900
-0.111737
-0.275332
-0.604292
-0.148147
0.276990
-0.246430
0.343775
-0.024329
-0.300642
-0.542713
-0.420165
0.585737
-0.331997
-1.701911
-1.275195
-1.322006
-0.665890
-0.739880
-1.013415
-0.278135
0.484987
0.900227
0.031741
0.669406
-0.129324
0.409676
-0.124949
-0.479881
-0.345337
0.266320
0.155539
-0.113044
0.055420
-0.944859
0.198730
0.191092
-0.052236
0.429619
0.204558
-0.090411
0.572724
0.472662
0.035435
0.593046
0.216370
-0.395442
-0.933271
-1.093019
-0.994800
-0.265720
-0.783240
0.024581
0.537840
0.689997
0.502838
0.564909
-0.118625
-0.033596
-0.057738
-0.591669
-0.533329
0.204461
-0.002175
-0.011504
0.187080
-0.437607
-0.185267
-0.243647
0.315341
-0.068616
0.313300
0.099288
0.129430
0.363596
0.211198
0.568299
0.258514
-1.044891
-0.433977
-1.041221
-0.644804
-0.635058
-0.707226
0.187866
0.161961
0.156569
0.661966
0.117471
-0.199152
0.426018
0.040312
-0.140751
-0.549041
-0.130785
0.213135
0.679840
0.011813
-0.311215
0.355438
0.279155
0.451565
0.075190
0.205193
0.184544
0.210174
-0.658004
0.331689
0.506202
0.143772
-0.800627
-0.696278
-0.740932
-0.466605
-0.605217
-0.174612
0.140489
0.390192
-0.020674
0.309237
0.182797
0.335159
0.132273
0.099898
0.056471
-0.294157
-0.378802
0.358888
0.040781
-0.382527
-0.461776
-0.197165
0.409148
-0.161966
-0.174570
0.074709
-0.313804
0.440838
-0.316066
-0.464853
0.383155
-0.076172
-1.001088
-0.773462
-0.664233
-0.872522
-0.113936
-0.115553
0.729355
0.583233
0.556028
0.867129
0.574113
0.412782
0.562405
0.491000
-0.108489
0.054899
-0.527959
0.351516
-0.242900
-0.065275
-0.245142
-0.124650
-0.106453
-0.302315
-0.139641
-0.732837
-0.354305
-0.037117
-0.281114
0.518033
-0.080666
-0.357846
-0.531128
-0.555028
-0.672232
-0.162816
0.303013
-0.210721
0.621191
0.874867
0.173380
0.853879
0.504240
0.376920
0.931443
1.034225
0.212620
0.244238
0.070637
-0.062315
0.449948
-0.181955
0.079043
0.158337
0.031453
0.406872
0.282755
-0.178364
-0.021874
-0.449727
0.110927
0.680216
0.480620
0.377988
-0.439617
-0.127289
0.095980
-0.232176
-0.129267
0.170675
0.223293
0.907293
0.909024
0.420444
-0.137507
-0.339471
0.576788
-0.200632
-0.026801
0.323619
-0.393402
0.002074
-0.117369
-0.366935
-0.123941
-0.574225
-0.628384
-0.137239
0.148555
0.397031
0.256691
-0.462129
-0.273475
0.776483
-0.227219
-0.344966
0.735349
0.689102
0.374394
0.134969
-0.066498
0.517566
0.166817
0.019949
0.182826
0.048664
-0.071732
-0.364730
-0.227910
-0.336395
-0.199662
-0.393865
0.293394
-0.271910
-0.384755
0.503364
0.174045
-0.538556
-0.862777
-0.444713
0.518424
0.510730
0.076390
-0.212360
-0.108881
0.137503
0.030282
0.829267
0.481813
0.664336
0.050108
0.821835
0.474050
0.319210
0.883855
0.692680
0.275054
-0.261070
0.219119
0.000021
-0.519373
-0.919715
-0.867376
0.183255
0.059390
-0.157513
-0.198958
0.186480
0.040592
0.272852
-1.103689
-0.831628
0.441278
-0.390451
-0.631820
-0.008119
0.747859
0.460205
0.892542
1.079622
0.802761
1.024126
1.321823
0.476553
0.892205
-0.553444
0.077967
0.657897
-0.516000
-0.525510
-0.038001
-0.653227
-0.791044
-0.396132
-0.803389
-0.199700
-0.266923
-0.190737
-0.568659
-0.627187
-0.523917
0.249084
-0.177252
-0.993810
-0.128543
0.084256
0.107872
0.045489
0.406248
0.619504
0.152896
0.981141
1.223842
0.869860
1.282791
1.495401
0.300950
0.018225
-0.043365
0.319543
-0.653163
-0.602362
0.231716
-1.079957
-0.132301
-1.223468
-0.732400
-0.759857
0.029980
-0.474649
0.096328
-0.480180
-0.005207
-0.761045
-0.523476
-1.051994
-0.192211
-0.046496
-0.154296
0.356017
0.206460
0.545091
1.399692
1.415515
2.126684
1.073769
1.558832
1.086151
1.566928
0.774457
0.029848
0.031443
-0.268250
-0.764182
-0.752707
-0.769003
-0.479892
-0.238912
-0.486962
-0.298872
-0.484890
-0.013039
-0.885314
-0.375213
-0.019328
-0.970272
-0.747922
-0.434235
-0.049531
0.021180
0.788260
0.027573
0.340820
0.425854
0.969458
0.793320
0.398385
0.984974
0.927609
0.879765
-0.040938
0.233430
0.171938
0.371844
0.314376
-0.344598
-0.995237
-0.084259
-0.296537
-0.409910
-1.080407
-0.472654
0.215966
-0.314603
-0.485993
-0.602665
-0.318904
-0.403048
-0.477100
-0.247799
-0.469817
-0.899659
-0.164463
0.415366
0.256854
0.559252
0.728420
0.737707
0.376837
0.963218
0.149038
0.955208
0.204647
-0.081460
0.500055
0.141791
-0.136415
-0.835934
-1.226705
-1.323899
-1.134837
-0.321217
-0.846799
-0.020277
0.365602
0.159016
0.031286
0.164397
-0.685745
-0.049411
-0.736793
-0.174533
-0.145454
-0.349291
0.444773
-0.043810
0.180624
0.358078
0.628723
0.636872
1.056931
0.863673
0.392053
0.799915
0.020435
0.443813
-0.139298
-0.067104
-0.339962
-0.226559
-1.040186
-0.798694
-0.841153
-0.680244
-0.277235
-0.202993
0.083202
0.179416
-0.260417
-0.284330
-0.095022
-0.114296
-0.344351
-0.151161
0.151851
0.282647
-0.261135
0.228738
0.152827
-0.140100
0.087800
-0.278503
-0.671324
-1.005835
-0.945559
-0.812837
-1.127802
-0.790785
-0.906961
0.026635
-0.432790
-0.463370
0.008659
0.373094
0.004715
-0.375340
0.087710
0.246210
-0.097885
-0.083911
-0.002159
0.527135
-0.281257
-0.121372
0.133945
-0.847744
-0.551431
0.362040
0.314321
-0.059970
0.396001
0.475951
-0.297262
-0.723194
-1.041513
-1.257263
-1.031930
-0.428612
-0.860920
-0.085814
-0.754891
-0.074897
-0.884237
-0.175390
-0.171720
0.051975
-0.379687
0.242192
-0.389538
-0.039968
0.185809
0.263635
0.357940
0.046340
0.037843
0.185180
0.140462
-0.389424
0.315550
0.433583
-0.322924
-0.086732
0.148411
0.082028
-0.064916
0.011970
-0.649289
-0.568287
-0.398684
-0.844146
-0.753138
-0.684933
-0.515238
-0.474973
-0.567104
-0.135193
0.251795
0.448874
-0.044819
0.296487
-0.413707
-0.019555
-0.035076
0.564941
0.297810
0.041759
0.419289
-0.262686
-0.319334
-0.193925
0.339716
-0.528827
0.230147
0.266947
0.815243
-0.183548
-0.055648
-0.367832
-1.013064
-0.818414
-0.782832
-0.469193
-0.587621
-1.404552
-0.723058
0.479583
-0.109054
0.274765
0.413902
-0.200979
-0.340790
-0.332820
-0.357161
-0.249528
-0.357395
-0.147474
0.309236
0.462595
0.153188
1.250697
0.187069
-0.074582
0.287686
0.448904
-0.118441
0.358533
0.252476
0.031154
0.393604
0.370845
-0.448070
-0.362085
-0.263500
-0.393696
-0.753300
-0.833739
-0.443270
-0.066069
-0.288127
0.239648
0.558769
0.049702
-0.479847
-0.361507
-0.143592
-0.329167
-0.401090
0.249301
0.578408
0.773280
0.696397
0.720683
0.580993
-0.228323
-0.529067
-0.451136
0.311545
-0.725517
0.529433
0.075133
0.919420
0.237996
-1.050529
0.127921
-1.043468
0.169024
-0.912286
-0.894431
-0.859529
0.343698
0.330988
-0.403579
0.362270
-0.838719
-0.963867
-0.896985
-1.165371
-0.260087
0.277708
-0.148603
-0.377456
0.186670
0.693937
0.965291
0.131265
-0.377594
-0.346157
0.157166
0.423040
-0.281026
-0.350754
0.575110
0.151215
0.030729
-0.676733
-0.434915
-1.118976
-0.695710
-0.995836
-0.751180
-0.977816
-0.146517
-0.196244
-0.214228
0.254856
0.031306
-0.490865
-0.664319
-0.757409
-0.298868
-0.063462
-0.352433
-0.645250
0.961830
0.010480
0.523942
0.506106
-0.287234
-0.376775
0.070283
-0.217722
-0.446125
0.384111
0.638834
1.062258
-0.172954
-0.316590
-0.132501
0.034961
0.638556
-0.293499
-0.536363
0.231219
-0.421069
0.012479
-0.865758
-0.455824
-1.071406
-0.274197
-0.817595
-0.722905
-0.829469
0.029709
-0.084507
-0.083451
0.500470
0.657989
1.120662
1.038466
0.312272
0.650774
-0.562259
-0.042281
0.375119
-0.184188
0.296381
0.824183
-0.757657
-0.338029
-0.215381
0.524938
0.435802
-0.037085
0.013799
-0.153742
0.109999
-0.416706
-0.624537
-0.042020
-0.182703
-0.149876
0.205696
-0.448168
-0.005024
0.509619
-0.214078
0.195721
0.892601
0.991249
0.724286
-0.114610
-0.192522
-0.387864
-0.507918
-0.149258
0.302997
-0.286723
0.561061
0.613466
0.129103
-0.537651
0.266440
0.690637
0.885315
0.782588
0.036321
0.278538
0.283224
0.003445
0.109666
-0.474930
-0.399400
-0.598380
0.095956
-0.773572
-0.606403
-0.039615
0.014695
0.514274
0.058913
-0.277251
0.848992
0.575948
0.110774
-0.114459
-0.572851
0.370525
-0.431636
0.094370
0.778546
0.612616
-0.621774
-0.429074
-1.065596
-0.075953
-0.464220
-0.522851
0.112532
-0.027047
-0.206911
0.551505
0.045145
-0.431594
-0.341537
-0.854200
-0.554114
-0.556649
-0.871885
0.065884
-0.406785
-0.009414
0.218628
0.425621
0.952202
-0.043626
0.180493
0.351228
-0.561404
0.393061
0.508542
-0.046500
0.138067
-0.192899
0.669347
0.109810
-0.394321
0.013006
0.120541
-0.311747
0.504515
0.680373
0.468811
0.126248
0.203848
-0.011476
-0.178833
-0.638826
-0.770500
-0.323364
0.033247
0.397914
0.155034
0.403147
-0.066337
0.117714
1.154509
0.519689
-0.640498
0.259152
-0.187196
0.246929
-0.534390
-0.231648
1.067986
0.080361
-0.479033
-0.647203
0.247986
0.179386
0.109924
-0.184388
0.581919
-0.246771
0.502300
-0.929014
-0.204024
0.595772
-0.195070
-0.010782
-0.552677
0.253982
-0.592195
-0.357323
-0.064533
0.207691
-0.268869
0.377597
0.280384
-0.337655
-0.195370
0.224164
-0.084532
0.226972
-0.284338
0.689926
0.534017
0.570934
0.338008
0.072936
0.452644
-0.447457
-0.420900
-0.626202
0.371907
0.065624
0.083895
-0.192071
-0.241068
0.230533
0.534264
0.664618
-0.226815
-0.610858
-0.184047
0.076819
0.553157
0.211609
-0.162671
0.550226
-0.113587
0.362072
-0.563824
0.315438
-0.359463
-0.059582
-0.348496
0.557393
0.544855
0.538298
0.006718
0.166707
-0.241283
0.406321
-0.565300
-0.799084
0.243940
-0.875499
0.191823
-0.242014
-0.881733
-0.162666
-0.808743
0.071769
-0.673688
-0.519349
-0.317772
-0.467982
0.630833
-0.216933
-0.131461
0.322116
0.877421
0.278940
-0.060321
0.073900
0.082616
0.211498
0.187044
0.107692
0.471575
0.926587
-0.315655
-0.219466
-0.100491
0.596483
0.520976
-0.769660
0.230463
-1.069877
0.224075
-0.194603
-1.027832
0.079154
-0.468972
-0.053199
-0.596187
-0.050821
-0.014247
0.036420
0.420177
0.283416
0.341399
-0.270527
-0.123773
0.136353
-0.098105
-0.173065
-0.373207
0.422720
-0.164459
0.038610
0.404084
0.304396
-0.634479
-0.803551
0.282239
1.087757
0.575392
0.241603
-0.407298
-0.224923
-0.157752
0.184970
0.268507
0.584166
-0.224830
0.002695
-0.352525
-0.168098
0.098067
-0.645387
0.034715
0.287235
0.134651
0.021058
-0.157995
0.239232
-0.083628
-0.331137
-0.543031
0.188198
0.097015
0.626923
-0.145780
0.554667
0.057765
-0.748748
-0.205018
1.014267
0.069539
-0.399808
0.315442
-0.346940
0.019457
0.136520
-0.698538
0.496496
-0.599154
0.233564
-0.146666
0.124347
-0.691845
-0.227297
-0.145379
-0.003956
0.212631
0.296275
-0.154408
-0.234702
0.116967
0.158961
-0.442078
0.444668
0.572085
-0.041238
0.621666
-0.232979
-0.221216
0.086529
0.453632
1.012729
0.718858
0.881340
0.101519
-0.643979
0.096150
-0.623691
-0.689537
-0.561463
-0.027118
-0.203754
-0.459575
0.290774
-0.108332
-0.089532
-0.490518
-0.379599
0.054317
0.020527
0.059063
0.071839
0.072880
-0.331815
-0.468906
-0.128672
0.436274
-0.074692
-0.607039
-0.273129
-0.202660
0.317206
1.486598
0.151723
0.309001
0.211537
-0.379480
-0.910488
-0.092540
-0.662898
-0.254399
-0.803825
0.137329
-0.645845
-1.160992
-0.125256
-0.578663
0.391081
-0.178511
0.200239
0.483125
-0.302034
-0.288871
-0.386134
0.262473
0.073842
-0.483865
0.020831
-0.004246
-0.032785
-0.925932
-0.699203
-0.780579
-0.558078
0.202280
0.236847
0.375912
0.577030
0.290209
0.151841
-0.499696
-0.239656
-0.307821
-0.353994
-1.145587
-0.460525
-1.247889
0.069001
-0.477683
0.107941
0.158188
0.511606
0.223417
0.316295
0.384127
-0.307936
0.101258
-0.486117
-0.652533
-0.498671
-0.669215
-0.614588
-0.597347
-0.654236
-0.134398
-0.495453
0.304571
-0.127025
0.107395
0.669345
0.535554
0.088640
0.396461
-0.498520
-0.377093
-0.754067
-0.984238
-0.163383
-0.007310
-0.158357
0.378057
-0.213562
0.259615
0.182909
0.105699
0.203335
0.138249
-0.622189
-0.269096
0.129664
-0.580046
-0.500458
-1.149184
-0.106822
-1.003643
-0.773245
-0.428646
0.492494
0.496462
0.531038
0.599716
0.166855
0.721787
-0.065116
-0.097096
-0.372292
-1.229306
-0.408810
-0.487136
-0.627462
-0.168747
0.240845
0.306379
0.404495
0.227090
-0.292012
0.221855
0.124823
0.471468
0.325327
0.161161
-0.265365
-0.929989
-1.353028
-1.346095
-1.025429
-0.988516
-1.004654
-0.916827
-0.104453
0.623389
0.202604
0.301039
0.538808
0.613454
-0.080081
0.303054
-0.431673
-0.888987
-0.505747
-1.114285
-0.620701
-0.268943
0.069719
-0.406599
0.380058
-0.191260
0.098112
0.503970
0.037083
0.406793
-0.556572
-0.529283
-0.197018
-0.588620
-1.245729
-1.584198
-0.449236
-0.754208
-0.294919
-1.285141
0.407209
-0.493193
0.436267
0.729262
0.000389
-0.152553
-0.725822
0.193185
-0.334457
-0.250938
-0.820545
-1.074861
-1.137791
-1.025738
-0.746555
0.174883
0.189209
-0.100181
0.375254
0.066352
-0.003865
-0.489140
0.079439
-0.668295
-0.309188
0.029308
-0.821475
-0.622403
-0.891657
-0.238963
-0.154948
-0.893855
0.365755
-0.294074
0.242893
0.423058
0.178987
0.426751
0.583929
-0.071864
-0.480361
-1.241798
-1.109364
-0.667665
-0.792411
-1.119744
-1.069529
0.119405
0.584600
0.529662
0.257988
0.298323
0.278228
-0.084535
0.166451
-0.787520
-0.403994
-0.855150
-0.557480
-0.498228
-0.715877
-0.585713
0.133918
-0.403307
0.042655
-0.158368
0.229662
0.003679
-0.163501
0.165363
-0.166781
0.050798
-0.027519
-1.034403
-0.924457
-0.465582
-1.138929
-0.682315
-0.354666
-0.587326
0.142807
-0.580587
0.093514
0.182251
-0.185970
-0.047686
-0.538116
-0.815144
-0.051558
-0.374047
-1.540900
-1.124224
-0.259526
0.166281
-0.010658
-0.277584
0.524402
0.191039
-0.173047
0.289188
-0.058728
0.310604
0.232703
0.360459
-0.047251
-0.631965
-0.481209
-0.303657
-0.268889
-0.254432
-0.952803
-0.065805
-0.192797
0.160464
0.092866
-0.417236
-0.604471
-0.357110
0.120886
-0.514081
-1.179343
-1.008201
-0.814127
-0.924415
-0.872596
-0.197250
0.462965
0.001542
-0.609540
-0.032905
-0.342475
-0.350051
0.223372
-0.517402
-0.299841
0.471625
0.202273
-0.528576
-0.328809
-0.717973
-0.551494
-0.479274
-0.071191
0.088769
-0.233956
0.360323
-0.051359
0.315543
0.012054
0.201062
0.061826
0.122015
-0.286245
0.109616
-0.601894
-0.906440
-0.143118
-0.300908
0.666650
0.574160
0.551992
-0.000221
-0.339944
-0.783098
-0.230672
-0.216382
-0.222216
0.406018
0.488142
-0.611319
-0.927916
-0.621174
-0.320175
-0.745807
-0.520495
-0.127761
-0.426875
-0.308717
-0.273470
-0.444611
0.354981
0.219671
-0.246652
-0.671821
0.005371
-0.145058
-0.341085
-0.496176
-0.403979
-0.013507
0.128915
0.075591
0.204948
-0.255223
-0.456162
-0.693170
-0.483682
-0.187619
-1.188889
-0.679044
-0.045963
-0.667514
-0.190621
-0.689097
-0.375348
0.035894
-0.054220
-0.507612
-0.343732
0.018418
0.170731
0.098211
-0.623883
-0.113251
-0.222740
-0.489876
-0.187719
-0.300544
0.219955
-0.234843
-0.132911
-0.161902
-0.290620
-0.127259
0.491097
-0.243112
-1.142581
-0.971154
-1.300452
-0.771048
-1.053894
-0.873452
-0.255568
-0.146884
-0.437744
0.088123
-0.773495
-0.355697
-0.580407
0.150496
0.303088
0.084716
0.438515
-0.099899
-0.383652
0.142538
-0.077407
-0.105525
0.230348
0.426208
-0.201880
0.506519
-0.016520
0.412103
-0.247965
0.008066
-0.772367
-1.000506
-0.506017
-0.007132
0.437657
0.731794
0.658602
0.146618
0.101675
0.382727
0.256048
0.590116
-0.007499
0.555095
0.297144
0.218170
0.208869
-0.250577
0.074405
0.004577
-0.454105
-0.023211
0.209265
0.318841
-0.112929
0.251623
-0.070672
-0.337648
-0.146948
0.602120
0.188799
-0.095401
-0.699985
-0.551209
-0.367646
-0.426883
-0.396011
0.776937
-0.153693
-0.295821
0.595670
0.264373
0.357968
0.220459
-0.295214
0.532223
0.326753
-0.225748
0.434408
0.412713
0.105931
-0.135886
0.243495
0.296290
-0.085175
0.122884
0.473640
-0.226276
-0.336786
0.044957
-0.143907
0.265569
-0.047524
-0.566700
-0.831353
-0.670906
0.080535
-0.692295
-0.104328
0.708897
0.643688
-0.302494
0.471331
-0.097593
0.019324
-0.052318
0.454301
0.083983
0.427219
-0.007126
-0.001510
-0.135077
0.143297
0.342975
0.475075
-0.421471
-0.195141
0.174635
0.357428
-0.321214
-0.284754
-0.356359
-0.163107
0.198784
0.564333
0.170015
-0.274126
-0.556750
0.217750
-0.400769
-0.147669
0.837800
-0.247179
-0.144953
-0.003181
0.004919
0.592225
0.006809
-0.109324
0.641989
-0.143261
-0.260203
-0.125499
0.180632
-0.109031
0.342496
-0.373702
0.492775
-0.246369
0.191038
-0.074393
0.037686
0.346218
0.088081
0.636252
-0.169342
0.178390
0.018074
0.148749
0.122261
0.409360
0.170313
0.115567
0.827697
0.112869
-0.269763
0.356054
0.020546
0.697008
0.354800
0.470265
-0.227587
-0.237620
0.249134
0.213735
0.053526
-0.282673
0.422378
0.560336
0.325028
-0.302446
-0.092407
0.284325
0.456360
0.205295
0.390792
-0.131481
-0.147215
-0.267347
-0.515787
-0.147881
0.189864
-0.321074
-0.246421
0.202797
-0.195885
0.201459
0.259065
-0.155725
0.145856
0.121526
-0.076167
-0.098394
0.418383
-0.013641
0.425148
0.455853
0.497961
-0.001282
-0.130287
0.125517
0.014623
0.568321
0.404085
0.251867
0.163136
0.105434
0.564007
-0.233028
-0.421995
0.498849
-0.159788
-0.082326
-0.417695
0.096557
0.284088
-0.682550
-0.281295
-0.670221
-0.197028
0.229715
-0.235175
0.160452
0.303557
0.008326
0.375960
0.306479
-0.220549
-0.247526
0.263845
0.375937
0.020551
0.279090
0.501126
-0.013100
0.276300
-0.447050
-0.135471
0.365313
0.321070
0.595751
0.062428
0.304650
-0.356037
-0.214797
0.167425
0.532831
-0.013416
-0.485713
-0.033431
-0.337116
-0.692957
-0.331110
0.360543
0.409594
0.140967
0.295495
0.297356
0.628000
-0.342059
0.378450
-0.059292
0.123109
-0.142674
-0.433134
-0.416750
-0.131929
-0.129134
0.521212
0.162791
-0.407125
-0.032002
-0.244739
-0.031446
0.237623
0.238019
0.046332
-0.530960
0.360553
-0.071879
0.427136
0.361386
0.316554
-0.181322
0.089912
-0.200068
0.016313
0.216197
0.008085
-0.186227
-0.209285
-0.079248
0.285977
-0.431212
-0.329414
-0.410117
0.408446
-0.138541
-0.148194
0.191741
0.344916
0.358009
-0.278668
0.590267
0.242209
-0.304212
-0.108827
0.301689
0.185479
0.473857
0.179488
-0.227355
0.157022
0.464363
0.576566
0.206078
-0.014452
-0.044273
-0.006639
0.502478
0.119711
-0.265706
0.462136
0.115215
-0.375464
0.125484
0.249437
0.396745
0.367398
-0.038048
-0.094731
-0.465078
-0.216533
-0.178888
-0.203656
-0.406078
0.458167
-0.156384
-0.390851
0.329310
0.010233
-0.110330
-0.269085
-0.179887
0.103422
0.134819
0.397128
0.001682
0.318823
-0.002199
0.268611
0.578537
0.042221
0.138211
-0.303424
-0.277416
-0.375646
0.359215
0.419785
-0.323578
-0.422370
-0.191361
-0.064647
0.230601
-0.034929
0.141002
0.092962
0.231415
-0.033977
0.002095
-0.226739
0.137091
-0.027738
-0.237221
-0.212409
-0.148259
-0.436529
-0.167564
0.447700
0.028990
0.318915
0.264012
0.450147
0.354515
0.528720
-0.297646
-0.095842
0.271933
-0.283619
0.351374
0.471661
-0.399672
-0.356780
0.061981
-0.084550
0.337875
-0.431189
-0.400358
0.160992
-0.224239
0.262033
0.475006
0.111119
-0.223062
-0.591655
0.188120
0.237823
-0.360251
0.185511
-0.122537
0.549621
0.061261
-0.015524
-0.079674
-0.015251
-0.172989
0.573236
0.075389
0.133129
0.516703
0.409682
-0.026329
0.110568
0.138038
0.487010
-0.425758
0.388573
-0.146574
0.037904
0.155718
-0.186173
-0.273723
0.312713
-0.088440
0.504593
0.357063
-0.414337
-0.182194
0.194627
0.129364
-0.129272
0.323556
0.250478
0.582407
0.530905
0.007207
0.566848
-0.088803
0.027787
0.167664
0.192592
0.246408
-0.483718
-0.321752
0.171674
-0.237082
-0.187077
0.405364
0.413014
-0.162862
-0.242214
-0.297830
0.144080
-0.017724
0.066484
-0.323077
0.206794
-0.007737
0.026981
0.233305
0.133406
-0.353568
-0.334024
0.440101
-0.206688
0.020994
0.162299
0.189047
0.463505
0.499060
-0.172194
0.422311
0.331775
-0.007067
0.429118
-0.349677
-0.416435
0.237294
0.202886
-0.012296
0.141240
-0.412460
0.073800
0.065162
0.377118
-0.380499
0.582624
0.131355
0.428563
0.500498
0.205991
-0.195471
-0.215224
-0.605655
-0.029001
-0.263760
0.494395
0.185481
0.511263
0.367050
-0.150495
0.291035
0.524237
0.349112
0.019391
0.204514
0.159789
-0.425627
0.153930
-0.497863
-0.233620
0.030722
-0.353231
-0.163087
0.260563
0.474238
-0.038584
-0.309497
0.024197
-0.225448
0.304523
-0.030766
-0.052592
0.637604
0.606187
0.126397
0.205981
-0.088863
0.546705
0.222455
0.461689
0.500151
-0.015929
0.433832
0.006095
-0.096635
0.285365
-0.181978
0.078573
-0.346852
0.389254
0.164951
-0.371491
0.480169
-0.039211
-0.447710
0.104285
0.052716
0.088549
-0.077778
-0.168701
0.447000
0.438499
0.197797
0.065451
-0.166898
0.659935
-0.433650
0.210062
-0.073707
-0.043204
-0.125226
-0.190032
-0.024255
0.252799
0.119897
0.246677
0.119925
-0.406772
-0.460168
0.050538
-0.244321
0.466591
0.448295
0.103736
0.074302
0.442959
0.238287
-0.399398
0.415457
0.221581
-0.184355
-0.117269
0.191164
0.165735
-0.026209
0.359896
0.768246
0.596807
-0.308605
-0.136932
-0.154494
-0.474623
-0.377319
0.596987
0.702498
-0.052799
0.366259
0.098083
-0.181738
-0.090363
0.382012
-0.245298
-0.003883
0.273997
0.452159
0.317250
0.170295
-0.384454
0.328941
0.532621
0.224846
0.030578
-0.131786
-0.066675
0.617754
0.220187
0.587557
0.007004
0.078069
-0.062603
-0.329923
-0.076866
0.177794
0.005934
-0.329633
-0.027719
-0.121002
0.163392
0.223083
0.309328
-0.238315
-0.087549
0.009838
-0.531484
0.413192
-0.029226
-0.496635
-0.338784
-0.480001
0.153193
0.247602
-0.279199
-0.216383
0.059340
-0.016831
-0.111971
0.032119
-0.130859
0.566618
0.114624
0.360058
0.362549
-0.760017
-0.499515
-0.457141
-0.087263
-0.434387
0.240571
-0.038418
0.135580
-0.171028
-0.101616
0.413764
0.474611
-0.339845
0.363135
-0.116555
0.114345
-0.437432
-0.150646
0.493674
0.331847
0.434924
0.421870
0.072606
0.409883
0.422477
0.497851
0.356618
-0.116069
-0.131873
0.399333
0.010065
-0.242618
-0.422795
-0.096769
-0.524626
-0.189903
-0.646727
0.525566
0.666633
-0.263423
0.232790
-0.436815
0.315068
0.460061
0.118725
0.259579
-0.026621
0.383897
0.181688
0.388537
0.179471
-0.230313
-0.375315
0.385382
-0.088701
-0.214391
0.434259
0.266632
-0.306865
0.308419
-0.294452
0.103264
0.759806
0.167096
0.282324
-0.691036
-0.359750
-0.003630
-0.347423
0.241820
0.371097
-0.261362
0.594506
-0.157475
0.268870
-0.342076
-0.215989
-0.310466
0.445541
0.058418
-0.119260
-0.219177
-0.196091
0.023936
0.232278
-0.137458
-0.248443
0.005428
0.568844
-0.108060
0.721446
0.214544
-0.216441
-0.085962
0.522086
0.496343
0.225588
0.217217
-0.235670
-0.222278
-0.192665
-0.225211
0.485642
0.364197
-0.186568
-0.011748
-0.414350
-0.248326
-0.178770
0.342924
0.075378
0.434511
-0.275179
0.365017
-0.495232
0.260153
-0.061601
0.280585
-0.355561
0.049068
0.380327
-0.109664
0.267385
0.042308
0.231988
-0.275057
0.517439
0.254415
0.248976
-0.034131
0.462904
-0.006449
0.056181
0.385520
-0.264198
0.446296
-0.118060
0.416138
-0.324954
0.330978
0.498503
-0.086867
0.401819
-0.056650
0.095628
0.447374
0.212222
0.516318
0.457159
-0.335805
0.249397
-0.169001
0.460337
0.691131
0.662405
0.448809
-0.147691
0.324943
0.406333
0.812288
-0.021169
-0.084648
-0.190994
-0.218456
-0.680641
0.325536
-0.201969
0.170593
-0.358526
0.212827
-0.171059
-0.370410
-0.226587
0.281096
0.336357
0.492844
0.398627
0.256510
0.413619
-0.314173
-0.359312
0.417886
-0.130033
0.249494
0.093504
0.347482
0.274352
0.053088
0.238094
-0.028360
0.639375
0.714294
0.017426
0.608076
-0.219715
0.101545
-0.462295
-0.471045
-0.048573
-0.437274
-0.406274
-0.130599
0.560230
-0.272093
-0.014634
0.470218
0.131161
0.434119
0.017908
0.018884
-0.334058
0.030231
-0.397206
0.177592
0.384768
-0.000589
0.181219
0.158190
0.662562
0.199963
0.411083
0.589512
0.559972
0.824786
0.225417
-0.035102
-0.037782
-0.286919
-0.902909
-0.222679
-0.068494
0.440950
0.094384
-0.096087
0.303298
-0.072052
0.214264
-0.339370
-0.312762
-0.033429
-0.178735
0.146914
0.298385
0.256222
0.096268
0.139766
0.051056
0.374595
-0.113436
-0.031999
0.677905
0.665416
0.622211
0.012312
0.623795
0.568146
0.599015
-0.117364
0.178383
-0.116809
0.251185
0.382248
0.212562
0.051427
0.224439
-0.203580
-0.208310
0.057402
-0.383826
0.147118
0.125493
0.318161
0.208820
0.092560
-0.462220
0.035084
-0.135154
0.252867
-0.198201
0.505496
0.311665
0.397324
-0.022635
0.489720
-0.004815
1.011107
0.478819
1.003493
0.788221
0.226601
0.192638
0.660688
-0.583518
0.423920
0.428054
0.521633
0.209885
-0.153739
0.011803
-0.141587
-0.131536
-0.307017
-0.012417
0.333805
-0.134756
-0.322482
-0.170286
0.073865
-0.046354
-0.070862
0.036672
0.294088
0.516244
0.646456
0.354967
0.279219
0.314385
0.632070
-0.021389
1.056988
0.839511
-0.038001
0.094406
-0.355206
-0.568086
0.495254
0.543016
0.035485
-0.069796
0.333316
-0.467195
-0.423503
0.018191
-0.036871
0.225465
-0.050926
-0.394397
-0.476809
0.404626
0.228230
0.303270
0.160857
-0.494135
-0.178677
0.142941
0.494155
-0.351455
0.386372
0.328655
0.251050
-0.189591
0.390672
0.238273
0.584730
-0.339922
-0.712709
-0.421116
0.375746
-0.243988
-0.243019
0.302940
0.200057
-0.056556
0.212582
-0.418284
0.300670
0.000448
0.268317
-0.009806
-0.027315
-0.590030
-0.280157
-0.415770
-0.291452
-0.330395
-0.226069
0.306712
0.105839
-0.362587
-0.191776
0.003746
0.346717
0.250159
0.259400
0.066125
0.577316
-0.094362
-0.140204
0.199519
0.409614
0.303725
0.196464
-0.678149
-0.024771
-0.495612
-0.262994
-0.675652
-0.486622
-0.968713
-0.385964
-0.166794
-0.357928
-0.336385
0.165045
-0.083334
0.089460
-0.378250
-0.313833
-0.552665
-0.000162
-0.041612
-0.491047
-0.378190
-0.088667
0.048738
0.309813
0.177057
0.468380
0.663598
0.171000
-0.592069
0.427053
0.053223
0.338297
-0.010019
-0.874549
-0.211780
-0.280117
-0.790766
-0.325722
-0.700661
-0.071612
-0.054776
-0.233910
0.269513
-0.032314
-0.398899
-0.240891
-0.683918
-0.084019
-0.296770
0.320114
0.077405
0.302967
0.273638
0.352525
0.653605
0.471024
0.711809
-0.120473
-0.191610
-0.011000
0.241921
-0.324451
-0.515226
0.383751
-0.527855
-0.336757
-0.274221
-0.586504
-0.121883
-0.178228
-0.358359
-0.192847
0.198952
0.299822
0.253231
-0.108190
-0.551138
0.082763
-0.159720
0.213606
0.385645
-0.317893
-0.184425
-0.614983
-0.092961
-0.091817
0.548050
0.221230
-0.355425
-0.290757
0.035421
0.051118
0.148245
-0.014809
-0.067355
-0.072174
-0.408741
-0.634619
-0.469397
-0.020263
-0.476125
-0.922431
-0.734478
-0.416492
-0.660781
-0.155496
-0.185906
-0.009585
-0.084203
-0.021303
-0.233816
-0.034614
0.665675
0.240333
-0.482667
-0.642751
-0.100273
0.044630
-0.053377
0.005729
0.285504
0.344382
-0.011779
-0.217363
0.089874
-0.031376
-0.139958
-0.074042
-0.542639
-0.571467
-0.266724
-0.450754
-0.062155
-0.272015
-0.332465
-0.361868
0.468064
-0.591114
0.249708
0.443136
-0.077261
-0.297024
0.439235
0.466928
0.359795
0.156244
0.151969
-0.218017
-0.231393
0.140922
0.368986
-0.635762
-0.796007
-0.062480
-0.248601
-0.253082
-0.265247
0.474080
-0.171072
-0.207537
0.274003
0.089304
0.267870
0.090559
0.092024
-0.823302
-0.074897
0.087112
-0.109671
0.465243
0.376280
-0.406037
0.262462
-0.201313
-0.369113
0.543496
-0.341243
-0.436690
0.067141
-0.252181
0.053226
-0.423032
-0.021167
0.152739
0.002824
-0.209858
-0.271939
-0.185304
0.140159
-0.143211
0.280205
0.330700
-0.442742
0.023751
-0.487657
-0.181825
-0.219139
-0.655953
0.111880
-0.509782
0.151517
-0.388977
-0.356261
-0.385185
-0.387593
0.310519
0.301152
-0.372316
-0.238215
-0.331639
-0.463086
-0.190467
0.368079
0.063409
-0.231053
-0.369332
-0.205234
-0.191110
0.736552
0.176366
0.778327
0.142192
0.895143
0.502230
0.431140
-0.146013
0.411295
-0.019073
0.082706
-0.078448
-0.108780
-0.025738
0.448178
0.290519
0.216467
0.464487
0.226348
-0.221971
-0.346180
-0.129384
0.542400
0.200267
0.337331
0.084972
-0.366859
-0.398253
-0.441463
0.151026
-0.765200
-0.332290
0.636696
0.477333
0.690794
0.457497
0.205309
-0.171266
0.330438
0.461360
0.032219
0.531286
-0.011004
0.306813
0.658186
0.385288
0.439102
0.224438
0.071770
-0.384161
0.409000
0.152574
-0.227281
-0.073209
-0.000527
-0.367900
-0.078657
0.043292
-0.474870
-0.011579
-0.408468
-0.511343
-0.141763
-0.045596
0.051658
-0.022294
0.419310
0.035593
0.175917
0.247408
-0.258134
0.319464
0.210840
0.026445
0.060330
0.644696
0.212742
0.421777
0.019439
-0.023057
-0.450862
-0.133698
0.040113
0.599059
0.237803
0.666441
0.245878
-0.330501
0.110735
-0.217769
-0.996438
-0.797544
-0.110938
-0.562822
-0.467142
-0.617455
-0.082902
0.168742
-0.152638
-0.468604
-0.368154
-0.724915
0.423316
0.758782
0.971394
0.730097
0.585116
0.429462
0.538639
0.231825
0.537017
0.125396
-0.150358
0.136257
0.551587
0.424373
0.244394
0.642603
0.282536
-0.729584
-0.374343
-0.516265
-0.624504
-0.703498
-0.305290
-0.488191
-0.495327
-0.619349
0.088304
-0.674904
-0.937895
-0.929304
-0.005068
-0.693878
0.045230
0.166888
0.331198
0.027570
0.711961
0.388902
0.197239
0.763613
0.455664
0.275185
-0.237898
0.147382
0.432754
-0.223923
0.295321
0.334206
-0.083128
-0.479133
-0.314451
-0.080787
-0.204899
-0.306762
-0.213027
-0.127396
-0.105816
-0.923250
-1.064824
-0.931380
-0.532284
-0.283573
-0.536681
-0.387002
-0.084864
-0.446724
0.148086
-0.270290
0.756156
0.770347
0.562140
0.589680
0.565165
-0.407066
-0.183089
0.051994
0.289802
0.005521
0.071354
0.337129
0.013362
0.262882
-0.391456
-0.481124
-0.646614
0.020009
-0.260445
0.000668
-1.374206
-0.455257
-0.811307
-1.130728
-1.759565
-1.167973
-1.019468
-0.912657
-0.857836
-0.851911
-0.108453
-0.160409
0.054879
0.342495
0.013124
-0.178303
-0.145221
0.012452
-0.087826
0.417298
-0.071697
-0.146717
-0.036607
-0.023433
0.028844
-0.065969
-0.077542
0.072833
0.336709
-0.276785
-0.658615
-0.151170
-0.567946
-1.050585
-1.465121
-1.372528
-1.599571
-1.018572
-0.331422
-0.653420
-0.080321
-0.047358
-0.031842
0.232140
0.489680
0.134138
0.696181
0.605690
-0.183977
-0.388843
0.083036
0.150638
0.035990
0.497199
0.627065
0.730673
-0.225774
-0.073011
0.005537
-0.234153
-0.559164
-0.437555
-0.260681
-0.613949
-0.266103
-1.094486
-1.168461
-1.010908
-0.391425
-0.231679
-0.800823
-0.688851
-0.278222
-0.348812
-0.382976
-0.031477
0.832184
0.034531
0.349258
0.593638
0.175717
0.250811
-0.290937
-0.174313
0.186468
0.268396
0.179782
0.044436
-0.239867
-0.148611
-0.022048
0.049115
0.481928
-0.145255
0.030152
-0.352134
0.007590
-0.225052
-0.670208
-0.894615
-0.533235
-0.664321
-0.080811
-0.812009
-0.637626
-0.797404
-0.165896
-0.773661
-0.047848
0.398806
0.348205
0.452258
-0.086680
-0.387747
0.435852
0.632128
-0.066336
0.422583
0.234157
-0.286319
-0.139381
-0.603288
0.356645
-0.354079
-0.514701
-0.317798
0.313028
-0.272476
-0.129373
-0.313815
-0.860453
-0.097003
-0.103440
-0.563367
-0.946998
0.089288
-0.232273
-0.606483
-0.670939
-0.214675
-0.507852
0.165058
-0.382817
-0.093491
0.038129
-0.447955
0.272347
0.596388
0.212825
0.414911
0.191666
-0.271626
0.188743
0.063617
0.426812
0.470796
0.430763
0.094131
0.033243
-0.084755
-0.204128
0.455979
0.478849
0.610503
0.280279
-0.068712
-0.734201
-0.681386
-0.404424
-0.318898
-0.303006
-0.417799
-0.113599
0.208271
0.398966
-0.029689
-0.100101
0.128495
-0.352756
-0.128066
0.393596
0.501294
0.395810
-0.099745
0.175039
-0.453836
-0.043326
-0.036935
-0.172085
0.524332
-0.304096
0.442787
0.243449
-0.210181
0.451281
-0.129353
0.528096
0.292589
-0.322897
-0.034451
-1.204925
-0.880295
0.166862
-0.695512
-0.481622
-0.478391
-0.022804
0.035303
0.344755
-0.432513
0.189374
-0.215311
-0.041313
0.230224
0.069825
0.460638
0.150618
-0.602957
-0.333469
-0.053360
0.361916
-0.160243
-0.238241
0.126767
0.073873
0.541701
-0.163335
0.467878
-0.203653
-0.456564
-0.763649
-0.064285
-0.171422
-0.670180
0.015321
0.025173
0.262341
0.152131
-0.360344
-0.164940
-0.094264
0.417979
-0.122788
-0.051248
0.790961
0.308407
0.287850
-0.052388
0.019427
0.232615
-0.013974
-0.411070
-0.082637
-0.560261
0.031144
0.031211
0.415213
0.375518
-0.047963
-0.043274
-0.121904
0.046785
-0.614407
-0.436131
-0.802161
-0.604004
0.137101
0.124023
0.118533
0.277742
0.370282
-0.306794
-0.053135
0.147607
-0.104671
0.129864
0.280392
0.618586
-0.062442
0.150782
-0.220008
0.171511
-0.209986
0.398848
-0.493171
-0.333527
-0.590500
0.122820
-0.345945
0.250146
-0.577953
-0.401131
-0.177042
0.169666
-0.151609
0.398920
-0.758736
-0.508892
-0.602207
-0.299053
-0.604355
0.090604
0.102244
0.174294
-0.109790
0.311401
-0.455186
0.415487
0.810008
0.515647
0.307423
0.051354
0.153791
-0.180749
0.211430
-0.320663
-0.133980
0.177766
0.500834
0.176045
-0.072708
0.153035
-0.233114
0.124740
0.026667
0.157624
0.533795
0.168746
-0.085181
-0.125782
-0.558373
-0.053162
-0.462977
-0.419704
0.246254
-0.236878
0.164783
-0.339204
0.139045
-0.180867
0.587158
-0.051619
0.613995
0.228066
0.473495
-0.579779
0.263551
0.011545
-0.169547
-0.342884
-0.028171
0.016810
0.074850
0.319434
0.368719
0.505225
0.164336
0.196358
0.172702
0.627488
-0.414287
0.408971
0.327994
0.431607
-0.206433
-0.423136
0.361611
0.046580
0.010813
-0.492457
-0.166547
-0.053061
0.842700
0.853133
0.358240
0.147380
-0.179292
-0.099724
0.044756
-0.040007
0.050950
-0.267595
-0.176959
-0.124050
-0.085538
-0.035499
0.383746
0.401637
-0.402445
0.030506
0.836221
0.365190
-0.373007
-0.166075
-0.540926
-0.420944
0.203237
0.087122
-0.410988
-0.497751
0.194950
0.463107
-0.026085
-0.068588
0.112887
0.671409
-0.344952
0.044081
0.118833
-0.241164
0.123403
0.089539
-0.073948
0.082330
-0.373021
-0.431784
-0.160559
-0.500264
-0.408908
-0.401498
0.186551
0.397057
0.817399
0.745933
0.234620
-0.198507
-0.148533
-0.041442
0.092693
-0.007663
-0.297974
-0.249589
0.115561
-0.469624
0.359976
-0.494466
0.134744
0.392378
-0.118640
-0.064638
0.407212
0.133227
0.079494
-0.326620
-0.520821
-0.516236
0.241141
0.289432
-0.130892
-0.182514
0.040526
0.116455
0.256566
0.329316
0.846913
0.018000
0.176432
-0.404209
-0.021777
0.212648
0.117322
-0.016434
-0.414347
0.003317
0.216744
-0.371963
-0.351904
0.204428
0.442405
-0.492585
0.248016
-0.072299
0.220236
-0.382223
0.310056
-0.387805
0.285529
-0.461986
0.264363
0.037893
-0.448987
-0.290464
0.460470
0.557722
0.036464
0.494311
0.483612
0.261928
0.135520
0.527503
0.189257
0.323266
0.291760
-0.506742
0.334844
0.295481
-0.393317
0.134510
-0.370311
-0.596644
-0.405986
-0.184434
-0.234617
-0.099811
-0.228951
-0.223965
-0.087122
-0.519353
0.059859
-0.026082
0.172486
0.001110
0.239376
-0.042499
-0.167056
0.236548
0.400262
0.006451
-0.084430
-0.181640
-0.407086
0.517004
-0.281376
-0.559293
0.283834
0.127208
-0.129294
-0.067003
-0.123486
-0.217803
0.274458
-0.343241
0.075737
0.070099
-0.212876
-0.208135
-0.422430
-0.177531
0.100365
0.424504
0.127243
0.128594
0.455626
0.461443
-0.000502
0.261868
0.577907
0.076068
0.261301
-0.119048
-0.145444
-0.274992
0.302984
0.294551
0.551361
-0.032801
0.022665
0.343228
-0.312968
0.368735
-0.207000
0.210076
0.282069
0.055266
-0.397879
-0.315867
-0.457366
-0.027052
-0.858173
-0.222270
-0.256152
-0.035329
0.121615
0.441085
0.497729
0.103340
-0.039127
0.729453
0.429892
-0.316115
0.407778
0.130843
0.186617
-0.222321
0.002748
0.485131
0.263472
0.099554
0.375366
-0.120374
-0.022403
0.154992
0.051436
0.115661
0.206858
-0.273404
-0.023701
-0.333349
0.577260
0.806429
0.485589
0.201293
-0.260043
0.392088
0.284659
0.006916
0.065098
-0.348327
-0.353762
-1.126658
-0.923468
-0.173471
-0.466165
-0.292749
-0.298856
0.048898
-0.097572
-0.760186
0.224355
-0.031562
-0.144797
-0.305078
0.154068
-0.348565
-0.483744
-0.246565
-0.259303
0.341140
0.127407
0.465679
-0.144584
0.460449
0.616166
0.312020
-0.138423
0.222303
-0.011667
-0.732075
0.149810
-0.401677
-0.799300
-0.819553
-0.536907
-0.319358
-0.314591
-0.668545
-1.074470
-0.640747
0.023084
-0.899778
0.092849
-0.400869
-0.208390
-0.132617
-0.037088
0.257590
-0.011489
0.163939
0.105890
-0.034426
0.234804
-0.052564
-0.244523
0.416537
0.566861
-0.157220
0.752129
0.095334
-0.306583
-0.308786
-0.363995
0.007754
-0.415473
-0.323437
-0.949126
-0.486050
-0.544176
-0.794820
-1.389721
-1.002574
-0.689731
-0.301032
-0.522320
0.059680
-0.323189
-0.047055
0.122595
0.424128
0.245005
-0.297539
-0.339120
-0.429893
-0.008324
0.158863
0.408146
-0.116007
0.629461
0.447074
0.351793
-0.124393
0.225424
-0.279409
-0.648000
-0.265863
-0.277695
-0.681202
-0.793704
-0.625031
-0.352162
-0.464786
-0.445338
-0.915640
-0.170583
-0.790011
-0.559362
-0.765260
0.153642
-0.049167
-0.785768
-0.434551
-0.390966
-0.091365
0.289800
0.127635
0.254297
0.344300
0.693342
0.717142
0.149651
0.377338
0.189193
-0.347239
-0.438886
-0.170827
-0.428220
0.023352
-0.390691
-0.521350
0.231138
0.092074
-0.626883
-0.003177
-0.591303
-0.582974
-0.336659
0.014344
0.227410
-0.436457
0.184645
-0.608380
-1.227029
-0.789336
0.293268
-0.464208
-0.469633
-0.073728
0.510392
0.203155
0.751633
0.348179
0.188663
0.412305
0.561808
-0.487221
0.043400
0.044694
0.298279
-0.782588
-0.143762
-0.069455
0.023146
0.240275
0.053017
-0.175382
-0.089336
-1.002360
-0.784296
-1.017326
-0.208484
-0.740203
-0.714308
-0.953173
-0.676634
-0.138843
-0.130953
0.312566
-0.479857
-0.327490
0.247976
0.584691
0.102484
0.563872
-0.521356
-0.003309
0.054918
-0.658134
-0.117411
0.186828
0.451907
-0.207925
-0.223115
-0.293903
0.204767
0.581686
-0.426909
0.093749
-0.481250
-0.615515
-0.531248
-0.279217
0.107457
-0.187509
-0.468638
-0.969568
-1.004464
-0.283546
-0.433063
-0.180584
0.051170
0.165772
0.310713
0.273923
0.146107
0.929533
0.207600
0.001087
-0.066362
-0.501826
0.174962
0.664285
0.569880
0.344197
0.734959
0.079265
0.525882
0.250611
-0.245692
-0.417030
-0.324078
-0.638724
-0.615872
-0.098519
0.159606
-0.923885
-0.977876
-0.683305
-0.489744
-0.308452
0.260254
-0.267953
-0.255826
-0.006464
0.035977
0.562737
0.492093
0.442336
-0.529273
-0.084703
0.050023
-0.442765
0.102877
0.341251
-0.138025
0.276301
0.625333
-0.117892
0.182501
0.585554
0.520435
-0.166911
0.135847
-0.372366
-1.177468
-0.648858
-1.227349
-0.735153
-1.053385
-0.890680
-0.583619
-0.088686
0.215314
0.236464
-0.205459
0.528001
0.213792
0.402305
0.207526
0.189730
0.255761
0.292586
0.031849
-0.027908
0.164471
-0.104934
0.380355
-0.396907
1.157746
0.152218
-0.012038
0.186185
0.410803
-0.137356
-0.952708
-0.221146
-0.850017
-1.163083
-0.704051
-0.863826
-0.551295
-0.619323
-0.465519
0.180748
-0.513125
-0.510586
0.189211
0.142740
-0.010781
0.431432
-0.256890
0.570329
-0.329869
-0.416889
0.122685
-0.541736
-0.445144
-0.267991
0.094986
-0.075692
0.157489
0.420171
0.499982
0.847164
0.141573
0.354408
-0.406433
-0.475292
-1.547892
-1.238579
-1.202007
-1.718272
-0.737750
-0.576743
-0.368771
-0.394369
-0.114636
-0.163447
-0.497957
-0.214886
-0.103392
0.276618
-0.399330
0.026968
0.238567
0.221117
0.658595
0.668732
0.114431
0.266269
0.168195
-0.578107
-0.184141
0.942779
-0.153838
0.358474
0.055240
0.148620
0.096825
-0.602719
-0.915818
-1.190393
-1.056399
-0.375239
-0.798578
-0.010039
-0.000583
-0.440045
-0.619860
-0.382364
0.017373
-0.276618
-0.380012
0.457858
0.470628
0.123193
-0.404866
0.054988
0.341205
0.732147
-0.084934
0.502142
-0.093902
-0.210957
-0.580114
0.643201
0.120759
0.724401
0.320973
0.498689
-0.279412
-0.953230
-1.538221
-1.326780
-1.852805
-1.011128
-0.384684
0.058176
0.077070
0.212463
0.472229
-0.183674
-0.081868
0.211905
0.207455
0.119218
-0.263507
0.307706
-0.491307
-0.266797
-0.148128
0.451141
0.418123
-0.419024
-0.217992
-0.465898
0.210972
-0.194311
0.199501
-0.299675
-0.419702
-0.751782
-0.855608
-1.652831
-1.643111
-1.628926
-1.305800
-0.169436
-0.227202
0.543164
-0.060212
0.092271
-0.131591
0.151516
0.463565
-0.458112
0.437558
0.161191
0.171395
-0.379953
-0.019660
0.276341
0.091124
-0.158744
0.174627
-0.624668
-0.277521
-0.104619
-0.312496
0.318357
-0.198118
-0.323866
-0.486204
-0.664391
-0.814900
-1.641198
-2.245495
-1.010685
-1.344109
-0.139712
-0.076243
0.273357
0.008806
0.156483
0.173303
0.377750
0.290496
-0.297573
-0.170520
0.075067
-0.690525
0.275733
-0.131633
-0.358356
0.159800
-0.072035
-0.121399
0.429164
-0.337979
0.120208
-0.279310
-0.208732
0.044423
-0.559547
-0.100303
-0.715076
-1.083463
-0.877997
-1.534664
-0.361441
-0.927006
0.170765
0.971443
1.133613
0.187124
0.184893
0.420689
-0.113343
0.006290
-0.458876
-0.204506
0.185842
0.281369
-0.121937
-0.034331
0.264997
0.175973
0.244641
0.076754
-0.135916
0.296445
-0.682561
0.224121
-0.041198
0.398432
-0.234332
-0.453017
-0.455909
-1.280562
-0.392584
-1.000131
-0.546056
-0.060059
0.658308
1.327968
0.468046
0.783569
0.106422
0.763061
-0.003026
0.410334
-0.355682
0.056102
-0.401063
-0.116045
0.372360
-0.200282
-0.047548
0.006943
-0.757997
-0.258801
-0.693084
-0.061346
-0.058982
-0.437073
-0.515231
-0.334100
-0.906372
-0.239940
-0.307991
-0.471569
-0.090064
-0.632108
-0.025712
0.267998
0.810029
0.515739
0.924861
1.205095
0.806960
0.749773
0.587623
-0.241368
-0.586719
-0.307119
-0.297579
-0.271244
-0.228477
-0.219376
-0.478616
-0.630512
-0.948666
-0.513912
-0.118672
0.091127
-0.131234
-0.436341
-0.259319
0.125495
0.086398
-0.149520
0.180311
0.532122
0.106852
-0.200429
0.168811
0.317762
0.114960
0.788863
0.767199
1.180859
0.940521
0.322450
-0.046781
-0.084868
0.121590
-0.659362
-0.753301
0.135128
-0.253695
0.095539
-0.697346
0.095507
-1.037511
-1.013493
0.080958
-0.236584
-0.635668
-0.510386
-0.768383
-0.245186
-0.685248
0.384451
-0.400906
0.001984
0.230991
-0.163586
0.874500
0.262949
0.110192
0.328175
0.595163
1.019070
0.097086
-0.221406
-0.203842
0.490152
-0.193656
-0.490142
-0.471462
0.178029
-0.397956
-0.145747
-0.546118
-0.144824
-0.431816
-1.047532
-0.993961
-0.390614
-0.342505
-0.420676
-0.806552
-0.004536
-0.370181
0.289892
-0.140393
0.295062
0.495745
0.419384
0.383568
0.389624
0.779144
0.977606
0.607491
0.623125
0.605148
0.383290
0.449477
0.195392
-0.160950
-0.676402
-0.048423
-0.334955
-0.451744
-0.522895
0.062829
-0.813342
-0.775836
-0.089221
-0.959834
-0.612137
-0.291427
-0.982950
-0.547840
-0.814516
-0.963655
-0.364408
-0.582072
0.136022
0.255157
0.462483
0.755753
0.624424
0.616125
0.923179
0.375859
0.646969
0.309417
-0.288034
0.387525
0.246962
-0.450337
0.099334
-0.726816
-0.622818
-0.072427
-0.616866
-0.652642
-0.532914
-0.359887
-0.789228
-0.414335
-0.639372
-0.870451
-0.212293
-0.313339
-0.806251
-0.049292
-0.132944
-0.215807
0.116817
0.151401
0.034873
-0.078199
-0.125360
0.832298
0.803919
0.088150
0.481149
0.191617
0.071923
-0.112896
0.233142
-0.323089
-0.280780
0.100716
0.290629
-0.120945
-0.242431
0.489610
0.330649
-0.687980
-0.266247
-0.021788
-0.222824
-1.045456
-0.206757
-1.292351
-0.817975
-1.177500
-0.277108
0.000509
0.515870
0.122793
0.563742
0.562949
0.792634
1.174280
1.064015
-0.097775
-0.256032
-0.093044
-0.044398
-0.321695
0.073992
0.267253
-0.092301
0.257385
-0.051947
0.304781
-0.641678
-0.784851
-0.301553
0.131600
-0.042379
0.009109
0.057533
-0.755795
-0.361385
-0.419792
-0.999862
-0.704402
-0.075861
-0.495157
-0.018257
0.564659
0.256211
0.581321
0.010347
0.845451
-0.187050
0.353964
0.259968
-0.605130
0.262422
-0.490174
0.165604
-0.371399
0.471952
0.295411
0.251352
0.143443
-0.275719
0.144035
0.322401
-0.415942
-0.071359
0.084765
-0.502714
-0.447660
-0.099435
-0.667884
-0.575224
-0.403774
-0.478222
0.423885
0.242151
0.215916
-0.386106
-0.087731
-0.209536
0.328135
-0.583998
0.078561
-0.557047
-0.274610
0.065103
-0.280204
0.228596
0.158835
0.567685
-0.003252
0.153644
-0.291594
-1.060110
0.237501
-0.555842
0.561444
-0.474985
-0.329388
0.249292
-0.066337
0.086810
-0.160239
-0.476197
-0.067298
-0.224581
-0.361021
0.716096
-0.114925
0.387384
0.438347
-0.185716
0.239043
-0.064613
-0.134997
-0.240938
-0.843244
0.047209
-0.321529
-0.349117
0.402258
0.509008
0.421927
-0.273247
-0.253043
-0.888560
0.202985
-0.378195
0.359032
-0.117959
-0.419204
0.064753
-0.258416
-0.289555
-0.062305
-0.358078
-0.148055
-0.100818
-0.306110
-0.262330
-0.511984
0.047046
-0.080703
-0.667621
-0.154432
-0.568364
0.081302
-0.175937
-0.855042
-0.097567
0.598245
0.392738
-0.022098
-0.539018
-0.028188
-0.440449
0.332655
-0.412896
0.205055
-0.377152
0.238860
-0.185606
-0.238167
0.068895
0.054879
0.220068
-0.344044
-0.467744
0.042978
-0.078435
-0.178358
0.066787
0.174766
0.045674
-0.527101
-0.143815
-0.507880
-0.668357
-0.258651
-0.722773
-0.798195
-0.670504
-0.264335
-0.244227
-0.045830
-0.006048
-0.691152
-0.479417
-0.337109
0.144079
0.377430
0.403734
0.069268
-0.182257
-0.537428
-0.246705
-0.074655
-0.251327
0.133775
-0.019095
-0.388098
-0.218017
-0.065468
0.121275
-0.098033
-0.088936
-0.679321
-0.391936
0.321779
0.067225
0.308950
-0.880144
-0.641714
-0.151587
-0.039843
0.131708
0.012988
-0.079119
0.057550
0.296439
-0.000008
0.416428
0.726301
0.112596
0.345155
0.011593
0.069060
0.126439
0.528031
-0.173753
0.357509
0.251718
0.495680
0.382274
-0.134626
0.608314
-0.371306
-0.353544
-0.587007
0.262269
-0.268935
0.243128
-0.296730
-0.667362
-0.810778
-0.301228
-0.338390
0.266307
-0.501866
0.109225
0.295837
-0.171965
0.637963
0.664774
0.681008
0.256494
0.245954
0.103761
0.307904
0.700181
0.364093
-0.404054
0.419969
-0.121054
0.239776
-0.142823
-0.227715
-0.303802
-0.220905
-0.277373
-0.682032
0.298485
-0.381610
0.062432
-0.046353
-0.496069
-0.323469
0.006854
-0.172151
0.308081
0.397190
0.063905
-0.257813
-0.555749
0.488637
0.336653
-0.206818
-0.170058
-0.573559
-0.079498
-0.059177
-0.533662
-0.475577
0.110718
-0.159592
-0.225146
-0.340386
0.276610
-0.042006
0.153369
-0.356529
-0.189602
-0.225015
0.466799
0.150587
-0.374097
-0.481378
0.132705
0.497911
0.149377
-0.314771
0.488491
0.149920
0.010903
0.216323
0.019425
0.582717
-0.271239
-0.230991
0.243550
-0.349042
0.111613
-0.390557
-0.242096
-0.166608
0.093473
-0.190030
-0.209605
0.355632
0.137656
-0.459003
-0.785688
-0.346678
-0.634093
-0.732496
-0.436744
0.066121
0.538254
0.320764
-0.131631
-0.178571
0.377897
-0.102097
0.086567
-0.069186
0.285258
-0.008852
0.114944
-0.211084
-0.293874
0.059602
-0.498384
0.283894
-0.176501
-0.378517
-0.408277
-0.249552
0.081371
-0.306766
-0.314878
0.363576
0.031562
-0.347881
-0.193963
-0.682956
-0.152912
-0.137895
-0.303828
-0.279776
0.562092
0.455937
0.495470
0.064349
0.557103
-0.122044
0.027181
0.433069
-0.257466
-0.348193
0.407749
0.522506
0.361023
-0.358865
0.314211
0.096072
-0.305598
-0.441263
-0.040749
-0.240261
-0.130816
-0.058097
0.167395
0.365814
-0.367580
-0.343821
0.110412
-0.454596
-0.218596
-0.667800
-0.185886
0.010064
0.275243
0.106675
0.129951
0.402603
0.144188
0.419148
-0.216422
-0.235607
0.466220
-0.029922
-0.148872
-0.069814
0.010917
-0.443650
-0.303578
0.439119
-0.208780
-0.568875
-0.161673
-0.221701
-0.491293
-0.267614
-0.239238
-0.083741
-0.491046
-0.240857
-0.188188
-0.860354
-0.737666
-0.738125
-0.148936
-0.216753
-0.349610
-0.114250
-0.046081
0.317288
-0.444833
0.099012
-0.071389
0.150720
-0.078100
-0.454647
0.382935
0.050652
-0.550922
-0.196840
-0.253213
0.406416
0.637226
0.063299
-0.551254
-0.801646
-1.085425
-0.847183
-0.750342
-0.390335
0.096953
-0.208785
0.425518
-0.123084
-0.516956
-0.060887
0.191741
-0.196718
0.056367
0.053239
0.288650
0.282558
0.591428
0.252789
0.568838
-0.091457
-0.178710
-0.272708
-0.451685
-0.540173
-0.204238
0.042168
0.289902
0.336088
0.098784
-0.442240
-0.406265
-0.261285
-0.815224
-0.498187
0.084688
0.546388
0.443952
0.156630
0.249749
-0.161116
-0.424091
0.186732
-0.555495
-0.060159
0.235472
0.268781
0.175309
-0.009634
0.579869
0.165630
0.364555
-0.542905
-0.228816
-0.353841
0.532378
0.413201
-0.275491
0.405944
0.322685
0.549052
-0.154271
0.519302
-0.456377
-0.437095
-0.842081
-0.613524
-0.215149
0.531189
0.422673
0.401245
0.372247
-0.060014
-0.346169
-0.071649
0.373585
0.242887
-0.356766
-0.141192
0.391270
-0.242376
-0.412128
0.291945
0.404197
-0.167879
0.102631
-0.338975
-0.015917
0.194790
0.010087
0.052756
0.483677
-0.587147
-0.025254
-0.160738
-0.696322
-0.776027
-0.230837
-0.299657
-0.432828
0.457767
0.661252
0.399724
0.359118
0.665420
-0.319385
-0.418878
-0.007394
0.148691
0.187251
-0.148884
0.010618
0.347555
0.351395
0.140322
-0.116782
-0.740856
0.349189
-0.066889
0.019154
0.538938
-0.009110
0.752294
0.462474
-0.240004
-0.038155
-0.445958
0.179661
0.003990
-0.428553
-0.480209
0.608076
-0.161298
0.684756
0.169146
-0.007425
0.165033
-0.558461
-0.313216
-0.174281
0.152964
0.159892
-0.155113
-0.213665
-0.253133
-0.213522
-0.153206
-0.526900
-0.596743
0.326467
0.333689
-0.166535
0.291026
0.094121
0.114695
0.372070
0.313383
-0.546147
-0.028689
0.119307
-0.494014
0.071053
0.127579
0.436008
0.017635
0.461889
0.535895
0.762601
-0.225571
0.208507
-0.044666
-0.518802
-0.564804
-0.538223
0.368408
0.127501
-0.036041
0.408472
-0.298785
-0.277990
0.050832
-0.244290
-0.232367
0.239224
-0.277483
-0.144599
-0.073578
-0.178120
-0.372105
-0.086496
-0.499740
0.102569
-0.562947
-0.417580
-0.749861
-0.211431
-0.233086
0.425191
0.434129
0.691478
-0.396742
-0.563933
-0.142380
0.126711
-0.567398
0.429754
0.005116
0.513052
0.453526
-0.377686
0.360991
0.134680
0.177802
0.060827
0.423931
0.011939
0.459852
0.028547
0.282905
0.427344
0.375131
-0.233575
0.061831
0.219087
-0.588763
0.100797
-0.293698
-0.063776
-0.383343
0.542511
0.495726
0.460253
-0.262015
-0.591570
-0.655028
-0.074237
-0.492037
0.331289
0.407672
0.179205
0.221143
-0.037404
0.446603
-0.450096
-0.155934
0.038699
-0.196367
0.050564
-0.036812
0.000165
0.556366
0.081051
-0.228824
-0.322222
-0.108007
-0.331059
0.219737
0.439984
0.029474
0.173015
-0.031377
0.145650
-0.006857
0.397644
0.651272
-0.443390
-0.640966
0.248488
-0.209788
0.599456
-0.070453
0.424637
-0.353287
0.227723
-0.176734
-0.167629
-0.457002
-0.317541
0.119390
-0.412987
-0.165936
-0.090161
-0.227943
0.390071
-0.488621
0.326325
0.633693
0.427155
0.423110
-0.265474
-0.098642
0.472762
0.283245
0.469275
0.115274
0.456307
0.194608
0.053814
0.275518
-0.081358
0.566923
0.036904
0.481229
0.560862
-0.204282
-0.195551
-0.405017
-0.169149
0.266011
-0.309729
0.126913
-0.141457
0.445555
0.389449
-0.248309
0.539810
0.157862
0.151127
-0.157592
0.197900
0.368238
0.492225
0.453094
-0.544478
0.760356
0.352789
0.002879
0.602867
-0.081589
-0.359325
-0.431129
0.007468
0.530595
0.869688
-0.266455
0.239715
0.026180
-0.162692
-0.122501
-0.090219
-0.325356
-0.050896
0.114134
0.294805
-0.073761
0.372462
0.551177
-0.119056
0.534868
-0.100324
0.482002
0.758304
0.461365
0.723457
-0.309302
0.253025
-0.054628
0.561840
0.397958
-0.036253
0.572062
0.051450
-0.130381
0.863383
0.249649
0.083946
-0.435691
-0.174845
-0.674158
-0.245968
-0.531211
-0.447708
-0.498826
0.484625
-0.098938
-0.195635
-0.103980
0.491207
-0.070755
-0.099736
0.447835
0.077529
0.571222
-0.011249
0.344392
-0.084243
-0.065168
-0.012636
-0.151181
-0.224310
0.693989
0.161259
0.448449
-0.458556
-0.097471
0.535834
0.707349
0.277113
-0.153958
0.084986
-0.264744
0.290027
-0.103698
-0.180899
-0.325968
0.137794
-0.455981
-0.073254
0.308097
0.056096
0.178886
-0.033784
-0.176608
0.150327
0.358114
0.505663
0.142752
-0.332472
0.232355
0.480660
-0.071443
-0.185780
-0.640304
0.159282
-0.034192
0.375347
0.045351
0.192587
-0.011477
0.060128
-0.042195
0.110805
0.091661
0.076447
-0.177562
0.068257
-0.222749
-0.134072
0.507227
0.265040
0.467483
0.220325
0.328799
0.007797
-0.063338
0.225955
0.515309
0.715862
0.354741
-0.385629
-0.105931
-0.145034
0.577859
-0.320900
-0.132771
-0.286412
0.106593
-0.496273
0.477067
0.153102
0.319678
-0.118736
-0.549332
-0.709546
0.041801
0.385102
-0.440907
-0.139806
0.162240
-0.072512
0.307626
-0.024889
0.231635
0.242605
0.340345
0.217770
0.886854
0.457280
0.825701
1.087102
0.450548
0.061429
-0.457040
0.001309
0.006618
-0.618843
-0.645255
-0.628179
-0.330911
0.075878
0.255320
0.025523
-0.560597
0.366849
-0.159961
-0.191645
0.284744
0.196594
0.411029
-0.157369
-0.349393
-0.271139
-0.479769
0.309866
0.039653
-0.042124
0.205543
0.196816
0.392889
0.455267
-0.043792
0.032453
0.343115
-0.105324
0.436285
-0.744817
0.086625
-0.287932
-0.303644
-0.411487
-0.092746
-0.099326
0.221249
-0.315545
-0.072395
-0.271877
-0.398330
-0.461374
0.095621
-0.357708
0.349366
-0.159140
-0.234024
-0.024090
-0.155782
-0.107138
0.298763
0.061267
0.478044
0.522518
0.083140
0.340395
-0.043038
0.675087
0.307707
0.302111
0.354626
0.114078
-0.547773
-1.044410
-0.349601
-0.437675
-0.485533
0.018913
0.415140
-0.294368
-0.285787
-0.446372
-0.477041
0.353399
-0.394202
0.199432
0.081638
-0.413419
-0.371530
0.185342
-0.481781
0.283722
0.139618
-0.011479
-0.154622
-0.072099
0.458644
0.600066
-0.169605
-0.226846
-0.229665
-0.193661
0.122900
-0.375549
-0.510478
-0.635532
-0.830348
-0.629745
-0.298708
0.186719
-0.443559
-0.750825
-0.722985
-0.391618
0.037529
-0.236960
-0.003168
0.226927
0.199649
0.291600
-0.004915
-0.508812
-0.322951
-0.386722
-0.165131
-0.122532
0.280391
0.531043
0.044610
0.851215
0.413946
0.458976
0.041514
0.554379
-0.278203
0.112752
0.258893
-0.280838
-0.202533
-0.389416
-0.119587
-0.590338
-0.257448
-0.128160
-0.533882
-0.185671
0.334899
-0.122372
0.323792
-0.281692
-0.043616
0.271355
-0.213142
0.392902
-0.061080
0.349729
0.588054
0.707328
0.629238
-0.125032
0.803802
0.399270
0.698017
-0.244112
0.654448
-0.232891
-0.451364
-0.068492
-0.657546
-0.210215
-0.102135
-0.497337
-0.271158
0.178467
-0.199636
0.116191
-0.393521
0.180727
-0.498040
-0.416145
-0.002560
-0.314785
0.347534
0.297466
0.390349
-0.274303
-0.391009
0.474638
0.346055
-0.091141
-0.177350
0.386741
0.399361
0.115946
0.110068
-0.042607
-0.254665
0.065424
0.069426
-0.091824
-0.318578
-0.529755
-0.186619
-0.349926
-0.673869
-0.029092
0.256061
-0.346618
-0.590917
0.183346
0.315806
-0.186890
0.447369
0.282440
-0.298370
-0.478300
-0.256553
-0.227986
0.361403
0.554548
0.574393
0.166068
0.237479
0.280101
-0.243045
-0.085275
0.083943
0.308848
0.450435
0.075518
0.145296
-0.831978
-0.731543
-0.184648
-0.621075
-1.035119
-0.365618
-0.729713
-0.094745
-0.686010
-0.404712
-0.120377
-0.443614
0.191004
-0.496246
-0.194669
0.656224
-0.291016
-0.546763
0.459590
0.633318
-0.309603
0.437126
-0.153443
0.058363
-0.089787
0.116390
-0.323877
0.200518
0.139373
-0.234951
0.156856
-0.298771
-0.047729
-0.403804
-0.322324
-0.758020
-0.351330
-0.842831
-0.406274
-0.196962
-0.403413
-0.099618
-0.671616
0.022079
-0.533409
-0.372548
-0.128175
-0.197156
-0.419929
-0.214704
0.341863
-0.296462
-0.203292
-0.383569
0.261784
-0.227190
-0.712091
-0.476414
0.388265
-0.237509
-0.764486
-0.174334
0.071927
-0.500305
-0.639163
-0.924830
-0.091333
-0.070289
-0.221606
0.082386
-0.917978
-0.556942
-0.208222
-0.064055
-0.504468
-0.832954
-0.890507
-0.743213
-0.336166
-0.418540
-0.399133
-0.597275
0.077877
-0.175344
-0.157801
-0.141271
0.221181
0.095643
-0.362777
-0.367588
0.433109
0.392515
-0.328284
-0.566307
-0.452188
-0.233246
0.009409
-0.195411
-0.255497
-0.822473
-0.066392
-0.428044
-0.452086
-0.777542
-0.335128
-0.655156
-0.348615
0.043083
-0.647504
0.130195
-0.356193
-0.053286
-0.410177
0.075241
0.133176
0.499017
0.256807
0.105076
0.567379
0.123134
-0.299590
-0.308061
0.289390
-0.314507
-0.752679
-0.463578
-0.667960
0.346128
-0.075100
-0.513334
-0.444957
-0.513314
-0.083470
-0.099396
-0.736805
-0.288886
-0.328880
-0.327168
-0.209956
-0.871954
-0.643091
0.165945
0.564144
0.195813
-0.277728
-0.107988
-0.090434
-0.593705
-0.001352
-0.539349
0.110267
0.024862
-0.284865
0.033763
-0.008720
0.297533
0.089731
0.334761
0.564843
0.267922
0.421310
1.134979
0.718291
0.964495
0.141882
0.326043
0.851251
0.498628
0.700855
0.062857
0.618610
-0.094052
0.249490
0.025512
0.420479
0.444089
0.077445
-0.266772
0.487045
-0.536911
-0.251494
-0.539161
-0.049276
0.099528
0.004021
-0.357238
-0.063969
0.058483
0.173311
0.616136
0.189396
0.718346
1.153192
1.341202
1.325650
0.863420
0.959046
0.807231
0.827153
0.632878
0.895206
-0.241053
0.247637
-0.147963
-0.233601
-0.099287
0.357008
-0.172928
-0.396143
-0.406566
-0.050069
-0.219128
-0.329948
-0.087661
-0.202862
-0.178323
-0.742588
-0.833897
-0.188634
-0.120628
0.014093
-0.025880
0.863579
-0.176706
0.706634
1.073738
0.915570
1.323690
1.229492
1.754524
1.279857
0.586445
0.144682
0.494842
0.161440
0.568302
-0.386840
0.481191
-0.058774
-0.536116
-0.797316
-0.270952
0.270658
0.282420
-0.798578
-0.085570
0.419974
0.454715
0.132142
-0.378734
0.728508
-0.032731
-0.418691
-0.258393
0.679583
0.380092
0.376335
0.445300
0.621852
1.245356
1.359904
1.778739
0.858671
-0.274722
0.289284
-0.418307
0.154192
-0.591064
-0.492543
-0.263953
-0.261229
-0.337201
-0.325220
0.429314
0.351654
-0.159370
-0.341794
-0.087002
-0.291539
-0.090827
0.178238
-0.390633
-0.037903
-0.059313
0.012374
-0.716263
-0.299253
-0.323351
-0.181120
-0.035060
0.992344
0.471791
0.550525
0.871429
0.771209
0.328726
0.215059
-0.054979
0.477099
-0.350515
-0.047742
-0.200430
-0.645063
0.460759
0.090104
-0.151886
-0.324656
0.113224
-0.288454
-0.530642
-0.104787
-0.597253
-0.332881
-0.434391
-0.228073
-0.056860
-0.157257
-0.776413
-0.478732
-0.880467
-0.711516
-0.099453
0.052307
0.740488
-0.294800
0.454396
-0.589560
-0.746950
-0.891931
-0.253181
0.208883
-0.404697
-0.471239
0.009206
0.027175
0.268361
0.335176
0.444646
0.276628
-0.679275
-0.320783
0.120151
0.250139
-0.263670
0.116788
-0.870498
0.200106
-0.620989
-0.334890
-0.958755
-0.157036
-0.234890
-0.568182
-0.014651
0.802542
0.844797
0.326365
0.668902
-0.154110
-0.500265
-0.817151
-0.778991
0.057041
-0.197098
-0.295616
0.293014
0.156369
0.285568
0.475315
0.023872
0.064712
0.127421
0.067269
0.329948
-0.470201
0.111751
-0.178488
-0.785995
-0.027218
-0.738636
-0.863009
-1.280582
-0.927251
-0.666649
-0.338885
-0.068287
0.300305
1.236072
0.202425
0.760668
0.814950
0.144320
-0.482947
-0.839272
-0.990558
-0.652501
0.035282
0.272567
0.848743
0.720687
0.745605
0.174257
-0.194190
0.048541
-0.194141
-0.521854
0.151830
0.018297
-0.684095
-0.528954
-0.465280
-0.722045
-1.459903
-1.680062
-0.909310
-0.154116
-0.166772
0.648399
0.462129
1.673423
1.013058
0.665758
0.675509
0.417691
-0.457330
-0.579422
-1.031676
-0.847864
-0.751429
-0.361824
0.204830
0.718350
0.258393
-0.019621
0.137429
0.208770
-0.418654
-0.456925
-0.205914
0.380886
-0.184976
-0.327533
-0.939243
-0.849145
-0.916188
-0.967878
-0.573838
-0.278757
-0.003447
1.238869
0.038613
1.241470
0.909172
0.773296
1.061712
0.158269
-0.428373
0.097614
-0.381678
0.383714
0.421127
0.104766
0.651087
0.327822
0.229421
0.757615
-0.300429
-0.357513
-0.647601
0.051508
-0.265118
0.371646
-0.025372
-0.328406
-0.984992
-1.437687
-1.825680
-1.916810
-1.340918
-1.064302
-0.656411
0.147726
0.168972
0.177444
-0.063344
0.977967
-0.304171
-0.129923
-0.335728
-1.009110
-0.019886
-0.901043
-0.821126
-0.676912
0.449975
0.947958
0.743246
0.793465
0.338579
0.034082
-0.167117
-0.576355
-0.361706
0.322749
-0.390482
-1.224648
-1.163869
-1.482349
-1.542700
-2.105971
-1.260152
-1.152036
-0.864706
-0.661126
0.021162
-0.013095
0.434404
0.946841
0.097397
-0.334974
-0.504662
0.003423
-0.287753
-0.249412
0.096172
0.020739
0.015183
0.837800
0.508124
0.468301
0.125313
-0.113529
-0.299534
-0.440348
0.060891
-0.405427
-0.663446
-0.528414
-0.859419
-1.163778
-1.987441
-2.114141
-0.880961
-0.534679
-0.430758
-0.611915
0.496521
0.618214
0.336819
1.129018
-0.171530
0.143001
0.929209
-0.372146
-0.268650
-0.422875
0.257020
0.315088
-0.095773
0.656358
0.524671
-0.071618
0.531090
-0.148219
-0.179771
-0.635731
-0.161155
-0.436767
-0.648759
-0.023493
0.142618
-1.210057
-1.717877
-1.245434
-0.079182
-1.074830
-0.216631
-0.496559
0.033051
0.264491
0.534392
0.885307
0.735583
0.583275
0.554222
0.617142
0.168192
-0.132941
-0.082043
0.323937
0.605401
0.532699
0.622948
-0.062810
0.023361
-0.293959
-0.327354
-0.276039
0.365777
0.115793
-0.586561
-0.029878
-0.193772
-0.360869
-0.472582
-1.140287
-0.517570
-0.895231
-0.610711
-0.481736
0.408129
0.500006
0.308588
0.979773
0.991997
0.596257
0.752370
0.524337
0.221243
-0.208974
0.136777
0.321210
0.551039
0.850631
1.157222
-0.008028
-0.127787
0.392081
-0.541362
-0.217537
0.450472
0.512347
-0.213403
0.038646
-0.191849
-0.443279
-0.688879
-1.026274
0.077856
-0.706773
-0.566717
-0.516496
0.090671
-0.036885
1.262334
0.914267
1.167432
0.281966
0.186477
-0.379602
0.379266
0.118599
0.513593
0.104840
-0.214659
0.562585
0.644040
0.204301
0.076177
-0.011731
-0.112541
-0.459766
-0.136711
0.248572
-0.335364
0.388712
0.781923
-0.203522
-0.268757
-0.458530
-0.115335
-0.283336
0.219229
-0.498971
0.007141
0.188491
-0.082813
1.087690
0.755234
0.366586
0.745096
-0.066962
-0.306657
-0.119935
-0.208315
0.260208
-0.582266
0.372970
1.144570
0.196341
-0.087415
-0.398629
0.171484
-0.339523
0.794529
0.285691
0.052274
0.280564
0.343396
-0.038495
0.031478
-1.058812
-0.363125
0.093279
0.417613
0.255897
-0.112302
0.863945
0.764962
1.094725
1.187988
0.293626
0.294622
-0.335102
0.418040
-0.861710
-0.001662
0.397747
-0.258810
0.193186
0.737564
0.498843
0.332955
0.174121
-0.120732
0.413229
1.046284
0.797988
-0.122768
0.378435
0.611367
0.562627
-0.381208
-0.649320
-0.091859
-0.311214
0.360444
-0.660869
-0.054661
0.183780
-0.050565
0.243333
0.492862
0.272434
0.348351
0.718579
0.371451
-0.823257
-0.146928
-0.023466
-0.167359
0.172153
0.904871
-0.057913
-0.524834
-0.322402
0.651061
-0.048165
0.689966
0.819286
0.358170
0.652901
0.567823
0.420398
-0.647336
-0.267400
0.122369
-0.750812
0.345622
-0.450521
-0.243820
0.020378
-0.061963
0.364415
0.636114
0.123155
-0.030486
0.493915
0.137630
-0.311324
-0.301523
0.492581
0.585795
0.517632
0.077146
0.775219
-0.325581
0.733335
0.216749
0.083132
0.755227
0.094295
-0.203355
1.280548
0.703507
0.095968
-0.178424
0.056978
0.888039
-0.486322
0.391963
-1.124616
-0.129363
0.465450
-0.299711
0.156353
0.845454
0.421701
0.724712
0.439452
-0.349987
-0.490457
0.140390
0.410867
-0.122300
0.996456
0.599796
0.642203
-0.492684
0.515589
0.637104
0.203946
0.733017
0.551135
0.709333
0.454541
0.935217
0.738953
0.655796
0.037876
0.014924
-0.890623
0.190331
-0.746188
-1.280171
-0.333620
-0.198462
-0.371272
1.195804
0.541846
0.451296
0.377931
0.251803
-0.570190
-0.027427
0.336855
-0.067240
0.659133
0.585161
0.819815
0.303683
0.301214
1.015687
0.234012
0.175500
0.088891
0.658542
0.101139
0.789341
-0.861579
0.235529
0.370887
0.362998
-0.502156
-0.083401
-0.354542
-0.299048
-0.759527
0.970029
0.315776
1.037706
0.880269
0.286513
0.719866
0.156457
-0.448137
-0.776369
0.615465
-0.268403
-0.167505
0.232923
-0.137742
-0.320645
0.247234
0.879093
0.619145
0.519372
-0.321772
0.196295
0.569182
0.275828
-0.207466
-0.133791
-0.113283
0.037790
0.201497
0.328752
-0.147939
-0.644404
-0.552869
0.107756
-0.152859
1.278636
0.594644
0.160068
0.681401
-0.055022
0.229751
0.303336
0.520045
-0.058499
-0.346066
0.016124
0.137025
0.414603
0.667737
0.321419
0.150985
-0.134440
0.046367
0.614547
-0.097397
0.400447
1.142183
-0.106512
0.427638
0.189445
0.034937
-0.384480
-0.543014
-0.938809
-0.857321
0.021940
0.287961
0.638575
0.422981
0.153354
0.085268
-0.319908
0.072837
0.097376
0.429542
-0.028900
-0.212686
0.501799
-0.564360
-0.301479
0.381186
0.497475
0.535273
0.127727
0.409670
0.401404
0.418765
0.743372
0.725936
0.124797
0.559299
0.182169
0.337927
-0.105658
-0.346746
0.323104
-0.119063
0.459006
-0.042000
0.453288
-0.456316
-0.017428
0.078965
0.214037
-0.027776
0.013943
0.326302
0.362705
0.040527
0.123087
-0.125979
-0.625677
-0.068059
-0.173711
0.027858
-0.439308
-1.221210
-0.368261
-0.018170
-0.015881
0.070081
0.315217
-0.221674
0.100700
-1.102606
-0.668525
-0.326990
-0.736096
-0.886961
-0.680179
-0.366691
-0.420149
-0.388326
-0.282039
-0.510564
-0.514945
-0.084383
0.112357
0.873799
-0.387465
-0.329529
-0.694240
-0.307977
-0.306944
0.011264
-0.138808
-0.068566
-0.774707
-0.654997
-0.605758
0.118764
0.885773
0.504971
-0.311696
-0.294490
-0.525623
-0.519813
-0.294514
0.234721
-0.580613
-0.898606
-0.399687
-1.166663
-0.324557
-0.801094
-0.426469
-0.912971
-0.057173
-0.352325
0.660452
-0.022467
-0.037066
-0.192520
0.259327
-0.579478
-0.496075
-0.092405
-0.696671
-0.299230
-0.612530
-0.404560
0.000161
0.778608
0.926539
0.540912
-0.058518
0.160217
-0.274888
-0.866980
-0.929546
-0.161310
-0.265545
-0.338976
-0.622780
-1.233044
-1.223074
-0.815736
-0.601431
-0.103684
0.281635
-0.295259
0.099230
0.908453
0.451193
-0.265773
-0.568512
0.257902
-0.024241
-0.541162
-0.469232
-0.548633
-0.523687
0.444224
0.528664
1.017963
1.069119
1.088713
-0.011353
0.497494
0.183834
-0.792848
-0.269740
-0.778286
-0.934841
-1.249750
-1.227769
-0.824816
-1.470304
-1.256937
-1.091009
0.026396
0.110274
0.674629
0.317641
0.990031
0.754360
0.643012
0.326469
0.764856
0.538718
-0.214996
-1.100806
-0.733821
-0.514467
0.255434
0.464315
0.538068
0.283412
1.396467
0.354325
-0.237952
0.679124
0.191770
-0.549792
-0.714181
-0.711301
-1.450237
-1.280576
-1.779781
-1.159182
-1.434614
-0.407604
-0.584753
0.201121
0.017574
0.450475
0.792890
0.851101
0.923214
-0.157311
0.130093
0.237819
0.013898
-0.106894
0.350871
0.498183
-0.210897
0.111287
-0.125545
0.383031
0.574932
0.301738
-0.370718
-0.062590
-0.165402
0.110783
-0.165280
-0.705221
-1.216692
-0.916137
-0.971245
-1.452364
-0.901471
-1.000101
-0.552225
0.366237
-0.031480
0.535676
0.797000
0.572075
0.094635
-0.131315
0.129814
-0.371213
0.174115
0.054142
0.336531
0.399343
1.365503
1.367336
0.759992
0.690778
0.391901
1.027917
0.620594
0.434869
-0.696740
-0.374615
-0.365138
-0.378769
-0.352521
0.046487
-0.592839
0.373991
-0.221806
-0.329692
-1.085243
-1.041100
-0.601699
-0.704382
-1.018209
-0.359213
0.040718
1.257586
0.574611
0.823762
0.963104
0.405284
0.831220
-0.021243
1.031983
1.164715
0.781166
0.591943
0.447221
-0.293237
0.305679
-0.163409
-0.631412
-0.296293
-0.059431
-0.063552
-0.830514
-0.429720
-0.537051
0.478524
-0.005256
-0.744291
-1.445961
-1.291248
-0.349278
-0.709651
-1.169838
-0.310589
-0.375968
1.346481
0.886465
0.307221
0.322569
0.084681
0.144776
0.043023
0.315657
0.581971
1.151965
-0.513377
-0.391393
-0.753896
-0.485843
-0.819807
-1.345475
-0.468676
-0.833577
-0.666743
-0.619735
0.126097
-0.642559
-0.500855
-0.385850
-0.545333
-0.834233
-1.489784
-0.854270
-1.625269
-1.791226
-1.120792
-1.030128
0.322073
0.299632
-0.274313
0.173911
0.244360
-0.122614
0.765775
1.308850
1.552252
1.592122
0.740020
-0.572464
-0.384890
-0.399455
-0.930062
-0.510756
-0.654497
-0.096064
-0.016083
0.300242
-0.040321
-0.874906
-0.413727
0.107572
-0.310400
-0.592332
-1.005636
-0.251206
-1.379670
-1.648140
-1.063573
-0.815457
1.179657
0.377680
-0.261773
-0.216658
-0.779938
0.035606
-0.663790
-0.202237
1.207138
0.451939
0.778170
-0.724868
-0.500593
-0.240988
-0.360525
-0.357990
-0.753512
-0.476222
0.455848
-0.349364
-0.620430
-0.525400
-0.148075
-1.057055
-0.292907
-0.071218
-0.393267
-1.369869
-0.593779
-0.813199
-0.698676
0.248697
0.586862
-0.396699
-0.548524
-0.452171
-0.293830
-0.240952
-0.022864
0.162954
0.906152
0.937535
-0.349287
-0.514913
-0.519421
-0.811743
-0.174459
-0.184601
-0.296526
0.482757
0.660300
1.003967
0.219456
0.161515
1.087941
0.927657
0.181705
-0.016590
-0.646970
-0.036514
-0.441191
-1.280431
-0.321315
-0.677083
-0.205188
-0.272467
-0.495753
0.288325
0.115333
-0.198091
-0.340742
0.449710
0.793203
1.066373
-0.341500
-0.478582
0.014220
-0.149076
-0.352376
0.074722
0.386790
0.681224
0.582926
0.840860
-0.092217
0.104028
0.125531
-0.124474
-0.242739
-0.087201
-1.030255
0.006047
-0.684254
-0.196981
-0.317940
0.170165
-0.673083
-0.275470
-0.896099
-0.643405
-0.907269
-0.068859
0.529581
0.610210
0.353158
0.905535
0.325288
0.444858
-0.531471
-1.239281
-0.706591
0.239575
0.177172
0.588747
1.054839
1.415347
0.400791
0.192226
0.393987
-0.291063
-0.039460
-0.315756
0.251651
-0.676728
0.078172
-0.600944
-0.735283
-0.440426
-0.170956
-0.924543
-0.943097
-0.431124
-0.937628
-0.159666
-0.513268
0.362197
0.695236
0.854875
0.596875
0.456897
-0.122821
0.404820
0.484812
-0.053663
1.643079
1.564516
1.541666
2.039730
2.124852
1.673405
1.056840
-0.469899
0.439090
0.483578
0.330655
-0.795908
-0.797448
-0.018636
-0.222722
-0.469627
-0.558442
-0.083670
-0.841459
-0.461028
-0.655019
-0.518137
-0.404007
-0.342918
0.137523
-0.257071
0.546698
-0.309466
-1.520797
-1.238576
-0.691413
-0.373948
0.595123
1.290625
1.992786
2.049246
2.310060
2.514118
2.898077
0.508089
0.655763
1.173598
0.824753
-0.003896
-0.783808
-0.165639
-0.849261
-1.248516
-1.335462
-0.672837
-1.208270
-0.410804
-0.320892
0.203621
-0.593129
-0.665439
-0.744678
-0.572625
-0.591464
-0.739834
-0.559657
-0.645081
0.271816
0.256992
-0.129701
1.308856
1.751917
1.766658
0.977599
0.923194
1.845713
0.613412
1.632545
0.585664
0.995765
-0.864133
-1.441181
-0.754011
-1.252286
-0.315381
-0.420026
-0.660873
-0.466685
-0.113365
0.138207
-0.474094
-0.572829
0.000548
0.046540
-0.087145
0.375618
-0.840052
-0.760558
-0.692791
-0.944091
-0.843369
0.024605
1.730514
1.694040
2.867277
2.972929
2.442358
1.947796
1.492281
1.998258
1.638788
1.003571
-0.313438
-1.354188
-0.953666
-0.893020
-1.650751
-0.426434
-0.555420
-0.919835
-0.037531
0.336138
-0.602440
-0.700854
-0.601031
-0.485708
-0.581465
0.065583
-0.385373
-0.990761
-1.077766
-1.225816
-1.108793
0.114397
0.820819
0.776046
0.442126
0.526070
1.424383
1.228959
1.294034
2.124162
1.127683
-0.233524
-1.169986
-0.654255
-0.760216
-0.442892
-0.821123
-0.880255
-0.791571
-0.029395
0.268031
-0.241910
-0.656905
-0.258118
-0.008752
-0.078822
-0.833681
-0.401112
-0.953324
-0.890540
-2.110438
-1.642216
-0.624326
-0.236773
0.553961
0.260764
0.328825
0.714212
0.510128
1.817539
1.017307
1.098132
-0.737437
-0.811738
-0.715385
-0.872957
-1.088145
-0.089262
-0.835469
-0.469983
-0.016633
-1.102145
-0.422764
-0.355834
0.119248
-0.796578
-0.394070
-0.441143
-0.269726
-0.649083
-0.908743
-1.379643
-1.450553
-1.313510
-0.935519
-0.346612
0.420610
0.366866
0.100966
0.889402
0.692642
1.212336
0.546624
0.395859
-0.292319
-1.462806
-0.689013
-0.067874
-0.870068
0.295014
-0.805098
0.094377
0.475033
-0.512452
0.444018
-0.352832
0.035886
-0.574740
-0.263631
-0.822221
-0.244028
-1.105596
-0.970742
-1.554147
-1.495577
-1.780245
-0.059611
0.857082
0.541531
-0.236457
0.468758
-0.252223
0.318109
-0.078644
-0.158422
-1.232566
-0.444551
-0.923212
-0.543578
-0.151141
-0.446588
0.249485
-0.216626
-0.771303
0.500213
-0.256925
-0.300219
-0.320982
0.136365
-0.786072
0.320633
-1.007369
-1.390426
-0.750412
-0.917018
-1.866952
-1.681003
-1.084326
-1.622853
-1.068923
-0.378727
-0.732540
-0.135684
-0.559728
-1.258225
-0.544285
-0.988813
-0.853714
-1.032163
-1.754458
-1.142614
-0.745443
0.110772
-0.036403
0.235047
-0.393081
0.671975
0.163776
-0.030282
-0.233181
0.018513
-0.211043
-0.218845
-0.172733
-1.051765
-0.842065
-0.851082
-1.381421
-0.987195
-1.456428
-2.276692
-0.475523
-0.352029
-1.174242
0.183788
0.298784
-1.200353
-0.028448
-0.452129
-0.848866
-0.655727
-0.967897
-1.073706
-0.727202
0.295634
0.289249
0.252205
0.040851
0.629812
-0.165274
0.229557
-0.363285
0.049065
-0.364087
-0.325372
-0.768698
-1.310348
-1.058795
-0.871763
-1.219274
-0.632357
-0.581479
-1.100529
0.019495
0.016583
-0.492595
-0.564621
-0.504053
-1.291615
-0.197810
-0.261510
-0.608316
-0.809102
-0.750047
-0.776131
-0.298855
0.201223
0.083835
0.128258
-0.114589
0.509077
0.440963
-0.004382
0.508059
-0.344388
-0.841953
-0.173410
-0.738655
-1.182273
-1.018373
-0.432122
-0.215412
-0.843171
0.326171
-0.640782
-0.655858
0.912282
0.112133
0.130079
-0.377785
-0.669858
-1.032919
-0.229213
-0.577003
-0.657548
-1.280959
-1.187083
0.389084
0.606866
0.662349
0.706079
0.560059
0.591286
-0.141261
0.229547
0.158972
-0.051079
-0.974019
-0.043414
-0.716291
-0.581985
-0.675261
-0.780014
0.495748
-0.211139
0.364183
0.691766
-0.562411
0.913024
0.392358
-0.255485
-0.049885
-0.786172
-1.616326
-0.936906
-0.364557
-0.527994
-0.562649
0.427679
-0.074347
0.860557
1.353542
0.745478
0.751977
0.395522
0.510503
-0.303338
0.607435
0.394915
-0.425420
-0.138902
-0.417815
-1.568184
-0.529211
-0.910263
-0.525663
0.806900
1.280728
0.048107
0.037468
0.465702
0.552094
0.456785
0.701182
1.011040
-0.188169
-0.135935
0.069170
-0.427774
-0.491310
0.636705
-0.393862
0.858295
0.828996
0.200644
0.365118
0.479415
0.507606
-0.049220
0.128577
-0.471185
-0.296883
-0.026912
-0.242355
-0.624950
0.692457
0.635017
1.069997
0.525406
0.504658
0.457168
0.865333
0.646637
-0.379126
-0.576923
-0.147113
0.153354
-0.550185
-0.576547
0.207700
-0.112329
-0.528237
0.941387
-0.184213
1.224621
1.301728
0.994540
0.711071
1.144081
0.001140
0.593978
0.067992
0.342130
-0.751836
0.081428
0.376203
-0.377042
-0.326846
0.816154
0.980694
1.257275
1.440479
0.623330
0.511965
0.328351
-0.300947
0.067950
0.512902
-0.575080
0.482204
0.479578
-0.202652
-0.669133
-0.173965
0.680105
0.390416
0.787028
1.908196
1.430816
1.026861
1.201166
0.062262
0.223575
0.868442
0.405348
-0.366934
-0.077365
0.712378
0.470859
-0.230732
0.053534
0.762751
1.309309
1.150290
0.299767
0.287348
0.157309
0.010233
-0.681947
1.120485
-0.314290
0.580970
0.851685
-0.246585
-0.048214
-0.229823
0.567539
1.432684
1.396011
1.035030
0.544858
1.050898
0.768956
0.146604
0.235098
0.226312
0.000359
-0.059078
0.377918
1.505106
1.377681
0.003322
0.618481
0.995170
1.234819
1.144598
1.059544
-0.510069
-0.181071
0.132515
-0.780426
0.370616
0.173588
-0.235099
0.269741
-0.347185
-0.161114
0.731393
1.680494
1.395526
0.643619
0.066434
0.416677
0.173109
-0.001152
0.435571
0.479176
0.401913
0.975059
0.293521
-0.731486
-0.041289
-0.982056
-1.114943
0.158238
0.304959
0.110311
0.908960
0.838573
-0.078545
1.192205
0.213378
0.826335
0.751580
1.464811
0.653029
0.476460
-0.246156
-0.076932
0.922002
1.304696
1.049664
1.102252
0.167029
-0.920676
0.449514
0.506015
0.725256
0.363506
-0.222269
0.093682
-0.361384
-0.056094
-0.869810
-0.909187
-1.905382
-0.862313
-1.343260
-1.265369
-0.589060
0.408406
0.075025
0.786528
-0.097358
0.171267
0.516035
0.560380
0.361036
-0.221944
-0.685093
-0.485531
-0.347338
0.597978
0.487648
0.912903
0.214828
-0.256406
-0.063418
-0.368993
0.214328
0.456835
0.098355
-0.399355
0.323858
-0.871244
-0.789771
-0.047440
-1.292442
-1.436802
-1.551436
-1.127594
-0.416649
-0.963091
-1.018630
0.865686
0.413317
0.146392
0.766030
0.988212
0.835555
0.424059
-0.723497
-0.635427
0.099256
-0.158969
0.638030
0.276941
0.180395
-0.203569
0.387817
-0.343114
0.293102
0.304834
0.415912
0.719512
0.257960
0.464024
0.321088
0.721664
-0.613346
-0.360864
0.518784
-0.211391
-0.434182
-0.299648
-0.326517
0.502838
0.060228
0.256713
0.757836
0.902513
0.987326
0.058202
-0.622752
0.366472
-0.401782
-0.532799
0.114477
-0.328000
-0.251847
-0.113985
0.559911
0.419436
0.045330
-0.103410
0.277002
1.145029
1.622093
0.718977
0.288045
-0.125929
-0.998524
-0.023675
-0.119215
-0.695953
-0.344633
-0.238203
-0.220868
-0.485582
0.056164
0.503254
1.556935
0.289196
0.791274
0.222975
0.055613
-0.161375
-0.201679
-0.523012
0.001375
-0.233668
-0.788331
0.408878
1.070725
0.297072
0.836530
0.854090
0.670654
0.814246
1.478866
0.311312
0.038690
0.702094
0.193710
-0.046810
0.397440
0.250707
0.437323
0.115648
0.072894
0.712094
0.756520
1.333989
2.046355
0.671722
1.916909
1.023746
-0.022044
-0.516554
-0.344645
-0.569199
-0.676380
0.227309
-0.345861
0.380355
0.996407
0.016276
-0.023562
0.095379
-0.092428
0.181968
0.493348
0.613925
-0.031708
0.565667
-0.213376
-0.540341
-0.549674
-1.173534
-0.815106
0.120120
-0.387984
0.346677
0.822290
-0.536355
-0.305482
-0.348500
0.282769
0.503186
0.598551
1.378747
1.006443
-0.346333
0.350946
0.527370
0.805652
0.817537
0.451365
0.621318
0.079522
-0.484522
0.187447
-0.248949
0.441712
0.031522
-0.040940
0.198089
0.401891
-0.983459
-0.886542
-1.131615
-0.660442
-0.603585
-0.885503
-1.250602
0.085414
-1.318542
-1.623543
-0.844868
-0.604971
-0.264489
0.528162
0.402724
-0.440987
-0.174855
0.122489
0.403759
0.295736
0.928521
1.180108
0.174641
-0.314288
-0.099475
0.527549
0.408726
0.634524
0.489722
-0.132127
0.081379
0.181296
-0.438599
-0.315182
-0.820076
-1.453581
-0.785693
-0.799545
0.112666
0.845817
0.211731
-1.131697
-0.761719
0.134579
0.649922
1.037944
0.740767
-0.504649
-1.357044
-1.117132
-1.439636
0.647978
0.456421
0.465847
0.991700
0.190686
-0.035689
0.193673
-0.121974
0.680055
-0.296101
-0.091652
-0.124612
-0.070556
-0.235023
-0.185055
0.335466
-0.334016
0.169154
0.129060
0.534049
0.585362
-0.456578
-1.176112
-0.280084
0.312561
0.297236
0.313151
-0.419060
-1.518948
0.271884
0.628024
1.212205
1.153353
0.858578
1.296019
0.994906
-0.421772
-0.150296
0.318752
0.392299
0.669019
0.820087
0.563400
0.054286
0.094504
-1.306492
-1.125563
-0.691981
-0.738200
-0.360319
0.686453
0.922130
1.696335
-0.011258
-0.112319
1.346339
1.423193
1.155524
1.360797
0.125400
-0.894115
-1.015909
0.455125
0.297581
-0.476501
-0.146899
0.762976
-0.298238
-0.006983
0.024791
-0.160192
0.135507
0.856588
0.958699
0.539088
0.380552
0.043882
-0.868137
-0.304289
-0.559973
-0.109920
-0.258705
-0.276971
0.387670
1.197228
0.721082
0.061200
1.310397
1.052890
0.670651
0.585811
-0.154767
-1.006953
-1.207104
-0.147897
-0.117961
0.380484
0.084958
-0.260418
-0.392525
0.083333
0.580117
0.091789
0.266409
0.496115
0.269327
0.066865
0.337897
0.024905
-0.154340
0.279323
-0.094240
0.396001
0.315239
-0.333435
0.446220
1.445474
0.765424
0.581764
1.020369
0.830517
0.130697
0.623687
0.243056
0.258283
-0.258210
-0.538003
0.161062
0.372133
0.601797
-0.115461
-0.846389
-0.023934
0.020027
0.665111
0.038260
-0.032383
0.312972
-0.059771
0.134998
1.228988
0.070613
0.530959
0.372068
0.475923
1.034937
1.231232
0.940682
1.014132
0.860520
0.481068
0.081309
0.576416
-0.605770
-1.294351
0.069547
0.359412
-0.185046
-0.394015
0.333387
-0.080466
0.530299
-0.741233
0.108451
0.217385
-0.222504
0.338886
0.251752
0.378259
-0.205548
-0.778273
-1.263326
0.267588
1.094410
0.537371
-0.267807
0.312424
0.658348
1.474818
0.536282
0.667401
1.362021
-0.201136
-0.120077
0.226942
0.223857
-0.707211
0.176860
0.715557
0.387283
-0.608034
-0.298241
-0.446182
0.280862
-0.458670
-0.816260
-0.230396
0.288583
0.913872
0.106638
0.435332
-0.745686
-0.886512
-0.786095
0.268067
1.258630
1.051453
-0.212901
-0.178640
0.502228
0.126339
-0.310308
0.807799
-0.515604
-0.606259
0.095960
0.512585
-0.373135
-0.734309
0.071368
0.844276
0.571698
-0.004130
-0.697791
-0.306312
0.019846
-0.770741
-0.159530
-0.651350
-0.450548
0.465109
0.673305
0.543245
-0.615799
-0.812636
-0.516905
0.405815
1.428217
1.159684
-0.157893
0.314903
1.253659
0.558409
0.158834
-0.151542
-0.736072
-0.835325
-0.878568
-0.810424
-0.047001
-0.382386
-0.116235
0.817645
0.287875
-0.199588
0.107054
-0.491452
-0.150199
-0.927429
-0.387416
0.067722
-1.070451
0.021214
0.536727
-0.236349
-0.323322
-0.587446
0.444282
1.297625
0.899136
0.176849
0.203464
-0.506149
-0.201996
-0.045631
-0.617467
-0.209001
-0.965395
-1.311630
-1.633376
-1.549017
-0.583559
-0.617735
0.711200
0.847806
0.389522
-1.001783
0.317259
-0.102350
-0.160900
-0.937903
-0.133960
0.170868
-0.931210
0.752432
-0.025393
-0.086741
-1.224343
-0.551296
-0.009919
1.115470
1.308284
0.143188
0.452113
-0.063280
0.718895
0.655251
0.121254
-0.430114
-0.662542
-1.067075
-2.044818
-1.756794
-0.859751
-0.467944
0.546302
0.625741
0.329692
-0.581379
-0.366759
-0.136584
-1.099920
-0.954988
0.141806
-0.250702
-1.275437
0.519778
0.348200
-0.425973
-0.571080
0.500705
0.876876
0.629062
0.742214
0.369421
0.318085
0.721423
0.921384
0.347456
0.347106
-0.983764
-2.145563
-2.595839
-2.912205
-2.474503
-1.080834
-1.294290
-0.657896
0.719051
-0.075462
-0.041109
0.894554
0.071926
-0.897553
-0.879270
-0.003492
0.130748
-1.185619
0.538624
-0.037992
-0.491969
-0.084018
0.513136
0.060132
0.222325
0.391893
-0.115010
0.541712
0.571411
0.703666
0.238761
-0.468669
-0.842294
-2.366235
-2.362512
-2.593887
-2.922576
-1.044279
-1.441787
-0.653881
-0.362631
0.434816
-0.078450
-0.246256
-0.490145
-0.439776
-0.894774
0.130884
-0.101661
-1.357754
0.630913
0.571896
0.242114
-0.321265
0.416139
0.150779
0.462780
0.029451
0.375055
-0.134470
0.597976
-0.217023
0.058675
-0.900762
-1.273152
-3.049233
-3.538414
-3.542337
-2.385522
-1.507614
-1.516682
0.085257
1.017116
0.983034
0.327695
-0.141291
-0.044085
-0.292314
-0.330615
0.943806
-0.342106
-1.144752
-0.187927
0.205063
0.371196
0.337047
-0.234798
0.393046
0.216951
-0.627872
0.136035
-0.108491
0.339139
0.631757
0.316833
-0.379763
-1.414355
-2.456979
-3.157013
-2.745849
-1.765281
-1.869330
-1.125748
0.353916
0.579867
1.137953
0.859568
0.014158
0.942676
0.616117
0.864275
1.064211
0.182206
-0.859771
0.570937
0.443135
-0.009501
-0.099443
0.365563
-0.422568
-0.027402
-0.062998
-0.665225
0.198490
0.593908
-0.363788
0.157978
-0.025770
-0.856768
-1.194767
-2.277455
-1.969684
-1.451441
-1.069515
-0.837130
1.122155
0.380105
0.710897
0.312738
0.317182
0.289226
1.086305
1.141515
0.904248
0.026877
-0.927865
0.241256
-0.122907
-0.470207
0.243698
0.466530
0.257712
-0.159504
-0.899349
-0.731885
-0.042812
0.727212
-0.070809
0.051621
-0.144207
-0.636217
-1.180868
-0.701757
-0.229681
-0.466519
0.515006
0.061869
0.815513
0.533924
1.223477
1.150228
1.189208
1.379981
0.727091
1.429867
-0.035647
0.196285
-0.255629
-0.056726
0.268326
0.362702
-0.101299
-0.090497
-0.024947
-0.042190
-1.007487
0.182777
-0.634004
-0.021787
-0.174113
-0.366346
0.245903
-0.082922
-0.415520
-0.868701
0.298474
-0.045306
0.520825
0.772384
1.020250
-0.410249
0.470833
1.059630
1.150482
0.576598
0.681333
1.311543
0.509851
0.373241
-0.428038
0.606593
0.112343
-0.180170
-0.399881
0.164683
0.049707
-0.542488
-0.664887
-0.240605
-0.379332
0.232740
-1.204728
-0.335324
0.853902
1.125082
1.073241
0.682134
1.038668
1.803894
1.367216
0.966443
1.880288
1.007697
0.683188
0.651711
1.507341
0.763843
1.032772
1.565293
0.391191
-0.102068
-0.164184
0.468556
0.511842
-0.314537
-0.752076
0.575749
0.171488
0.060689
-0.183934
-0.602967
-0.239216
-0.283590
-0.520258
0.506275
1.031364
1.609852
2.331961
2.144606
1.478575
1.671105
1.006334
0.808556
0.719876
1.082583
0.701437
0.917212
1.214315
0.410813
0.477836
1.599987
-0.119291
-0.109862
0.299972
0.922511
0.149220
0.309838
-0.357557
-0.200041
-0.277682
-0.473706
-1.063074
-0.098871
-1.372215
-0.673163
-0.880958
0.602256
0.245615
1.200000
1.980757
2.280504
1.493738
2.191029
2.215202
1.349016
1.940097
1.295296
2.203146
1.058747
0.957489
0.875894
1.064629
1.597481
0.063763
-0.354580
0.083723
0.047910
0.085768
-0.211169
0.091713
-0.541091
-1.153392
-1.363654
-1.331733
-1.013787
-0.821039
-0.603718
-0.360841
0.147962
-0.426103
1.267125
1.750646
2.407097
1.945631
1.468306
1.405228
0.521225
0.228264
0.679464
1.467126
0.370023
0.895754
0.280659
0.475365
0.915845
0.258334
0.092084
0.046736
0.705073
-0.102244
-0.524977
-0.512341
-0.086867
0.039660
-0.488941
-1.166312
-0.627574
-1.553599
-1.062860
-0.404802
-0.171824
-0.696363
0.206523
1.217630
0.744353
0.289758
-0.588729
-1.037103
-0.489256
0.448198
-0.348971
-0.388955
0.096339
0.453177
0.074317
-0.013320
0.286539
0.006785
-0.043080
1.490923
0.103015
0.522561
-0.368597
0.305806
0.290387
-0.362562
-0.603952
-0.747505
-0.699669
-0.401548
-0.650476
-0.291679
0.201284
0.179542
-0.709429
0.483669
0.231056
0.203292
-1.118717
-2.204805
-1.195114
0.530332
0.343347
-0.072797
-0.379692
0.341865
0.436291
0.144385
0.918553
0.206965
0.711063
0.767907
0.879398
-0.060535
-0.412612
-0.621767
-0.707606
-0.785125
-1.760775
-0.555088
-1.046863
-1.285548
-1.062442
-1.059056
-0.851649
-0.358514
0.432352
0.103449
1.402983
-0.068183
-0.494825
-0.545086
-0.137879
0.608136
-0.744865
-0.916528
-1.272999
-0.527576
0.952206
-0.490160
0.689226
0.562123
-0.119620
0.953981
0.171120
0.234880
-0.705911
0.040436
-0.834869
-0.680432
-1.590314
-0.427405
-0.897939
-0.531946
-0.791820
-0.389011
-0.766580
-0.521904
0.286971
0.455687
0.951705
0.573880
-0.495795
-0.106486
-0.721684
-0.178744
-0.617787
-0.391792
-1.159711
0.342720
0.376436
0.268447
0.790618
0.989812
0.180637
0.895364
-0.074944
-0.197605
-0.370641
0.435003
-0.507310
-0.147837
-0.801145
-0.780417
-1.350299
-0.909636
-1.041388
-1.047922
-0.755775
-0.824831
-0.186036
-0.117047
-0.680937
-0.550137
0.170292
-0.492436
0.090634
-0.145715
-0.634894
-0.183484
0.228219
0.333762
1.043950
1.092780
1.519975
0.765131
1.269461
0.525210
0.617742
0.454658
0.508307
0.811718
0.598680
0.414865
0.502949
0.299642
0.638619
0.985851
0.615798
-0.320897
-1.577417
-1.139708
-0.499631
-1.157749
-0.856142
-0.698898
-1.104448
-0.243870
-0.046616
-0.100105
0.607764
0.894267
1.747679
1.612744
1.704041
1.599807
1.929463
1.276228
0.851342
0.416190
0.242423
-0.234367
-0.022685
-0.364655
-0.180525
-0.198888
-0.746627
-1.286100
-0.010974
-0.537713
-0.045883
-0.796781
-1.132820
-0.294577
-0.194136
-0.810665
-1.060036
-0.810712
-0.960932
-0.676750
-0.539173
-1.238415
-1.007251
-0.463576
-0.974600
0.354859
1.111036
1.106368
1.691692
0.409723
0.868677
0.468534
0.377683
-0.875836
-0.257921
-1.062798
-0.870593
-0.943890
-0.240460
-0.885209
-0.812119
0.275955
-0.086025
0.143383
-0.003277
0.406183
-0.452696
-0.411551
-0.560936
-0.296723
0.248313
0.380142
0.227542
0.686589
1.099333
0.867725
0.859411
1.424211
1.153264
1.211770
1.203762
-0.096694
0.339379
0.085660
-0.586375
-0.420139
0.360963
0.007446
-0.022644
-0.189908
0.252796
-0.160639
-0.687383
-0.481977
-1.195546
-0.860584
-1.355493
-1.222146
0.212263
-0.277642
0.138697
0.686475
1.053254
1.136062
0.692678
0.915102
0.370730
-1.475026
-2.084625
-1.767029
-1.314792
-1.554813
-1.347505
-1.381052
-0.338233
-0.896492
-0.299814
-0.513048
0.231080
-0.189573
-0.121492
-0.641015
-0.537461
-0.036649
-0.865315
-0.666417
-0.694997
-0.762597
-1.564903
-1.091761
-0.534402
0.064816
-0.234953
-0.090441
1.087881
0.787990
1.334030
0.980435
0.485793
-1.380840
-1.274984
-1.874472
-1.404184
-1.727542
-1.653258
-1.640755
-0.430302
-1.030244
-0.772103
-0.656803
-0.454772
-0.373129
0.126063
-0.114804
-0.816788
0.245050
-0.845505
-1.787944
-1.815906
-1.286815
-1.549802
-1.389906
0.155223
0.229516
-0.200158
-0.088669
0.427572
0.239038
0.569990
0.190256
0.375869
-1.300126
-1.063233
-0.829394
-1.328484
-0.615441
-0.566258
-0.576383
-0.189904
-0.286111
-0.878752
-0.708067
-1.059640
-0.511322
-0.301486
0.173373
-0.648443
-0.281750
-0.114111
-1.583152
-1.323431
-0.433500
-0.971542
-0.171729
-0.047529
-0.225527
-0.643759
0.368449
-0.206928
0.158918
-0.247713
-0.496369
0.207718
-1.367046
-0.942504
-0.755490
-0.651835
-0.948526
-0.390776
-0.214406
0.042141
-0.838646
-0.422183
-0.917022
-0.303873
-0.876341
0.223102
-0.777076
-0.413211
-0.521960
-0.707562
-0.914018
-0.732317
-0.522825
-0.575385
-0.122370
0.143405
0.228016
-0.719830
-0.666235
-0.246574
-0.349799
-1.103763
-0.350305
-0.694231
-0.846020
-0.889946
-0.710421
-1.164689
-0.435666
-0.041430
-0.585917
0.254502
0.031634
-0.574238
0.030608
-0.556239
-0.820830
-0.698573
-0.586340
-0.738041
-0.449974
-0.428998
-0.138905
0.019949
-0.694504
-0.232191
0.156857
0.303053
-0.040982
-0.184288
-1.163650
0.178661
-0.301193
-1.163285
-0.555230
-0.092386
-0.861072
-0.230569
-0.327447
-0.691163
0.317064
0.430905
-0.217298
0.010406
-0.099020
-0.877206
0.060808
-0.312676
0.066738
-0.552566
-0.006083
-0.700012
0.064886
-0.385075
-0.755990
-0.238101
-0.310345
0.828718
0.529511
0.489224
0.551581
-0.154280
-1.221065
-0.897557
-0.379808
-0.578549
0.318671
-0.169584
0.172596
-0.983793
-0.031028
-0.722985
-0.502829
0.638428
-0.656838
-0.120651
-0.450940
-0.389284
0.044168
-0.397396
-0.004657
0.579364
-0.239507
0.064933
-0.252204
0.217364
0.045739
0.169228
0.685980
0.805908
-0.080992
-0.079468
0.142880
-0.640210
-1.979253
-2.330577
-2.099308
-1.843114
-0.838161
-0.703781
-0.868453
-0.540474
-0.227825
-0.620488
0.052299
0.253865
-0.103660
-0.119854
0.355850
-0.080401
-0.287974
-0.183244
0.583937
-0.000899
-0.323946
0.633043
0.016812
0.615973
-0.212999
0.871168
0.376491
1.210253
0.169695
-0.076550
-0.064932
-0.970198
-1.153938
-1.234190
-1.466446
-1.233111
-1.329899
-0.709293
-0.090871
0.446656
0.282455
-0.412715
0.403406
0.599056
-0.022142
0.110876
0.611269
-0.085121
-0.355534
-0.284377
-0.133350
0.263324
-0.292222
0.311999
0.292195
-0.138987
0.256648
-0.099956
-0.242217
-0.257794
-1.221733
-0.445158
-1.423987
-1.007557
-1.427158
-1.482115
-1.576874
-1.026581
-0.927681
-0.866348
-0.680488
-0.513431
-0.268552
-0.256074
0.056138
-0.668424
0.235646
-0.284632
0.342363
0.317106
0.051548
-0.347688
0.455024
0.102839
0.186045
-0.336903
-0.013435
0.116533
0.275780
0.267566
-0.154751
-0.535785
-0.581046
0.434052
0.182159
-0.566280
-0.884502
-1.617591
-1.699332
-0.072704
0.215778
-0.512193
0.249367
-0.074506
0.244656
-0.446264
0.025620
0.404328
0.415372
-0.110429
-0.166502
0.389852
0.047897
-0.117530
0.371061
0.294100
0.387215
-0.172231
0.255493
0.150762
0.128101
-0.625001
-0.437617
-0.364235
-0.498463
-0.142781
0.647189
1.077029
0.687935
0.380874
-0.012934
-0.319483
-0.117547
-0.942813
-1.074257
-0.381529
-0.530398
-1.426058
-0.523765
-0.839344
-0.350826
0.058245
0.264019
0.550769
-0.198744
-0.316796
-0.248877
0.142215
0.411360
-0.460983
-0.439070
0.244512
0.258614
-0.309493
0.274613
0.138044
-0.915494
0.514377
0.217851
0.378188
0.296399
0.210403
-0.704490
-0.571573
-0.627249
0.135358
0.153148
0.028484
0.069450
-0.071594
0.235852
-0.854777
-0.411751
0.089046
-0.380019
-0.255641
0.328383
0.241528
0.187651
-0.043921
-0.016829
-0.551606
-0.491554
-0.149139
-0.691596
-0.535133
-0.191075
-0.549699
-0.216472
0.905359
0.336788
0.520286
-0.379096
0.454996
-0.136917
-0.146365
-0.459985
0.257763
-0.024919
-0.835560
-0.326236
-0.509587
-0.547632
-0.432456
-1.204053
-0.116473
0.220077
0.584712
0.229482
-0.134799
-0.117867
-0.278012
0.056286
-0.415664
-0.670408
0.227368
0.066623
0.260114
-0.218516
-0.068875
-0.250428
0.782620
0.174250
0.304765
-0.160562
0.130931
0.111510
0.080936
0.043309
-0.168046
-0.770864
-0.843755
0.129507
-0.250195
-0.381292
-0.599122
-0.446738
-0.344643
-0.310994
0.343436
0.286925
0.179961
-0.302904
0.459945
-0.455074
-0.559242
-0.239484
-0.400928
0.184831
-0.294410
0.728109
0.740165
0.386783
0.877985
0.002699
0.637636
0.904180
0.616798
0.454094
0.215715
0.305951
-0.142824
0.073672
-0.845319
0.058405
0.149650
-0.798816
-0.563985
0.072411
-0.793074
-0.252486
-0.129159
0.243171
-0.300189
-0.264269
-0.273593
-0.086165
0.128717
-0.670317
0.204092
-0.395856
0.049888
-0.177823
-0.375521
0.054959
-0.101110
-0.368532
-0.039779
1.268046
0.456795
0.855985
-0.244795
0.278553
0.794414
1.023189
0.167889
-0.065867
0.405763
-0.764848
-0.329585
-0.229053
-0.246272
-0.326231
-0.152950
0.501928
0.493654
0.520607
0.137857
-0.174678
0.320534
-0.182988
-0.138388
-0.626073
-0.653848
-0.133414
-0.197756
0.082782
-0.065833
-0.619382
0.562181
1.053414
0.520374
0.411162
0.159277
-0.074104
0.324382
0.002991
0.264221
0.646429
0.065409
-0.578743
-0.730075
-0.633476
-0.202311
-0.322653
0.517437
0.418993
0.014404
-0.028553
-0.112690
0.388048
-0.162891
0.089818
-0.026828
-0.372361
-0.181026
0.651306
-0.192354
-0.366747
-0.087804
-0.374596
-0.387170
-0.472881
0.408083
0.180001
0.278037
-0.214260
0.148533
0.045016
-0.203043
-0.081656
-0.051852
-0.483530
-0.014810
0.148521
-0.154777
-0.412796
0.168726
-0.071005
0.438255
0.870615
0.022617
-0.454741
0.351100
0.011492
0.156527
-0.109046
0.333880
0.103139
-0.089669
-0.456724
0.384391
-0.394022
-0.477036
-0.826178
-0.927382
-1.312914
-0.621961
0.400072
0.372583
-0.150598
-0.147487
0.042638
0.331551
-0.758548
-0.095085
0.180826
-0.534451
-0.043406
0.554739
0.574784
0.210006
0.001803
-0.406948
0.405597
-0.391061
0.318666
-0.029320
-0.346500
0.385148
0.769836
0.365544
-1.101731
-0.143904
-0.661943
-0.622075
-0.858142
-1.292459
-1.722307
-1.079274
-0.850634
0.076044
0.082942
-0.699185
-0.307346
-0.132313
-0.225822
-0.317528
0.380021
0.042755
-0.242094
0.097056
0.624675
0.737140
0.740205
-0.215793
0.515723
0.341860
0.145406
-0.735537
-0.087275
-0.534596
0.247600
0.332711
-0.013265
-0.422270
-0.730652
-0.811866
-1.572879
-1.258611
-1.237995
-0.474158
-0.848400
-1.103372
-0.534695
-0.750454
-0.525727
-0.156997
0.249246
0.653192
-0.158339
0.387109
0.414938
0.636850
-0.133394
0.364028
1.111217
0.739028
0.319254
0.085594
0.485676
0.926043
0.936273
0.442535
0.647272
0.591183
0.106494
-0.385310
-1.439278
-1.150416
-2.090045
-2.202739
-1.483504
-0.676406
-0.038207
-0.693468
-0.452072
-1.020884
-0.055374
0.378392
-0.503656
0.325448
-0.285020
0.399414
0.236626
0.580218
0.293522
0.039551
0.348522
0.201636
0.707512
-0.047012
-0.062573
0.589040
0.276306
0.615590
0.165486
0.144805
-0.321235
-0.009795
-0.839691
-0.748148
-1.496746
-0.950189
-0.259153
0.024682
0.019810
-0.538646
-0.108822
-0.897239
0.024712
0.277991
0.235374
0.481411
-0.189843
0.415107
-0.096071
0.542287
0.331073
0.536516
0.755077
0.700711
0.935560
0.639400
0.713462
-0.044875
-0.262671
0.146776
1.159242
0.184911
0.542071
-0.265616
0.204050
1.159772
0.924095
0.502111
0.490979
0.431112
0.645139
0.092986
0.206497
0.693285
0.369796
0.500456
0.745223
0.289744
1.112204
0.356376
0.258854
0.262051
-0.414821
-0.375587
0.127214
0.117043
0.412337
0.369355
0.311832
0.253898
0.122814
-0.376331
0.804646
0.143526
0.388200
0.119613
0.611057
1.059484
0.123287
0.138750
0.563301
0.399639
0.892258
-0.312350
-0.280791
0.182210
0.681491
0.941125
-0.072839
0.603003
0.239333
0.054751
0.544576
-0.254271
-0.069188
-0.368698
0.112837
0.103448
0.370859
0.536794
0.358804
0.420828
-0.254371
0.306933
0.960060
0.451493
0.918777
1.414502
0.130628
1.007098
1.200029
0.389441
1.166601
0.545379
1.320453
0.615774
0.607322
1.245921
0.640919
0.666364
0.532807
0.380239
0.853837
-0.059132
0.586772
-0.001223
-0.185947
0.157815
0.427563
0.044237
0.237392
0.565776
-0.412576
-0.022980
-0.834780
-0.029583
-0.000046
0.491481
0.380891
0.748310
0.626068
0.742356
0.235887
0.340947
0.814151
0.607799
1.201612
0.927011
0.623810
1.187382
0.644947
1.290174
0.945550
0.128461
0.551320
0.469612
-0.441978
-0.397655
0.193394
-0.415168
-0.277985
0.108135
-0.236443
0.668683
0.408398
0.688038
-0.632120
0.197513
0.778885
0.402628
0.286694
1.359200
0.597179
0.662381
0.963304
0.462416
0.961186
0.881952
1.165596
1.233122
1.774638
1.456233
1.507880
1.183932
0.994879
1.311354
0.538028
0.053587
-0.521075
0.075236
-0.080978
-0.915073
-0.748697
0.679442
0.579993
0.639786
0.889109
0.680148
-0.327351
-0.457639
-0.656954
0.203712
0.473150
0.880726
1.290229
1.862677
0.858416
1.304649
1.421470
0.366652
1.984479
1.641148
1.781859
2.338269
2.205659
2.484250
1.360235
1.081959
0.527720
-0.288541
0.000874
-0.423772
-0.327994
-0.218871
-0.183862
-0.071696
0.700556
0.326450
-0.158239
-0.157736
-0.329212
-0.595585
0.120387
0.509243
0.378536
0.360081
0.914708
1.301500
1.325675
0.582115
1.227856
0.529583
0.626647
1.307522
2.065142
1.681038
1.858100
1.974182
1.298074
0.844095
0.579757
0.578985
-0.339125
0.019731
-0.160161
0.270913
-0.210742
0.055838
0.277079
0.448659
1.078977
0.212037
0.012376
0.304085
0.912110
0.160275
0.254497
0.820543
0.849633
1.183828
0.895155
1.238629
1.842005
0.785963
1.067689
0.880687
0.977042
2.096156
1.699437
1.839748
1.019841
0.855361
0.345356
0.723757
0.216712
0.054497
0.508244
-0.722083
-0.664389
-0.408607
-0.405448
-0.322337
-0.392982
-0.421521
-0.814972
-0.739293
-0.889352
-0.258923
0.225569
0.194609
-0.399655
-0.039825
-0.617868
-0.657511
-0.992158
-0.831773
-0.636353
0.332471
0.044083
0.694632
-0.063066
-0.428499
-0.138596
-0.549311
-0.162163
-0.071700
-0.065927
0.157234
0.084324
-0.093744
-0.638321
-0.076339
-0.317155
-0.075512
-0.537291
-0.366979
-0.909694
-1.338049
-0.307185
-0.607513
0.010387
-0.231872
-0.757549
0.042588
-1.519108
-1.062924
-1.032552
-1.371741
-0.471201
0.103307
-0.361031
0.104920
-0.491875
-0.352418
0.300030
-0.236225
-0.260593
-0.664635
-0.166499
0.120430
-0.230696
-0.387835
-0.031884
0.006374
-0.211363
0.275155
0.058396
-0.568409
0.229030
-1.109926
-0.472954
-0.210675
-1.229665
-1.111378
-0.552913
-0.593020
-1.047339
-0.990074
-1.183637
-0.931323
-0.993613
-0.065214
0.231549
-0.142206
-0.762830
-0.966538
-0.225694
-0.104625
-0.206229
0.257108
-0.197194
-0.003772
-0.108556
-0.137907
0.445601
0.057376
0.360703
0.277909
-0.436502
-0.218251
-0.204546
-0.188748
-0.040608
-0.743645
-0.685917
-1.284031
-0.558516
-0.067370
-0.922063
-1.188743
-0.504547
-0.976483
-0.881460
0.055084
0.336113
-0.667956
-0.697472
-0.217179
-0.352413
-0.013163
-0.216109
0.096303
-0.017763
0.036046
0.314915
1.694684
-0.477961
0.605774
0.098339
0.601525
1.147487
0.206183
0.203885
0.110659
-0.412435
-0.910179
-0.127252
-0.604723
0.416978
-0.361215
-0.828701
-0.276819
0.690473
0.116127
-0.115011
1.129948
0.688001
0.094859
-0.090271
-0.336195
-0.223448
-0.187942
0.636776
0.785654
0.563129
0.503485
0.532257
1.894121
-0.075866
-0.341772
0.171618
-0.220714
0.299561
-0.229876
0.445138
-0.393818
-0.961545
0.250976
-0.393400
-0.432788
-0.160157
-0.631022
-1.232948
-0.982538
-0.433947
-0.246670
-0.109438
0.873032
1.197137
0.385950
0.443380
-0.805913
-0.402625
0.206542
-0.378595
-0.023029
-0.708965
-0.201173
0.361834
0.936028
-0.438841
-0.094579
-0.442512
0.203010
-0.164867
-0.684165
0.163387
0.210356
0.640803
0.226572
-0.042397
-0.641282
0.128826
-0.979340
-1.434739
-1.121939
-0.486021
0.094685
0.926696
0.825696
1.376546
0.537601
0.011745
-0.311418
-0.188947
0.397522
-0.563742
-0.390138
-0.240957
-0.648651
0.494021
-0.043256
0.323947
-0.009913
-0.597604
-0.980208
-1.033901
-0.782295
0.182057
0.054351
-0.137495
-0.232472
0.255721
0.259635
0.005950
-0.534141
-0.217027
-0.556349
-0.728883
