90x1025
90x91
0.153640
0.120609
-0.468100
0.460206
-0.276532
-0.062859
0.198118
-0.323318
0.437553
-0.015637
0.235086
0.485084
0.426153
0.384303
-0.321524
-0.390945
0.036269
0.152139
-0.349329
-0.421570
-0.314977
-0.056478
-0.336425
0.414532
0.239968
0.085201
-0.097283
0.378587
0.201063
0.283731
0.297919
0.310238
-0.079441
-0.057329
-0.028908
-0.392293
0.485388
0.497257
-0.259946
-0.385275
-0.192957
0.263980
0.139698
0.198916
0.293994
0.369419
-0.071786
0.496076
0.468516
-0.245586
0.003299
-0.026250
0.359288
-0.055085
0.492846
-0.201564
0.474416
0.291570
-0.443097
0.497068
0.025150
0.297379
-0.356220
0.228158
0.314077
0.033328
0.421855
-0.108524
-0.448038
-0.276035
0.480954
-0.254563
0.483580
-0.113793
-0.102179
0.320135
-0.301717
0.033973
-0.373978
0.151044
0.221231
-0.255830
-0.060104
-0.360111
0.246224
-0.438354
-0.001975
0.482963
0.473079
-0.115578
-0.403073
-0.052431
-0.196536
-0.109567
0.290382
0.339695
-0.312861
0.047245
0.187264
0.294788
0.176523
0.022973
-0.264350
-0.497605
-0.264620
-0.311319
0.250200
0.185725
-0.473722
0.441873
0.254553
0.430810
0.049945
-0.040213
-0.045957
-0.409043
0.016218
-0.114376
-0.182855
-0.327843
0.474901
-0.231486
-0.304384
-0.476319
-0.113354
0.434909
-0.065996
0.183930
-0.426226
-0.401905
0.080849
0.320964
0.325791
0.055526
0.076793
0.176435
-0.144329
0.412751
0.039551
-0.324944
-0.390193
0.217954
0.103979
0.601446
-0.388250
-0.163761
0.228556
-0.062685
-0.353371
0.146751
-0.145802
-0.236096
0.231380
-0.095571
0.141456
-0.185584
0.159078
0.494412
-0.315844
0.089063
-0.321369
-0.466168
0.374133
0.342729
-0.440245
0.232567
0.136305
0.265387
-0.138149
-0.440738
0.271282
0.390771
-0.230243
0.556268
0.453922
0.340502
0.198707
-0.287067
0.339164
-0.127415
-0.132482
0.496192
-0.114628
-0.356196
0.325795
-0.282191
-0.456011
0.048435
-0.488848
-0.336499
-0.406146
0.461746
-0.269069
-0.296582
0.039006
0.164780
-0.325460
-0.076249
-0.136107
0.261856
-0.216863
0.364401
0.001176
0.381325
0.118335
0.458210
0.205501
-0.173849
0.391438
0.318639
-0.384482
0.369807
-0.274254
-0.202318
0.385470
0.471523
0.095072
0.241488
0.403872
-0.166892
-0.504158
-0.207023
-0.167485
-0.087835
-0.410691
0.433619
0.223081
-0.463217
0.283412
-0.286572
0.008474
0.441767
-0.254141
0.018257
-0.379880
0.070866
-0.211305
-0.375309
0.501522
-0.457558
0.199706
0.378363
0.435184
0.245177
0.610775
0.346215
-0.073192
0.694096
0.272989
0.246157
0.517139
-0.430893
-0.372089
0.428006
0.300311
-0.045015
0.446955
-0.281922
0.459820
0.442421
-0.469540
0.037588
0.450271
-0.399843
0.281671
0.447313
-0.356958
-0.099447
0.539552
0.385363
0.061557
-0.257083
0.042147
0.075548
0.156911
0.002104
0.441802
0.503896
-0.009417
-0.408431
0.008314
-0.019807
-0.249733
-0.151415
0.318455
0.460934
0.142604
-0.398128
0.399364
-0.031973
-0.234201
-0.201620
0.071862
0.203106
-0.225935
0.261855
0.107629
0.163786
-0.365330
0.336758
0.429124
0.365744
-0.190677
-0.187114
-0.554597
0.187156
0.182173
-0.141344
-0.198624
-0.080025
-0.136618
-0.255510
-0.261431
0.027723
-0.204433
-0.274127
0.138896
-0.305612
-0.332065
-0.024484
0.322461
-0.125041
0.407140
0.000742
-0.074132
0.006877
-0.480405
0.448505
-0.299072
-0.400659
0.078437
0.101984
0.063485
-0.154623
0.556870
0.404302
-0.024222
0.283381
0.086343
-0.152079
-0.622793
-0.731554
-0.634518
-0.614049
0.065866
-0.422336
-0.464152
0.102576
-0.236254
-0.378727
0.060830
-0.077410
0.009328
0.317649
-0.459666
-0.479859
0.127909
-0.421390
0.260861
0.177061
-0.357600
0.118775
-0.294321
0.140000
0.215508
-0.081957
-0.146618
0.334380
0.105749
-0.393315
0.211394
-0.565346
-0.484789
-0.681149
-0.550879
-0.280993
-0.744507
-0.712741
0.222141
0.332513
-0.440140
0.319096
0.075325
0.392652
-0.329967
0.241488
0.091476
0.259911
0.358449
-0.422085
0.265665
-0.263885
0.033663
0.372966
-0.419368
0.377663
-0.522125
0.041894
0.551761
0.087551
0.246479
0.044985
-0.435842
-0.548951
-0.139974
-0.388141
-0.639330
-0.851844
-0.609535
-0.517173
-0.122256
-0.016047
-0.410053
0.488297
0.403753
-0.140068
0.380612
0.444495
0.185715
0.450541
-0.106624
0.161856
0.281250
-0.432139
0.055280
-0.518861
0.217075
0.327591
-0.407908
0.399975
0.560435
0.216579
0.451913
0.016894
-0.010268
0.182080
-0.667575
-0.668472
-0.276009
-0.482716
-0.019856
0.015311
-0.283717
-0.441621
-0.294523
-0.439560
0.373714
0.278257
0.263393
-0.071240
-0.384235
-0.395188
0.212457
0.076267
0.106546
-0.186852
-0.013302
0.205915
0.181897
0.047924
0.644713
0.321928
0.193956
0.389112
-0.300699
-0.141384
0.026532
-0.053760
-0.431087
-0.356130
-0.295940
-0.775513
0.256298
-0.338964
0.433511
-0.299901
0.454816
0.216819
0.204718
-0.033269
0.049710
-0.101841
-0.469559
0.125968
0.248126
0.262483
0.424468
0.216534
-0.058044
0.510336
-0.543568
0.177071
0.060595
0.384434
0.192281
-0.208191
-0.152965
-0.681659
-0.526644
0.038862
0.264046
0.314193
0.231361
0.083909
-0.200588
-0.491809
-0.304263
-0.258617
-0.034491
0.127183
0.002464
-0.203438
0.129052
0.464047
-0.228503
0.208164
0.121045
-0.180084
-0.371629
0.173838
0.469722
-0.328581
0.274206
0.216125
0.236056
0.131198
0.395727
-0.799325
0.202920
0.089526
-0.235738
0.376503
0.006507
0.356308
-0.290332
0.035909
0.011982
0.036069
-0.411010
-0.229389
0.192743
0.089451
0.427167
0.316371
0.218877
-0.341404
0.220412
0.219504
-0.466513
-0.243037
0.345210
-0.064786
0.047184
0.576005
0.033820
0.301813
-0.224194
0.024651
-0.493913
-0.316727
-0.367318
-0.153347
-0.212165
-0.386240
-0.129260
0.275462
0.052286
-0.279333
-0.163620
-0.464304
-0.535933
-0.297503
0.158808
-0.096854
-0.358382
0.327405
0.078109
-0.281281
-0.324211
0.096381
0.396662
-0.492059
-0.424720
0.279213
0.561234
0.297913
-0.275873
-0.211560
-0.114827
0.271556
-0.321060
-0.568665
-0.153827
-0.528022
-0.511267
-0.275319
0.419615
0.135389
-0.389881
-0.134229
-0.371264
-0.497741
-0.413760
0.466922
0.447934
0.454981
-0.198914
0.457034
-0.287447
-0.410099
0.110770
0.306151
0.341108
-0.126172
0.356754
0.412814
0.523568
0.566671
0.454269
0.520392
0.326041
-0.008074
-0.223903
0.219893
-0.170651
-0.266583
0.175829
-0.044525
-0.889508
-0.186788
-0.023861
-0.092689
-0.405386
-0.162405
-0.518109
-0.055514
0.054481
0.305900
0.468252
-0.308626
0.318696
-0.296455
0.404335
0.082970
0.063485
0.273497
-0.347152
0.149024
-0.417623
0.183337
-0.352244
-0.179865
-0.213233
-0.408084
-0.642148
-0.050448
-0.176691
0.308320
0.020402
0.384597
-0.588147
-0.088737
-0.274853
-0.451509
0.135446
0.337479
-0.361611
-0.020413
-0.465042
0.212106
-0.090606
0.351600
-0.383256
-0.425237
0.108543
0.410419
-0.174271
0.421141
0.092679
0.175335
0.275786
0.308773
-0.115095
-0.350739
-0.568652
-0.142374
-0.349721
0.257920
0.393967
0.464815
0.268873
0.212227
-0.060103
-0.192599
-0.649608
-0.164585
-0.343695
-0.291583
0.398628
-0.282085
-0.321644
0.101953
-0.139826
-0.013022
-0.429166
0.024427
0.200658
-0.143071
0.404589
-0.450200
-0.378413
-0.388925
-0.372921
-0.008365
0.204667
-0.053835
-0.117436
0.194274
0.414405
0.045902
0.293930
-0.226468
0.325328
-0.457168
0.155866
-0.429702
-0.230773
0.056439
-0.250036
0.235339
-0.040126
-0.265035
-0.168681
-0.089600
0.315410
-0.104410
-0.228674
-0.324647
-0.160103
0.212345
0.470628
-0.414137
-0.252487
-0.183384
0.174826
-0.402950
-0.479499
-0.328844
-0.173934
-0.077851
0.324578
0.618552
0.121308
0.550285
0.240076
-0.039420
-0.517740
-0.461307
-0.638115
-0.465121
0.346874
0.241001
-0.211706
0.148676
0.209034
-0.107665
-0.462809
-0.266544
-0.342496
0.484593
-0.114981
0.398188
-0.150152
0.466070
-0.279494
-0.317354
-0.466052
-0.157279
-0.499740
-0.060970
0.125471
0.308146
0.821585
0.642162
0.533885
0.262797
-0.212314
-0.558856
0.257977
-0.308124
0.449560
0.135408
-0.262228
0.112589
-0.339500
0.141868
-0.213020
0.203845
-0.109458
-0.347546
0.132263
0.147200
-0.308667
-0.230210
-0.065817
-0.195252
-0.316895
0.492607
-0.275415
-0.673731
-0.319212
-0.595446
0.127200
0.144335
0.167506
0.068682
-0.225734
-0.551463
0.039573
0.143525
0.420695
0.216888
-0.172334
0.237176
0.401324
-0.197938
0.428941
-0.153445
-0.477418
-0.102192
-0.188558
0.197205
0.373819
-0.080728
-0.265914
0.043722
-0.306412
-0.109082
0.344260
0.187725
-0.299954
0.213256
-0.115125
-0.359133
-0.228358
0.366093
-0.019027
-0.268666
-0.204814
0.031960
-0.123618
0.414424
0.189636
0.361207
-0.314118
-0.213394
-0.133581
-0.387655
-0.181177
0.384509
0.401799
-0.086131
-0.037667
0.479756
0.329964
-0.151687
-0.297462
0.390883
0.220778
-0.352951
0.148447
-0.025944
0.143174
0.457201
-0.144593
0.369310
-0.313814
-0.318516
-0.585224
-0.104567
-0.064452
-0.521657
0.010171
-0.353956
0.256970
-0.105957
-0.288997
0.340237
-0.267644
0.173443
0.481728
0.210522
0.426543
-0.352024
-0.281964
-0.292695
0.179388
0.465039
0.051081
0.231598
-0.283899
0.340386
0.019822
0.257913
-0.138303
0.245215
0.132873
-0.032680
0.158491
0.035473
-0.003918
-0.118929
-0.130966
-0.481033
0.359533
0.371040
0.204314
-0.046826
0.226499
0.210509
0.104179
-0.049848
0.324806
0.467708
-0.196850
0.256035
0.234603
0.177626
0.127451
-0.169037
-0.146997
0.486888
-0.039437
0.116221
0.290657
0.374721
-0.454069
0.072958
-0.485245
0.323020
0.476725
0.461269
0.251461
-0.436950
-0.097239
0.380614
-0.402612
-0.146259
-0.407078
-0.171306
-0.435137
0.360566
0.318898
0.214780
0.111750
-0.159739
0.217407
0.472908
-0.322381
-0.102479
0.483106
-0.002012
0.481430
-0.042579
-0.281621
-0.390284
-0.233641
-0.437265
-0.354479
-0.156798
-0.450689
0.435942
-0.423692
-0.316096
0.247335
0.428067
0.063208
0.003508
-0.429108
-0.012067
-0.269355
0.328976
-0.315769
-0.100201
0.468281
-0.032326
-0.046751
0.483493
-0.149644
-0.336949
0.479725
-0.285120
0.228334
-0.374089
-0.498427
0.332900
0.000545
-0.258682
0.306308
0.483096
-0.330370
0.001937
-0.415274
-0.364559
0.008575
0.275058
0.203476
0.318864
-0.062281
-0.284641
0.453665
-0.260906
-0.011713
-0.039527
0.169204
-0.395997
-0.166529
0.429350
-0.202951
0.195151
-0.220218
-0.112132
-0.246517
-0.164855
-0.372936
-0.164086
0.068440
0.013416
-0.139430
-0.039858
0.378149
-0.066450
-0.168453
-0.384932
-0.446865
-0.304113
0.355855
0.390853
0.384463
-0.092910
-0.334331
-0.480469
-0.311221
-0.322097
0.127398
0.318381
0.089765
-0.421046
0.105377
0.205573
-0.334222
0.155764
-0.440097
0.467122
0.296430
-0.226733
0.342230
0.491574
0.356862
0.036086
-0.406100
-0.324278
0.142715
-0.171172
-0.393838
0.013766
-0.394728
0.098269
-0.309981
0.190547
0.037923
-0.279720
0.369164
-0.257874
0.240153
0.070272
-0.063615
0.449519
0.305874
-0.055850
0.406625
0.003143
0.483359
0.251812
-0.033675
-0.447862
-0.437377
-0.071428
0.243405
-0.410472
0.389881
-0.339492
-0.022279
0.358733
-0.452555
-0.108362
-0.032460
0.386911
-0.177294
0.001876
-0.007924
0.341412
-0.128594
0.162341
-0.196019
-0.291211
0.401411
0.234164
0.464228
0.331202
0.427275
-0.360469
0.375811
0.416067
0.228457
-0.201447
0.212112
-0.314356
0.397945
0.222337
0.002332
0.106901
0.147075
-0.019010
0.055566
0.052085
-0.384459
-0.230646
-0.266688
-0.311894
0.429292
-0.084729
0.469987
0.482309
-0.082889
-0.387505
-0.244466
0.345276
-0.273706
-0.124402
0.220165
0.190738
0.155184
0.204803
0.245635
-0.085782
0.328228
0.292916
-0.072902
0.212774
0.031201
0.358218
-0.380494
0.297690
-0.259348
0.299264
-0.274367
0.443862
0.028801
0.456679
0.250755
0.108873
0.068558
0.418823
0.477261
0.149658
-0.387303
-0.391756
0.079433
-0.636294
-0.602945
0.046306
-0.520016
-0.259908
-0.350959
-0.276977
0.431909
-0.149426
0.096255
0.311397
-0.311259
-0.365855
0.318727
0.130433
-0.270225
-0.207624
-0.078729
0.072460
0.123207
0.023791
0.194130
-0.482459
0.502327
0.369888
0.461139
0.347425
0.299741
-0.294885
-0.117101
-0.756105
-0.578629
-1.069151
-0.658325
-0.973183
-0.766050
0.111982
0.187854
0.422867
-0.122891
-0.149535
-0.097697
-0.117611
-0.011802
0.210929
-0.280078
-0.151779
0.036738
-0.197677
0.252734
-0.129547
0.230393
-0.372530
-0.491861
-0.183763
-0.180106
0.256265
0.220673
-0.209922
-0.551004
-0.065361
-0.317688
-0.240080
-0.290680
-0.152499
0.143734
-0.225238
-0.098171
0.160062
-0.165751
-0.196580
-0.358382
-0.543908
-0.378420
-0.566644
-0.254124
0.424618
0.080796
-0.473513
0.323720
-0.113954
-0.329282
-0.207203
-0.404078
-0.064499
-0.285534
0.227256
-0.273208
0.238951
-0.402554
-0.181382
-0.728602
0.054269
-0.300983
-0.482627
-0.486199
-0.201382
-0.215062
0.198281
0.135077
-0.194403
0.005906
-0.410481
-0.021770
0.179608
-0.027428
0.138180
-0.450960
-0.002614
-0.262048
0.085232
-0.100515
0.254901
-0.129167
0.229553
-0.409935
-0.477657
-0.116313
-0.283324
-0.127930
0.015864
-0.448910
-0.137665
-0.495170
0.401122
-0.442581
0.069658
-0.086237
-0.405829
-0.216669
0.184567
-0.535102
0.123944
-0.364245
-0.006339
0.241519
-0.100319
-0.091227
-0.103061
0.306598
0.009070
-0.376785
-0.003053
0.007965
0.438984
0.046164
-0.325048
-0.262401
0.255622
0.352805
0.138775
0.464178
-0.375098
0.060497
0.450279
0.494116
-0.070668
-0.440573
-0.338748
0.722918
0.394896
0.525352
0.714561
-0.112696
-0.057310
0.331174
-0.135485
0.681959
0.472597
-0.365672
0.068319
0.463712
-0.133957
-0.399594
-0.309985
-0.458714
0.486361
-0.112344
0.024793
-0.192869
0.120046
0.337713
0.365680
-0.171262
-0.276270
0.132641
-0.335493
-0.344974
-0.176375
0.248365
-0.421952
0.439849
0.820510
0.374199
0.866495
-0.280469
0.269617
-0.058155
-0.238647
0.332903
0.420165
0.195475
-0.340460
0.084519
0.033038
0.033756
-0.089304
0.458764
-0.104983
0.282128
-0.367614
0.240248
-0.374125
0.358165
-0.387932
0.133241
0.052126
-0.134645
-0.110928
0.275641
-0.321162
-0.450338
-0.676950
0.584024
-0.250196
0.576699
0.062447
-0.165278
-0.162912
-0.012146
0.286477
0.265615
0.229809
0.152887
0.423110
0.281454
-0.377128
0.384964
-0.222771
-0.361422
-0.410257
0.241918
-0.349023
-0.201343
-0.393433
-0.203525
-0.280096
-0.042302
0.303190
-0.453178
0.166521
0.354376
-0.448108
-0.296669
-0.814382
-0.224606
-0.073479
0.219630
-0.524241
-0.402012
0.251423
-0.234629
-0.301308
0.087215
-0.511433
-0.366174
-0.196543
-0.059907
0.128353
-0.261100
0.074526
0.282926
-0.126934
0.000437
0.080596
0.330989
-0.497139
-0.386727
0.358564
-0.315664
0.312288
0.275421
0.022104
0.344628
-0.027676
-0.677930
-0.247175
-0.306251
0.469898
0.071362
0.448760
0.178763
-0.432119
-0.232862
0.120765
-0.120358
-0.367800
-0.141555
-0.360670
-0.017230
0.354581
-0.466660
0.086711
0.477936
-0.373250
-0.282894
-0.201831
-0.091759
-0.249913
-0.034025
-0.255601
-0.084686
0.534663
0.369252
0.043001
-0.218537
-0.364849
-0.674141
0.022825
-0.468674
0.589278
0.409029
-0.039367
-0.143226
-0.534869
0.001146
-0.323093
-0.676192
-0.079824
0.181419
0.341144
0.275743
-0.455224
-0.496339
-0.088184
0.094372
0.205479
-0.011608
0.221236
-0.008097
0.190171
-0.371813
0.126020
0.092367
0.015946
0.195146
0.378084
-0.539258
0.090797
-0.772512
-0.100493
0.228889
-0.290828
-0.328137
0.311136
0.336008
-0.060411
-0.079023
0.092988
-0.021435
-0.374669
-0.032900
-0.321733
-0.342148
-0.473339
-0.116099
-0.451826
-0.443419
0.177805
-0.157663
-0.393417
-0.253824
0.343551
-0.409859
-0.353837
-0.050224
0.034437
-0.369199
0.257592
-0.171485
-0.174918
-0.599286
0.120215
-0.358407
-0.282391
0.538046
0.212126
-0.155189
0.454799
-0.325596
-0.237348
-0.108524
-0.386164
0.396296
0.413656
-0.422088
0.063147
-0.243935
-0.037230
-0.377218
-0.374967
0.320181
0.264702
-0.363277
-0.142811
-0.370615
-0.122433
0.247042
0.407240
0.136948
-0.053152
-0.094248
-0.173464
-0.146568
-0.306081
0.618772
0.447475
-0.014315
-0.194782
0.483993
0.643172
-0.214783
-0.038386
-0.516235
-0.540452
0.017177
-0.102665
0.071540
-0.310425
-0.297128
-0.185074
0.065493
-0.006280
0.175225
0.398748
0.041900
-0.002061
-0.405373
0.378768
-0.321540
-0.342782
-0.196967
-0.234859
0.247765
0.084882
-0.340010
0.440800
0.411215
0.454979
-0.314407
-0.176093
-0.056226
0.519154
-0.171566
0.082304
-0.163319
-0.418318
0.171181
0.120867
0.416052
0.395610
-0.128138
-0.281232
-0.065867
0.430928
0.218389
0.219536
-0.159942
-0.297909
0.496695
-0.264577
-0.256107
0.533938
-0.208009
0.397563
0.068323
0.260707
-0.350864
-0.680059
0.131069
0.427824
0.078500
-0.437423
-0.042953
0.403656
-0.124843
0.250407
-0.414322
-0.469031
-0.186610
0.226414
-0.057702
0.035797
0.415708
0.007294
-0.462341
-0.261555
-0.489797
-0.414527
-0.279610
0.227352
-0.077614
0.113797
-0.187509
0.625788
0.580320
-0.355994
0.141107
0.258389
-0.369197
0.216379
-0.204294
-0.352158
-0.079651
0.082665
0.101821
0.578007
0.481461
0.613397
0.452769
0.301358
0.012172
-0.451747
-0.093482
-0.473109
-0.192884
-0.353982
0.343690
0.184202
-0.113103
-0.333016
0.204831
-0.067186
-0.412765
0.232066
0.400561
-0.083523
0.048208
-0.104737
-0.369457
-0.326275
0.050857
0.457428
0.239519
-0.032450
0.160665
-0.050354
0.051924
-0.052997
0.311632
0.024632
0.350799
0.090816
0.167656
-0.150397
-0.292816
-0.058160
-0.303021
-0.200331
0.078486
0.237021
-0.332938
-0.357654
0.338500
-0.415724
0.031844
0.506399
0.015882
-0.029990
-0.107062
0.105046
0.136277
-0.310723
-0.327595
0.226689
-0.459735
-0.335094
0.466380
0.007314
0.427355
0.316676
-0.163939
-0.277891
0.372574
-0.238008
-0.153926
-0.224982
0.368217
0.043830
-0.465323
-0.229107
-0.004086
0.179425
-0.212927
0.234651
-0.051407
-0.123264
0.024883
-0.018259
0.170151
-0.191645
0.086404
-0.316799
0.293442
-0.389244
0.091308
-0.028231
0.255134
-0.076552
0.188847
0.398597
0.370764
-0.320064
0.050316
0.195298
-0.204324
0.399956
-0.318426
0.320370
-0.409967
-0.072145
-0.216076
-0.158676
-0.298365
0.481107
0.037907
0.199162
-0.456895
-0.147258
0.389780
-0.100923
0.127389
0.033251
-0.233949
0.146246
-0.386236
-0.021383
-0.291773
-0.068489
-0.017141
-0.550666
-0.705135
0.379508
-0.217654
0.380222
-0.097479
0.180070
0.339742
0.183066
0.164692
-0.110331
0.439837
-0.102391
-0.061083
-0.215072
-0.105868
-0.355681
-0.307622
0.115536
-0.171705
0.454218
0.211108
0.262561
-0.513067
0.020075
-0.406839
-0.183186
-0.063963
0.301750
-0.003934
0.126434
-0.010886
-0.737567
-0.026780
0.128695
0.009812
-0.330751
-0.236066
-0.290117
-0.106683
0.095777
-0.164305
-0.361568
-0.472316
-0.078035
0.105446
0.125487
-0.143078
-0.414322
0.064995
-0.346624
0.320982
-0.066948
-0.194755
0.088967
0.062556
-0.477522
0.270942
0.074099
0.433491
-0.068687
0.326351
-0.354489
0.033705
0.226078
0.145338
-0.074818
0.040160
0.179443
0.293436
0.046390
-0.202382
0.429102
0.270880
0.442350
-0.006706
0.223550
0.435997
-0.064130
0.435509
-0.386375
0.334400
-0.345975
0.062097
0.288136
0.423289
-0.053810
0.411350
0.094471
-0.013930
-0.391971
0.299783
-0.164184
0.400576
0.384859
0.000760
0.353814
0.384308
0.314864
-0.341842
0.272706
-0.472542
-0.166448
0.283255
-0.408790
0.177266
0.237314
0.473039
0.368569
-0.230440
-0.498667
0.317176
-0.172327
0.316604
-0.407633
-0.403574
-0.141554
0.137292
0.109458
0.444640
-0.387696
0.040486
-0.159550
-0.096303
0.026350
0.355975
0.530109
-0.114873
0.099070
0.272826
0.102897
0.281753
0.396395
0.400488
-0.395108
0.242349
-0.235535
0.062073
-0.047055
-0.196456
-0.364357
-0.196584
-0.196903
0.176117
-0.042759
0.381889
-0.087131
0.356811
0.415119
0.419452
-0.150377
0.172934
-0.448793
-0.272609
-0.250825
0.468622
-0.001852
-0.012036
-0.125932
-0.071584
0.245790
0.059510
0.144073
0.489717
-0.248544
0.199809
-0.285399
-0.040435
0.394641
-0.091161
-0.379913
0.171799
-0.033940
-0.380885
-0.315736
-0.137593
-0.276390
0.419486
0.169047
0.377762
0.301581
-0.312724
0.140081
0.411349
0.096900
-0.041351
-0.397391
-0.190976
-0.347743
-0.195275
0.384387
0.340493
0.460488
0.296264
0.139130
-0.010486
-0.041992
-0.483952
-0.427075
-0.151823
-0.233344
-0.218908
-0.114558
0.372759
-0.342413
0.322033
-0.485225
0.277729
0.046495
-0.152575
0.265513
-0.410990
-0.007083
-0.245676
0.183363
-0.225189
-0.243611
-0.384791
-0.476446
0.350932
0.343506
-0.062917
-0.444418
-0.041710
0.079654
-0.460620
0.484012
-0.382132
-0.447540
-0.037594
-0.171368
0.294780
0.310028
0.323263
-0.068492
0.380144
0.101836
0.433116
0.168107
-0.440589
0.338169
-0.544096
-0.405612
-0.321515
-0.378767
-0.161366
0.360823
0.032050
0.055539
0.192234
0.395905
-0.105495
-0.352020
0.159534
0.484487
0.332143
0.329119
0.236180
0.040249
0.222824
0.014858
-0.109485
-0.225626
-0.456464
-0.455147
-0.191815
0.385734
-0.245940
-0.233802
-0.180507
0.069959
-0.300522
-0.446006
0.275206
0.118977
0.084795
-0.077757
0.279421
0.250628
-0.161135
0.097845
-0.283870
0.131195
0.376778
-0.350116
0.001895
0.483893
0.381612
-0.263288
0.193403
0.167069
-0.272228
0.208100
0.234290
0.391957
-0.321019
0.141225
0.449096
-0.403169
-0.454332
-0.369512
0.011280
-0.322823
0.139249
-0.251529
-0.436370
-0.433628
0.159929
-0.444674
0.006582
0.179127
0.459361
0.091297
-0.188638
0.498557
0.272731
-0.057178
-0.003778
-0.405261
-0.373948
0.061016
-0.442146
-0.315250
-0.273409
0.027992
0.296503
-0.297149
0.548891
0.228091
0.183595
-0.106312
-0.473844
0.177507
-0.238058
-0.066342
-0.237484
0.248339
-0.018519
0.394670
-0.012341
0.406668
0.356682
0.432310
-0.411014
-0.472676
-0.480020
-0.220999
0.147863
-0.142229
-0.396268
0.108253
-0.203257
-0.496770
0.072544
-0.461276
0.243156
0.326155
-0.120553
-0.243056
0.411257
0.233422
0.085956
0.374582
0.328118
0.376639
-0.068093
0.061854
-0.188279
-0.258544
-0.342744
-0.249635
0.305672
0.220094
0.314424
-0.232651
0.442769
0.097921
-0.194122
-0.157116
-0.159508
0.310278
0.028620
-0.272984
-0.030948
-0.595075
-0.258450
-0.626495
-0.010477
0.047263
-0.291997
-0.022911
-0.272092
-0.167175
-0.482266
0.440457
0.290364
0.017883
0.262922
0.498955
0.485399
0.289847
0.388763
-0.322052
0.057200
-0.267061
0.268616
0.462464
-0.132454
0.283000
0.088315
0.249786
-0.363605
-0.411280
0.368366
-0.527860
-0.394963
0.088206
-0.128439
-0.303739
0.106519
-0.366295
0.175461
-0.344881
-0.340205
-0.256296
0.208290
0.203886
-0.245954
-0.138415
-0.227247
-0.390956
0.104182
0.037357
-0.138271
-0.195211
0.299411
0.004440
-0.293444
0.097695
0.350014
0.089751
0.326165
0.243728
-0.244059
0.133637
0.083687
-0.136495
-0.090561
-0.487094
-0.388531
-0.388443
-0.225467
0.062673
0.107111
-0.204469
-0.235644
-0.107766
0.481112
-0.251425
0.433974
0.560545
0.297195
-0.116763
0.278716
-0.178319
-0.023279
-0.119479
-0.168063
0.227469
-0.408126
0.078651
0.417051
0.376635
-0.170272
-0.249859
-0.373030
-0.569246
-0.360987
-0.385562
-0.178747
-0.251546
-0.482956
-0.395057
-0.481492
-0.095298
-0.718880
-0.059270
0.182158
0.127791
-0.006701
0.260921
0.171915
-0.082365
-0.080173
-0.265816
-0.388818
0.189404
-0.385453
0.079648
0.311502
0.333751
-0.010413
-0.185742
0.445363
0.518259
-0.295987
-0.431568
-0.031419
0.454331
0.146710
0.054106
-0.067290
-0.352175
0.037416
0.312334
-0.414124
-0.178621
0.313681
-0.185985
0.143396
-0.033501
0.076806
0.241535
0.267501
0.121828
-0.284171
-0.392304
0.009068
-0.074841
-0.135408
0.424792
0.433994
0.326251
-0.431994
0.117476
0.578502
0.501045
0.189546
0.277073
0.319680
0.423224
0.146006
0.443047
0.330969
0.443221
-0.136661
0.159778
0.107378
-0.158966
0.157798
0.426554
-0.081877
0.381774
-0.234993
-0.208589
0.312492
0.228156
0.522961
0.060806
0.419164
0.189558
-0.343128
0.167395
-0.488577
0.482688
0.085941
0.392655
-0.174852
0.068269
0.135853
0.538990
0.509719
0.304144
0.492277
-0.243122
-0.315821
0.361454
0.060352
-0.175099
0.155094
0.389672
0.701438
0.033915
0.411404
-0.049004
-0.420602
-0.174772
-0.038745
-0.180189
-0.346443
0.443825
-0.420983
-0.111460
-0.008617
-0.279278
0.035143
0.013462
-0.108131
0.145901
0.324598
0.238444
0.094893
-0.143005
-0.088940
-0.120641
-0.227031
-0.086376
0.141470
0.302201
-0.086980
-0.422189
-0.103949
-0.429359
0.359354
0.309704
0.060837
-0.486038
0.154660
0.464538
-0.347510
0.061604
-0.145988
0.211833
-0.198239
0.429270
0.268650
-0.319929
-0.397296
-0.050079
0.035255
0.342936
-0.319414
-0.282785
-0.042194
-0.228749
-0.477262
-0.485758
-0.415257
0.081115
-0.258461
-0.395007
0.125941
-0.308310
0.020188
0.049483
-0.582169
-0.098157
-0.040926
0.011467
0.597663
-0.227598
0.295946
-0.120321
-0.076721
0.367156
0.212467
0.082321
0.122455
0.056915
-0.477008
0.455463
-0.453015
-0.344445
-0.424573
-0.093566
0.189588
0.613495
-0.448385
-0.242755
0.151441
-0.609266
-0.421484
-0.358651
-0.554053
-0.468489
0.186082
-0.509269
-0.323074
0.193528
0.209773
-0.437420
0.420359
0.045990
-0.271108
-0.391890
0.096187
-0.261689
-0.278060
-0.472028
-0.188575
0.444278
-0.264325
-0.300918
-0.244947
0.297035
-0.255267
0.478813
-0.299873
-0.241809
-0.266156
0.222899
-0.014587
0.203104
0.471001
-0.266505
0.266529
0.115367
-0.153666
0.632935
0.159178
0.086529
-0.049429
0.214104
-0.238513
-0.003923
0.060990
0.203108
0.198795
-0.038945
0.015029
0.070364
-0.019343
0.414834
0.412673
0.014800
0.274877
0.141203
-0.101407
-0.146953
0.388933
-0.160858
-0.568123
-0.254980
-0.174212
0.785888
0.465704
0.722747
0.374581
0.413608
0.642165
0.280709
-0.114758
-0.038478
0.086936
-0.100483
0.127183
-0.222435
-0.390687
-0.180668
-0.257708
0.446258
-0.149126
0.355304
-0.081285
-0.157897
0.443066
0.031780
-0.360895
-0.374445
0.306952
0.358971
0.320693
-0.289824
-0.198545
0.092760
0.011996
-0.220766
0.546936
0.106086
0.323403
-0.094928
0.620027
0.219347
0.169163
-0.197887
0.212615
0.094542
-0.426022
-0.142502
0.332181
-0.297023
-0.375545
0.034470
-0.381841
0.219474
0.027284
-0.207613
0.272872
0.116111
0.089988
0.063467
-0.068534
0.308108
0.404141
-0.382325
-0.600460
-0.163164
-0.401728
-0.187575
0.282728
-0.054586
0.243089
-0.211687
0.169581
-0.190955
0.125935
-0.332529
-0.343370
0.025819
0.135937
-0.174444
-0.188519
-0.145648
-0.385536
-0.013176
0.090900
-0.087481
-0.436988
0.437026
0.229914
-0.153481
-0.280398
0.288914
-0.090277
0.131686
-0.062133
-0.398997
-0.026944
0.008215
-0.495015
-0.388788
-0.200436
-0.561419
0.401844
-0.469331
0.428225
-0.235768
0.263006
-0.175130
-0.163447
-0.073567
-0.326208
0.088941
0.384788
-0.239297
0.482255
0.498520
0.219959
-0.362020
-0.141765
-0.341141
0.468199
0.281482
0.235537
0.214266
0.208981
-0.125688
0.032674
-0.296336
0.340666
0.194060
-0.401113
0.469307
-0.041196
-0.400753
-0.425835
-0.362978
0.615855
0.326663
-0.389468
-0.457697
-0.001727
0.091414
0.239542
-0.369012
0.342990
-0.338323
-0.341615
-0.396420
-0.013093
-0.015119
-0.494559
-0.186926
0.043445
-0.169980
-0.488942
0.170495
0.407843
0.007360
-0.185185
-0.212176
0.115954
0.225474
0.154110
0.136077
-0.164510
0.254100
-0.396773
-0.341012
0.173525
0.595137
0.117138
0.436555
0.085562
-0.016340
-0.269645
-0.050497
-0.236472
-0.311116
-0.468980
0.486949
-0.299897
0.011919
0.166452
-0.218398
-0.006621
0.248231
0.433409
0.360842
0.381753
0.388467
0.060804
-0.025062
0.086751
0.341064
-0.017881
0.174138
-0.313332
0.253041
-0.138162
-0.536547
0.512229
-0.017233
0.142799
-0.100529
0.226130
0.124472
-0.330232
-0.269010
-0.267870
-0.197495
0.415410
-0.217051
0.390187
-0.486886
-0.181441
-0.200735
0.017277
-0.475863
-0.146211
0.053981
-0.437131
0.338198
0.067355
0.036572
0.281080
-0.090753
-0.164639
0.206510
0.468694
0.061817
-0.401762
0.216025
-0.240587
0.380945
-0.114529
0.323787
0.149813
0.051059
0.558776
0.455074
0.434966
-0.434805
0.029908
0.236609
0.136686
0.499096
-0.212686
-0.461434
0.295178
0.297497
0.127276
0.027828
-0.187195
0.521114
-0.253690
0.084822
0.254868
-0.074762
0.040972
-0.157488
-0.378421
-0.528239
-0.422872
-0.131017
-0.028273
-0.241639
0.341915
0.291095
0.444070
0.318861
0.243139
-0.150657
-0.004172
-0.074042
-0.346097
-0.360502
-0.259081
-0.380705
0.222714
-0.188690
0.352986
0.138629
0.483560
0.469689
0.327303
0.077249
0.367864
-0.320951
-0.377194
-0.226105
-0.347658
-0.326283
-0.745605
-0.471779
-0.425231
0.292592
-0.415334
0.149625
-0.238580
0.236988
-0.027826
-0.205513
0.044160
0.531350
-0.138666
-0.376982
0.061958
0.087801
-0.186206
-0.116584
-0.435161
-0.424675
-0.322703
0.266480
0.390482
0.425832
0.025788
-0.055896
0.427858
-0.358183
0.204528
-0.137712
0.050014
-0.128447
-0.579255
0.023029
-0.760450
0.319235
-0.390787
-0.420472
0.617053
0.421066
0.510319
0.190600
0.480265
-0.022550
0.076018
-0.299011
-0.114612
-0.300117
-0.428563
-0.120257
-0.032219
0.384696
-0.368495
0.034472
0.244695
-0.402039
0.445175
-0.181573
-0.285728
-0.245209
0.162924
0.415551
-0.156172
0.365096
-0.081827
0.472845
0.060839
-0.263519
0.414171
-0.235608
0.035010
-0.144745
-0.011753
0.373656
0.001713
-0.432673
0.240964
-0.209123
-0.441867
0.108263
0.310815
-0.193605
-0.010165
-0.207413
0.114601
0.156466
-0.281299
-0.413542
0.124611
-0.464471
0.221681
0.383903
0.277106
-0.153594
-0.061840
0.016127
-0.102799
0.238246
0.288540
-0.195526
-0.355269
-0.043399
-0.213353
-0.424822
-0.347627
0.217666
0.198788
0.251701
0.300960
0.393231
-0.346408
-0.064120
-0.346740
0.390439
-0.083975
-0.131038
-0.142135
0.094219
-0.405554
0.046108
0.105088
-0.089297
-0.117493
-0.269232
-0.276011
0.573563
0.105045
-0.177022
0.610716
0.286565
-0.015019
-0.359437
0.322936
0.362624
0.063640
-0.023389
0.122266
0.453420
0.453305
-0.277369
0.459006
0.255448
0.411770
0.498496
0.323969
0.277301
-0.046976
-0.087599
-0.177200
0.374276
0.003878
0.110543
0.401819
-0.118797
-0.213323
0.094502
-0.327641
0.058528
0.444891
0.259468
0.032997
-0.177458
0.444322
0.322071
0.077261
-0.017886
-0.147696
-0.369722
0.228819
-0.289755
0.363697
-0.391564
0.110866
0.376133
0.245602
-0.449074
0.413251
0.462744
0.084646
0.243826
0.223596
0.330945
-0.308143
0.215613
0.022698
0.045177
0.191993
0.131231
0.475753
-0.085422
-0.439708
0.300275
-0.475486
0.405382
-0.234212
-0.160096
0.499968
0.337429
-0.182222
0.397505
-0.395399
-0.293497
-0.460228
0.499661
-0.104506
-0.361876
-0.194389
0.469591
-0.191825
0.075932
0.098883
-0.146408
0.309962
0.364142
0.191952
-0.222573
0.119986
-0.372481
0.055155
-0.120484
0.322181
0.081889
-0.081796
-0.299476
0.277517
0.013198
0.379566
0.156230
0.303916
-0.052635
-0.289107
0.469359
0.498404
0.245002
-0.155963
-0.331882
0.279834
-0.470957
-0.134987
0.330809
0.295967
0.426431
0.279833
0.355696
0.191727
0.331787
-0.422976
-0.064513
-0.190850
-0.067835
0.158604
-0.061500
0.071182
0.433748
0.305213
0.002042
-0.052014
-0.196759
-0.289255
-0.060619
0.340528
0.126814
0.197983
0.450942
-0.015288
0.279329
0.422758
-0.355171
0.419582
0.316096
-0.079304
-0.476215
0.448680
0.256775
-0.186848
0.010717
0.403681
-0.316697
0.472247
0.146335
-0.496550
-0.231804
0.256347
0.467033
-0.266025
0.075773
-0.038764
0.329844
0.211818
0.208831
-0.021527
-0.261338
0.020188
-0.119797
0.158750
-0.076957
0.073256
-0.186982
-0.356170
0.007281
-0.245634
0.419210
-0.161966
0.438886
-0.057432
-0.132278
0.351100
-0.055714
0.175709
0.122977
-0.061965
-0.209399
-0.296370
0.308484
-0.046016
0.471863
0.216136
0.285523
0.302220
-0.496109
0.354766
-0.154275
0.161059
-0.098793
0.194860
0.060004
-0.098582
0.531156
-0.246850
-0.088614
0.177687
0.081683
0.020174
-0.232773
-0.437455
-0.013607
-0.103676
0.424948
-0.242594
-0.443805
0.324786
-0.313069
-0.364992
-0.075820
-0.144266
0.108524
-0.411703
-0.378540
0.401169
-0.336829
-0.184492
0.238894
0.341552
0.211244
0.010621
-0.274641
-0.561419
-0.011839
0.164199
-0.575960
-0.309575
-0.473104
-0.489213
0.377115
0.055017
0.341547
0.170335
-0.434664
0.417712
-0.026823
-0.492171
0.483600
0.231362
-0.207398
0.091438
-0.249151
-0.011298
0.389549
0.040917
-0.073491
0.105207
-0.288787
0.375307
0.218344
-0.062770
0.056578
0.293577
-0.165861
-0.447505
-0.430032
0.226802
-0.045638
-0.180246
0.367740
0.022238
-0.312887
-0.076048
0.364295
-0.221850
0.030081
-0.164509
0.341118
-0.202583
-0.231027
0.222227
0.474450
0.341121
0.056705
-0.208585
-0.083665
0.442108
0.056322
0.226048
0.064202
0.047361
-0.566253
-0.396716
-0.434153
0.250105
0.022798
0.205397
0.028329
-0.130916
0.104020
0.424865
-0.084731
0.356420
-0.454935
-0.386349
0.009245
-0.001809
-0.451255
0.456151
-0.010683
0.229249
-0.403533
-0.469991
0.246890
0.246536
0.062667
0.117720
-0.227602
0.376035
-0.113404
-0.187848
-0.688001
-0.620784
-0.795991
0.443732
0.848239
0.680356
0.474685
0.106751
0.425397
-0.219038
0.228259
0.236205
0.162447
0.199486
-0.292038
0.064114
0.330510
0.346548
0.142067
-0.503729
0.018518
0.163103
-0.058858
-0.390850
-0.412684
0.441731
-0.419448
-0.134316
0.174803
-0.289195
-0.484251
0.017834
-0.692726
-0.016473
0.102572
0.555586
0.130533
-0.245871
0.262667
0.488806
0.329797
0.482259
0.413256
0.411720
-0.332467
-0.182241
-0.212903
0.006912
0.168042
0.245715
-0.306910
-0.445803
-0.491690
-0.066515
-0.482722
0.315620
0.319654
0.159617
-0.061991
-0.048379
-0.355135
-0.229940
-0.498641
0.112238
-0.195895
0.028268
0.332620
0.211190
0.437025
-0.348767
-0.395366
-0.196533
0.187227
0.568449
0.193950
-0.217147
0.187095
-0.011031
-0.338987
-0.212440
0.258294
0.289841
-0.429587
-0.427738
0.074846
0.241434
-0.400837
-0.310923
-0.264726
-0.389172
-0.109154
0.394335
-0.417262
-0.111294
0.270742
-0.613253
-0.237080
0.306643
0.372578
0.482292
0.841441
0.353561
0.355287
0.552001
0.538032
0.135913
0.689932
0.049602
0.487007
0.248320
0.172746
-0.474994
0.402164
0.439102
0.145921
0.308663
-0.482244
-0.322577
-0.412730
0.189402
-0.051815
0.166634
0.321486
0.149774
-0.147847
-0.264953
-0.234967
0.207828
0.440842
-0.129213
0.527995
-0.067472
0.207234
0.744798
0.944637
1.006537
0.377516
1.020013
0.279822
0.727975
0.138345
0.529287
-0.170623
-0.382429
-0.318495
-0.218022
-0.524181
-0.015643
-0.482701
0.339896
-0.341361
-0.328036
0.064713
0.147902
-0.012913
-0.193794
0.330598
-0.265984
-0.351457
-0.065905
0.188411
0.408131
0.408097
0.652151
0.419234
-0.308878
0.011159
0.621558
0.368911
0.447574
0.220273
0.074282
0.113338
-0.152600
0.384730
-0.214625
-0.064220
0.014639
0.407622
0.064310
0.492526
-0.190488
0.225016
-0.119899
0.075636
-0.437918
0.125720
0.080113
0.101051
-0.437291
-0.057084
0.157521
-0.187226
-0.298654
-0.316630
-0.071033
-0.125800
0.203832
0.231547
0.260980
0.318258
0.597580
-0.479557
0.516226
0.445349
-0.125292
-0.193725
0.080191
-0.026038
-0.308150
0.204871
-0.379156
-0.337961
0.438777
0.110341
-0.313509
-0.166365
-0.480891
0.397268
-0.240748
-0.240673
0.173661
0.266398
-0.467905
-0.080231
-0.586152
-0.071601
0.183564
-0.379067
0.299784
-0.511560
-0.163128
-0.097690
0.242820
-0.645430
0.449398
-0.124251
-0.460000
0.256795
0.273313
0.332846
0.329395
-0.469963
-0.250592
0.455640
-0.336664
0.320022
0.163785
0.396855
-0.172682
0.163590
0.041359
0.331842
-0.536654
-0.540032
0.175635
0.232529
0.081137
-0.246594
0.077747
-0.172985
-0.600171
-0.346534
-0.216753
-0.393214
-0.318215
-0.396843
0.459114
0.720396
-0.317119
0.346193
-0.174996
0.239983
-0.371218
-0.034987
0.123070
0.204826
0.407189
0.199055
-0.341762
-0.146444
-0.229003
0.253237
-0.153566
0.041792
-0.326440
0.124773
-0.074293
0.305047
0.500416
0.465628
-0.203478
0.289240
-0.265709
-0.167886
0.032728
-0.527982
-0.376453
0.003357
0.171383
0.135135
0.438554
-0.304855
0.595573
0.236525
-0.193800
0.207222
0.066359
-0.485822
-0.072069
0.204777
-0.395392
0.485672
-0.264675
-0.217055
-0.484329
0.024007
-0.216736
-0.074411
0.225966
-0.366239
0.137110
-0.101903
-0.100639
-0.274912
0.004837
0.322270
-0.552989
0.053416
-0.194976
-0.718130
-0.542191
-0.045713
-0.140680
0.159264
-0.001203
0.154437
0.039084
0.327916
-0.167190
-0.005854
0.316115
0.225402
0.437321
0.322762
-0.267136
-0.290963
0.045705
-0.136929
0.016823
0.366322
0.036273
0.112481
-0.078255
-0.493782
-0.116125
-0.366081
-0.034611
-0.133524
0.218901
-0.225460
-0.205414
-0.625003
-0.651159
-0.701720
-0.435791
-0.032234
0.201078
-0.213561
0.320173
0.102383
0.333519
-0.115256
-0.132051
0.375587
-0.173533
0.337363
0.462286
-0.448790
0.051425
-0.234921
0.101083
-0.053345
0.090806
-0.042674
-0.004965
-0.336775
-0.465662
0.068046
-0.056740
-0.125234
0.344340
-0.480471
0.320707
0.315161
-0.225617
-0.506839
-0.010034
0.223495
-0.444926
-0.406164
-0.426513
0.032226
0.150594
-0.232977
-0.106865
-0.038623
-0.392142
-0.392386
-0.243297
0.047650
0.194678
0.187879
0.542042
-0.443082
-0.600443
-0.492906
-0.226811
-0.543066
-0.379266
-0.079111
0.182440
0.101599
0.257009
0.097493
-0.132669
-0.569563
-0.206092
0.248567
0.156726
0.413666
0.201114
-0.111978
-0.487829
0.137542
0.355922
0.335822
0.422564
0.481418
-0.076930
-0.118872
0.129948
-0.427410
-0.264298
-0.191862
-0.013487
-0.321672
0.369660
-0.343038
-0.646814
-0.674247
0.155670
0.261029
-0.295373
-0.285882
-0.585865
-0.166674
0.207300
-0.145593
0.183908
-0.031679
0.189369
-0.067485
-0.190485
0.364020
-0.181676
-0.120010
-0.409206
-0.468824
-0.409891
-0.367959
0.298737
-0.033643
-0.460770
-0.428686
0.098291
-0.184528
0.472359
0.234699
0.272438
0.042005
-0.448734
-0.706001
-0.398883
-0.435075
-0.309389
-0.345715
-0.316012
-0.088027
0.502025
-0.210663
0.353774
0.219831
-0.008272
-0.036830
-0.389957
0.402309
-0.207856
0.285480
-0.222164
0.410228
-0.017629
-0.094244
-0.476453
-0.209927
-0.462028
-0.314285
-0.380557
-0.364540
0.285767
-0.115066
-0.384812
0.668933
0.255241
-0.143230
-0.328298
-0.553039
-0.609295
-0.612204
-0.573181
-0.370036
0.123402
0.018479
0.495660
0.287328
0.217277
0.209677
-0.540109
-0.145407
0.388820
0.398540
-0.204218
-0.096597
-0.408199
0.466786
0.427081
-0.493897
-0.220581
-0.448776
-0.140225
0.431064
-0.156660
-0.323477
-0.096866
-0.060850
-0.207977
-0.455963
-0.280604
0.041666
-0.805331
-0.105384
-0.175623
-0.199410
-0.139791
0.368836
-0.070811
0.547543
0.181621
-0.667632
-0.540068
-0.226241
-0.177604
0.066170
-0.439007
-0.483910
0.119628
-0.413734
-0.445862
-0.432821
0.466141
-0.366237
0.379416
-0.196067
-0.338052
0.639655
-0.118987
0.352483
-0.132824
0.282930
-0.247419
-0.122276
-0.054461
-0.389801
-0.130913
0.277893
-0.527346
-0.536173
-0.283294
-0.206705
-0.377828
0.151866
0.268236
0.306879
0.464790
-0.109323
0.257192
0.204334
0.491867
0.369858
-0.105381
0.170166
-0.118065
-0.087872
0.022960
0.242487
0.366899
-0.344323
-0.238311
0.263885
0.520398
0.443868
0.120755
-0.007623
0.263297
-0.173731
-0.069623
-0.267519
-0.253469
0.527048
-0.324177
-0.171790
-0.026487
-0.045940
-0.033908
-0.246289
-0.049094
0.367282
0.187777
-0.482219
-0.488688
0.492570
0.447472
-0.480611
0.258396
-0.221681
-0.117180
-0.303213
-0.288360
-0.015188
-0.419455
0.323673
-0.006373
-0.257877
0.330289
0.336613
-0.420241
-0.183113
-0.198165
0.332215
-0.080483
0.033834
0.224901
-0.416263
0.128084
0.116651
-0.022190
0.017691
-0.232951
-0.011311
-0.141153
0.282757
0.466497
-0.104432
-0.033759
-0.018037
0.281096
0.054678
0.318306
0.386502
0.212646
-0.333583
-0.305691
-0.390226
-0.299202
0.161227
-0.418049
-0.564991
-0.317595
-0.115258
-0.078315
-0.239992
-0.061494
0.219030
0.374775
0.241134
-0.288678
-0.382465
-0.271911
-0.217812
0.069162
0.023833
0.237550
0.455424
0.477094
-0.385806
0.143340
0.156220
-0.398264
0.123175
0.269128
-0.124884
0.050073
-0.162376
0.068330
0.134534
-0.330271
0.382454
-0.293306
0.113661
-0.231546
0.038698
0.020146
-0.398799
0.075009
0.197778
0.240305
0.243065
-0.416830
-0.462705
0.413210
-0.428452
-0.362571
-0.108727
-0.210697
0.007199
0.271978
0.144720
-0.222308
0.329647
0.152648
-0.097996
-0.485979
-0.450958
0.411397
-0.064576
0.231473
-0.023442
0.320683
-0.136019
0.163589
0.188720
0.402262
-0.215794
-0.366509
-0.255683
0.390155
0.063424
0.392699
-0.212455
0.349914
0.435267
0.406692
0.257049
-0.421292
-0.412799
-0.415543
-0.027931
-0.125452
-0.198408
0.413387
0.432628
-0.174193
-0.470201
0.281599
-0.054803
0.250100
0.324465
0.092027
0.439648
-0.148801
0.459616
-0.408585
-0.209273
-0.374491
-0.425258
-0.086052
0.350378
0.325546
0.144948
0.247860
-0.236741
-0.192051
0.011563
0.464136
0.035879
-0.442383
-0.134541
-0.490255
-0.433745
0.363865
-0.069743
0.484276
0.346318
-0.235685
-0.241427
0.148016
0.309779
-0.216927
0.394431
-0.371896
0.490450
-0.373776
0.310887
-0.056472
0.127036
-0.430392
0.383839
-0.002179
-0.095545
-0.118922
-0.483629
0.114625
-0.115104
0.232387
-0.439647
-0.450039
0.134442
0.044743
0.119241
-0.287792
-0.234943
0.044617
-0.427977
-0.319572
-0.268587
-0.258685
0.167704
-0.327736
0.023816
0.200092
0.061543
0.473338
0.179500
-0.183651
-0.340059
0.082932
0.406188
0.412547
0.257989
0.059892
-0.495160
-0.329308
0.380579
-0.067949
0.348700
-0.387615
0.421294
0.234833
0.448275
0.145491
0.355866
0.383745
0.089844
0.499196
0.169838
0.491655
0.332312
0.099298
0.215715
-0.080264
0.359186
0.183863
0.395574
0.114069
0.286660
-0.179642
0.322524
0.253910
-0.372437
-0.346250
0.454381
0.186913
-0.384381
0.122905
0.090934
-0.027242
-0.210300
-0.186800
-0.286820
0.492065
0.211900
-0.460452
-0.324207
-0.376660
-0.459327
0.492539
0.329094
-0.290787
-0.359584
0.218244
-0.027667
0.161924
0.387392
-0.134705
0.441451
0.471188
-0.010557
-0.457221
-0.330730
0.140888
-0.035270
-0.192895
-0.238466
0.292364
0.163172
-0.202132
0.114066
-0.017526
0.482460
0.061253
-0.008460
0.299339
0.446345
0.300271
0.416902
-0.368903
0.422213
0.406536
0.268798
0.006476
0.165002
0.221216
-0.100035
-0.061244
0.098140
-0.252582
0.404781
0.186407
0.150762
-0.081607
0.032072
-0.463631
-0.437604
-0.029679
-0.391233
-0.309641
-0.328544
0.396425
0.299154
0.714847
0.357308
0.320573
-0.148956
-0.455345
-0.339436
0.416848
-0.142447
-0.418152
0.247726
0.379534
-0.116608
-0.439330
0.320128
0.052315
0.178322
0.455560
-0.344935
0.499804
0.230866
-0.368691
-0.030586
0.154311
-0.018022
-0.213739
-0.247678
-0.293123
0.055486
-0.611226
0.288853
-0.367835
-0.087546
0.337102
-0.068209
-0.333968
0.152893
0.437225
-0.023826
0.459055
0.266215
-0.137964
-0.086372
-0.174665
0.192418
0.183215
-0.210941
0.291050
-0.476735
-0.022691
-0.257793
0.044819
-0.036099
0.545013
-0.433687
0.232382
-0.197398
0.006314
-0.467316
-0.286765
-0.728886
-0.390442
-0.548837
-0.319088
-0.388008
-0.302414
-0.110155
0.572212
0.282366
-0.331695
-0.151650
-0.425091
0.149553
-0.058717
0.310930
-0.123553
-0.025676
0.063468
0.191902
0.210939
0.141215
0.116302
0.449209
0.466692
0.618547
0.517418
0.426708
-0.118760
0.348313
-0.426609
-0.421934
-0.033838
-0.506839
-0.626321
-0.357893
0.045799
-0.230221
0.260695
0.230613
-0.222910
-0.447795
0.497486
0.360707
0.490293
0.341492
-0.024898
0.107757
-0.228498
0.230511
-0.128416
-0.045191
-0.122473
-0.148335
0.085825
-0.097148
-0.107355
-0.216228
0.128944
-0.005090
0.537945
-0.157098
0.292744
-0.585096
-0.543487
-0.299191
-0.272055
-0.313342
0.083683
0.168171
-0.591210
-0.360101
-0.286780
0.162805
0.310911
0.560270
0.519222
-0.153262
-0.360706
0.112519
-0.113131
0.386840
0.391024
-0.403165
-0.266480
-0.036977
0.406730
0.041411
0.263874
-0.123238
0.300250
-0.134631
-0.201352
-0.184206
0.225984
-0.590894
-0.706309
-0.400906
0.015747
0.265470
0.380560
-0.247216
-0.232014
-0.321743
-0.348638
0.206399
0.104741
0.133398
-0.235508
-0.195759
0.061317
0.492050
0.352609
-0.026294
0.299303
0.017566
-0.260850
-0.312075
-0.009777
0.034634
0.461970
-0.435207
0.142036
0.172836
-0.532536
0.155972
-0.352307
-0.075164
0.090589
-0.709476
0.187332
-0.420077
-0.186881
0.354229
0.119351
0.381688
0.070055
-0.060633
0.469133
0.007825
-0.132766
0.155489
-0.357402
-0.339966
0.037732
-0.234465
-0.137378
0.170633
-0.303487
0.162436
0.275430
-0.113917
0.267542
-0.384805
-0.187138
0.206696
-0.452853
-0.257142
-0.812447
-0.194772
-0.582479
-0.299242
0.296697
-0.099961
-0.268224
0.574483
0.727076
0.286069
-0.105691
0.298662
-0.141613
-0.015916
-0.420713
-0.395851
0.324506
0.370211
0.500497
0.053290
0.442885
-0.167898
-0.422385
-0.310296
-0.381511
-0.106798
-0.056613
-0.299805
0.339742
-0.254436
0.187315
-0.862682
-0.162605
-0.446890
-0.779350
-0.307479
0.219565
-0.236601
0.449808
0.183935
0.419552
0.653032
-0.139375
0.434429
-0.157835
0.373072
-0.053231
0.434898
0.407929
-0.329687
0.221693
-0.275296
0.463135
0.221147
-0.256318
0.488957
0.392478
0.317755
0.185578
-0.425518
-0.234983
-0.510647
-0.527271
-0.251038
-0.291981
-0.237242
-0.352784
-0.264916
-0.008367
0.402910
-0.304000
-0.262103
-0.285185
0.410311
0.291591
0.249089
0.057621
0.042982
-0.021187
-0.197028
0.295411
-0.449178
0.424828
-0.073803
0.342835
-0.330049
0.241267
-0.316648
0.152439
0.065709
-0.426893
0.135633
-0.163583
-0.035354
0.043261
-0.607150
0.295004
0.279869
-0.444363
-0.327675
-0.316947
-0.524174
-0.128476
0.300937
0.233810
-0.031453
-0.222019
-0.255095
-0.422244
-0.131149
0.335308
-0.038882
0.220452
-0.250851
-0.274227
0.295841
0.122043
0.393755
-0.312906
-0.336694
-0.459929
-0.138182
0.060849
-0.203028
-0.040848
0.387837
-0.620985
0.049772
0.277889
-0.255256
0.022224
-0.578834
0.032357
-0.601290
-0.052606
0.202169
-0.137221
-0.098884
0.295173
-0.035824
-0.241990
0.344677
-0.021511
-0.280505
-0.383432
-0.238524
-0.339819
0.320496
-0.114027
-0.258360
0.433379
-0.337480
0.456533
-0.053695
0.208686
-0.315929
0.062240
-0.261981
-0.460616
-0.714911
-0.321687
-0.272822
0.525038
-0.535799
-0.400832
-0.025027
0.320408
0.026126
0.217390
0.239746
-0.482166
0.037321
0.390530
0.219635
0.382233
0.295796
0.287994
0.321846
-0.253717
0.383290
-0.094227
-0.269619
-0.221182
-0.051753
-0.295910
-0.216877
0.489395
-0.028101
0.360358
-0.412386
-0.400335
-0.096066
-0.444093
0.582506
0.637063
0.123925
-0.204712
0.142714
0.561195
0.705786
0.192045
0.311102
0.253420
-0.440605
-0.518398
0.094141
0.446119
-0.418146
-0.209159
-0.128580
0.020703
-0.148998
-0.340528
0.243441
-0.466531
0.020663
0.213700
0.101681
-0.344801
-0.051168
-0.186689
0.025961
0.209929
0.108050
-0.334114
0.410065
-0.250606
0.139603
0.421933
0.214564
0.396087
0.700698
0.570855
0.074595
0.102160
0.154083
-0.109836
-0.307106
-0.367924
0.387988
0.317240
-0.222566
0.216017
-0.395643
-0.111641
0.164818
-0.010431
0.371719
0.126117
0.518886
0.548852
-0.477209
0.386037
0.179519
-0.117451
0.549044
0.498590
0.241452
0.198759
-0.478701
-0.294234
-0.161811
-0.844440
-0.248812
-0.059693
-0.305059
-0.013897
0.104078
-0.159498
-0.296149
-0.030122
-0.360704
-0.463541
-0.184613
0.126535
-0.268338
0.397705
0.393338
0.367780
0.068896
-0.428595
-0.100388
-0.094038
-0.231435
0.375422
-0.000095
-0.215277
0.038209
0.066687
-0.679067
-0.098750
-0.645394
-0.713400
-0.619492
-0.263482
0.356275
0.227355
0.246268
0.536285
-0.140850
0.012219
0.067254
-0.051237
-0.119058
-0.482330
0.330124
-0.060157
0.378173
0.291803
0.227269
-0.441618
0.042371
0.127487
-0.306560
0.239655
-0.225200
0.539360
0.148614
0.233505
0.538926
-0.485444
0.123377
0.142498
-0.240177
-0.532531
-0.064479
-0.245390
-0.576889
0.353540
0.408223
0.362475
-0.282138
0.108884
0.164030
-0.529381
-0.335316
0.198175
0.317285
0.411257
0.260306
-0.310545
0.319181
-0.496024
-0.461004
-0.179827
-0.127485
0.489681
0.619963
0.063127
0.648443
0.459443
-0.070550
0.181639
0.306359
-0.645971
0.283451
-0.177073
-0.597052
0.034162
0.053223
0.298390
-0.135249
-0.197027
0.158848
0.432092
0.435952
0.071704
0.237953
-0.066334
-0.066821
-0.310523
0.035909
0.362784
0.410603
0.205364
0.173385
-0.039964
0.458606
0.315711
-0.370761
-0.094674
0.677908
0.527869
0.427950
-0.066430
-0.000579
-0.299171
0.156708
-0.000712
-0.084282
-0.136944
-0.419891
0.510788
-0.189275
0.694664
-0.023817
0.082067
0.205764
0.030948
0.405903
-0.134488
0.341850
0.204137
0.111951
-0.255134
-0.010417
-0.443063
0.320708
0.220461
-0.370128
0.014324
0.425118
-0.303637
-0.129224
0.062291
0.135103
0.284452
0.431778
0.216190
0.033015
0.208440
0.385373
-0.470346
0.357029
-0.039615
0.488254
0.246657
0.583900
-0.248359
0.546745
-0.220485
-0.236321
-0.116696
0.475884
-0.341620
-0.160611
0.249902
0.139088
-0.146330
0.399385
-0.264981
0.510895
0.057707
0.022233
0.172746
0.213753
-0.306160
-0.247906
-0.350373
0.349961
0.013208
0.092946
0.271516
0.052022
-0.045913
0.203310
0.579391
0.662296
0.343484
0.583571
-0.031864
0.471088
0.513273
-0.170449
0.428070
0.336258
-0.399491
-0.049117
-0.017760
0.163855
-0.342055
-0.377249
0.337336
0.279275
0.029639
0.491897
0.120999
0.190621
0.258457
0.366288
0.022763
0.116422
-0.534171
-0.302120
0.040593
0.221031
-0.554654
0.072452
-0.446042
-0.515314
0.033609
-0.178524
0.653037
-0.101011
-0.277142
0.209891
0.480076
0.076121
0.010098
-0.405597
-0.264932
0.108695
0.376057
-0.238583
-0.348933
0.327407
-0.492095
-0.448403
0.232165
0.036456
0.187402
0.496322
0.517751
-0.367884
-0.161472
-0.055588
-0.384881
0.262162
0.212397
0.249357
0.170107
-0.585322
-0.371685
-0.485824
-0.315964
-0.105449
-0.195160
0.341133
0.232111
0.477541
-0.197667
0.468246
-0.344658
-0.000424
-0.296511
0.248621
0.489160
-0.210823
0.148237
-0.327698
-0.201494
0.153264
0.172562
0.297249
-0.002205
0.162529
0.606994
-0.075662
0.321896
0.351191
0.092238
-0.457705
-0.012322
0.232854
0.099996
-0.194866
-0.375931
0.280161
0.353591
-0.452535
-0.017148
0.498907
0.457183
0.091130
-0.337071
-0.254736
0.082276
-0.192098
-0.361698
0.058058
-0.269911
0.339709
-0.109056
-0.461904
-0.003567
0.065453
0.174592
0.194346
0.407494
0.435897
0.452312
-0.149620
-0.052299
0.424929
-0.459609
-0.364990
-0.141885
0.369314
-0.278422
0.416373
-0.167168
0.493919
-0.274833
-0.420547
-0.204919
0.168533
0.080188
0.045619
-0.003859
0.180228
0.090826
0.366917
-0.296988
-0.382384
-0.494350
-0.389999
0.408817
-0.006572
0.437302
0.141756
0.357523
-0.158656
-0.264375
0.265330
0.151812
-0.194838
-0.253062
-0.233033
-0.118092
0.007387
-0.182814
-0.003535
-0.349524
-0.253638
-0.185827
-0.071706
-0.141901
-0.448070
0.423800
0.239854
0.379588
0.095423
-0.222563
0.159355
-0.470218
-0.102569
0.107238
0.450541
0.255423
-0.361930
0.402437
-0.257648
0.071114
0.138856
-0.084464
-0.109332
0.034314
-0.016596
0.066421
-0.005377
-0.337225
0.271979
-0.174404
-0.138337
0.109278
-0.123752
0.325871
0.364735
0.279871
-0.076675
-0.116212
0.052220
-0.396376
0.349111
-0.205959
-0.311744
-0.268501
-0.028793
0.072459
-0.376567
0.047093
0.496974
0.489028
0.212197
-0.162911
-0.212404
-0.294157
0.244353
0.024628
-0.404931
0.323999
-0.468280
-0.399950
-0.445730
0.086222
0.131093
-0.250617
0.434380
-0.194574
0.378281
0.287564
-0.376132
-0.007993
-0.562262
0.031140
0.347670
-0.346066
-0.478833
0.362560
0.139737
-0.256429
0.141150
-0.172972
-0.176974
-0.188740
0.207113
0.257797
-0.380479
-0.017473
0.096903
-0.086268
0.294788
-0.356680
0.474108
-0.028457
0.448067
0.107706
-0.472815
-0.141317
-0.488847
0.055243
-0.431681
0.285213
0.212465
-0.128530
-0.221667
0.453183
-0.184594
0.495549
0.198415
0.296093
-0.439734
-0.357936
-0.073216
0.165831
-0.380727
-0.391973
0.420127
0.369130
-0.123383
-0.229670
-0.111766
-0.491357
0.435887
-0.365312
0.413162
0.217986
0.222233
0.126008
-0.094583
-0.402135
0.174231
-0.216709
-0.024764
0.441778
0.401681
0.367699
-0.276704
0.034565
0.022221
-0.040103
-0.228744
-0.297907
0.235077
-0.339676
0.149989
-0.161009
0.494286
-0.049099
-0.252960
0.455494
0.369134
0.312320
0.472075
-0.412347
0.501302
0.324616
0.327185
0.167115
-0.294390
0.024004
0.289309
0.242870
0.319499
0.450119
0.255156
0.333721
-0.220860
-0.023595
0.136368
-0.414040
0.319940
-0.497783
-0.233047
-0.039844
0.497236
0.488696
-0.268811
0.233535
-0.179012
0.106794
0.248730
0.128536
-0.104971
0.408845
0.130376
-0.308042
0.016681
0.206111
-0.077543
-0.311472
-0.127715
0.055294
-0.281052
-0.394723
-0.456894
0.445436
-0.329043
0.462336
-0.193172
0.456080
0.271439
-0.258711
0.001127
-0.407390
0.401390
0.005369
0.201181
0.201014
-0.031452
0.353327
-0.105346
0.350386
0.058784
-0.207537
0.043212
0.460877
0.420796
-0.064235
0.132002
0.100464
0.029875
-0.169006
-0.212706
-0.133418
-0.029200
0.081818
0.271130
0.077155
0.159382
-0.317958
-0.335073
0.088636
-0.317608
-0.090874
0.212772
-0.479155
-0.198846
-0.371746
-0.000640
-0.129642
0.365318
-0.081367
-0.167837
-0.219891
0.364993
0.307000
0.266550
0.506156
0.307201
1.143838
0.971732
0.607437
0.895534
0.185188
0.750721
-0.161359
-0.230288
-0.339352
-0.051270
-0.383869
-0.306669
0.441280
-0.189272
-0.039909
0.191696
0.000781
-0.026831
0.139386
-0.041987
-0.066750
-0.140993
0.437152
-0.516392
-0.394658
-0.623342
-0.135529
0.063780
-0.558449
-0.712983
-0.385162
0.250006
0.174109
0.350515
-0.168701
-0.197196
0.317554
-0.020788
-0.291425
-0.387564
-0.156911
0.125392
-0.373391
-0.510505
-0.001738
0.343581
-0.166655
0.016739
0.295588
-0.201883
0.230287
-0.060459
0.434249
-0.512294
0.294879
-0.461841
-0.042738
0.408749
-0.617348
-0.127830
-0.644515
0.093420
0.357365
0.125233
-0.312928
-0.080743
0.135759
-0.401445
0.088916
0.094459
-0.196811
-0.244561
-0.118483
0.031087
-0.452957
-0.304235
0.464392
-0.497887
-0.184985
0.272068
-0.392712
-0.159998
-0.258032
0.268486
0.023671
0.059017
0.438707
-0.268584
0.054725
-0.451713
0.424688
-0.042838
0.263930
-0.167038
0.033747
-0.224290
-0.332403
-0.094644
-0.104638
-0.420867
-0.075705
0.076596
0.228627
-0.205817
0.080391
0.311164
-0.484559
-0.291841
0.421667
0.009626
-0.020224
-0.481860
0.055433
0.231529
0.310400
-0.040378
0.125454
-0.346992
-0.248514
0.257826
0.047037
-0.215653
-0.146522
0.350684
0.156448
-0.175868
-0.246966
0.171894
-0.331918
0.114868
0.077907
-0.064206
0.206135
-0.455840
-0.497957
-0.114432
-0.408840
-0.071575
0.186114
0.304362
0.461661
-0.068066
0.088931
-0.418412
-0.396450
-0.172889
0.246480
0.343645
-0.160673
0.475878
0.088557
0.143263
0.213494
0.250567
-0.374624
-0.233291
-0.173699
0.090233
0.349211
-0.631718
-0.032402
-0.140813
-0.467008
0.080507
-0.595366
-0.125014
-0.569296
-0.266945
0.211556
0.386048
0.066341
0.384291
0.017928
-0.147754
-0.438835
-0.162464
0.135041
0.160720
0.273575
0.059029
-0.175295
-0.269669
0.528607
0.393174
-0.333211
0.413926
-0.327896
-0.090733
-0.148314
0.282839
-0.023893
-0.002172
0.384691
-0.315282
-0.545747
-0.012427
-0.011657
0.113575
-0.552914
0.172201
-0.132260
-0.342981
0.301267
-0.443950
-0.502469
-0.275423
0.364909
0.178504
0.178187
-0.221863
0.114106
-0.008428
0.251755
-0.330982
0.363282
0.381016
-0.611032
0.024814
-0.588906
0.221499
0.158816
-0.062468
0.816866
-0.132247
0.230839
0.382495
-0.006085
0.300312
-0.622924
-0.290655
-0.654775
0.000114
-0.359283
-0.376360
0.012133
0.287603
0.160891
-0.499071
0.484883
-0.025192
-0.353209
-0.336041
0.121990
-0.458390
-0.172330
0.349915
0.149085
0.326584
-0.363862
0.316744
0.176256
0.328841
0.157582
0.232337
0.959206
0.258906
-0.011532
0.710822
0.377876
-0.108522
-0.667894
-0.664190
-0.045563
-0.507223
0.002413
-0.586784
0.137638
-0.209848
-0.107033
0.145901
0.496883
0.228450
0.451146
0.432302
-0.425752
-0.085267
-0.138399
0.153739
0.208170
0.512454
0.093398
-0.073049
0.035880
-0.131311
-0.144645
0.042699
-0.017694
-0.390926
0.438139
0.109795
0.404506
-0.315831
0.608057
-0.240290
0.447816
0.397502
0.232470
-0.282910
-0.403062
0.442658
-0.242348
-0.467934
-0.254952
-0.307941
-0.407546
-0.284589
-0.150570
-0.351563
0.478746
-0.460121
-0.492587
0.017068
-0.034688
-0.059135
0.702136
-0.042507
-0.010481
0.655147
0.718867
-0.382001
0.156667
0.278519
-0.249217
-0.033177
-0.131060
0.835980
0.552707
-0.089745
0.398927
-0.051653
-0.184252
-0.331124
0.094475
-0.005619
-0.214455
-0.059692
0.116899
0.298115
-0.436316
0.306851
0.440220
-0.083523
-0.175753
0.212601
0.386927
-0.055145
0.280290
-0.009776
-0.138878
0.145254
-0.270579
-0.103149
-0.543780
-0.138222
-0.294078
0.479464
0.171673
0.759567
0.616236
0.441962
0.276729
0.143451
0.019960
-0.441789
-0.334641
0.483816
0.096920
0.493971
0.292612
0.214644
-0.029878
-0.372399
0.005234
-0.438184
-0.508920
0.153541
-0.364539
-0.086487
0.066412
0.147387
-0.470458
-0.124266
-0.192956
-0.440199
-0.563224
-0.241200
-0.202807
-0.158868
0.627183
-0.093639
-0.130782
0.168027
0.333537
-0.229006
0.367105
0.030703
0.096546
-0.146020
-0.065096
-0.397849
0.364168
0.129943
0.478199
0.059740
-0.371806
-0.033238
-0.328232
0.056002
-0.448546
-0.608125
0.036046
-0.560096
0.089260
-0.437015
-0.362294
0.455963
-0.141186
-0.236297
0.398034
-0.192817
-0.223581
0.439257
-0.075948
0.555847
0.154675
-0.403719
0.314792
-0.182061
-0.409927
-0.364576
-0.120307
0.170017
0.217785
0.199129
-0.109298
0.452777
-0.140937
-0.148361
0.099059
-0.192955
-0.297481
0.406531
-0.100754
-0.274557
-0.091012
-0.653466
-0.060230
-0.211851
0.004637
-0.302427
0.351324
0.381149
-0.214701
-0.539548
-0.178490
0.458006
0.415519
0.376106
0.159702
0.254650
0.192618
-0.490295
-0.075637
-0.129339
0.222130
-0.059611
0.427987
-0.152183
0.135461
-0.231407
0.171733
-0.049980
-0.266858
-0.441412
0.130628
-0.364457
-0.438617
-0.378617
-0.618758
-0.089875
0.401433
0.555496
0.524431
0.101221
-0.667374
-0.047156
-0.249702
0.359713
0.124092
-0.408586
-0.031686
0.306948
0.083582
0.093303
0.155685
0.259320
-0.003381
0.332652
0.026347
-0.414985
-0.508188
-0.001701
-0.243284
0.409800
-0.245153
0.028736
-0.145876
-0.202496
-0.205892
-0.320074
-0.388121
-0.507320
-0.024421
-0.282421
-0.068160
-0.476021
0.064481
-0.398976
-0.568351
-0.486902
-0.023481
0.446688
0.188865
-0.289139
0.195551
-0.316195
0.246969
0.301694
-0.270726
0.304213
-0.249220
0.062351
-0.410539
-0.084090
-0.295801
-0.274320
-0.053501
-0.079469
0.118008
0.105563
0.188172
0.444943
0.179220
0.820608
-0.125512
0.203633
0.203166
-0.023923
-0.152475
0.201499
-0.090302
0.221435
-0.147051
0.540439
0.184009
-0.027475
0.246898
0.486750
-0.437323
0.306580
0.118919
-0.130458
-0.438910
-0.124901
0.001825
0.427165
0.259788
-0.331536
0.134576
-0.049879
-0.413477
0.387611
0.303744
0.667140
0.142582
0.693798
0.125489
0.632447
-0.269835
-0.519508
-0.066228
-0.208484
-0.116364
0.360041
-0.257087
0.020185
0.510784
-0.375908
-0.026804
0.408764
-0.321324
-0.329079
-0.086872
0.059860
-0.187274
0.239522
0.113990
-0.128621
-0.472477
-0.223011
-0.492467
-0.431407
0.475163
-0.403657
-0.136643
0.406744
0.194917
0.352339
0.517235
-0.049997
0.330252
0.124543
-0.241046
0.311404
-0.290687
0.439212
-0.064961
0.038971
-0.385827
0.078562
0.223295
-0.044584
0.174031
-0.076971
0.292235
-0.085019
-0.313725
0.078094
-0.391269
-0.268085
-0.136384
-0.195534
0.308275
-0.021179
0.133257
0.125311
-0.313086
-0.087591
0.611091
-0.025493
0.348598
-0.559460
-0.075996
0.285966
-0.528619
-0.091381
0.243136
0.085217
0.207452
0.462909
0.047849
0.494240
0.318183
0.214913
-0.182703
0.111036
-0.066107
0.232234
0.214207
-0.129010
-0.435643
0.301079
-0.453999
-0.319891
0.518160
-0.256439
0.122486
-0.173425
-0.344018
0.146039
-0.052918
0.090363
-0.266677
-0.092848
-0.404854
0.261732
-0.283396
-0.374829
0.347683
-0.450091
-0.419757
0.048151
-0.351557
-0.068093
-0.354707
0.280376
0.220730
0.102577
-0.267717
0.492786
0.028243
0.226010
-0.426669
-0.450128
-0.051368
-0.116519
0.201575
0.280068
0.023645
-0.244876
0.106138
0.198989
0.470384
0.549453
0.546081
0.196375
0.501865
0.476389
-0.348738
-0.238114
-0.300303
0.251068
-0.113697
0.060537
0.136967
-0.107844
-0.219641
0.349392
-0.418237
-0.064515
-0.263175
0.209829
-0.403954
-0.146677
0.199923
-0.405539
0.161548
-0.437273
0.116185
0.411931
0.514162
-0.413200
0.087026
0.232977
-0.052965
-0.359577
-0.166452
-0.463998
-0.389639
0.076891
-0.093598
0.260209
0.102552
0.057862
0.067131
0.254423
0.434103
-0.323627
-0.235576
0.010322
0.150295
-0.434625
0.292612
0.398241
0.483035
0.444535
0.222440
0.230089
0.252335
-0.411328
-0.226938
-0.362826
0.324890
-0.416155
-0.210303
0.300212
0.098042
-0.381797
0.285130
-0.429576
-0.410844
0.394967
-0.132024
0.151686
-0.432923
0.374013
0.327958
0.353101
0.306188
0.125298
0.176123
0.032565
-0.220788
-0.328011
-0.239684
-0.328175
-0.402875
-0.108270
0.420788
-0.467982
0.079664
-0.367615
-0.306512
-0.264159
0.291486
-0.243697
-0.168117
-0.333336
0.065135
0.297140
-0.214975
0.027930
-0.251315
-0.321476
-0.063643
-0.132848
-0.392922
-0.300036
-0.148234
0.485307
0.306239
0.468823
-0.096497
-0.290141
-0.449404
-0.230669
0.112371
-0.443831
-0.276399
0.366401
0.038433
0.290082
0.001184
-0.169135
-0.128605
-0.060935
-0.004752
-0.279508
-0.338000
0.326462
-0.045386
0.454559
-0.054932
-0.285800
-0.431407
-0.000544
-0.128601
0.469262
0.384560
-0.224152
-0.009541
-0.466366
0.454834
0.394341
-0.202264
-0.372371
0.258764
0.178573
-0.496602
-0.270757
0.022633
0.073847
0.427359
0.178797
-0.434350
-0.036574
-0.113287
0.345124
0.437677
0.323099
-0.194047
-0.491106
0.387325
0.373699
0.279672
0.377200
-0.369992
0.017692
-0.442749
0.425652
0.486163
-0.073170
0.242727
-0.412337
0.169860
0.226304
-0.153888
-0.102867
-0.491650
-0.359493
0.106832
0.287001
-0.153965
-0.429723
0.072527
-0.070068
-0.293333
-0.072747
-0.185418
0.023797
0.179701
0.229980
-0.063359
0.317150
-0.202758
-0.375151
-0.231572
-0.283857
-0.161115
-0.371587
0.243529
0.120281
0.251601
-0.119053
-0.165307
0.467142
-0.452450
0.332814
0.330330
-0.165983
0.139317
-0.391953
-0.016571
-0.243962
0.247037
-0.136066
0.114151
-0.066289
0.253561
0.286477
-0.304737
0.326410
0.028686
0.207556
-0.183196
0.475475
0.192234
-0.341224
-0.330489
-0.054735
0.250100
0.243335
-0.413013
-0.362896
0.492237
0.314807
-0.111556
0.488069
-0.347210
0.439714
-0.303765
0.023753
0.292126
-0.214930
-0.479603
0.429940
0.355808
0.220178
-0.314854
-0.354097
0.076955
-0.375649
0.210587
-0.353795
-0.447937
-0.472808
-0.385354
0.490835
-0.218579
0.214978
-0.216714
-0.303020
-0.421855
-0.374838
-0.552797
0.124499
-0.180669
-0.030679
-0.340750
-0.249522
0.116092
-0.362276
0.301619
0.464135
0.009157
-0.154322
0.495058
-0.152676
-0.442653
-0.221162
-0.402484
0.074769
-0.340012
-0.233275
0.115788
-0.154461
-0.183863
-0.282008
0.483256
0.578410
0.654483
-0.356126
0.097515
-0.115145
-0.147242
-0.018071
-0.258815
-0.350816
0.280676
-0.099830
-0.443948
-0.499189
-0.188743
0.000049
0.137829
-0.164742
-0.458240
0.418025
0.349736
0.285340
-0.183008
0.095462
-0.418734
0.157148
-0.230282
-0.042978
-0.015555
-0.096650
-0.422923
-0.586911
-0.194102
0.039901
-0.183117
0.840284
0.771257
0.263949
0.088084
0.106140
0.335008
0.472894
-0.292964
0.449499
-0.209406
-0.199277
0.304674
0.318320
0.272524
-0.349735
0.131947
-0.045944
0.099313
-0.177002
0.173790
-0.318952
0.122119
0.377467
-0.026608
-0.189757
0.029944
0.152072
-0.283420
-0.335060
-0.576531
-0.279237
-0.089067
-0.224120
0.039153
-0.308404
0.277722
-0.068683
-0.525612
-0.076072
0.185257
0.241297
0.436003
-0.250596
-0.224123
0.073706
0.135329
0.192078
0.487342
0.418706
0.257135
-0.229611
-0.466783
-0.016883
0.474952
-0.307244
0.413343
0.432009
-0.052039
-0.357678
0.124274
-0.457560
-0.465681
-0.418991
-0.150053
-0.207003
-0.316285
0.086758
-0.503113
-0.694895
-0.483486
-0.241741
-0.533548
-0.574580
0.299843
-0.372398
0.487394
0.188724
-0.441909
-0.064994
-0.018964
0.297597
-0.223591
-0.167508
0.058629
-0.315295
-0.181496
-0.428883
-0.218115
-0.095683
0.315735
0.415706
0.240051
0.493554
-0.168512
-0.012026
0.470352
-0.486542
-0.469066
-0.492489
0.038927
-0.046496
0.033703
-0.537679
-0.034433
0.195710
-0.065479
0.324361
0.161009
0.169936
-0.333438
0.197052
-0.465968
-0.215975
0.349177
-0.421622
0.141234
0.446957
-0.186265
0.161392
-0.406283
-0.192817
0.108415
0.595612
0.374224
-0.096801
0.475569
0.181522
0.244384
-0.017979
-0.317960
-0.587774
-0.388768
-0.279805
-0.143165
-0.197154
0.047851
-0.318020
0.210334
-0.403184
-0.111076
-0.139254
-0.134204
0.113112
-0.128713
-0.202069
-0.143871
0.173849
0.097871
0.166119
0.108554
-0.162924
0.377602
-0.178573
0.050113
0.195107
0.099700
-0.077921
0.477018
0.310743
-0.185408
-0.261499
-0.613662
-0.668709
-0.040998
0.044703
-0.605541
0.187061
0.269798
0.274425
0.371682
-0.211136
0.408403
0.181501
0.108050
-0.238372
0.196621
0.271714
0.307088
-0.181647
-0.019364
0.306639
0.459173
-0.227178
0.274272
0.281850
0.306673
0.244101
-0.129234
0.562110
0.264379
-0.081475
-0.021566
-0.115365
0.504327
0.430082
0.090513
-0.107886
-0.407776
-0.576160
-0.571966
-0.115063
-0.465271
-0.150770
0.180510
0.295570
0.481560
-0.361084
-0.039946
-0.047888
-0.015625
0.129432
0.215240
0.050656
0.118584
-0.483471
0.265779
-0.202247
-0.130436
-0.043510
-0.473269
-0.076791
0.555526
-0.017988
0.558449
0.719406
0.624964
-0.332716
0.296887
-0.010599
0.010724
-0.082773
-0.636727
-0.657970
-0.450542
0.110198
-0.330483
0.410228
-0.309993
0.029095
-0.282496
0.324819
0.108185
0.363195
0.328190
0.216211
-0.203675
-0.139590
-0.393700
-0.231479
0.129696
0.088569
0.194637
-0.317616
0.282618
0.560281
0.693247
0.177708
0.329915
0.282766
0.030221
-0.257412
-0.043438
0.118870
-0.533457
-0.553346
-0.023702
-0.263454
-0.412992
-0.101585
0.144233
-0.172718
0.482060
-0.145058
0.193226
-0.203042
-0.049326
0.264618
-0.382901
-0.406755
0.393187
0.248709
0.221212
0.229157
-0.655330
-0.230166
-0.562369
0.182991
0.666769
0.173047
0.060253
-0.459298
0.205283
-0.410055
-0.087930
0.001794
-0.727466
-0.335823
-0.004867
-0.380419
0.122281
-0.357239
-0.215888
0.041696
-0.157473
0.277228
0.103332
0.005851
0.073553
-0.373540
0.017552
0.187697
0.267918
0.164035
-0.300040
0.288773
-0.167382
-0.600714
0.152183
-0.352463
0.060260
-0.082085
0.344041
0.081446
0.533311
0.251704
0.015928
-0.196493
0.200122
-0.259363
0.049393
0.430912
0.424196
-0.433982
0.145757
0.212795
0.239034
0.183377
0.251429
-0.259782
0.056249
0.164617
0.106151
0.432618
-0.134071
-0.332978
0.458996
-0.477556
0.122324
0.112070
0.089504
0.536437
0.515147
-0.080127
-0.072922
0.692451
-0.106439
0.002162
0.346975
-0.091662
-0.038372
0.421251
0.223288
-0.138175
0.210294
-0.164352
0.000875
-0.197073
0.401806
-0.278563
-0.427581
0.220406
0.056202
0.015492
0.441161
0.051734
-0.037931
0.304393
0.536133
-0.111788
0.377947
0.519184
0.400891
0.590173
0.397134
0.495130
0.497017
0.320640
0.464853
-0.005336
0.823468
0.838676
-0.149906
0.527526
-0.055833
-0.294244
-0.238264
-0.103770
-0.293285
-0.062511
-0.468550
-0.097613
-0.239559
-0.096826
-0.344225
0.412442
-0.412409
0.278327
0.041214
-0.372832
0.381630
0.449350
0.115083
0.217220
0.061702
-0.007566
0.176651
-0.256278
-0.414521
-0.441924
0.895245
0.224194
0.538728
0.419694
0.572275
-0.448743
0.298303
-0.056642
0.023132
0.312772
-0.253832
0.091581
0.026541
-0.268388
0.051447
-0.035297
0.192509
0.016650
-0.382755
0.341156
0.186389
-0.359238
-0.114852
-0.057413
0.021244
-0.325295
-0.402005
-0.285883
-0.625314
-0.100313
0.213618
-0.257197
0.598958
0.127274
-0.258097
-0.064597
0.364394
-0.322408
0.289957
-0.216384
-0.212873
-0.028099
0.021249
-0.490583
-0.273783
0.425462
-0.185312
-0.114002
-0.209018
-0.274671
-0.316863
-0.001133
0.449963
0.511963
0.137060
0.394396
-0.465505
-0.385821
-0.358577
-0.181429
0.060615
0.301725
-0.324984
0.161988
0.073053
-0.320289
0.243262
0.159581
0.146730
0.046985
-0.193487
-0.372799
-0.451986
-0.169885
-0.218033
0.314585
-0.200420
-0.470300
0.147774
0.104543
0.319951
0.355084
-0.198899
-0.039706
-0.085280
0.115386
0.482203
0.222928
0.052598
0.580780
0.177295
-0.538524
-0.017270
-0.094716
0.262166
-0.165906
-0.147639
-0.054816
-0.341754
-0.414246
0.248294
-0.462900
-0.133814
0.200574
-0.297233
-0.381610
0.297833
-0.213749
-0.209482
0.273323
0.212246
-0.200319
-0.240227
-0.410932
0.393456
0.506768
0.477633
0.453298
0.520899
0.330185
-0.250085
0.309062
0.493646
0.407813
0.423576
0.286859
-0.386913
-0.799297
0.011032
-0.304555
0.225658
-0.419919
-0.306934
-0.079078
-0.143805
0.655315
0.321808
-0.458638
0.350131
0.045331
-0.221441
0.470914
0.332481
-0.253189
-0.386494
0.490533
-0.499086
0.201417
-0.034035
-0.087147
0.351740
-0.208480
0.102156
-0.053439
0.020222
-0.380736
-0.375385
-0.113369
-0.188771
-0.298839
-0.982949
-0.441788
0.206823
0.194394
-0.029210
0.398935
0.757478
0.340455
0.348222
0.113660
0.307449
0.247042
-0.010849
-0.229835
-0.265255
-0.083088
0.498699
-0.335447
-0.015831
0.245766
-0.200972
0.441888
-0.112137
-0.578556
-0.154798
0.264914
0.315771
0.112811
0.379023
0.172618
-0.572394
-0.177296
-0.947277
-0.232272
0.291144
-0.403215
0.236272
0.554021
0.756391
0.586919
0.016963
-0.478968
0.433613
-0.456689
-0.282256
0.248645
-0.277966
-0.139383
0.453307
0.416763
-0.445241
0.370842
0.110741
0.174611
-0.269534
0.113612
-0.124453
0.217074
0.163664
0.508433
0.408767
-0.397925
0.153659
-0.471104
0.028406
-0.099210
0.519877
0.244576
0.656585
0.167456
-0.315371
0.215161
0.190015
0.138568
-0.400572
0.070801
-0.105905
-0.153612
0.071024
0.388119
-0.094831
0.110543
-0.382804
-0.409555
-0.034148
-0.211632
0.061407
-0.290370
0.334528
-0.244394
0.290263
-0.098837
0.302851
0.290607
-0.611524
-0.125666
-0.523125
0.027267
-0.152749
0.227009
-0.242213
-0.421046
0.255656
-0.457801
0.164251
0.220021
-0.420684
0.163794
-0.276900
0.311863
0.427803
-0.480808
0.109759
-0.459447
-0.278992
-0.013814
0.118760
0.046087
0.222539
-0.089220
-0.080363
0.320245
0.127590
-0.065938
0.073029
-0.270383
-0.257300
0.002049
0.259868
-0.017835
0.208724
-0.293216
0.260959
0.169005
-0.152149
-0.105879
0.497393
-0.270922
0.199203
0.193426
-0.357344
-0.418617
0.110913
0.346926
-0.169803
-0.090720
0.279620
0.109894
0.319542
0.396831
-0.249847
0.411789
0.430985
0.277100
-0.362667
0.530808
-0.059111
-0.004934
0.120204
0.155416
-0.161395
-0.229200
0.307733
0.410056
-0.443409
-0.035329
-0.288881
0.241551
0.280374
-0.029359
-0.151321
-0.266689
0.166461
0.328135
0.281137
-0.184116
0.049687
-0.429365
0.297880
-0.118472
0.110359
0.424913
0.382123
0.448773
-0.072200
-0.424678
0.431045
0.313224
0.470923
0.006732
-0.247811
0.468168
-0.206460
-0.490480
-0.075704
-0.446386
-0.462869
-0.466284
0.079873
0.392847
0.326816
-0.173492
-0.381355
-0.350616
-0.233435
0.147895
-0.454589
0.089062
0.245515
-0.174041
0.360328
0.062245
-0.160357
-0.321415
-0.446885
-0.407587
-0.497609
-0.198948
-0.145614
-0.373772
-0.387327
-0.440933
-0.027225
-0.205368
-0.170012
0.037220
-0.315529
0.059192
-0.487505
-0.276901
0.335179
-0.181651
-0.089392
-0.079098
-0.032753
-0.035996
0.091849
0.276125
0.145063
-0.252424
-0.031287
0.451118
-0.338837
0.464197
-0.161665
0.042594
-0.140652
0.329061
0.106362
0.369504
-0.142035
0.140834
0.244701
0.273303
-0.188031
0.336089
-0.279101
-0.090653
0.393401
-0.216158
-0.026903
0.089362
-0.340134
-0.118530
0.364994
-0.226876
0.115512
0.091468
-0.470850
-0.432879
-0.041628
-0.213106
0.198368
-0.314093
0.227123
-0.227776
-0.056536
0.266617
-0.448299
-0.379952
0.458975
0.332561
0.195178
0.194622
0.398638
-0.030526
-0.417167
-0.191824
0.415436
-0.420655
-0.094032
-0.222331
-0.395504
0.020859
0.410714
0.323109
0.270848
-0.099387
-0.272156
0.309283
-0.071592
0.104523
0.392838
-0.249076
-0.265865
-0.095180
0.175997
0.418153
-0.413832
0.094695
-0.360926
-0.261826
-0.123851
0.005324
0.470651
0.268471
-0.069351
0.196946
-0.265906
0.167358
0.385703
-0.375118
-0.390766
-0.448404
-0.246898
0.259442
0.208446
-0.233508
0.025467
-0.379366
0.197859
0.202743
0.029829
0.256476
0.426311
-0.097898
-0.220901
-0.307398
-0.241008
0.026502
0.365395
0.177596
-0.335083
-0.351599
0.293714
-0.337704
0.047988
-0.496585
-0.472555
-0.003199
-0.173243
0.329014
0.223846
0.168477
-0.112904
0.004365
-0.055387
0.105346
-0.445643
0.120899
0.419347
0.342044
0.455611
-0.112597
0.100935
-0.216148
0.243468
-0.338547
-0.283190
0.146535
0.327957
-0.153023
0.115810
0.294729
-0.278756
0.239075
0.300130
0.009843
0.359215
0.323402
0.103629
-0.047907
-0.382166
0.445834
-0.392919
0.009355
0.049882
0.159173
0.224019
-0.342366
-0.460979
-0.252029
-0.481437
0.364432
0.071679
0.396100
-0.308100
0.082840
-0.322529
0.259748
0.394004
-0.015341
0.092191
-0.018051
0.475619
-0.040763
-0.157232
0.216886
0.192773
0.183378
0.098309
-0.059082
-0.192540
0.189292
-0.350076
-0.359568
0.334596
0.443173
-0.065285
0.464301
-0.019128
0.069964
-0.383580
0.022275
0.117699
0.192687
-0.314639
0.489816
-0.392589
-0.234579
-0.017439
0.441443
-0.352212
0.011069
0.327368
0.173563
0.248728
0.134513
-0.033276
-0.344971
-0.351502
-0.219495
-0.201547
0.101265
0.199043
-0.244852
-0.223330
0.181202
0.212613
0.390970
-0.188032
0.626083
0.016909
-0.018014
-0.356497
-0.227475
0.389466
-0.164301
0.457880
0.175821
-0.112495
0.040172
-0.191969
0.100922
-0.322095
0.107363
-0.320578
-0.123297
0.368295
-0.358928
-0.074816
-0.219338
0.269272
0.370998
0.012097
0.009718
-0.454965
-0.256096
0.154599
0.233939
0.194980
0.050367
-0.001596
0.783361
0.424451
0.461036
0.439224
0.574700
0.522245
0.336147
0.447177
-0.086174
-0.113451
-0.412850
0.171473
-0.225462
0.412461
-0.485712
0.266146
0.084362
-0.176106
0.261862
-0.172777
-0.307206
0.017325
-0.189597
0.254630
0.148280
0.272181
-0.253922
0.303292
-0.263484
0.439260
-0.636995
-0.274965
-0.069173
0.384937
-0.100044
0.318888
-0.309807
0.256463
-0.075343
-0.197051
-0.008522
0.318054
0.127906
-0.059173
0.145744
0.481324
0.444670
0.378416
-0.427989
-0.145955
0.298865
0.114564
0.473389
0.440860
-0.081360
-0.295419
-0.435036
0.264592
-0.171976
-0.212520
-0.012633
-0.091866
0.195074
-0.270313
-0.464596
0.360250
0.421548
0.623806
0.027379
0.306721
0.087786
0.066006
-0.429146
-0.077528
-0.498672
0.019219
0.358008
0.043398
0.352384
-0.482240
0.192425
0.263814
0.345736
-0.506872
-0.112800
0.191297
-0.004967
0.165765
-0.215553
-0.472853
0.020945
0.180649
0.215576
0.227546
-0.034362
-0.442580
-0.319144
-0.151612
-0.408720
0.012087
-0.112677
0.270502
0.425051
-0.512092
-0.233888
-0.261422
-0.299504
0.344836
0.449636
0.303588
-0.217108
0.190131
-0.339245
-0.349123
-0.153580
0.329285
0.288994
-0.399901
0.652553
-0.466936
-0.630218
-0.562868
0.088718
0.012762
-0.388283
0.440391
0.305101
0.301360
-0.488300
0.132816
-0.021216
-0.406743
0.118685
-0.388807
-0.195431
-0.142957
-0.095434
-0.457155
-0.151820
0.222812
0.386240
0.311591
-0.056960
-0.050365
-0.492614
0.472465
0.012156
-0.479826
-0.293670
0.394270
-0.147655
-0.243015
0.303308
-0.397920
-0.293104
0.172702
0.478426
0.062205
0.133613
0.130720
-0.502078
0.143144
-0.280116
0.223126
-0.436168
0.414937
-0.491560
0.105144
0.237919
-0.148741
0.015075
0.175178
-0.015951
0.306310
-0.357983
0.177391
-0.105975
0.424590
-0.247833
-0.416287
0.116998
0.195997
0.291938
0.350942
0.234683
0.355454
0.317798
0.163006
0.129613
-0.438370
-0.370068
-0.680910
-0.003489
-0.425118
-0.626578
0.209787
-0.235945
-0.455281
0.073222
0.059013
-0.109867
-0.022866
-0.059472
-0.361396
-0.228361
-0.024774
0.274005
0.285439
-0.259394
0.155306
-0.356943
-0.388481
0.366215
-0.072044
0.699279
0.642042
-0.131117
0.340483
-0.296444
0.451634
-0.190318
0.523845
-0.455973
0.043552
-0.505033
0.265952
-0.520899
-0.290852
0.139819
-0.026200
0.170823
-0.454295
0.251183
-0.105337
0.041786
-0.433442
0.266331
0.056943
0.002456
0.386085
0.295256
-0.262469
-0.468947
-0.134662
-0.003054
-0.295921
-0.113203
0.049479
0.381880
0.223980
-0.055402
0.763428
-0.031849
0.280386
-0.083291
-0.418361
-0.527521
-0.189494
-0.233384
-0.038302
-0.147262
-0.041907
-0.366887
-0.432857
0.470023
0.265322
0.157321
0.299463
0.069916
0.152811
0.140228
0.059238
-0.493755
-0.014106
-0.283940
-0.491293
0.315746
-0.023271
-0.326295
-0.055895
-0.086347
-0.112521
-0.210038
0.308068
0.364220
-0.345359
-0.423943
0.128074
-0.517669
-0.216697
-0.242925
-0.613856
-0.249995
-0.399105
0.441537
0.043064
0.455945
0.449110
0.384846
-0.427181
0.105665
0.223076
-0.243891
0.391239
-0.310523
0.324198
-0.190102
-0.324482
0.303492
-0.371513
-0.094876
0.100211
-0.537911
0.452048
0.149329
0.136194
0.507419
0.188401
-0.662743
0.155576
-0.381798
-0.164233
-0.784718
-0.854094
-0.316068
-0.604686
0.048756
0.404636
-0.136337
0.110607
0.139896
0.150601
-0.198387
0.088101
0.312610
0.022547
-0.016126
-0.028441
-0.337870
0.282863
-0.038239
-0.146077
0.070339
-0.198848
0.494271
0.224141
-0.081818
0.277666
0.210035
0.071047
0.232961
-0.714739
-0.566955
0.125961
-0.124346
-0.757696
-0.358965
0.246495
0.187957
-0.010746
-0.201568
-0.473334
0.029918
0.160029
-0.266483
0.011710
0.014247
0.018634
-0.127927
0.360237
-0.332960
-0.331035
-0.018434
0.197403
0.038145
0.183050
0.095295
-0.232286
0.189465
-0.311875
0.132821
0.289309
0.047109
-0.094548
0.029321
0.024225
-0.200397
-0.444333
-0.205881
-0.224418
-0.039256
-0.198318
0.392073
0.029402
0.076037
0.414561
0.487284
0.014160
-0.225055
-0.405402
-0.378515
-0.443254
-0.493933
-0.589090
0.035730
-0.273260
-0.449792
0.415893
-0.304215
-0.007219
-0.349417
0.278069
-0.073348
0.079926
-0.102558
-0.463279
-0.232589
-0.598695
-0.248797
-0.181059
-0.475034
0.229951
-0.214688
0.162582
-0.312136
-0.419124
-0.265089
0.363244
0.134369
0.347169
0.181612
0.054133
-0.469486
0.456032
0.346932
-0.423101
-0.147215
0.224634
-0.047752
0.258545
-0.248095
-0.101021
-0.185729
-0.303797
-0.224310
-0.470840
-0.205164
0.056704
-0.234804
-0.553168
-0.117999
-0.037776
0.075143
-0.029739
0.028417
-0.154100
0.219023
-0.068805
-0.196756
-0.187937
-0.180944
0.158248
0.217942
0.073260
-0.244755
0.471033
-0.119216
-0.285975
0.220742
-0.173578
0.237591
-0.580108
-0.290238
-0.283884
0.339961
0.047964
0.513871
0.078271
0.058765
-0.240235
0.346533
-0.170088
0.363881
0.371870
0.080706
-0.245188
-0.084834
-0.036860
0.265353
-0.161090
0.479060
0.042224
0.245150
0.432759
-0.221678
0.166182
0.117088
-0.434769
-0.259353
0.085403
-0.107125
0.322980
-0.101613
-0.285052
0.089014
0.142383
-0.326829
-0.366900
-0.276727
-0.466603
-0.153712
-0.275683
0.071388
0.204733
-0.247099
0.203608
0.319616
-0.454230
-0.243191
0.466175
0.175344
0.457818
0.064218
-0.173878
0.460349
0.099778
-0.476178
0.469045
-0.463368
-0.353771
-0.316637
0.433091
-0.280531
-0.367719
0.218887
-0.511995
-0.546545
0.029283
-0.089750
0.621442
0.294381
-0.134563
0.650541
0.039648
0.281484
0.493094
0.262871
-0.295894
0.351364
-0.372448
0.357920
0.226261
-0.094157
-0.100852
-0.203749
-0.117368
-0.092046
-0.100224
-0.331310
-0.278112
-0.318892
0.464104
0.523879
0.325234
-0.223948
-0.198187
-0.625377
-0.181353
-0.340787
-0.141275
0.147200
-0.058466
0.180393
0.061875
0.681345
0.500247
0.642293
0.536188
0.236655
0.313329
0.461776
-0.428877
0.229193
0.305530
-0.488962
-0.363962
0.012574
0.153807
0.469525
-0.201321
-0.014312
0.228345
0.211493
0.233401
-0.364628
0.315426
-0.119623
0.099503
-0.135813
0.266337
0.216561
0.123531
0.636542
0.369432
0.176654
0.506412
0.772760
0.464534
0.475607
-0.215029
-0.256532
0.386225
0.351495
0.095256
0.408757
-0.034690
0.454421
-0.173611
0.118001
0.469248
-0.310681
-0.482554
0.324071
0.332508
0.495357
0.207812
0.128199
0.404498
-0.331162
-0.225393
0.068567
0.115872
0.347229
0.170084
-0.585457
0.194713
-0.290236
0.251603
0.553839
-0.155078
-0.242441
-0.117624
0.398333
-0.216493
0.138771
-0.301333
0.094585
0.009171
-0.141086
-0.215149
-0.366225
0.279680
0.191966
-0.065941
-0.167792
-0.128191
-0.317879
-0.258310
-0.059291
0.016428
0.110916
0.082179
-0.184746
0.449995
0.340077
0.308876
-0.210022
0.468578
0.126920
0.580813
-0.010692
0.015622
-0.245180
0.130003
-0.156231
0.028222
0.055746
-0.065294
0.325774
0.105885
-0.313797
0.010412
-0.387461
-0.294299
-0.117647
0.122023
-0.071736
-0.193416
-0.191951
0.137924
-0.223183
-0.047930
0.246380
-0.111648
0.245163
0.017231
0.682707
0.562224
0.659757
0.188718
0.194445
0.437811
-0.483854
0.311463
-0.457499
0.439424
-0.422599
0.361554
-0.049812
0.330059
0.360100
-0.026394
0.197508
-0.090206
0.169803
-0.037854
-0.101413
-0.163438
-0.261869
-0.275912
-0.201895
-0.235597
0.105042
0.171097
-0.130420
-0.185193
-0.250524
0.487928
0.209273
-0.373259
0.190676
0.325013
0.114869
-0.104729
-0.178513
0.220803
-0.298132
0.012778
0.295730
0.307627
-0.314451
-0.345224
0.391575
-0.184941
0.356271
0.478347
0.037143
-0.270362
0.091314
-0.445760
-0.188566
-0.313975
0.291254
-0.241552
-0.325999
-0.080653
-0.461329
0.104946
0.223683
0.048947
0.239214
-0.255735
-0.365256
0.161268
0.254136
-0.108328
0.036603
0.138536
0.052185
0.464485
-0.254371
-0.497319
0.244820
0.011059
-0.310827
-0.115885
-0.466708
0.285159
-0.157659
-0.135370
-0.105398
-0.347630
0.289208
0.371624
0.194740
0.147828
0.374479
-0.133918
0.456911
-0.380544
0.229027
-0.376289
0.365524
0.053342
0.340946
0.022192
-0.436656
0.276180
0.292290
-0.014203
-0.347276
-0.269861
-0.169786
0.314562
-0.446170
0.270096
0.392676
-0.167183
0.326951
0.089548
-0.438950
0.037643
0.186287
-0.547660
-0.074066
0.423594
0.414212
-0.112430
0.295579
0.277631
-0.418554
0.450312
-0.008494
-0.293086
0.322568
0.164990
-0.231878
-0.302356
0.082895
0.230422
0.102076
-0.400162
-0.245790
-0.369392
-0.073387
-0.320519
-0.470850
-0.136225
-0.251175
0.148379
0.289735
0.020109
0.375320
0.448645
0.083883
0.315388
0.176429
0.387396
-0.018897
-0.078123
0.465458
0.298692
0.405587
-0.094104
0.267997
-0.152136
0.403428
-0.049797
0.359394
-0.034852
-0.224343
-0.414089
0.487917
-0.255946
0.120780
-0.029324
-0.369049
-0.139429
0.197904
-0.288997
0.467261
0.369736
-0.131478
0.375051
0.425951
-0.326250
-0.473084
-0.478838
-0.046729
-0.138030
0.314416
0.231230
-0.206907
-0.432048
-0.323464
-0.379288
-0.155009
-0.174596
-0.288413
0.138865
-0.080578
-0.232988
-0.207086
-0.333017
-0.015594
-0.284618
0.281202
0.019860
-0.516926
-0.429120
0.426798
-0.137522
0.187429
-0.099061
-0.031251
0.367243
-0.039451
-0.325937
-0.131590
-0.016831
-0.069024
-0.386347
0.103439
-0.412992
-0.227429
-0.310762
0.456725
-0.315190
0.416957
0.386199
-0.348135
-0.051783
-0.161226
0.095547
0.306987
-0.481827
-0.254740
0.032023
0.182717
0.066231
0.362856
-0.173596
0.110970
0.473978
-0.202445
0.370322
0.433788
0.233274
0.185392
-0.349898
0.188408
0.285857
0.116344
0.168622
-0.049172
-0.433150
-0.241872
-0.312339
-0.413046
-0.172129
-0.043987
0.191263
0.473013
-0.300085
0.361934
0.320070
-0.083408
-0.218379
-0.224626
-0.440658
0.405024
-0.318316
-0.240715
-0.207910
-0.154418
-0.074365
-0.281868
-0.280251
0.406807
-0.087380
-0.112315
0.462611
-0.287577
-0.140297
-0.191404
0.425433
-0.017148
-0.296481
0.047917
0.295650
0.336840
-0.446779
0.021549
-0.496015
-0.108741
-0.495060
0.065787
-0.500228
-0.140876
-0.562956
-0.250526
0.407394
-0.003588
0.264961
0.222420
0.385641
0.111360
0.198344
0.329918
0.016227
-0.102015
-0.247012
-0.267853
-0.485140
-0.397096
-0.088695
-0.216286
-0.297956
-0.215127
0.433389
-0.294581
-0.269434
-0.158463
0.109881
0.466558
0.138058
-0.582355
0.010527
-0.316627
0.263116
0.219080
-0.024716
0.167437
-0.438028
-0.295266
-0.420160
0.255292
0.087561
-0.315557
0.011895
0.218614
-0.473680
0.188108
-0.150355
0.238401
-0.364954
-0.192351
0.032225
-0.305519
-0.497236
-0.059580
0.074851
-0.095865
0.210461
-0.294170
0.230264
0.164644
0.238954
-0.212919
0.159633
-0.337731
-0.457924
-0.459100
-0.615294
-0.438891
-0.055515
0.086711
-0.533040
-0.498152
-0.249337
-0.405384
0.140735
-0.427408
0.382781
-0.004813
0.000164
0.219662
0.030604
0.196946
-0.416218
-0.428028
0.421188
-0.248588
-0.307740
0.186845
0.040501
-0.511782
0.369517
-0.337176
-0.152315
-0.386702
0.185616
0.378894
-0.133236
0.311758
0.253680
0.488818
0.228773
0.423652
-0.212975
-0.291051
-0.216732
0.168737
0.317608
-0.309783
-0.195584
-0.359492
-0.053019
-0.220166
-0.131751
-0.444408
0.441046
-0.052387
-0.486985
-0.215354
-0.386346
-0.006283
-0.353962
0.403170
0.220220
-0.640914
-0.384900
0.490991
-0.455831
0.077783
0.057212
0.394733
0.024093
0.396051
-0.094147
0.228937
0.023327
0.252980
0.131398
-0.133681
-0.527224
0.254091
0.241282
-0.455111
0.401181
0.125270
0.416338
-0.193105
0.434966
0.435492
0.332225
0.050018
0.334585
-0.391362
0.422935
-0.125311
-0.110184
0.135876
0.396574
-0.280617
0.004339
0.297464
-0.185818
0.139625
-0.253097
-0.228974
0.218792
0.093403
0.554894
0.132042
-0.150123
-0.253571
-0.294341
0.061354
0.292820
0.309380
0.297793
-0.433426
0.009090
0.004547
-0.290910
-0.170912
-0.402637
-0.463693
-0.251297
0.475536
-0.269588
0.171397
0.236045
-0.319621
-0.207843
0.143398
-0.279636
-0.041869
0.526426
0.302610
-0.114049
0.004076
-0.078428
0.305350
0.114701
-0.221088
0.532133
-0.247331
0.332980
0.208994
-0.118227
0.247687
0.044423
0.431295
-0.487779
0.097167
-0.431813
0.113878
0.116933
-0.215562
0.390244
-0.502569
0.319977
0.010044
-0.068913
-0.449354
-0.287957
-0.061512
-0.021973
-0.078012
-0.411047
0.400313
-0.430315
0.283463
-0.400597
-0.347274
0.130234
-0.180462
-0.236504
-0.081433
0.198745
-0.192450
-0.114583
-0.263812
0.359541
-0.219785
-0.369400
-0.082320
-0.293872
0.308149
-0.055130
0.373202
0.330645
0.087157
0.381652
0.373160
-0.125817
0.226265
0.050343
-0.264332
0.337692
-0.049779
0.366677
0.298622
0.222311
-0.306195
-0.399978
-0.114253
-0.161234
0.213465
-0.432157
0.172106
0.146153
-0.336013
0.004240
0.343932
-0.398511
-0.119391
0.164339
-0.094699
-0.079523
-0.425641
-0.166027
0.291091
0.110193
0.282364
-0.098364
-0.285945
-0.331289
-0.467095
-0.092340
0.333992
-0.301060
0.700403
0.551367
-0.356449
0.364514
-0.217059
0.147756
-0.151396
-0.032213
-0.154103
0.114516
-0.184529
-0.224958
0.020383
-0.304578
-0.266609
0.161218
-0.386490
-0.029118
0.361730
-0.201012
-0.324235
0.075044
0.227184
-0.248467
-0.250070
0.209921
-0.439051
-0.345089
-0.390977
-0.225047
-0.212500
0.473138
0.650428
0.022689
0.266690
-0.272647
-0.547816
0.224306
-0.253145
0.484960
-0.188999
0.065108
0.195387
-0.241320
-0.069039
-0.317425
0.457090
0.418789
-0.192049
0.294934
0.156432
-0.309539
0.124979
-0.025039
0.405000
-0.376520
-0.387019
0.178371
-0.185052
0.268687
0.459170
-0.144626
0.321048
0.288872
0.244637
0.259018
-0.590401
-0.464025
-0.259151
0.061538
0.483369
0.108061
0.309019
-0.276887
-0.576612
-0.423036
0.019856
-0.297400
0.103309
0.261087
-0.468537
-0.405472
-0.177668
0.038704
-0.251430
0.319467
-0.107038
0.252770
0.006738
-0.444734
0.362549
0.155098
0.300309
-0.061873
0.489997
0.678516
0.108685
0.213769
-0.058102
-0.477018
-0.349321
0.075185
-0.314041
-0.454530
0.435061
-0.070532
-0.080981
0.295369
0.369922
0.093233
-0.370549
-0.467437
-0.356490
0.153071
0.228053
0.440356
0.369839
-0.212506
0.000151
0.450399
-0.369806
-0.330887
-0.180796
-0.295912
-0.232957
0.063776
0.255518
0.207240
0.106900
-0.036575
0.017258
0.210608
-0.670057
-0.080735
-0.460534
-0.284576
-0.195771
0.184317
-0.109459
0.189285
0.206857
0.273980
-0.448655
-0.242009
-0.394787
-0.395613
0.360194
-0.087197
-0.049514
-0.266330
0.101271
-0.274195
-0.420497
-0.259079
-0.094431
0.240893
0.033061
-0.037698
0.125066
-0.187843
-0.003683
-0.148825
0.225850
-0.088814
0.055896
-0.592554
0.248415
0.211906
-0.093013
0.119070
0.392573
0.274741
0.450270
-0.511466
0.473978
-0.117834
0.112018
0.233101
-0.061239
-0.477255
0.435323
-0.441837
-0.234803
-0.359093
-0.147276
-0.223930
-0.345698
0.240250
-0.279545
0.040407
-0.043016
0.068135
-0.079672
-0.039670
0.145903
0.208680
0.127453
0.303151
0.038403
0.036004
0.145792
-0.430953
0.185919
-0.254976
-0.004747
0.298967
-0.388593
-0.467552
-0.308907
0.188044
-0.244906
-0.347227
0.191449
0.201404
-0.477742
0.272556
-0.043827
0.282920
0.281961
-0.379713
-0.493624
-0.379430
-0.176796
-0.102245
0.577786
0.636106
0.412347
-0.010612
0.264132
0.505320
0.147725
0.319520
0.473859
-0.383837
-0.138066
0.256839
-0.302617
-0.324187
-0.204784
-0.051614
0.153927
0.069057
-0.452189
-0.285984
-0.157650
0.475329
0.407586
0.184421
0.103181
-0.004595
0.292158
-0.610463
-0.200113
-0.316859
-0.394116
0.248659
-0.105997
0.146880
-0.235138
0.622171
0.128845
-0.113494
-0.246510
-0.163755
-0.285703
-0.408863
0.219734
0.092127
0.060711
0.113632
0.048585
0.474340
-0.248752
-0.439436
-0.370206
-0.055719
-0.004023
0.424982
0.210312
0.426353
0.246683
-0.394263
-0.478373
-0.348246
-0.151063
0.283139
-0.555391
0.211859
-0.216225
-0.488955
-0.538137
0.172975
0.093296
-0.379629
0.222838
0.235751
-0.134340
-0.346988
0.054171
-0.075698
-0.025292
-0.009247
-0.085269
0.059083
-0.102633
0.110314
-0.059910
0.145002
0.170215
-0.086950
-0.378462
-0.311315
0.314476
-0.305410
-0.468095
-0.229974
-0.126397
0.125540
-0.348624
0.106732
-0.479259
-0.505470
-0.287411
0.164553
-0.327068
0.057795
-0.331026
-0.026344
-0.519351
-0.589856
0.159516
-0.495065
0.328334
-0.235360
-0.450635
-0.117101
-0.151562
-0.079183
0.271753
-0.412532
0.278027
-0.029787
-0.480777
-0.192992
-0.092249
0.456134
-0.314147
0.327017
-0.292284
-0.435549
-0.576168
-0.616645
-0.384382
-0.603183
-0.163111
-0.357086
-0.107928
0.264794
0.104853
-0.285063
-0.600045
0.167371
-0.159548
-0.503215
-0.346454
0.284366
0.476208
-0.008112
0.408145
0.089725
0.186984
-0.084193
-0.283561
0.279273
-0.300768
-0.173173
0.223660
0.114648
-0.172474
-0.386470
0.099561
-0.536612
0.281169
0.273408
-0.582382
-0.362359
0.320491
-0.350987
-0.448183
-0.186024
-0.017804
0.381849
-0.052433
-0.189049
-0.269444
0.006811
0.042918
-0.428195
-0.140966
-0.100638
-0.136871
0.058821
-0.457455
0.082494
-0.050099
-0.487952
-0.101126
-0.196696
-0.187057
0.318214
-0.122808
0.462371
-0.423475
-0.459644
-0.419306
0.001061
0.041393
0.058866
0.258075
0.118713
-0.240601
-0.440694
0.128495
0.127512
0.440413
0.202528
0.317125
0.469910
-0.032244
-0.108836
-0.387271
-0.233786
0.285728
-0.159359
0.014366
0.488278
0.144194
0.245931
-0.242879
0.003532
-0.230767
-0.488292
0.472101
0.409665
0.009212
0.200957
0.125755
0.437259
-0.543685
0.308908
0.240212
-0.042505
0.303507
0.238338
0.470162
-0.012886
-0.064186
-0.329681
0.240775
-0.316311
0.258003
-0.293023
0.431886
0.218840
-0.107871
-0.352854
-0.310444
0.092509
-0.275990
-0.466442
-0.464029
0.334972
-0.028569
-0.454755
-0.370531
-0.103160
0.027555
-0.174461
0.078991
-0.275971
-0.440153
-0.384426
-0.045182
0.329233
-0.344209
-0.472907
0.085041
-0.248523
0.469570
0.093165
-0.344334
-0.074952
0.202325
0.274494
-0.319852
-0.188897
0.141277
-0.398018
-0.017406
0.109612
-0.397493
-0.313467
-0.305800
0.498863
-0.166092
0.285984
-0.186592
-0.363317
-0.138958
0.428266
0.396162
0.443019
-0.147654
-0.232466
0.182867
0.356657
-0.175439
0.275864
0.263998
-0.083192
-0.108611
0.003205
-0.034385
-0.453970
-0.460801
-0.374245
0.304541
-0.075710
-0.298586
0.282145
0.009407
0.069201
0.198402
-0.415476
-0.427011
0.298405
-0.049455
-0.371477
0.088121
0.299387
-0.340676
-0.053609
-0.086280
0.026929
-0.266234
-0.273066
-0.220568
0.194702
-0.377674
0.070963
-0.498723
0.254750
-0.038280
0.240533
0.041679
0.346398
0.347357
-0.135525
-0.363532
-0.315557
-0.380143
-0.149189
0.039500
0.342222
-0.451966
0.400382
0.333483
0.381290
0.147567
0.380071
0.004625
0.386713
0.286545
-0.303469
-0.417862
-0.478041
0.399186
0.391026
-0.162458
-0.437384
0.453765
0.482060
0.277815
0.481782
-0.084540
0.378525
-0.030544
-0.486709
0.402866
0.268321
-0.127748
0.315054
0.121261
-0.369826
-0.348890
-0.398037
0.327839
-0.169439
-0.398986
0.076047
0.335955
-0.443008
0.450301
-0.351415
-0.030884
-0.337585
-0.038847
-0.100695
-0.067677
0.046187
0.171594
-0.403743
-0.393323
0.423533
0.439650
-0.391593
0.122398
-0.326768
0.399432
0.220438
-0.049245
0.380819
0.321577
-0.323642
0.474365
-0.288634
0.452239
-0.054697
-0.215858
-0.377935
0.124589
0.040874
-0.015339
-0.467654
0.341310
0.165403
-0.095177
0.041188
0.085012
0.003460
-0.414166
-0.156921
-0.238358
0.181399
0.304833
-0.292843
-0.287330
-0.314249
0.131011
0.475605
0.125339
-0.356760
-0.196246
-0.234221
0.444918
-0.476326
-0.384576
0.281840
0.310703
0.498054
0.130944
0.384605
-0.118944
0.318495
-0.159830
-0.343942
-0.385624
-0.039770
0.387452
-0.070860
0.002474
-0.223485
0.261636
-0.097778
-0.026190
-0.284203
-0.347769
0.179781
0.097348
-0.196310
-0.346637
0.172032
0.035558
0.226243
-0.461113
-0.442280
0.424111
-0.288236
-0.260807
-0.406723
-0.472760
-0.207762
-0.128512
-0.291908
0.108435
-0.466488
-0.469305
-0.234145
-0.310968
0.424140
-0.294677
-0.155489
-0.045486
0.141762
-0.386796
0.270412
-0.623635
-0.494720
-0.343868
0.187983
-0.336655
-0.531367
-0.264799
-0.190799
-0.256719
-0.312036
0.263148
-0.227709
-0.021252
0.395391
0.198993
0.019728
0.076962
0.292118
-0.376218
-0.198164
0.329153
0.439139
0.361692
0.027583
0.073627
0.347191
-0.220392
-0.226773
0.132755
-0.457473
-0.645640
0.189108
0.354344
-0.254933
-0.178414
-0.057536
-0.511481
-0.592780
-0.382666
-0.243139
0.380457
0.062598
-0.226101
-0.377283
-0.278689
-0.149820
0.018369
-0.013908
-0.469908
-0.404104
-0.031424
0.404961
-0.446198
0.128156
0.498814
0.129402
0.330011
0.477952
-0.449688
-0.338297
0.487480
0.207375
0.500226
0.745059
0.288886
-0.461761
0.311921
0.126569
-0.143171
-0.253099
-0.268587
0.251340
0.270884
0.168387
-0.298659
0.633268
-0.275973
0.033622
-0.072921
-0.392232
-0.473587
-0.372559
0.097709
-0.161391
0.232150
-0.074672
0.107327
-0.241215
-0.371869
0.131304
0.179065
-0.345062
0.421439
0.360265
0.552218
0.033533
0.238437
-0.383580
-0.605575
-0.279902
0.172896
0.332974
-0.040983
-0.132413
0.456726
-0.164255
0.288650
-0.176403
0.573594
-0.080500
-0.136450
-0.442743
0.398609
-0.461455
0.366950
0.302493
0.363023
-0.002982
-0.411593
0.455242
-0.162568
-0.067813
-0.535195
-0.056916
0.064100
-0.256620
0.217339
0.245343
-0.109408
-0.171986
0.215666
0.513338
-0.022948
-0.114885
0.410399
0.104797
-0.082628
0.089480
-0.076253
-0.456263
0.350547
0.450478
0.485151
-0.221758
-0.103323
0.123989
0.334722
-0.158538
0.301796
0.092416
0.440176
0.496291
-0.378742
0.152474
0.222501
0.355713
-0.403386
-0.624118
-0.017474
0.272501
-0.180124
0.043403
-0.660625
-0.406008
-0.065643
-0.125999
0.341395
-0.005261
-0.261690
0.507498
-0.153292
-0.260624
0.304550
-0.133909
-0.442221
0.077250
0.282595
0.084239
0.488748
0.323773
0.123214
0.188685
0.420756
-0.356021
0.287977
-0.106688
-0.177075
-0.163834
0.013320
-0.548581
-0.618950
-0.372750
-0.479455
-0.154628
-0.426462
0.199886
0.105955
-0.035536
0.207224
0.612359
0.145671
0.256332
-0.256936
-0.242765
-0.415673
0.498237
0.149515
0.321331
0.375094
-0.468289
-0.134102
-0.466287
0.053918
-0.120801
0.144855
0.285509
0.268453
-0.046854
0.013416
-0.107539
-0.015816
-0.145271
-0.531835
-0.167534
0.155010
-0.116463
-0.211414
0.550281
0.065882
-0.137410
0.030569
-0.014563
0.389067
-0.123643
-0.071489
0.368408
-0.253534
0.151650
0.401981
0.287713
0.485528
0.309408
-0.011984
-0.227682
-0.419001
-0.174993
0.163090
-0.352203
0.267308
0.443305
0.102947
-0.664629
0.046087
-0.344400
-0.205808
-0.364939
0.197396
0.264042
0.530941
-0.215371
-0.236073
-0.164888
-0.083340
-0.459432
0.173881
-0.573914
0.183074
-0.495847
-0.090149
0.112578
-0.175066
0.193832
-0.452606
-0.335147
-0.499543
-0.055738
0.356484
0.304026
-0.085528
-0.448839
-0.099417
0.040958
-0.092740
-0.246597
-0.453949
0.292604
-0.309786
0.125694
0.169131
0.062826
-0.250860
-0.355640
0.282871
-0.780930
-0.972810
-0.140240
0.070499
-0.394940
0.294124
0.237039
-0.399525
-0.067693
-0.477651
-0.020972
-0.498928
-0.420055
0.289662
-0.200394
-0.150375
-0.062753
-0.000746
0.489390
-0.167289
0.306244
0.363730
0.053718
0.047500
-0.474101
0.192045
-0.259954
-0.257228
0.080412
-0.479590
-0.498111
-0.081234
-0.299698
-0.834837
-0.534693
-0.296004
-0.046599
-0.053528
-0.209761
-0.241013
0.409681
0.353091
-0.125944
0.278160
-0.103672
0.491001
0.380060
0.324631
0.230462
-0.115919
-0.247293
-0.281260
-0.305788
0.342190
0.032508
-0.351427
-0.096889
-0.000601
0.042780
0.142966
-0.668605
-0.786664
-0.276668
-0.221295
0.349231
-0.398545
0.178482
0.257592
0.222046
0.297014
-0.378008
0.444003
0.436074
0.298463
0.180545
0.497594
-0.334094
-0.224179
-0.371808
-0.393512
-0.115049
-0.432686
-0.414864
0.260646
0.357980
0.058874
-0.058964
-0.005324
0.183370
0.127505
0.426001
-0.311522
-0.476425
-0.439177
-0.592510
-0.540214
0.369167
-0.055740
-0.377526
0.247480
0.067282
-0.453967
0.110907
-0.413707
-0.284050
0.488639
-0.292383
-0.295850
0.300993
-0.185705
0.475407
-0.097395
-0.169415
0.425319
0.091832
0.389285
-0.289660
-0.186088
0.250508
0.410826
0.152940
0.367844
-0.096586
-0.639914
-0.452042
-0.115393
0.085859
-0.053122
0.085663
0.374166
0.440947
0.347728
0.121594
-0.141509
0.400216
-0.063310
0.216883
0.245428
-0.224953
0.062562
-0.463348
0.249759
0.182841
-0.215624
0.279066
0.088176
-0.182374
-0.481266
0.203831
0.054435
-0.365036
-0.406987
0.593903
-0.090276
0.217226
0.189650
-0.017503
-0.096792
-0.104690
-0.156415
0.395950
-0.289179
0.486549
0.063798
-0.290643
0.021119
0.424322
0.318864
0.238855
-0.377583
0.131379
0.143965
-0.348311
-0.084014
0.402676
0.063024
-0.302514
-0.208668
0.312261
-0.025726
0.093701
-0.085474
-0.038880
0.226462
0.341518
0.408886
-0.288242
0.216657
0.537990
0.345875
0.209506
-0.523739
-0.560684
0.363352
-0.139921
0.030036
-0.398158
0.505344
0.171009
-0.056852
-0.080948
0.245369
-0.090171
0.250015
-0.372777
0.135083
-0.036959
0.452720
0.176945
-0.361127
0.269055
-0.054716
-0.436871
-0.219331
-0.461542
-0.488350
0.272993
0.102803
-0.210416
0.419682
0.702512
-0.233720
0.147904
0.293120
0.357937
-0.026347
0.221594
0.581343
-0.085102
0.364284
-0.142099
-0.097292
0.151496
0.286998
-0.022549
0.286031
-0.007121
-0.135720
-0.024019
0.122532
0.473268
0.496929
0.376788
0.213013
0.201694
0.455767
0.057579
-0.263807
0.126640
-0.378594
0.650084
-0.140569
0.044473
0.228884
-0.622887
-0.448760
0.317539
0.515085
0.464501
-0.125186
0.712842
-0.284483
0.184121
0.558335
-0.256555
0.362017
-0.468782
-0.305403
-0.282712
0.377662
0.001054
-0.126634
0.006561
0.048564
0.571286
0.255770
0.217215
-0.071265
0.160578
0.014340
-0.345955
-0.016392
-0.199236
-0.035256
0.128545
0.233656
0.387967
-0.020836
0.036627
0.369437
-0.093925
0.713788
0.704578
-0.342294
-0.298975
0.443955
-0.115356
-0.417680
-0.000074
-0.078065
-0.225472
0.287409
0.161262
-0.344056
-0.444263
-0.296416
0.413127
-0.114631
0.383363
0.312257
-0.079471
0.090270
0.547551
-0.254580
-0.165592
-0.078939
-0.385105
0.023156
-0.484374
0.316147
-0.014536
0.016870
0.665930
0.211626
0.327241
-0.059735
0.027188
-0.365770
0.041269
-0.025181
-0.027060
0.277194
0.052172
-0.019096
-0.239388
-0.382472
0.142900
0.033320
0.158484
-0.306154
0.336122
-0.306802
0.576981
0.730451
0.105068
0.499893
0.210068
-0.394325
0.160439
0.128907
-0.241495
-0.187251
0.460838
0.591968
0.351296
0.457482
0.146726
0.404067
0.102130
0.527823
0.382758
-0.043775
0.399416
-0.323171
0.417827
-0.171637
-0.028431
0.487234
0.028509
0.363745
0.426582
-0.403428
0.271025
0.506901
0.111053
0.827045
-0.107486
-0.047363
0.373736
0.223380
-0.474906
-0.735753
0.044687
-0.546792
0.150494
0.543755
-0.005653
-0.322944
-0.295316
-0.120348
0.170502
-0.001325
0.313221
-0.073390
-0.387646
0.011842
-0.466069
0.169707
-0.118988
-0.379362
-0.060175
0.179901
-0.297053
-0.107573
0.207854
0.026304
0.132070
0.313144
0.082556
0.032943
0.184649
0.374758
0.085372
-0.568284
-0.576171
0.199957
-0.524810
0.085668
-0.641965
-0.388231
-0.502050
-0.504570
-0.064136
0.484693
0.009465
-0.011410
0.081754
0.325964
-0.134977
-0.289262
-0.456880
0.169049
-0.020861
-0.150214
-0.192617
0.161987
-0.007865
0.119541
0.373616
-0.264479
0.275645
0.211893
-0.398893
0.005464
0.111007
-0.527053
-0.508684
-0.205708
-0.309176
-0.100438
-0.061585
-0.112272
0.308177
-0.235860
0.466275
-0.177556
-0.198059
0.374964
0.311845
-0.199331
-0.240799
0.232543
-0.462071
-0.200829
0.459008
0.414296
0.072107
-0.302358
0.160770
-0.385550
0.236216
0.162745
0.431844
-0.234740
-0.319908
0.222681
0.239795
-0.409236
0.142270
0.231580
-0.321280
0.391998
0.328266
0.344072
-0.477713
-0.101593
-0.291050
-0.298590
-0.206989
-0.296742
0.142824
-0.272977
-0.237792
0.440516
-0.024330
-0.035024
-0.249059
0.229950
-0.048740
0.474818
0.398665
-0.101584
0.110762
0.199456
-0.297917
0.269765
0.288930
0.007958
-0.291516
0.279764
-0.050693
0.302202
0.496175
-0.382434
-0.004546
-0.332090
0.192144
0.138073
0.489314
0.251334
-0.197157
0.012433
0.387821
-0.219582
0.339119
0.388978
0.346525
-0.261274
0.307361
-0.435242
-0.377995
-0.265656
0.397576
0.045162
0.385080
0.405219
0.042796
0.080568
-0.205986
0.232653
0.138071
0.060777
0.453248
-0.413484
-0.382344
-0.140197
0.293845
-0.141481
-0.381881
-0.457156
-0.267774
0.470751
0.301912
-0.262305
0.359639
0.230135
0.022527
-0.051804
-0.225999
-0.106267
-0.389331
0.389563
-0.255029
0.211745
-0.150207
-0.389971
-0.231743
-0.282791
-0.023909
-0.017482
-0.121986
0.444937
-0.171634
-0.313428
-0.193461
-0.284349
0.462561
-0.048175
-0.050625
-0.457170
-0.407041
0.166778
0.174783
0.385415
-0.075993
0.388140
-0.362489
0.155415
0.212965
0.246770
-0.596794
0.389703
0.055820
-0.496565
-0.114100
0.091688
-0.353804
0.440783
0.263995
0.138800
0.238713
0.219861
-0.409078
0.167823
-0.491457
-0.471295
0.109892
-0.035941
0.409578
0.345528
-0.292617
0.067667
-0.419990
0.204812
-0.330977
-0.308593
-0.349152
0.495559
0.298462
0.487879
0.260449
-0.317003
-0.307428
-0.282172
0.319510
-0.386521
-0.192544
-0.177424
0.403635
-0.154445
-0.334718
-0.372797
0.165226
0.072277
-0.009942
-0.286859
0.202354
-0.443526
0.032850
0.125977
0.115235
0.372884
0.000682
-0.229599
0.391305
-0.133144
-0.083245
0.223753
-0.443595
-0.095855
0.007684
0.225801
0.314837
-0.128666
0.491962
0.218244
-0.257035
0.236424
-0.126788
-0.286126
-0.134622
-0.127903
0.067020
-0.404298
0.283800
-0.417414
-0.283535
-0.078615
0.488243
-0.183237
-0.037482
0.073149
0.059246
0.129482
0.012543
0.482062
0.194075
0.089444
-0.132136
-0.219377
0.130571
0.380840
-0.199668
0.448942
-0.037343
-0.341391
-0.113751
0.190800
-0.457587
0.196781
0.374522
-0.319459
-0.263139
-0.384761
-0.326718
-0.471291
0.198138
0.201072
-0.371737
-0.136272
-0.345510
0.095958
0.190640
-0.186087
0.276493
-0.339388
0.396431
-0.429207
-0.372977
0.292417
0.341821
0.350208
-0.249130
0.098617
-0.190478
0.447142
0.290121
0.478642
0.250912
-0.284971
0.458255
0.326715
-0.336828
-0.013753
-0.306295
-0.263518
-0.000054
-0.316995
0.147997
-0.086659
0.225235
0.416180
0.084863
0.288855
0.402571
0.302785
-0.283667
-0.016408
-0.465168
0.475239
-0.153603
-0.025888
-0.227859
0.106261
0.046865
0.133752
0.321111
0.083078
-0.097297
0.223013
-0.102572
0.408293
-0.386700
0.474717
0.051770
0.351863
-0.437936
0.350123
-0.007819
-0.384629
0.272789
-0.105607
0.206956
0.365016
-0.063027
-0.307956
0.208451
0.385285
0.087556
-0.193628
-0.239446
-0.185274
-0.330744
-0.106496
0.161834
0.240346
-0.354477
0.465875
0.333409
-0.372732
-0.447895
-0.436216
-0.438938
-0.031684
-0.142955
0.316765
-0.504312
0.240564
0.450048
-0.393375
-0.276662
0.338419
0.002489
0.266463
0.392331
0.737674
0.318658
-0.441243
-0.361476
-0.351074
0.018065
0.242412
-0.737523
0.050853
-0.155088
0.427856
0.459977
0.335319
-0.241179
0.294240
0.263916
-0.178302
0.185010
-0.418305
-0.146144
-0.037828
0.417630
0.320230
0.353711
0.012041
-0.347801
0.004902
0.414602
0.545151
0.678845
0.703231
0.043903
0.280946
-0.183728
0.354994
-0.054339
0.167856
-0.688431
0.201127
-0.666653
-0.008850
-0.096605
0.144733
-0.527178
0.249539
0.244918
-0.287752
0.153114
-0.451563
-0.437784
-0.020318
0.044462
0.471062
-0.400476
-0.322835
-0.435591
