90x1025
90x91
0.466312
0.024136
-0.427036
-0.388583
0.483112
-0.459625
-0.432096
0.162054
-0.190143
0.460966
-0.461648
0.426302
-0.144972
0.425848
0.327760
-0.261336
-0.440268
0.058446
0.122915
-0.411197
-0.300619
0.041778
0.455170
0.451071
-0.357597
0.424756
0.485112
0.335375
-0.454325
-0.324432
-0.179269
-0.473573
-0.427370
-0.026949
-0.384111
0.476937
-0.414505
-0.172416
-0.360930
-0.414658
-0.107145
-0.016432
0.242105
-0.429014
0.334607
-0.445552
-0.023618
-0.414182
-0.337335
0.219210
0.252510
0.226687
-0.444371
0.246143
-0.119719
0.113806
-0.199412
0.213596
-0.075881
-0.351749
-0.167165
0.134465
0.366088
0.281249
0.017573
-0.435419
0.305381
0.225329
-0.397057
0.437054
0.494755
0.043937
-0.106850
-0.493518
-0.287355
-0.320753
0.042328
0.163330
0.490764
-0.041368
-0.247402
-0.529379
0.142560
0.369720
0.337795
-0.325199
0.312642
-0.457570
-0.204458
-0.007229
-0.203175
0.243660
-0.099531
0.010178
-0.180036
-0.478313
-0.459565
-0.191951
-0.476073
0.038725
-0.081307
-0.180626
0.426257
-0.278516
0.494621
0.197331
-0.031569
0.133104
0.038591
0.493089
0.049107
0.329899
0.033806
-0.342120
-0.412093
-0.578027
0.328648
-0.391436
-0.275710
0.461552
0.412500
-0.411651
-0.080696
-0.398322
-0.021246
0.280209
-0.160345
-0.288722
0.184975
0.300984
0.302832
0.052105
0.468247
0.010671
-0.315137
-0.405308
0.233448
0.341103
0.063493
0.007464
0.274350
-0.156325
0.370990
0.159673
-0.259590
-0.274824
-0.524127
-0.467234
0.290717
-0.000447
-0.215926
-0.360288
-0.115962
0.047887
-0.250186
-0.395623
-0.107669
0.012193
-0.051275
-0.155104
0.145483
0.135607
0.480750
-0.225094
0.159948
0.067600
-0.394670
-0.197277
0.043843
-0.162523
0.393247
0.445739
-0.489203
0.178492
0.182179
-0.413851
-0.123153
0.548445
-0.068539
0.318781
0.329591
0.181319
-0.232430
0.225532
-0.411492
0.434166
-0.351689
0.426939
0.058203
-0.486813
0.384311
-0.164221
-0.145295
0.415573
0.264086
-0.373021
0.435842
-0.046958
-0.313094
0.123726
0.136324
-0.426122
0.492397
0.081376
0.117987
0.596602
0.728266
-0.016220
0.534670
0.967831
0.434801
0.025403
0.375019
0.296958
0.729408
0.469812
0.577390
0.122670
-0.086871
0.422092
-0.033517
-0.534706
-0.062620
0.168419
0.062107
-0.313604
-0.169743
-0.353949
-0.499471
-0.333162
-0.034659
-0.336697
-0.416467
-0.341127
0.531351
-0.119016
0.238585
0.149589
0.786175
0.617346
0.839118
0.226601
0.561007
0.610584
0.554561
0.493478
0.449018
-0.085945
-0.181022
0.003464
-0.254301
0.269241
-0.093298
0.410373
-0.446022
-0.496997
-0.195676
-0.403294
-0.398132
-0.086990
-0.220385
0.449021
-0.312635
0.337560
-0.243997
-0.051513
0.391429
0.368683
-0.121251
0.256088
0.662807
-0.007417
0.199971
0.859986
0.066738
0.022797
0.700760
-0.265979
0.538595
0.168979
0.123832
0.080236
-0.025806
-0.097190
0.072516
0.146909
0.271081
0.171018
-0.017264
0.057258
0.288659
-0.287226
-0.128409
0.167075
-0.243043
-0.299371
0.193715
0.062921
-0.177319
0.261019
0.056138
0.396270
-0.314874
0.004928
-0.015427
0.407328
0.292021
0.673056
0.538212
0.013733
-0.203496
0.169232
0.497651
-0.082646
0.516929
0.038138
0.114150
-0.283183
-0.344807
0.120075
-0.310632
0.010562
0.344038
0.381729
-0.197727
0.407544
0.523178
-0.224155
0.591751
-0.321815
-0.106655
0.052541
-0.397100
-0.054810
-0.309581
0.203057
0.100700
0.290799
-0.075316
0.287855
-0.294873
0.267303
-0.050244
-0.367002
0.163560
0.468688
-0.409525
0.337789
-0.137573
-0.483664
-0.105642
0.297713
-0.021998
-0.316114
0.361778
-0.168489
-0.362620
0.330170
-0.147077
0.193059
-0.072924
0.142951
-0.110758
-0.022437
-0.135017
-0.243067
-0.506178
-0.606882
-0.009785
-0.088948
0.302099
-0.540093
-0.413966
-0.215233
-0.192697
0.167025
-0.001221
-0.083306
-0.291553
0.353877
-0.257717
-0.130481
0.215401
-0.090373
-0.418552
0.065351
0.338981
0.432793
0.345621
0.052625
-0.449228
0.194497
-0.081791
0.420863
0.512691
0.244243
0.139511
-0.256461
-0.036266
-0.395017
0.110340
-0.038055
-0.301979
-0.347638
-0.038496
-0.193860
-0.465497
-0.377776
-0.273038
-0.128656
-0.254708
0.151113
0.394717
0.048323
-0.416960
0.322884
-0.383758
-0.497443
0.042100
0.254408
-0.145728
-0.049186
-0.100469
0.033881
0.440578
-0.328565
0.010818
-0.413464
-0.559388
0.035279
-0.083682
-0.100144
-0.186557
-0.364201
-0.288801
-0.403886
-0.347472
-0.183552
-0.211074
-0.218986
0.498406
0.208165
-0.291476
-0.328543
0.467948
-0.092313
0.328429
-0.018237
0.366610
0.247564
-0.303511
-0.234636
0.028880
0.059254
-0.346484
-0.017142
0.257230
0.504169
0.510298
0.599847
-0.318168
-1.068727
-0.228520
-0.163660
-0.116925
-0.181654
0.217168
0.472300
-0.144381
0.177275
0.344176
-0.041833
-0.160493
-0.130889
-0.132655
0.277274
0.108505
0.398040
0.125532
-0.222136
0.448325
-0.286598
-0.039580
-0.042681
-0.048405
-0.212430
-0.023905
-0.072437
-0.150729
0.739673
-0.042999
0.148935
-0.383836
-0.907043
-0.223177
-0.054758
0.359817
0.195683
0.338668
-0.188125
0.387626
0.101007
0.815885
0.457251
-0.248465
0.314962
-0.377889
-0.356250
-0.437266
0.161373
-0.267144
0.329132
0.462143
-0.085135
-0.320280
-0.348398
0.315187
0.293191
-0.070221
0.412105
-0.247367
0.066601
0.343605
-0.340178
-0.559761
-1.141380
-0.119966
0.696993
-0.344584
0.061081
0.276296
0.166006
0.654952
0.724868
-0.276876
-0.393827
-0.062221
0.489366
0.000105
-0.205248
0.234596
-0.338850
0.078185
-0.294065
0.108350
-0.424279
-0.231489
0.493624
-0.118536
-0.089097
0.095160
-0.348355
-0.289841
0.365240
-0.797405
-0.289022
-0.814745
-0.220018
-0.695526
0.251622
-0.285246
0.512008
-0.161025
0.642817
0.069407
0.193220
-0.313169
-0.472317
-0.060087
-0.299037
-0.134472
0.385266
-0.445435
-0.306246
0.096807
-0.208770
0.053881
-0.395983
0.093378
0.478844
-0.237820
-0.170776
0.130130
0.452829
-0.222622
0.107097
-0.654373
-0.901609
-0.733367
-0.081229
-0.477610
-0.034984
-0.061733
0.791372
0.308475
0.637697
-0.610276
-0.715359
-0.190295
-0.759725
0.300591
0.286173
-0.007777
-0.426828
0.341765
-0.210287
-0.392479
-0.472801
0.319550
-0.052359
-0.259695
-0.270699
-0.013861
-0.090724
-0.078753
0.352858
0.199272
-0.174934
-0.292538
-0.104796
0.012091
-0.259184
0.033110
-0.157156
0.038917
0.680980
0.075705
0.174502
-0.000568
-0.135176
-0.379421
-0.375482
-0.637336
-0.409993
0.134449
0.222070
-0.451996
-0.247571
-0.093988
-0.280276
0.000034
0.401566
0.230924
-0.063841
0.089154
-0.094321
-0.352328
0.356807
0.181301
-0.666202
-0.089924
-0.297091
-0.169910
0.040923
0.415242
0.063794
-0.000086
0.179932
-0.083086
-0.101264
-0.847829
-0.951734
-0.706821
-0.700903
-0.116738
-0.443512
-0.092887
-0.020334
-0.185642
-0.070309
0.079852
-0.269544
-0.364405
0.261725
-0.089912
-0.000598
-0.288928
0.521240
-0.120361
0.003772
-0.129520
-0.017033
0.178240
0.001809
-0.044988
-0.565296
0.164417
0.217398
0.015612
-0.118056
0.222045
0.377897
-0.456938
-0.129902
-0.597382
-0.308172
-0.143853
0.297664
0.097286
0.189202
0.485030
-0.107367
0.424712
-0.121738
0.371654
-0.136632
0.014074
-0.271764
0.533536
0.523137
0.086349
-0.084413
-0.334259
-0.473095
0.132464
0.668251
0.291059
0.157152
0.541258
0.159205
0.201798
0.681952
-0.193890
0.028604
-0.080148
0.353700
-0.114239
-0.115595
0.113559
-0.031042
-0.085678
-0.367142
0.304554
0.190748
0.088015
-0.357644
0.160883
0.096708
0.123427
0.109459
0.320149
-0.071046
-0.164595
0.117231
-0.334139
-0.598159
-0.055144
0.916227
0.197818
0.058624
0.074133
0.593084
0.310687
0.399970
-0.230261
-0.508731
-0.188683
-0.269172
0.196734
0.351984
-0.091084
0.226550
-0.121313
-0.099313
-0.230832
-0.142540
0.239103
-0.330995
0.186132
0.085577
0.244019
-0.491382
-0.131572
0.442672
-0.208927
-0.378894
-0.047645
0.421927
0.126929
-0.154226
0.357610
0.017315
0.312838
-0.322607
-0.297261
-0.527946
-0.309332
-0.340782
-0.387495
-0.245976
-0.069752
0.367101
0.299253
0.390406
0.309356
-0.086841
-0.159482
-0.287125
0.273688
0.408407
0.280926
0.480856
0.053353
0.305794
0.188941
-0.004129
0.224304
0.019320
0.066278
-0.313732
0.084241
0.018426
-0.385727
-0.412987
-0.572803
-0.108265
0.030709
-0.743710
0.038612
-0.081414
-0.023693
-0.059637
-0.054675
-0.141899
-0.108941
0.520387
0.178084
-0.289787
-0.200465
0.143562
0.493735
0.050327
-0.475590
-0.144361
0.312789
0.270342
0.061566
-0.438177
-0.113958
-0.191273
0.193447
0.149529
0.388145
-0.400744
0.049502
0.182580
-0.610687
-0.653572
-0.810455
-0.593580
-0.811168
-0.147600
-0.372189
0.159552
0.470241
-0.057046
-0.452630
-0.151119
-0.260600
0.118106
0.114848
0.160013
0.274080
0.225510
0.270280
0.224367
0.285131
-0.214581
-0.419134
0.343453
-0.107997
-0.399464
-0.408258
0.336777
-0.303373
-0.201070
-0.511346
-0.281097
0.257765
-0.282481
-0.367973
-0.109105
-0.068946
0.302318
-0.261295
-0.105719
-0.400601
-0.234152
-0.331343
-0.327089
0.015647
-0.276942
-0.309128
-0.086838
0.001671
0.403021
0.105097
-0.091086
-0.312486
0.268227
-0.226536
0.431385
-0.099652
-0.229501
-0.249842
0.324590
0.066889
0.229582
-0.233647
-0.283497
-0.344216
-0.104300
0.073609
0.049127
0.233167
0.453087
-0.115829
0.492973
0.121032
-0.461958
0.034761
-0.334511
-0.164364
0.470537
-0.031595
-0.411217
0.327104
-0.270870
0.341211
-0.098749
0.094694
0.160873
0.096613
-0.136003
-0.369805
0.457693
-0.324862
-0.399284
0.030354
0.480634
0.154357
0.359450
-0.148908
-0.142371
0.157084
-0.452705
0.217143
-0.471857
0.382308
-0.387326
0.066141
-0.425814
-0.012830
-0.153502
0.356653
-0.474767
-0.237912
0.189355
-0.094197
0.336104
-0.389215
-0.182756
0.049496
-0.366702
-0.348641
-0.286859
-0.042289
0.253630
0.399242
0.415513
-0.108019
0.220950
0.145259
-0.348154
0.217417
-0.114931
0.440779
-0.186831
0.414065
0.200990
-0.097111
-0.046046
-0.235416
0.137094
-0.033351
-0.346469
-0.098636
-0.327132
-0.352057
0.470283
0.350082
-0.449461
0.143308
-0.287868
-0.237697
0.280055
0.265587
0.022108
-0.338275
-0.419498
-0.158481
0.420729
-0.078700
0.249136
0.399008
-0.117451
0.225851
0.230666
-0.414051
0.186140
-0.266517
-0.036538
0.474336
-0.045652
0.415098
0.367952
0.274467
-0.114307
-0.423696
-0.319141
0.309762
-0.364076
-0.293851
-0.151672
-0.464447
-0.343839
0.275193
-0.155855
0.481015
0.181869
0.311307
0.078183
-0.325535
-0.464470
0.051203
0.088512
-0.239232
0.015041
0.427871
-0.416228
0.383886
0.458296
0.297334
0.305317
-0.233910
0.107780
-0.083238
-0.284210
-0.137076
0.290310
-0.077753
0.247246
-0.469689
0.334840
-0.144246
-0.174256
-0.487123
-0.473311
0.329184
-0.071044
0.335804
0.189767
0.170567
0.379937
0.493518
-0.303016
0.248631
-0.193791
-0.163708
-0.106645
0.140013
0.120383
0.207727
-0.003748
-0.357458
-0.075219
0.314764
0.225317
0.241143
0.420012
-0.496156
-0.446818
-0.241066
0.279099
-0.066698
0.261728
0.014560
0.219521
-0.222221
-0.286088
-0.050952
0.322419
0.285428
-0.057069
-0.041800
0.438027
0.324961
-0.242528
0.263013
0.128136
-0.445487
0.215143
0.194085
0.242258
0.171000
0.399544
0.425666
0.286205
0.396151
0.007939
0.294653
0.142331
0.366582
-0.131856
-0.051179
0.184559
-0.056002
-0.029789
-0.050980
0.400825
0.361531
0.179964
0.468652
-0.370591
0.442650
0.116082
-0.383392
-0.100709
-0.222820
0.434676
-0.008040
-0.075164
0.368284
-0.107286
-0.054188
-0.131133
0.463690
-0.112214
0.258991
-0.226834
0.687041
0.694357
0.529408
0.020689
-0.397348
-0.159538
0.529891
0.082223
0.224987
0.271022
0.003073
0.094743
-0.374248
-0.051987
-0.363843
0.230326
-0.432485
0.208334
0.010667
0.331271
0.281020
-0.178099
-0.441404
0.045472
-0.216143
-0.345406
-0.171689
0.111326
0.138206
-0.454221
-0.044552
0.101311
-0.461901
-0.614649
-0.509071
0.103465
0.120918
0.115869
-0.307062
-0.121826
0.101576
0.094209
-0.431266
-0.355406
-0.319788
0.458315
0.161937
0.460485
0.113733
0.300763
-0.304699
-0.424129
0.461411
0.011593
0.178266
-0.191293
0.228632
-0.619762
-0.370046
-0.063903
-0.228694
-0.395400
-0.751811
-0.367329
-0.418282
-0.121917
-0.488505
-0.408370
-0.299288
0.150660
-0.236543
-0.444699
0.111816
0.092879
0.186741
-0.062119
-0.023704
0.228301
0.226843
-0.336182
-0.453263
0.243535
-0.101545
0.344124
0.394113
-0.176768
0.024950
-0.049997
-0.322547
0.191060
-0.110382
0.253688
-0.017430
0.254742
-0.275890
-0.544614
-0.456447
0.464285
-0.343982
-0.126266
0.519697
-0.018683
0.150912
0.433835
-0.044509
-0.439213
0.078077
-0.031538
0.026155
-0.408695
-0.259900
-0.098086
-0.276310
-0.237514
0.415984
-0.473646
-0.305243
-0.478214
0.314585
-0.026394
0.204266
-0.469787
-0.266132
-0.646872
0.271693
-0.210085
0.635506
0.541946
-0.094755
-0.170667
-0.007157
0.277517
0.196758
-0.357985
0.088211
0.430035
-0.379291
-0.485790
-0.019157
-0.421670
-0.164550
-0.094762
-0.194343
-0.337291
-0.474012
0.291436
0.314489
0.381931
0.414246
-0.446229
0.179601
-0.452541
-0.502049
-0.795056
-0.823259
-0.592516
-0.216697
0.263775
0.732874
0.381054
0.156263
0.605817
-0.372589
0.161734
0.115053
0.350530
-0.083008
0.473204
-0.054576
-0.355142
0.225069
-0.181602
0.288716
-0.031865
-0.416511
0.392411
-0.057871
-0.048658
0.375768
-0.445167
-0.295541
-0.082504
-0.447776
-0.304021
-0.702270
-0.717391
-0.811561
-0.294647
-0.169805
-0.391161
-0.642675
0.140100
-0.086246
-0.380014
0.307406
-0.026280
-0.133052
0.424010
0.010526
0.396629
0.472633
-0.171729
0.293213
0.082206
0.012565
-0.122791
-0.432041
0.408494
0.466744
0.283662
-0.350092
-0.119258
-0.192910
-0.196357
-0.265264
-0.514752
-0.702754
-0.383930
-0.752486
-0.274897
0.008901
-0.441020
-0.059839
-0.292472
-0.147823
0.236171
0.006185
0.149737
0.415661
0.447376
-0.126760
-0.406920
-0.420409
0.182967
-0.017203
0.487018
0.389105
0.254673
-0.460991
0.479396
0.294917
-0.333104
0.375942
-0.003791
-0.378281
0.376198
0.295994
-0.110720
-0.533673
-0.734911
-0.680763
-0.807524
0.161889
-0.294071
0.240439
0.292398
0.562448
0.158034
0.096318
0.724386
0.108188
0.374841
0.140010
-0.050490
0.293234
-0.009891
-0.193920
-0.084577
-0.104321
0.459787
-0.366135
0.351421
-0.027558
0.264272
-0.164124
0.468880
-0.183872
-0.299760
-0.095011
-0.008890
-0.369809
-0.165675
-0.227453
-0.406804
0.137938
0.285226
0.500836
0.163422
0.859084
-0.096578
0.562571
0.016899
0.329427
0.421365
0.125145
0.306450
0.425006
-0.353613
-0.393650
-0.493122
-0.487684
0.119966
0.491513
0.425834
-0.179420
0.059889
0.302957
0.054828
-0.260605
0.031926
0.242343
0.204556
-0.567952
-0.564322
0.072081
0.303054
0.404047
0.345670
0.302842
0.546702
0.105592
0.421323
0.228621
0.231510
0.477297
0.367337
0.346402
-0.475110
-0.408812
0.022405
-0.389641
-0.190128
-0.065452
0.104682
0.302916
0.393874
0.055676
-0.125522
-0.315065
0.037484
-0.183106
0.086141
0.335800
-0.615998
0.212310
-0.373724
0.288819
-0.270666
0.234770
0.081188
0.283213
0.505874
0.575113
0.689476
-0.374664
0.248702
0.241596
-0.157732
-0.031609
-0.363215
0.106987
0.085190
0.328986
0.485681
-0.177361
-0.229174
0.197778
0.425469
-0.484975
-0.002312
-0.107389
-0.012484
-0.188719
-0.165783
-0.394077
0.088315
-0.289618
0.225522
-0.017148
0.117253
0.447198
0.100303
0.545763
0.273521
0.199423
0.393784
-0.376848
-0.128413
-0.391224
-0.544124
-0.142105
0.012012
0.352304
0.194239
0.358308
-0.441949
0.274766
0.097523
-0.151867
-0.333063
-0.364404
-0.228071
0.500692
-0.156168
-0.507868
-0.451783
-0.047428
-0.021523
-0.217118
0.212744
-0.613655
0.210671
-0.005331
-0.488844
0.472636
0.480645
-0.222537
-0.258710
-0.338355
0.169829
-0.815029
-0.477825
-0.148543
0.279774
-0.254396
0.278651
0.088236
-0.257944
0.141308
-0.000282
-0.316435
0.490381
-0.224014
-0.170988
0.371754
0.275378
-0.461668
0.224031
-0.239620
0.069923
0.420920
0.152791
-0.036581
-0.097598
-0.075254
-0.362585
-0.108574
-0.427992
0.711604
0.655607
0.736089
-0.101544
-0.110361
0.209724
-0.185314
0.299178
-0.347119
0.362784
-0.103060
-0.417303
0.219616
0.307494
-0.132114
0.211750
-0.027894
0.135059
-0.428944
-0.268868
-0.003897
0.396871
0.650357
0.134290
0.440890
-0.373806
-0.262299
-0.125609
0.280349
-0.131814
-0.007433
-0.276500
0.096164
0.785512
0.424222
-0.289722
0.341247
0.442166
-0.023547
0.271363
-0.189333
-0.026814
-0.339287
0.120362
-0.315096
-0.115894
-0.201391
-0.007704
0.410057
-0.109510
-0.324955
-0.079440
0.222494
0.318459
0.398901
-0.091881
0.157702
0.452613
-0.209162
-0.599184
-0.547485
0.119654
-0.068610
-0.054947
0.285393
0.792737
0.638084
-0.292425
0.506034
-0.030083
-0.477514
-0.022391
0.042600
-0.292207
-0.225994
-0.324700
0.331893
0.192417
-0.475069
-0.311382
-0.314234
-0.120583
-0.273579
-0.382973
0.471771
0.060068
0.234971
-0.088051
0.289233
0.049224
-0.287557
0.082759
-0.227336
-0.836451
0.173506
-0.374389
0.629328
0.453341
-0.182441
-0.242646
0.193771
0.388683
0.118385
0.491429
0.024189
-0.129079
-0.258649
-0.044116
-0.200727
0.238331
-0.015649
-0.002766
-0.399955
-0.031537
-0.182763
-0.257603
0.484495
0.087959
0.172270
0.088185
0.512806
-0.062856
-0.266680
-0.060260
-0.395020
-0.609644
-0.186456
-0.361959
0.652116
0.253401
0.155018
0.113697
0.098185
-0.076569
0.296753
0.363783
-0.214398
-0.180978
0.374481
-0.389654
0.070276
-0.287730
0.329644
0.459526
0.115012
0.299871
0.490582
0.025891
0.090723
-0.344535
0.005260
-0.101487
-0.098901
-0.240408
0.290606
-0.567732
-0.399184
-0.480290
0.139793
-0.605121
-0.019556
-0.071247
-0.194761
0.288842
0.278161
0.342356
-0.420100
-0.306055
0.044109
0.341579
-0.482320
-0.091337
-0.439507
0.243781
0.074131
0.313486
0.302506
0.299772
-0.501180
0.047198
-0.307203
-0.253819
0.304791
-0.006309
-0.404909
-0.628894
0.122608
0.270171
0.456603
-0.079192
-0.380497
0.106056
-0.530292
-0.290206
-0.009914
-0.085307
0.038528
0.262891
0.221263
-0.173946
0.129517
0.075225
0.066048
-0.249972
0.312491
0.141630
0.211681
0.462178
0.090129
-0.405335
-0.316357
-0.139295
0.562701
0.461117
0.366041
0.487477
-0.395517
-0.530404
-0.462041
-0.368969
0.628509
-0.144841
-0.428715
-0.680892
-0.186481
-0.013334
-0.514580
-0.226127
0.414665
0.291718
-0.340294
-0.152178
-0.114482
-0.420148
0.058765
-0.054278
0.264653
-0.393203
-0.119276
0.409194
0.288091
-0.162232
-0.489687
-0.245142
0.121254
-0.161798
-0.052740
0.832381
0.115087
-0.569288
-0.101879
-0.331230
-0.098068
-0.170419
-0.368181
-0.587296
0.105544
-0.823020
0.293850
0.333384
0.099045
0.076322
0.551766
0.341929
0.451019
-0.214237
-0.226117
-0.183276
-0.206003
-0.331796
0.375574
-0.035912
0.295761
-0.023975
-0.313183
-0.307670
0.117559
-0.101857
0.590060
-0.262509
-0.051710
-0.116639
0.141285
0.353972
0.346701
-0.227167
-0.756492
-0.677196
-0.743060
-0.392986
0.353029
0.163848
-0.048556
0.211432
0.416285
0.059507
0.026300
0.413094
-0.187729
-0.006035
-0.109833
-0.102215
0.324187
-0.106529
0.317457
0.306756
-0.102588
0.485662
-0.157263
0.358001
-0.315003
0.312798
0.697398
-0.186825
0.322902
0.674958
0.506402
-0.044483
-0.472884
-0.247359
-0.411139
-0.416988
-0.347369
-0.021960
0.305163
0.423540
0.074663
-0.425588
-0.309372
0.272152
-0.381801
0.108643
-0.043339
0.199713
0.379027
-0.389486
0.195310
0.295875
0.380210
-0.228488
-0.436240
0.364865
-0.488529
0.384877
-0.456150
-0.728783
-0.400357
0.088418
0.098233
-0.505038
-0.552534
0.051538
0.265726
0.204527
0.116087
0.443366
-0.047159
-0.213842
-0.257453
0.096833
0.038447
-0.181353
0.141580
-0.018933
0.394525
-0.148696
0.399509
-0.311510
0.208870
-0.026810
-0.192333
-0.260610
0.389226
0.160281
0.192856
-0.035740
0.116310
-0.182404
0.100523
-0.493647
0.128022
-0.110448
-0.329957
-0.416126
-0.293017
0.279117
-0.044025
-0.170292
-0.438356
0.372459
-0.004174
0.343183
-0.160224
0.130727
0.357795
-0.010263
0.125510
-0.345751
-0.472643
0.324655
-0.416607
-0.331798
-0.172704
0.270833
-0.089798
-0.469516
0.479003
-0.328913
0.224730
-0.484272
-0.173199
-0.001396
0.122091
-0.472077
-0.340513
0.023882
-0.081674
-0.016734
0.239296
-0.311210
0.358954
0.096380
-0.455621
-0.195309
0.383022
0.005547
0.396874
0.428702
-0.127236
0.132163
0.448331
0.322990
-0.269284
0.419470
-0.036448
0.217776
0.181491
0.364636
-0.265566
-0.317267
-0.396657
0.337491
-0.022378
0.350519
-0.263214
-0.190096
0.408732
0.078506
-0.325039
0.055097
-0.479300
0.433923
0.282085
0.225338
-0.373447
-0.289404
0.229595
0.043144
0.247300
0.119619
0.129178
-0.094074
0.243783
0.173353
-0.372042
0.379112
0.325761
-0.430374
0.403653
-0.312331
0.064019
-0.232801
0.085082
-0.386420
0.185290
0.057172
0.245224
0.380215
-0.181251
-0.079035
0.289916
-0.113559
-0.271909
-0.138463
-0.467518
-0.469873
0.234625
-0.066116
-0.417578
-0.471685
-0.005593
0.160591
-0.119245
0.147491
0.223932
0.295472
-0.332721
0.056488
-0.158663
0.099630
0.083861
0.467350
-0.415058
-0.481600
-0.019472
-0.050696
0.337801
0.283226
-0.136223
-0.403176
0.270812
-0.173182
-0.195077
-0.396572
0.015552
0.331825
0.163213
-0.023138
-0.278420
0.200829
0.167858
0.457666
0.072147
0.364240
0.108043
0.244132
0.285744
0.317326
0.230323
-0.004124
-0.475430
-0.006070
0.404195
-0.107495
0.260547
-0.468047
-0.369272
0.013756
0.235707
0.230818
-0.260072
-0.311908
0.455540
0.050699
-0.439500
-0.310060
0.039634
-0.479694
-0.461738
0.121115
-0.437246
0.062691
0.207801
-0.044892
-0.382494
0.301750
0.418338
0.401791
-0.000623
0.037276
0.398903
-0.194468
0.178815
0.103687
-0.095340
0.175652
-0.412749
0.151737
-0.394552
0.322747
-0.338443
-0.140528
0.164587
-0.315639
-0.300209
0.031914
0.418676
0.128746
0.430641
0.411171
-0.083717
-0.147117
0.347490
0.419720
-0.171106
-0.437999
-0.094188
0.455418
0.153983
-0.181644
0.079276
-0.424445
-0.438482
0.040031
-0.040112
-0.439810
0.273979
-0.217775
0.310303
-0.491433
0.306173
0.232967
-0.078420
-0.066064
-0.118307
-0.010569
-0.319587
-0.214420
-0.269771
-0.452402
0.328837
-0.038615
0.344108
0.240018
-0.313312
0.045162
0.330588
0.072137
0.144487
0.403682
-0.261079
0.032866
0.012215
0.452486
-0.497396
-0.159511
-0.240065
-0.414889
0.119935
0.332645
-0.046345
-0.371077
0.588277
0.136180
0.064206
0.491004
-0.431194
-0.651652
-0.038828
-0.350446
0.084330
-0.701650
-0.112651
-0.497491
-0.078871
0.115103
-0.021864
0.272919
-0.088297
0.203354
0.343720
0.371204
-0.234556
-0.182111
-0.494958
0.043174
0.031422
-0.436075
0.140818
0.257526
0.226866
-0.323079
-0.078769
0.862483
0.657694
0.467524
0.254962
0.675005
0.379332
-0.206011
-0.135479
0.587145
0.260011
-0.286353
-0.209751
0.118321
-0.201131
-0.243589
0.244245
0.097965
-0.347995
-0.444288
0.107118
0.119024
-0.256269
-0.040359
0.341308
0.030447
0.396119
-0.202070
-0.132454
0.126083
0.147789
0.069991
0.593348
0.104551
0.078155
0.805729
-0.225177
-0.286097
0.559908
0.313254
0.208167
-0.026087
0.782507
0.216201
0.098032
-0.636603
0.131634
0.228425
0.546744
0.242194
-0.143654
-0.213124
-0.185405
0.074608
0.158452
-0.144938
0.340586
-0.268601
-0.404987
-0.273984
0.185748
0.013084
0.286876
-0.292317
0.031482
0.667584
0.522069
0.363961
0.194473
-0.645748
0.035145
0.261380
0.918563
0.196444
0.377199
0.471905
-0.119814
-0.787570
-0.049386
-0.408642
-0.124831
-0.246823
-0.329985
-0.266549
-0.054793
-0.408284
0.351789
0.013288
0.278470
-0.144570
-0.279276
0.329552
-0.450701
0.150422
-0.104104
-0.228526
-0.190294
-0.337778
-0.216924
0.199406
-0.159472
0.028549
0.584573
0.508278
0.167440
0.110733
0.073622
-0.068995
0.466718
-0.629711
-0.310841
0.208390
0.017740
-0.131837
0.309423
0.447361
-0.230646
0.034472
-0.305695
0.036325
0.182825
0.244607
-0.415418
0.225010
-0.152327
0.011671
-0.137395
0.533580
0.125731
-0.157596
0.328503
0.034319
-0.145089
-0.221286
-0.227937
0.680666
-0.319234
-0.332713
0.400230
0.245049
-0.203535
-0.122320
-0.346288
-0.024063
-0.076090
0.135616
-0.139095
0.087505
-0.363531
0.481833
-0.337030
-0.152260
-0.180984
-0.390136
-0.000255
-0.271887
0.474596
0.461258
-0.313722
-0.213588
0.328223
-0.187471
0.363578
-0.013706
0.358960
0.585678
-0.041182
0.561083
0.400185
-0.013292
0.447968
-0.101406
0.409347
0.380358
-0.473806
0.095417
-0.247577
0.175039
0.173969
0.363683
-0.400517
-0.300890
0.019261
0.470509
0.217290
0.228601
-0.486807
-0.218476
-0.240472
-0.364916
-0.387415
-0.200386
-0.082989
0.353611
0.258597
0.526253
0.333259
0.405663
0.412705
0.426432
-0.210027
0.139856
0.116749
0.719489
-0.026010
0.053725
0.227998
-0.103327
-0.276735
-0.161128
-0.365991
0.499586
-0.291837
0.285600
-0.200030
-0.177349
0.339475
0.269825
0.296540
0.286612
-0.198029
0.021228
0.064121
0.152907
0.216368
-0.433558
0.615540
0.574904
0.472129
0.414790
0.059650
-0.423231
-0.326351
-0.672583
-0.520931
-0.043125
-0.169562
-0.339318
0.735327
-0.083235
0.196547
0.030437
-0.200411
0.305742
0.165055
0.382704
-0.254815
-0.080020
0.262900
-0.100993
-0.481620
-0.133765
-0.081433
-0.052653
-0.361630
-0.201721
-0.417804
0.379033
0.134314
0.855581
0.712704
0.544795
0.242417
-0.130945
-0.484566
-0.582719
-0.813051
-0.647757
-0.630982
0.530337
0.117410
0.806499
0.296425
-0.023360
0.251146
0.342867
0.359948
0.068448
0.152073
-0.052183
0.365114
0.211015
-0.126911
-0.144017
-0.448150
-0.241854
0.365342
0.284478
0.187660
-0.231908
0.209703
0.803307
0.720666
0.334946
-0.363316
-0.173906
-0.913767
-0.266345
-0.129734
-0.885739
-0.437084
0.435833
0.967650
0.136178
-0.054488
-0.061124
0.326863
0.015590
-0.127746
-0.258053
-0.337207
-0.141972
-0.293733
0.358153
0.307183
-0.315785
0.201960
-0.477649
0.233240
0.379426
0.453082
0.492803
0.687390
0.573796
0.013841
0.468676
0.209031
0.650161
0.041585
-0.664374
-0.067765
-0.699087
0.081358
-0.223951
0.065060
0.362744
0.323767
-0.142612
-0.334414
0.022331
-0.386382
-0.262709
-0.229885
-0.429578
0.300707
-0.405826
-0.359631
0.491034
-0.069692
-0.115462
-0.394511
0.167748
-0.275940
0.468649
-0.105938
0.327754
0.240268
-0.211029
0.141864
0.355258
0.309143
0.819240
0.185921
0.190496
-0.301817
-1.110374
-0.167783
0.512036
-0.327708
-0.339521
-0.067271
-0.288048
-0.115756
-0.393424
0.031047
-0.284494
0.459752
-0.134785
0.379230
0.204923
0.431419
0.460872
0.154125
-0.412325
-0.194499
-0.251784
-0.721675
0.420851
0.331411
0.418612
1.095732
1.477716
1.057790
-0.320448
-0.527606
-0.433168
-0.626659
-0.536432
-0.189798
-0.591715
-0.019076
-0.426668
-0.454270
0.276001
-0.390933
-0.418368
0.431110
-0.116526
-0.018058
0.442987
-0.155589
0.166900
-0.105255
0.235322
-0.494428
0.047662
-0.061333
0.059305
-0.523153
-0.401217
-0.032307
-0.010879
-0.018130
0.634788
-0.175629
0.184566
-0.072863
-0.478692
-0.265616
-0.003990
-0.364077
-0.617560
0.291136
0.415381
-0.104908
0.294665
-0.339200
0.129180
0.383136
0.416463
-0.165430
-0.428574
0.089805
-0.185234
0.057015
-0.442466
-0.374286
0.092740
-0.413071
-0.521123
-0.703626
-0.276159
-0.552666
-0.171700
-0.179268
-0.391462
-0.649827
-0.046486
-0.694800
-0.022216
-0.105228
-0.340537
-0.341651
-0.096983
0.464585
-0.021293
-0.330885
0.239758
0.333669
-0.178789
0.285402
0.488426
0.236392
0.494634
0.390046
0.311662
0.354231
-0.264543
-0.406636
-0.053638
-0.250047
0.125142
-0.307402
-0.189607
-0.460965
-0.130365
-0.388357
-0.850585
-0.282234
-0.419869
0.131791
0.097460
-0.116997
-0.528998
-0.248489
-0.624411
-0.275838
-0.377208
0.443355
0.367829
0.384794
-0.396107
-0.433346
0.488802
-0.052956
-0.041143
-0.152996
-0.360980
-0.018997
0.131580
-0.102340
-0.388728
-0.216850
-0.327175
-0.129155
-0.110408
-0.973423
-0.139950
-0.067334
-0.195878
-0.099184
-0.530157
0.223068
0.187261
-0.551752
-0.566878
-0.536787
0.401344
0.509179
-0.319703
-0.442031
-0.343163
0.210982
0.169141
-0.434991
0.477155
-0.185819
-0.488348
0.399138
0.052700
-0.118009
0.030074
-0.414755
0.191711
-0.216624
-0.150489
-0.017296
0.008865
-0.023358
0.303047
0.349159
0.328003
-0.061505
-0.343459
-0.423862
-0.208032
-0.537151
-0.386671
-0.416470
-0.050048
0.661964
-0.381622
-0.423321
-0.158124
0.008675
-0.177076
0.393231
-0.311082
-0.369948
0.336706
-0.431894
-0.108015
-0.334040
-0.020059
-0.166811
-0.185271
0.364590
0.675575
0.181167
0.138971
-0.846688
0.262895
0.307618
-0.353271
-0.358048
-0.577436
0.086690
0.046275
-0.726143
0.042466
-0.030897
0.040167
-0.221739
0.016178
0.128355
0.526329
-0.360031
0.456726
0.403259
-0.205267
-0.367790
0.089020
0.452027
0.265249
-0.440341
-0.418137
0.043156
-0.082049
0.390786
-0.029043
0.284055
-0.025632
-0.286716
-0.547225
-0.345194
-0.231139
-0.642830
-0.190295
-0.463282
-0.953222
-0.811354
-0.193237
0.388320
-0.216660
0.376528
0.026565
0.431681
-0.299735
0.363574
-0.371847
-0.090376
-0.364496
-0.268440
0.171083
-0.068539
-0.149748
0.074484
-0.009269
-0.089407
-0.064391
-0.159215
-0.179459
0.346185
0.384799
-0.507763
-0.580223
0.129748
-0.053560
-0.439280
-0.367661
-0.085844
0.123698
0.338657
0.428290
-0.302495
0.477174
-0.265224
0.423772
-0.147243
-0.055589
-0.094848
-0.446068
-0.102069
-0.476895
0.231463
0.325285
-0.305992
0.198764
-0.094478
0.241058
-0.053740
-0.187141
-0.342477
-0.238932
-0.236949
0.185018
0.301091
0.041810
0.003871
-0.471666
0.076811
-0.368040
0.143279
-0.117981
0.129713
-0.190499
0.496864
0.293086
0.248136
-0.165606
0.396802
-0.332518
0.394892
0.147698
0.222291
0.227572
0.391929
-0.137776
0.084230
-0.460935
0.168774
0.427168
0.252750
-0.451642
0.022072
-0.035002
-0.151744
-0.359635
-0.390769
-0.438197
-0.091405
0.094741
0.040059
0.387169
-0.058414
-0.214270
0.330291
0.368870
-0.369941
-0.337575
-0.195571
-0.348875
0.459380
-0.097777
0.162934
-0.041993
0.283344
-0.279309
-0.290586
0.315458
-0.218782
-0.482942
-0.330751
-0.423488
-0.070110
0.358842
0.384754
-0.075502
0.456396
-0.012103
-0.404876
0.079503
-0.032051
0.135727
-0.420654
0.343887
0.049929
0.261491
-0.078989
0.022630
-0.350413
-0.080195
0.142686
-0.128712
0.135960
-0.082339
-0.334816
-0.080736
0.340509
-0.111850
-0.494723
0.376333
-0.028298
0.389831
-0.056570
0.262490
-0.239376
0.253599
-0.269484
0.464670
-0.284992
-0.155757
-0.420806
-0.339651
0.332266
0.222273
-0.351964
-0.130911
0.381399
0.353454
0.329633
0.345723
0.116289
-0.457652
-0.154248
0.353076
0.206171
-0.006876
-0.316450
-0.129743
0.269975
0.232054
-0.153908
0.227272
-0.282663
0.323926
-0.415431
-0.499507
-0.275353
0.140229
0.147085
-0.054046
0.382034
0.010760
-0.064354
0.425257
0.421739
0.177581
-0.234644
-0.461393
0.278312
-0.044151
-0.305673
0.386813
-0.381016
0.009417
-0.449892
0.342406
0.327501
0.423052
0.370925
0.293396
-0.307439
-0.264125
-0.116612
0.230733
-0.247135
0.355267
0.366995
-0.030744
-0.151249
-0.337780
0.055557
-0.196618
0.328322
0.457464
-0.274477
0.472702
-0.132219
0.280246
0.392670
0.433777
-0.270567
0.172046
-0.351022
0.153027
-0.237010
-0.232508
-0.079809
0.388316
-0.397860
-0.013793
0.371103
0.473831
0.287802
-0.080873
0.384504
-0.127133
-0.115140
-0.097143
-0.420675
0.425492
0.185905
0.062763
0.428781
0.491756
0.385062
-0.313373
-0.310638
0.492494
-0.499804
0.176769
0.214695
0.254436
0.419539
-0.368984
-0.446814
-0.387805
-0.081706
-0.245374
-0.001356
-0.409434
0.401965
0.023439
-0.189359
0.095419
0.425439
0.238017
0.482302
0.239163
0.395305
-0.354769
0.174826
-0.242034
-0.184578
0.063658
0.373195
0.190099
0.196926
-0.392652
-0.108745
-0.467094
0.249976
-0.206465
-0.030889
-0.157866
0.191643
0.217851
-0.552742
0.386611
-0.458767
0.256115
-0.051578
-0.212784
-0.220166
0.319355
-0.470219
-0.049579
0.062812
-0.482544
0.455309
0.116956
0.341110
0.361476
-0.068408
-0.380453
-0.212695
-0.290830
0.135372
-0.032657
0.214398
-0.090955
0.123427
0.424624
0.384784
-0.085355
0.537919
-0.172423
0.015667
-0.410600
0.418099
-0.145689
0.268232
-0.287517
-0.396911
0.175594
0.051653
0.192072
-0.004635
-0.136269
-0.355184
0.467579
-0.240505
0.132049
-0.007432
0.219690
0.226885
0.096948
-0.358585
-0.311330
0.261675
0.082771
-0.274192
0.103583
-0.293294
0.098798
0.367936
-0.163188
0.287683
-0.246798
-0.078261
-0.214881
0.312138
0.253172
-0.273186
-0.179444
-0.246402
-0.430721
-0.262400
0.426925
-0.465608
-0.202667
-0.070115
0.298542
0.331987
0.136136
0.055201
0.034694
0.406009
-0.416651
0.414854
0.241566
0.064727
0.424260
-0.002637
0.003648
-0.468039
-0.113625
0.290102
-0.304695
-0.479032
-0.355939
-0.112754
0.280129
-0.272679
0.151250
0.011297
0.252714
0.252804
-0.166335
-0.254861
-0.181664
-0.055273
-0.200204
-0.008091
-0.403528
0.131293
0.378567
0.226986
-0.002758
0.298088
-0.267692
0.421214
-0.185243
0.130455
0.306157
-0.164323
-0.058149
-0.239196
-0.505892
0.103106
-0.251610
0.063546
0.045956
0.070017
0.485515
0.381330
-0.121712
0.269546
-0.898230
-1.008035
0.110208
-0.046846
-0.041929
0.224248
-0.461469
-0.118594
0.196072
-0.379188
-0.169341
0.251573
0.167588
0.018160
-0.071755
0.018292
0.283179
0.103542
0.254128
-0.032665
-0.552183
-0.209383
-0.111815
0.253494
0.219427
-0.175914
0.106147
0.592536
0.925632
0.000144
-0.091181
-0.217888
0.089341
0.172948
0.353838
0.048912
-0.206955
-0.482276
0.198816
-0.485463
0.132134
0.183820
-0.490324
-0.088924
-0.334872
-0.441367
-0.058266
0.018997
0.171933
-0.260800
-0.032897
0.212124
0.122001
-0.281716
-0.201328
-0.257486
-0.185409
0.376106
-0.140296
-0.128119
0.027458
0.556008
0.614384
0.038126
-0.347226
0.060847
-0.231132
0.282482
0.412591
0.220640
-0.509150
-0.038420
0.490867
0.019054
0.267678
0.094873
-0.164881
0.064635
0.022168
-0.045108
0.112308
-0.244266
0.125684
0.150052
-0.227578
0.139403
0.090349
-0.167296
0.452806
-0.322300
0.495408
-0.198113
-0.000916
0.175326
-0.241476
0.483671
-0.271442
0.596342
0.321553
0.397030
0.156718
-0.266970
0.471915
0.094663
0.293444
-0.310736
-0.267059
-0.471917
0.277960
-0.148205
-0.179913
0.359793
0.259936
0.505357
-0.168316
0.125455
0.374200
0.415207
0.518638
0.246182
0.251845
0.058134
0.530812
0.177270
-0.503025
-0.197981
0.440044
-0.086101
0.452289
0.049941
-0.232696
0.383774
0.383815
-0.041772
0.088421
0.097706
0.486980
0.481976
0.077689
-0.380988
-0.495549
-0.252498
0.146581
0.310777
-0.033308
-0.291359
-0.356149
0.416279
-0.611955
-0.045271
0.100686
-0.295429
0.630219
-0.152660
-0.240064
-0.401263
-0.063989
-0.364421
-0.450747
-0.400250
0.034302
-0.293433
0.604993
0.098618
-0.084831
0.317392
0.430466
0.328961
-0.006650
0.296902
0.122245
0.155608
-0.461835
0.123406
0.319366
-0.077470
-0.131252
-0.216874
0.556870
-0.451596
-0.085338
0.090626
0.270878
0.236100
-0.319849
-0.308280
-0.139464
0.004961
-0.615131
-0.753669
-0.013111
0.090441
-0.335254
0.256770
0.434377
-0.253990
0.272320
0.410254
0.205329
0.246962
0.377701
-0.226909
-0.354816
-0.430643
-0.125702
-0.251152
-0.017178
0.338121
-0.331852
0.505949
0.486212
-0.522799
-0.136308
-0.416176
-0.199977
0.074333
0.176167
0.206395
-0.426331
-0.589129
-0.337708
-0.113978
-0.001585
-0.579683
0.315638
0.678493
0.154774
-0.207080
-0.023342
-0.226147
-0.418580
0.056156
0.027937
0.126427
-0.108570
-0.243653
-0.421257
0.390545
0.460905
0.163599
-0.386190
0.193283
0.152243
0.038922
0.396995
0.030183
0.078895
-0.027822
0.349874
-0.764946
0.128696
0.123346
-0.382261
0.295328
-0.769989
-0.584063
0.618913
0.324446
0.508640
0.015957
-0.115813
-0.361321
-0.015487
0.470387
0.052249
-0.003170
-0.099920
-0.306475
-0.306632
-0.007604
0.245200
0.105394
0.354613
0.641987
0.397935
-0.528613
-0.019056
0.371699
-0.536711
0.210026
0.289841
-0.350302
-0.001550
-0.072696
-0.352897
-0.195972
0.312357
-0.366606
-0.095450
0.108185
0.596634
-0.005637
-0.355015
-0.387907
0.048311
0.323924
0.413594
0.474736
0.387063
0.346913
-0.319387
0.435960
0.498589
-0.168744
-0.283614
0.223663
-0.379474
-0.032987
0.660851
0.419402
-0.454959
-0.525624
0.546134
0.366951
-0.079260
0.587244
0.019316
-0.155756
-0.070284
-0.084397
0.401765
0.601470
-0.003021
0.484346
-0.327353
-0.436861
-0.071844
-0.483508
-0.105713
0.056404
-0.151370
0.492288
-0.004024
-0.392934
0.299252
-0.449914
0.487630
0.082167
0.264031
0.244472
-0.429529
0.264350
0.210408
-0.169327
0.699556
0.821500
0.942670
0.338483
0.152600
-0.110508
-0.606671
-0.342296
0.174077
0.305537
0.561717
0.502773
-0.055362
0.006863
-0.231710
-0.448186
-0.206825
-0.264465
-0.165447
0.383534
0.037825
0.028636
0.309130
0.383117
-0.244951
0.129774
0.422350
-0.502771
-0.531058
-0.559578
0.188340
0.077603
0.745168
0.521955
0.386403
-0.195103
-0.575629
-0.609131
-0.979137
-0.681364
-0.537996
-0.440220
0.473410
0.130753
0.144271
0.372330
-0.223749
0.295132
0.317551
0.117711
0.245846
-0.486669
0.228970
0.003229
-0.377038
0.201636
0.002866
-0.146757
0.343387
-0.555469
0.091403
0.123571
0.087765
0.059634
0.197135
0.559693
0.188183
0.108590
-0.294669
-0.651776
-0.452011
-0.298820
-0.120615
0.163603
0.130376
0.505977
0.394913
-0.350488
-0.453193
-0.424120
-0.140733
-0.235170
0.420117
0.488879
0.357026
0.006211
-0.196460
-0.051947
0.190204
0.417903
0.134125
-0.238226
-0.435769
-0.105528
-0.556370
0.347493
-0.338016
0.351089
-0.246470
-0.726672
-0.171393
-0.207882
-0.864570
-0.447810
-0.740723
0.246784
-0.306528
-0.036230
0.152275
0.325706
-0.232485
-0.421265
-0.174410
-0.112646
-0.284814
0.018075
0.395341
-0.298044
0.394440
0.146228
-0.374453
0.117940
-0.509135
0.045637
0.104228
0.069544
-0.163139
-0.249523
0.301619
0.217776
0.044557
0.050381
-0.270201
-1.080597
-0.936314
-0.231537
-0.185527
-0.333013
-0.311317
0.306178
0.427873
0.306702
0.086298
0.040160
0.472394
0.319151
0.377223
-0.443347
0.206127
-0.125299
-0.299614
-0.100238
0.501484
-0.371613
-0.061242
0.410645
-0.150232
-0.483953
0.388812
-0.224266
-0.173756
0.471789
-0.185673
-0.163538
-0.707871
-0.104610
0.026265
0.137480
0.269109
0.029421
0.522649
0.571809
-0.045032
0.479461
0.349795
0.058873
0.022757
-0.157725
0.335781
-0.373798
0.025426
-0.461022
-0.413379
-0.231810
-0.114141
-0.041287
0.039586
0.135616
-0.792499
0.104706
-0.556860
0.283126
0.172807
0.723751
0.360623
0.619296
0.558247
0.223236
-0.262778
-0.256258
0.294619
0.217170
0.298774
-0.219925
0.216502
0.233085
0.350106
0.238696
-0.498906
0.447501
0.256346
0.250576
-0.237612
-0.485485
0.096928
-0.303467
-0.493259
0.261682
-0.187782
-0.585835
-0.264306
-0.129099
-0.514669
0.121708
-0.041874
-0.151574
0.176238
0.010604
0.190263
0.542498
0.546543
0.042408
0.459904
0.329882
-0.317473
0.051899
-0.067219
0.164450
0.432863
-0.176744
0.289109
-0.252668
0.222342
-0.272385
-0.066044
-0.096193
0.102760
-0.297465
-0.368823
-0.562887
-0.012986
-0.388580
-0.310412
0.409616
0.294101
0.504713
0.424777
0.308178
-0.162415
0.565976
-0.021127
0.716876
0.445780
-0.161644
-0.637371
0.269844
0.206337
-0.052526
0.171855
0.045251
-0.465930
-0.283129
0.411789
-0.220057
-0.049368
-0.089343
0.441833
-0.443283
-0.223867
0.140284
0.023495
0.466481
-0.453608
-0.205930
-0.294570
-0.349643
0.160809
-0.153327
-0.315121
-0.142000
0.064343
-0.192851
0.343927
0.266465
-0.280853
0.533025
0.374023
-0.416076
0.071916
0.447886
-0.356188
0.187620
0.136973
0.378262
-0.172492
-0.240159
-0.121755
-0.436143
0.320795
0.212598
0.158754
0.477617
0.172123
-0.368686
-0.154049
-0.093526
0.200776
-0.347809
-0.042432
-0.460893
-0.159563
-0.571766
-0.429667
0.253201
-0.219626
-0.154259
0.446246
-0.198464
0.237414
0.315312
0.031386
0.425160
0.252357
-0.123410
-0.352135
0.101856
0.184808
0.160862
-0.154007
0.261235
0.446830
0.171618
-0.043573
-0.120879
-0.489436
-0.147440
-0.016678
-0.272868
0.105593
0.110437
-0.126599
-0.492879
-0.003751
-0.509635
0.090605
0.183915
-0.280076
-0.321504
0.397309
-0.105844
0.298552
-0.022806
0.131276
0.247721
-0.133487
-0.374002
-0.479500
0.314138
-0.168478
-0.111578
0.062886
0.453079
0.076553
-0.207172
0.049419
-0.397437
-0.255597
0.438750
-0.348039
-0.273748
-0.255140
0.466720
0.312066
-0.356695
-0.345505
-0.438896
-0.100704
0.493406
-0.239793
-0.488166
-0.066100
0.221841
-0.055019
0.331180
0.198644
0.003678
0.394307
0.224192
0.126582
0.281927
-0.402026
0.340834
0.433961
0.266523
0.400678
-0.261073
0.192849
0.072596
-0.260909
0.316593
0.071188
-0.372175
0.422059
0.335148
-0.073964
-0.411429
-0.376046
-0.370589
0.446253
-0.384474
-0.484668
0.258321
0.488482
-0.233777
-0.346958
0.385663
0.243366
0.279851
-0.360771
0.474594
0.371302
0.362792
0.303253
0.453722
-0.063542
-0.464501
0.368007
0.402203
0.223256
-0.317799
-0.173919
-0.276352
0.185085
-0.121785
0.028650
0.227859
-0.156541
-0.129710
-0.061556
-0.469405
0.264396
-0.112178
-0.384302
0.257441
-0.196200
-0.404865
-0.103208
0.029400
0.223516
-0.212185
-0.027658
-0.043343
0.166439
-0.426992
-0.213043
0.484611
0.195770
-0.490419
0.008676
0.136025
0.330474
0.228492
-0.197753
-0.126057
-0.280676
-0.349512
-0.106375
-0.295144
0.207511
-0.172500
0.220664
0.454275
0.032076
0.407088
-0.320669
0.045272
0.214358
-0.242654
0.438842
0.346891
-0.436106
-0.282762
-0.079950
0.418486
-0.469146
0.344433
0.223140
0.488454
0.164635
0.330910
-0.077314
0.120965
0.174412
0.185375
-0.182148
-0.183402
0.184327
-0.416764
0.431518
-0.097150
0.114935
-0.365193
0.255726
0.416540
0.151888
-0.243834
0.249815
0.319445
0.131330
-0.486952
-0.258786
-0.325314
0.468388
-0.129947
-0.036939
0.425479
-0.112898
-0.115952
-0.047058
-0.187325
-0.003911
0.193994
0.019603
0.009712
-0.052650
0.378615
-0.392155
-0.221891
0.179191
0.057129
0.425030
0.158563
-0.446028
0.039939
-0.494640
-0.435393
0.351439
0.306128
-0.125317
-0.472476
-0.512625
0.276777
0.432818
0.326711
-0.029423
-0.102802
-0.120477
-0.134710
0.081755
-0.229577
-0.231836
-0.056924
0.303326
0.433549
-0.238067
0.499061
0.253528
0.289693
-0.454394
-0.394717
0.081392
0.080728
-0.396642
0.177480
0.440974
-0.199255
-0.335840
0.070001
0.313773
-0.532881
-0.163498
0.013275
-0.338093
-0.302788
-0.042164
-0.464309
-0.329956
0.390601
-0.500920
0.211736
0.260175
-0.381736
0.282859
0.030424
-0.354541
-0.375358
-0.116590
0.248653
-0.375971
0.310011
0.400470
0.089056
0.427143
-0.489187
0.094469
0.071580
0.464847
0.273414
0.011775
0.351458
-0.512619
0.399762
-0.306509
-0.736141
0.027408
0.341637
0.236440
0.243700
-0.179061
0.264118
-0.396689
-0.126271
-0.492285
0.353534
-0.325418
-0.121753
-0.250948
-0.027844
0.075353
-0.092857
0.415479
-0.332384
0.231124
-0.118066
-0.191434
0.191128
-0.076568
0.164526
-0.090627
0.541230
0.046661
0.051920
0.349688
-0.008657
0.873629
-0.050081
-0.298759
0.098896
-0.146519
-0.046143
-0.249019
0.110262
0.441913
-0.294473
0.146486
0.269063
-0.388799
0.083636
-0.081881
0.415116
0.191412
0.225647
-0.019496
-0.006422
-0.562333
-0.277596
-0.126815
-0.213981
0.123154
0.201395
0.316984
-0.007939
-0.432411
0.116698
-0.176686
-0.091623
-0.071640
-0.007781
-0.338850
-0.189498
-0.516569
-0.030403
0.478247
0.061625
-0.074475
-0.035116
-0.421117
0.207513
0.091827
0.397682
-0.250586
-0.346810
-0.135634
0.080871
0.185136
-0.140030
-0.461268
-0.462392
0.303918
0.253147
0.663722
0.400579
-0.269346
-0.677467
0.084297
0.065764
-0.151001
-0.200204
-0.222646
-0.509572
-0.199691
-0.746947
0.143983
0.497247
0.213436
0.048493
0.270352
-0.368426
-0.204673
0.000202
0.178077
0.194045
-0.259755
0.474018
-0.034340
0.487585
0.410800
-0.303234
-0.515194
-0.054058
0.218720
0.197565
-0.041351
0.467835
0.438587
0.026778
-0.501449
-0.149727
0.282142
-0.373374
-0.570941
-0.668500
-0.770877
-0.551266
0.411629
-0.079393
0.426465
0.394489
-0.290734
0.260220
-0.532492
0.467365
0.161128
0.450850
0.172931
0.400654
-0.476971
0.426235
-0.421125
-0.122110
0.175248
0.398416
-0.275101
-0.257297
0.225958
0.583255
0.094080
0.133378
-0.545186
-0.457124
-0.428532
-0.529183
-0.450933
-0.217137
-0.854464
-0.677790
-0.306909
0.450067
0.560730
0.252419
0.297889
0.065083
0.453683
-0.333042
-0.491029
-0.064135
-0.465397
-0.277440
0.310309
-0.341720
-0.260248
0.477317
-0.465833
-0.395592
-0.011412
-0.273960
-0.331488
0.516286
0.281320
-0.554665
-0.763305
-0.498651
-0.237668
-0.709678
-0.297347
-0.533827
-0.370054
-0.493102
-0.407585
0.163404
0.812161
-0.391108
0.177414
-0.050050
0.357229
0.270811
-0.349789
-0.083778
0.263216
-0.390233
-0.358166
-0.265691
0.485094
0.228435
-0.004747
0.178876
0.143510
0.153183
0.200946
0.492278
0.082832
0.080159
0.174307
0.253581
0.097244
0.122573
-0.142477
-0.229242
-0.033515
-0.393971
0.128322
0.058785
0.262835
-0.003641
0.115700
-0.311986
0.342300
-0.214905
0.230225
-0.068690
0.323255
0.157908
-0.347633
0.088566
-0.417450
-0.475771
0.213870
-0.452290
-0.354740
0.063560
-0.164499
0.382093
-0.003813
-0.222763
0.221860
0.151523
0.502850
0.112216
-0.081077
-0.524841
-0.501304
-0.401939
0.025055
0.497874
0.081903
-0.022965
-0.515024
-0.319062
0.331375
-0.316491
-0.182956
-0.270701
0.456926
-0.090077
-0.117987
-0.364545
-0.332292
-0.444000
-0.175939
0.271155
0.001788
-0.204258
-0.164688
0.460398
-0.514788
0.194200
-0.038733
0.583489
0.643211
0.524880
0.116156
0.168479
0.068564
0.336104
-0.385613
-0.146077
-0.402931
0.077607
-0.492346
0.405992
0.200748
-0.473900
0.052761
0.413373
0.069464
0.443195
0.411583
0.339935
0.322318
-0.228008
-0.542188
-0.090483
0.386444
-0.041518
0.025327
-0.229270
0.427383
0.135323
-0.174662
0.659093
0.135631
0.153753
0.233428
0.458818
0.085405
-0.516752
-0.139161
-0.225842
0.093041
0.304322
0.084469
0.234289
-0.116756
0.386079
-0.285811
0.119380
-0.395386
-0.022153
-0.097639
-0.262982
0.086555
-0.052369
-0.351478
-0.080075
-0.334856
-0.333671
0.380784
0.234222
-0.060857
0.454623
0.567235
-0.394764
0.060015
0.200074
0.166349
0.039701
-0.380246
-0.329842
0.369044
-0.286796
-0.492195
0.105071
-0.213124
-0.361224
0.201493
-0.045002
0.236960
-0.109511
-0.384523
0.244465
-0.343744
-0.299262
-0.472555
0.123503
0.410278
0.074120
-0.345026
0.511517
0.397966
-0.119609
-0.369782
-0.300632
-0.241574
0.210308
0.147411
0.059449
-0.483461
0.541437
-0.058347
0.890686
0.296955
-0.097172
-0.384183
0.061449
-0.513080
-0.018165
-0.175970
-0.247179
0.049802
-0.111135
0.417041
0.384909
0.178134
0.367031
0.442368
0.109408
-0.106567
-0.152978
0.140115
-0.451155
-0.026145
-0.003561
0.286797
-0.017247
0.082283
0.566395
0.147930
-0.282588
0.022816
-0.056825
0.252039
-0.050655
-0.012796
-0.143271
-0.023694
-0.131900
0.393494
0.049010
-0.138319
0.103722
0.322328
-0.013594
0.345592
0.282251
0.206123
-0.377847
0.305849
0.118796
-0.391325
-0.501156
-0.198624
0.126378
0.361681
0.185731
-0.170578
0.046192
0.627077
0.372601
-0.212299
-0.329967
0.162852
-0.200722
0.189621
0.509662
-0.261761
0.116763
0.128464
-0.160259
-0.289806
0.105749
0.405966
-0.483990
0.201144
-0.132162
-0.344001
0.385000
0.355617
-0.171442
0.075610
-0.136715
-0.341411
0.243853
-0.319300
-0.489775
0.314286
-0.329386
0.668637
0.435114
0.100095
0.366886
0.837777
0.670333
0.422291
0.215631
0.278783
0.331307
-0.336825
0.126874
-0.000087
0.058855
-0.433944
0.427879
-0.250380
-0.130923
0.184415
0.066505
-0.208844
-0.328859
-0.425982
-0.403090
-0.282233
-0.081711
0.327563
-0.331794
-0.199669
-0.345338
-0.637754
0.322581
-0.214792
-0.068320
0.165622
0.773428
0.003806
0.277758
0.408162
-0.390770
0.150195
0.130820
-0.306340
0.162247
0.010283
-0.302906
0.150325
0.101572
0.227012
0.094205
0.057106
-0.388341
-0.467082
0.081768
0.000227
-0.053553
-0.361939
-0.294456
-0.144832
0.227480
0.348065
-0.282813
-0.146669
-0.161582
-0.287058
0.436774
0.240161
-0.373935
0.474443
0.328580
0.023730
0.310128
-0.005512
0.117590
-0.594415
-0.017758
-0.210606
0.059199
-0.194236
-0.533654
0.415442
-0.322471
0.148072
-0.184489
0.101150
-0.427406
0.324907
0.089430
0.179235
-0.205597
0.339157
-0.091157
0.352761
0.017399
-0.762471
-0.412396
0.227219
0.455259
0.368664
0.260216
-0.245529
-0.453022
-0.320814
-0.457620
-0.299369
0.220527
0.201515
-0.207701
0.460005
-0.541442
0.078423
0.263439
0.354061
-0.327590
-0.496514
0.251734
-0.200288
-0.044450
0.412259
0.280154
0.036557
-0.239281
0.043956
0.151234
0.117918
0.279978
0.155084
0.105144
-0.764080
-0.041930
-0.122601
-0.156418
0.034088
-0.110648
-0.492816
0.411004
-0.126093
-0.036270
0.662027
0.111583
-0.430186
0.369429
0.365995
-0.184879
0.240642
-0.256321
0.051804
-0.051102
0.038396
-0.219269
-0.404815
-0.093638
-0.131931
0.074130
-0.440077
0.347665
-0.218790
-0.505368
-0.163535
0.131213
-0.815761
-0.048176
0.299266
0.021935
0.733365
0.721848
-0.133500
0.288836
0.252182
0.674864
0.199792
-0.027933
-0.378347
-0.215927
-0.086002
-0.463613
-0.471676
-0.313377
0.461826
0.070728
0.363800
0.385923
-0.429288
-0.060539
0.356366
-0.279947
0.247956
-0.230963
0.240506
-0.061625
-0.072851
-0.364632
-0.159588
0.189157
0.429815
0.321198
0.795113
0.282802
0.703994
0.931419
0.308203
0.052667
-0.222849
0.335010
-0.417226
-0.635457
-0.066017
-0.383647
-0.249489
-0.248882
-0.019145
0.438029
0.021223
-0.473085
0.498992
-0.165302
0.372220
-0.065648
-0.429225
0.443177
0.314131
0.090870
0.366949
0.098038
-0.273571
-0.012452
0.185877
0.060044
-0.479826
0.115214
0.121074
-0.434375
0.158012
-0.013205
-0.435797
0.079481
0.133267
-0.457149
0.359106
0.214079
0.387655
0.083158
-0.457097
0.403473
-0.380999
-0.222669
-0.076964
-0.301487
-0.140777
0.284812
0.424652
-0.291309
-0.147414
0.070805
0.001668
0.038046
0.316191
-0.354338
-0.373676
-0.452802
0.060273
-0.206711
-0.324815
0.069352
0.480618
-0.035166
-0.429010
0.481413
-0.204495
0.175437
-0.112468
0.392466
-0.143997
-0.038534
-0.361720
-0.182439
0.307540
-0.028758
-0.350930
-0.430911
-0.026537
0.046296
-0.198830
-0.305808
-0.084353
-0.225962
0.098018
0.307261
-0.290718
-0.397368
-0.411237
0.412884
0.401993
0.418417
0.230793
0.051786
-0.331801
-0.317968
-0.248968
-0.252227
-0.043021
-0.236239
-0.170458
0.346564
0.355758
-0.009301
0.267069
-0.425812
0.401069
0.318400
0.216293
0.495131
-0.366436
-0.212335
-0.401595
0.193321
0.023682
-0.376441
-0.404579
0.342096
-0.001705
-0.028293
-0.441772
-0.339973
0.179847
0.231631
0.330708
-0.144504
-0.264483
0.152115
-0.258311
0.304491
0.496883
0.192726
0.288902
-0.356572
0.381581
0.071978
-0.131903
0.153113
-0.021528
0.344619
-0.176285
-0.182492
0.446126
0.364546
-0.176926
-0.357700
-0.472750
-0.118571
0.040331
-0.031369
-0.209461
0.238420
-0.105364
-0.096046
0.070722
-0.142940
0.088702
-0.361362
-0.110068
-0.300400
0.062872
0.394542
-0.045460
0.121652
-0.041387
-0.125161
-0.177095
-0.372083
-0.442574
-0.026813
-0.227593
0.402513
0.268586
-0.061812
0.221706
0.459107
0.089183
-0.029741
-0.242984
-0.392768
-0.369646
-0.017000
-0.420227
-0.216246
0.343462
-0.040142
0.278879
-0.476248
0.066666
-0.173987
0.034436
-0.488369
-0.015082
0.014090
0.443112
0.071599
0.000256
-0.089525
0.206584
0.057905
0.392763
-0.420479
0.183143
-0.065339
0.389379
0.421325
0.440831
0.401044
0.123891
-0.026451
0.220127
0.333909
0.068012
-0.485481
-0.211620
0.443507
-0.269223
0.176830
0.063618
-0.296356
0.141369
-0.128626
-0.145988
0.303052
0.453277
-0.124935
-0.458380
0.455767
0.268379
0.486047
0.064517
0.115279
-0.298195
-0.490969
0.065154
0.296094
-0.067495
0.406827
-0.172004
-0.032135
0.254356
0.412173
0.473472
0.420205
-0.000427
-0.310899
0.324460
-0.392496
-0.466429
-0.111608
0.077332
-0.110593
0.228946
0.000850
-0.471225
0.482064
-0.016376
-0.198478
-0.222559
0.425837
-0.238967
0.132584
0.423612
-0.391566
-0.274672
0.493306
-0.263893
0.407070
0.171476
0.199615
-0.177095
0.021891
0.061097
0.166123
-0.145593
0.044552
0.078538
-0.191219
0.002744
0.351857
0.077111
-0.225056
-0.219097
-0.495682
-0.201531
0.029395
-0.075915
0.202665
0.210005
0.056056
0.501676
0.260679
-0.183804
-0.093728
-0.144887
-0.062424
0.407178
-0.232872
0.291404
-0.361703
-0.008239
0.202247
-0.018932
-0.383266
-0.180315
0.278963
-0.349174
0.258140
0.296242
-0.496267
0.148061
-0.096313
0.445632
-0.348822
0.481028
0.177025
-0.044110
-0.406913
0.336166
-0.433633
-0.363595
-0.211860
-0.023806
-0.233571
0.209699
-0.257814
0.472157
-0.409240
-0.486279
-0.478683
-0.447999
-0.052187
0.494058
0.357690
-0.010051
0.029189
0.366450
-0.358045
0.139329
0.421840
-0.421777
0.168622
-0.135143
0.142197
-0.414006
0.314157
0.170904
-0.083960
-0.436525
0.025491
-0.559541
0.053853
-0.043832
0.085070
-0.290567
-0.241570
-0.095745
-0.044125
0.097048
-0.156462
0.440637
0.467054
-0.151726
0.495065
-0.281508
0.380937
-0.283335
-0.346304
0.325758
0.058067
0.292766
0.114924
0.313970
-0.003105
0.178310
-0.185397
0.419030
-0.390113
0.382208
0.025547
-0.215917
-0.205052
-0.006318
0.040853
0.442351
0.518823
0.495786
0.200940
-0.443243
-0.001261
0.275359
0.357545
-0.313198
-0.462330
-0.379007
-0.297030
-0.032463
0.256652
0.496009
0.120171
-0.281216
0.156004
0.218374
0.154429
0.201578
-0.046904
0.312559
0.260950
-0.088164
-0.288568
0.240437
-0.382618
0.050198
-0.051391
-0.572531
-0.184678
0.077255
0.098766
0.441116
0.329084
-0.014393
-0.142863
0.397065
-0.378836
-0.338497
0.483052
-0.447673
0.365417
0.342613
-0.200269
0.403353
-0.475089
0.120644
-0.509023
0.332941
-0.298521
0.016604
0.193683
0.389460
-0.387646
0.097244
0.138125
0.271160
-0.265888
-0.294673
-0.217884
-0.128279
-0.243761
-0.452221
0.211652
-0.297659
-0.247160
-0.134390
0.021665
0.409403
0.463857
-0.356423
-0.310439
-0.284704
0.226407
-0.026578
0.032018
-0.276069
0.256414
0.333818
-0.031809
0.090088
0.228063
-0.490637
0.438411
-0.268882
0.363904
0.289347
0.263388
-0.232082
-0.046105
0.214699
-0.400523
-0.633565
-0.085904
0.416990
0.307369
-0.220703
-0.411086
-0.601700
-0.014395
0.084991
0.382206
-0.286769
-0.233466
0.238386
-0.072014
-0.191042
-0.013461
0.097266
-0.176105
-0.322687
-0.244778
-0.502929
-0.465861
0.129555
-0.418597
0.281248
0.354607
-0.020011
0.648819
-0.047756
-0.450898
0.106424
-0.562672
-0.650799
-0.289257
0.370637
0.035174
0.253030
-0.643020
-0.403237
-0.552471
-0.366050
0.228850
-0.368263
-0.101734
-0.012349
-0.473149
0.430604
-0.150637
0.474196
-0.265822
0.399383
-0.192645
-0.422949
-0.408886
0.193842
-0.356744
-0.163471
0.075516
0.228340
0.509005
-0.157667
-0.220061
-0.582509
-0.047518
-0.611529
-0.000216
-0.418531
0.036068
-0.510594
-0.575602
-0.443872
-0.481436
-0.439126
0.136928
0.400840
0.354053
0.389208
0.142534
0.496178
-0.335600
-0.420454
0.173310
-0.256300
0.125145
0.149523
0.351063
-0.615905
-0.052632
-0.411658
0.031718
-0.055616
0.549580
0.561742
0.344806
0.026871
0.331839
0.425960
-0.058865
0.104255
-0.462854
-0.206796
-0.511758
0.172468
-0.409015
-0.225609
-0.360325
0.265873
0.375553
0.037987
0.022975
-0.458030
-0.120010
-0.016186
-0.244131
0.166289
0.380821
-0.117254
-0.350434
0.211216
-0.303908
-0.064153
0.156306
0.776755
0.773378
0.611504
-0.038126
-0.227264
-0.195574
0.383367
0.316632
0.219428
-0.062033
-0.054372
-0.384076
0.215717
0.152159
-0.328964
0.403133
-0.362160
0.496767
0.419692
-0.005946
0.468317
-0.262762
-0.395982
0.194906
-0.360924
0.139717
0.111691
0.480340
0.030884
-0.198210
0.230723
0.343933
0.523937
0.805815
0.934834
0.441293
0.023567
0.404808
0.127694
0.078038
0.507621
-0.347645
0.154265
0.276426
0.281369
0.372852
-0.024018
-0.180891
-0.069381
-0.010454
-0.142433
0.153042
-0.222198
0.200951
0.187906
-0.442935
-0.397232
0.100189
0.413928
-0.096768
-0.049979
-0.539421
-0.236070
0.112134
0.332169
0.071175
-0.095595
0.160093
0.385355
0.179972
0.165696
0.007955
-0.484530
-0.373327
-0.175217
-0.434632
-0.545323
-0.145816
0.489148
-0.350703
-0.172763
-0.132744
0.275491
0.327477
-0.113914
0.421185
0.153324
0.174961
-0.051690
0.200652
-0.088201
0.413744
0.041317
-0.216347
-0.372936
-0.402006
-0.444926
-0.709718
-0.103326
0.409264
-0.063495
-0.060834
-0.039155
-0.508795
-0.608104
-0.456539
0.066468
-0.615291
-0.155296
0.395773
-0.246299
0.292450
0.480644
-0.154728
0.050263
-0.175969
0.098835
0.385178
0.306524
-0.017083
-0.361724
-0.079691
0.108837
-0.304064
0.010328
-0.412618
-0.038925
-0.410419
-0.239891
-0.245824
-0.208288
0.215528
-0.493461
-0.286565
0.104508
-0.300927
0.040621
-0.042641
-0.419371
-0.345106
-0.381928
0.496097
0.533551
0.194985
-0.455779
-0.331150
-0.289728
0.366242
0.497449
-0.393526
0.199453
-0.256882
-0.037079
0.027939
-0.038007
-0.086131
-0.132770
-0.397929
0.254493
0.387227
0.368097
-0.608989
-0.014739
0.497561
0.088505
-0.503497
-0.298142
-0.312587
-0.257979
0.491785
0.033026
0.008210
-0.316655
0.228167
-0.094856
0.167250
-0.379306
-0.143088
-0.025608
-0.329175
-0.087886
0.239292
0.204739
-0.118785
-0.308653
0.330039
-0.149812
0.413750
0.325410
0.495534
0.239242
0.211338
0.345385
-0.321442
0.260472
-0.116016
0.408598
0.769429
0.324794
0.215797
0.263131
-0.045297
0.258444
0.399692
0.199270
-0.245613
0.330861
-0.014345
0.418297
-0.125082
-0.468086
0.362792
0.317202
0.147100
-0.367712
0.119039
-0.330000
0.076682
-0.315765
-0.301778
0.143429
0.453906
-0.326519
-0.341254
0.076690
0.005923
0.259901
0.581689
-0.051136
0.318487
0.549488
0.032220
-0.207367
-0.002898
-0.394094
0.282537
-0.157911
0.398689
-0.351864
-0.412847
-0.377185
0.006049
0.357196
-0.437053
-0.435681
-0.085234
0.452087
0.023614
-0.324577
-0.078649
-0.231124
0.109263
0.029879
0.172434
-0.106086
0.172353
-0.402096
0.092581
0.508090
0.277532
0.526623
0.803011
-0.082950
-0.002564
0.052334
-0.334875
0.133557
0.023402
0.293373
-0.356455
0.489687
0.225516
0.440930
0.268275
-0.000477
0.193338
0.035066
-0.327521
0.467480
0.023236
0.171895
0.432452
-0.121375
-0.303983
-0.403534
0.426042
0.258102
0.176653
0.309872
0.518156
-0.020829
0.207184
0.186567
0.590367
0.261200
-0.704129
-0.525719
-0.368340
-0.234584
-0.224715
-0.089320
-0.059131
0.386404
-0.012188
0.397862
-0.105384
0.325066
0.157054
-0.046822
0.019323
-0.283609
0.000784
0.079174
0.558926
0.389974
0.399014
-0.186386
-0.550199
0.433717
0.178833
-0.098375
0.147586
0.526188
0.002941
0.046360
-0.365469
-0.925116
-0.291733
-0.052240
-0.492679
0.181114
0.435770
-0.264560
0.377381
0.248992
-0.227813
0.427234
0.457218
-0.479209
-0.263827
0.183854
-0.140157
0.461863
0.032195
0.255564
0.070269
-0.400143
0.154524
0.202497
0.243321
-0.111337
0.145417
0.302793
-0.198950
0.092185
-0.861563
-0.128824
-0.789213
-0.414010
-0.615157
-0.370717
-0.291932
-0.532476
-0.135653
0.274611
-0.027331
0.170216
0.206980
0.336610
0.369680
-0.188668
0.107402
0.027211
-0.263903
-0.301817
0.086915
-0.466395
-0.241308
-0.017688
-0.191838
0.517051
0.117737
0.451887
0.786591
-0.049803
-0.481735
-0.443409
-0.496075
-0.630761
-1.027121
-0.578056
-0.312193
-0.425153
-0.213300
0.190198
0.405715
0.506368
-0.092634
0.195689
-0.088840
-0.191939
0.102557
0.368497
-0.269284
0.213259
0.198416
-0.479786
-0.309687
0.323395
0.019056
0.272504
0.190549
0.077787
0.795159
0.330736
0.783367
-0.034429
0.129485
-0.486268
-0.693361
-0.734956
-1.068279
-0.306486
-0.600666
-0.645418
0.089779
-0.140920
0.415355
-0.389060
0.061533
-0.215722
-0.267017
0.071635
-0.087186
0.272619
0.267677
-0.339163
-0.173061
0.420974
0.319172
-0.345574
-0.246256
0.421243
0.015377
0.011379
0.474483
-0.272905
-0.094735
0.313001
-0.450136
-0.156582
0.149616
-0.564859
-0.051767
0.045794
-0.298144
-0.521170
-0.239245
0.346661
-0.171353
0.088152
0.227058
0.266992
-0.406788
0.378896
0.063398
0.281772
0.184035
-0.208827
-0.376653
0.076197
0.096379
0.220962
0.148406
-0.372841
-0.497394
0.203116
-0.203656
-0.325228
-0.296299
-0.232711
0.085285
-0.134183
-0.130031
-0.167754
0.132887
-0.083674
-0.021158
-0.237831
0.256912
0.085217
-0.244172
-0.300720
0.115000
0.080633
-0.245773
0.457127
0.491682
0.235776
0.305446
-0.053103
-0.093343
0.001829
0.156204
-0.324170
-0.374686
-0.476845
0.012061
0.406422
-0.174241
0.314180
0.383482
-0.368330
-0.047971
-0.499870
-0.064351
0.240342
0.014921
0.184016
-0.022075
0.144178
-0.039542
-0.345201
0.461207
-0.463780
-0.495038
0.368266
0.026931
-0.389665
0.386231
0.479240
0.213506
-0.406665
0.230241
-0.214138
0.311769
-0.493790
0.108487
0.029345
-0.306242
0.469158
0.223217
-0.484591
-0.152523
-0.456064
0.126644
-0.468843
-0.188732
-0.100107
-0.189038
0.256275
-0.188530
0.453191
-0.129681
-0.095500
0.267691
-0.155520
-0.069550
-0.405261
0.304151
-0.422538
-0.129567
-0.318582
-0.263227
0.401248
-0.165103
0.053106
-0.279063
-0.415160
-0.203944
0.203421
0.448820
-0.471362
0.157909
-0.247585
0.374784
0.047294
0.257390
0.396013
-0.051467
0.032897
0.183232
-0.274084
-0.498158
0.202983
-0.085442
-0.323849
0.025687
-0.086021
-0.057085
-0.261544
0.383458
0.100843
-0.276687
-0.446529
0.276789
0.298752
-0.122485
-0.396205
0.317736
0.283600
0.424057
0.368390
0.083455
0.209737
-0.128474
0.159800
-0.197018
0.297504
-0.093275
0.158098
-0.452943
0.205793
0.227498
0.203634
0.337721
-0.399191
0.362399
0.012029
-0.090184
-0.207407
0.083589
-0.498538
0.251477
0.385832
-0.291276
0.229293
-0.266644
0.364540
0.180291
0.243895
-0.341147
0.067278
-0.258684
0.298905
-0.055679
0.001383
0.492658
0.358402
-0.402010
0.076313
-0.458160
-0.291784
0.186972
-0.481473
0.178871
0.388090
-0.378873
0.328763
0.385100
0.292569
0.186352
0.274554
-0.078546
0.163326
-0.418983
0.087776
-0.495049
-0.007747
0.275895
0.304836
-0.072248
-0.218532
0.449968
0.315219
-0.040072
0.494331
0.478840
-0.362397
-0.479378
-0.097578
-0.093798
-0.178737
-0.291965
-0.085506
-0.054324
0.245091
-0.012638
0.261245
0.217361
-0.420861
-0.261334
-0.384312
0.291720
-0.286355
0.323654
0.113814
-0.307891
0.104008
-0.432662
-0.037531
0.463746
-0.309390
0.225008
-0.079337
0.440641
-0.155326
0.029200
0.327846
-0.168317
0.209395
-0.224982
-0.420882
0.259699
0.448639
0.270000
-0.468035
-0.349917
0.308907
-0.116886
0.220704
0.406009
-0.280129
-0.133232
-0.130728
0.151072
0.167476
0.224271
-0.466571
0.409409
0.001989
0.479289
-0.122691
-0.013509
-0.277038
-0.445538
0.430283
-0.406773
-0.115457
-0.030031
-0.338423
0.162503
0.397055
0.265300
-0.095448
-0.091002
-0.041317
0.478033
0.299712
0.226255
-0.179463
-0.384671
0.351510
-0.177949
-0.402160
-0.499170
-0.427541
0.212069
0.460924
0.013131
-0.354849
0.001303
-0.165045
0.217272
0.202418
0.002079
-0.344949
0.269437
-0.325060
0.168134
0.188511
-0.239600
0.131404
0.229705
-0.362890
0.415228
-0.175898
-0.310532
0.010679
-0.468662
0.029462
0.135400
0.124462
-0.374561
0.036319
-0.134214
0.055341
-0.208210
-0.512681
-0.409557
0.033938
0.220260
-0.442250
-0.192629
-0.261628
-0.040812
0.279901
-0.387575
0.036182
0.367792
0.087860
-0.374249
-0.214577
0.254919
-0.030620
-0.397275
-0.127588
0.013319
-0.065903
0.277245
0.012977
-0.604142
0.084653
-0.720919
-0.520140
0.207566
-0.397448
-0.548727
0.214868
-0.215426
-0.517482
0.247492
0.133805
-0.144300
-0.080887
-0.199464
-0.477881
-0.005112
-0.005916
0.194515
-0.055853
-0.468337
0.074432
0.396993
-0.229662
-0.336711
-0.069172
0.047917
-0.007273
-0.101732
-0.406756
-0.754533
-0.825999
-1.016073
-0.518919
-0.416849
-0.642965
-0.597524
-0.214767
0.213131
0.169514
-0.115491
-0.072576
-0.061523
-0.251636
-0.036185
-0.061210
0.115633
-0.425750
-0.017925
-0.516058
0.024965
-0.135157
-0.403037
-0.298322
-0.377940
-0.471299
-0.344738
-0.304135
0.323290
-0.048043
0.001129
-0.017936
0.092930
-0.111441
-0.110308
0.168345
-0.088094
-0.305964
0.402008
-0.396599
-0.444427
-0.364822
0.334184
-0.134599
-0.330801
0.490189
0.517463
-0.285812
0.273894
-0.281344
0.198909
0.300253
0.272600
-0.228012
0.186123
-0.459402
0.485291
0.074105
0.243385
0.066442
-0.400585
-0.424141
-0.243434
0.360932
-0.518760
0.353879
0.441015
0.843786
0.195665
0.533455
-0.170142
-0.189765
-0.147351
-0.195662
0.207818
0.090871
-0.152851
0.087500
-0.220619
0.131999
-0.175561
0.337147
0.026400
0.432341
0.289426
-0.467011
0.101941
-0.347614
0.259944
-0.180401
0.367685
-0.404405
0.256302
0.518795
0.449055
-0.175120
0.402988
0.913139
0.697113
0.819579
1.067979
0.476145
0.521798
0.251835
-0.302177
-0.125043
-0.111169
0.338047
0.438328
0.058372
0.280637
-0.101162
-0.100451
0.223010
0.095975
-0.105594
0.094410
0.223570
-0.385386
0.016499
-0.029822
0.319552
-0.145714
0.426387
0.243222
-0.130264
0.051684
-0.239466
0.507907
0.287245
0.512788
0.528264
0.311693
0.186487
-0.080538
0.302384
-0.586343
-0.152163
-0.056793
0.483322
0.052046
-0.243812
0.296287
-0.304797
-0.065470
-0.276728
0.310579
0.055221
-0.022220
-0.053943
0.072201
0.095694
-0.003722
-0.415348
-0.353583
0.020142
0.026854
0.261586
0.026349
-0.226927
-0.158319
0.624734
0.097889
-0.009842
0.217827
0.303970
0.189051
0.356940
0.095345
-0.639499
-0.317994
0.171727
-0.584886
-0.060037
-0.391854
-0.351350
-0.115122
-0.438849
-0.380069
-0.085242
0.365952
-0.409738
-0.119192
-0.425618
-0.461662
0.385065
-0.004643
-0.467354
0.350928
0.303420
-0.420328
-0.014631
-0.205856
0.570122
0.135038
-0.238789
-0.491229
0.237157
-0.700544
-0.372245
-0.295907
-0.521625
-0.255248
-0.425962
0.020262
-0.381181
-0.284802
-0.289030
0.122243
-0.401016
0.245807
-0.398218
0.447486
0.159969
0.007337
-0.001646
0.473359
-0.445016
0.130832
-0.171854
0.171595
-0.094712
-0.276356
0.408362
-0.192927
0.133324
0.670499
-0.143250
-0.182108
-0.631838
-0.526538
-0.251703
-0.108599
0.106858
0.007110
-0.460141
-0.381250
-0.455937
-0.367393
0.303699
0.170697
-0.240526
0.217455
0.461811
0.378836
0.183021
0.171587
0.385009
0.154374
0.128980
0.341327
-0.478877
-0.012388
0.384509
0.004711
0.277008
-0.258541
0.105357
0.373139
0.394406
-0.177815
-0.926694
-0.616204
-0.444747
-0.084444
0.385424
-0.255570
0.058352
-0.524677
-0.153153
0.334197
-0.413909
0.048320
-0.208079
0.057294
0.270863
0.210370
-0.097451
-0.028511
0.086342
0.417672
-0.105378
-0.370155
-0.386490
0.054192
-0.112551
-0.044367
0.080423
0.248929
0.114536
-0.204564
-0.421756
-0.121224
-0.461560
-0.622227
-1.030529
0.225058
0.523356
-0.002043
-0.428627
0.319894
0.135859
-0.418966
-0.237917
-0.523713
-0.134802
0.174425
-0.355531
-0.462332
0.001769
0.463607
-0.460209
0.242029
-0.037447
0.026854
-0.285705
0.560568
0.421428
-0.025656
0.034138
-0.203894
-0.206664
-0.233979
-0.190374
0.099112
-0.272499
-0.394340
-0.478887
0.511551
0.484365
0.624094
0.407612
-0.106527
0.134709
-0.065777
-0.030896
0.344438
0.103564
-0.225090
0.397941
0.076047
0.381071
0.160364
-0.399538
-0.044022
0.259457
-0.306857
0.273967
-0.252408
-0.276937
0.152422
-0.551987
-0.635127
-0.023851
0.345070
-0.394936
-0.373837
0.278804
-0.282264
0.596279
0.531376
0.623391
-0.111630
-0.085655
0.547107
0.072921
0.083909
-0.213377
-0.419064
0.160524
0.038150
-0.246106
0.216631
0.325271
-0.290777
0.097358
0.010061
-0.374339
-0.309637
0.219846
0.383058
0.276129
-0.578052
-0.661442
-0.404288
0.083926
-0.321819
-0.107771
0.541094
0.824828
1.090318
0.881536
0.331081
0.918731
0.216751
0.239948
-0.010148
-0.084573
0.168597
0.341405
-0.061382
0.291948
0.326827
-0.341467
0.435647
-0.403541
-0.295978
-0.066018
0.451387
-0.411629
-0.014569
-0.393043
0.020849
-0.275588
-0.218859
-0.143398
0.029159
-0.128843
0.255529
0.043511
0.380712
0.559499
0.675314
-0.107425
-0.523150
-0.261901
-0.228066
-0.171795
-0.402267
-0.379622
-0.314209
0.057133
-0.036091
0.320934
0.152265
0.041281
0.281706
-0.152435
-0.207258
-0.088573
-0.168804
-0.251266
-0.390331
-0.369145
-0.047653
-0.398986
0.201203
-0.437312
0.057063
0.001500
-0.313404
-0.620932
0.319293
0.201175
0.027885
0.114942
-0.064295
-0.261239
0.221503
-0.569804
0.001183
-0.438308
-0.194210
0.410399
0.113646
-0.005370
0.461820
-0.023279
-0.201086
0.305926
0.441519
0.335795
0.083569
-0.123881
0.222279
0.476529
-0.080695
0.249783
-0.123482
-0.133072
0.391977
-0.048572
-0.325356
-0.170706
-0.249016
0.263597
0.109396
0.113676
-0.476379
-0.470942
-0.667409
-0.794032
0.057808
-0.300749
0.002142
0.041881
0.111088
0.006196
0.217276
0.381187
0.246736
0.289916
-0.074410
0.258050
-0.316641
0.020460
0.075643
-0.263496
-0.471565
-0.023880
0.448402
0.539506
0.426306
0.073066
0.135803
-0.605893
0.020805
0.591003
0.273114
0.173607
-0.281697
-0.762452
-0.408928
-0.058835
0.385978
0.669828
0.200043
0.439808
-0.320807
-0.397161
0.094928
0.368217
-0.124077
-0.197630
-0.240788
0.059589
-0.167311
-0.093923
-0.110310
-0.208405
0.377909
-0.028795
0.005222
-0.244829
-0.316157
0.534593
0.447614
0.179155
-0.199733
-0.344515
0.041322
-0.420011
-0.114362
0.144907
-0.604375
-0.140034
0.660557
0.461053
0.380706
-0.208275
0.027336
-0.162831
0.083513
-0.277072
0.426168
0.412692
0.226321
-0.061314
-0.431293
0.096463
0.316102
0.047200
-0.028470
-0.418479
0.105812
-0.287677
-0.274497
0.263696
0.184237
0.178304
0.255648
0.143862
-0.110430
-0.126900
-0.865111
0.003829
0.148574
-0.058441
0.022072
-0.089808
-0.520949
-0.194972
0.342874
-0.525215
0.174070
0.371897
-0.250733
0.357760
0.119996
0.324211
0.144854
-0.533895
0.081007
0.303904
0.385553
-0.168202
0.099414
-0.118629
-0.158378
-0.170278
-0.211923
0.297538
0.351575
0.298024
-0.603295
0.110212
0.094565
0.299315
-0.278761
0.098179
0.209616
-0.145459
-0.333860
-0.322869
-0.420876
0.002539
0.102025
0.447135
0.352495
0.466067
0.369322
-0.444004
-0.140867
-0.431239
-0.129966
-0.092831
-0.301547
0.099342
0.331231
0.332010
0.181088
-0.411123
0.050184
-0.509353
-0.127401
-0.041954
0.493279
0.017804
0.157386
-0.310401
-0.198668
-0.213852
0.152733
-0.276119
-0.065679
-0.177642
-0.021823
-0.157419
-0.114127
-0.299757
-0.428045
0.264769
-0.082662
0.080217
-0.291557
-0.312284
0.140631
-0.270679
0.146584
-0.392311
0.006732
-0.379505
0.442793
-0.051720
0.077937
-0.055123
-0.530589
0.543413
0.180812
-0.239640
0.447078
0.136861
0.451142
0.473299
0.059409
0.260963
0.246927
0.077511
-0.358946
0.073508
0.154831
0.175284
0.313380
0.442008
-0.473564
-0.258809
0.319336
-0.261964
-0.441618
0.473050
-0.342293
-0.302291
-0.438815
0.307556
-0.203236
0.375464
-0.508957
-0.481963
0.021025
-0.220847
-0.518948
0.208518
-0.309677
-0.140707
-0.037806
0.056175
0.135129
0.090815
-0.237553
-0.150288
0.246940
0.052150
-0.131155
-0.104448
-0.185284
-0.078210
-0.146202
0.400143
-0.185138
-0.234311
0.180466
-0.060078
-0.162417
0.499299
-0.108424
0.403354
-0.088806
-0.494148
0.031069
0.289487
0.081121
0.376929
-0.237227
0.146936
-0.171781
-0.260389
0.349230
-0.433896
-0.177840
-0.183349
0.212768
0.249640
-0.021914
-0.046535
0.346879
0.353360
-0.161915
-0.160522
0.321371
0.393910
-0.158012
-0.280756
-0.299721
-0.076854
-0.052450
-0.357616
-0.066403
-0.268904
-0.291276
0.200858
-0.354057
0.345970
0.499122
0.386153
0.376492
0.250325
0.290359
-0.498774
-0.231636
-0.040735
0.250144
-0.371296
-0.271243
0.455191
-0.026988
-0.447108
0.087154
-0.167895
0.317999
0.411406
0.429472
-0.102498
0.358398
-0.343116
0.211913
0.484843
0.426243
-0.109871
0.084752
-0.286888
0.119426
0.137914
0.199894
-0.494743
0.141293
0.489817
-0.153744
-0.336455
0.239459
0.482437
0.274817
0.005677
0.369899
-0.157986
0.041041
0.313243
-0.455558
0.040417
-0.244100
0.346267
-0.443758
0.399797
0.047128
-0.024911
-0.384850
-0.184630
0.241195
0.371389
-0.117935
0.135553
0.127647
-0.454216
-0.038047
0.327201
-0.240473
-0.391766
-0.067712
0.498839
-0.411578
-0.435042
0.315587
0.031476
-0.235994
0.426751
0.029248
0.370300
-0.278741
-0.314575
0.176935
0.160325
-0.341800
-0.038595
-0.245200
0.181514
0.291878
-0.025626
0.137312
0.023170
0.003131
-0.387759
0.206204
-0.014296
0.401863
-0.186103
0.109233
-0.371400
0.248734
0.032487
0.471593
-0.388147
0.120978
0.124158
-0.157001
0.275201
0.364585
0.009396
-0.075501
-0.212560
0.469304
0.156662
0.473374
-0.423760
-0.037291
-0.231962
-0.119981
0.447538
-0.126341
-0.342238
-0.409029
-0.294825
0.091324
-0.007637
0.305194
-0.193314
-0.198336
0.434420
-0.476896
0.096497
-0.092015
0.275466
-0.471507
0.348499
-0.517428
-0.149761
-0.177460
0.213325
-0.050442
0.311526
-0.290229
-0.250597
-0.303991
0.053873
0.323117
-0.292203
0.128595
0.272222
0.483643
-0.495308
-0.009548
0.049202
0.408655
-0.221335
-0.161827
0.223535
0.071020
0.348061
-0.405346
-0.373857
-0.233227
-0.480112
0.100386
0.160744
0.046958
-0.455606
-0.430850
0.440992
-0.234566
-0.248149
-0.944306
-0.167141
-0.468498
-0.424998
-0.285633
0.436102
-0.402666
-0.226844
-0.370730
0.102703
0.464401
0.489306
-0.220848
-0.115933
-0.107539
-0.361823
0.106747
-0.254252
-0.387847
-0.114092
-0.397070
0.140992
0.355783
-0.320116
0.130998
0.164671
-0.262464
0.657553
0.976544
0.366879
0.397216
0.634204
0.345047
0.548222
-0.053503
0.433292
0.289436
-0.424119
0.426735
0.100010
-0.192374
0.067669
-0.333368
-0.056907
0.314974
-0.042404
0.429343
0.232266
0.322833
0.378379
-0.351982
-0.064775
0.337492
-0.200830
0.408083
-0.022460
-0.152925
0.265944
0.998509
0.975451
1.790982
1.694689
1.656418
0.354355
0.856083
-0.068766
0.114491
-0.059406
0.144620
-0.209090
0.133615
0.394981
0.274479
-0.085584
0.032623
-0.228317
0.431330
0.145341
0.319730
-0.465498
0.193452
-0.464869
0.094130
-0.100912
0.352056
0.056548
0.381986
-0.039813
-0.320482
0.746570
0.918990
0.582951
0.751154
0.074158
0.446572
0.454703
-0.264025
-0.458292
0.089372
0.304387
-0.093024
0.299745
-0.052179
-0.021865
-0.399636
0.031148
0.239982
-0.125089
-0.339325
-0.251416
0.421559
-0.449383
0.386912
0.014199
0.202694
-0.121505
-0.122749
0.358506
0.318225
0.340429
0.048886
0.370834
0.675808
0.721006
0.420127
0.066886
0.267820
0.576418
0.627960
0.230399
0.101664
-0.303042
-0.188945
-0.472874
-0.258296
-0.108949
0.325885
-0.137658
-0.106743
0.130226
-0.291682
-0.170540
-0.111994
-0.268097
0.488145
0.202320
0.225619
-0.149416
-0.508411
0.210654
-0.322483
0.508678
-0.020773
0.403733
0.112332
0.161734
-0.237352
0.251748
-0.220552
-0.572781
-0.371854
0.624313
0.378365
0.275670
-0.476148
0.133669
-0.491973
0.359141
0.105846
-0.270080
0.322330
0.132137
0.140373
-0.407163
-0.323717
0.241286
0.366364
-0.416300
0.370140
-0.269748
0.278759
0.004396
-0.546311
0.136403
-0.549387
-0.118217
-0.445726
-0.050564
-0.391871
-0.725366
-0.567338
-0.714932
0.193614
-0.002164
0.077406
-0.546779
-0.101044
-0.254723
0.433495
0.426004
-0.419005
0.483282
-0.441593
0.394389
0.208640
-0.388529
0.077019
-0.067971
-0.027977
-0.091866
-0.220558
-0.346397
-0.069260
0.312050
-0.475974
0.000071
0.206465
-0.213018
0.263896
0.740655
0.371291
-0.439246
-0.308016
-0.225972
0.296098
-0.399267
0.001307
0.111530
-0.256879
-0.348709
-0.088422
-0.265692
-0.359873
-0.124693
-0.079498
-0.137232
0.457461
-0.157290
0.064633
-0.282397
0.156870
-0.190701
-0.153441
0.228926
0.189932
-0.074060
-0.114610
-0.479290
-0.288772
-0.126469
0.476031
0.539129
-0.434018
-0.533317
-0.502086
-0.720031
0.297226
0.459609
0.627140
0.360318
0.407429
0.060316
0.133515
0.085333
0.440800
0.268762
0.471564
-0.114459
0.140239
0.039494
-0.165670
0.166649
-0.353713
-0.446811
-0.379050
0.443745
-0.440970
0.368810
0.428121
-0.209632
0.128473
0.120311
0.476418
0.040927
-0.450267
0.328062
-0.091829
0.110506
0.424818
-0.079465
-0.028410
0.032931
0.291383
-0.347439
-0.210243
-0.428795
-0.089240
-0.096106
-0.241142
-0.286846
-0.203495
-0.209872
-0.266919
-0.304750
0.278146
-0.341423
0.256535
-0.266560
-0.168674
0.027420
0.433199
0.215513
0.083093
-0.100303
-0.088864
-0.150276
-0.031804
-0.067144
-0.864102
-0.397303
-0.113429
-0.227801
0.357001
0.642309
0.271544
0.117015
-0.257863
0.271009
0.462169
-0.488800
-0.129101
-0.319751
-0.314082
0.023812
0.168856
0.036679
0.260359
-0.487654
0.091260
-0.225979
0.316765
-0.349556
0.072959
0.560456
0.614967
0.399644
0.287738
0.248263
-0.700575
-0.121554
-0.304100
-0.252614
-0.739683
-0.071113
-0.559435
0.093235
0.188575
0.668457
0.170488
0.406936
-0.057502
-0.189079
0.329485
-0.080034
-0.484659
0.336483
0.350243
-0.190179
-0.397417
-0.425058
-0.449089
-0.148730
0.216323
-0.262534
-0.222302
0.349416
-0.386042
0.215226
0.004568
-0.345182
-0.836911
-1.126249
-1.268312
-0.914563
-0.348564
-0.687118
-0.754088
0.075735
0.057648
-0.231876
-0.337557
-0.210558
0.381442
-0.451836
-0.331825
-0.016065
-0.260397
-0.121578
-0.448890
0.330236
0.393292
-0.510358
0.438243
0.193649
0.141937
0.267813
0.012234
0.015956
-0.229135
0.016340
-0.150809
0.433222
-0.413230
-0.347375
-0.145738
-0.527931
-0.960734
-0.699319
-0.621526
-0.125751
0.363721
0.306735
0.321178
-0.112699
-0.238707
-0.159640
-0.404196
0.493780
-0.192587
0.093595
0.168008
0.089719
-0.489902
0.419596
-0.163230
0.152510
0.453984
0.320727
0.189184
0.301830
0.316515
0.009094
0.563255
0.023426
0.339729
0.292468
0.148028
-0.133414
-0.958773
-0.815373
-0.401241
0.052609
-0.113516
0.152344
0.180887
0.082495
0.115506
-0.003155
0.296965
-0.084965
-0.179749
0.403636
0.217103
0.182531
0.312945
-0.205808
-0.325574
0.223996
-0.378047
0.015194
0.488648
0.020764
-0.224990
0.239296
0.685469
0.218522
-0.010240
-0.010664
-0.057434
-0.134823
0.321811
-0.277457
0.186166
0.473797
-0.100178
-0.062811
0.229880
-0.444361
0.187903
-0.005107
-0.459010
-0.212619
-0.419865
-0.341744
-0.361988
0.412515
0.285057
0.029824
-0.260762
-0.415453
0.558481
0.545740
0.472593
0.262216
0.268243
0.379060
-0.036569
0.132107
0.061194
0.252623
0.363451
0.831124
-0.034609
0.361037
-0.201516
0.391467
0.345465
-0.201186
0.044087
0.268677
-0.409063
0.038193
-0.103961
-0.397938
-0.211067
-0.239127
-0.358319
-0.249503
0.403918
0.255901
0.171420
0.153320
-0.295369
-0.476407
0.108634
0.154849
-0.280382
-0.552774
0.119819
0.750600
0.172187
0.234661
0.610808
-0.000689
-0.148519
0.336647
0.228972
-0.064066
-0.263153
-0.217990
0.178812
-0.190788
-0.100891
-0.353675
0.179033
-0.135335
-0.457532
-0.002015
0.359072
-0.322726
-0.215261
-0.255352
-0.149567
0.205762
-0.134055
0.152379
0.259885
-0.102603
-0.328365
-0.480634
-0.231333
-0.426521
-0.267484
-0.401315
0.096311
0.585654
0.195985
-0.202630
-0.243335
0.069166
0.151330
-0.268651
-0.096478
-0.127945
-0.518114
-0.159778
-0.010322
0.399127
-0.075467
-0.213278
0.487804
-0.229269
0.440219
0.155182
0.008015
0.327390
0.019873
-0.240847
0.002921
-0.639387
-0.610645
0.434932
0.302437
-0.097916
0.362059
0.341440
0.430563
0.582344
-0.290622
0.518191
0.048235
-0.540776
-0.269531
-0.438865
0.153709
-0.438872
0.167130
0.125774
-0.321756
0.449096
-0.422752
0.272109
-0.224963
-0.106985
0.056208
-0.399921
0.402458
-0.467945
-0.591016
-0.575238
-0.122147
-0.000565
-0.592527
-0.185309
-0.119348
0.513382
0.509208
0.099128
0.565926
0.200326
0.205395
-0.510711
-0.620036
-0.623311
-0.164832
0.052543
0.174516
-0.234906
-0.312279
0.489601
-0.296068
0.294996
0.391028
0.307586
0.380625
-0.135007
-0.231647
0.103144
0.150744
-0.264410
-0.380471
-0.120999
-0.602202
-0.769716
-0.123926
-0.842711
-0.002625
-0.353126
0.380431
0.384411
0.384145
0.281641
-1.074739
-0.453122
-0.700222
-0.160156
-0.408087
0.419149
0.380238
0.409800
0.245708
0.329108
-0.122803
0.037381
-0.079997
-0.466638
-0.322787
0.423580
-0.278671
0.250932
0.009697
-0.251065
0.273201
-0.337625
-0.803643
-0.764791
-0.663170
-0.308983
0.201142
0.279028
0.073637
0.598923
-0.093020
-0.141868
-0.934354
0.185707
0.085935
-0.153111
-0.013802
0.483928
-0.048817
-0.241591
0.069156
-0.275648
-0.439492
0.263208
-0.322379
0.496482
-0.261337
-0.417334
0.421730
0.348253
-0.194988
-0.422924
0.215662
-0.054236
-0.510443
-0.594725
-0.211286
-0.094150
0.409945
0.477726
-0.270979
0.038472
0.120592
0.279805
0.679005
0.433151
0.481744
-0.021671
-0.346089
-0.242128
-0.368495
0.121653
-0.050730
0.081125
0.233827
-0.300713
-0.051770
-0.304430
-0.060238
-0.428770
-0.171836
0.433587
-0.396125
-0.233140
0.162402
0.165196
-0.090664
0.300905
-0.494172
-0.698073
-0.389349
-0.573706
-0.882573
-0.398255
-0.447134
0.382013
0.489817
0.559283
-0.037810
-0.340278
-0.274735
0.498630
-0.004601
0.147552
-0.306333
0.443962
0.153979
0.250038
0.310178
-0.490331
0.472139
-0.433309
0.434875
-0.318874
-0.094286
0.199217
-0.281794
-0.106593
0.361672
-0.378418
-0.414477
-0.373697
0.284471
0.174335
-0.047859
-0.106634
0.375517
0.023802
0.335495
-0.425558
0.452528
0.084350
0.093089
-0.452911
0.069992
0.064630
0.285336
-0.494146
0.097271
0.475942
-0.003024
-0.257560
-0.316891
0.341022
-0.122139
0.452502
-0.080074
0.126939
0.232343
-0.183970
-0.064838
0.026956
-0.374932
-0.200265
-0.364088
0.174097
0.324156
-0.247597
0.071740
-0.034426
0.299456
-0.125349
0.124186
0.213104
-0.045278
-0.046947
-0.183349
0.378124
-0.386512
0.394103
0.226668
-0.113827
0.281851
0.472239
-0.345378
0.218959
-0.254338
0.015371
0.098865
0.381971
0.290991
0.075263
-0.495404
0.454516
0.359057
-0.045341
0.440492
-0.327031
-0.295504
0.481584
-0.215917
-0.450522
-0.487436
-0.408219
0.242960
-0.298166
-0.205037
0.271584
-0.432660
-0.360338
-0.148589
-0.209926
0.444260
-0.386894
-0.462430
0.338157
0.172124
-0.219826
0.221213
-0.131920
-0.187685
0.342122
0.115872
-0.470328
-0.307565
-0.277785
0.273787
0.373923
-0.176010
-0.349458
-0.034621
0.298464
0.191543
0.208033
-0.363590
-0.021181
-0.002962
0.294929
0.153142
-0.397054
-0.295442
-0.493936
0.268612
-0.388709
-0.405967
0.353688
0.096982
-0.337361
0.195140
-0.329804
-0.134092
-0.112514
-0.205585
0.023189
0.091404
-0.134961
-0.002095
0.361491
0.142017
-0.088802
0.412723
-0.297232
-0.193792
-0.116486
0.031940
0.219564
0.328237
0.326169
-0.147536
-0.261714
0.188948
0.024663
0.087321
-0.079416
-0.423701
0.289435
-0.388124
-0.014327
-0.350050
0.324868
0.482268
-0.054022
-0.032699
-0.472478
0.185858
0.094008
-0.113915
-0.122486
-0.223100
0.472390
-0.284704
0.186476
-0.161911
0.191165
-0.238568
-0.174672
0.272005
0.279657
0.167538
-0.057694
0.314957
0.069965
0.009698
-0.448875
0.496315
-0.445378
0.443949
-0.029829
-0.052010
-0.102171
0.342245
-0.314899
0.284043
-0.012785
-0.011955
0.273224
0.137943
0.344891
-0.160103
-0.467407
0.163301
-0.156567
-0.337619
0.155089
0.321408
0.384982
0.405035
0.228800
-0.138442
-0.012059
0.458236
-0.019531
-0.497018
-0.405887
-0.247187
0.154761
0.382930
0.434114
-0.351650
0.177859
0.051151
0.063407
-0.052774
0.190857
0.099535
0.222736
0.061949
0.468661
0.145300
-0.010773
-0.201736
-0.168714
0.418748
0.014410
-0.032404
-0.295550
-0.105585
-0.175294
-0.267311
0.045303
-0.397349
0.016389
-0.579872
0.183148
-0.387842
-0.106111
-0.362448
-0.189644
-0.306045
-0.053569
0.413168
0.465608
-0.059688
0.260660
0.184718
-0.236327
-0.253353
-0.277781
0.433272
-0.267431
-0.257564
-0.000002
-0.081953
-0.090693
-0.342770
-0.151183
-0.433202
0.128834
0.362409
0.050815
-0.348059
-0.188131
-0.134147
0.004701
-0.600842
-0.175503
-0.633074
-0.039109
-0.121975
0.156824
0.453616
-0.364958
-0.244817
0.106435
-0.029089
-0.485034
-0.355019
0.015263
0.068533
0.200948
-0.443402
-0.445603
0.283748
0.072998
-0.498983
-0.186789
0.017898
-0.009536
0.368859
0.132412
0.098031
-0.258322
-0.334320
-0.552355
-0.601627
0.088551
-0.414579
0.165398
0.563780
-0.109928
-0.195016
-0.360497
0.326512
0.248030
0.231458
0.283850
-0.444761
0.312448
-0.448270
0.242122
-0.385318
0.442490
0.482374
0.110387
0.037724
0.260710
0.408546
0.328222
-0.370954
-0.353178
-0.532751
0.088946
-0.329905
0.108605
0.068891
0.068445
-0.523176
0.052669
0.501398
0.368835
-0.025166
0.078723
0.383190
0.041883
0.617949
-0.222865
-0.285972
-0.249494
-0.411736
0.241304
0.045732
0.073438
0.350439
-0.244433
-0.192198
0.114366
-0.086778
0.044120
0.087953
-0.087049
0.121930
-0.038751
0.292036
-0.204997
0.292769
-0.283966
-0.640654
0.209036
0.008948
-0.015739
-0.401322
0.412953
0.348797
0.056423
0.164694
-0.085958
-0.016783
-0.423650
-0.240182
0.432993
0.195484
-0.077620
-0.152242
-0.113821
0.449064
-0.492590
-0.277600
-0.010952
0.167427
-0.457062
0.219321
-0.439964
0.224262
-0.624689
-0.596717
0.357455
0.532253
0.422560
0.377367
0.018039
0.102506
0.011116
0.359455
0.012485
-0.162098
-0.327763
0.305563
-0.322742
0.030508
0.116963
-0.003879
0.317360
-0.375927
-0.331979
-0.258829
-0.472503
-0.482838
-0.111247
0.321360
0.180089
-0.134664
-0.182487
0.446320
-0.535167
-0.018604
0.196512
-0.434388
0.149362
0.448846
0.735599
0.201208
0.313236
0.264517
0.004730
-0.285413
0.016608
0.120330
-0.472642
0.136531
-0.391677
-0.216005
-0.572941
-0.003597
0.041068
-0.062836
0.376561
0.294677
-0.314379
0.103295
0.078394
0.125335
-0.252069
0.406680
0.098529
-0.310289
0.122058
0.306266
-0.070150
0.175591
0.515761
0.234167
0.329902
0.272113
-0.653434
0.001073
-0.282283
-1.019701
-0.197055
-0.916314
-0.664326
-0.070970
0.006362
0.283065
-0.288206
0.219096
-0.072030
0.060714
0.224061
-0.464541
-0.135181
0.383214
0.063125
0.210394
-0.315093
-0.108705
-0.305846
0.041544
-0.037837
-0.423523
0.245434
0.095731
-0.074804
0.595374
0.094489
0.342735
-0.207262
-0.113329
-0.535833
-0.164901
-0.780227
-0.306213
0.053046
-0.226095
0.165420
-0.509703
0.370612
0.317608
-0.175473
-0.418999
0.211002
0.062261
0.260510
-0.484120
0.417699
-0.465894
0.155157
-0.012826
-0.016594
-0.030346
-0.425280
-0.332929
0.436256
0.379760
0.395436
0.448765
0.525080
0.700585
0.410815
0.349206
-0.131790
-0.321195
-0.720455
-0.488652
-0.078851
0.164217
0.178069
-0.293510
0.167151
0.126151
0.191993
-0.352823
-0.096018
-0.105138
-0.452926
0.118085
-0.181139
-0.253736
0.038645
0.402575
0.379240
0.360176
-0.146656
-0.005527
0.166154
-0.170282
0.113314
0.260181
0.477457
0.522172
0.517274
0.317325
-0.176299
0.161026
0.230811
-0.051417
-0.237199
-0.289382
-0.227682
-0.212853
0.006688
0.270022
-0.137127
-0.458221
0.411451
-0.036421
-0.257687
-0.082359
0.191438
-0.497491
0.207776
-0.034137
-0.237466
0.001559
0.070920
-0.390615
0.010359
0.148264
-0.476053
-0.026025
0.651364
0.207193
0.379353
0.662108
-0.193530
-0.332099
-0.176611
0.593940
-0.215282
-0.207252
-0.472058
0.124962
-0.257573
0.168543
-0.528063
-0.019438
0.288837
0.271648
-0.348203
0.151670
0.155352
-0.493866
0.471522
0.504123
0.304766
-0.207564
0.166566
0.339577
-0.318703
-0.546674
-0.201727
-0.310723
0.422315
-0.401722
-0.160481
-0.296093
0.264698
0.350524
-0.447340
-0.203386
-0.455932
0.011777
-0.429736
0.213405
-0.243943
-0.358784
0.359379
-0.092146
-0.106380
-0.294975
-0.005819
0.331908
0.180696
0.172652
-0.368186
-0.109696
0.057085
-0.113265
0.253195
-0.333582
0.009144
-0.645736
0.041816
-0.156566
-0.471220
-0.436943
-0.457336
0.312889
-0.367970
-0.017730
0.124439
-0.757191
0.004346
-0.067021
-0.493719
0.266167
-0.295559
0.016895
-0.358441
-0.484015
-0.238279
-0.215462
0.159244
0.443440
-0.163901
0.008388
-0.020327
-0.272253
-0.173433
0.358150
-0.199078
0.002005
-0.237276
0.134008
0.228000
0.302558
0.248437
0.052191
-0.432714
-0.162022
-0.434402
-0.423703
0.285007
0.076305
-0.489116
-0.668192
0.111311
-0.600923
-0.197670
0.021593
-0.396948
-0.272148
0.027119
0.223191
-0.346110
0.271869
-0.476559
0.280985
0.148025
0.439527
0.042752
0.249850
-0.239893
-0.334702
0.063694
0.069277
0.128072
-0.454160
-0.147504
-0.012450
-0.646585
-0.370475
-0.088583
0.161492
0.387098
-0.227047
0.114325
0.189164
-0.082455
-0.553998
0.079169
-0.019946
0.271675
0.229018
0.254885
-0.480485
0.205526
0.100057
0.100488
-0.455461
0.270333
0.482802
0.160676
-0.526245
-0.381879
-0.282269
-0.370819
0.223379
0.004064
0.028062
-0.272754
-0.342597
-0.133825
0.631713
0.403569
0.122662
0.055566
-0.232165
0.028460
-0.738131
-0.463429
0.072298
0.224142
-0.012829
-0.053575
-0.419454
-0.474919
-0.136447
0.431892
0.134321
0.010984
0.156311
-0.164031
-0.039806
0.254277
0.312823
0.445288
-0.304056
-0.140448
-0.039993
0.289726
-0.542725
-0.619467
-0.161004
0.670347
0.594313
0.740120
0.564809
-0.101245
-0.826544
-0.126859
-0.020586
0.097714
-0.272433
0.430970
0.224739
0.312326
-0.351053
-0.246501
-0.240555
0.299545
0.092241
0.310058
-0.217030
0.053837
0.226282
-0.430204
-0.359284
-0.428333
-0.250425
0.110816
-0.034912
-0.375008
-0.614137
-0.119297
0.223312
0.080279
0.430116
1.027319
0.708304
-0.327528
-0.245812
-0.479257
-0.121220
-0.118372
0.355566
-0.319529
-0.521057
-0.469992
0.427471
0.136177
0.312190
0.306371
0.307570
0.125464
0.323979
-0.108512
-0.314362
-0.422414
0.148464
-0.197513
-0.199290
0.352551
-0.149845
0.221313
-0.283442
-0.409102
-0.431147
0.495662
-0.031786
-0.334196
0.033710
-0.216711
-0.584163
-0.108401
-0.280266
0.204722
0.315075
0.415020
-0.229698
-0.294861
0.125013
0.341340
0.025296
-0.115569
-0.437251
-0.198040
-0.251719
-0.431362
-0.103314
0.055647
0.194986
-0.063602
0.629992
0.457991
0.198774
0.528023
0.569774
-0.198753
-0.373832
-0.326501
-0.038083
0.139442
0.417096
0.021126
0.123015
-0.113543
-0.155933
-0.402443
-0.269379
-0.277883
-0.088403
0.452648
0.464370
0.369887
-0.386362
-0.157565
-0.316250
-0.391052
-0.480911
-0.213266
0.249235
-0.118620
0.181214
-0.146972
0.032061
0.254530
0.362408
0.020015
0.393245
0.509261
-0.320674
-0.937422
0.091427
-0.463768
-0.169843
-0.209552
0.348930
0.105112
0.205115
-0.524651
-0.410778
0.314147
0.066637
-0.356579
0.249609
-0.315108
-0.183794
-0.167868
0.395688
-0.347905
-0.240053
-0.482764
-0.182081
0.212214
0.054721
0.372443
-0.259961
-0.015416
-0.231634
0.134281
0.461134
0.219301
0.286933
-0.148905
-0.134995
0.296235
0.218157
0.425612
0.512922
-0.177971
0.118139
-0.241064
0.239600
-0.427983
-0.096053
0.356638
-0.397308
-0.238731
0.224073
-0.456102
-0.451860
-0.133835
-0.258298
-0.207099
-0.013555
-0.324599
-0.346012
-0.153245
-0.255850
0.421658
-0.244656
-0.165244
-0.051991
-0.637542
-0.398072
-0.628871
-0.527348
-0.349998
-0.126491
0.394428
-0.098720
-0.345009
0.214127
-0.288724
0.227261
-0.152773
0.153042
-0.428344
0.262514
-0.182901
-0.249207
0.482605
-0.407754
-0.003038
0.095315
-0.461680
-0.227004
0.443276
-0.012972
0.261329
-0.175110
-0.286821
-0.366227
0.014145
0.285471
-0.114755
-0.482411
-0.614595
0.149675
-0.382719
-0.092223
0.347520
-0.407449
0.360511
0.405848
0.431012
0.339450
0.375119
0.269594
0.153123
-0.435308
-0.175030
-0.295309
-0.412022
0.090646
-0.285902
0.274929
-0.193970
0.201301
-0.216651
-0.392841
-0.449395
-0.373381
-0.401568
-0.018132
-0.040394
0.145394
-0.411099
-0.117323
-0.386784
-0.002509
-0.358915
0.034946
0.052403
0.086407
-0.084928
-0.443659
0.192520
-0.030133
0.265963
0.405457
-0.474014
0.299803
0.223829
0.230563
-0.300060
-0.358171
0.217722
0.241075
-0.237760
0.082628
0.346874
-0.036141
-0.402543
-0.494038
-0.100903
0.068020
0.469514
-0.118253
0.343955
0.161691
0.242695
0.085068
0.018853
-0.193263
0.398946
0.420491
-0.291684
0.183368
-0.148843
-0.336940
-0.045652
0.067016
0.000219
-0.206517
0.407605
-0.144648
-0.061433
0.138033
-0.172657
-0.401286
-0.332316
-0.029700
0.161754
-0.233071
-0.394875
0.489907
0.064088
0.421796
-0.248187
0.194432
-0.299855
0.459695
-0.279809
0.478565
-0.360088
-0.380155
0.232217
0.230339
0.049971
-0.009876
-0.431616
0.359979
0.131473
-0.252150
-0.453754
0.292186
-0.067315
-0.166086
-0.015024
-0.356928
-0.466529
0.339511
-0.321832
-0.085595
-0.437348
0.348259
-0.338060
0.398152
0.439237
-0.472108
0.390989
-0.436854
0.340492
0.406715
-0.417775
0.417767
-0.279281
-0.057313
-0.496364
0.085753
0.189069
-0.489423
0.386877
-0.140895
-0.234046
0.154311
-0.280385
-0.125738
0.340533
-0.445464
0.093657
0.197501
0.345604
0.066750
0.328795
0.025742
-0.196347
-0.025377
-0.038911
0.444519
0.315565
0.093159
-0.420371
-0.042596
-0.424138
0.006947
0.106555
0.477496
-0.112946
-0.126237
-0.325757
-0.499772
-0.099725
-0.346168
0.128469
0.480408
-0.192747
0.062234
0.124200
-0.155376
0.288168
0.262871
0.267159
-0.441069
0.115796
-0.006462
-0.192902
0.176052
0.189960
0.482545
0.110809
0.217351
-0.355083
-0.229420
-0.061841
-0.251958
0.151024
-0.348977
-0.111915
-0.239686
0.477319
-0.183964
-0.236472
0.371939
-0.105314
-0.118617
0.092717
-0.299468
-0.357122
0.166106
0.325357
0.365930
0.485019
0.076734
-0.496094
-0.268088
-0.105639
0.143663
-0.405729
-0.119673
0.113960
-0.034236
-0.115906
-0.391692
-0.329916
-0.353280
-0.133868
-0.217108
-0.208069
0.130749
0.092825
0.162191
0.352448
-0.378143
0.154507
-0.054324
0.164255
-0.271700
0.243390
-0.439278
-0.038310
0.408624
-0.437390
0.129617
-0.308648
-0.358229
0.193142
-0.171351
0.177010
0.217864
-0.470567
0.050740
0.448999
-0.077106
-0.399518
-0.382560
0.116225
0.137473
0.118654
-0.024661
-0.191365
-0.066235
0.225326
-0.178131
0.310532
-0.238883
-0.035681
-0.646921
-0.470898
-0.073849
0.319388
-0.062609
0.297573
-0.169506
-0.165859
-0.007968
0.326226
-0.120233
-0.117667
-0.282078
-0.163030
0.406659
0.455076
-0.335689
0.370891
0.318527
-0.458834
0.342288
-0.469640
0.156203
0.105325
-0.156553
-0.383894
0.089539
0.123513
-0.149389
0.737772
0.438401
0.447272
0.071590
0.402888
0.341151
0.216489
-0.401526
0.293918
0.115130
-0.033697
-0.310815
-0.207716
0.093285
-0.143438
-0.334071
0.027568
-0.209435
0.019479
0.297919
0.377675
-0.155304
-0.468257
-0.186234
0.087853
0.300923
0.206203
0.124429
0.163623
-0.342328
0.437844
0.169185
0.584128
0.177769
0.601331
0.710805
0.317437
0.214252
0.782471
-0.132541
-0.081157
-0.386740
-0.050447
-0.359895
-0.451104
-0.352609
-0.431448
-0.125203
0.024502
0.063286
-0.176872
0.051881
-0.413337
-0.083859
0.348196
-0.231564
0.495972
0.027034
0.304680
0.066357
-0.205888
-0.165397
-0.135831
0.013918
0.299586
0.034782
0.413947
-0.645713
-0.096404
-0.009377
-0.686866
-0.166171
0.177606
0.156795
-0.404012
0.022476
-0.386860
0.054891
-0.117600
-0.304402
-0.386984
-0.420755
0.349112
0.093501
0.418087
0.201027
-0.326010
0.389610
0.571957
0.165156
-0.063349
-0.530046
-0.500148
0.191772
0.380570
-0.272330
-0.117879
0.733046
0.555431
0.456159
0.427501
-0.190900
-0.528495
-0.244554
-0.058847
0.386679
0.192287
-0.187761
-0.072235
0.248671
0.107363
0.096609
-0.228668
0.142765
-0.353301
0.407851
0.144014
0.096250
-0.176129
0.365018
0.408797
0.208954
-0.117183
-0.445742
0.183591
-0.167828
0.161392
-0.165674
0.345782
-0.277166
0.437507
0.466263
0.078892
-0.280006
0.004396
0.118254
0.059649
0.489504
-0.495778
0.078013
-0.266403
-0.276233
0.249191
0.357003
-0.322355
0.326652
0.067610
-0.016775
-0.370013
0.082485
0.109472
0.465532
-0.247266
-0.166257
0.260983
-0.355154
-0.457082
-0.584721
0.006741
-0.298271
0.109142
-0.541221
-0.003232
-0.311224
0.258818
0.920981
-0.008577
0.381940
0.120303
0.093754
0.228518
0.074846
0.348601
0.166326
-0.237790
-0.309268
0.213652
-0.397246
0.198829
-0.176396
0.425626
-0.274668
0.236587
0.103341
0.419266
-0.394197
0.284181
0.061956
0.099578
-0.247782
-0.987269
-0.197251
-0.898122
-0.118775
-0.240751
0.265503
0.865693
0.605036
0.070868
-0.245397
0.266878
0.450123
-0.444805
0.269628
-0.106476
0.463676
-0.178537
-0.190804
-0.061530
0.366159
-0.402072
-0.419369
-0.280756
0.384818
0.622133
0.010549
-0.057871
0.360234
-0.497419
-0.058480
-0.082072
0.088658
-0.251577
-0.132048
-0.044229
0.009150
0.583509
-0.133870
0.193819
0.809873
0.365673
-0.190587
0.398678
0.511122
0.174838
0.020857
-0.284775
0.033949
0.466399
0.457213
0.412565
-0.322801
0.386652
-0.246378
0.346625
-0.360461
0.228720
0.026228
-0.148963
-0.460361
0.039858
-0.251921
0.359360
0.154420
0.197994
-0.309061
0.220296
0.384766
0.160591
0.203940
0.473814
0.136904
0.450069
0.126738
0.711021
-0.242289
-0.021997
0.494789
0.297064
0.368230
0.270603
0.442040
-0.459467
-0.273719
0.418382
0.488138
-0.109782
0.500630
0.300400
0.658586
-0.109174
0.151543
-0.187421
0.346448
0.412033
0.938948
0.796974
-0.036621
0.451971
-0.291305
-0.027763
-0.089698
-0.504415
-0.270800
-0.112372
0.174335
-0.086629
0.193246
0.435339
0.420712
0.415942
0.199671
-0.049752
0.364219
0.370015
0.192391
-0.206642
-0.345063
-0.030392
-0.422275
-0.274533
0.140684
-0.168447
0.137607
-0.250295
-0.021103
0.006234
-0.344156
0.129980
0.112469
-0.665585
-0.491943
-0.595730
-0.548056
-0.717645
-0.730302
-0.133916
0.281225
0.458667
0.063080
0.594969
-0.178121
0.085400
0.060200
0.476040
-0.277010
-0.056663
-0.317579
-0.222464
0.125231
-0.396731
0.015586
-0.176080
-0.285240
-0.024548
-0.487265
0.072672
-0.408871
-0.233517
-0.357058
-0.237673
-0.191767
-0.725598
-0.487190
-0.833673
-0.678455
-1.027300
-0.343174
-0.758894
-0.682801
0.065676
-0.104777
0.434595
0.330237
-0.018398
0.443812
0.056359
-0.344875
0.447855
0.092962
0.486814
-0.245556
-0.048243
0.105637
-0.124990
-0.350485
0.048230
-0.239616
-0.377443
-0.067784
-0.033025
0.083140
-0.234776
0.196410
0.169237
-0.252496
-0.756397
-0.270804
-0.638168
-0.173684
-0.661918
-0.743251
0.483402
-0.158634
-0.064086
0.228643
-0.192931
-0.337046
0.126104
0.315322
-0.332025
0.475710
0.206448
0.368121
-0.130900
-0.019534
-0.368038
0.149931
0.168563
0.159034
0.189102
0.168561
0.130909
0.268098
-0.068611
-0.495981
0.655537
-0.020833
0.321940
0.580553
-0.295649
-0.569258
-0.224362
-0.535521
-0.398522
0.007530
0.469366
-0.072348
0.365401
-0.488577
-0.051849
0.016734
-0.383049
-0.228150
0.167268
0.431034
0.157250
-0.279059
0.365506
0.630451
0.072930
-0.349704
-0.270166
0.086275
0.186341
-0.338920
0.463067
0.089734
0.025983
0.616981
0.295224
0.833267
0.468379
-0.070123
-0.154536
-0.302684
-0.062733
0.092414
0.065575
-0.248683
-0.230514
0.161091
0.424759
0.183970
0.073088
0.040055
-0.456847
-0.155987
0.193673
0.481745
0.387730
-0.190615
0.013765
0.201561
-0.083476
-0.100578
0.660439
0.191480
0.093277
0.377451
0.132344
-0.443675
-0.313286
0.234366
0.292125
-0.393424
-0.304632
-0.076619
0.080995
0.476150
0.034165
-0.309836
0.262967
0.414684
0.036655
0.038378
0.292167
-0.465648
-0.208980
-0.277806
-0.456987
0.121902
-0.268405
0.175467
0.470008
0.223288
0.053272
0.361468
0.220152
-0.364577
-0.494668
-0.030451
-0.214626
-0.474608
0.207949
0.246335
-0.313060
0.240978
-0.213365
-0.256685
-0.460564
0.558437
-0.015421
-0.388935
0.469823
0.230204
0.177873
0.055298
0.481953
-0.127914
-0.095469
0.122121
-0.205017
0.332580
0.276141
-0.206735
0.204404
0.455388
-0.141062
0.419532
0.196596
0.724691
0.391830
-0.388402
-0.469845
0.036991
0.035435
-0.037398
-0.205158
0.402541
-0.155828
0.550922
-0.061678
0.259099
0.311509
0.525279
0.267119
0.160549
0.076348
-0.433937
0.319858
0.339731
0.307586
-0.400586
0.499465
0.111875
0.511163
0.494431
0.107297
0.185707
0.035131
-0.026437
0.353265
0.496549
0.466991
-0.468049
-0.511086
-0.019196
0.177290
-0.449646
-0.303242
0.297861
-0.323126
0.107719
-0.339645
0.058941
0.000655
0.259040
0.259887
-0.446161
-0.044782
0.325573
-0.034458
0.313680
0.338678
0.013955
-0.495872
-0.455330
-0.359605
-0.309711
0.078264
0.108580
-0.318571
-0.020605
0.239231
0.516442
0.021049
0.310510
-0.127969
-0.310493
0.116298
-0.068262
0.300912
0.445354
0.192309
-0.213645
-0.129547
0.480978
0.413712
-0.351856
-0.413729
-0.182943
-0.274928
-0.326111
0.457389
0.172296
0.457984
0.305105
-0.429894
0.314148
0.022020
-0.275943
-0.063520
-0.372340
-0.030442
0.147204
-0.329342
-0.356143
-0.171070
0.333238
-0.353593
0.014140
0.049723
0.087843
-0.233666
0.146358
0.556000
-0.196684
0.025654
-0.276576
-0.433437
-0.132008
0.061759
-0.201611
0.237516
0.439450
-0.276455
-0.080876
0.059202
-0.096012
0.083312
0.019034
-0.365394
-0.253004
-0.259648
0.268142
0.241000
0.220588
-0.315232
0.583136
0.443009
0.542666
0.052513
0.140841
-0.541267
-0.216785
-0.118338
0.512807
0.446787
0.453472
0.570914
-0.022115
0.276106
-0.260283
0.108253
0.286818
-0.128641
-0.201479
0.236213
0.209418
-0.263944
0.040188
0.472185
-0.023868
0.284279
0.265509
-0.427983
0.413828
-0.227392
-0.454301
-0.329324
0.112992
0.363665
-0.456919
-0.378464
0.046187
-0.258518
-0.005185
0.347808
0.469200
-0.181329
0.280065
-0.240524
0.027639
-0.074900
-0.394717
0.433127
0.393078
-0.245590
-0.082642
-0.279170
-0.278152
0.196043
-0.441736
-0.483922
0.432576
-0.368892
0.274518
-0.196945
-0.334681
0.453510
0.186851
0.263648
0.221982
0.153220
0.320981
0.340229
0.046612
-0.318791
0.020994
0.018218
-0.359315
-0.311051
-0.191816
-0.051012
-0.251165
0.214334
-0.332174
0.001858
0.037324
-0.456419
0.268886
0.348493
-0.150547
0.069996
0.182546
0.090249
0.275078
-0.480484
-0.191850
0.038958
0.249620
-0.468601
-0.483234
-0.378910
-0.172267
0.235137
-0.316237
0.454935
0.355354
-0.304824
-0.418676
-0.138132
-0.110955
-0.203271
-0.061590
-0.249726
-0.488897
-0.344559
-0.116927
0.159264
0.093068
0.125130
-0.287032
0.228203
0.335490
-0.447351
-0.138187
-0.337663
-0.251453
0.108477
-0.024960
-0.079652
-0.150739
-0.367620
-0.103839
-0.317913
-0.413938
0.380290
0.109820
0.195358
0.448548
0.365450
0.441238
-0.084163
-0.066441
-0.185214
-0.056717
-0.365556
-0.155036
0.013747
-0.275543
-0.338844
-0.464989
0.183767
0.490696
-0.160538
0.173880
-0.207622
0.335143
0.157696
0.229122
-0.034750
0.226348
-0.068098
0.077823
0.403422
-0.499639
-0.366481
-0.230251
0.271856
-0.229694
-0.043255
-0.262155
-0.225608
0.415796
0.225149
-0.295323
-0.051425
-0.273180
-0.147422
-0.173024
0.305910
0.214209
-0.319346
-0.476855
-0.151787
0.091484
0.390259
-0.445669
-0.382128
-0.391330
0.005112
-0.126967
0.285082
-0.050429
0.096393
-0.363593
0.422990
-0.271719
-0.448932
0.171399
-0.116123
0.406581
-0.458947
0.218638
0.092949
0.250109
-0.104666
0.439186
-0.281762
0.459078
0.040354
0.142001
-0.410034
0.251839
-0.272043
-0.137754
-0.350576
0.272460
-0.458493
0.410967
0.062672
-0.156214
-0.203266
-0.331241
-0.351704
-0.085556
-0.079458
0.393807
-0.172955
0.056736
0.484737
-0.431805
-0.149258
-0.096146
0.291681
0.469024
-0.136539
0.268774
-0.264855
-0.087569
-0.492877
0.032749
-0.460871
0.475591
0.173672
0.315174
-0.327444
-0.379597
0.222250
-0.071431
0.433223
0.422138
-0.009778
-0.071490
-0.375841
0.212104
0.324704
0.417508
-0.163062
-0.281159
0.351766
-0.036914
0.344267
0.194324
-0.449496
0.425502
0.448542
0.250019
-0.150498
-0.195815
0.062292
0.310637
-0.081317
-0.449891
-0.469576
0.437829
0.466668
-0.447349
-0.272791
0.097468
-0.119440
0.324054
0.140808
0.331514
-0.449255
-0.312847
0.231481
0.022790
0.451710
-0.026269
-0.071329
0.159728
-0.411003
0.445858
0.451032
-0.461928
-0.184729
-0.264011
-0.350840
0.167316
0.451793
-0.109888
-0.154380
0.328540
-0.110508
0.136325
-0.251384
0.057898
-0.167835
-0.251547
0.309611
0.404268
-0.150067
-0.397669
0.171628
0.239877
0.250458
0.136596
-0.407228
0.435550
0.004536
0.331632
0.104684
-0.300381
0.398151
0.294941
0.011737
0.325910
0.143480
0.117369
0.114027
0.279310
-0.192893
-0.112937
0.224120
0.402854
-0.124533
0.262156
-0.064534
-0.489202
0.407480
0.340533
0.272221
-0.289606
-0.106488
0.337743
-0.411465
0.149153
0.386816
0.041035
-0.410582
-0.015863
0.064528
-0.126277
0.180736
0.052392
-0.091672
-0.276284
-0.340332
0.052492
0.068936
-0.399851
-0.263465
0.216287
-0.119336
0.417470
-0.089872
0.091568
0.030258
-0.375900
-0.109370
0.469082
0.261438
-0.323219
0.294872
0.215724
0.075921
-0.284002
0.275579
0.020869
0.418952
0.032268
-0.153517
-0.459899
0.198385
0.381044
0.299487
0.107154
-0.157894
-0.454471
0.200547
0.118516
0.321271
0.307615
0.091103
-0.125331
-0.110831
-0.056383
0.406305
0.164667
-0.024805
0.345577
0.240827
0.295132
0.398831
-0.100512
0.208290
0.372988
-0.346988
0.490136
-0.398367
-0.205316
-0.422700
-0.145427
0.063292
0.293044
-0.180382
0.127169
0.308900
0.341684
-0.188243
0.000144
-0.527681
-0.485733
-0.779412
-0.046500
-0.374739
-0.062722
0.027054
-0.137959
0.063886
-0.044247
-0.515995
-0.738023
-0.304585
-0.065554
0.052254
-0.056796
0.189424
0.078700
0.171550
0.056667
-0.214046
-0.178667
-0.383052
0.412540
-0.420672
-0.415843
-0.183904
0.404145
-0.446684
0.469512
-0.527186
-0.377961
-0.357940
-0.197273
-0.657969
-0.493898
0.252644
0.334190
0.443716
0.419092
-0.315064
-0.721620
-0.303042
-0.344508
-0.089951
-0.482062
0.001440
-0.334410
-0.081777
0.167848
0.136810
-0.193054
0.143739
0.415840
0.441849
0.304008
0.360074
0.378929
0.291531
