75x1025
75x76
-0.190793
-0.056332
-0.215158
0.243329
0.666506
-0.121660
0.213370
0.079749
0.100873
0.920880
0.775458
0.750453
0.825567
0.890267
0.578709
0.085949
0.378307
0.186617
-0.269598
-0.039621
0.240960
0.330840
0.488369
-0.054981
0.421322
-0.071942
0.019899
0.530027
0.612376
0.409388
0.470423
-0.335340
-0.048910
-0.489686
-0.433207
0.371821
0.743671
0.316204
0.492363
0.925054
0.576486
0.327713
1.302819
1.088883
0.523111
0.641773
0.120993
0.017311
-0.008075
-0.143998
-0.295070
-0.255598
0.332958
0.172361
-0.117983
0.241862
0.065435
0.445642
-0.226018
-0.294711
0.231493
-0.333950
-0.011996
-0.242731
-0.366877
-0.191427
0.024083
-0.130701
0.751328
0.755622
0.094745
0.422831
0.985409
0.425174
0.698231
0.790150
0.638001
0.620230
0.956987
0.938995
0.586526
-0.364167
-0.254100
0.518403
0.381871
-0.156564
0.526565
0.337496
0.430347
-0.304647
-0.249373
0.552673
0.273649
0.495830
0.486054
0.003720
-0.111804
-0.408674
0.357095
-0.265856
0.011660
0.362125
0.466790
0.374625
1.025126
0.649421
0.937988
1.063251
0.542067
0.390624
1.091452
0.970373
0.474303
0.553039
0.103980
-0.429894
0.270579
0.481977
0.307510
0.181591
-0.404296
-0.533730
0.667178
0.488905
0.638916
0.462936
0.278115
0.549224
-0.056698
0.224783
-0.517897
-0.133755
0.336159
0.274801
0.500365
0.523676
0.420092
1.253727
0.657953
0.676820
0.847124
0.709866
0.867022
1.307886
0.338395
0.870637
0.303694
0.152123
1.145401
0.283769
0.280964
0.441393
0.251462
0.203228
0.365648
-0.157897
-0.262427
-0.166692
-0.085166
0.439947
-0.410772
-0.126225
-0.337570
0.047342
-0.138486
0.286402
0.322879
0.472158
0.420637
0.443207
0.489358
0.837256
1.028548
0.601994
0.247025
0.771791
-0.010973
0.699527
0.617541
-0.077239
0.548021
0.689984
0.685366
0.243147
-0.093361
0.554439
0.229332
-0.083519
0.430996
0.307794
0.263182
-0.238765
0.101067
0.410189
0.050975
-0.004453
0.105661
0.484564
0.018356
0.084068
0.117075
0.131615
0.488135
1.518785
0.217692
0.864078
0.258974
0.419561
0.816017
-0.116703
0.458765
0.496978
0.430104
0.247319
0.574912
0.204967
-0.191346
-0.152515
0.322344
0.154846
0.000459
-0.285555
0.018269
0.073098
-0.001862
-0.057704
-0.112118
-0.136077
-0.310035
0.295752
0.531189
-0.273716
0.513720
0.508055
0.967295
0.269600
0.332046
0.511470
0.623688
0.205759
0.609083
-0.077019
0.253820
0.476437
0.022222
0.326418
0.155456
-0.268119
0.343633
0.634094
0.558867
0.395475
-0.200276
-0.094155
0.184959
-0.161486
-0.498929
0.191872
-0.052367
-0.102824
0.257729
-0.379710
-0.205036
-0.140355
0.453776
0.777420
0.521331
0.419993
0.457206
0.023241
-0.044416
0.980419
0.604942
-0.461819
-0.122277
-0.008327
0.500038
0.286821
-0.446072
0.512447
0.167177
-0.333875
-0.049183
-0.103313
-0.201301
-0.377065
-0.407202
-0.070581
0.130889
-0.058216
0.020715
-0.346984
0.156973
-0.561617
0.074563
0.150114
0.074306
0.865487
0.156151
0.261381
0.505818
-0.319955
0.774176
-0.057111
-0.585193
-0.384953
-0.712888
-0.372477
0.308232
0.354094
-0.088376
0.444608
0.299432
-0.217906
0.051165
0.423902
-0.153453
0.469438
-0.519698
-0.120394
0.230173
-0.431684
-0.178528
-1.060825
-0.219624
-0.226692
-0.774303
0.010354
0.149036
0.371718
0.044220
0.104337
-0.870475
-0.376282
-0.189027
0.028777
-0.968307
-1.276488
-1.441765
-1.223485
-1.144539
-0.695017
-0.267227
-0.136931
0.534462
-0.117848
-0.094817
0.383289
-0.146964
-0.466582
0.024473
0.103445
-0.488687
-0.037151
-0.524566
-0.322611
-0.933361
-0.945105
-0.697143
-0.720025
-0.708069
0.190626
-0.600112
-0.081624
-0.951396
-0.598664
-0.306492
-0.552380
-1.035084
-0.484709
-0.775490
-0.400293
-0.602352
-0.482614
-0.227495
-0.342158
0.156139
-0.354329
0.203305
-0.011491
-0.105339
0.358854
0.118893
-0.443072
-0.420350
0.132990
-0.475446
-1.078718
-0.929148
-0.652386
-0.339927
0.331286
-0.309353
-0.340158
-0.340950
0.060259
-0.685003
-1.098710
-0.800929
-0.830453
-0.896616
-1.176686
-1.277052
-0.181481
-0.007512
-0.827500
-0.159071
-0.486804
-0.024778
-0.079049
-0.372378
0.121813
0.367999
-0.344567
-0.444007
-0.191527
-0.175519
-0.732477
-0.881725
-0.463648
-0.476447
-0.216666
-0.693980
-0.131711
-0.293947
0.000297
-0.496784
-0.250464
-0.454386
-0.526282
-0.456906
-0.719084
-0.384993
-0.907386
-0.613342
0.135588
0.150894
0.483134
-0.355391
0.163745
0.219544
-0.061221
-0.168584
-0.639495
0.026103
-0.205068
-0.051918
0.070815
-0.037899
-0.575807
-0.082475
-0.740375
-0.673810
-1.001985
-0.943275
-0.244489
-0.375048
0.015284
-0.260132
-0.211212
-0.915972
-0.929757
-1.061625
-0.471428
-0.216601
-0.888937
-0.736699
0.144399
0.561192
-0.058870
-0.385946
-0.334499
0.301735
-0.552158
-0.046426
0.183839
0.504291
0.412868
0.336022
-0.426055
0.085620
-0.715393
-1.006196
-0.720141
0.162528
-0.936600
-0.059226
0.527842
-0.170850
0.216315
0.348377
-0.550480
0.305026
-1.103139
-0.203831
-0.860950
-0.475755
-0.557804
0.051095
0.335264
0.472778
-0.083474
-0.110687
0.353421
-0.139447
0.172756
-0.679349
0.396548
0.438889
0.120460
0.450858
0.220446
0.246685
-0.170175
-0.477147
0.070078
0.440105
-0.535978
0.118810
-0.495651
0.375974
-0.104588
0.014611
-0.295007
0.197289
-0.984411
0.054831
-0.321700
0.318489
0.567815
0.279730
0.401816
0.821603
0.228643
0.269257
0.591946
0.357991
-0.135868
-0.489385
0.185343
-0.018768
0.310661
0.372735
-0.183847
-0.096308
-0.756887
-0.700114
-0.347958
0.415303
-0.910439
-0.009317
-0.318042
-0.244326
-0.527875
-0.697875
0.311868
0.272401
-0.481867
-0.029085
0.568155
-0.006154
0.094560
0.007828
0.677945
0.877432
0.167852
-0.541001
0.054145
0.018674
-0.331824
0.110619
0.292636
0.409315
-0.077292
0.106319
0.285381
0.024472
-0.627980
-0.344561
-0.062129
0.230301
-0.359051
0.045533
0.327725
-0.128732
-0.992379
-0.513342
-0.321112
-0.306006
-0.837955
-0.071083
-0.431562
-0.339462
0.534215
0.192711
1.040612
-0.258200
-0.448157
-0.362865
0.516813
-0.044333
-0.505759
-0.732735
-0.113658
0.522164
0.156290
0.491596
0.161774
0.463340
-0.703319
-0.405381
0.012427
-0.514725
-0.385782
-0.338218
0.100641
-0.787400
-0.461770
-0.611089
-0.281464
-0.372311
-0.996345
-0.541734
-0.490550
-0.404772
0.598704
0.133909
0.068984
0.419833
-0.710786
-0.330334
-0.494762
-0.626190
-0.832569
-0.369143
0.526662
0.199343
0.270662
0.184975
0.256616
-0.564032
-0.590457
-0.736234
-0.353057
-0.403308
-0.551480
-0.599857
0.406469
-0.225178
-0.723783
-0.260095
-0.416465
0.090085
0.128105
-0.291758
0.031816
0.186555
-0.178851
0.272812
0.294103
0.017208
-0.959236
-0.640652
-0.085990
-0.322222
-0.544436
-0.148314
0.585794
0.168295
0.494586
0.747797
0.124456
-0.223506
-0.776728
-0.654910
-0.232629
-0.357482
-0.568021
0.084276
-0.005393
-0.417539
0.027901
-0.684044
-0.150552
0.068368
-0.225233
0.042620
-0.304333
-0.134930
0.173965
-0.014505
-0.717790
-0.751477
-0.889712
-0.752044
-0.614765
-0.414603
0.079100
-0.197319
0.723368
0.477031
0.446002
0.253564
-0.064342
-0.156680
-0.568733
0.119848
-0.709448
-0.202676
-0.147634
0.154249
-0.141255
0.569900
0.219066
-0.648137
-0.309655
-0.438757
-0.340527
0.100824
-0.440563
0.337092
0.172970
-0.703942
-0.483126
-0.435737
-0.031415
-0.260509
-0.290507
-0.354846
0.350856
0.034358
0.254214
0.559948
0.420161
-0.048636
0.094419
-0.099078
0.240315
-0.287968
0.344268
0.148347
0.170299
-0.030429
0.180210
0.374846
0.333903
0.014311
-0.070381
0.017082
-0.126621
0.011314
0.009868
-0.209111
-0.542656
-0.332783
-0.839925
-0.522886
-0.381699
-0.522278
-0.657570
0.096587
-0.241957
-0.258079
-0.002374
0.452012
0.224218
-0.160394
-0.016343
0.249780
0.482611
0.375110
0.691000
0.886863
0.537010
-0.518053
-0.569456
0.310010
-0.443266
-0.557657
-0.458674
-0.321307
-0.049812
-0.810553
-0.220167
-0.658741
0.382889
-0.435296
0.029869
-0.540958
-0.549949
-0.545489
-0.360547
-0.145972
0.351643
0.460408
0.027981
-0.210334
0.428576
0.419889
0.131599
-0.020552
0.251021
0.141017
0.710708
0.375358
0.201636
-0.513183
-0.080314
-0.368254
-0.601281
-0.354212
-0.365626
-0.310364
-0.350006
-0.559947
-0.083770
-0.504160
-0.160859
0.152198
0.099559
-0.056569
-0.116749
0.248533
0.058061
-0.000661
0.152301
-0.040624
0.530110
0.333714
0.382415
0.024589
0.539339
0.364340
0.115876
0.891802
0.906787
1.236243
0.690063
0.354212
-0.224937
-0.348517
-0.511125
-0.464360
-0.517462
-1.167864
-1.103459
-0.682068
-0.585069
0.457068
0.072791
-0.507665
-0.684325
-0.227087
0.047119
-0.207020
-0.599183
0.028382
0.145234
0.414958
0.321070
0.127576
0.526344
0.422083
0.707281
0.440138
-0.108736
0.452443
0.461586
1.114799
0.177489
-0.037537
-0.280296
0.079362
-0.367977
-0.103408
-0.234520
-0.757798
-0.128743
-0.594043
-0.266246
-0.318005
0.101301
-0.252456
0.375471
-0.255650
-0.280931
0.192657
-0.404885
-0.370242
-0.220488
0.166546
-0.371520
-0.284903
-0.085085
-0.160481
0.050602
0.134655
0.222620
-0.130232
0.130054
1.145415
0.683102
0.625592
0.048094
0.120631
-0.448244
-0.477884
-0.787781
-0.722839
0.068477
-0.134270
0.121498
-0.203703
-0.000400
-0.181093
-0.356087
-0.270234
-0.677788
-0.044864
-0.084309
-0.332191
0.069479
-0.064715
-0.295917
0.499971
0.661022
0.340660
0.673755
-0.163853
0.034559
0.421181
1.035191
1.040673
1.245438
0.298512
0.675823
-0.177336
-0.229681
0.044014
-0.485034
-0.553005
-0.587898
-0.680250
-0.476431
-0.347833
-0.614266
-0.330235
0.164376
0.251241
-0.453123
0.207032
-0.199738
0.851838
0.345524
0.235945
-0.140159
0.405143
0.241474
0.790459
0.454862
0.562224
0.158852
0.285667
0.541874
0.565510
0.737850
0.652556
-0.363245
-0.264593
0.039816
-0.071844
0.236049
-0.434868
-0.743780
-0.254994
0.079472
-0.286726
-0.482597
0.334666
-0.395555
-0.368811
-0.292494
-0.301788
0.034702
0.598988
0.574751
0.571940
1.175618
1.245220
0.668019
0.393193
-0.164988
-0.360705
0.381241
0.296328
0.237136
1.092575
1.289192
0.629900
0.927375
0.688987
0.661420
-0.059946
0.286991
-0.133943
-0.444246
-0.829715
0.097220
-0.148350
0.417592
-0.080497
-0.285193
-0.495245
0.292722
0.717029
0.830720
0.329669
0.193371
-0.077584
0.068725
0.386870
0.043744
-0.189100
0.479507
0.160657
-0.088245
0.546901
-0.291450
-0.332609
-0.439928
-0.292783
-0.677780
-0.292178
0.182256
0.765350
0.615415
0.442619
0.629277
0.230090
0.622706
0.833562
0.790590
0.951200
0.849827
0.383664
0.647540
-0.053797
0.412440
-0.583304
-0.814342
-0.342855
-1.362734
-1.383407
-0.493435
-0.127475
-0.431532
0.013274
0.352990
0.259299
-0.396084
-0.213055
-0.035079
-0.513654
-0.656825
0.553960
0.276701
0.675662
0.608669
0.184695
0.250086
0.458616
0.026475
1.392172
1.090983
1.452881
1.230046
1.284283
0.361022
-0.349281
0.269978
0.327397
-0.709331
-0.433094
-1.410297
-1.601214
-1.246609
-0.938076
-0.718910
-0.207580
-0.747774
0.255043
-0.616818
-0.292560
-0.057105
-0.266035
-0.204679
-0.342193
-0.269200
-0.319097
-0.105179
0.851317
0.747065
0.705562
0.687205
0.611106
0.377011
0.423470
1.055325
0.331169
0.753244
0.206209
-0.177097
-0.068039
-0.231953
-0.046799
-0.564568
-0.822386
-0.772274
0.034965
-0.312897
-0.826163
-0.785661
-0.358640
0.011983
-0.285644
-0.419561
-0.094711
-0.467023
0.447053
0.289911
0.255479
0.135569
0.160176
0.400242
0.427336
0.511848
0.980568
0.271128
0.895396
0.933417
0.347703
0.412505
0.194099
-0.000336
-0.375572
0.012620
-0.695530
-0.473755
-1.111035
-0.973195
-0.644128
-0.351153
-0.576028
-0.097447
-0.388638
0.375356
-0.469462
-0.544688
-0.217266
0.068449
-0.026120
0.485233
0.808089
-0.207233
-0.026791
0.510688
0.122869
0.519908
0.872516
0.064512
-0.013752
0.699377
1.189700
0.223809
0.601282
0.530285
0.218394
-0.041886
-0.290687
0.213036
-0.900135
-0.794422
0.355795
-0.220048
-0.465983
-0.580398
0.208593
0.320029
-0.456179
-0.179439
0.200244
-0.591452
-0.246427
0.074805
0.216710
-0.412177
0.174420
-0.084218
0.265395
-0.325185
0.336751
-0.074305
0.297659
0.159592
1.341788
1.542206
0.888853
0.199160
-0.400243
0.070477
0.174453
0.592280
0.334672
0.133007
0.094119
-0.047047
0.513395
0.251906
0.424287
-0.158780
0.449143
-0.139654
0.194247
-0.300669
-0.292297
-0.479847
0.337334
0.153671
0.017521
0.364584
-0.386699
-0.455801
0.381542
0.151850
-0.057947
0.542609
1.140428
0.770996
0.205901
0.072520
0.089475
-0.081311
-0.479585
0.418454
-0.260267
0.442232
0.096236
0.648016
0.445263
-0.266719
0.273947
-0.052927
-0.346549
-0.211589
0.243888
-0.471838
0.020240
-0.662546
-0.633389
-0.659410
0.029091
-0.062395
0.040305
-0.561451
0.014328
-0.251500
0.369497
-0.055067
0.858152
0.628542
0.760086
0.404843
0.249529
0.469501
-0.113433
0.125053
-0.352378
-0.038510
0.548459
0.193368
0.044410
0.100120
0.519441
0.312229
0.046619
-0.110739
0.008760
-0.474845
0.058022
-0.113480
0.446515
-0.219659
-0.092700
-0.483699
-0.612601
-0.543541
-0.827207
-0.793477
0.289011
0.021964
0.464492
0.431049
0.272647
-0.245889
0.062369
0.384548
-0.045963
0.118541
0.008838
0.251880
0.687621
0.136619
0.459235
0.105982
0.052617
0.357529
0.220281
0.541872
0.086095
-0.660009
-0.070885
-0.109611
-0.214647
-0.345796
0.193425
-0.730896
-0.312126
-0.025403
-0.641382
-0.060029
-0.418126
0.009854
0.211100
1.005898
0.856182
-0.068729
-0.169510
0.124644
-0.484938
0.559883
0.726839
1.213297
0.653846
0.930385
0.924722
-0.224373
-0.370959
0.294176
-0.166377
-0.175563
0.399484
-0.096411
-0.237524
0.287860
-0.011502
-0.388339
-0.508380
-0.269667
-0.579984
-0.032685
-0.518882
0.043239
-0.099919
1.000416
0.264928
-0.669006
-0.457052
-0.268162
0.176234
0.208881
0.274432
-0.274246
-0.117375
0.895045
0.382903
0.396750
1.151214
0.651597
0.439575
-0.411480
0.429057
-0.021276
-0.295802
-0.494237
0.055271
-0.138027
-0.177344
-0.240484
-0.259140
-0.446885
-0.146980
0.184948
-0.651617
-0.103826
-0.276191
0.322529
-0.029900
-0.496396
0.169322
-0.725329
-0.540139
0.636273
0.081252
0.058629
0.070111
0.586553
0.818187
0.354624
1.105827
0.746134
-0.464751
0.311471
0.051593
0.126838
0.314519
-0.452048
-0.000104
-0.165997
-0.768963
-1.231157
-0.921815
-0.427349
-0.379624
-0.302545
-0.098193
-0.574571
0.024156
-0.822357
-0.507424
-0.945321
-0.755935
-0.112126
-0.131234
0.420850
-0.477073
-0.009382
0.785237
0.476514
0.698770
0.867203
1.043996
0.734666
0.303291
0.232243
0.556480
-0.064972
-0.480653
-0.531339
-0.620060
-0.707598
-1.139803
-0.555162
-0.235515
-0.557277
-1.106389
-1.333550
-1.346899
-1.127247
-1.300823
-0.992536
-1.531763
-0.587668
0.074374
-0.597358
0.249715
0.065066
-0.472592
-0.018425
0.527541
0.864321
0.309438
0.122056
0.998031
0.210124
0.213194
0.363482
0.443410
-0.486050
-0.114041
-0.285247
-0.551231
-0.417165
-0.643875
-0.907114
-0.894403
-0.491049
-0.573131
-0.464168
-1.298975
-0.592131
-1.728190
-0.820126
-0.449860
-1.038379
-0.481597
-0.170802
-0.126579
-0.057942
0.145606
0.741893
0.144956
0.606617
0.058569
0.551844
0.532070
0.535449
0.302905
0.160009
0.246033
-0.439386
0.323881
-0.757441
-0.633219
-0.199113
-0.319199
0.152800
-0.983045
-0.272214
-0.664854
-0.239785
-0.863426
-1.201529
-1.586542
-1.548720
-0.471109
-0.779709
-1.139964
-0.955691
-0.247192
-0.048951
-0.288665
0.057940
0.193653
0.652011
0.649763
0.443709
0.674164
0.734478
0.293867
0.232456
0.001457
-0.495306
-0.664051
-0.362645
-0.191631
-0.919759
-0.801755
-0.119903
-0.527973
-0.490460
-0.618797
-0.651085
-0.225164
-1.324526
-0.379170
-0.978871
-0.410520
-1.181217
-1.188437
-1.081388
-1.123610
-0.532754
-0.498032
-0.622077
0.229642
0.230372
0.323121
0.742153
1.161473
0.168743
-0.186306
-0.303571
0.105688
-0.071788
-0.147953
-0.879749
-0.728614
-0.597049
-0.406084
-0.537464
-0.157675
-0.874993
-0.295790
-0.633874
-0.358826
-0.839073
-0.800968
-0.833225
-0.794652
-1.165946
-0.347001
-0.906061
-0.323274
-0.689939
-0.625525
0.004882
0.299598
0.001594
-0.114535
0.419003
1.067811
0.258822
0.022463
-0.185116
0.319760
-0.273471
-0.666054
-0.381472
-0.845658
-0.449084
-0.542045
-0.319847
0.364858
-0.139233
-0.223653
0.100098
-0.155652
-0.508779
-0.610848
0.408298
0.158783
-0.015551
-0.819858
-0.752193
-0.467478
-0.731131
-0.558610
-0.003371
0.360753
-0.026413
-0.063202
0.456836
0.416972
-0.060526
-0.108520
-0.051787
0.531046
0.485148
-0.578150
-0.434791
-0.829148
0.032613
0.017101
0.291096
-0.014936
-0.364274
-0.609736
0.169977
0.036090
0.364720
0.105355
0.545004
-0.213031
-0.236014
0.110894
-0.846087
-0.613406
-0.866308
-0.657263
-0.034951
-0.664203
-0.000654
-0.128806
0.350170
0.698894
0.324039
0.014221
0.582186
0.753965
0.544373
-0.133074
-0.406318
-0.664805
-0.142499
0.454663
0.218353
0.339807
0.589211
-0.227656
0.578108
0.666633
0.259975
0.298018
0.459781
0.486564
-0.006511
-0.338390
-0.705630
-0.463318
0.152152
-0.280517
-0.525900
-0.363711
0.118238
0.117754
0.060483
0.746119
0.652640
-0.126067
0.062992
0.200835
0.086542
0.388539
-0.190584
0.183774
-0.244080
0.423835
0.628202
0.578859
0.868529
0.227055
0.267729
0.279395
0.435588
0.214202
-0.197695
-0.449771
-0.042976
-0.090294
-0.700393
0.144153
-0.592763
-0.100069
-0.537436
-0.570052
0.210500
-0.155062
0.224304
0.680693
-0.059981
0.142622
0.178886
-0.026691
0.698004
0.522101
-0.397195
0.175799
0.455518
0.840152
0.953357
0.787636
0.672355
-0.027717
-0.317870
0.161512
0.290356
0.189547
0.150888
-0.239875
-0.464489
-0.941361
-0.547822
0.080096
-0.873749
-0.374545
-0.773916
-0.447576
-0.202047
0.239650
0.242497
0.457991
0.402312
0.346009
0.186392
0.733989
0.180407
0.474138
-0.299006
0.367860
-0.253185
0.012072
0.274452
0.389014
0.651118
-0.030107
0.051132
-0.107678
0.019432
0.311437
-0.476512
0.232028
-0.474638
-0.704594
-0.216541
-0.958632
-0.605191
0.157006
-0.141345
0.026263
0.534737
0.471067
0.479082
0.051962
0.301997
0.278043
0.341145
-0.138801
0.341895
0.410224
0.122014
0.374294
0.103391
0.199632
0.842805
0.281324
0.672112
0.215519
0.142067
-0.593367
-0.679439
0.085567
0.006938
-0.129549
-1.118585
-0.874054
-0.551376
-0.873568
-0.611976
-0.786851
0.151380
0.428593
-0.041576
-0.438180
0.167132
-0.241293
0.331709
0.561791
0.025432
0.190260
0.822571
-0.040876
0.454735
0.835790
0.821918
0.624210
0.832571
0.392471
0.672664
0.213848
0.297606
-0.829062
-0.051807
0.305205
-0.639754
-0.857929
-0.649288
-1.111910
-0.970644
-0.322132
-0.410491
-0.770878
-0.078071
0.404735
0.166876
-0.268474
-0.070700
-0.302585
0.021334
0.295838
0.042197
0.480938
1.065509
0.698431
0.667695
0.858106
0.573461
0.903649
0.237266
0.183266
0.142711
0.098557
-0.417561
-0.010859
-0.477070
-0.091513
0.219304
-0.179644
-0.434725
-0.706024
-0.595337
-0.341964
-0.746808
0.370971
-0.081280
-0.775997
0.373921
0.387272
0.329507
-0.026446
-0.176142
0.269929
0.140361
0.713592
0.245864
1.290145
0.699019
0.582358
0.908481
0.453886
-0.300714
0.024546
-0.554300
-0.627486
0.412916
0.002892
-0.532244
0.717083
0.194524
0.018680
-0.316011
-0.104813
-0.296929
0.092829
-0.355368
-0.366086
0.181234
-0.548606
0.076648
0.210197
-0.428016
0.032109
-0.013967
0.825172
0.452928
0.879287
0.856037
0.790944
0.630310
1.112455
0.272546
0.202929
0.651117
0.173323
0.454589
0.052344
-0.203628
0.213732
0.557694
0.469714
0.401797
-0.341035
0.185824
-0.456440
-0.064302
-0.021950
0.297196
0.502550
-0.233372
-0.328177
-0.203392
-0.210880
0.114518
0.036555
-0.257224
0.286268
0.429920
0.232293
0.108339
0.398452
0.502689
0.201317
-0.171610
-0.415898
-0.367823
-0.289442
-0.168324
0.112458
-0.589277
0.240141
0.637681
-0.123487
-0.400662
-0.250682
-0.215273
-0.180788
-1.001177
-0.838905
-0.282461
-0.492796
0.225747
-0.294434
0.079857
-0.309633
0.471437
0.339265
-0.182327
0.449458
0.026702
0.668697
0.670803
0.044929
0.207178
0.966761
-0.089592
-0.409055
0.307934
0.090624
1.026463
0.627032
0.421712
0.783319
0.757182
0.268354
0.430148
-0.347526
-0.127324
0.067540
-0.037298
-0.547238
0.229848
-0.393207
-0.305920
-0.432847
0.633170
0.540097
0.542123
-0.275729
0.446352
0.495093
0.330935
0.682796
0.455704
0.270493
0.634714
0.795458
0.228785
0.435141
0.066880
0.074709
0.595311
-0.013974
-0.042102
0.577628
0.765410
0.622070
0.360543
-0.305020
-0.153764
-0.279664
-0.706376
-0.101145
-0.633958
0.103147
-0.046172
-0.597592
0.142697
0.309709
0.044401
0.165907
-0.229939
-0.286904
0.457720
-0.369059
0.142690
0.295427
0.338892
-0.436344
-0.529833
-0.259873
-0.751580
-0.565999
-0.654542
-0.664732
-0.654826
-0.648797
-0.908325
0.323033
0.208734
-0.278343
-0.147596
-0.330264
0.313180
-0.342961
-0.526362
-0.584114
-0.662161
-0.369761
-0.902108
-0.861239
-0.006419
-0.162826
-0.676488
0.027627
0.398563
0.266908
0.292705
0.277987
-0.718682
-0.165127
-0.013567
0.079846
-0.043270
-0.875594
-1.017477
-0.422070
-1.139915
-0.662092
-0.621765
-0.080643
-0.034614
-0.341267
0.573181
0.380780
0.323630
0.135402
-0.445982
-0.229138
-0.204498
-0.344418
-0.203342
-0.590642
-0.723581
-0.041010
-0.140884
0.142344
-0.039812
0.421688
-0.392998
-0.031794
-0.047103
0.495667
-0.672188
-0.243323
-0.720242
-0.424002
-0.973629
-1.561521
-1.539579
-1.233006
-0.532269
-0.687023
-0.057898
-0.429035
-0.095256
-0.174540
0.137996
0.876793
-0.254961
-0.293479
-0.474700
-0.573217
-0.220173
-0.061691
0.105457
-0.438841
-0.423913
0.274644
0.614322
-0.191886
0.457135
-0.016146
-0.455485
-0.248629
-0.534419
0.147490
-0.499890
-0.958312
-0.615174
-0.815948
-0.933485
-0.818614
-0.103713
-0.219374
-0.134446
-0.447937
0.214606
0.061691
-0.124563
0.056234
0.399258
-0.462295
-0.566091
0.073953
-0.558504
0.239910
0.206803
-0.115397
-0.358354
-0.247354
0.074309
0.178753
-0.428180
-0.167472
-0.225947
0.404710
0.223198
0.047372
-0.562756
-1.353044
-0.769607
-0.765504
-0.999530
-0.720297
-0.588135
-0.353532
-0.790029
-0.122871
0.037178
-0.540758
-0.464077
-0.138986
-0.187283
-0.608870
-0.497608
-0.559613
0.178264
0.289312
0.300507
0.056066
0.206160
-0.087682
-0.493737
0.180536
-0.597731
-0.216973
-0.480229
0.109624
-0.128235
0.090459
-0.480237
-0.720634
-1.366408
-0.630899
-0.149178
-0.986117
-1.179491
-0.187818
-0.620958
-0.895623
-0.680497
-0.407549
-0.232295
-0.147424
0.083979
-0.511190
0.001976
-0.052036
0.126368
0.728567
0.420018
0.087049
0.237157
0.419735
0.244215
0.016288
-0.423885
-0.881061
0.112337
0.118858
-0.305090
-0.639358
-0.329341
-0.788534
-0.892203
-0.993292
-0.934877
-0.546934
-1.288389
-1.206323
-1.070395
-1.452811
-1.013679
-0.608941
-1.242299
-0.324085
-0.430604
-0.457829
-0.141775
0.415324
-0.107849
0.631650
0.442695
0.120046
0.149532
-0.240211
0.160100
0.177913
-0.383207
-0.665481
0.162917
0.029800
-0.102528
-0.412306
-0.455287
-0.301153
-0.964981
-0.216173
-0.636614
-0.280171
-0.835073
-0.406430
-0.839349
-0.849486
-0.668762
-1.239665
-1.107339
-0.335983
-0.744273
-0.450298
-0.390826
-0.401880
-0.660176
0.187801
0.559528
0.447645
0.065861
0.557658
-0.226238
0.349273
-0.251614
0.161946
0.112614
-0.629438
-0.302477
-0.031641
0.074317
-0.515081
0.043579
-0.498705
-0.783303
-0.702527
-0.690281
-0.457899
-0.000868
-0.351188
-0.889015
-0.640170
-0.217720
0.329369
-0.201998
-0.105010
0.062676
0.031426
0.081820
0.122327
0.163391
-0.606292
0.269160
-0.114213
0.161075
-0.023437
-0.451006
-0.389840
-0.320598
-0.708157
-0.094732
0.077575
0.060874
0.427217
0.430171
-0.360410
-0.001919
0.447056
-0.715277
-0.219768
-0.672349
-0.152660
0.011334
-0.718504
0.179894
-0.124742
-0.574677
-0.793199
0.119938
-0.478143
-0.459325
-0.278172
0.073411
-0.536596
0.447458
-0.093214
-0.175263
-0.562878
-0.179564
0.208983
-0.187743
-0.312415
-0.335699
-0.396370
0.316346
0.100584
0.434306
0.896320
1.030017
0.658694
0.147222
0.979784
0.126807
0.330895
0.391165
0.381511
0.124685
0.744906
0.686623
0.738655
0.449109
0.345204
-0.374572
-0.528723
0.411688
0.306620
-0.009995
-0.133355
0.165983
-0.068064
-0.371885
-0.644975
0.027689
-0.737235
-0.863507
0.045812
0.058344
0.945887
1.204170
0.937913
0.935364
0.654625
0.753563
0.696437
-0.361085
-0.277036
0.312441
0.281703
0.042818
0.155115
0.600313
0.726751
0.400295
-0.019765
-0.797205
0.057729
-0.138688
-0.219783
0.168732
0.235473
-0.498048
0.333082
0.015443
-0.551848
-0.863943
-0.615607
-0.750319
-0.212501
0.422290
0.881723
1.195715
1.224029
1.242723
0.462988
0.490279
0.516218
-0.604236
-0.611715
0.124070
0.082521
-0.281922
0.027326
0.480655
0.749099
-0.112078
-0.971811
-0.594922
-0.023998
0.340025
-0.751817
0.021319
-0.491645
0.100962
-0.237894
0.190227
0.052311
-0.494924
-0.716318
0.168012
-0.231819
0.310214
0.501862
0.712501
1.080335
0.367421
0.760389
0.417306
-0.034496
-0.938227
-1.096209
-0.496900
0.012651
0.342608
0.515352
0.038870
0.129824
-0.792968
-0.422195
-0.531732
-0.190717
0.312626
0.090814
0.397403
0.182624
-0.034815
0.112540
-0.055007
0.035271
-0.582856
-0.077979
0.344005
0.037539
0.608019
0.681313
0.794445
1.070808
0.929954
0.594123
0.076656
-0.002488
-1.022134
-0.284725
-0.932833
-0.471176
-0.118182
-0.184530
-0.147758
-0.286669
-0.240934
-0.248266
-0.139821
0.195146
-0.402220
0.222623
-0.140092
0.527305
0.448937
-0.205280
0.647067
0.146750
-0.034639
-0.098542
-0.118747
-0.227768
-0.106187
0.346047
0.287452
0.783744
1.134311
0.972157
0.257308
0.339084
-0.190411
-0.492800
-0.297272
-0.183001
-0.340015
-0.132928
-0.406592
0.076266
-0.909821
-0.838557
-0.837238
0.164390
-0.465676
-0.294489
-0.094211
0.228131
0.496558
-0.012736
0.237862
-0.420307
-0.684888
-0.256020
-0.428149
-0.279731
-0.254531
0.668480
1.325056
1.128881
0.756164
1.255147
0.506602
-0.042666
-0.080830
0.114248
0.232228
-0.184931
-0.019448
0.012715
-0.746030
-0.405405
-1.015424
-0.581809
-0.833976
-0.560437
-0.207602
0.386929
0.241157
0.025389
0.016586
-0.272409
0.228128
0.136293
-0.360877
0.015146
-0.255497
-0.624196
0.066801
0.190903
1.234383
1.871204
1.400745
1.135014
1.024326
0.459493
0.067770
0.122262
0.066964
0.280418
0.218466
-0.741471
-0.690656
-0.399295
-1.003694
-0.570071
-0.531530
-0.634941
0.253847
-0.124313
-0.116386
0.142894
-0.007033
-0.362932
0.075964
0.294173
-0.011987
-0.220752
-0.520262
-0.669891
-0.357014
0.416314
0.780049
2.051419
1.994492
1.118897
0.905818
1.001686
0.600879
1.185655
0.556976
0.911997
0.090139
-0.180359
-0.934182
-0.697081
-1.365654
-0.520686
-0.227952
-0.725877
0.199124
-0.427060
-0.507660
-0.123228
0.192752
0.315832
-0.191903
0.275538
-0.353501
0.536820
-0.370951
-0.461908
0.321910
0.580811
1.201871
0.855884
1.832671
0.877173
0.911196
0.688905
0.284504
1.030680
0.609618
0.580108
-0.110701
-0.019756
-0.751858
-0.815140
-0.915592
-0.957230
-0.729835
-0.579726
-0.791804
0.326022
-0.083573
-0.219783
0.385862
0.237821
0.453281
0.379490
0.297884
0.146674
-0.132468
-0.105408
0.258712
0.697895
0.721361
0.226070
0.734568
1.242064
1.097402
1.668481
0.491558
0.246789
0.232977
0.243281
-0.290786
-1.439505
-1.291400
-1.454535
-1.144258
-0.969444
-0.449861
-0.548097
-0.408604
0.169036
-0.297944
0.079936
-0.130792
-0.465370
0.296501
0.409127
0.044601
0.713762
0.291138
0.286931
0.058983
0.154312
0.064086
-0.417292
0.095066
0.097783
-0.001447
0.773188
0.303981
-0.371824
0.025353
0.341495
-0.193536
-0.542586
-0.973029
-0.808890
-0.170835
-0.249669
-0.852037
-0.244654
0.099548
-0.032285
-0.716574
0.289520
-0.479476
0.166148
-0.172119
0.031975
0.937847
0.656387
0.542014
0.310785
0.681281
-0.277484
-0.744615
-0.283612
0.524178
0.231100
-0.023241
1.216767
0.180616
0.241603
-0.721113
-0.296287
-0.839396
-0.684102
-0.910780
-0.604954
-0.196276
-0.722402
-0.738232
-0.407179
-0.528113
-0.202735
-0.177840
-0.475076
0.270407
-0.033763
0.570283
0.124368
0.428042
0.519245
0.828144
0.750151
0.132966
-0.773243
-0.560903
-0.582110
-0.060018
0.230256
-0.387622
0.460962
-0.368500
0.258592
-0.223870
0.007021
-0.582763
-0.317537
0.163444
-0.311596
-0.748032
0.188541
-0.129069
-0.834891
-0.373134
-0.092828
-0.154941
-0.606301
0.125846
-0.324157
0.174827
-0.049928
1.084257
0.677399
0.577277
0.561094
0.329894
-0.293965
-0.375798
-0.759149
-0.823874
0.222559
-0.709981
0.609007
-0.062515
0.154677
-0.573489
0.112145
-1.094564
-0.669980
-0.373019
-0.101547
-0.315201
0.920911
0.417510
-0.062959
-0.302403
0.062644
-0.212476
-0.364457
-0.345729
0.197757
-0.253787
0.639355
1.347355
1.397233
0.951102
0.317378
-0.164856
-0.917186
-0.877583
-1.462413
-0.809612
-0.894076
-1.036502
0.486784
0.747812
0.582049
-0.346187
-0.438232
-0.410540
-0.040042
-0.607255
0.078379
-0.214183
0.389931
0.410311
-0.179525
0.456501
0.173211
-0.294305
0.296337
0.409923
-0.261782
0.566285
0.135955
0.953999
1.108305
0.516571
0.627472
0.553105
-0.079273
-0.408210
-1.211242
-0.267690
-0.070417
-0.566471
-0.004841
-0.803876
-0.440058
-0.542319
-0.915031
-0.723082
-0.500276
-0.297101
0.290945
0.115345
0.441343
0.343450
0.367927
0.524349
-0.086844
0.750781
0.615797
0.586706
0.299242
-0.166709
0.235738
0.793654
1.006261
0.419906
0.237277
0.544536
-0.103053
-0.170473
-0.331611
0.121779
0.031242
-0.511926
-0.301029
-0.869206
0.017752
-0.767346
-0.221629
-0.282189
-0.515572
-0.370512
0.674485
0.299269
0.653262
0.557869
0.368056
0.312898
0.392295
0.062655
0.656665
-0.050901
0.505725
-0.348737
0.557601
-0.143003
0.498032
0.009094
-0.067553
-0.169653
-0.269633
0.001101
-0.319029
-0.316053
0.471073
0.482443
-0.054372
-0.761040
-0.054689
-0.070875
-0.442408
-0.417480
0.588586
-0.133051
0.621794
0.088494
-0.047273
0.159249
0.051481
0.718378
0.682840
0.655854
0.073493
0.580641
0.739279
0.674980
0.264866
0.089428
0.464031
-0.258617
-0.193165
-0.187970
-0.176267
0.302187
-0.003454
0.112264
0.794275
-0.034969
0.096501
-0.589882
-0.492092
-0.404529
-0.768512
-0.782816
-0.226600
0.286818
0.438898
0.143250
0.405274
1.033377
0.195167
0.056044
0.274339
0.478173
0.578669
0.576217
0.346326
-0.273375
-0.483472
-0.379078
-0.169699
-1.007912
-0.930543
-0.699533
-0.695348
-0.011211
-0.475830
-0.266814
0.521334
0.247797
0.271336
-0.332456
-0.069663
-0.883242
-0.569792
-0.405492
-0.117724
-0.277292
-0.309337
0.261929
0.248510
0.618413
0.330436
0.086718
0.250417
0.268444
0.042471
-0.106429
0.599020
0.462961
-0.109210
-0.206715
-0.242284
-0.692557
-0.198334
-0.701337
0.108968
0.704356
-0.020566
-0.201829
0.183757
0.471981
-0.507914
-0.753560
-0.078700
0.253151
-0.288916
0.234093
0.564646
0.291166
-0.152360
0.774123
0.671290
0.165729
0.681291
-0.081538
-0.101184
-0.103900
0.514777
-0.315673
0.174802
0.001720
-0.491891
-0.332924
-0.475151
-0.422409
-1.062204
-1.484571
-1.612508
-1.656921
-1.241522
-1.048351
-1.359871
-1.174974
-0.140620
0.791180
1.151134
0.667207
0.310900
0.572499
0.487066
0.977011
-0.074420
-0.466236
-0.219237
-0.421897
-0.159055
0.157589
0.330785
-0.457746
0.016044
0.016206
-0.251830
-0.001890
-0.360669
-0.724631
-1.077225
-0.826726
-1.192940
-1.016036
-1.819306
-1.828578
-1.596131
-1.537730
-1.703315
-1.249555
-0.251712
0.809218
0.488802
0.809474
0.187799
0.912142
0.734166
0.256309
-0.583598
-0.636107
-0.412095
-0.572303
-0.281376
-0.642509
0.177729
-0.389796
0.117213
0.053301
-0.455739
0.042049
-0.776064
-0.116762
-1.020807
-1.016839
-1.521205
-1.717289
-1.184719
-0.952504
-1.060653
-1.243957
-1.170356
-0.495263
0.176093
0.618484
0.146693
0.573327
0.888251
0.260228
0.810047
0.097835
-0.173260
-0.222586
-0.329107
-0.231810
0.347092
0.374393
-0.561427
-0.157454
-0.226289
-0.308117
-0.291734
0.032023
-0.415825
-0.257161
-0.823460
-0.772255
-0.767673
-1.054978
-1.187500
-1.025770
-0.174682
-0.238265
0.008522
0.013609
0.510384
0.450040
0.958679
1.090562
0.412550
0.859749
0.831920
0.374657
0.477979
-0.024928
-0.420198
0.166309
-0.039490
0.552963
-0.350341
0.270150
-0.392583
-0.538028
0.081508
-0.283611
-0.782763
-0.374071
-0.886764
-0.533966
-0.723225
-0.973467
-1.036723
-1.019632
-0.660765
-0.083128
-0.014184
-0.363246
0.343571
0.435151
0.019499
0.138703
0.191539
0.545969
-0.018216
0.387924
0.427543
0.231996
-0.294069
0.031685
-0.272950
-0.703398
-0.902996
-0.099447
-0.827520
-0.447009
0.274152
0.147940
0.210912
-0.486981
-0.010922
-0.561428
-0.867568
-0.778736
0.130055
-0.082020
0.062482
0.158789
-0.130517
-0.014660
0.106904
0.651896
0.115699
0.583729
0.076939
0.126792
-0.625362
-0.654768
0.390965
-0.210837
-0.223055
0.790832
-0.391238
0.024733
-0.831491
0.175060
-0.539721
-0.145527
-0.325916
0.198857
0.150666
-0.434459
-0.019995
0.152500
0.027161
-0.279218
-0.420021
0.287553
-0.152421
-0.056912
0.123173
0.607126
1.170125
1.242258
-0.004958
0.485281
0.902513
0.237461
-0.168843
0.793627
0.889604
0.590454
0.141143
1.077711
0.151776
-0.497757
-0.519379
-0.651274
-0.458674
-0.116459
-0.081943
-0.194884
0.382791
0.413240
-0.413275
-0.518724
-0.480838
-0.204661
0.197027
0.156601
0.404043
0.389153
0.521248
1.155838
0.495186
0.559999
-0.098211
0.180954
0.892251
0.908499
0.600400
0.094325
0.695609
0.772488
0.470804
0.728469
-0.251807
-0.659275
-0.288107
-0.199018
-0.122626
0.361496
-0.252687
-0.328202
-0.125573
0.137445
0.067633
0.429613
-0.223894
0.095104
0.163171
0.308616
0.370738
0.807262
1.056827
0.853589
0.838043
0.723273
0.154780
-0.006132
0.990409
0.916653
0.864039
0.317564
0.854286
0.644337
0.561855
-0.074097
-0.264206
-0.567825
0.321507
-0.048734
0.040899
-0.171046
-0.482198
-0.066335
0.174214
0.250965
-0.129661
0.086602
0.730778
0.113544
0.180636
0.228513
-0.230866
0.891281
1.138387
0.833713
0.294323
-0.236900
0.144465
-0.182772
0.284691
0.869655
0.805057
0.806741
0.758693
0.570929
0.406402
-0.450682
-0.175460
-0.711515
0.142735
-0.020100
-0.675131
-0.165315
0.524942
-0.284719
0.362954
-0.056735
0.707962
0.168169
0.957443
0.058794
0.353642
0.808026
0.839819
0.486128
0.138485
-0.753824
-0.918237
-0.907237
-0.704925
-0.569835
0.762578
-0.038722
0.022544
0.083715
0.200405
0.570143
-0.366528
0.166024
-0.581632
-0.215931
0.178374
-0.181819
-0.437901
0.435484
0.475132
0.139135
-0.147221
0.057047
0.368335
0.217922
0.936555
0.645932
0.706732
0.749733
0.647161
0.309093
0.315751
-0.009354
-0.520509
0.041448
-0.678731
-0.537941
0.020817
0.369607
0.337359
0.036861
0.089250
0.389548
-0.401084
0.099404
-0.364173
-0.191735
-0.100313
-0.778395
-0.614823
-0.419261
0.572018
-0.052839
0.184686
0.412622
0.208055
0.111619
0.391709
0.921805
0.353510
0.720781
0.097021
-0.217796
-0.727234
-0.298185
-0.321919
-0.731372
-0.171739
0.054202
0.675574
0.368043
0.750648
0.107462
0.143843
0.333608
-0.072952
-0.508392
-0.068877
-0.612858
-0.317018
-0.466937
-0.514974
0.443061
-0.093239
0.112565
-0.119142
0.051974
0.300179
0.532235
0.780780
0.084751
0.358945
-0.217910
0.312098
0.327082
-0.569253
0.221398
0.320996
-0.918966
-0.614347
-0.739127
0.419119
0.198291
-0.076672
0.364084
0.881511
-0.818851
-0.406866
-0.948205
-0.560778
0.074597
-0.592907
0.044869
0.188176
-0.205205
-0.102504
0.530815
0.816254
0.274725
-0.159036
-0.206294
0.516951
0.702358
0.132875
-0.198071
-0.302585
0.058331
0.101912
-0.261542
-0.057704
-0.557620
-0.420289
-0.211659
0.022922
0.371817
0.436441
0.023212
0.379577
0.159394
-0.655814
-0.845754
-0.549617
0.480431
0.003687
0.030912
0.023540
-0.254898
0.314815
0.518021
0.293817
0.394544
-0.196025
0.119308
0.100369
0.506646
-0.412027
0.150434
0.119016
-0.172208
0.690246
-0.216033
-0.563366
-1.041544
-0.066545
-0.984599
-0.470432
0.385864
-0.420869
-0.102566
-0.399172
-0.336873
0.664208
0.597460
-0.095469
-0.233311
0.141135
-0.253779
-0.139489
0.374844
0.612305
0.865456
0.951653
-0.048469
0.339902
0.230023
-0.106788
0.220251
0.518417
-0.120620
0.036439
0.058572
0.335020
-0.083242
-0.774427
-0.807291
-0.871862
-0.764813
-0.624304
-1.046052
-0.593450
-0.046270
0.230625
-0.520864
-0.336821
0.054513
0.736510
0.730500
-0.407611
-0.666266
0.051069
-0.073575
0.051928
0.354856
0.998012
0.345217
0.504909
0.121129
0.599340
-0.085865
-0.181163
0.105018
0.564091
0.661116
0.548528
0.073385
-0.847744
-0.406145
-0.504280
-0.796956
-0.729090
-0.494909
-0.071803
0.156401
-0.156920
-0.684497
0.352260
0.071488
-0.207896
0.284561
-0.533903
-0.279439
-0.416413
-0.261474
-0.099937
0.775562
0.180072
0.376533
0.260035
-0.823913
0.065837
0.308155
-0.218556
0.527810
0.324127
0.974987
1.039615
1.167270
0.292294
-0.540886
-0.658115
-0.340075
-0.116750
0.609542
0.290804
-0.006007
0.605204
-0.134623
0.612565
0.106298
0.271546
0.517137
0.065694
-0.328772
0.280215
-0.255194
0.751434
0.599854
0.399451
0.701964
0.214383
-0.080697
-0.372370
-0.046426
0.300449
0.200291
0.328529
0.950248
0.575584
0.954101
0.003309
-0.265355
0.201726
-0.181475
-0.583247
0.862461
0.287686
0.204444
0.165357
0.193837
0.258010
0.455815
0.833954
0.473558
-0.420013
-0.335302
0.383253
-0.124412
0.314182
0.223418
0.737004
0.011322
0.496546
-0.222376
-0.017023
0.445593
-0.139389
-0.300579
0.073540
-0.025692
0.093615
0.262570
-0.114019
0.443578
-0.098375
0.562553
-0.451422
0.415923
0.571761
0.608322
0.401642
0.122975
0.427386
0.469185
1.400038
0.283693
0.238023
-0.100142
0.029254
-0.200275
0.771588
0.809720
0.078577
-0.049144
0.396112
-0.595337
-0.593536
-0.603890
0.211226
-0.316495
0.328777
-0.166670
0.423796
0.269974
0.234327
0.287949
0.233956
-0.014168
0.257571
0.195097
0.262949
-0.136885
0.525201
0.911653
0.765441
0.802769
1.088844
0.550940
0.361667
-0.533145
-0.092512
-0.345009
-0.198477
0.514268
0.633864
0.753329
-0.195344
-0.043743
-0.250581
-0.446335
-0.428625
-0.380087
-0.147415
0.030633
-0.022623
0.005695
0.346953
0.084940
0.015210
-0.352886
-1.223622
-0.742062
-0.131393
0.350319
0.317065
0.000147
0.245628
0.254172
1.083786
0.360903
-0.100626
0.093744
-0.140274
-0.216671
0.413927
0.661289
-0.253821
-0.316643
0.473114
-0.289828
-0.363559
-0.651925
-0.016107
-0.527433
-0.319158
-0.451614
-0.355476
-0.681505
-0.451062
0.075553
-0.211715
-0.249074
-1.133811
-0.432934
-0.433068
0.044592
-0.058098
-0.135524
0.090444
0.134472
0.612617
0.473388
0.633527
0.317424
-0.038773
0.291012
0.672277
0.383591
-0.004448
0.523149
0.177332
-0.123660
-0.025603
-0.291411
-0.142338
-1.060351
-0.215307
-0.212373
0.039865
-0.178895
0.091222
-0.097357
0.064645
-0.258443
-1.300792
-1.343050
-1.030579
-0.721154
0.276287
0.363250
0.263009
0.589158
1.120816
0.280033
0.036180
-0.063751
0.591299
0.432699
0.205316
-0.182103
0.298920
0.021673
-0.145644
-0.322284
-0.529246
-0.364803
-0.201685
-0.601968
-0.683256
-0.328586
-0.089611
-0.594736
-0.587613
0.206068
-0.724671
-1.030737
-0.832807
-0.951658
-0.946857
-0.608054
-0.097188
0.034340
-0.017375
0.611910
0.702442
1.001026
0.111507
0.913529
0.179998
0.304490
-0.326500
0.267721
0.053101
0.541558
0.321880
-0.027808
-1.065798
-0.384576
-0.492921
-0.649662
-0.794230
-0.551051
-0.952885
-0.474233
0.372783
-0.171907
-0.580173
-0.901430
-0.305751
-1.045385
-0.238753
-0.036090
0.504108
0.003858
-0.124428
0.499937
0.423987
0.594999
0.750824
0.835910
-0.180482
0.430819
-0.167946
-0.115774
0.545880
0.030372
-0.121477
-0.940049
-0.892786
-0.401830
-0.672206
-0.551455
-0.325557
-0.477802
-0.920577
-0.359228
-0.744531
0.079704
-0.329233
-1.013749
-0.643750
-0.593875
-0.216012
-0.128111
0.196997
0.263752
-0.303925
0.362174
0.624240
0.784751
0.050592
0.337381
0.679923
0.136623
-0.058109
0.588510
0.502411
-0.076480
-0.730032
-0.586777
-0.793211
0.079618
-0.604389
-0.470294
-0.717442
-0.219828
-0.560816
-0.703320
0.067193
-0.211417
-0.524250
-0.469630
-0.082819
-0.714546
-0.464119
-0.667996
0.117637
-0.785215
-0.752915
-0.570435
-0.566329
0.848589
0.870144
0.861172
0.154252
-0.265254
-0.291964
-0.170468
0.392415
-0.351359
-0.797718
-0.528589
-1.283631
-1.222039
-0.532348
-0.592605
-0.897012
-0.286045
-0.334539
0.479327
0.139294
-0.393830
0.006843
-0.112040
0.112456
-0.625809
-0.437388
-0.666428
0.053291
-0.045037
0.446635
0.230329
0.129682
0.067342
0.800187
0.144719
-0.104390
-0.071728
0.160407
-0.282597
-0.264323
-0.627000
-0.650811
-1.282659
-1.739763
-1.368860
-0.521600
-0.017816
-0.991496
-0.558241
-0.022311
0.662571
-0.254800
-0.037984
-0.075351
-0.042701
-0.421503
-0.257719
-0.052382
-0.001350
-0.983678
-0.595402
-0.631996
-0.095831
0.417725
0.290929
0.448391
0.105705
0.172237
-0.358096
0.166314
-0.267435
0.050979
-0.912791
-0.505466
-1.082084
-0.741549
-1.630176
-0.838113
-0.304512
-0.757504
-0.070627
0.358925
-0.073740
0.031321
-0.179119
-0.093598
-0.246448
-0.230298
0.376529
0.402903
0.596893
-0.424500
-0.117549
-0.556250
-0.648002
-0.514494
0.064106
-0.163487
-0.037344
0.320452
0.453884
0.367647
0.111482
-0.177586
-0.158840
0.132632
-0.291982
0.058445
-0.451933
0.523587
0.393150
0.118263
0.424752
0.694485
0.622606
0.747517
0.126475
0.919722
0.844965
0.146856
-0.132723
0.301203
-0.397181
-0.553910
-0.200425
0.144520
-0.937926
-1.049013
-0.456669
-0.102864
-0.067047
-0.294929
0.194857
-0.294011
0.171474
-0.159649
-0.241900
-0.298088
-0.150363
-0.612231
-0.244519
0.143799
0.153515
0.458717
-0.202414
0.340252
-0.059185
0.752010
-0.145451
-0.029879
0.511924
0.376440
0.222743
0.558104
-0.445273
-0.920384
-0.011136
-0.336432
-1.096533
-0.945917
-0.929114
-0.411800
-0.403285
0.028371
-0.403106
-0.650678
-0.516665
0.169034
-0.149954
0.117557
-0.179559
-0.170280
-0.706282
-0.722432
0.152769
0.071600
0.350658
-0.568992
0.669189
0.656737
0.472182
0.327499
-0.036845
-0.023844
-0.125916
0.290211
-0.554570
0.056230
-0.522370
-0.719125
-0.476918
-0.695527
-0.225696
-0.533039
-0.388403
-0.890929
-0.155722
-0.137629
-0.756232
-0.031143
-0.085000
0.051495
-0.648637
-0.910705
-0.068748
0.205828
-0.419981
-0.088968
0.144704
0.633818
0.793521
0.150744
-0.107577
0.244895
0.036446
-0.244182
-0.176330
-0.058133
-0.045615
0.269210
-0.381678
-0.563679
0.038269
-0.777609
-0.519890
-0.135934
-0.198565
-0.059510
-0.741413
-0.739529
-0.322713
-0.058493
-0.990690
-0.460994
-0.664227
-0.091189
-0.562243
0.086893
0.300727
-0.026260
-0.150866
0.706614
0.437737
-0.403246
-0.193591
-0.501351
-0.163526
-0.044680
-0.605353
-0.252215
-0.318948
0.054958
0.279165
0.051622
0.203619
0.088929
-0.104433
0.306464
-0.181402
-0.699142
0.098965
-0.176009
-0.052267
-0.413184
-0.548343
-0.783620
-0.650425
-0.091007
-0.371791
-0.046179
-0.276142
0.613038
0.303197
-0.255907
0.474279
-0.030870
-0.763380
-0.365120
-0.609138
-0.414773
-0.425902
-0.385002
0.531079
0.746979
0.504677
0.279269
0.783682
0.315502
0.423328
0.126577
-0.444122
-0.441212
0.026232
-0.035852
-0.286808
-0.263795
-0.129848
-0.187024
-0.694249
-0.523959
0.089058
0.751848
0.358529
0.311800
0.578828
0.360330
-0.274946
-0.185031
-0.605021
-0.904867
-0.790067
-0.347674
-0.325356
-0.073828
0.346081
0.545666
0.414555
0.870866
0.959121
0.722904
0.356173
-0.197186
0.270382
-0.015007
-0.483048
-0.222723
0.212334
-0.735724
-0.508286
-0.191500
-0.568712
0.451624
-0.164331
0.609742
0.327759
0.430182
0.040387
-0.331226
-0.976723
-0.633772
-1.180446
-0.819546
-0.875516
-0.346839
-0.692245
-0.669705
0.510370
0.788669
0.290057
0.649871
0.586887
0.588679
0.731421
0.845533
-0.125627
0.517951
0.388387
0.120871
-0.273316
0.187107
0.106218
-0.402324
-0.054997
0.187879
-0.034955
0.450987
0.594923
0.379375
-0.286174
-0.344071
-0.786240
-0.858036
-0.614189
-0.423602
-0.611401
-1.351655
-0.480031
-0.332788
0.605668
0.378549
0.954846
0.744720
1.130363
0.428099
0.801175
0.637270
0.569896
0.373630
0.237136
-0.246899
-0.663625
0.217871
-0.093802
-0.412199
-0.383520
0.245444
0.360886
0.334841
0.031614
-0.320549
0.312544
-0.608418
-0.611728
-0.481447
-1.180951
-0.714939
-0.598475
-1.435495
-0.528471
-0.279564
0.285610
0.713476
0.247608
0.680586
0.376707
0.612912
0.410685
0.688711
0.115183
-0.182946
0.102923
0.148873
-0.108930
0.008422
0.052302
-0.472390
-0.009957
0.283585
-0.041453
0.275887
0.139889
0.043935
-0.654977
-0.635707
-0.092625
-0.363679
-0.721492
-0.744391
-0.488861
-1.206235
-0.522221
-0.610719
0.839596
0.586735
0.719817
0.595627
1.046768
0.511978
0.686105
0.076391
-0.183455
0.272010
-0.078848
-0.226363
-0.021315
0.577956
-0.034226
0.265745
-0.246248
0.412480
0.015461
-0.334737
-0.480763
-0.245751
0.209478
-0.584589
-0.539528
-0.815512
-0.284819
-0.719244
-0.513945
-0.841725
-0.636845
0.030456
0.374288
0.097408
0.830012
0.359358
0.340218
0.338557
0.364710
0.236264
0.219439
0.281551
0.727939
0.646449
-0.613485
0.097666
0.096490
0.369041
0.118339
-0.068762
-0.327789
0.399978
-0.095219
-0.041070
0.053685
-0.425532
-0.239963
-0.623605
-1.400100
-0.423622
-0.637841
-0.102744
-0.148828
0.195901
0.579756
0.584223
0.152942
0.583821
0.128649
0.089452
-0.021125
0.841023
0.648324
0.477818
-0.131069
0.576138
-0.369864
-0.451162
0.180933
0.132776
-0.057107
0.320044
-0.447234
-0.679340
-0.778404
-0.095476
-0.039743
-1.083697
-0.311863
-1.178640
-1.312963
-1.082902
-0.566979
-0.187159
0.042301
-0.122490
0.351422
0.378115
0.184390
-0.119888
-0.205424
-0.463651
0.327582
0.564223
0.047204
0.469353
-0.002824
0.009215
-0.417120
-0.199751
0.218346
0.492801
0.330307
0.404655
-0.066300
-0.603717
-0.457823
-0.196670
-0.598813
-1.130679
-0.999612
-0.551199
-0.943021
-0.638708
-1.031011
0.104835
-0.062967
0.225867
-0.008274
0.291882
-0.137400
-0.079713
0.058725
-0.007121
-0.400241
0.266537
0.621713
-0.021388
0.005466
0.482594
0.094857
-0.090047
-0.143721
0.244744
-0.146750
-0.069095
-0.653479
-0.480827
-0.835034
-0.289214
-0.997328
-0.808293
-0.861027
-0.505512
-0.631105
-0.445201
-0.601791
-0.321066
-0.281911
0.034389
-0.349167
-0.005941
-0.882646
-0.438669
-0.207139
-0.196156
0.238878
0.421810
-0.106816
0.061730
0.163431
-0.384770
0.142600
-0.174838
0.035378
-0.188208
0.131755
-0.058082
-0.818059
0.000803
-0.502122
-0.712410
-0.183068
-0.763484
-0.513067
0.096366
-0.566425
-0.356161
-0.336437
0.654761
0.117529
0.282678
0.368055
-0.011002
-0.635713
-0.123593
-0.550290
-0.897102
0.195997
0.341041
-0.018171
0.474448
0.281710
0.158795
0.323732
0.047869
-0.112208
-0.252996
0.104667
-0.385984
0.006021
-0.750171
-0.441226
-0.277318
0.025825
-0.621660
-0.179150
0.122518
-0.597021
-0.114050
0.654471
0.436217
0.347402
0.132265
-0.463659
-0.787901
-0.863168
-0.167966
-0.482028
-0.864846
0.238767
0.111648
-0.420069
0.441991
0.296993
-0.100130
0.081183
0.573757
-0.399663
0.205264
-0.082603
-0.562428
-0.792489
-0.297090
-0.383795
-0.460229
-0.584874
-0.297987
0.261775
-0.229416
0.248710
0.174296
0.839197
0.941702
0.217297
0.430826
0.210710
-0.462195
-0.129391
-0.549867
-0.464829
-0.295660
-0.167867
-0.000823
0.059646
0.527868
-0.164086
-0.018013
-0.350305
-0.096697
-0.237390
-0.129196
-0.541229
0.073708
0.009735
-0.383896
-0.385253
-0.031363
-0.318080
-0.417710
0.222807
-0.326388
0.237420
-0.171771
-0.031856
0.366116
0.411398
0.474783
-0.689554
-0.109163
-0.869413
-0.424229
-0.631733
-0.497362
-0.175696
0.546563
0.174888
-0.180362
0.409775
-0.013662
0.278157
0.013689
-0.561921
-0.235168
-0.527415
-0.074425
0.161247
-0.215469
-0.253504
-0.129149
0.292450
0.348903
0.183582
-0.080755
-0.088011
0.269855
0.210592
0.573748
-0.086372
-0.248402
-0.617300
-0.776009
-0.857671
-0.148544
-0.490502
-0.074555
0.333701
0.483747
0.198357
0.580830
0.374275
-0.181595
0.251369
0.467823
-0.257475
0.402717
-0.372047
-0.055156
0.261068
-0.565850
-0.230155
-0.364890
0.134195
-0.252611
-0.200803
0.115685
0.301054
0.470418
0.097382
-0.237608
-0.143952
-0.246162
-0.395357
-0.160221
-0.172058
0.488768
0.360198
0.418999
0.033015
0.198275
0.292742
-0.047235
0.179222
0.049045
0.111800
0.063382
-0.010700
0.125522
0.147527
0.422886
0.117997
-0.219569
0.396272
0.142348
-0.149154
0.502801
0.385151
0.270941
-0.058171
0.926824
-0.249132
0.181595
0.398111
-0.100892
-0.672827
-0.890089
-0.747550
0.420457
0.431460
0.038268
-0.119055
-0.065384
-0.174929
-0.058550
-0.448376
0.166054
-0.161240
0.293271
-0.644668
-0.336121
0.474896
-0.195581
-0.028394
-0.168376
0.212672
-0.230485
0.238556
-0.008595
0.553536
-0.080363
0.222658
0.445697
-0.418710
0.029504
0.854221
0.342844
-0.560442
-0.030303
-0.246382
0.301372
-0.403552
-0.251486
-0.391905
0.165220
-0.110258
-0.167954
-0.061513
0.252841
0.202024
-0.002755
0.046394
-0.653975
0.328611
-0.335972
-0.515392
0.182113
-0.082811
0.280630
0.192272
0.423482
0.999040
0.447011
0.586918
0.538287
-0.081884
0.981849
0.909586
0.627336
-0.096378
-0.381815
-0.300204
0.128361
-0.410583
0.021259
0.114541
-0.134454
-0.495769
0.153706
-0.001837
-0.008604
-0.591628
-0.254038
0.047728
-0.156089
0.370099
0.268015
0.013073
-0.033886
0.011432
-0.050208
0.625168
0.290901
0.373081
0.705649
0.007178
0.507962
0.056724
0.882532
1.123287
0.514576
0.305344
0.360455
0.153154
0.404681
-0.328297
-0.710400
0.083324
-0.303228
-0.137176
-0.563039
0.215588
-0.618498
-0.589248
0.209407
-0.171120
-0.494105
0.320109
0.065630
0.585253
0.552455
-0.102689
0.514065
0.701146
0.748906
0.778320
0.425143
0.249299
0.896553
1.017922
0.815772
1.351315
0.663186
1.156232
0.064240
-0.021370
0.482060
-0.403691
-0.359638
-0.319625
0.204964
-0.222860
-0.067943
0.091137
0.127708
0.030194
0.117879
-0.639716
-0.034410
0.113000
-0.036695
-0.307167
0.469381
0.498971
0.181433
0.670234
0.512973
-0.032366
0.334090
0.376603
0.327347
0.982941
0.574052
0.792024
0.536895
0.269503
0.418016
0.047695
0.148208
-0.339616
-0.514769
-0.133448
0.056987
-0.250198
0.087581
-0.252965
-0.541257
-0.755843
-0.352725
-0.770103
-0.241386
0.091159
-0.462914
-0.760085
-0.207352
-0.219125
-0.093674
0.469791
0.391431
0.185195
0.511026
0.150969
-0.021552
0.493920
0.768424
0.798511
0.039821
0.906021
0.159354
0.190393
-0.469972
0.123660
-0.715559
-0.008438
-0.056204
0.153767
-0.393207
-0.094754
0.228064
0.033023
-0.308374
-0.519660
-0.660784
-0.640750
0.150999
0.013186
0.126417
0.486260
0.925061
0.321456
0.244531
0.670377
0.895378
0.674441
0.611408
0.393540
0.481286
0.422446
0.127686
-0.178303
-0.098615
-0.213340
-0.433047
-0.404585
-0.448771
-0.403221
-0.344270
-0.599569
-0.432831
-0.241906
0.104351
-0.420809
-0.442890
0.044341
-0.097326
0.067732
0.126026
-0.664043
-0.095695
-0.209761
0.196818
0.248501
0.217214
0.060440
0.452400
0.068480
0.402434
0.157982
0.891542
0.473999
0.333605
0.057543
0.127435
0.286806
0.114159
-0.286015
-0.428267
-1.077438
-0.511632
0.069362
-0.505505
-0.162452
-0.154705
0.147507
0.348914
-0.271324
-0.472474
0.048959
-0.463151
-0.474521
-0.216667
0.039590
0.952342
0.764119
0.931126
0.900711
0.476064
0.997882
0.073237
0.551803
0.247957
-0.013111
-0.501577
-0.053521
-0.684010
-0.534947
0.313096
-0.762727
-0.768630
-0.024836
-0.621613
-0.057719
0.085668
-0.248103
0.419049
-0.317241
-0.040860
0.467724
0.212021
0.104186
0.006330
0.271712
-0.066114
-0.362701
0.449537
-0.351161
-0.129212
-0.554512
-0.678560
-0.744351
-0.110156
-0.509557
-0.180056
-0.744270
0.152832
-0.456083
0.337600
0.649094
0.351117
0.032692
0.287399
0.584341
-0.017918
0.464644
-0.148676
0.115083
-0.332260
0.065932
0.426550
-0.358985
-0.022697
0.155928
0.092224
0.420388
0.223334
0.272356
-0.399448
0.052934
-0.712336
-0.846682
-1.048461
-0.315896
-0.492401
-0.289958
-0.653400
-0.297441
-0.556773
-0.298934
0.102417
0.538123
0.323922
0.060035
0.665986
0.553613
0.251385
0.683345
-0.047101
-0.215045
0.435710
-0.248280
0.422706
0.404927
-0.285621
-0.260997
-0.347906
-0.336908
-0.122708
-0.536283
-0.172194
-0.693187
-1.055685
-0.628153
-0.434136
-0.358613
-0.044483
-0.455741
0.046416
-0.216741
0.108399
-0.670293
-0.174135
0.349657
0.451530
0.133267
0.546555
-0.043863
0.159776
0.378735
-0.047810
-0.289823
0.387855
-0.326478
-0.260973
-0.214016
0.303530
0.056702
0.747909
-0.112550
0.145997
-0.035344
-0.579676
-0.722745
-1.021725
-0.284353
-0.168686
-0.571898
-0.118225
-0.353035
-0.375233
0.117793
-0.461370
0.180523
-0.459573
0.512078
0.054884
0.376554
0.519483
0.676166
-0.077207
1.039122
0.068172
0.437080
-0.090599
0.238622
0.553517
0.152787
0.412278
-0.230507
0.598651
0.396116
0.079414
-0.407214
-0.341194
-0.553441
-0.038384
-0.693503
-0.466706
0.261456
0.231208
-0.250883
-0.089184
-0.082359
-0.632246
-0.232941
-0.410769
-0.241358
-0.528464
-0.279172
-0.068470
0.714890
-0.155661
-0.200655
0.315373
-0.032520
-0.436914
0.027465
0.413873
-0.339038
-0.132870
0.663485
0.020329
-0.028962
0.161317
-0.171497
0.025146
-0.016863
-0.383506
-0.511126
-0.684742
0.434286
-0.357080
-0.368585
0.081130
-0.318774
-0.555236
0.156172
-0.638084
-0.631766
-0.210225
0.109723
-0.155018
0.368402
0.524874
0.318271
-0.035255
-0.243162
0.511265
0.647112
-0.038842
-0.023748
0.247762
-0.394066
-0.231034
-0.396564
-0.314352
-0.100768
-0.653587
-0.017104
0.026973
-0.109233
-0.114116
-0.384228
-0.409786
0.142613
0.297664
-0.486639
0.038670
0.014447
-0.503993
-0.183277
-0.398934
-0.448576
0.180684
0.557442
0.403355
-0.515870
-0.379925
-0.223920
-0.091290
0.150113
0.211450
-0.285289
-0.448164
0.145889
-0.383685
-0.073867
-0.000731
-0.314966
-0.488213
-0.556165
-0.165487
-0.086713
-0.257671
-0.122557
-0.431631
-0.636825
0.072301
-0.126835
-0.097526
-0.556741
-0.568430
-0.585349
0.065147
-0.616963
-0.045553
-0.287173
0.144800
-0.231481
-0.216029
-0.252445
0.331825
-0.177639
-0.611494
-0.138869
0.180475
0.264689
-0.447771
-0.031775
-0.597980
-0.600747
-0.120341
-0.391134
-0.067448
-0.452434
-0.164062
0.091433
-0.110714
-0.394162
-0.516155
0.247919
-0.133028
-0.464340
0.109542
0.021587
-0.603749
-0.171031
-0.549766
-0.351693
-0.208963
0.170557
0.088305
0.170018
-0.419738
-0.650396
-0.429207
-0.679081
-0.153590
-0.211441
-0.161008
-0.060090
-0.503235
0.042101
-0.575419
-0.725658
-0.784008
0.313919
-0.426274
-0.564350
-0.481150
-0.526058
0.157820
-0.016528
-0.429502
0.060565
0.227661
-0.187199
-0.510369
0.230878
-0.139399
-0.146740
0.096784
0.066371
0.026458
-0.061645
-0.326573
0.064991
0.364110
-0.264715
-0.429995
-0.384661
-0.281279
0.065338
-0.625628
-0.083736
-0.293025
-0.460036
-0.786115
-0.182687
0.060926
-0.364944
-0.397289
-0.772484
0.052026
-0.388269
-0.381175
-0.565942
-0.154257
0.031899
-0.163192
0.122006
-0.127605
-0.048416
-0.148464
0.391350
0.157426
-0.528390
0.148371
-0.582435
-0.167063
0.040429
0.049365
-0.326745
0.232887
-0.196223
-0.540533
-0.382593
-0.731094
-0.549519
-0.163660
-0.154793
-0.206144
-0.718411
-0.356310
0.014784
-0.412755
-0.641528
-0.462668
-0.566426
0.236373
-0.572968
-0.354744
-0.771373
-0.230016
-0.419212
-0.078033
-0.004172
-0.029665
-0.180431
-0.736791
0.355363
-0.171335
-0.551392
-0.317244
0.139416
-0.559576
-0.570724
-0.191060
-0.533580
0.110054
-0.053681
0.050049
0.169993
-0.612739
0.017933
-0.313472
-0.080958
0.314572
0.563634
0.351036
0.374869
0.472037
0.033893
-0.445312
0.272471
-0.208462
-0.283869
0.160641
-0.674157
-0.331924
0.037045
-0.062983
-0.304477
-0.058816
0.319614
-0.394976
-0.079377
0.268610
-0.017459
0.039018
-0.076331
0.559159
-0.263506
0.151270
0.282628
0.301037
0.161558
-0.566704
-0.339141
-0.270892
-0.382395
-0.629938
-0.453074
-0.110204
0.281935
0.705586
0.302763
0.107127
0.464035
-0.402264
0.072384
0.341880
-0.618630
-0.496833
0.276870
-0.285557
-0.608451
-0.124418
-0.542550
-0.046127
0.186832
0.654014
-0.106044
0.492236
-0.144506
-0.287605
0.338892
-0.388444
-0.632787
-0.437721
-0.270464
-0.797022
-0.144379
0.160324
-0.249197
-0.056805
-0.108505
-0.087355
0.338019
0.106777
0.676611
-0.108809
-0.805189
-0.129546
0.057999
-0.363283
0.020596
-0.609150
-0.422263
0.089792
-0.348015
-0.326202
-0.356489
0.336990
-0.037201
0.645668
0.652389
0.252327
-0.232396
0.155094
-0.114882
-0.664880
-0.295085
-0.812001
-0.151056
-0.156052
-0.007620
-0.019951
0.713609
0.622533
-0.148755
0.109861
-0.290925
-0.331140
-0.626826
-0.046935
0.075574
-0.329723
-0.223985
-0.015953
-0.292543
0.145313
-0.382122
-0.076509
0.545482
0.781269
0.546525
0.586447
-0.150352
0.347381
-0.214294
-0.202226
-0.668496
-0.525777
0.020617
-0.684317
-0.752062
0.052865
-0.254720
-0.299626
0.292115
0.550293
0.201729
0.518994
0.339296
-0.307504
-0.744793
-0.338600
-0.784803
-0.140386
-0.491644
-0.532715
-0.377034
-0.333057
0.043997
0.374287
0.450948
0.793036
0.164304
0.143473
-0.248816
0.195155
-0.256900
-0.641156
-0.654858
-0.669823
-0.922934
-0.967679
-0.277799
0.108077
0.250585
-0.031795
0.371387
0.038139
0.015146
0.457172
-0.175348
-0.588774
-0.644656
-0.313206
-0.739917
-0.230525
0.171850
0.124054
-0.629262
-0.537274
-0.275857
0.759348
-0.035297
0.344732
0.003428
0.163829
0.438750
0.380911
0.135117
-0.197874
-0.686232
-0.050625
-0.544756
-1.029329
-1.234989
-0.406187
0.051065
-0.583078
0.178531
-0.358321
-0.550952
-0.403544
-0.422497
-0.720395
-0.445097
-0.359646
-0.590085
0.036423
0.098658
0.325962
0.379108
-0.141240
0.591475
0.408988
0.191290
0.806033
-0.189262
0.475472
0.740110
-0.293993
0.197626
0.175682
-0.021936
-0.740509
-0.969668
-0.953837
-1.200047
-0.165071
-0.417281
-0.521337
0.057516
-0.376746
0.119645
-0.358428
0.146238
-0.227236
0.171666
0.009268
-0.207174
-0.675065
0.272873
0.434561
0.439882
0.379337
0.296980
-0.196399
0.486209
0.188897
0.226113
0.308648
0.046392
-0.378801
0.339446
-0.626622
-0.595302
-1.096833
-0.706117
-0.962959
-0.203904
-0.694351
0.289994
0.394019
0.063381
-0.488007
-0.651182
-0.336706
-0.371044
-0.781724
0.060929
-0.620469
0.158772
0.394261
-0.304704
-0.343959
0.459864
-0.406791
0.350334
0.012593
0.157782
0.290658
-0.300624
0.270350
-0.107246
-0.358096
-0.164157
0.063253
-0.670465
-0.793498
-0.338320
-0.303812
-0.332335
-0.788073
0.091624
0.699203
0.211022
0.030367
-0.435045
0.207357
0.154729
-0.790042
-0.202146
-0.144085
0.193178
0.185163
-0.148244
-0.083450
0.464597
0.162813
0.625831
0.247449
0.130753
-0.205765
-0.411465
0.521484
-0.057297
0.046717
0.148425
-0.286676
-0.285812
-0.301383
-0.487509
-0.717891
-0.585825
0.070714
-0.019364
-0.153846
-0.402588
-0.543150
-0.814119
0.101010
-0.191737
-0.735513
0.217618
-0.298468
-0.285994
0.150610
0.373382
-0.031690
0.086209
0.473940
0.646896
0.050723
-0.083805
0.055307
-0.062762
-0.030402
-0.096015
0.465561
0.319998
0.162386
-0.074902
-0.441065
-0.624380
-0.333196
0.321338
0.275691
-0.148275
0.144811
-0.221749
-0.035586
-0.640713
-0.648014
0.110934
-0.248963
-0.448137
-0.361235
-0.514751
-0.056979
0.062577
0.319693
0.511982
0.027281
0.687946
0.307098
-0.501625
-0.115289
-0.442530
-0.615130
-0.481198
0.128843
0.050996
-0.109851
-0.211149
0.358666
0.430635
-0.192038
0.674556
0.655498
0.378375
-0.451075
-0.502492
-0.297607
-0.328265
-0.449629
0.247523
-0.706535
-0.386727
-0.133819
0.039588
0.072012
-0.307001
0.146294
0.364835
0.515093
0.103866
-0.074874
0.058011
-0.138337
0.125044
-0.613942
-0.010764
0.433275
-0.016291
0.804789
0.054023
0.696656
-0.299368
-0.033844
0.384775
-0.078782
0.203702
-0.093668
-0.472692
0.228900
-0.455837
0.129645
-0.583364
0.251632
0.233949
0.405028
-0.402708
0.437853
-0.521180
-0.256898
-0.063149
0.044558
0.373287
-0.009056
-0.355945
-0.915979
-0.663226
0.008333
-0.407227
-0.115715
-0.114875
0.698186
0.108651
-0.004461
0.389973
-0.022541
0.634599
0.266620
-0.108737
0.175818
-0.358308
0.425788
-0.586626
-0.762086
0.192927
-0.445374
0.324354
-0.144767
-0.336179
0.408185
-0.221018
-0.226028
-0.429407
-0.120233
-0.564276
0.104271
-0.097467
-0.445300
-0.076499
-0.803959
-0.256529
-0.070851
0.140384
-0.123192
-0.120500
0.200337
-0.029706
0.447078
0.611134
0.120477
0.271165
-0.580690
0.183691
0.071105
-0.608629
-0.339157
0.494713
-0.051921
0.138624
0.476891
-0.416541
0.250220
-0.413112
-0.412347
0.244741
-0.176180
0.165736
-0.266131
-0.636349
-0.860628
-0.829391
-0.863206
-0.843681
-0.499605
-0.119412
0.015544
-0.232700
-0.106217
-0.033627
-0.047170
-0.121330
0.134417
0.400341
-0.116949
-0.349816
0.069654
0.185652
-0.583975
0.207750
0.417991
0.482268
0.013495
-0.056138
-0.304780
0.281160
-0.017206
0.013686
-0.180823
-0.298658
-0.440175
-0.196100
-0.817621
-0.284706
-1.175707
-0.469400
-0.386480
-0.672102
-0.741911
-0.630039
-0.197773
0.383756
-0.628100
-0.168267
0.106684
0.069474
0.557226
0.382968
0.252465
0.526150
0.228496
0.082791
0.554950
0.328670
0.045450
-0.174067
0.396953
-0.365762
0.113148
0.226141
-0.584846
-0.486840
-0.401646
-0.681988
-0.930845
-0.982353
-0.253142
-0.682774
-0.491011
-0.490911
-0.179508
-0.096282
-0.517955
-0.691544
-0.263886
-0.020309
0.059339
-0.341489
-0.123259
0.341372
0.425496
0.674181
0.866037
0.549987
0.065462
0.558002
0.370657
-0.326273
0.101037
-0.069573
-0.411806
-0.482610
-0.707349
-0.360356
-0.087962
-0.555971
-0.528582
-0.263067
-0.372139
0.016091
-0.215407
-0.121260
-0.522733
-0.146059
0.097003
-0.584608
-0.227628
0.303736
0.329827
-0.266362
0.652285
0.688809
1.254828
0.243078
1.014769
0.030576
0.302441
0.337798
-0.243194
-0.055276
0.411762
0.181424
-0.164701
-0.366338
0.194631
-0.021112
-0.405510
0.320884
-0.362711
-0.039907
0.382220
0.828240
0.774367
0.511326
0.186692
-0.113546
0.066565
-0.990090
-1.022220
-0.293952
-0.672572
-0.372009
-0.352342
-0.532159
-0.999200
-0.471541
-0.708691
0.260294
-0.423452
-0.452756
0.418806
-0.242475
0.759338
-0.134584
-0.308557
-0.038060
-0.136199
-0.243701
0.097052
0.001759
0.092347
0.226760
0.333504
0.436719
0.335262
0.647872
0.215488
-0.560284
-0.018688
-0.916959
-0.705935
-1.084307
-0.264533
-0.900111
-0.262146
-0.467806
-0.549682
-0.609172
-0.409964
0.113936
-0.028804
-0.291801
0.213961
0.702253
0.642755
0.194698
0.652001
-0.231292
0.369212
-0.051686
-0.228506
0.434362
0.514583
0.013142
-0.142066
0.255013
0.584819
0.626980
-0.459901
-0.333094
-0.355677
-0.728540
-1.184072
-1.052321
-0.854810
-0.696569
-0.910417
-0.348293
-0.803473
-0.672018
-0.516235
-0.423364
-0.219752
-0.551525
0.267608
-0.164557
0.196179
0.291649
0.213532
0.522742
0.331908
0.096664
0.098921
0.252027
0.482728
0.287785
-0.238265
-0.238984
0.551744
0.106615
0.511362
-0.197292
-0.820891
-0.645435
-0.791750
-0.878000
-1.153665
-1.184218
-0.572177
-0.534310
-0.188146
-0.436463
-0.605418
-0.153033
-0.259945
-0.433613
0.225897
0.698287
0.009334
-0.061279
-0.076338
-0.347230
-0.137807
0.153475
0.190225
-0.089129
-0.034565
0.074931
-0.126985
0.273778
-0.403852
-0.579817
-0.596428
0.012832
-0.234677
-0.332116
-1.353425
-1.009055
-1.368117
-0.944176
-0.433861
-0.288989
-0.433030
-0.569942
-0.697110
-0.231581
0.021874
-0.011365
0.386648
0.217175
0.780337
0.084222
0.479697
-0.429988
0.392680
0.478358
0.199645
-0.403437
-0.252505
-0.198130
-0.407619
-0.144853
0.091541
0.213447
0.099206
-0.351980
-0.755055
-0.705278
-0.869613
-1.243266
-0.819146
-1.302204
-0.798630
-0.173490
-0.361378
-0.528594
0.074309
-0.184013
-0.257007
-0.122582
-0.097509
0.385261
-0.237692
0.415743
0.421792
0.145465
-0.458848
-0.213280
0.082703
-0.324665
-0.003242
0.109254
0.017485
-0.215015
-0.473476
0.206601
-0.181119
-0.519390
-0.083940
-0.799801
-0.025833
-0.937598
-0.950959
-1.288112
-0.658274
0.084064
-0.378161
-0.816676
-0.542795
0.461774
-0.683636
0.089283
-0.187768
0.860460
-0.303375
0.115481
0.683295
0.090645
-0.429263
-0.139143
-0.328021
0.196533
-0.180973
0.099766
-0.458323
-0.410861
-0.512598
-0.200675
-0.393039
0.150016
0.295925
-0.886985
-1.065459
-1.117125
-1.065508
-1.386887
0.086301
-0.368240
-0.154777
-0.022169
-0.004225
0.126642
0.092425
-0.100659
0.156153
0.081365
-0.111470
-0.020727
-0.154233
0.359426
-0.015730
-0.312480
0.116161
-0.292997
0.116727
-0.102203
-0.358846
-0.029744
-0.335177
0.277113
0.486738
0.137710
0.306054
-0.927724
-1.122818
-0.827827
-0.202117
-0.779093
0.057966
-0.462900
-0.042734
-0.915692
0.048455
0.701261
-0.271142
-0.576688
0.411181
-0.146224
-0.342249
-0.363456
0.419877
-0.322124
-0.428419
-0.253513
-0.432756
0.188313
0.209041
-0.446020
-0.443925
0.174518
-0.052951
-0.264551
0.292759
-0.024682
-0.299464
-0.868827
-0.274550
-0.433122
-1.194187
-0.243499
-0.342831
-0.437643
-0.532348
-0.518073
-0.507495
-0.009939
0.075292
-0.160102
0.457184
-0.278809
0.031767
-0.383394
-0.340421
-0.322938
-0.478482
0.082034
-0.176731
-0.306752
0.057751
-0.035885
0.183247
-0.014461
0.401655
0.183695
-0.293209
0.054266
-0.393362
-0.764602
-0.510727
-1.171176
-0.443973
-0.066068
-0.332333
-0.051905
0.085350
-0.080393
0.295506
0.335727
0.406214
0.492623
0.437862
0.078480
-0.293994
0.051622
-0.072568
0.095035
0.297691
0.037757
-0.008245
-0.613426
0.145721
0.702992
0.178692
0.464957
0.398157
0.014216
0.106576
0.546158
-0.180209
-0.800796
-0.900346
-0.266422
-0.013520
-0.492079
0.119282
0.614190
-0.055969
0.333227
0.234022
1.067697
0.076186
0.051941
0.577898
0.165739
-0.312329
-0.128436
0.108383
0.479021
0.297319
0.072191
-0.296966
0.155133
0.578494
0.282251
0.749848
0.609218
0.035705
0.645134
0.095700
0.145122
0.315541
-0.891599
-0.766707
-0.727919
0.113982
0.293164
0.056615
0.910414
0.494966
0.431130
0.465131
0.390021
0.451410
0.696058
0.270803
-0.275798
-0.082648
-0.515783
-0.721791
0.364669
-0.192703
0.075449
-0.250362
-0.442590
-0.114758
0.496707
0.969427
0.501703
0.705477
0.226485
0.664008
0.040846
-0.484141
-0.131549
-1.223027
-0.419360
-0.688656
-0.085465
0.280984
0.389637
0.226297
0.563528
0.583834
0.763224
0.989435
0.506637
0.225531
-0.345599
-0.257136
-0.129975
-0.492833
-0.409571
0.237014
-0.660044
0.156681
-0.212888
-0.356424
0.159272
0.223366
1.113033
0.653992
0.363059
-0.034059
0.277242
-0.482134
-0.097847
-0.678509
-1.169445
-0.416106
-0.551743
0.200024
0.438405
0.339271
0.077995
0.109274
0.943758
0.554430
-0.055267
-0.213435
-0.459008
-0.457854
-0.882444
0.169820
-0.042042
-0.462313
0.167118
-0.064843
0.190631
0.034300
0.394190
0.583198
0.299725
0.553353
0.545199
0.350186
0.071831
-0.438798
0.023716
-0.999089
-0.571042
0.091278
-0.229027
-0.559000
0.362499
-0.252537
-0.265848
0.194757
1.364705
1.357873
-0.023092
-0.067053
-0.465678
-0.892951
-0.573028
-0.446075
-0.310259
-0.265128
-0.625173
-0.141514
0.164850
0.333325
0.625553
0.782071
0.845321
-0.082654
0.248183
0.203661
-0.267161
-0.279157
-0.460526
-0.497982
-0.778338
-0.510976
-0.696661
0.013905
0.622885
0.749588
0.737903
0.322046
0.471586
0.867954
-0.002324
-0.575852
-0.470548
-0.454668
-0.272293
-0.541304
-0.404603
-0.407548
-0.009574
-0.541053
0.165808
0.749833
0.463533
0.287883
0.175435
0.753353
0.292466
0.432845
-0.247011
-0.411308
-1.035363
-0.392355
-0.532804
-0.431751
-0.170225
-0.428503
0.021120
0.260331
0.283969
0.696877
0.742806
0.341194
-0.547142
0.140748
-0.906483
-0.394392
-0.919705
0.188410
-0.482195
-0.524783
0.272617
-0.129189
0.368004
0.177672
0.375655
0.524694
0.394394
0.129185
0.776483
0.380562
0.315007
-0.026515
-0.304259
-0.711952
0.035846
0.218951
-0.078308
-0.130552
0.176965
-0.062252
0.613177
-0.321535
0.676713
-0.104685
-0.140874
0.056260
-0.616469
-0.209252
-0.623319
0.315450
-0.224136
-0.505002
-0.616853
-0.411414
0.563524
0.576206
0.413633
0.236179
-0.173170
0.433527
0.192262
-0.053712
0.565802
0.018525
-0.231481
-0.663793
-0.163052
-0.022516
-0.110234
0.184406
0.096631
0.561549
0.807965
-0.214705
0.267261
0.419575
-0.374546
-0.719838
-0.123413
-0.568629
-0.277695
-0.263467
0.173518
0.011829
0.113135
-0.298170
0.006099
0.470533
0.849042
0.764147
0.017104
0.337742
0.185539
0.608571
0.047882
0.155191
-0.465642
-0.216212
-0.367659
-0.080156
-0.272112
0.348171
0.631104
0.614745
-0.113630
0.476088
0.026398
0.334830
-0.765836
-0.652023
-0.648408
-0.233565
-0.496368
0.283755
0.170251
0.392675
-0.264989
-0.300200
0.182621
-0.483701
0.638848
0.404029
0.694654
-0.119387
0.884210
0.460528
0.522802
0.459912
0.167323
0.270980
0.492972
0.320274
0.161577
-0.184524
0.353678
0.059439
0.511953
0.060859
-0.045946
-0.114827
-0.195112
0.182843
-0.265254
-0.342093
-0.353612
0.215214
-0.477962
0.224732
-0.306414
-0.204521
-0.047147
-0.453384
-0.136589
0.234368
0.119911
0.331770
0.673232
0.973653
0.495073
0.338213
-0.033552
0.631890
0.236304
0.641315
0.618615
0.477994
0.746468
0.540064
0.231572
-0.291266
0.261794
0.213248
-0.201807
-0.079101
-0.828256
-0.658268
0.013803
0.234823
0.193937
0.229492
0.147743
-0.824941
-0.282426
0.000528
-0.309486
-0.346487
0.327094
0.655766
0.430952
0.840301
0.101026
-0.329774
0.344918
-0.054009
0.193805
1.195873
0.593164
0.728604
0.069808
-0.013353
-0.255329
-0.197255
0.129832
-0.696162
-1.041206
-0.887328
-0.824215
-0.599491
-0.335380
-0.184766
-0.104384
-0.094652
-0.746443
-0.642955
-1.301522
-0.798659
-0.470714
0.477625
0.225734
0.196420
-0.014806
0.458700
0.428499
0.684789
0.150438
-0.166211
0.037830
0.167261
0.447945
0.518009
0.069798
-0.600220
-0.833460
-1.001273
-0.038306
-0.893441
-0.658904
-0.995821
-0.025118
-0.658302
-0.615408
0.092923
-0.278533
-0.312467
-0.006099
-1.138053
-0.659921
-1.127713
-0.330955
-0.100791
-0.237997
0.503270
0.247658
0.220980
0.954610
-0.125674
0.535008
-0.177331
-0.013414
0.588761
0.640411
0.215464
0.349324
-0.664667
0.084361
-0.085183
-0.032288
-0.046964
-0.805461
-0.272135
-0.835069
-0.789614
-0.359484
-0.231573
-0.095269
-0.483938
0.394874
-0.830237
-0.872070
-0.959001
-0.278862
-0.195719
0.133869
0.238816
0.635391
0.528379
0.424647
0.190639
0.102213
0.280854
0.497679
1.029911
0.768075
0.156711
-0.081475
0.192896
0.073510
-0.028429
-0.542453
0.091804
-0.449896
0.080987
0.074276
-0.336274
-0.393382
-0.206168
-0.542440
0.105561
-0.048368
-0.477713
-0.572027
-0.881787
0.014968
0.209669
-0.361045
-0.283106
0.518404
0.107317
0.659267
0.205790
-0.573224
0.193266
0.340239
-0.249965
0.318325
0.235877
0.032860
-0.037573
0.111027
-0.480139
0.178382
0.120490
-0.004821
-0.704553
-0.348855
-0.514807
0.247191
-0.380078
0.060374
0.316071
-0.325668
-0.532247
-0.706072
-0.171266
-0.138796
-0.619658
-0.364579
-0.390595
0.738132
0.275743
0.054620
0.363305
-0.834232
0.038023
0.368434
0.150650
0.338892
-0.149600
0.230983
0.210473
-0.011540
-0.269478
-0.169612
-0.405968
0.107053
-0.221669
-0.128948
0.252150
0.345252
0.088221
-0.191189
0.124257
0.103147
-0.056819
-0.436481
-0.161012
-0.464104
-0.270113
-0.086434
-0.088914
0.167521
-0.061804
-0.197032
-0.439141
-0.411568
0.166767
0.032245
-0.310503
-0.361757
-0.139124
-0.774822
0.019624
-0.067412
-0.590249
-0.580733
0.382337
-0.549966
-0.326726
-0.137513
0.104091
-0.498295
-0.147227
-0.362604
-0.679116
-0.170535
-0.155623
-0.774319
0.131724
0.045498
-0.834903
-0.165579
-0.398997
0.631882
0.446350
-0.235500
-0.447136
0.061315
-0.134491
-0.477033
-0.232423
-0.848485
-0.775522
-1.039851
-0.523362
0.028097
-0.215064
-0.204577
-0.566945
-0.085369
0.078930
-0.078260
0.307709
-0.240036
0.393697
0.099554
-0.324625
-0.225770
0.086158
0.194884
-0.266734
-0.040244
-0.190742
0.099345
-0.187922
-0.259965
-0.404303
0.095371
-0.017896
-0.469155
0.079969
-0.791198
-0.097332
-0.356594
-0.320702
-0.727590
0.195949
0.243140
0.098160
-0.193110
0.039768
-0.209419
-0.291708
0.242705
-0.089383
0.096639
0.378680
-0.367898
0.463035
-0.449826
0.145929
0.046720
0.143812
-0.140141
0.203730
0.260012
-0.119746
0.079796
0.155347
-0.026940
0.351162
0.924139
0.021271
-0.032094
-0.135703
-0.635662
-0.238566
-0.357781
0.065737
0.398390
0.067182
-0.104337
0.495999
-0.084753
0.389700
-0.129132
0.100820
0.146673
0.195299
0.433598
0.285198
0.434636
0.306400
0.529690
-0.177606
0.270270
-0.142759
0.611805
0.347124
0.544427
0.390443
-0.118344
0.738450
0.433084
0.094854
-0.472570
-0.397875
0.021596
-0.374696
-0.299100
-0.299112
0.608456
-0.389273
0.084800
0.117959
0.263263
0.321321
0.415781
-0.265546
-0.334003
-0.127601
-0.191036
0.393078
-0.348658
-0.160344
-0.009318
0.204636
0.371649
-0.053752
0.090439
0.387313
0.198777
0.625092
-0.136537
0.182286
0.913364
0.415449
-0.029484
0.307855
0.028266
0.160286
-0.505637
-0.197251
0.444221
0.613182
0.522489
0.329981
-0.402100
0.546905
0.240213
0.176411
-0.104036
-0.237073
-0.359812
0.412600
0.436640
0.521168
-0.054240
0.459974
0.336341
-0.016630
-0.058716
0.509611
0.374321
0.356747
-0.128595
0.864856
-0.012399
0.714988
-0.149950
-0.273461
-0.413126
0.408083
0.253783
0.194659
0.123267
0.048263
0.438092
0.322985
-0.218881
0.523724
-0.136603
0.198188
-0.317733
0.525517
-0.217276
0.159293
-0.143078
-0.203443
-0.017326
0.223606
0.453834
-0.073409
0.171912
0.817945
0.239959
0.595766
-0.307299
0.153511
0.343612
0.451946
-0.097583
0.179263
0.024822
0.408122
-0.078726
-0.013033
0.234187
0.644641
0.169803
-0.263982
0.135397
-0.272058
0.178009
-0.083170
-0.162167
0.509617
-0.035001
-0.200486
-0.427020
0.558698
0.543878
-0.080630
0.572661
0.111927
-0.117726
0.626482
0.338506
0.306175
0.043121
0.304556
0.413955
0.576877
0.163092
-0.066276
-0.477255
-0.199530
-0.009815
-0.488900
-0.072718
0.164930
0.441193
-0.213261
0.625075
0.404339
-0.016382
0.010224
0.575421
0.308300
-0.263018
0.433449
-0.058939
0.400279
-0.277789
0.443464
0.078121
0.276704
-0.168572
0.343907
0.982933
0.753256
0.223051
0.117497
0.642246
0.570591
-0.273276
-0.016247
-0.491133
-0.152640
-0.486503
-0.090376
-0.727982
0.413181
0.087313
-0.328487
0.221521
0.222431
0.220004
-0.107873
0.595850
0.597717
0.144377
-0.039500
-0.018225
0.527125
0.304584
0.534637
0.491385
-0.066473
0.236588
-0.272951
0.293770
0.736087
0.307515
0.213982
0.011611
-0.065629
0.193750
-0.352071
-0.484851
0.017504
-0.317259
0.382056
0.132359
-0.033594
0.241946
0.438544
-0.038834
-0.157337
-0.063084
0.574538
0.082017
-0.223797
-0.061963
-0.010316
-0.343109
0.502842
-0.090699
0.503682
-0.037070
0.560661
-0.279401
0.328677
-0.054102
0.152127
0.005445
0.157388
-0.318116
0.223339
0.989338
0.433276
0.482994
0.540198
0.007178
-0.038920
0.365237
0.020552
-0.170027
0.203259
0.441074
-0.349686
0.619074
0.302078
0.189300
-0.532679
-0.147997
0.442702
0.056082
-0.365541
0.479789
0.078103
0.294032
-0.237995
0.133606
-0.241463
0.721700
1.077046
-0.032152
0.787816
0.354522
0.239175
0.160722
0.912147
0.627282
0.463746
0.420979
-0.158504
0.127867
0.446729
0.154579
0.710800
0.253232
-0.149166
0.158143
0.178568
0.082254
0.254055
0.055620
-0.371452
0.270280
-0.182306
0.382554
-0.002930
0.110139
0.039291
0.472962
0.630017
0.817963
1.234070
-0.103892
-0.043570
-0.097272
0.582881
0.067472
-0.482048
0.294512
0.273898
-0.256873
0.528014
0.408676
0.492677
0.324312
-0.010264
0.182167
0.138753
0.228514
0.474866
-0.303258
-0.279092
0.320923
0.137685
0.140343
0.285220
-0.107760
-0.066158
0.572612
0.506697
0.509867
0.566942
0.243532
1.238413
0.408156
0.067949
-0.502143
-0.033707
0.662803
0.119019
0.277694
0.223226
0.222660
0.712988
0.332319
0.223616
-0.149196
0.062258
0.273648
-0.077831
0.092304
0.254316
0.348061
0.309001
-0.074642
0.313977
-0.127595
0.416917
0.035093
0.300593
0.506013
0.332048
0.544478
0.698136
0.153480
0.879654
0.059294
0.446374
0.127704
-0.375043
0.336204
-0.300882
0.262199
0.910219
0.504684
0.427288
0.669081
0.348280
-0.358518
0.130903
0.236238
0.241666
-0.278707
-0.453891
-0.306611
-0.437512
-0.033853
0.325741
0.527077
0.177505
-0.319426
-0.044220
0.310047
0.642299
-0.311830
0.450399
0.539221
1.044410
-0.110198
0.415156
0.097811
0.095584
0.487486
0.511820
0.286263
1.112851
-0.013760
0.148022
0.676427
0.266803
-0.203412
-0.151259
0.461267
0.409980
0.358543
-0.265804
-0.198430
-0.004118
0.342055
0.392386
0.115347
0.272600
-0.065176
0.505151
0.328593
-0.241373
0.693669
0.454531
0.359355
1.000681
0.447483
-0.333250
-0.046514
-0.659256
-0.470656
-0.000074
0.161258
0.315074
0.502444
0.252874
-0.041196
0.047964
0.424483
0.339195
0.303394
0.103132
-0.433470
0.243581
-0.300663
-0.212881
-0.280512
-0.417135
0.285657
-0.385925
0.043981
-0.269709
0.207314
0.187779
0.643865
0.253126
0.343637
0.731914
-0.471020
-0.285606
0.388344
0.159614
0.061722
0.536414
0.124874
0.599515
0.000171
0.414067
0.232908
-0.037329
-0.385872
-0.115502
-0.150195
-0.014511
0.066481
0.453833
-0.241700
-0.341613
-0.267817
0.563490
0.171355
0.381223
-0.514977
0.190289
0.272920
-0.244481
0.119470
0.209583
0.449892
0.467995
-0.541630
-0.196456
-0.330743
-0.613432
0.294885
0.021523
-0.035826
0.078632
-0.421286
-0.370503
-0.387211
0.152973
-0.129311
0.472102
-0.241939
0.631267
0.199698
0.275901
-0.277027
-0.210677
0.121992
0.409226
0.079737
-0.096449
0.400022
-0.130777
0.476898
-0.405556
-0.130691
0.350162
0.301468
0.001447
-0.132257
-0.489358
-0.197493
-0.849523
-0.507384
-0.119424
0.152455
0.231727
0.155176
-0.332416
-0.557178
0.433286
-0.212016
-0.166167
-0.154075
-0.043683
-0.256838
0.244419
0.109661
-0.211073
-0.335060
-0.344852
-0.144345
0.319231
0.412520
-0.041239
-0.269361
0.012300
0.250521
0.033931
-0.051552
0.687328
-0.340725
-0.820257
-0.130401
-0.621329
0.161015
-0.127363
0.210113
0.245111
-0.090524
-0.005960
0.010824
-0.363242
0.469548
0.555291
0.429566
-0.077873
0.020505
-0.224732
0.006530
0.007384
-0.265007
-0.424915
0.293382
-0.415136
-0.059973
-0.225428
-0.234124
-0.289063
-0.326667
0.476759
-0.253781
-0.040693
-0.378981
-0.436048
-0.906471
-0.936277
-0.144904
-0.159450
-0.309168
-0.603232
-0.481356
0.228763
-0.291447
0.387772
-0.310925
0.163486
0.463019
-0.281173
0.241083
-0.363967
0.187354
0.352969
0.117368
-0.018025
-0.078132
0.400732
-0.380250
0.059246
-0.287857
0.501614
-0.260419
-0.277667
0.217467
0.241930
-0.385155
-0.094765
-0.322707
-0.424298
0.000227
-0.282966
0.056891
0.096282
-0.647479
-0.432493
-0.369413
-0.176945
0.059434
0.383380
-0.258132
-0.171954
-0.338237
-0.329032
-0.269609
-0.286815
-0.346148
-0.277655
0.484120
0.575155
-0.353261
0.634699
-0.107578
-0.125983
-0.256528
-0.122475
0.208379
0.372519
-0.254567
-0.002258
-0.877052
-0.787137
0.157828
0.261908
-0.733457
-0.680289
0.003754
0.274419
-0.291614
0.179509
0.041073
0.339232
-0.237308
0.503939
0.174565
0.504273
-0.333463
0.140570
0.347486
0.331537
-0.421027
-0.082651
-0.127727
-0.028920
0.103601
-0.040367
-0.118993
0.604898
-0.299044
0.580626
-0.391372
-0.492143
-0.466097
-0.486205
-0.174119
0.095451
0.276499
-0.665890
-0.142973
0.028004
-0.366173
-0.006740
-0.064490
-0.139899
-0.155651
0.128352
0.337890
-0.098984
-0.202847
-0.023871
0.315466
-0.487271
-0.433875
0.040304
0.066932
0.460564
-0.059882
-0.000275
0.469939
-0.055844
0.008980
0.616362
-0.085127
0.099339
-0.334148
-0.408839
-0.802534
0.260651
0.093156
-0.037241
-0.215193
-0.223658
0.346018
0.610580
0.083888
-0.143901
0.483552
-0.034570
-0.278421
0.145804
0.526584
-0.347846
-0.425818
-0.290390
0.483190
0.011174
0.043433
-0.188894
0.553520
-0.315844
0.414528
0.429887
0.616988
0.570547
-0.451965
0.310213
-0.090101
-0.882879
-0.193420
-0.369821
0.204528
0.363638
-0.191907
0.270002
-0.042568
0.429061
0.455809
-0.165891
0.428404
0.199024
-0.137484
-0.010435
0.043457
0.108325
0.412773
0.203652
-0.176685
-0.294751
-0.062652
-0.202749
-0.108056
0.680109
0.609116
0.140295
0.454532
0.381721
-0.525077
-0.319140
0.104914
0.000334
0.008014
-0.405251
-0.455275
0.287285
0.550785
-0.133736
0.604459
0.382688
-0.304704
-0.206359
-0.136657
-0.247573
-0.153977
0.365869
-0.450142
0.342460
0.086226
0.298871
0.175921
-0.050301
-0.122407
0.006193
-0.169869
-0.232075
0.257023
0.139835
0.414413
-0.341141
-0.974963
0.049358
0.071243
-0.758722
0.050000
-0.450094
-0.330549
0.613577
0.629561
-0.047285
0.016275
0.625422
0.166347
-0.018190
-0.247034
0.601875
-0.088152
-0.137796
-0.386661
0.327792
0.001490
-0.215036
0.301735
0.459803
0.543354
0.043141
-0.117164
0.437806
-0.070626
-0.446073
0.222505
-0.443973
-0.509698
-0.430426
-0.156693
-0.763655
0.461245
0.178109
-0.224796
0.198197
1.061870
0.185488
0.409946
0.337319
0.251199
0.179644
0.170267
0.188344
0.538918
0.070936
-0.118112
-0.238241
0.385131
-0.123483
-0.213933
-0.176449
0.341882
-0.070051
0.522143
0.142687
0.357949
-0.297229
0.114936
-0.249543
-0.107688
0.006855
0.193073
-0.429074
0.170589
-0.111555
0.366570
0.625362
0.160781
0.205299
0.425024
0.788038
-0.241175
0.034281
0.263633
0.414836
-0.227150
0.233099
-0.186439
-0.356459
0.213568
0.019448
0.130845
-0.012016
0.053449
0.100131
0.373262
0.432782
0.560074
0.306944
0.521913
0.360281
-0.366291
-0.402205
-0.097781
0.136408
0.152119
-0.290389
0.170542
-0.211638
-0.129473
0.163201
0.317275
0.263864
0.475854
0.216773
0.363136
0.038468
-0.137345
0.225620
0.053921
0.018868
-0.116622
0.162726
-0.141867
-0.268066
0.196802
0.334956
0.247585
-0.283078
0.107886
0.095919
0.658968
0.237778
-0.245962
-0.016245
0.087156
-0.083701
-0.355776
0.149465
-0.560076
0.340410
-0.028065
0.743993
0.361437
-0.091461
-0.083476
-0.098084
0.102799
-0.134214
-0.137926
-0.071405
-0.250669
-0.044750
-0.082292
0.171658
-0.165004
-0.227616
0.271990
0.103430
0.354306
0.537188
0.220475
0.116158
-0.041711
0.191184
0.127506
0.048457
-0.147648
-0.440303
-0.073170
-0.335009
-0.346315
0.187567
0.128076
0.113545
-0.042881
0.101492
0.370506
0.605770
0.409131
0.360999
0.138780
-0.106580
-0.091624
-0.482090
0.214351
0.035695
0.023587
-0.396479
-0.126442
-0.035917
-0.389634
-0.187556
-0.218252
-1.388933
-1.145278
-1.120689
-0.155375
-0.253100
-0.045976
-0.597470
-0.169749
-0.287231
-0.138782
-0.243126
-0.251162
-1.084108
-0.511378
0.721166
0.382875
0.417053
0.293355
0.423604
0.208041
-0.410227
0.159221
0.484594
-0.124814
-0.323833
-0.307796
-0.412878
0.247331
-0.194627
0.003133
0.181374
-0.873137
-0.866889
-1.144638
-1.243591
-0.320419
-0.591650
-0.544183
-0.096937
-0.539030
-0.803567
-0.659865
0.334798
-0.350308
-1.036140
-0.580617
0.025399
0.422503
0.554825
0.579550
-0.039285
0.482126
-0.254344
0.826401
0.719068
0.248873
-0.054204
-0.347249
0.160009
-0.029006
0.336488
-0.657425
-0.450424
-0.575395
-0.302477
-1.062277
-0.961027
-0.546845
-0.458128
-0.992154
-0.890580
-0.483384
-0.470598
-0.296618
0.113158
-0.148556
-0.651375
-0.583051
-0.260979
-0.502291
0.074920
-0.079116
-0.307146
0.268065
-0.343021
0.685769
0.249487
0.025078
-0.219271
-0.199826
-0.234490
0.427613
-0.194473
-0.735696
0.032494
-0.552491
-0.817451
-1.192428
-1.031302
-0.776841
-0.165337
-0.290506
-0.251063
-0.683858
0.272902
-0.115506
0.418332
-0.107278
0.045593
-0.138922
-0.401667
-0.600775
0.258612
-0.346478
0.139151
0.216757
-0.354588
0.743821
0.369713
0.168263
0.220729
0.044897
-0.208490
0.174661
-1.015425
-0.645706
-0.408025
-0.771659
-1.070652
-0.671504
-0.639495
-0.605116
0.076348
-0.500886
-0.047407
-0.227009
-0.426710
-0.276905
-0.144300
0.106725
0.186179
-0.473140
-0.209469
0.064010
-0.043680
0.168427
0.292846
-0.140698
-0.352614
-0.346101
-0.220186
-0.255559
-0.702887
-0.692524
0.018015
-0.281761
0.044155
-0.369091
-0.308685
-0.170712
-0.727981
-0.600162
-0.674310
-0.030742
0.292898
-0.240955
-0.152691
-0.300045
0.013122
-0.588697
0.485269
0.577578
0.318904
0.037811
0.226686
-0.050944
-0.179578
-0.193180
0.296257
-0.605274
-0.025219
0.394612
0.032729
0.250907
-0.647387
-0.129512
-0.834956
-0.448984
-0.715942
-0.953997
-0.173304
-0.586728
-0.529244
0.038698
0.155031
-0.169672
0.417151
0.196037
0.620298
0.123928
-0.187450
0.159515
0.877095
0.291976
0.385542
0.806441
0.497517
0.340431
0.509827
-0.030296
0.567066
-0.339860
-0.137333
-0.240922
-0.264106
-0.726284
0.150536
-0.181121
0.028019
-0.286762
-0.097397
-0.496067
0.135590
0.016311
0.251666
-0.240662
0.378140
-0.298627
0.088472
0.683805
-0.299210
-0.163306
-0.099772
-0.234309
-0.298516
0.007453
0.188099
-0.019979
-0.070658
-0.155314
-0.412690
-0.454098
0.189574
-0.219137
-0.066245
-0.634387
-0.430556
0.092144
0.210932
-0.151702
0.143580
0.292026
-0.127966
-0.454988
0.130445
-0.056618
0.197528
0.487112
0.268286
0.690395
0.694923
-0.089852
-0.067133
-0.152943
-0.257765
-0.153008
-0.694580
-0.782094
-0.363268
0.760020
-0.289444
-0.345752
-0.006979
-0.153391
0.557616
-0.131908
-0.540679
-0.075377
-0.816102
-0.532958
0.363748
-0.441896
-0.520344
-0.095079
0.207796
0.098362
0.815522
0.256948
0.615007
-0.381462
0.894492
1.090853
0.077693
0.500293
0.028054
-0.219018
-0.300811
-0.363493
-0.893503
-0.605925
0.093608
-0.046754
-0.565316
-0.340086
-0.435340
-0.438094
0.336208
0.194484
-0.437649
0.183899
0.163274
-0.618240
-0.522947
0.151998
0.047902
0.387417
0.262687
0.622685
0.774974
0.753046
0.410578
0.696685
0.445903
0.878618
0.443169
0.997224
1.444846
0.522292
1.050810
-0.262713
-0.017346
-0.188557
-0.290742
-0.448069
0.010395
-0.257590
-0.874719
-0.561277
-0.245654
-0.715889
-0.403969
-0.829687
-0.595403
-0.071734
-0.017447
0.177849
0.149487
0.232596
0.254260
-0.127204
0.789193
0.777391
0.553201
1.062078
1.371964
1.125782
1.290965
0.424950
0.766731
0.886241
0.714566
0.752274
0.490413
0.108672
-0.426745
-0.859526
-1.025190
-0.974194
-0.399236
-0.473191
-0.494706
-0.632579
-0.789447
0.105452
-0.617023
-0.219416
-0.079385
-0.501494
0.365507
0.364299
0.119868
0.218035
0.092275
0.673039
0.697188
0.525307
1.097071
1.140321
1.101651
1.398799
1.495206
0.702551
0.749880
0.534460
0.145491
-0.676433
-0.110061
-1.236931
-0.719144
-0.776736
-0.935685
-0.266696
-1.231741
-0.979122
-1.233119
-0.039978
-1.033706
-0.031777
-0.280362
0.062787
0.160986
-0.406848
0.496189
0.070257
0.649515
0.342698
1.458855
0.767716
1.111903
0.424116
0.205580
-0.095290
0.531537
0.720386
-0.002248
0.451288
-0.075529
-0.326749
-1.231049
-1.314644
-1.495898
-1.070199
-0.829170
-0.677282
0.250616
0.127565
-0.560919
-0.503565
-0.449653
-0.048344
0.304256
0.397237
0.338700
-0.186756
-0.110938
0.144287
0.885830
0.490419
0.663759
1.380338
0.985714
-0.083655
0.125246
0.178733
-0.060180
-0.236631
0.225859
-0.214100
-0.175529
-1.114379
-0.816148
-1.155839
-1.214134
-0.689016
-1.233803
0.058544
-0.111281
-0.163514
-0.984099
0.019446
-0.602192
-0.057252
0.293777
0.472854
0.095976
0.431154
0.154973
0.116459
0.252030
0.438366
0.506637
1.218391
0.819408
0.590155
0.055089
0.133338
-0.425694
0.476865
-0.545687
-1.205660
-0.515191
-1.506224
-0.629599
-1.557284
-1.505173
-1.130241
-0.298246
0.403401
0.507524
-0.144699
-0.437535
-0.251005
-0.447077
-0.274888
0.416755
-0.391497
-0.302264
-0.360960
-0.439684
0.072240
0.586419
-0.075515
0.468683
0.210756
-0.087682
-0.348335
-0.432760
-0.203164
-0.709953
-0.496830
-1.130378
-1.260844
-1.119307
-1.705536
-1.321509
-1.403240
-1.443252
-0.987205
-0.680062
-0.212328
-0.141569
-0.184517
-0.193085
-0.624337
-0.337924
0.090989
-0.254527
-0.107923
-0.025966
-0.406629
0.165453
0.083226
0.403678
0.485773
0.131210
0.834573
0.126737
-0.261383
0.108532
0.071646
-0.155529
0.102204
-0.684138
-0.594808
-1.016561
-1.022537
-1.110336
-1.311444
-1.089108
-0.848604
-0.736710
-0.859341
0.301922
-0.422958
-0.140191
-0.497664
-0.470076
0.341419
0.365021
-0.107868
-0.023430
0.165792
0.086017
-0.419229
0.346284
0.586868
0.458919
0.848219
0.304518
0.062993
0.251371
-0.673273
-0.225206
0.355636
-0.219223
-0.773577
-0.383557
-0.984990
-1.463341
-0.531590
-1.205119
-0.943183
-0.952891
0.018318
-0.198921
0.401667
-0.439823
0.145147
-0.123121
-0.104730
0.035780
0.211322
0.079844
0.242670
-0.584922
-0.725552
0.146241
-0.108732
-0.281843
0.143992
0.170947
0.302261
-0.360086
-0.491101
-0.046979
0.339875
0.861582
-0.490799
0.649155
-0.308521
-0.213511
0.244286
-0.326367
-0.576085
-0.181678
-0.895443
-0.487910
0.162666
-0.006833
0.007061
-0.898939
-0.155093
0.415627
0.319607
0.301864
0.061408
-0.809219
0.075300
0.436488
-0.526801
-0.000897
0.148669
-0.204040
-0.216344
-0.088488
-0.092275
-0.193187
0.191200
-0.252464
-0.333695
-0.249712
0.639757
0.647359
-0.148224
-0.329217
0.079103
-0.627004
-0.354656
0.081692
-0.994272
0.125938
-0.322808
-0.146651
-0.410768
-0.329584
-0.234879
-0.074532
-0.216487
-0.754033
-0.059886
-0.303950
-0.358988
-0.229451
-0.230712
-0.019177
-0.360032
-0.060808
-0.412759
-0.393773
-0.222197
-0.289668
0.546844
-0.109584
-0.236307
-0.145096
-0.001763
0.363715
-0.092126
0.092060
0.652618
0.539649
-0.386741
-0.711257
0.072045
-0.495588
0.023260
-0.447574
0.141029
-0.335464
-0.232866
-0.638589
-0.255255
-0.317794
-0.412380
-0.063759
-0.443411
-0.436077
0.297098
-0.572242
-0.062802
-0.163676
-0.115534
-0.110787
0.472114
0.355644
-0.122545
0.162804
-0.176265
0.012583
-0.493516
0.036244
0.619605
0.672985
-0.289365
0.198454
-0.292973
0.030632
-0.101979
-0.553546
0.175868
-0.658986
-0.614270
0.298377
0.628397
0.427296
0.264830
0.212118
0.308443
0.114046
-0.491307
-0.360566
-0.571929
-0.314823
-0.496072
-0.392528
-0.667163
-0.159868
0.349331
0.055950
0.544009
-0.533927
0.531970
0.760900
0.168445
0.270177
0.594021
0.186385
0.224834
-0.120517
-0.046960
-0.113847
0.067460
0.009335
-0.294000
-0.370629
-0.271231
0.081572
-0.249541
0.400639
-0.588492
0.298688
-0.158982
-0.866672
-0.690421
-0.560355
-0.473730
-0.641502
-0.296211
-0.311045
-0.439770
0.078584
0.745707
-0.159998
0.897736
-0.011134
0.346066
0.082440
0.541342
0.301014
-0.097516
-0.796979
0.079438
-0.358710
0.242999
-0.240422
0.063316
0.081393
0.701960
0.317788
0.620712
-0.118003
-0.360131
0.061847
-0.719861
-0.151367
0.027759
0.295522
-0.495861
-1.086371
-0.069072
0.349607
-0.312463
0.472589
1.129716
0.716431
1.204584
0.413629
0.186814
1.133494
-0.023814
0.410429
-0.619780
-0.647472
-0.655235
-0.289354
-0.595084
-0.468031
-0.227140
0.518402
0.996703
0.757225
0.337063
0.624779
0.933897
0.670356
0.160237
0.521925
-0.246162
-0.097244
0.219259
-0.756181
-0.316378
0.636410
0.785667
0.803685
0.414022
1.061724
0.681048
0.402238
0.436087
0.503052
0.461215
-0.012904
-0.101545
-0.630836
-0.748002
-0.116416
-0.134180
-0.350686
0.000265
0.144268
0.856265
0.321831
0.302711
0.676445
0.053334
0.734942
0.616072
1.111667
0.072707
0.195657
0.607904
-0.122191
-0.339984
0.346494
0.011125
-0.070090
1.211705
0.456106
0.491178
0.570298
0.626077
0.805888
-0.023893
-0.653342
-0.355077
-0.116033
-0.659215
-0.309666
0.396413
-0.141562
-0.164857
0.161385
0.861971
0.393872
-0.007052
1.119543
0.007119
1.156648
0.962096
1.117001
0.402700
1.104250
0.267298
0.179910
0.914484
0.339140
0.295930
0.045327
0.427696
-0.014506
0.465880
0.907416
0.675726
0.134867
-0.515116
-0.248101
-0.637524
-0.721548
-0.471950
-0.605704
0.310993
-0.787034
0.031089
0.095383
-0.540610
0.213669
-0.028965
-0.296557
0.188073
1.001739
0.906437
1.319418
0.615076
0.533016
1.138116
0.806898
1.681292
1.278932
0.561527
-0.164759
0.222276
-0.297616
-0.419741
-0.645952
-0.456587
-1.458156
-1.311681
-1.508973
-0.285318
-0.980121
-0.113810
-0.050751
-0.173543
-0.683692
0.089187
0.090762
0.518458
0.224072
-0.196162
0.000405
0.220393
0.799079
1.178374
0.944101
1.032390
1.237866
1.179536
1.345626
1.590315
1.641005
1.317425
0.740925
0.690641
-0.034282
0.163526
-0.645991
-0.883562
-1.090929
-1.151601
-0.764568
-0.640661
-0.775198
-0.446140
-0.258980
0.375323
-0.481180
-0.247171
0.245484
-0.156762
-0.393181
-0.138456
-0.863148
-0.599981
0.272961
0.211581
0.200902
0.858089
0.724368
1.911414
2.159414
1.512702
1.210750
0.367776
0.712578
0.651348
-0.859194
-1.616268
-1.936910
-1.194594
-0.791765
-1.206253
-1.104929
0.114452
-0.287620
0.226157
-0.067393
-0.123646
0.453058
0.442460
0.326766
-0.012894
-0.160348
0.115563
-0.069494
-0.192886
-0.541084
-0.237057
0.165350
-0.067405
-0.302282
0.107387
0.254189
0.392006
0.489232
0.025796
-0.420258
0.349484
0.099308
0.214022
0.306851
-0.078005
0.348677
0.774610
0.718972
0.225561
-0.325935
0.382900
-0.226348
0.124757
-0.266553
0.486721
0.351335
-0.271724
0.219630
0.303690
-0.073007
-0.448584
-0.274613
-0.132673
0.355711
0.076115
0.173381
-0.266230
0.608740
0.599935
0.630147
0.295304
0.279342
-0.175706
-0.096682
0.570586
0.495414
0.387113
0.619690
0.021349
0.609708
-0.020319
-0.170902
-0.325403
0.634862
-0.017212
-0.117749
0.453592
-0.457434
-0.058105
0.101727
-0.557687
-0.453343
-0.287724
-0.464194
-0.468589
0.016547
0.522170
0.380529
-0.186028
0.267953
-0.090336
-0.190241
0.448095
-0.115464
-0.359399
0.049269
0.328061
-0.147469
-0.356709
-0.057434
0.359146
0.334380
0.770390
0.777748
-0.140085
0.107021
0.053296
-0.178834
0.347624
-0.042961
-0.022613
-0.558729
0.140160
-0.596011
-0.062485
-0.065055
-0.642668
-0.880673
-0.541743
-0.536941
0.019499
-0.475327
0.272997
-0.188830
0.314248
-0.017697
0.041110
-0.032250
0.011855
-0.541274
0.077810
0.018351
0.643616
-0.117348
0.127027
0.730776
0.221368
0.225979
-0.205224
0.557908
0.352438
-0.054527
0.045189
-0.103128
0.095674
0.116158
-0.610834
-0.389144
-0.512336
-0.480857
-0.327207
-0.646933
-0.560409
0.175134
-0.022706
0.289043
-0.345962
0.355314
-0.359187
-0.190902
-0.158055
-0.533777
0.439398
-0.241821
0.237442
-0.012141
0.087290
0.351310
0.157672
-0.134715
-0.126894
0.068040
0.268496
0.455853
0.020083
-0.063119
-0.349290
-0.222007
-0.251742
0.065207
-0.149637
-0.484358
0.010931
-0.413222
0.033154
-0.011640
-0.167088
0.057097
0.452070
-0.409775
-0.340506
-0.096782
-0.469545
0.186560
-0.116212
0.321003
-0.168782
-0.076937
-0.496595
0.068249
-0.308678
-0.056225
0.533814
0.512440
0.087794
0.478994
0.494396
0.165738
0.440418
-0.521112
-0.502793
0.154936
0.228768
0.131686
0.353657
0.106563
0.018551
-0.003975
0.212774
0.481902
0.139922
0.510202
0.370417
-0.386927
0.356692
-0.380552
0.419320
0.158088
0.109501
-0.176133
0.407699
0.581086
0.531483
-0.323864
0.362412
0.133189
0.514256
0.058033
0.071819
-0.095651
0.047367
-0.120192
-0.337082
0.182729
-0.147549
-0.584481
-0.447735
0.351026
-0.417293
0.619622
0.444973
0.586407
0.642797
0.275290
-0.150271
0.286145
-0.375532
-0.178188
0.283057
-0.455680
0.553393
0.301497
0.487578
0.070174
0.483833
0.368171
0.150794
0.217284
0.128154
-0.391486
-0.253836
-0.327402
0.101874
-0.191917
-0.400512
-0.036063
-0.489371
0.014745
-0.479961
0.314272
0.214290
0.317613
-0.471212
0.080690
0.609512
0.483823
-0.253603
0.471269
0.138256
0.148698
-0.261790
-0.733863
0.202204
0.379130
-0.477585
0.558964
-0.338970
-0.051408
-0.472324
-0.168868
-0.549686
0.180126
-0.282913
0.013660
0.489994
0.232419
-0.567811
0.280076
0.305996
0.276409
-0.307052
-0.161592
-0.272749
0.002203
0.466722
0.554201
0.200712
0.537091
0.097400
0.483021
0.533263
-0.289743
0.064678
-0.229511
-0.087038
-0.075004
-0.426557
-0.023801
-0.177568
0.102077
0.089997
-0.065701
0.265050
0.128108
0.016036
0.079266
0.201722
-0.421750
-0.565598
-0.374313
-0.582694
0.184549
-0.436326
-0.553578
-0.010740
0.168930
0.265172
0.427910
-0.018930
0.490616
-0.138584
-0.593018
0.089542
-0.698494
-0.151672
-0.340298
0.332355
-0.428165
0.139097
-0.595663
-0.670369
0.014124
0.223474
0.116615
-0.362759
-0.002986
0.077159
0.449413
-0.032103
-0.557182
-0.733394
-0.217366
-0.377090
-0.528610
0.275735
-0.173034
0.199139
-0.232585
-0.538678
0.292034
0.061689
0.552726
-0.456077
-0.429426
-0.399932
-0.298830
-0.568831
-0.485270
-0.296894
0.276344
-0.453035
-0.518017
-0.342654
-0.041870
-0.651280
0.281978
-0.093654
0.100074
0.210384
0.506982
0.729092
-0.362117
-0.243381
0.001419
-0.247335
-0.761292
-0.020023
-0.704301
0.336149
0.399065
0.321640
-0.420599
0.634103
0.517288
-0.152487
-0.584757
-0.016095
-0.897608
-0.077486
-0.486591
-0.479631
0.257059
-0.063867
0.033982
-0.299000
-0.645230
-0.737391
0.351590
-0.242461
-0.359224
0.322217
0.292433
-0.002504
0.301812
0.375870
0.216967
-0.108451
-0.704143
-0.470110
-0.284009
-0.231134
0.185549
0.645963
-0.006365
-0.301778
0.068558
0.095112
-0.404591
-0.526121
-0.374246
-0.471497
-0.228780
-0.035410
-0.464199
-0.032527
-0.283412
0.381894
-0.659416
0.204692
-0.050570
-0.038793
-0.257705
-0.127605
0.285675
0.196854
0.529302
-0.214159
-0.387644
-0.508831
-0.290894
-0.431949
-0.172395
-0.486376
-0.167148
0.458324
0.267647
0.309150
-0.344075
-0.111722
0.027191
-0.041177
-0.370606
-0.604946
-0.494738
0.020352
-0.227898
-0.027069
-0.485882
-0.128362
-0.583759
0.237440
-0.007744
-0.307739
0.352782
0.546387
0.694527
0.561838
0.213698
-0.082141
-0.523444
0.284820
-0.063911
0.222512
-0.237983
-0.142255
-0.066447
-0.317708
-0.186484
-0.413761
0.360420
-0.003339
-0.585887
-0.310686
-0.215001
-0.594513
-0.139754
-0.016528
-0.028048
-0.621898
-0.269026
-0.443048
-0.432820
-0.371912
0.355834
-0.231447
-0.036334
0.755140
0.285696
0.714125
0.320742
-0.233276
-0.003148
0.182996
-0.553207
-0.310397
0.084720
0.284480
0.264205
-0.585629
-0.033784
-0.251122
0.299066
-0.299158
0.103270
-0.821855
-0.060815
-0.402164
0.275424
0.155021
-0.436318
0.028551
-0.483063
-0.384055
-0.203720
-0.536313
-0.212673
-0.359060
0.582363
0.750151
0.445483
0.579447
0.403461
0.269654
-0.277228
-0.390123
-0.484747
0.024153
-0.716775
-0.359251
-0.494669
-0.041352
0.274008
0.265418
0.271264
-0.187241
-0.767671
-0.319217
-0.543647
-0.003712
0.351275
-0.128487
-0.638207
-0.269981
0.295078
0.045765
0.016961
0.184677
-0.332421
0.344251
0.294126
-0.128838
0.115659
0.225923
0.177863
-0.318613
-0.230974
-0.644670
-0.752756
0.019503
-0.174930
0.282872
0.289919
0.122784
-0.398751
0.100859
0.086488
0.178087
-0.186276
-0.352803
-0.560384
-0.015730
-0.245609
-0.307312
0.167814
-0.663035
-0.577809
-0.640754
-0.273757
0.268510
-0.161835
-0.091638
0.502818
-0.080367
0.727214
-0.077795
-0.449093
-0.416910
-0.179586
-0.443029
-0.200446
-0.410662
-0.602751
-0.221122
-0.209506
-0.071706
-0.345814
-0.457696
-0.744712
-0.278740
-0.379142
-0.615248
0.135586
-0.603801
-0.483207
-0.407195
-0.116066
-0.041932
-0.731201
-0.168378
-0.650689
-0.135404
-0.052556
-0.068204
-0.432113
-0.174176
0.648272
0.565235
-0.378116
0.468924
-0.364187
-0.530096
-0.823809
-0.585326
-0.025659
-0.046951
0.012281
-0.226780
-0.735391
-0.659137
-0.821963
-0.133675
-0.649656
0.219833
0.115907
-0.177434
0.106012
-0.261587
-0.496728
-0.186804
-0.475514
-0.708469
-0.023801
-0.334236
-0.244956
0.241322
0.289662
0.410104
-0.121614
-0.302967
-0.312629
0.184075
0.024755
-0.760903
-0.356765
0.007770
-0.137698
0.253735
-0.455774
-0.692946
-0.442721
-0.756228
-0.427260
0.011644
-0.596187
0.107431
-0.631001
-0.310925
-0.402540
-0.919948
-0.936329
-0.656284
-0.394899
0.197321
0.037220
-0.467472
0.295745
-0.229921
0.419634
0.621893
-0.240502
0.502262
0.111702
-0.264914
-0.202079
0.243963
0.047573
-0.028432
-0.663861
-0.176619
-0.183907
0.019063
0.193764
-0.321719
-0.901002
0.108549
-0.654009
-0.045788
0.287723
-0.244677
-0.228047
-0.707149
-0.532482
-0.791939
-0.660468
0.132839
-0.184594
-0.452168
-0.496607
0.096223
0.000678
0.472142
0.568738
0.645263
0.286647
-0.226616
0.238947
0.098349
-0.077489
-0.193400
-0.835796
-0.438827
0.610217
-0.270679
0.372247
-0.426525
-0.206367
-0.820404
-0.528146
-0.355547
-0.692385
-0.291587
0.046866
0.092855
-0.431116
0.006098
-0.252126
-0.569471
-0.235090
0.138656
0.205777
-0.158924
0.229995
0.301526
-0.324075
0.470595
-0.329592
0.352488
0.192812
0.128108
0.005194
-0.115293
-0.699262
0.240067
-0.018073
-0.451518
-0.471013
-0.004423
0.142243
-0.772407
-0.083342
0.072336
-0.294333
-0.527239
-0.542883
-0.028595
-0.460462
0.448477
0.043840
0.132971
-0.128843
-0.368824
0.231693
-0.083565
-0.358560
0.553705
-0.307287
0.211043
0.144643
0.084090
-0.358936
-0.358409
0.243054
0.435578
0.069448
0.068252
0.450795
-0.334407
-0.338734
-0.392751
-0.410958
0.039568
-0.314970
-0.472165
-0.082774
-0.430327
0.050804
-0.136362
0.529378
-0.355872
-0.387914
-0.232507
-0.421344
0.486688
0.347792
0.235674
0.105885
0.027549
0.406554
-0.309085
0.317693
0.289893
-0.129720
-0.036301
-0.325176
-0.227861
-0.199149
-0.000234
-0.040138
0.286191
-0.154011
-0.047575
-0.024171
0.039333
-0.346629
-0.065765
-0.536738
-0.281507
-0.315237
0.065392
-0.103239
0.413466
0.540521
0.037527
-0.445845
-0.334134
0.215634
0.254683
-0.484791
0.011316
-0.414876
0.101127
-0.341804
0.587993
-0.038459
0.133340
0.274514
0.325508
-0.152656
-0.295229
0.192460
-0.103064
0.197754
-0.475919
-0.703377
-0.126707
0.015872
-0.396529
-0.041185
-0.572505
-0.404713
-0.269820
-0.252386
0.318135
-0.202925
-0.032503
-0.333514
-0.171640
0.130801
-0.104762
-0.133674
-0.444833
-0.217793
-0.272324
0.412315
0.655898
0.244423
0.498423
0.352052
0.132713
0.080557
0.382029
-0.370554
-0.226568
-0.489335
0.069607
-0.434453
0.176639
-0.341290
-0.412239
0.372351
0.555125
0.022808
-0.164757
-0.380130
0.161356
0.269878
0.129194
-0.190634
0.402501
0.420356
-0.161309
-0.468892
-0.296500
0.240387
0.158589
0.652316
0.246718
-0.414743
-0.012802
0.192725
0.283942
-0.138486
0.193796
0.364386
-0.345737
-0.167019
-0.353822
-0.369215
-0.432629
-0.389243
-0.027052
0.094007
0.228994
0.323053
0.479636
0.002942
-0.303814
-0.077426
0.252637
-0.134350
0.231544
0.049104
-0.128740
0.243004
-0.025577
-0.343820
-0.224987
-0.153248
0.171387
0.107199
0.649078
0.104201
0.056001
0.500647
-0.512725
0.516666
0.176849
0.401240
0.049192
-0.648172
0.292690
0.285944
-0.183543
-0.330882
0.036674
0.579164
-0.020102
0.462874
0.263226
0.151565
-0.383991
0.284509
0.483052
0.247460
0.002042
-0.198365
0.239285
-0.021935
0.082117
0.317341
0.002393
-0.077955
0.167555
-0.302178
-0.137473
0.100463
-0.409701
0.012668
0.658909
0.583998
0.378969
-0.516084
-0.195835
0.757890
0.085228
0.517453
-0.136380
0.386039
-0.124255
-0.297567
-0.292063
-0.190313
0.456912
-0.222399
0.367256
-0.338501
-0.344014
-0.424689
-0.373459
-0.544297
-0.666688
-0.701572
-0.685472
-0.726334
-0.460830
0.041598
-0.169771
-0.316612
-0.623964
-0.386212
-0.342903
0.238956
0.146018
0.423191
-0.124613
0.011706
0.241131
-0.294683
-0.707634
-1.030872
-0.728469
-0.727256
-0.104304
-0.707165
-0.619160
0.021877
-0.160664
-0.037887
0.413046
-0.418591
-0.209356
-0.867164
-0.051840
-0.279034
-0.182606
-0.599501
-0.369470
-0.113022
0.072928
-0.805580
-0.593291
-0.410294
-0.174694
0.441504
0.203151
-0.030401
-0.051493
0.423111
0.461357
0.105955
-0.579427
-0.163739
-0.472534
-0.459906
-0.088687
-0.918212
-0.047008
-0.309406
0.274100
-0.621696
-0.418366
-0.319328
0.031130
-0.440973
-0.152130
-0.555177
-0.633271
-1.044975
-0.649815
-0.528125
0.053734
-0.085632
-0.369484
-0.059297
0.403108
0.159229
0.281390
0.449476
0.300277
-0.196696
-0.289460
-0.034890
-0.695630
-0.501981
-0.886933
-0.618303
-0.775338
-1.176161
-0.146172
-0.393260
-0.728470
-0.436321
-0.093756
0.156166
-0.525809
-0.167453
-0.983898
-0.754816
-0.282743
-0.967849
-0.139877
-0.651924
0.167085
0.047325
-0.004533
0.494391
0.084053
0.495560
-0.172378
0.357339
0.301875
-0.186341
-0.325000
-0.512587
-0.748329
-0.227946
-0.404689
-0.473360
-0.477148
-0.032096
-0.434418
-0.870257
-0.741218
-0.380377
0.109260
-0.300582
0.085207
-0.259753
0.008363
-0.342500
-0.564431
-0.878588
0.063220
-0.258369
0.015207
-0.736712
-0.601241
0.233557
-0.102424
0.509907
0.353016
0.734270
0.105233
0.133827
0.380439
0.270538
-0.120867
-0.863621
-0.967739
-0.642396
-0.719239
-0.042544
-0.399587
-0.490363
-0.788925
-0.276691
0.037364
-0.545107
0.243946
-0.170569
-0.313228
-0.795047
0.061752
0.262899
-0.221171
-0.045872
-0.437987
-0.256088
-0.359515
-0.539777
0.126394
0.327558
0.788070
0.325287
0.605958
0.912755
0.784278
-0.245673
-0.078233
-0.618856
-0.631247
-0.718934
-0.361439
-0.040683
0.154282
-0.309691
-0.203251
0.161797
0.494938
0.190521
0.077171
-0.424695
-0.146715
-0.306607
-0.357908
-0.322251
-0.175717
-0.045594
0.293692
-0.424475
0.193407
-0.563941
0.264205
0.306955
0.175705
0.594417
0.920086
0.642010
0.580511
-0.440557
-0.445828
-0.639461
-0.521966
-0.161516
-0.547697
-0.691531
-0.644430
-0.375943
0.105148
-0.206529
-0.021728
-0.462324
0.148070
-0.236578
-0.873366
-0.387799
0.179920
-0.426761
-0.110840
-0.522626
-0.006990
-0.023442
-0.278910
-0.230697
0.432193
