58x1025
58x59
-0.674646
-0.094296
-0.367587
-0.263093
0.096155
-0.447171
-0.443521
-0.135285
0.304335
-0.441935
-0.527562
-0.490986
0.334596
-0.327250
-0.228774
-0.787270
0.135967
-0.527054
-0.220755
-0.384652
-0.246789
0.038145
-0.002464
-0.174067
-0.482666
-0.336813
0.217402
0.137863
0.507398
-0.378621
-0.203489
0.084371
-0.443325
-0.235264
-0.215422
-0.195807
-0.322839
-0.043752
-0.477575
0.421443
-0.245412
-0.197637
0.272243
0.048362
0.101041
-0.509082
-0.222782
-0.379559
-0.180832
-0.364646
0.049477
0.079629
0.093617
0.032422
-0.917636
-0.458621
-0.160003
-0.285995
-0.550223
0.418292
0.292617
0.072136
0.185764
0.282111
0.443815
-0.484344
0.065972
-0.668513
-0.184768
0.267613
-0.505519
-0.454924
-0.788385
-0.605703
-0.570885
-0.890563
-0.728989
-0.558363
-0.948214
-1.206342
-0.183361
0.046394
-0.621171
-0.404338
-0.060381
-0.587368
-0.721388
-0.702605
-0.665393
0.145543
-0.491871
-0.094582
-0.758318
-0.065430
-0.193326
0.335037
-0.218502
0.027423
-0.357473
0.061726
0.317872
-0.055380
-0.176948
-0.453698
0.284875
0.179092
0.338288
-0.413975
-0.828457
-0.230670
-0.556930
-0.502588
-0.874755
-0.063695
0.004427
-0.285675
-0.252188
-0.012584
-0.298367
-0.123003
-0.037209
-0.009419
0.303096
0.043426
0.071227
0.044714
-0.209382
0.028043
0.310756
-0.165094
-0.139416
-0.183201
-0.452713
-0.282349
-0.199562
0.067144
-0.774209
-0.610398
-0.186670
-0.670063
-0.188221
-0.577498
-0.638124
-0.435449
0.071215
-0.487860
0.046209
-0.116675
-0.536779
0.062011
0.275671
0.412857
0.166746
-0.655774
-0.172513
-0.511421
0.220139
-0.028101
0.677930
0.205834
0.438336
-0.185973
-0.022737
0.230166
-0.392871
0.010523
-0.095667
-0.098086
-0.452371
0.292689
0.295923
0.067120
0.265167
-0.628456
-0.488695
-0.341245
-0.461482
0.035001
0.271435
-0.527639
0.214964
-0.188024
0.372673
0.430271
-0.171995
-0.321809
-0.512640
0.005878
-0.372140
0.635742
0.652955
-0.236209
0.571651
0.279704
-0.140683
-0.172679
-0.284136
0.377476
-0.373508
-0.182485
0.243433
0.069323
0.068185
0.174098
-0.143479
-0.125581
-0.362875
-0.679539
0.080446
0.131722
-0.143089
0.161412
-0.130733
0.166381
0.457618
0.680174
-0.254224
-0.432785
-0.428846
0.344701
-0.054622
-0.112554
-0.088464
-0.090279
0.518007
-0.128821
-0.548774
0.022665
0.422453
0.145616
-0.345324
-0.328383
0.043156
-0.534426
-0.385513
-0.419741
-0.092969
-0.449924
0.015721
-0.482499
-0.057899
-0.166819
-0.574797
-0.510087
-0.066943
0.544673
0.251888
-0.085696
-0.010325
-0.187089
-0.454478
-0.162323
-0.367077
-0.089935
0.282366
-0.146785
-0.451189
-0.471507
0.378593
0.342938
0.524716
-0.521032
-0.281963
-0.203724
0.020682
0.211330
0.091884
0.292355
0.467788
-0.169776
0.095801
-0.158329
-0.233145
-1.171760
-0.179426
-0.542239
-0.726198
-0.263515
-0.671464
0.141824
0.406115
-0.294221
-0.348726
0.201155
0.323921
0.415303
0.014231
0.271144
0.236295
-0.043886
0.018552
0.319262
0.143996
0.426377
-0.094333
0.224065
0.152863
-0.503610
0.154645
0.189827
0.038784
-0.584623
-0.481518
-0.713346
-0.409160
-0.477875
-0.293390
-0.136373
-0.631175
-0.559873
-0.008158
0.259655
-0.058727
0.346566
-0.180678
0.496804
0.067667
-0.040080
-0.305838
0.260460
-0.429126
-0.095079
0.332783
0.333578
0.195460
-0.014263
-0.144053
0.418152
-0.353021
-0.494331
-0.017189
-0.214859
0.127147
-0.265061
-0.166524
-0.336132
-0.598645
-0.591190
-1.106125
-0.007627
-0.502590
-0.007882
0.385561
-0.145690
0.469951
0.544376
-0.283802
-0.006466
0.371914
-0.194340
-0.146006
-0.128476
0.402820
-0.278726
-0.293260
0.324040
0.071810
0.342739
-0.392547
-0.461868
0.120524
0.026725
-0.031879
-0.377570
-0.048244
0.072619
0.199880
0.326907
-0.454378
-0.641310
-0.214859
-0.426994
-0.097826
-0.308151
-0.228964
0.535535
-0.155683
0.408519
0.060239
-0.300629
-0.644801
0.485575
0.444293
-0.152620
0.254448
0.231782
-0.226876
-0.189321
0.476935
0.248305
0.211586
0.151267
0.072930
-0.422892
0.170171
-0.025553
0.447032
0.632718
-0.011099
0.155628
-0.246641
-0.845892
-0.274775
-0.026878
0.475231
0.319930
-0.227868
0.340595
0.102646
0.142856
0.358215
-0.187527
-0.207433
0.224447
0.481293
-0.377474
-0.345322
0.050153
0.544367
-0.191617
0.226630
0.156474
-0.584445
-0.499179
-0.508483
-0.284361
-0.277651
0.048627
0.133216
-0.307817
-0.623410
-0.612609
-0.833566
-0.268964
-0.724603
-0.567575
-0.446009
0.146506
0.214256
0.165452
0.660547
0.646453
0.732900
0.006237
0.021380
-0.266437
-0.397709
0.030547
-0.094862
-0.039736
0.519083
0.243377
0.523526
0.542987
-0.189700
-0.194081
-0.237537
0.319074
-0.041873
0.348417
0.257172
-0.439248
-0.262249
-0.358939
-0.933901
-1.049450
-0.358968
-0.073852
0.201313
-0.197292
0.273873
0.021046
0.326673
0.744156
0.110884
0.220797
-0.122447
0.489865
-0.160628
0.278779
-0.198649
0.351700
-0.103239
-0.207319
0.157957
-0.043991
0.127911
0.188080
-0.523794
-0.337744
-0.139519
0.213061
-0.085690
0.224473
-0.466202
-0.290910
-0.522576
-0.447172
-0.553184
-0.257116
-0.198732
-0.289189
0.102466
0.292524
0.363121
0.673436
0.037912
-0.002832
-0.492135
0.008591
-0.329495
0.032807
-0.046335
-0.015459
0.260629
0.031199
-0.206371
0.209058
-0.048284
-0.557466
-0.200131
-0.501151
0.009953
-0.615010
-0.016507
-0.053397
-0.400869
-0.782500
-0.787975
-0.901881
-0.240541
-0.698624
-0.133469
0.088418
-0.349015
0.623604
-0.034708
-0.332217
0.556816
0.155895
-0.555286
0.499595
0.208795
0.080205
0.482781
0.656291
0.288854
0.433603
-0.244231
0.002024
0.068257
-0.578889
0.101936
-0.171008
-0.509900
-0.711253
-0.503414
0.498457
-0.052733
-0.933916
-0.613086
-0.729283
-0.022174
-0.278525
-0.533284
-0.371474
0.167921
0.425160
-0.101119
0.517881
-0.188696
0.042173
-0.384457
-0.343907
-0.128524
0.327175
0.061332
-0.038142
0.469612
-0.329470
0.519901
0.256204
-0.265070
0.167614
-0.001677
-0.311157
0.269013
0.198550
-0.068264
0.549753
0.189811
0.098799
-0.569250
-0.686791
-0.563076
-0.043737
-0.520326
-0.165325
0.070282
0.150818
0.318048
0.375333
-0.137544
-0.241559
-0.380503
-0.503989
-0.253007
0.281191
0.020135
-0.095818
0.407829
0.095930
0.095872
-0.253183
0.040211
-0.325695
0.188486
-0.139772
-0.113961
0.234739
0.111070
0.557553
0.350862
-0.524394
-0.105384
-0.688830
-0.174705
-0.306394
-0.453179
0.009299
-0.288392
-0.157718
0.425044
-0.218978
-0.279433
0.228195
-0.290032
-0.017992
-0.279704
-0.052811
0.149106
0.546429
0.177605
0.209082
0.481757
0.316241
0.163885
-0.153403
0.056584
-0.166639
-0.014925
-0.663643
0.273390
0.533786
0.300199
-0.321800
-0.321904
-0.367358
-0.160300
-0.438758
-0.045970
-0.137146
-0.172867
-0.408713
-0.050347
-0.078821
0.319496
-0.093051
-0.218501
0.220934
-0.226848
-0.371447
0.265741
-0.016960
-0.154738
0.119354
-0.143684
0.351623
-0.449142
-0.432776
-0.095313
-0.607385
0.246094
-0.230604
-0.487968
0.381528
0.184853
-0.521767
-0.362425
-0.270494
-0.649311
-0.046217
-0.042668
0.169958
0.174979
0.188726
0.643750
0.170414
0.317511
0.281262
0.051664
-0.047382
0.011263
-0.517500
0.100500
-0.271135
0.220751
0.264845
-0.025827
-0.188793
-0.373264
-0.317048
-0.847395
-0.523663
-0.257570
-0.235797
0.298380
-0.287332
-0.454668
-0.493293
-0.376253
-0.549415
-0.297204
0.078171
-0.364986
0.121803
0.350730
-0.282890
0.463010
-0.056096
0.249847
0.537606
0.476932
0.279157
0.178154
0.234127
-0.129146
0.408363
0.004065
0.376415
0.151560
0.010680
0.376969
0.042788
-0.480097
-0.223394
-0.495857
0.047611
0.294511
0.304772
0.247825
-0.464270
-0.171152
0.136314
-0.497485
-0.589968
-0.247832
-0.400416
0.470043
0.558998
0.184827
-0.310751
-0.033458
0.538091
-0.437474
0.133062
0.274182
-0.341066
-0.113793
-0.102109
-0.327667
0.235214
-0.224311
-0.286680
-0.173693
-0.178422
0.196596
0.256846
-0.479894
-0.474514
0.556803
-0.316182
-0.358982
0.595992
0.374880
0.210753
-0.150524
-0.324003
0.234601
-0.345187
-0.224002
0.173543
0.005857
-0.013728
-0.129527
-0.309120
-0.383812
0.175734
-0.485755
0.176527
-0.401731
-0.368035
0.544090
0.520388
-0.211995
-0.394829
-0.357594
0.034403
0.265595
0.129482
-0.147337
-0.253652
-0.230914
-0.168124
0.635843
0.325735
0.496027
0.156642
0.595037
0.308697
0.120874
0.159348
0.472000
0.306222
-0.212265
0.389134
0.263401
-0.380438
-0.773488
-0.624863
0.060037
-0.035839
-0.334685
-0.067125
0.365353
0.255615
0.532031
-0.501009
-0.476863
0.273092
-0.482624
-0.476922
0.217594
0.612269
0.282577
0.797782
0.793418
0.638630
0.885555
0.777456
0.223491
0.537687
-0.566667
-0.140223
0.465864
-0.378945
-0.352132
0.088926
-0.308021
-0.582249
0.015330
-0.336884
-0.078610
-0.288743
-0.244313
-0.381906
-0.393394
-0.450182
0.380525
0.277078
-0.675237
-0.301516
0.023175
0.282550
-0.040265
0.049068
0.311276
0.305390
0.726651
1.065163
0.807326
0.888250
0.804467
-0.086121
0.003043
-0.171607
0.024501
-0.475912
-0.548468
0.296291
-0.616942
0.019009
-0.915821
-0.441969
-0.565178
0.068650
-0.437419
0.147385
-0.405491
-0.150592
-0.775263
-0.325918
-0.574936
-0.162783
0.012595
0.264791
0.319726
-0.049354
0.086567
0.845313
0.583256
1.211606
0.567414
0.747870
0.129393
0.450783
0.165665
-0.362590
-0.388568
-0.331339
-0.740191
-0.493444
-0.228065
-0.511319
-0.001063
-0.052708
0.074108
-0.449332
0.021505
-0.822701
-0.300881
-0.004128
-1.071806
-0.706154
-0.382052
0.093344
-0.000368
0.595705
-0.391614
0.032659
-0.021083
0.534956
0.386347
-0.034186
0.514905
0.408897
0.193333
-0.600281
-0.199446
-0.291222
-0.083640
0.044361
-0.320692
-0.912657
-0.072925
-0.091779
-0.296394
-0.657684
-0.162592
0.182995
-0.327153
-0.559047
-0.588281
-0.178410
-0.343144
-0.337228
-0.188721
-0.212070
-0.512610
0.151986
0.380177
0.116938
0.645582
0.710372
0.457842
0.119147
0.550232
-0.335776
0.430835
-0.269024
-0.503522
-0.089805
-0.007185
-0.340241
-0.427569
-0.694353
-0.991991
-0.541355
0.031117
-0.424629
0.197597
0.326187
0.140022
0.004421
0.210215
-0.476401
0.033727
-0.575550
-0.012367
-0.047286
-0.274646
0.420003
0.051980
0.083644
0.251434
0.424031
0.157360
0.665565
0.245972
-0.076409
0.208290
-0.103331
-0.017242
-0.478985
-0.307627
-0.739241
-0.186564
-0.783679
-0.508018
-0.600027
-0.600539
-0.096998
-0.019804
0.081300
0.175747
-0.185204
-0.384647
-0.259847
-0.179309
-0.208170
0.252349
0.422237
0.207636
-0.364111
0.053387
-0.157850
-0.289884
0.090204
-0.099680
-0.382749
-0.861041
-0.772151
-0.608394
-0.946013
-0.694815
-0.779648
-0.122524
-0.402511
-0.181308
0.043384
0.267640
0.024649
-0.226053
0.228238
0.136482
-0.288688
-0.043907
-0.111028
0.334815
-0.538085
-0.232511
0.223777
-0.490575
-0.340165
0.222653
0.116630
-0.294048
0.026490
0.344325
-0.265657
-0.461405
-0.669970
-0.966042
-0.754144
-0.136122
-0.640071
0.040822
-0.596343
-0.166740
-0.792882
0.038500
-0.181401
-0.151584
-0.408766
0.343115
-0.310893
-0.224132
-0.079092
0.230849
0.127888
-0.278396
-0.433475
-0.178294
0.028371
-0.345597
0.253702
0.443768
-0.442642
-0.417397
-0.314693
-0.143341
-0.136575
-0.027037
-0.754191
-0.469594
-0.281741
-0.777001
-0.570664
-0.468013
-0.290968
-0.572837
-0.669892
-0.102417
0.179805
0.266688
-0.066129
0.279449
-0.418861
-0.187931
-0.292648
0.379736
0.043202
0.071027
0.437858
-0.331198
-0.156617
-0.072377
0.499270
-0.256236
0.115416
-0.044826
0.347620
-0.432358
-0.084642
-0.399114
-0.997338
-0.540510
-0.318924
-0.080510
-0.038408
-0.895317
-0.344754
0.319306
-0.263976
0.041023
0.149747
-0.377597
-0.295482
-0.239889
-0.100201
-0.036200
-0.262803
0.108343
0.383663
0.039943
-0.334207
0.631662
-0.136706
-0.170940
0.178995
0.444836
-0.358481
0.077989
-0.348226
-0.366530
-0.024367
0.103367
-0.473582
-0.387697
-0.122254
-0.354693
-0.397629
-0.640113
-0.423874
-0.101069
-0.557659
-0.082745
0.279467
-0.270717
-0.359641
-0.324437
-0.089576
-0.407272
-0.572889
0.222953
0.380723
0.532669
0.451678
0.253682
0.294493
0.041065
-0.096103
-0.167112
0.313209
-0.481910
0.261323
-0.232411
0.304321
0.212541
-0.784738
0.137070
-0.426532
0.528139
-0.197823
-0.200213
-0.034137
0.467589
0.146146
-0.519642
0.308671
-0.625139
-0.740842
-0.532237
-0.575930
-0.092631
0.404948
0.142464
-0.065133
-0.109011
0.394147
0.582493
-0.030377
-0.072073
0.180382
0.466246
0.535074
0.001293
-0.428067
0.534423
-0.379398
0.132560
-0.383538
-0.529389
-0.636586
-0.416206
-0.336375
0.117714
-0.319393
-0.028087
-0.138057
-0.233703
0.269615
0.151395
-0.170260
-0.199892
-0.075137
0.020964
0.113587
-0.110204
-0.561231
0.625106
-0.299260
0.283994
0.313508
0.081356
-0.043240
0.310922
-0.077904
-0.330186
0.154941
0.342475
0.613654
0.049705
0.084480
-0.198302
0.181075
0.643335
0.143384
-0.157491
0.455753
-0.179306
0.198764
-0.338203
-0.121781
-0.842924
-0.073421
-0.314481
0.153348
-0.478473
0.016333
0.026345
-0.239798
0.337942
0.472807
0.631233
0.792384
0.399740
0.752788
-0.358702
0.067655
0.429626
-0.277347
0.106429
0.371641
-0.301409
-0.047772
-0.211372
0.256304
0.203798
-0.017488
0.004083
-0.135360
0.084947
-0.357338
-0.029865
0.492489
-0.512669
-0.186384
0.438888
-0.057809
0.143070
0.341020
-0.086209
-0.103944
0.504876
0.648061
0.390413
0.044852
-0.045301
-0.160082
-0.184677
0.002410
0.376754
-0.522628
-0.104836
0.183044
0.360708
-0.302730
0.571331
0.464679
0.753413
0.724688
-0.145280
0.280320
-0.234455
-0.260500
0.262596
-0.300751
-0.656774
-0.520865
0.366328
-0.294233
-0.202365
-0.212063
-0.133949
0.333948
-0.013655
-0.318346
0.543338
0.644354
0.250768
0.165560
-0.057329
0.601988
-0.270045
-0.010597
0.251045
0.349359
-0.325546
0.120635
-0.300398
0.122583
-0.080718
-0.139859
0.342278
0.124838
-0.414786
0.571491
0.460602
-0.162559
-0.361384
-0.543449
-0.391744
-0.143260
-0.520027
0.041881
-0.332927
0.070713
0.139818
0.378004
0.611988
0.186494
0.659643
0.754944
0.034389
0.603594
0.594240
-0.256742
-0.476033
-0.523478
0.675269
0.244226
-0.023512
0.248627
0.109132
-0.306981
0.402402
0.393128
-0.187841
0.311294
0.348471
0.177637
-0.271113
-0.612800
-0.266204
-0.037785
0.399214
0.355642
0.179442
0.520439
-0.143116
0.072131
0.727503
0.421389
-0.209128
0.532199
0.150000
0.253867
-0.359791
-0.374448
0.339843
-0.238486
-0.208688
-0.225251
0.493420
0.306099
0.031566
-0.050312
0.455920
-0.322689
0.185395
-0.388527
-0.154862
0.298478
-0.470465
-0.285681
-0.292261
0.387853
-0.331765
-0.251151
-0.111759
0.332560
-0.362251
0.315411
0.022569
-0.264708
0.315228
0.496948
0.072579
0.117844
-0.231211
0.328718
0.536319
0.487632
0.462256
0.470813
0.509468
-0.345077
-0.273673
-0.250828
0.524014
0.276907
-0.216568
0.131362
-0.285443
-0.098138
0.347773
0.578023
0.394656
-0.356790
-0.390676
0.131481
0.339146
0.240617
-0.248083
0.496011
-0.314186
0.606508
-0.103107
0.551490
-0.227385
-0.184454
-0.354419
0.210781
0.396767
0.214431
-0.020255
0.629255
-0.220804
0.164363
-0.369174
-0.320468
0.377149
-0.443421
0.156778
0.037205
-0.501003
-0.308596
-0.586141
0.434827
-0.097339
-0.461317
-0.453773
-0.342869
0.487118
-0.202105
-0.251777
0.232996
0.633837
0.517292
0.109040
0.434640
0.399547
0.212663
0.070330
-0.069533
0.392772
0.620452
0.054786
0.199628
-0.247250
0.178983
0.372630
-0.434551
0.330630
-0.564134
0.286743
0.016828
-0.469152
0.105117
-0.066546
0.169180
-0.131133
-0.057583
-0.115574
0.203814
0.276871
0.299000
0.221083
-0.359979
-0.158558
0.500759
0.088015
0.294070
0.066905
0.458033
-0.343972
0.177756
0.248404
0.066121
-0.033677
-0.298887
0.206533
0.549849
0.046614
0.292267
-0.143283
0.297969
-0.004424
0.385803
0.290102
0.012620
-0.218261
0.149787
-0.034199
-0.106405
0.033981
-0.515900
0.002439
0.302846
0.018690
-0.064027
-0.120748
0.588928
0.111305
-0.106380
-0.054630
0.313380
-0.140251
0.635363
-0.316762
0.251168
0.444027
-0.350026
-0.306059
0.522158
0.127534
0.047103
0.509273
0.326438
0.226506
0.531119
-0.554495
0.251494
-0.376792
0.394788
0.397085
0.362748
-0.574282
-0.106975
-0.118512
-0.000022
0.096768
0.211292
-0.028140
0.240124
0.379687
0.467747
0.094840
0.532308
0.410544
0.094876
0.532286
-0.184535
0.107746
0.118849
-0.157730
0.553953
0.295965
0.679512
0.493389
0.117044
0.362197
0.112634
-0.185176
-0.471268
-0.047918
-0.076511
-0.156904
0.196884
0.044174
-0.052429
-0.463240
-0.375331
-0.059665
-0.072013
0.182667
0.481444
0.332108
-0.028458
0.095760
0.009626
0.438976
0.200832
-0.476950
-0.042601
0.126345
0.365112
0.513192
-0.194631
0.078195
0.207442
0.054853
-0.289850
0.164972
-0.071632
0.261993
-0.481560
0.442120
-0.535658
-0.634973
0.055206
-0.439264
0.408448
-0.161699
0.205103
0.368576
-0.396407
-0.167976
-0.002083
0.420494
0.261134
0.377997
0.336175
0.253124
0.348359
-0.521845
-0.352922
-0.406402
-0.217074
-0.371404
-0.247615
0.257966
0.531274
0.615589
0.684878
-0.264103
0.288989
0.203243
0.034493
-0.466170
-0.142160
-0.705145
0.204268
-0.239748
0.078842
0.138067
0.481596
0.135552
0.248607
0.529210
0.032366
0.308819
-0.290132
0.013557
-0.002680
-0.244567
-0.430508
0.010440
-0.180527
0.262846
-0.325023
-0.244752
-0.393773
-0.039864
0.633091
0.216878
0.591785
0.391934
-0.104364
-0.045703
-0.378781
-0.383484
-0.125655
0.209822
-0.204121
0.439161
-0.218648
0.231037
0.153734
-0.023733
0.094111
0.317560
-0.282217
0.002951
0.327241
0.164101
0.147207
-0.331698
0.256195
-0.479433
-0.344342
-0.060548
0.155796
-0.066276
-0.094007
0.085325
0.137410
0.523449
0.451258
0.015095
0.199843
-0.528215
0.160191
0.126733
-0.471918
0.140957
0.195578
0.272655
0.361011
0.198115
-0.323155
0.150309
0.073555
0.651644
0.642035
0.568956
0.098980
-0.081358
-0.494568
-0.438112
-0.609471
-0.499564
-0.582746
-0.623169
-0.486442
0.310725
-0.229170
-0.055516
0.609027
0.336010
0.471629
0.436051
-0.033505
-0.525160
-0.230829
-0.561524
-0.397165
0.062225
0.112824
-0.345940
0.344618
-0.216690
0.070442
0.464765
0.015144
0.615759
-0.205788
0.002753
0.214260
-0.104295
-0.719619
-0.692435
-0.206410
-0.561254
0.034374
-0.826730
0.111963
-0.472432
0.143441
0.530608
0.074295
-0.056443
-0.179396
0.134072
-0.089317
0.168034
-0.512625
-0.409579
-0.457725
-0.465919
-0.333157
0.387376
0.168426
-0.114447
0.354077
0.041413
-0.011575
-0.254878
0.484921
-0.023536
0.342654
0.441577
-0.189361
0.210275
-0.487485
-0.126089
-0.074492
-0.626653
0.150767
-0.159577
0.067757
0.377418
0.357430
0.620565
0.706225
0.022933
-0.132913
-0.530479
-0.574433
-0.275030
-0.434258
-0.609638
-0.587713
0.266506
0.499403
0.445286
0.178650
0.357569
0.340013
0.288085
0.521106
-0.277027
0.055065
-0.340169
0.033883
0.077785
-0.226234
-0.533875
-0.067455
-0.430289
-0.175665
-0.139965
0.095252
0.129405
0.015498
0.432981
0.155237
0.239572
0.313276
-0.373190
-0.329891
0.031099
-0.582887
-0.201033
0.001009
-0.508178
0.186347
-0.535228
0.022454
0.370565
0.004884
0.309498
-0.154104
-0.320784
0.399973
0.102036
-0.792848
-0.743944
0.189093
0.028126
-0.350349
-0.201211
0.363711
0.074458
-0.343055
0.317931
0.162794
0.828266
0.569178
0.311809
-0.037658
-0.323278
-0.313550
0.094094
0.317149
0.282966
-0.603903
0.039732
-0.157609
0.183383
-0.011500
-0.157258
-0.361807
-0.000707
0.517867
-0.036056
-0.655703
-0.545066
-0.432782
-0.423960
-0.545793
-0.337387
-0.026389
-0.177036
-0.630477
0.132804
-0.144957
-0.134707
0.691386
0.200881
0.169117
0.432739
0.091787
-0.327049
-0.109712
-0.499540
-0.065292
-0.120449
0.146276
0.180729
-0.168867
0.423547
0.026367
0.441251
0.113846
0.433282
0.335676
0.460004
0.010337
0.323417
-0.397042
-0.535817
0.064061
-0.580339
0.271813
0.243662
0.349475
0.248563
-0.194035
-0.479832
0.170817
0.149994
-0.118915
0.081357
0.430207
-0.195280
-0.649410
-0.449875
0.161066
-0.492192
-0.356243
-0.093005
-0.399265
-0.261031
-0.226540
-0.453594
0.322970
0.331107
-0.079847
-0.468028
0.258069
0.012782
-0.215279
-0.092742
-0.210457
-0.241483
-0.261095
-0.145415
0.051271
-0.093679
-0.177298
-0.219653
0.070410
0.140589
-0.635917
-0.481825
0.090458
-0.309841
0.026264
-0.566452
-0.130338
0.224014
0.146966
-0.478308
-0.331130
0.055077
0.206634
0.146671
-0.633459
0.048628
0.017434
-0.231823
0.036634
-0.135708
0.392950
0.113902
-0.047818
-0.375581
-0.525354
-0.261079
0.360983
-0.031690
-0.674600
-0.410918
-0.785863
-0.389535
-0.637332
-0.551802
-0.017570
0.174644
-0.291258
0.171662
-0.579889
-0.247237
-0.459958
0.058355
0.240239
0.037855
0.398750
-0.284633
-0.392676
0.133513
-0.088777
-0.116850
0.218406
0.395455
-0.185157
0.430462
-0.091800
0.318779
-0.377200
0.086210
-0.435420
-0.665755
-0.326089
0.054826
0.375896
0.481747
0.485848
0.032591
0.008982
0.274383
0.114117
0.434304
-0.073355
0.504031
0.246589
0.185845
0.206379
-0.250726
0.074256
0.004444
-0.463124
-0.032231
0.197900
0.307521
-0.124866
0.220994
-0.053830
-0.413585
-0.222109
0.508915
0.059683
-0.017138
-0.362919
-0.216341
-0.187590
-0.364797
-0.457644
0.527012
-0.326302
-0.409852
0.502982
0.156013
0.216159
0.064769
-0.360949
0.481281
0.276320
-0.257954
0.432037
0.412682
0.105902
-0.135905
0.234471
0.287265
-0.096542
0.088284
0.438420
-0.256910
-0.371167
-0.077631
-0.214490
0.172424
-0.176590
-0.481270
-0.462232
-0.314004
0.270382
-0.612092
-0.207218
0.447129
0.469047
-0.462292
0.365449
-0.217720
-0.120661
-0.170915
0.388558
0.033010
0.376760
-0.039330
-0.003878
-0.135103
0.143269
0.342957
0.466055
-0.430491
-0.206504
0.140040
0.322210
-0.387595
-0.354914
-0.478955
-0.233932
0.105509
0.471108
0.290171
-0.037845
-0.343874
0.311314
-0.451473
-0.268692
0.557715
-0.439301
-0.325137
-0.123793
-0.130187
0.495040
-0.067833
-0.173531
0.590989
-0.193626
-0.292805
-0.127856
0.180610
-0.109053
0.342336
-0.382722
0.483754
-0.257736
0.179705
-0.086241
0.012818
0.317458
-0.048409
0.587284
-0.223820
0.122365
-0.029476
0.102564
0.071149
0.370870
0.046589
0.023508
0.597320
-0.033639
-0.409552
0.264149
-0.071088
0.647462
0.299201
0.429404
-0.255734
-0.246962
0.239888
0.211257
0.053514
-0.282681
0.422387
0.551273
0.315964
-0.311511
-0.101442
0.275334
0.434369
0.183268
0.368805
-0.117327
-0.100112
-0.221829
-0.385300
0.026287
0.262305
-0.295221
-0.333105
0.183710
-0.342677
0.139962
0.195914
-0.223822
0.057129
0.075781
-0.116561
-0.111234
0.418264
-0.013758
0.425126
0.455829
0.497950
-0.001293
-0.130281
0.122899
0.012004
0.565699
0.401493
0.249317
0.147587
0.083446
0.542070
-0.218699
-0.365921
0.550451
-0.057191
0.101784
-0.368222
0.104056
0.374203
-0.549508
-0.276487
-0.578886
-0.072888
0.194488
-0.352410
0.121455
0.274991
-0.004515
0.375703
0.306195
-0.220691
-0.247540
0.263847
0.375946
0.020603
0.276434
0.498470
-0.015759
0.273668
-0.449719
-0.138167
0.356158
0.311953
0.586797
0.130968
0.368789
-0.251921
-0.029722
0.248555
0.504304
-0.013180
-0.433267
-0.137721
-0.352673
-0.651601
-0.439633
0.270648
0.354058
0.086249
0.295149
0.297099
0.627840
-0.342097
0.378412
-0.059315
0.123086
-0.142665
-0.434580
-0.418196
-0.133385
-0.130563
0.519850
0.161403
-0.414974
-0.039814
-0.252283
0.005454
0.250768
0.263241
0.160226
-0.542451
0.240884
-0.260342
0.227525
0.009790
0.106800
-0.423132
-0.003437
-0.309591
-0.033346
0.204381
0.009113
-0.185210
-0.208138
-0.078085
0.285940
-0.431237
-0.329394
-0.410108
0.407004
-0.139983
-0.149646
0.190315
0.343554
0.356621
-0.286514
0.582458
0.234483
-0.303521
-0.096085
0.326700
0.242777
0.406047
0.096120
-0.381051
-0.042322
0.125098
0.367158
-0.035533
-0.140531
-0.156822
-0.053401
0.490555
0.120737
-0.264673
0.463299
0.116316
-0.375506
0.125455
0.249453
0.396754
0.365983
-0.039463
-0.096137
-0.466532
-0.217897
-0.180229
-0.211539
-0.413915
0.450469
-0.157510
-0.384675
0.425376
0.131636
-0.109823
-0.245221
-0.212183
0.019854
-0.100546
0.257244
-0.165006
0.192818
-0.114154
0.242863
0.566204
0.043455
0.139390
-0.302256
-0.276320
-0.374472
0.359142
0.419756
-0.323599
-0.422388
-0.191379
-0.064650
0.231749
-0.033695
0.142308
0.085125
0.223625
-0.041582
-0.007472
-0.230296
0.188409
0.065034
-0.268500
-0.166561
-0.188713
-0.442588
-0.361435
0.350656
-0.136416
0.182376
0.144128
0.414742
0.342300
0.529933
-0.296466
-0.094661
0.273041
-0.282510
0.352468
0.471632
-0.399693
-0.356799
0.061962
-0.084563
0.339019
-0.429948
-0.399065
0.153138
-0.231896
0.254424
0.465593
0.071470
-0.207980
-0.499916
0.166831
0.296446
-0.351918
0.227169
-0.272118
0.452324
-0.108376
-0.155166
-0.201497
-0.044112
-0.171723
0.574433
0.076570
0.134315
0.517837
0.410789
-0.025237
0.110539
0.138003
0.487018
-0.425750
0.388557
-0.145433
0.039037
0.156915
-0.194122
-0.281487
0.305004
-0.097320
0.493700
0.398226
-0.310228
-0.181859
0.245568
0.130509
-0.092519
0.141007
0.134763
0.393939
0.399149
-0.115725
0.555968
-0.087670
0.028872
0.168737
0.193669
0.247577
-0.482584
-0.320663
0.171642
-0.237120
-0.187143
0.405297
0.412923
-0.161796
-0.241146
-0.296743
0.136093
-0.025525
0.058770
-0.331969
0.197891
0.035261
0.085783
0.188565
0.177294
-0.352155
-0.296206
0.260259
-0.275459
-0.167610
0.002537
0.068137
0.413812
0.500193
-0.171140
0.423354
0.332824
-0.005973
0.430177
-0.348663
-0.416541
0.237182
0.202820
-0.012363
0.141148
-0.411394
0.074868
0.066249
0.369133
-0.388305
0.574905
0.122477
0.419669
0.543501
0.224813
-0.244379
-0.169243
-0.602026
0.006547
-0.407861
0.430045
-0.003128
0.353128
0.253098
-0.200034
0.292152
0.525276
0.350162
0.020440
0.205608
0.160848
-0.424613
0.153824
-0.497974
-0.233686
0.030655
-0.353323
-0.162019
0.261633
0.475303
-0.037558
-0.308295
0.025521
-0.225310
0.304681
0.012717
-0.014771
0.588830
0.553590
0.132200
0.231265
-0.237526
0.487947
0.101640
0.352422
0.422822
-0.038357
0.425931
-0.001927
-0.104642
0.277399
-0.180956
0.079603
-0.345822
0.389138
0.164840
-0.371558
0.480101
-0.039303
-0.446642
0.105355
0.053772
0.089620
-0.076560
-0.167377
0.447139
0.438656
0.240384
0.103148
-0.251433
0.607343
-0.427886
0.255281
-0.223441
-0.066214
-0.246083
-0.275933
-0.079592
0.230372
0.111996
0.238673
0.111928
-0.414738
-0.459146
0.051568
-0.243291
0.466475
0.448184
0.103747
0.074313
0.442941
0.239433
-0.398251
0.416590
0.222730
-0.183062
-0.115910
0.191347
0.165937
0.016418
0.397696
0.683420
0.574241
-0.289233
-0.086628
-0.304115
-0.502245
-0.498059
0.536606
0.654021
-0.061922
0.358449
0.090195
-0.189593
-0.098218
0.383145
-0.244200
-0.002785
0.273958
0.452125
0.317216
0.170260
-0.384472
0.330087
0.533768
0.226106
0.031876
-0.130493
-0.065319
0.617937
0.220387
0.630425
0.044616
-0.030538
-0.082239
-0.319267
-0.077920
0.028157
-0.022755
-0.450577
-0.088017
-0.122696
0.154269
0.215271
0.301441
-0.246214
-0.095448
0.010963
-0.530389
0.414290
-0.029261
-0.496670
-0.338818
-0.480036
0.153175
0.248735
-0.278066
-0.215120
0.060632
-0.015541
-0.110637
0.032270
-0.130685
0.609472
0.152109
0.233852
0.307775
-0.753468
-0.513658
-0.607195
-0.107596
-0.541239
0.124220
-0.079259
0.126465
-0.178811
-0.109480
0.405887
0.466734
-0.338700
0.364229
-0.115458
0.114309
-0.437467
-0.150680
0.493639
0.331829
0.436047
0.423000
0.073873
0.404807
0.417396
0.492810
0.356762
-0.116056
-0.089130
0.436643
-0.097962
-0.278882
-0.464641
-0.106290
-0.677477
-0.213017
-0.708376
0.416807
0.625959
-0.272548
0.224993
-0.444650
0.307191
0.452182
0.119858
0.260673
-0.025524
0.383861
0.181653
0.389705
0.180639
-0.229134
-0.374197
0.386512
-0.087434
-0.219476
0.429168
0.261581
-0.305526
0.310089
-0.249924
0.141263
0.653189
0.073761
0.189967
-0.736303
-0.512696
-0.002997
-0.397122
0.163064
0.372206
-0.269294
0.586703
-0.165310
0.260999
-0.349966
-0.214385
-0.308868
0.447143
0.060086
-0.117592
-0.218075
-0.194989
0.025056
0.233403
-0.142701
-0.253548
0.000339
0.563750
-0.113279
0.722638
0.216194
-0.172538
-0.057394
0.408673
0.405384
0.132467
0.172135
-0.367545
-0.180365
-0.224665
-0.272752
0.486593
0.356211
-0.194558
-0.019583
-0.422221
-0.256214
-0.177164
0.344517
0.076972
0.436105
-0.273585
0.364913
-0.495334
0.260072
-0.061678
0.274139
-0.361867
0.042668
0.372605
-0.117523
0.265907
0.041367
0.274661
-0.213149
0.418924
0.121872
0.173178
-0.131666
0.243050
0.036021
0.057761
0.334418
-0.256091
0.484039
-0.080470
0.407028
-0.334037
0.321894
0.498928
-0.086479
0.402210
-0.056259
0.096019
0.447339
0.212191
0.516308
0.457146
-0.342191
0.243156
-0.175332
0.452682
0.683342
0.660995
0.447808
-0.104929
0.386918
0.307723
0.679913
-0.110992
-0.286930
-0.406126
-0.221109
-0.658188
0.331975
-0.193788
0.248665
-0.316362
0.203886
-0.179971
-0.379425
-0.226093
0.281550
0.336813
0.493300
0.399083
0.256496
0.413608
-0.314163
-0.359327
0.411495
-0.136265
0.243154
0.091005
0.345840
0.278421
0.008483
0.205805
-0.059044
0.489714
0.543934
-0.084475
0.418758
-0.429214
-0.033211
-0.469845
-0.452883
-0.053000
-0.376359
-0.340935
-0.152747
0.538126
-0.281166
-0.014170
0.470662
0.131608
0.434566
0.018355
0.018869
-0.334069
0.030240
-0.397215
0.171873
0.379051
-0.007955
0.136610
0.118085
0.627267
0.085673
0.330493
0.505109
0.412259
0.560258
-0.012892
-0.244316
-0.241513
-0.460440
-0.754174
-0.197289
-0.060167
0.510639
0.159997
-0.071298
0.281198
-0.081017
0.205238
-0.348410
-0.321805
-0.042472
-0.187778
0.147035
0.298493
0.256377
0.096454
0.133969
0.045134
0.326611
-0.209573
-0.121594
0.569903
0.479724
0.372632
-0.184391
0.261687
0.324359
0.343038
-0.326375
-0.045470
-0.352816
0.254377
0.278514
0.091304
-0.008760
0.160177
-0.293273
-0.230800
0.048539
-0.392747
0.138242
0.116468
0.309135
0.199794
0.092677
-0.462116
0.035060
-0.135148
0.246889
-0.204155
0.457488
0.203687
0.283119
-0.175938
0.191925
-0.412533
0.393768
-0.094022
0.519676
0.405931
-0.024908
-0.074150
0.382118
-0.390132
0.273598
0.338969
0.450851
0.142470
-0.207677
-0.010653
-0.150563
-0.140585
-0.316021
-0.021437
0.324784
-0.143777
-0.322332
-0.170152
0.073872
-0.046316
-0.076807
0.030757
0.246117
0.395111
0.554234
0.268832
0.046951
0.163399
0.421759
-0.212603
0.739813
0.526380
-0.288878
-0.259909
-0.183984
-0.370756
0.361254
0.465725
-0.035363
-0.137180
0.279401
-0.442843
-0.432455
0.009164
-0.045875
0.216445
-0.059947
-0.403418
-0.476942
0.404477
0.228087
0.303157
0.161244
-0.493728
-0.226683
0.064090
0.418242
-0.420340
0.213627
0.352320
0.178724
-0.374777
0.079824
0.035223
0.370019
-0.174913
-0.357632
-0.094875
0.213134
-0.357166
-0.314017
0.235638
0.146073
0.007827
0.203377
-0.427431
0.291514
-0.008575
0.259293
-0.018830
-0.099827
-0.590034
-0.280804
-0.402251
-0.274770
-0.314105
-0.206958
0.350916
0.150839
-0.318626
-0.188546
-0.001184
0.356226
0.181432
0.171117
0.004682
0.513385
-0.142839
-0.180308
0.159444
0.352599
0.217807
0.141111
-0.646887
0.001622
-0.541436
-0.282434
-0.655001
-0.476788
-0.972830
-0.387476
-0.164272
-0.355075
-0.336421
0.164366
-0.069837
0.106120
-0.361982
-0.294747
-0.508465
0.044834
0.002345
-0.487821
-0.383124
-0.105996
-0.046764
0.190976
0.085054
0.373889
0.584570
0.100345
-0.662686
0.339496
-0.063256
0.252375
0.017507
-0.851884
-0.261415
-0.299576
-0.770133
-0.315885
-0.704775
-0.073121
-0.052252
-0.231054
0.269476
-0.026391
-0.378800
-0.224233
-0.631449
-0.028732
-0.216369
0.376979
-0.009418
0.162711
0.190836
0.255951
0.554260
0.387721
0.634667
-0.195990
-0.255193
-0.077246
0.176102
-0.384826
-0.571448
0.327848
-0.585264
-0.440281
-0.385313
-0.568930
-0.088328
-0.230314
-0.378993
-0.187824
0.204530
0.303256
0.253193
-0.102267
-0.531040
0.099421
-0.107252
0.269105
0.465981
-0.254282
-0.253410
-0.723784
-0.176766
-0.162078
0.488230
0.161440
-0.414835
-0.351273
-0.028192
-0.015300
0.082325
-0.075257
-0.123044
-0.128391
-0.451581
-0.714284
-0.538157
0.058862
-0.419027
-0.952583
-0.743944
-0.404558
-0.652397
-0.149236
-0.185893
-0.008871
-0.069237
-0.003183
-0.179709
-0.006479
0.574241
0.075017
-0.579459
-0.731995
-0.179262
-0.028484
-0.090328
-0.028699
0.244676
0.331274
0.018064
-0.160238
0.146857
0.002261
-0.166747
-0.135589
-0.624543
-0.678930
-0.312498
-0.534703
-0.133459
-0.232407
-0.398122
-0.385872
0.450911
-0.585179
0.249802
0.443195
-0.062950
-0.279559
0.488951
0.361749
0.175576
0.039960
0.034933
-0.312671
-0.278341
0.035861
0.326044
-0.570734
-0.718069
0.030250
-0.159868
-0.157718
-0.195074
0.507971
-0.158043
-0.255823
0.253615
0.004358
0.155233
0.024645
-0.007311
-0.854122
-0.107072
0.061888
-0.180005
0.471199
0.376244
-0.406107
0.276643
-0.210513
-0.345609
0.467697
-0.499588
-0.552841
-0.047197
-0.346750
0.006750
-0.549143
-0.091938
0.188684
0.025879
-0.170893
-0.237121
-0.144755
0.154961
-0.137075
0.265034
0.249053
-0.460347
-0.057134
-0.597431
-0.222665
-0.296999
-0.710800
0.080659
-0.538751
0.077411
-0.383116
-0.356200
-0.385158
-0.372798
0.224473
0.151729
-0.442565
-0.349914
-0.437385
-0.526514
-0.243612
0.333192
0.053055
-0.186035
-0.313220
-0.134825
-0.125434
0.787420
0.222227
0.818994
0.141038
0.890917
0.492376
0.450728
-0.231452
0.358573
-0.102484
-0.058944
-0.227846
-0.261192
-0.129696
0.366473
0.272252
0.216528
0.464803
0.240534
-0.301890
-0.540407
-0.228366
0.430552
0.121896
0.247482
-0.009183
-0.389192
-0.367123
-0.359253
0.260014
-0.691634
-0.265656
0.681581
0.519319
0.729576
0.502433
0.194460
-0.209775
0.367097
0.420215
-0.052631
0.442169
-0.118747
0.190189
0.482434
0.293056
0.368232
0.206171
0.077530
-0.378146
0.404460
0.092205
-0.402136
-0.169336
-0.098761
-0.435350
-0.168279
-0.050636
-0.497398
0.004519
-0.343391
-0.401040
-0.106241
-0.017543
0.061707
-0.017197
0.423864
0.045319
0.165630
0.234325
-0.238528
0.263051
0.124048
-0.062367
-0.049375
0.526849
0.036345
0.325433
-0.078200
-0.045076
-0.445391
-0.137983
-0.094333
0.435832
0.066840
0.560772
0.151101
-0.397945
-0.011422
-0.271642
-0.980165
-0.699728
-0.001481
-0.495466
-0.448482
-0.603971
-0.084932
0.158881
-0.163078
-0.472986
-0.328009
-0.676336
0.443476
0.697217
0.912535
0.643419
0.477995
0.337527
0.375117
0.133519
0.436437
0.085519
-0.144887
0.166165
0.451497
0.298339
0.082131
0.542813
0.187745
-0.795682
-0.496337
-0.571782
-0.610746
-0.617300
-0.244529
-0.459052
-0.474673
-0.606959
0.086530
-0.684828
-0.948379
-0.933506
0.029602
-0.650607
0.052661
0.093645
0.263370
-0.068216
0.593889
0.286051
0.031811
0.663496
0.372032
0.252256
-0.257401
0.087641
0.243446
-0.325107
0.185447
0.238616
-0.173136
-0.544704
-0.379544
-0.085761
-0.163918
-0.200348
-0.153022
-0.092779
-0.073944
-0.902632
-1.058667
-0.941656
-0.542925
-0.288672
-0.502768
-0.343729
-0.071746
-0.470329
0.084519
-0.346329
0.631686
0.644303
0.393381
0.440169
0.428072
-0.462079
-0.251550
-0.053998
0.073937
-0.112094
-0.023845
0.252304
-0.076637
0.198616
-0.417489
-0.468484
-0.627261
0.121109
-0.198043
0.034921
-1.355661
-0.445151
-0.804541
-1.140364
-1.769424
-1.172393
-1.018913
-0.909636
-0.863896
-0.866866
-0.165146
-0.242833
-0.078666
0.209232
-0.148150
-0.330577
-0.284982
-0.014222
-0.156152
0.311442
-0.287601
-0.261113
-0.128543
-0.108254
-0.061155
-0.152812
-0.126152
0.084942
0.354999
-0.176755
-0.597297
-0.117992
-0.550481
-1.041481
-1.459350
-1.372012
-1.599277
-1.012840
-0.320778
-0.651462
-0.087443
-0.086604
-0.112853
0.148040
0.356019
0.000760
0.534792
0.453300
-0.323853
-0.415478
0.027613
0.050649
-0.175361
0.384514
0.536054
0.646729
-0.315773
-0.159834
-0.043041
-0.221811
-0.537139
-0.339690
-0.201851
-0.581179
-0.248699
-1.085443
-1.162763
-1.010367
-0.391106
-0.227610
-0.791477
-0.683624
-0.278172
-0.383428
-0.463887
-0.115565
0.698499
-0.098868
0.187870
0.441221
0.021722
0.200582
-0.371993
-0.300062
-0.024815
0.157399
0.090263
-0.039510
-0.298534
-0.178474
-0.070511
0.061179
0.496770
-0.049517
0.087319
-0.323633
0.020373
-0.217708
-0.666196
-0.895759
-0.534422
-0.660095
-0.071228
-0.824041
-0.653475
-0.831735
-0.246721
-0.860661
-0.184923
0.265627
0.187039
0.299584
-0.271375
-0.437943
0.354795
0.506379
-0.277646
0.311559
0.144638
-0.370265
-0.198048
-0.633151
0.308207
-0.341989
-0.499946
-0.222147
0.370195
-0.243977
-0.116590
-0.306471
-0.856441
-0.098218
-0.104619
-0.559092
-0.937414
0.077319
-0.248051
-0.640814
-0.751764
-0.301675
-0.644926
0.031879
-0.543983
-0.246165
-0.146642
-0.471394
0.192793
0.475362
0.007157
0.311537
0.107375
-0.355572
0.130076
0.050729
0.395056
0.484195
0.445379
0.187990
0.089266
-0.057597
-0.190459
0.464188
0.483400
0.609827
0.279749
-0.063528
-0.724286
-0.692994
-0.409250
-0.353324
-0.363140
-0.504151
-0.246411
0.070211
0.222870
-0.179652
-0.287041
0.105088
-0.432309
-0.249379
0.187805
0.398065
0.311487
-0.183726
0.116369
-0.466083
-0.075140
-0.022973
-0.156674
0.618540
-0.247986
0.470452
0.257626
-0.201504
0.456330
-0.129475
0.528098
0.297878
-0.312613
-0.044439
-1.209194
-0.912563
0.108886
-0.779439
-0.613607
-0.615930
-0.198630
-0.114127
0.158348
-0.451628
0.136654
-0.310348
-0.243242
0.130223
-0.015085
0.376627
0.091927
-0.594700
-0.343894
-0.042712
0.375654
-0.107149
-0.225132
0.142014
0.076292
0.538566
-0.169926
0.456362
-0.216211
-0.461903
-0.730231
-0.075822
-0.205841
-0.707397
-0.073658
-0.098086
0.117491
0.014086
-0.539327
-0.326621
-0.281559
0.424294
-0.177336
-0.072221
0.677132
0.172234
0.151715
-0.137107
-0.039264
0.228519
-0.069586
-0.412697
-0.076459
-0.504519
0.050849
0.053044
0.419317
0.374170
-0.052867
-0.053183
-0.132690
0.043613
-0.583886
-0.448020
-0.845570
-0.696170
0.034475
-0.025461
-0.028604
0.150919
0.170491
-0.402697
-0.138354
0.154290
-0.156421
0.073984
0.131695
0.443483
-0.199382
0.066654
-0.278701
0.166885
-0.265533
0.397199
-0.487536
-0.269285
-0.532274
0.178117
-0.339453
0.250082
-0.583528
-0.409965
-0.186033
0.166544
-0.116671
0.391660
-0.799727
-0.580778
-0.681645
-0.426335
-0.726082
-0.028575
-0.108363
0.069866
-0.196842
0.312433
-0.506908
0.369653
0.740546
0.405632
0.165899
-0.033580
0.095737
-0.185124
0.155502
-0.383950
-0.124381
0.198431
0.514820
0.233603
-0.064195
0.154948
-0.236203
0.116528
0.018045
0.155421
0.457180
0.066095
-0.113702
-0.193067
-0.659481
-0.177533
-0.585873
-0.532809
0.059347
-0.308608
0.165920
-0.338075
0.108163
-0.200665
0.512389
-0.186887
0.462688
0.190274
0.410762
-0.611306
0.219688
-0.038170
-0.186654
-0.340347
-0.013113
0.036561
0.135077
0.371670
0.417380
0.539772
0.205097
0.196233
0.152378
0.579228
-0.462587
0.315572
0.240004
0.311172
-0.337192
-0.614678
0.216477
-0.016652
0.012806
-0.491260
-0.197538
-0.072967
0.793919
0.717020
0.206836
0.109491
-0.242136
-0.131363
0.000782
-0.089860
0.033713
-0.291987
-0.161999
-0.108175
-0.029080
0.012993
0.425422
0.436227
-0.361676
0.029033
0.814544
0.315461
-0.422801
-0.260987
-0.629020
-0.541483
0.072300
-0.104603
-0.525624
-0.534989
0.196100
0.464207
-0.026311
-0.064956
0.048158
0.630991
-0.354933
-0.005002
-0.001812
-0.308657
0.074388
0.032968
-0.072977
-0.033737
-0.423749
-0.452050
-0.147144
-0.485762
-0.399727
-0.381995
0.158075
0.350891
0.747507
0.638331
0.160956
-0.307173
-0.269638
-0.130280
0.010796
-0.045845
-0.301937
-0.248376
0.115490
-0.469695
0.359779
-0.490805
0.073621
0.355566
-0.129331
-0.114469
0.286567
0.065714
0.030459
-0.385343
-0.521439
-0.633854
0.189477
0.268303
-0.118085
-0.166426
0.052291
0.136177
0.228116
0.283153
0.777632
-0.088730
0.104484
-0.511680
-0.142376
0.124444
0.039904
-0.052092
-0.419579
0.004070
0.216672
-0.372034
-0.351972
0.206627
0.407445
-0.496018
0.241709
-0.052733
0.137416
-0.440117
0.207663
-0.491666
0.243038
-0.542745
0.225264
0.006582
-0.451120
-0.292833
0.397174
0.490860
-0.049322
0.412478
0.358310
0.135002
0.014769
0.410121
0.116989
0.259604
0.313271
-0.414655
0.332443
0.297593
-0.393276
0.134552
-0.370379
-0.557851
-0.351768
-0.102664
-0.167549
-0.057891
-0.199086
-0.180706
-0.135874
-0.649278
-0.015035
-0.125016
0.070696
-0.099934
0.138317
-0.143518
-0.272690
0.128069
0.292294
-0.091645
-0.180336
-0.245550
-0.440085
0.537524
-0.229047
-0.405676
0.394325
0.169115
-0.129062
-0.064942
-0.123444
-0.217781
0.274369
-0.304469
0.129984
0.121004
-0.178395
-0.201327
-0.440840
-0.181626
-0.026976
0.252408
0.050160
0.054917
0.376315
0.378449
-0.083498
0.178971
0.495322
-0.006585
0.178506
-0.196852
-0.214895
-0.313851
0.207776
0.229666
0.537087
0.060496
0.119055
0.385448
-0.314659
0.368774
-0.206981
0.210075
0.281987
0.087407
-0.350263
-0.265019
-0.370712
0.059595
-0.774894
-0.182128
-0.251901
-0.058985
0.099866
0.430263
0.417680
0.021185
-0.119429
0.650252
0.350681
-0.394342
0.343805
0.046045
0.131591
-0.188958
0.070571
0.558414
0.371986
0.139331
0.415797
-0.084452
-0.024782
0.155008
0.051435
0.115660
0.539356
-0.212574
0.077330
-0.260725
0.611740
0.771144
0.498653
0.197378
-0.216578
0.423489
0.439871
-0.001978
0.066437
-0.447227
-0.649149
-1.194157
-1.046776
-0.306278
-0.530109
-0.271070
-0.355784
0.034109
-0.277810
-0.627340
0.271727
0.020769
-0.167647
-0.395901
0.146424
-0.292344
-0.429056
-0.228036
-0.248123
0.432238
0.258707
0.568587
-0.066306
0.468343
0.656112
0.333002
-0.072333
0.304811
0.197622
-0.679260
0.279217
-0.400659
-0.947458
-0.722138
-0.519245
-0.285955
-0.217221
-0.448107
-0.924266
-0.499460
-0.027469
-0.733498
0.182768
-0.315699
-0.286844
-0.286131
-0.107381
0.266800
-0.001744
0.126760
0.057766
0.050956
0.364868
0.058606
-0.106635
0.549147
0.676529
-0.177414
0.770693
0.280197
-0.136107
-0.128389
-0.078898
0.253778
-0.250889
-0.080629
-0.825696
-0.300988
-0.389300
-0.469161
-1.075853
-0.813624
-0.599700
0.080549
-0.272978
0.381779
-0.216977
0.048599
0.306478
0.626197
0.334776
-0.322027
-0.353244
-0.364597
0.063803
0.207304
0.515408
0.002283
0.748938
0.454362
0.314488
-0.257851
0.206814
-0.143246
-0.457814
0.028235
-0.106565
-0.410264
-0.609277
-0.449141
-0.228096
-0.269846
-0.208707
-0.675167
-0.063997
-0.576834
-0.535133
-0.648344
0.145459
0.076791
-0.624938
-0.358589
-0.423605
-0.153311
0.284244
0.079360
0.259736
0.337057
0.735951
0.806509
0.382943
0.582813
0.389534
-0.368136
-0.114672
0.168672
-0.213501
0.259244
-0.327118
-0.393773
0.142349
-0.005985
-0.634746
0.148871
-0.395795
-0.424650
-0.265542
0.162417
0.332540
-0.248631
0.308489
-0.328892
-0.877246
-0.498803
0.322369
-0.525177
-0.449808
-0.121455
0.499559
0.185621
0.746956
0.321497
0.207836
0.240931
0.526634
-0.435148
0.261033
0.222767
0.586165
-0.337862
0.040017
0.112914
0.095867
0.333459
0.169179
-0.086889
0.090535
-0.701342
-0.631428
-0.841105
-0.268407
-0.701295
-0.447096
-0.798444
-0.435595
0.115802
-0.179348
0.337381
-0.426722
-0.361832
0.250527
0.575822
0.090871
0.607443
-0.377373
-0.019960
0.120985
-0.567697
0.086204
0.365414
0.759391
0.217329
-0.058888
-0.093853
0.192673
0.604639
-0.386928
0.069133
-0.581249
-0.386463
-0.358006
-0.137658
0.052866
-0.160108
-0.203809
-0.837544
-0.706947
0.058501
-0.443907
-0.116046
0.109288
0.159555
0.310882
0.273788
0.027428
0.717032
0.160860
0.136288
0.157973
-0.149669
0.485081
0.835238
0.893409
0.717297
0.827732
0.214696
0.453833
0.404926
-0.073526
-0.102688
-0.158523
-0.320011
-0.179341
0.096594
0.172131
-0.932490
-0.804701
-0.631843
-0.351702
-0.053990
0.234521
-0.270162
-0.275915
-0.001227
0.041913
0.630709
0.438488
0.276651
-0.486965
0.119397
0.273135
-0.145479
0.276865
0.329610
0.113772
0.587897
0.570852
-0.020380
0.093192
0.635364
0.605245
0.003444
0.288353
-0.044143
-0.831283
-0.414815
-1.089973
-0.613109
-0.899822
-0.852228
-0.402561
0.203794
0.271283
0.342583
-0.233636
0.516382
0.202848
0.451202
0.193528
0.048929
0.212416
0.324444
0.090372
0.256961
0.355558
-0.092869
0.605087
-0.041833
1.153854
0.277300
-0.007498
0.299766
0.545324
0.155564
-0.651485
0.219610
-0.414831
-0.822609
-0.488547
-0.764165
-0.513298
-0.585159
-0.267619
0.430400
-0.485950
-0.440193
0.136143
0.133562
-0.011167
0.528541
-0.221093
0.554332
-0.216197
-0.340861
0.117110
-0.240245
-0.075491
-0.129885
0.324436
0.234457
0.186228
0.268448
0.466598
0.782274
0.175387
0.663950
-0.062992
0.029004
-0.958186
-0.626120
-0.896169
-1.497831
-0.597484
-0.319975
-0.137157
-0.132644
-0.086058
-0.120076
-0.526520
-0.223671
-0.111624
0.308051
-0.348073
-0.018220
0.333413
0.326242
0.621660
0.809401
0.396293
0.496396
0.349844
-0.297449
-0.067653
0.856501
-0.152328
0.395080
0.144274
0.439357
0.464389
-0.048126
-0.361900
-0.711136
-0.726582
-0.175131
-0.639923
0.275499
0.233034
-0.150831
-0.552423
-0.319578
0.009855
-0.277749
-0.380593
0.416789
0.480589
0.100734
-0.216743
0.223195
0.361359
0.876617
0.234733
0.657461
0.036033
-0.114973
-0.550037
0.569727
0.072794
0.724240
0.484261
0.744400
0.102821
-0.352689
-0.969300
-0.830425
-1.481387
-0.820984
-0.198914
0.267472
0.201410
0.358905
0.497853
-0.148146
-0.046025
0.246228
0.131332
0.021467
-0.284696
0.402611
-0.331179
-0.143421
-0.073018
0.597389
0.545671
-0.227357
0.060706
-0.338770
0.318240
-0.079660
0.303918
-0.133269
-0.063713
-0.311810
-0.411819
-1.041395
-1.023466
-1.232984
-0.871961
0.142231
-0.108949
0.585380
-0.138073
0.080031
-0.156762
0.189521
0.502353
-0.375968
0.409256
0.058275
0.141486
-0.287383
0.148646
0.404971
0.181231
-0.005051
0.286720
-0.490303
-0.049194
-0.066242
-0.300260
0.383168
-0.224273
-0.322101
-0.188335
-0.252787
-0.378352
-1.165725
-1.695105
-0.646917
-0.916043
0.157689
0.018210
0.241813
-0.118700
0.107658
0.131956
0.399064
0.324943
-0.246792
-0.289421
0.089119
-0.551402
0.398721
0.153484
-0.113201
0.382398
0.046719
-0.028816
0.558827
-0.092750
0.198829
-0.238649
-0.166421
-0.057516
-0.575878
0.073558
-0.308115
-0.658544
-0.553342
-1.083712
-0.043699
-0.599683
0.370342
0.952483
1.152364
0.150215
0.120757
0.370869
-0.099130
0.043099
-0.411894
-0.326005
0.187772
0.359067
-0.076370
0.232505
0.501085
0.417584
0.362489
0.204893
0.033075
0.441056
-0.706391
0.288748
-0.170073
0.161602
-0.181671
-0.239106
-0.147376
-0.928984
-0.121787
-0.591579
-0.317535
0.228585
0.814965
1.377464
0.551791
0.765195
0.109211
0.683557
0.007454
0.445890
-0.293481
-0.050774
-0.385094
-0.025243
0.402539
0.048158
0.170841
0.233775
-0.613160
-0.128658
-0.458179
0.161313
-0.084483
-0.407597
-0.571667
-0.498836
-0.831344
-0.029439
-0.030143
-0.258954
0.057809
-0.287165
0.171854
0.558179
0.965772
0.653909
0.986158
1.173882
0.812423
0.662275
0.618584
-0.199714
-0.529970
-0.418917
-0.278618
-0.176722
-0.112087
0.075311
-0.260624
-0.385461
-0.670252
-0.298057
0.053561
0.174067
-0.093210
-0.419679
-0.369482
-0.060425
0.082412
0.006244
0.350721
0.596577
0.272495
0.117189
0.248111
0.455491
0.243752
0.975298
0.831963
1.111971
0.927076
0.294853
0.076294
-0.036953
0.184253
-0.765247
-0.729827
0.200600
-0.166484
0.339774
-0.532841
0.339293
-0.666235
-0.780912
0.323621
-0.028087
-0.436965
-0.392238
-0.729229
-0.265253
-0.539822
0.511358
-0.210284
0.185887
0.338514
0.034411
0.952490
0.361436
0.192636
0.534307
0.675996
0.974357
0.102954
-0.195633
-0.044346
0.540765
-0.130511
-0.512754
-0.363565
0.293506
-0.349110
0.115416
-0.361879
0.145006
-0.039802
-0.760085
-0.602344
-0.081357
-0.146977
-0.300415
-0.706281
0.021430
-0.214422
0.422218
0.080276
0.448717
0.461959
0.619407
0.510597
0.522728
0.888568
1.166635
0.633062
0.604548
0.705660
0.439957
0.586899
0.224410
-0.101582
-0.702782
0.145338
-0.158986
-0.292670
-0.240916
0.233360
-0.590219
-0.414011
0.051615
-0.608502
-0.254667
-0.036223
-0.751438
-0.294281
-0.650621
-0.638451
-0.065976
-0.314986
0.326982
0.289823
0.702692
0.787238
0.686081
0.709428
1.082304
0.398115
0.637680
0.477054
-0.239492
0.498814
0.273632
-0.399027
0.078347
-0.479260
-0.428743
0.083839
-0.468823
-0.545742
-0.274601
0.145688
-0.596282
-0.227321
-0.380432
-0.655301
-0.030936
-0.177696
-0.808827
0.182782
0.038719
-0.112188
0.173808
0.260497
0.437312
0.055131
0.076039
0.913429
0.878296
0.104815
0.466579
0.359856
0.115608
0.024538
0.292037
-0.275290
-0.305381
0.338053
0.362017
-0.130321
-0.192737
0.463851
0.416962
-0.295341
-0.167401
0.112308
-0.031269
-0.736728
-0.006958
-0.926180
-0.635410
-0.803465
0.143318
0.277940
0.566319
0.258429
0.823085
0.757633
0.987078
1.351856
1.251556
-0.004403
-0.143763
0.132277
0.002674
-0.211125
0.125963
0.334314
-0.078433
0.353199
-0.158914
0.345578
-0.601963
-0.706089
-0.154036
0.365181
0.088097
0.055618
0.156219
-0.507609
-0.232560
-0.221848
-0.903894
-0.429648
0.175889
-0.257794
-0.003652
0.532380
0.338112
0.677878
0.102192
1.071382
0.319223
0.410003
0.390914
-0.308988
0.343550
-0.318259
0.145174
-0.387141
0.402678
0.355234
0.157725
0.222683
-0.241828
0.187103
0.465900
-0.242385
0.001029
0.200159
-0.399071
-0.208640
-0.095950
-0.590251
-0.581751
-0.100412
-0.246185
0.599096
0.215315
0.305948
-0.231845
0.119629
0.027567
0.644471
-0.121623
0.150606
-0.429089
-0.045307
0.023769
-0.223330
0.183236
0.067395
0.431662
-0.000351
0.200263
0.051891
-0.715941
0.327890
-0.507730
0.571265
-0.363666
-0.196539
0.411250
0.043156
0.013888
-0.079014
-0.518323
-0.087876
-0.257395
-0.284211
0.668572
0.078877
0.540283
0.704005
0.192787
0.505160
0.236499
-0.106747
-0.087448
-0.545068
0.090788
-0.219339
-0.352298
0.329856
0.392024
0.375495
-0.264305
0.016183
-0.633022
0.279141
-0.362802
0.328337
-0.109529
-0.313818
0.214226
-0.205249
-0.370625
-0.015170
-0.344217
-0.167265
-0.160317
-0.233962
-0.152373
-0.303726
0.194007
0.174189
-0.259702
0.182738
-0.222519
0.139757
-0.089139
-0.626534
-0.156733
0.623136
0.401080
0.103312
-0.320926
0.217015
-0.182786
0.712599
-0.139740
0.386135
-0.268309
0.235829
-0.007191
-0.180875
0.181117
0.038010
0.199068
-0.370632
-0.502588
0.139532
-0.016824
-0.026107
0.209835
0.327393
0.335221
-0.106986
0.330224
-0.084616
-0.514182
-0.016870
-0.366685
-0.470356
-0.444283
-0.148132
-0.107905
0.091099
0.136292
-0.542769
-0.303043
-0.252261
0.189219
0.493696
0.458823
0.114670
-0.115062
-0.533293
-0.201144
-0.086346
-0.137607
0.457371
0.289822
-0.074732
0.009730
0.100727
0.306273
0.201552
0.323940
-0.147079
-0.297523
0.365220
0.090032
0.469377
-0.666403
-0.374760
0.004246
0.053872
0.269309
0.224271
0.214868
0.370477
0.572715
0.142503
0.586752
1.058403
0.390120
0.513011
0.099059
-0.087134
0.071194
0.395990
-0.099383
0.587996
0.484938
0.721580
0.507784
-0.093669
0.702802
-0.159061
-0.063905
-0.067733
0.564032
-0.000576
0.405108
-0.152693
-0.535777
-0.495357
-0.069998
-0.199089
0.449494
-0.450913
0.282483
0.446573
-0.102968
0.628994
0.630776
0.702743
0.280047
0.048397
0.050072
0.120776
0.477805
0.264392
-0.347927
0.556295
0.014862
0.280537
-0.108387
-0.239544
-0.314175
-0.376218
-0.454965
-0.611130
0.379737
-0.253176
0.165612
-0.028359
-0.419629
-0.129151
0.118578
-0.166857
0.367176
0.318408
0.068686
-0.094607
-0.413592
0.518313
0.319124
-0.032769
-0.022522
-0.454851
0.048213
0.158603
-0.373198
-0.340741
0.247075
-0.056074
-0.130006
-0.440619
0.222046
-0.096161
0.241271
-0.241504
-0.084282
-0.141716
0.412946
0.191638
-0.359507
-0.416718
0.153417
0.447229
0.205701
-0.292425
0.459384
0.140016
-0.046896
0.316950
0.090877
0.545087
-0.356074
-0.164325
0.303881
-0.323138
0.169742
-0.244895
-0.158888
-0.126766
0.149592
-0.181467
-0.158366
0.220963
0.069922
-0.524654
-0.703215
-0.236800
-0.534980
-0.669839
-0.553080
-0.002930
0.448833
0.298864
-0.195587
-0.303701
0.351634
-0.162100
-0.032604
-0.168189
0.189955
0.063251
0.202484
-0.201182
-0.310478
0.167235
-0.371353
0.335762
-0.096970
-0.229537
-0.306138
-0.195668
0.160592
-0.261886
-0.202255
0.348071
0.043228
-0.403398
-0.081919
-0.540997
-0.002781
-0.013038
-0.337044
-0.343085
0.479344
0.442627
0.480428
-0.006787
0.599689
-0.138643
-0.053464
0.351039
-0.378031
-0.363017
0.455898
0.494789
0.399083
-0.202548
0.447136
0.147837
-0.259846
-0.343411
-0.012923
-0.227803
-0.052628
-0.079172
0.210797
0.356808
-0.427261
-0.479599
0.127527
-0.397527
-0.163851
-0.539536
-0.174359
-0.021373
0.163878
0.032832
0.052882
0.278681
0.147619
0.370350
-0.320082
-0.346672
0.437533
0.052266
0.050114
0.024486
0.136033
-0.269161
-0.213801
0.474940
-0.138719
-0.478068
-0.185576
-0.146845
-0.298737
-0.202111
-0.096055
0.006530
-0.341304
-0.119009
0.084227
-0.699547
-0.681846
-0.582735
-0.096347
-0.206540
-0.361582
-0.222100
-0.116057
0.280765
-0.365128
0.195067
-0.062514
0.121319
-0.101520
-0.363406
0.639271
0.266268
-0.291110
-0.011524
-0.252050
0.319180
0.551722
0.000993
-0.548210
-0.740900
-0.866020
-0.625354
-0.527044
-0.284844
0.122596
-0.304174
0.334633
-0.130197
-0.499147
-0.058394
0.186657
-0.300840
-0.193490
-0.100688
0.181450
0.238334
0.585027
0.293373
0.590958
-0.169395
-0.104731
-0.084066
-0.214208
-0.372876
0.029682
0.188931
0.242660
0.292673
-0.009493
-0.528285
-0.400163
-0.137968
-0.559459
-0.234314
0.358454
0.528818
0.445295
0.030195
0.129666
-0.141306
-0.349106
0.165646
-0.606273
-0.177252
0.064284
0.117949
0.023718
-0.123102
0.601918
0.221046
0.376511
-0.451704
-0.205587
-0.248678
0.587330
0.466495
-0.154891
0.479700
0.324692
0.515769
-0.270408
0.420488
-0.412332
-0.270913
-0.625558
-0.458361
-0.086945
0.506388
0.407861
0.278913
0.154034
-0.131594
-0.274581
0.049469
0.240431
0.010335
-0.464289
-0.106259
0.461391
-0.271362
-0.349501
0.386612
0.437379
0.047867
0.279855
-0.081977
0.073195
0.256800
0.183554
0.125440
0.528953
-0.507168
-0.034086
-0.079358
-0.604457
-0.608706
-0.156424
-0.179868
-0.333047
0.495323
0.592063
0.313913
0.217850
0.533588
-0.407494
-0.295910
-0.031811
-0.044294
0.187701
0.025990
0.231291
0.448412
0.416075
0.323340
0.036345
-0.542361
0.416957
0.078309
0.072233
0.503930
-0.024148
0.688954
0.543325
-0.183738
0.016739
-0.342978
0.215221
0.087163
-0.387676
-0.440296
0.610887
-0.115216
0.595264
0.038026
-0.108278
0.035543
-0.606104
-0.120050
-0.131668
0.063791
0.112082
-0.042850
-0.174666
-0.213133
-0.187853
0.008217
-0.476952
-0.529758
0.324075
0.394698
-0.163407
0.184947
0.050538
0.060978
0.376422
0.373902
-0.476579
-0.046062
0.149806
-0.327099
0.138274
0.178763
0.414714
0.074016
0.440955
0.445231
0.629742
-0.317078
0.103522
0.105493
-0.484111
-0.587477
-0.525810
0.388645
0.098521
-0.074328
0.437564
-0.229233
-0.279147
0.093654
-0.249921
-0.174757
0.254407
-0.349382
-0.216112
-0.127987
-0.188206
-0.336627
-0.024887
-0.483547
0.221582
-0.353276
-0.404722
-0.491404
-0.037289
-0.084805
0.460311
0.383319
0.615040
-0.399242
-0.509165
-0.027077
0.185615
-0.503330
0.481191
-0.029125
0.588821
0.463307
-0.298143
0.432687
0.152645
0.237080
0.039283
0.446030
-0.004730
0.376228
-0.043323
0.271524
0.455641
0.406271
-0.162694
0.053921
0.314744
-0.354044
0.062600
-0.224251
-0.005614
-0.393223
0.390813
0.373682
0.284922
-0.319347
-0.543542
-0.566510
-0.080921
-0.476026
0.278440
0.275642
0.279864
0.418001
0.055802
0.393422
-0.457786
-0.104411
-0.006605
-0.202963
0.005135
-0.133093
-0.052204
0.518765
0.147385
-0.109458
-0.260066
-0.095279
-0.447961
0.194263
0.398689
0.025948
0.230086
-0.096351
0.004516
-0.098542
0.284676
0.645969
-0.439646
-0.688526
0.176355
-0.235478
0.643803
-0.128172
0.480956
-0.233651
0.269131
-0.238116
-0.146094
-0.371602
-0.354495
0.121145
-0.382090
-0.179712
-0.063764
-0.271988
0.494748
-0.360723
0.401717
0.635827
0.282079
0.423876
-0.226987
-0.047684
0.475153
0.154456
0.312354
-0.021175
0.296864
0.088954
0.029270
0.259947
-0.282162
0.565260
0.047439
0.482809
0.723920
-0.012153
-0.142437
-0.440579
-0.120744
0.335890
-0.370910
0.099742
-0.106925
0.388545
0.394157
-0.306921
0.523996
0.197561
0.182223
-0.142516
-0.062674
0.272574
0.368275
0.462135
-0.537452
0.646778
0.203681
-0.191074
0.529111
-0.182605
-0.482476
-0.472653
-0.213164
0.420252
0.800470
-0.205953
0.248225
0.101804
-0.106529
-0.119970
0.007681
-0.275222
-0.121352
0.076886
0.299115
-0.177510
0.355684
0.489033
-0.131123
0.582192
-0.030397
0.443725
0.434930
0.208763
0.588070
-0.375175
0.134492
-0.115129
0.370318
0.148184
-0.162732
0.460883
-0.008538
-0.195589
0.680998
0.156281
0.128011
-0.324470
-0.139968
-0.586036
-0.140004
-0.480336
-0.374221
-0.514354
0.437536
-0.112816
-0.198199
-0.210138
0.483765
-0.042781
-0.128592
0.507214
0.136916
0.515856
-0.246006
0.233498
-0.142872
-0.074649
-0.123040
-0.212285
-0.286525
0.491354
0.045490
0.421755
-0.439956
-0.178403
0.388312
0.529288
0.313705
-0.020414
0.138737
-0.169172
0.304507
-0.087666
-0.111347
-0.323965
0.087151
-0.473628
-0.099007
0.179709
0.033077
0.152311
-0.110917
-0.248831
0.167756
0.326459
0.221511
0.036231
-0.283853
0.301123
0.389786
-0.135972
-0.042587
-0.531567
0.219302
0.145724
0.401702
-0.061144
0.014049
-0.196109
0.112453
0.133952
0.332353
0.184581
0.034273
-0.173914
0.130817
-0.226730
-0.184607
0.489676
0.250596
0.353770
0.207565
0.310427
-0.121593
-0.120304
0.191403
0.447905
0.480450
0.245771
-0.433093
-0.138040
-0.203420
0.467799
-0.265106
-0.067886
-0.245959
0.309931
-0.411777
0.335430
0.034835
0.343258
-0.053562
-0.385512
-0.472685
0.128870
0.351285
-0.425498
-0.069010
0.176970
-0.108639
0.294012
-0.051009
0.202698
0.203981
0.380872
0.064292
0.680813
0.278178
0.679248
0.724258
0.405892
0.058481
-0.465736
0.099237
0.217551
-0.392526
-0.381398
-0.471520
0.032400
0.296953
0.276179
0.000277
-0.411872
0.428040
-0.158886
-0.125322
0.227203
0.182271
0.433055
-0.093618
-0.325981
-0.297876
-0.466937
0.282058
-0.033689
-0.114268
0.215607
0.159606
0.197063
0.290147
-0.146304
-0.287198
0.215382
-0.122423
0.319207
-0.695411
0.105977
-0.015988
-0.072159
-0.279616
0.121100
0.039703
0.193213
-0.181499
0.140428
-0.155201
-0.315485
-0.383559
0.079424
-0.325360
0.391715
-0.090980
-0.214920
-0.076291
-0.175773
-0.128131
0.249673
-0.006068
0.479360
0.486903
-0.183454
0.016843
-0.224666
0.426517
0.204128
0.245166
0.315347
0.159758
-0.430454
-0.672817
-0.074116
-0.267507
-0.298126
0.192662
0.422500
-0.156310
-0.069803
-0.356522
-0.472025
0.328966
-0.451718
0.206795
0.116136
-0.326295
-0.354772
0.207521
-0.422464
0.312708
0.050638
-0.189120
-0.203128
-0.124186
0.173868
0.270622
-0.300297
-0.314808
-0.286162
-0.283186
0.165233
-0.318731
-0.411025
-0.278323
-0.494387
-0.444599
-0.162356
0.306556
-0.212590
-0.419742
-0.436619
-0.296442
0.181208
-0.217179
-0.107514
0.175296
0.213526
0.392052
0.020565
-0.488871
-0.269865
-0.365528
-0.236991
-0.315784
0.216789
0.476056
-0.177631
0.668696
0.343592
0.385962
-0.064552
0.435186
-0.240138
0.162025
0.345349
-0.091021
-0.095907
-0.215567
0.042540
-0.517273
-0.045634
0.113863
-0.354519
-0.115902
0.398891
-0.078711
0.355221
-0.266709
-0.049490
0.363702
-0.195955
0.381162
-0.067651
0.263115
0.372520
0.362926
0.447234
-0.147657
0.575730
0.203541
0.544522
-0.426265
0.440683
-0.389005
-0.428298
-0.026127
-0.569446
-0.083934
-0.037196
-0.246816
0.032033
0.251540
-0.011966
0.238475
-0.339188
0.314502
-0.400993
-0.391983
0.008963
-0.404543
0.162166
0.282683
0.415971
-0.271220
-0.364939
0.467261
0.176246
-0.395323
-0.379918
0.321908
0.191660
-0.106286
-0.059557
-0.196070
-0.369300
0.023727
0.027853
0.055200
-0.135610
-0.433558
-0.119151
-0.171256
-0.469650
0.116736
0.397635
-0.209154
-0.519493
0.344856
0.390459
-0.203509
0.449778
0.169250
-0.438378
-0.411114
-0.213960
-0.363975
0.248402
0.445789
0.365191
-0.119434
0.083037
0.202409
-0.484050
-0.281910
-0.058554
0.179835
0.403757
0.027507
0.042134
-0.746766
-0.615329
-0.047127
-0.556957
-0.840817
-0.144022
-0.579998
0.077334
-0.499441
-0.329679
0.028511
-0.379804
0.180372
-0.446985
-0.251001
0.523514
-0.298011
-0.584628
0.321238
0.484601
-0.417585
0.266385
-0.245637
0.098574
-0.027792
-0.031330
-0.485946
0.096077
0.227672
-0.108331
0.320496
-0.325541
0.091555
-0.266758
-0.136100
-0.645748
-0.178141
-0.580190
-0.203181
0.104185
-0.147728
0.104973
-0.443199
0.258894
-0.365400
-0.339870
-0.150693
-0.307081
-0.414115
-0.230653
0.307313
-0.349313
-0.244683
-0.458006
0.191738
-0.186409
-0.634881
-0.422815
0.309035
-0.227323
-0.598343
-0.019017
0.259264
-0.512360
-0.487076
-0.800255
-0.007482
-0.055186
-0.231117
0.200348
-0.696225
-0.256355
0.067329
0.169280
-0.208807
-0.587618
-0.692071
-0.630783
-0.281236
-0.447024
-0.346788
-0.556797
-0.058229
-0.327925
-0.334319
-0.313777
0.048631
0.048667
-0.313390
-0.330046
0.332353
0.342614
-0.202415
-0.460975
-0.315910
-0.297184
0.111569
-0.169954
-0.227926
-0.793736
-0.085839
-0.418823
-0.316993
-0.599232
-0.153261
-0.485842
-0.104734
0.236540
-0.562487
0.115911
-0.395278
-0.111218
-0.472966
0.018492
0.038721
0.375083
0.099725
-0.026577
0.456240
0.157526
-0.155831
-0.185115
0.301357
-0.213756
-0.546403
-0.318462
-0.473454
0.332351
0.040990
-0.514638
-0.458536
-0.476120
0.010148
-0.020151
-0.522839
0.022584
-0.073927
-0.079574
0.064663
-0.600815
-0.521800
0.227502
0.495296
0.121527
-0.319491
-0.220950
-0.438010
-0.550543
0.228292
-0.431119
0.173705
0.140419
-0.086009
0.187684
0.094692
0.577717
0.331228
0.473617
0.701140
0.362738
0.346270
0.931692
0.481879
0.670386
0.175827
0.261159
0.840328
0.650436
0.471456
0.174282
0.648752
-0.009233
0.391582
0.381660
0.539975
0.629523
0.289607
-0.187367
0.508238
-0.620662
-0.148763
-0.594692
-0.099457
0.097762
0.092593
-0.116913
0.090407
0.369278
0.445420
0.782240
0.386120
0.852008
1.117358
1.028629
0.917449
0.390184
0.810147
0.612919
0.818267
0.795805
0.676925
-0.092685
0.195445
-0.048809
-0.091852
0.303974
0.521615
-0.097652
-0.294117
-0.480398
-0.146662
-0.209933
-0.134272
-0.021721
-0.084915
0.000380
-0.446776
-0.513886
-0.076657
-0.070896
0.183702
-0.026133
0.806753
-0.131873
0.595681
0.715983
0.594123
0.817075
1.077707
1.478500
1.027804
0.734841
-0.080099
0.516740
-0.258991
0.406875
-0.464374
0.703487
-0.081377
-0.474224
-0.559952
-0.332651
0.070372
0.273510
-0.714704
-0.117468
0.319219
0.446720
0.325928
-0.220748
0.704247
0.111487
-0.028220
-0.113943
0.649986
0.476491
0.395450
0.153936
0.142950
0.712299
1.148288
1.450979
0.568365
0.013471
0.118301
-0.369007
-0.085230
-0.585291
-0.425759
0.014236
-0.260967
-0.351868
-0.258940
0.233092
0.095607
0.060279
0.025353
0.101097
-0.163605
0.194453
0.317498
-0.392334
-0.081888
0.178339
0.399865
-0.288857
-0.047615
0.155000
0.084118
-0.164620
0.822195
0.520152
0.757027
0.859821
0.966253
0.472551
0.206701
-0.398093
0.244982
-0.270257
-0.088132
-0.045533
-0.511652
0.470611
0.253260
-0.109098
-0.199725
0.254755
0.031305
-0.445225
0.050326
-0.439086
-0.644194
-0.250450
-0.073906
0.036765
-0.088285
-0.649942
-0.408711
-0.420276
-0.515390
-0.361789
-0.382006
0.574539
-0.264925
0.493004
-0.419893
-0.311679
-0.534706
-0.419966
0.002206
-0.524369
-0.229964
-0.085618
0.129788
-0.073641
0.155043
0.259263
0.159817
-0.656327
-0.119606
0.052690
0.259454
-0.207192
-0.121878
-0.620170
0.282533
-0.485659
-0.213106
-0.690713
-0.082019
0.100414
-0.438636
-0.322970
0.424688
0.442034
0.120006
0.484765
-0.185144
-0.458706
-0.516036
-0.886567
0.007569
-0.337868
-0.087060
0.074215
-0.127260
-0.231758
0.335070
-0.154390
-0.072430
0.134727
0.324143
0.184784
-0.694980
-0.130760
-0.209394
-0.818078
-0.000055
-0.734283
-0.675126
-0.823386
-0.586928
-0.328426
-0.340023
-0.172372
-0.002393
0.719746
-0.120542
0.329319
0.331099
-0.281964
-0.335021
-0.539045
-0.703144
-0.535769
0.272745
0.204585
0.323593
0.025936
0.183495
-0.109163
-0.176633
-0.076592
-0.034324
-0.436980
0.086790
-0.071345
-0.561836
-0.241897
0.088332
-0.437544
-1.274910
-1.273610
-0.660826
-0.153068
-0.203882
0.075700
-0.103254
0.852574
0.444413
0.086996
-0.212632
-0.007346
-0.444212
-0.322118
-0.722990
-0.403796
-0.161711
0.001196
0.219025
0.238347
-0.287997
-0.424037
0.168127
0.211966
-0.169633
-0.379826
-0.403677
0.265432
-0.237254
-0.248636
-0.525787
-0.574564
-0.672872
-0.556787
-0.512225
-0.327582
-0.175471
0.567485
-0.497523
0.649112
0.445058
0.488074
0.458630
-0.156388
-0.423420
0.144046
-0.237732
0.448458
0.464865
0.148101
0.425790
-0.104278
-0.092934
0.535118
-0.231672
-0.326992
-0.504077
0.033645
-0.612262
0.212356
-0.164184
-0.278618
-0.569386
-1.022708
-1.385559
-1.333966
-0.917806
-0.715412
-0.429502
-0.049968
0.049217
0.076699
-0.217397
0.750242
-0.366363
-0.197309
-0.293388
-0.731216
0.177481
-0.748563
-0.636945
-0.645739
0.109790
0.519876
0.472731
0.435700
0.349425
0.066657
-0.025024
-0.644487
-0.622800
0.165218
-0.548132
-1.182769
-0.826804
-1.234832
-1.083837
-1.355330
-0.910469
-0.828821
-0.400658
-0.484478
0.023203
0.134560
0.301116
0.709254
0.038768
-0.428122
-0.645343
0.104527
-0.448090
-0.668567
-0.047973
-0.243386
-0.204279
0.433281
0.290730
0.119255
0.140500
-0.131784
-0.241787
-0.546872
-0.087427
-0.520952
-0.812198
-0.663366
-0.864396
-0.871589
-1.604974
-1.488661
-0.654197
-0.325268
-0.433612
-0.653931
0.110702
0.599867
0.110211
0.790976
-0.372857
-0.133976
0.399089
0.066576
0.117497
-0.385971
0.275794
-0.160433
-0.434153
0.131587
0.122982
-0.262051
0.404530
-0.187515
-0.093481
-0.586005
-0.346566
-0.557844
-0.777012
-0.314347
-0.155736
-1.194710
-1.366967
-0.610964
-0.006067
-0.940359
-0.301222
-0.540057
-0.098566
0.416988
0.403090
0.667579
0.604514
0.448883
-0.011279
0.645850
0.311598
0.015845
-0.256506
-0.116818
0.382135
0.251263
0.201853
-0.234942
-0.050594
-0.314849
-0.222658
-0.281939
-0.040002
-0.080791
-0.782841
-0.299219
-0.550378
-0.471429
-0.233813
-0.589409
-0.349072
-0.446411
-0.511082
-0.518013
0.366216
0.492021
-0.022862
0.706468
0.839061
0.615338
0.557273
0.511461
0.027037
-0.376594
-0.053156
0.051717
0.441905
0.468061
0.696878
-0.218829
-0.194791
0.329142
-0.573742
-0.289392
0.079307
0.115103
-0.556757
-0.312626
-0.596417
-0.793722
-0.913430
-0.548321
0.130788
-0.289126
-0.562553
-0.319328
0.219028
0.053224
0.915468
0.700273
1.037025
0.067920
-0.124681
-0.419102
0.138358
0.050414
0.271755
-0.073437
-0.198932
0.248149
0.171121
0.121278
0.014582
-0.062166
-0.106502
-0.528015
-0.532338
-0.145035
-0.625500
-0.042940
0.236471
-0.465224
-0.452316
-0.292643
-0.374263
0.221683
0.199892
-0.205183
0.108509
0.534879
0.059014
0.863633
0.455915
-0.173342
0.237915
0.007762
-0.550202
-0.076089
-0.523107
0.104157
-0.607858
-0.037949
0.618530
0.008845
-0.148962
-0.560147
-0.029862
-0.523065
0.385479
-0.108169
-0.126324
-0.133804
-0.246910
-0.340314
0.020275
-0.748783
-0.443927
0.519207
0.355856
0.561842
-0.063986
0.962713
0.571356
0.888590
0.715944
-0.362431
-0.287767
-0.375829
0.282945
-0.793788
-0.276817
0.068458
-0.420392
-0.328480
0.199781
0.315048
0.297890
-0.074818
-0.456478
0.112277
0.541603
0.313278
-0.386276
-0.099319
0.001424
0.326498
-0.247944
-0.253266
-0.262231
0.044705
0.461330
-0.433535
0.085738
0.456422
0.153627
0.228441
-0.086533
-0.240223
-0.158660
0.450305
0.326843
-0.723394
-0.304237
-0.363731
-0.268958
-0.338399
0.516052
-0.265918
-0.544673
-0.550058
0.325008
-0.324574
0.435492
0.406475
0.101355
0.208952
0.021837
0.322847
-0.393250
0.074681
0.160041
-0.303898
0.289233
-0.148844
-0.063210
0.271404
-0.017487
0.317320
0.131620
-0.297890
-0.457555
0.026446
0.049388
-0.324370
-0.417516
0.048587
0.280622
0.071543
-0.244316
0.587053
-0.326441
0.508389
-0.157343
-0.301722
0.541773
-0.181301
-0.467386
0.679020
0.094005
0.120729
-0.018661
0.041304
0.757551
0.184635
0.366864
-0.680867
0.057837
0.515564
-0.466262
-0.041003
0.169807
-0.025580
0.259286
-0.064205
-0.441871
-0.400601
0.078645
0.022368
-0.510392
0.663304
0.383378
0.489736
-0.504539
0.285077
0.290962
-0.111778
0.527877
0.254559
0.443176
0.000681
0.276277
0.550154
0.514398
-0.123798
-0.144200
-0.367661
0.297811
-0.214421
-0.873434
-0.053563
-0.410998
-0.182476
0.661583
0.071368
-0.040262
-0.164143
0.027861
-0.717076
-0.014268
0.047004
-0.322635
0.438979
0.431707
0.715725
0.306531
-0.003477
0.590501
-0.116818
-0.005507
-0.191538
0.349112
-0.140443
0.615674
-0.571686
0.269962
0.291795
0.283781
-0.089878
-0.064667
-0.262654
-0.219054
-0.666127
0.516917
0.227836
0.353564
0.387873
-0.335633
0.308668
0.030607
-0.541707
-0.752218
0.331110
-0.488449
-0.294789
0.123436
-0.270871
-0.387667
-0.036184
0.477125
0.343907
0.425862
-0.387953
-0.146595
0.113737
0.048402
-0.129324
-0.379928
-0.232871
-0.076156
0.529328
0.586014
0.266520
-0.238263
-0.441388
-0.189470
-0.342391
0.574525
0.088717
-0.422875
0.257304
-0.313284
-0.270989
0.154841
0.367220
-0.097023
-0.138040
0.159700
0.076732
0.339765
0.429237
-0.065244
-0.080243
-0.205654
-0.056229
0.246984
-0.237369
0.144590
0.575169
-0.504989
0.121334
-0.213515
0.040608
0.039112
-0.133596
-0.678134
-0.698481
-0.320782
0.147161
0.067874
0.136400
-0.178047
-0.142158
-0.492108
-0.267654
-0.097691
0.241507
-0.134012
-0.252831
0.447728
-0.588891
-0.369844
0.139415
0.109554
0.274196
-0.014579
0.361488
0.204419
0.429175
0.499747
0.250943
-0.290375
0.444559
-0.084093
0.334075
0.388836
0.043645
0.303693
-0.193741
0.042544
-0.155860
0.140912
-0.716884
-0.381164
-0.284143
-0.176309
-0.200642
-0.042570
0.099354
0.261425
0.012637
0.154421
-0.066997
-0.631444
0.033531
-0.072963
0.179449
-0.284000
-0.687774
-0.048492
-0.105538
-0.309620
-0.292543
-0.030648
-0.334798
0.072094
-0.633102
-0.362743
-0.066571
-0.372787
-0.724225
-0.873920
-0.412125
-0.339804
-0.324191
-0.624060
-0.621740
-0.803139
-0.183615
-0.079216
0.480373
-0.278651
-0.169561
-0.516025
-0.143152
-0.175883
0.083520
-0.067394
-0.059538
-0.725803
-0.192775
-0.261198
0.015823
0.514019
0.395860
-0.328852
-0.198969
-0.226359
0.156475
-0.020117
0.340303
-0.329403
-0.601101
-0.422381
-1.257496
-0.239905
-0.744736
-0.507123
-0.762056
0.108926
-0.304254
0.605219
-0.307058
0.009489
-0.076089
0.389584
-0.410909
-0.345004
-0.081543
-0.402641
0.047507
-0.470700
-0.289884
0.009553
0.418078
0.419937
0.268317
-0.186122
-0.033458
-0.248142
-0.265405
-0.275241
0.294206
0.134579
0.112226
-0.369928
-0.863400
-0.683823
-0.273446
-0.420494
-0.173736
0.399645
-0.138193
0.172549
0.678750
0.322426
-0.346795
-0.510509
0.265898
0.114377
-0.364804
-0.172003
-0.239290
-0.307094
0.473367
0.479066
0.723900
0.751984
0.671489
-0.370956
0.198498
0.165913
-0.348503
0.031665
-0.401223
-0.610841
-0.807501
-0.780393
-0.317530
-0.748040
-0.403980
-0.685869
0.243384
0.144260
0.720432
0.304087
0.745842
0.632278
0.318050
0.181505
0.558301
0.583334
-0.055593
-0.676510
-0.253758
-0.146551
0.413553
0.489268
0.368698
0.026034
0.907610
0.042126
-0.357130
0.691628
0.601899
-0.290028
-0.355342
-0.326371
-0.881619
-0.760635
-1.101557
-0.385744
-0.671097
0.039159
-0.338438
0.199202
0.117585
0.578406
0.659678
0.623383
0.727971
-0.155704
-0.010985
0.312727
0.173546
0.228163
0.411145
0.375000
-0.087966
0.240469
0.021760
0.308117
0.361681
0.333318
-0.225961
0.214327
0.158390
0.283497
0.175608
-0.314577
-0.570897
-0.260966
-0.142157
-0.354737
-0.224273
-0.642945
-0.288960
0.558054
0.178870
0.633543
0.642284
0.352251
-0.094257
-0.218109
-0.054497
-0.242259
0.368545
-0.257625
0.014358
0.108499
0.735758
0.728820
0.398607
0.612403
0.175406
0.699495
0.424993
0.397231
-0.640359
-0.487934
-0.791394
-0.584663
-0.410916
-0.024579
-0.684114
-0.064587
-0.487774
-0.045075
-1.074818
-0.882847
-0.609222
-0.749065
-0.831077
-0.380915
-0.077338
0.202698
-0.283107
0.441858
0.583130
0.181085
0.596615
-0.273227
0.587051
0.692592
0.676030
0.764921
0.671028
-0.181362
0.529441
0.123697
-0.220981
-0.103218
-0.172437
0.064675
-0.691158
-0.477906
-0.558662
0.262112
0.050079
-0.151965
-1.106880
-0.852535
-0.079849
-0.379813
-0.515994
0.105733
-0.056069
0.726132
0.367792
0.146302
0.164734
0.194071
0.213502
-0.210597
-0.088977
0.194168
1.038284
-0.215398
0.077724
-0.532147
-0.113777
-0.387523
-0.787007
0.027176
-0.663447
-0.403264
-0.368620
0.184886
-0.526934
-0.576751
-0.338653
-0.053085
-0.329541
-0.807164
-0.351585
-1.115957
-0.964731
-0.517791
-0.597092
-0.155673
0.000840
-0.277873
0.217945
0.275311
-0.101441
0.696502
0.988425
1.138251
1.195351
0.629595
-0.160682
-0.272672
-0.115213
-0.341181
-0.025433
-0.332752
0.000092
0.018738
0.462081
0.158784
-0.538714
-0.295810
0.399534
0.006352
-0.246292
-0.385469
0.358385
-0.896910
-0.868990
-0.582758
-0.385103
0.798566
0.268907
-0.168658
0.124122
-0.299852
0.554243
-0.343535
-0.249962
1.169830
0.271915
0.806388
-0.048765
-0.076824
0.119631
-0.278418
-0.153629
-0.312486
-0.323412
0.537243
0.018587
-0.521697
-0.292557
-0.162026
-0.799493
-0.015522
0.259488
0.025195
-0.607980
-0.164154
-0.217882
-0.314536
0.490948
0.470329
-0.416234
-0.032562
-0.093795
-0.101446
-0.009510
0.022946
0.134941
0.800675
0.673031
0.171730
0.066644
-0.255614
-0.534923
0.023622
-0.110670
0.064143
0.442947
0.534503
0.745911
-0.139104
-0.262379
0.483950
0.257319
0.333116
0.156189
-0.298539
0.251843
-0.287063
-0.450374
0.027251
-0.261570
0.244873
0.082258
0.332517
0.611237
0.323513
0.049146
-0.241184
0.475384
0.816137
0.842875
0.266946
0.081402
0.266125
0.140502
-0.157561
0.063576
0.364863
0.545475
0.469104
0.475836
-0.248506
-0.233337
-0.344364
-0.553404
-0.050375
0.199419
-0.546549
0.276619
-0.558690
0.212934
-0.102925
0.544677
-0.170127
0.200379
0.062319
-0.225811
-0.217619
0.555609
0.610240
0.616505
0.524371
0.885763
0.725909
0.496828
0.039265
-0.570073
-0.465562
0.329594
-0.070566
0.257974
0.801052
1.157453
0.119219
-0.200982
0.012902
0.059275
-0.314217
-0.633880
0.108225
-0.302489
0.154734
-0.458760
-0.136827
-0.096524
0.334930
-0.481420
-0.061529
0.237546
-0.182230
0.530549
-0.117352
0.624369
0.685460
0.768239
0.773557
0.493895
-0.146688
0.465832
0.397550
-0.101331
1.060790
1.079861
1.043770
1.708132
1.182126
1.192625
0.961415
0.345160
0.218364
0.238236
0.084975
-0.502654
-0.375164
-0.432507
-0.004876
-0.011734
-0.413278
0.249015
0.134549
0.139649
-0.087711
-0.014198
-0.117448
0.054906
0.411497
0.013170
0.872196
0.162153
-0.808774
-0.553887
-0.234203
-0.126591
0.658359
0.913286
1.523569
1.522991
1.190880
1.687218
1.758422
0.258058
0.157178
0.594076
-0.022985
0.019621
-0.184475
-0.103350
-0.138690
-0.548208
-0.567160
0.139535
-0.167287
-0.019894
-0.114214
0.432687
-0.270160
-0.147833
-0.226141
-0.215704
-0.257704
-0.453797
-0.232340
-0.636165
0.068006
0.329246
-0.176592
0.855732
1.630729
1.407550
0.843543
1.103443
1.240146
0.397081
0.801945
0.000700
0.478155
-0.702190
-0.939647
-0.487251
-0.661321
-0.174524
0.025983
-0.332633
-0.009776
-0.001051
0.379572
-0.210268
-0.225658
0.466969
0.496192
0.292063
0.470976
-0.562541
-0.428805
-0.448375
-0.559539
-0.595382
0.014362
1.264821
1.393472
1.802931
1.783427
1.636383
1.361429
1.154077
0.985014
1.044373
0.540901
0.008557
-0.372898
-0.433272
0.231642
-0.632345
0.155090
-0.076699
-0.399213
0.049191
0.475332
-0.441035
-0.288103
-0.111437
0.069593
-0.206043
0.154185
0.133433
-0.621341
-0.670064
-0.788097
-0.790518
0.159477
0.475888
1.132746
1.088245
0.505592
1.017795
0.742669
0.727039
1.025592
0.573177
-0.634225
-0.722095
-0.464293
-0.483319
0.052852
-0.146104
-0.265167
-0.331948
0.247096
0.408688
-0.038290
-0.466637
0.258355
0.443522
0.499571
-0.339816
-0.195664
-0.306351
-0.754764
-1.629869
-0.846488
-0.202874
-0.319689
0.255255
0.369722
0.681731
0.569925
0.565622
1.570886
0.663776
0.692145
-0.765371
-0.793884
-0.661347
-0.400432
-0.680544
0.085371
-0.420794
-0.126439
0.118330
-0.645262
-0.406972
-0.128068
0.333663
-0.389054
-0.076401
0.090587
0.202890
-0.199988
-0.130068
-1.229432
-1.175643
-0.643432
-0.426881
-0.416382
0.186147
0.337431
0.241793
0.597463
0.810979
0.914309
0.431603
0.388272
-0.029688
-1.163539
-0.563206
0.233295
-0.495897
0.499357
-0.420115
0.347631
0.364539
-0.306593
0.455700
-0.140489
0.262392
0.209494
0.058555
-0.356237
0.352667
-0.372276
-0.071359
-1.238626
-1.061775
-1.463031
-0.424358
0.485771
0.495436
0.253288
0.570916
-0.004537
0.647247
-0.033920
0.223932
-0.828720
-0.223061
-0.524390
-0.312072
-0.219408
-0.034800
0.281072
-0.020816
-0.534243
0.296876
-0.145499
-0.280611
-0.108639
0.362871
-0.170635
0.480694
-0.522667
-0.721786
-0.111781
-0.382930
-1.261842
-1.223764
-0.549069
-1.141380
-0.532577
-0.104318
-0.502754
-0.266829
-0.285061
-0.829907
-0.338168
-0.747264
-0.742825
-0.954043
-1.024332
-0.564282
-0.476487
0.288941
-0.049575
0.326880
-0.362099
0.379139
0.035642
-0.030634
-0.170319
0.095538
0.305494
-0.089991
0.258550
-0.410217
-0.076139
-0.302263
-0.762228
-0.443814
-0.759811
-1.493800
-0.028290
-0.126795
-0.796427
0.005540
0.328717
-0.846661
0.292855
-0.293446
-0.541418
-0.478081
-0.401937
-0.583611
-0.197472
0.474437
0.086866
0.054980
-0.128688
0.261086
-0.279199
0.245218
-0.317478
0.109477
0.145626
-0.206830
-0.474511
-0.702991
-0.361517
-0.372273
-0.609728
-0.383733
-0.594493
-0.620190
0.064829
-0.038047
-0.319983
-0.602781
-0.233136
-0.616423
0.142619
-0.053649
-0.540512
-0.709574
-0.421073
-0.066413
0.081526
0.208641
-0.011802
0.079509
-0.367116
0.100501
0.341034
0.020803
0.434811
-0.403030
-0.329331
0.113399
-0.343578
-0.721662
-0.634989
0.175897
0.043556
-0.814358
0.196015
-0.573801
-0.566220
0.448176
0.143590
0.071488
-0.277796
-0.154427
-0.571350
-0.121227
-0.488855
-0.460692
-0.627590
-0.369848
0.578604
0.475099
0.222208
0.413334
0.414807
0.328161
-0.164538
0.259402
0.071024
-0.084779
-0.465972
0.263883
-0.308514
-0.183788
-0.378880
-0.418235
-0.008824
-0.646061
-0.140155
0.414390
-0.426169
0.345907
0.096816
-0.377404
0.033206
-0.554658
-0.779528
-0.719598
-0.488707
-0.420383
-0.293910
0.637304
0.036521
0.657155
0.940945
0.332670
0.540242
0.210209
0.411474
-0.273723
0.575657
0.417540
0.018136
0.288350
-0.066883
-0.925342
0.076738
-0.277171
-0.408504
0.422322
0.831396
-0.022488
-0.179335
-0.121707
0.338285
0.005686
0.131268
0.291332
-0.092547
-0.228532
-0.135952
-0.459214
-0.042418
0.907768
0.199560
0.782725
0.381103
-0.268257
0.048376
0.226725
0.316624
-0.056723
0.068548
-0.476883
0.030925
0.254425
0.269331
-0.249536
0.141839
0.246784
0.386706
-0.125031
-0.003617
0.147029
0.524680
0.311113
-0.254190
-0.301382
-0.039674
0.112032
-0.297643
-0.528659
0.222751
-0.127349
-0.217917
1.172513
0.418654
1.103567
0.696138
0.532287
0.276218
0.709411
-0.240463
0.426955
0.031263
0.354456
-0.405783
0.412305
0.529647
-0.197347
-0.276206
0.530440
0.186688
0.628591
0.802880
0.135803
0.320064
0.071041
-0.392991
0.163599
0.170883
-0.441032
0.180695
0.234644
-0.059239
-0.535508
0.236586
0.807664
0.737739
0.330602
1.181196
0.721513
0.427917
0.716437
-0.119609
0.116300
0.715505
0.285928
-0.013585
0.008258
-0.004269
-0.341975
-0.437740
-0.174903
0.303305
0.887561
1.087547
0.203869
0.510012
0.114041
0.170572
-0.385695
0.800469
-0.331296
0.203773
0.676794
-0.167411
-0.045570
-0.136686
0.587991
1.307340
0.843842
0.714003
0.035697
0.336987
0.364530
-0.097075
0.121132
0.251316
0.057388
0.305913
0.341704
0.759597
0.640569
-0.062517
0.335988
0.465042
0.568717
0.884247
0.823056
0.014193
-0.411983
0.297236
-0.619009
0.393214
0.360959
-0.345798
0.313622
-0.135380
0.037141
0.702614
1.244666
1.248353
0.418582
0.098058
0.424890
-0.094384
-0.178794
0.207932
0.245758
0.273975
0.716329
0.341841
-0.731957
0.265445
-0.541450
-0.658083
0.256450
0.431609
0.180453
0.779053
0.339823
-0.074359
0.216052
-0.217865
0.037557
0.346915
1.089070
0.394469
0.317563
0.006296
0.122416
1.031100
1.158958
0.766580
0.682040
0.228907
-0.516579
0.532924
0.274793
0.410032
0.160657
-0.171819
0.013339
-0.105822
0.195300
-0.314425
-0.280922
-1.199758
-0.511456
-1.092449
-0.981913
-0.373394
0.201091
0.049217
0.123428
-0.355935
-0.215640
0.407741
0.450283
0.137828
-0.331037
-0.533693
0.008451
-0.042584
0.579521
0.211041
0.606800
0.233825
0.093904
-0.024143
-0.416464
0.247249
0.527564
0.447037
-0.264590
0.532344
-0.535887
-0.634934
-0.181872
-0.897222
-0.897791
-1.347764
-0.756128
-0.187387
-0.778648
-0.688780
0.642675
0.605951
0.117114
0.693663
1.069258
0.605378
0.332114
-0.272364
-0.323632
0.283964
-0.011896
0.475421
-0.351060
0.212397
-0.392457
-0.033565
-0.397123
0.263440
0.284628
0.585037
0.658454
0.102823
0.470847
0.171382
0.416616
-0.537173
-0.451827
0.074028
-0.337828
-0.216702
-0.124150
-0.143928
0.650642
0.567217
0.486590
0.556272
1.030869
0.904798
-0.088150
-0.422400
0.439911
-0.502126
-0.683361
-0.394738
-1.040239
-0.274792
-0.313648
0.162870
0.177757
-0.128420
-0.275850
0.286358
0.575973
0.958018
0.431747
0.206117
-0.250660
-0.837625
-0.171802
-0.492813
-0.683925
0.048453
-0.052234
-0.087130
-0.377967
0.549815
0.634260
1.246060
0.407094
0.564628
-0.023368
-0.014234
-0.399051
-0.359882
-0.624696
-0.253669
-0.659288
-0.668305
0.280800
0.694526
0.093521
0.690789
0.710819
0.352497
0.046676
0.569273
-0.283386
-0.241387
0.192228
-0.223268
-0.675638
-0.311449
-0.166472
0.510181
0.115220
-0.048724
0.497714
0.649511
1.045365
1.647628
0.563301
1.118148
0.201128
-0.622145
-1.028889
-0.771528
-0.763487
-1.052401
-0.402693
-0.416883
0.097617
0.545839
-0.266937
-0.309372
-0.144392
0.072590
-0.041809
0.149869
0.430329
-0.368517
0.387172
-0.528923
-0.336056
-0.290008
-0.926299
-0.452003
0.185088
-0.320759
0.271623
0.704593
-0.520773
-0.181438
-0.329913
0.165726
0.262609
0.479520
0.447993
0.457975
-0.407319
-0.026429
0.385065
0.463405
0.341752
0.034540
-0.015886
0.150865
-0.401755
0.152272
-0.159667
0.411292
0.093182
-0.154807
0.208129
0.123182
-0.738896
-0.537559
-0.795063
-0.208021
-0.461515
-0.381402
-0.800525
0.382578
-0.791759
-0.965130
-0.312127
-0.382010
-0.191266
0.602463
-0.064179
-0.511711
-0.166654
-0.164172
0.380436
-0.185827
0.319405
0.629951
-0.282162
-0.062544
0.228860
0.742193
0.323283
0.429339
0.357012
-0.458825
-0.050119
-0.348222
-0.609760
-0.303954
-0.563418
-0.910475
-0.435042
-0.009054
0.328191
0.664819
0.070937
-0.923376
-0.548408
0.164133
0.439503
0.556764
0.442913
-0.166099
-0.887701
-0.981974
-0.934561
0.304446
0.097897
-0.178426
0.524431
0.432567
0.047003
0.302151
-0.286835
0.386689
-0.416188
-0.341143
-0.232755
-0.665119
-0.371446
-0.273874
0.030236
-0.432398
0.147496
0.082632
0.312753
0.222352
-0.536847
-1.043089
-0.203874
0.355264
0.339707
0.020527
-0.301935
-0.957210
0.165138
-0.045066
0.682608
0.138351
0.082599
0.301055
0.288903
-0.377258
-0.102969
0.256566
0.232384
0.430871
0.428041
0.109015
-0.060576
0.245973
-0.524470
-0.209863
-0.130245
-0.373584
-0.186787
0.695249
0.756878
0.972968
-0.317871
-0.001332
0.898873
0.902380
0.440792
0.931845
0.133076
-0.491832
-0.742286
0.316635
0.195011
-0.596921
0.108496
0.475720
-0.279625
0.354271
0.137697
-0.082246
-0.095303
0.611330
0.739228
0.315441
0.090548
0.238770
-0.383582
-0.286219
-0.302356
-0.149815
-0.305349
-0.004385
0.192374
0.674233
0.692128
0.090023
0.591102
0.605137
0.246366
0.392383
-0.148016
-0.445881
-0.594554
0.034069
-0.076127
0.028358
-0.416456
-0.486424
-0.030219
0.455116
0.423975
-0.111712
0.096495
0.311752
0.172387
-0.000083
0.396827
0.251848
0.236323
0.296432
0.016868
0.293094
0.321887
-0.115408
0.115990
0.930905
0.468989
0.418142
0.332921
0.441883
-0.313365
0.474845
0.119338
0.324205
0.153722
-0.362166
0.178466
-0.090101
-0.061794
-0.193358
-0.091792
0.504697
0.080255
0.462998
-0.045877
-0.109869
0.646474
0.422619
0.515683
1.038391
0.189873
0.313379
0.347982
0.379553
0.741543
1.003155
0.330911
0.516234
0.218294
0.420767
-0.100415
0.418609
-0.702664
-0.639091
0.163483
0.435264
0.141514
-0.101940
0.290260
-0.529213
0.175769
-0.395735
0.364136
0.240523
-0.032217
0.199384
0.205382
0.348425
0.198124
-0.099072
-0.226121
0.456322
0.730967
0.161217
-0.233438
0.361430
0.256234
0.791316
-0.214792
-0.054659
0.597790
-0.115289
-0.085951
0.269277
0.200237
-0.123994
0.026847
0.536027
0.614126
-0.384437
-0.175983
-0.574135
0.413288
0.119974
-0.124030
-0.283358
0.591099
0.701768
-0.172156
0.173691
-0.280814
-0.287961
-0.067000
0.315359
0.612126
0.458566
-0.209118
-0.173509
-0.010865
-0.157127
-0.242633
0.346650
-0.607969
-0.134429
0.106138
0.514300
-0.409029
-0.558396
-0.013330
0.835371
0.645106
0.285195
-0.578326
-0.403620
0.080421
-0.345033
0.335731
-0.330228
0.116003
0.163157
0.407111
0.420294
0.368984
-0.094638
0.209608
0.562173
0.887412
0.867430
-0.283540
0.175158
0.894907
0.000208
-0.203254
-0.708703
-0.873809
-0.585780
-0.770103
-0.574331
-0.057794
-0.273624
0.094383
0.654791
0.414752
0.145837
0.114087
-0.077701
0.187920
-0.501723
-0.277281
0.205394
-0.347409
-0.367775
0.432333
-0.245799
0.462941
-0.158817
0.789254
1.185181
0.351427
0.013254
0.215081
-0.507198
-0.086259
-0.049091
-0.505170
-0.344242
-1.112425
-1.145730
-1.370880
-1.135235
-0.373625
-0.516857
0.802172
0.496576
0.725100
-0.294083
0.217599
0.205957
0.109315
-0.438440
0.004061
0.341738
-0.303041
0.442901
-0.172389
-0.002113
-0.286830
0.141357
0.287339
0.796849
0.890645
0.053233
0.282771
-0.129467
0.741915
-0.121185
-0.194787
-0.566523
-0.952028
-0.821836
-1.502733
-1.224240
-0.653860
-0.088459
0.595657
0.291459
0.522978
0.066380
-0.113856
0.354405
-0.578417
-0.132869
0.347279
0.000949
-0.400948
0.584138
0.553161
-0.299861
-0.117353
0.652082
0.859955
0.230672
0.492025
0.404698
-0.131636
0.427842
0.622660
-0.143945
-0.070604
-0.599367
-1.400570
-1.850588
-1.930346
-1.662575
-0.584004
-0.597355
-0.245273
0.750837
-0.322217
0.189772
0.569978
0.351640
-0.603608
-0.246620
0.056338
0.295952
-0.384120
0.530578
0.173182
-0.359645
0.214221
0.393301
0.074410
-0.075105
0.260465
0.148042
0.261877
0.299459
0.406530
-0.165948
-0.679454
-0.426436
-1.248322
-1.229671
-1.384120
-1.992977
-0.441245
-0.562796
-0.020433
-0.153880
0.206709
0.240302
-0.498040
-0.155038
-0.120183
-0.288845
0.031895
0.044030
-0.500546
0.623553
0.672126
0.261342
-0.083084
0.431401
0.297452
0.449700
0.026125
0.593362
-0.361401
0.611963
0.263956
0.227978
-0.882524
-0.647048
-1.660401
-2.067361
-2.139018
-1.359305
-0.925475
-0.967341
0.124323
0.768980
0.495368
0.190236
-0.317908
0.163430
-0.285906
-0.000930
0.659631
-0.254374
-0.446496
-0.057416
0.378024
0.479200
0.401285
-0.198087
0.790800
0.382750
-0.470815
0.311995
-0.357506
0.031006
0.785232
0.189766
-0.512343
-1.015145
-1.440370
-1.923685
-1.689666
-0.870823
-1.049477
-0.594046
0.398960
0.644598
0.590986
0.548750
-0.428857
0.675334
0.239338
0.885635
0.739746
0.132599
-0.302030
0.557606
0.614860
0.131919
0.061380
0.459711
0.024645
0.300691
0.096401
-0.492551
0.078475
0.372409
-0.118993
-0.001221
-0.361040
-0.624421
-0.402297
-1.334583
-1.231096
-0.719192
-0.408334
-0.489784
0.947624
0.372043
0.211654
0.125946
-0.109564
0.038435
0.651929
1.111830
0.632114
0.044959
-0.367583
0.110363
0.099514
-0.282795
0.416279
0.416397
0.559678
0.078397
-0.616086
-0.422483
-0.120327
0.268730
-0.113047
0.117403
-0.356611
-0.568389
-0.551607
-0.379230
0.149052
-0.152464
0.922350
0.183779
0.836964
0.711292
0.695205
0.988922
0.646023
0.982529
0.353309
1.373328
0.047454
0.334015
0.265236
0.046389
0.116236
0.175926
0.053925
-0.174134
0.267367
0.216034
-0.802588
0.227491
-0.726356
-0.487857
0.102509
-0.413516
-0.008853
0.018615
0.068087
-0.723903
0.371226
0.017487
0.635451
0.706477
0.857850
-0.259368
0.594083
0.925143
0.668271
0.139806
0.325484
1.104133
0.681862
0.498841
-0.010910
0.687814
-0.091101
0.039174
0.158876
0.040311
0.361812
-0.366425
-0.419849
-0.260743
-0.194382
0.345869
-0.519743
-0.395401
0.612009
0.918979
1.015804
0.593527
0.753324
1.501062
0.907592
0.603856
1.402862
0.672927
0.730776
0.583041
1.034589
0.709158
0.770317
1.112615
0.612869
0.084720
-0.033092
0.549532
0.369014
-0.170252
-0.310900
0.461307
0.427434
0.068881
-0.108142
-0.622256
0.017563
-0.135191
0.209166
0.431013
0.745584
1.063691
1.633600
1.542126
0.950303
1.169719
0.530999
0.690001
0.329753
0.761419
0.546455
0.871333
0.755527
0.254313
0.074892
0.917111
0.192547
-0.036081
0.236526
0.665470
-0.013823
0.569387
-0.055291
-0.264937
-0.012520
-0.434167
-0.893632
0.070444
-0.729723
-0.196391
-0.023903
0.665215
0.387693
0.807834
1.275167
1.659438
0.888169
1.442341
1.197712
0.724795
1.260067
0.759802
1.366370
0.499081
0.522914
0.872611
0.766576
0.913345
0.435224
-0.409144
0.170820
0.027064
-0.226082
-0.246598
0.150272
-0.603592
-0.668587
-0.886723
-0.657738
-0.629400
-0.410108
-0.094761
0.130533
0.098270
0.086822
0.843159
1.066653
1.471896
1.293317
0.556263
0.507647
0.056370
0.001990
0.601321
0.927042
0.110136
0.798060
0.258447
0.446675
0.412093
0.146011
-0.238404
0.102306
0.657730
-0.183570
-0.314654
-0.066990
-0.201546
-0.093305
-0.344854
-0.846577
-0.253948
-0.974840
-0.381963
0.213613
0.296221
-0.199685
0.407809
1.113311
0.292960
0.128945
-0.006471
-0.736702
-0.120362
0.408226
-0.087583
-0.266086
0.310033
0.441656
-0.097292
-0.084063
0.008660
0.107662
-0.534236
1.050049
0.001811
0.349258
-0.172263
0.760421
0.552828
-0.174822
-0.516538
-0.481708
-0.415618
0.080189
0.076662
0.323401
0.593955
0.574946
-0.212526
0.942832
0.347301
0.670359
-0.164149
-1.302540
-0.328919
0.383924
0.459546
-0.033253
-0.175179
0.323950
0.223110
-0.007667
0.499448
0.113412
0.242480
0.664554
0.947324
-0.224395
-0.352070
-0.448710
-0.498155
-0.310612
-1.026506
-0.420420
-0.875208
-0.745503
-0.724172
-0.563586
-0.441925
-0.160390
0.872513
0.232375
0.963725
-0.037938
-0.299124
-0.680816
-0.122630
0.495396
-0.510122
-0.782216
-0.640679
-0.388450
0.696312
-0.390153
0.419995
0.484855
-0.465299
0.722157
0.098121
-0.038407
-0.754796
-0.164669
-1.004391
-0.679318
-1.031890
-0.419598
-0.917213
-0.086801
-0.536206
0.019129
-0.223324
-0.237769
0.620976
0.631182
0.546938
0.462782
-0.447824
-0.362178
-0.843610
-0.443952
-0.569204
-0.408032
-0.742681
0.189997
-0.095199
0.268317
0.293585
0.384210
-0.215023
0.631156
-0.345989
-0.538721
-0.688935
-0.027312
-0.693459
-0.221347
-0.641932
-0.688904
-0.957316
-0.271863
-0.536616
-0.225393
0.256365
-0.143024
0.167401
-0.287842
-0.659400
-0.645073
0.219326
-0.550698
0.044774
-0.216836
-0.297931
-0.108468
0.150435
0.356990
0.712268
0.585623
0.718214
0.296970
0.695272
-0.015468
0.149527
-0.070522
-0.048114
0.222386
0.126087
-0.088955
0.067222
-0.056975
0.124370
0.680717
0.593666
0.394762
-0.532861
-0.347141
0.127841
-0.934148
-0.429498
-0.364870
-0.751672
-0.065234
-0.104872
-0.148205
0.438961
0.240603
0.881534
0.698093
0.735371
0.742551
1.063916
0.868413
0.434066
-0.069187
-0.045180
-0.365966
-0.188349
-0.137487
-0.111893
-0.040938
-0.617594
-1.032485
0.060686
-0.176268
0.188649
-0.240798
0.117585
0.237981
0.315723
-0.537547
-0.447128
-0.229641
-0.658041
-0.356690
-0.120849
-0.543736
-0.469883
-0.068666
-0.633075
-0.075742
0.518610
0.265452
0.952107
0.165149
0.412527
0.060985
0.163358
-0.577819
-0.048195
-0.496480
-0.455635
-0.570511
-0.043742
-0.626171
-0.797754
0.415663
-0.097736
-0.252648
0.031514
0.218485
-0.558448
-0.360657
-0.418574
-0.134736
-0.011771
-0.105217
-0.141420
0.000327
0.103025
0.377529
0.872583
0.884919
0.827506
0.683313
0.751663
-0.079908
0.420873
0.107754
-0.454562
-0.247983
0.425520
-0.101796
-0.067338
-0.151768
0.313066
-0.399546
-0.522522
-0.132894
-0.601395
-0.504014
-0.732028
-0.903172
0.282359
-0.329216
-0.125842
0.306139
0.638836
0.388461
-0.087481
0.024002
-0.263985
-1.057793
-1.564536
-1.128118
-0.945119
-1.122000
-1.000064
-1.008862
-0.368766
-0.547120
-0.108156
-0.458167
0.312263
-0.282190
-0.156094
-0.616845
-0.515679
-0.297381
-0.715121
-0.209221
-0.048233
-0.363693
-0.948242
-0.789152
-0.429610
0.050629
-0.431981
-0.376747
0.696788
0.077767
0.474124
0.016174
-0.207125
-0.989283
-0.766373
-1.241948
-0.998672
-1.162413
-1.153690
-1.115130
-0.296361
-0.516392
-0.439966
-0.461512
-0.078825
-0.118290
0.407771
0.172983
-0.493962
0.302623
-0.464867
-0.860420
-0.830739
-0.544917
-0.921416
-0.838731
0.315732
0.349442
-0.078077
-0.286316
0.128832
-0.359953
-0.017965
-0.400221
0.044713
-0.753998
-0.563701
-0.391924
-1.059271
-0.133128
0.044536
-0.107112
-0.059268
0.275093
-0.385688
-0.263847
-0.693265
-0.333569
-0.010699
0.356683
-0.419317
-0.493012
-0.116690
-0.987599
-0.735565
-0.246225
-0.720997
0.125815
0.003768
-0.243028
-0.573645
0.129410
-0.238089
-0.111525
-0.579273
-0.770913
-0.057884
-0.743270
-0.484727
-0.371708
-0.422923
-0.712601
-0.130136
-0.041098
-0.053596
-0.423083
0.074554
-0.423382
0.079437
-0.666541
0.545590
-0.446369
-0.015053
-0.500550
-0.733838
-0.614623
-0.365375
-0.265460
-0.369308
-0.176295
-0.262811
0.002634
-0.522361
-0.347053
-0.222285
-0.417903
-0.851748
-0.228296
-0.578444
-0.277864
-0.296505
-0.134050
-0.799699
-0.411442
-0.221353
-0.577299
0.248357
0.238646
-0.169993
0.116012
-0.197361
-0.646986
-0.303227
-0.186805
-0.459769
-0.252172
-0.052670
0.010597
0.220248
-0.568218
-0.226338
0.232891
0.108500
-0.154705
-0.106523
-0.691351
0.134577
-0.445332
-1.102590
-0.990659
-0.571656
-0.958888
-0.035019
-0.251690
-0.706356
-0.110027
0.090732
-0.150042
0.439010
0.130272
-0.326696
0.210069
-0.081229
0.113151
-0.259443
0.266816
-0.412558
0.244960
-0.160493
-0.672419
0.081735
-0.318069
0.634151
0.269170
0.010022
0.351052
-0.090670
-0.555083
-0.829137
-0.599384
-0.479792
-0.029996
-0.403210
0.108091
-0.728085
0.008558
-0.733053
-0.760549
0.489472
-0.496240
0.254024
-0.306045
0.180070
0.234305
-0.328919
-0.167217
0.539593
-0.238592
0.095451
-0.206630
0.305881
-0.066689
0.243695
0.581671
0.600064
-0.245851
-0.255019
0.356083
0.000456
-0.958223
-1.355256
-1.379453
-1.215653
-0.499462
-0.499552
-0.372507
-0.469764
-0.455300
-0.761868
-0.166115
0.498324
-0.062871
0.012540
0.301291
0.216624
-0.117856
-0.158383
0.360653
-0.092777
-0.409572
0.491607
-0.044089
0.677736
-0.361741
0.575410
-0.161622
0.948060
0.030269
-0.247328
0.165659
-0.405859
-0.378308
-0.609814
-0.810997
-0.579270
-0.987128
-0.378175
-0.080670
0.142352
0.003153
-0.472336
-0.070556
0.538270
-0.229560
-0.149953
0.651148
0.136712
-0.245155
-0.259019
-0.255481
0.259072
-0.319174
0.267910
0.288756
-0.079530
0.483651
0.070244
-0.027810
0.290197
-0.599520
0.010372
-0.882414
-0.232670
-0.550779
-0.862988
-0.948488
-0.503853
-0.697272
-0.432542
-0.364148
-0.452916
-0.315786
0.016291
0.242038
-0.242049
0.149389
-0.215960
0.575649
0.374041
0.136460
-0.331237
0.477547
0.269350
0.355408
-0.166897
0.114659
0.049588
0.174772
0.225547
-0.277400
-0.130974
-0.053688
0.620251
0.145843
-0.593167
-0.485045
-0.823064
-1.105986
0.157107
0.067872
-0.239136
0.474653
-0.247704
0.215406
-0.250540
0.086824
0.265012
0.035427
-0.085261
0.192579
0.584649
0.142692
-0.197251
0.323043
0.357870
0.460028
-0.121633
0.472164
0.244759
0.207773
-0.564631
-0.371744
0.154169
0.147360
-0.218793
0.283821
0.509086
0.096382
0.215258
0.117742
0.087046
0.012858
-0.468969
-0.475618
-0.172363
-0.060880
-0.702055
-0.320071
-0.457295
-0.118987
0.223461
0.654602
0.732591
-0.141241
-0.380585
-0.288650
0.212066
0.538082
-0.365192
-0.221942
0.350318
0.322559
-0.204302
0.355128
0.590999
-0.301822
0.266605
0.105642
0.106305
0.325084
0.244581
-0.599432
-0.184319
-0.584271
0.195824
0.445423
-0.177086
0.266619
-0.062346
0.045618
-0.602026
-0.171423
0.304460
0.091859
-0.030042
0.476245
0.154121
0.115098
0.166935
0.290001
-0.331689
-0.175381
0.032811
-0.537138
-0.265936
0.088044
0.105274
0.271109
0.734872
0.439186
0.624794
-0.001576
0.477006
0.140789
0.178843
-0.455226
0.300504
0.641679
-0.396522
-0.039438
-0.141220
-0.444145
-0.125700
-0.650043
0.289040
0.669689
0.733584
0.289050
-0.203275
-0.171489
-0.060495
0.303640
-0.304731
-0.401265
0.314672
0.111037
0.298488
-0.138020
0.272558
-0.084051
0.313049
0.015788
0.350385
0.201315
0.132454
0.226251
0.132620
-0.080684
-0.270616
-0.341185
-0.324084
0.556597
0.077311
-0.298230
-0.366443
0.029805
0.036020
0.120552
0.472465
0.322643
0.146550
-0.357431
0.593688
-0.206563
-0.360084
-0.007252
-0.288359
0.510205
-0.130158
0.705788
0.669084
-0.015431
0.350412
-0.096893
0.339624
0.571181
0.282919
0.273719
0.200332
0.330716
-0.106036
0.265135
-0.209214
0.115224
0.279317
-0.569525
-0.152523
0.467860
-0.291807
0.288145
-0.065629
0.201583
-0.272281
-0.257476
-0.060336
0.142779
0.223054
-0.527750
0.350190
-0.091055
0.116783
-0.157242
-0.010000
0.245878
-0.179100
0.144852
-0.113394
0.873777
0.170674
0.632604
-0.413841
0.056858
0.744497
0.677170
0.262490
0.053939
0.499111
-0.540439
0.018778
0.091006
0.021092
0.037339
-0.224634
0.516616
0.458561
0.464398
0.301879
-0.016227
0.398756
-0.069823
-0.293972
-0.504216
-0.459110
0.019901
0.331933
0.155510
-0.198080
-0.282476
0.446244
0.778701
0.212222
0.407657
0.099030
-0.233015
0.474284
-0.006470
0.581633
0.813118
0.213645
-0.353713
-0.424440
-0.309473
0.043420
0.013110
0.431763
0.388342
-0.076865
-0.140940
0.066784
0.558962
0.002418
0.281780
-0.190553
-0.416135
-0.215286
0.799614
-0.007332
-0.161694
-0.054805
0.069519
-0.444119
-0.353230
0.358798
0.182121
0.189427
-0.245417
0.031920
-0.055738
-0.114598
0.106854
0.213386
-0.141748
0.055870
0.278472
0.067209
-0.166084
-0.022096
-0.139595
0.328215
0.756339
0.205892
-0.306153
0.421968
0.165729
-0.008285
-0.115506
0.276864
0.120241
0.131875
-0.273376
0.539822
0.080207
-0.301538
-0.583334
-0.689216
-0.884734
-0.328464
0.504740
0.459553
-0.118008
-0.093866
0.245931
0.649480
-0.420266
-0.098180
0.299168
-0.320807
0.179343
0.349066
0.478926
0.073535
-0.126656
-0.232673
0.616746
-0.181273
0.414942
-0.183974
-0.235365
0.193860
0.538095
0.451834
-0.804012
-0.108936
-0.469339
-0.467838
-0.163606
-0.595495
-0.968690
-0.432078
-0.471575
0.419653
0.369889
-0.296966
-0.070615
0.062094
-0.039035
-0.483254
0.565676
0.084376
-0.200947
-0.114356
0.496727
0.477441
0.496190
-0.152843
0.642393
0.517208
0.304878
-0.602021
0.215850
-0.407151
0.382895
0.572282
0.175306
-0.298745
-0.420995
-0.757695
-1.230859
-1.153273
-1.090193
-0.145532
-0.438039
-0.544766
-0.044539
-0.098780
-0.211376
0.037570
0.394369
0.574565
-0.009137
0.327813
0.416080
0.386545
-0.379388
0.100012
0.855308
0.687604
0.324781
0.056663
0.237690
0.393943
0.418678
-0.052774
0.714882
0.735734
0.095627
-0.296405
-1.116300
-0.930481
-1.124896
-1.364265
-0.821420
-0.473765
0.202796
-0.347772
-0.084264
-0.590733
0.091803
0.429733
-0.491174
0.269478
-0.300580
0.253487
0.171467
0.317329
0.036725
-0.236947
0.080238
-0.036848
0.673021
-0.115304
-0.173485
0.567888
-0.078659
0.179217
-0.007435
-0.011149
-0.429664
0.039619
-0.928433
-0.951515
-0.847926
-0.688207
0.084214
0.186049
0.101329
-0.139300
0.167175
-0.445376
0.302612
0.081345
0.224713
0.195572
-0.386596
0.109476
-0.430608
0.333926
0.178957
0.217929
0.317614
0.303239
0.496798
0.358114
0.419701
-0.326088
-0.370309
0.125238
0.887467
0.026156
0.630582
-0.252887
0.109503
0.572209
0.633013
0.226603
0.174814
0.344717
0.476567
0.499399
0.168783
0.648294
-0.052798
-0.095377
0.716831
0.036288
0.574857
-0.030249
-0.090442
0.021375
-0.467956
-0.450606
-0.046814
-0.106422
0.096745
0.264680
-0.017332
0.026736
0.096879
-0.345717
0.591555
0.043928
0.290733
-0.106393
0.509822
0.562652
0.038068
-0.094547
0.262045
0.456722
0.826543
0.209306
-0.310525
0.391701
0.473331
0.267812
-0.032012
0.467746
-0.237795
-0.211040
0.293473
-0.380975
-0.105449
-0.406608
-0.132851
-0.122504
0.294792
0.606139
0.342685
0.500999
0.053568
0.446097
0.700411
0.219396
0.592377
0.751734
-0.117618
0.541316
0.933092
0.008863
0.944465
0.639874
1.091371
0.826622
0.404163
1.093830
0.594636
0.157487
0.249577
0.104007
0.618135
-0.158318
0.489888
-0.025925
-0.165598
0.150103
0.212074
-0.082066
0.290775
0.681098
-0.438402
0.047003
-0.368651
0.177915
-0.129203
0.254506
0.169094
0.176061
0.439191
0.418981
0.138040
0.155483
0.576332
0.493035
0.558819
0.958378
0.266205
0.897239
0.331221
0.588439
0.628281
-0.217471
0.274196
0.258922
-0.426883
-0.296882
0.332490
-0.237279
-0.281402
-0.012098
-0.157380
0.601430
0.301524
0.488676
-0.418267
0.425606
0.741289
0.182534
0.026840
0.941244
0.613281
0.466284
0.808891
0.256090
0.637122
0.542592
0.459162
0.898207
1.163720
0.987314
1.130400
0.439226
0.350240
0.855379
0.280311
0.118615
-0.154726
0.179042
0.037392
-0.688125
-0.621629
0.478196
0.291122
0.271328
0.538718
0.324060
0.090247
0.088122
-0.213193
0.205447
0.502523
0.791390
1.233822
1.394735
0.487613
1.179375
1.033625
0.293914
1.351644
0.976343
0.847024
1.421691
1.200038
1.277534
0.768346
0.706168
0.285537
-0.314430
0.260843
-0.403209
-0.300493
-0.138710
-0.178591
-0.199343
0.461986
0.218449
-0.308111
-0.231892
0.096854
-0.295954
0.288745
0.442536
0.184931
-0.052335
0.781120
0.677002
0.898615
0.326421
0.787891
0.609660
0.190009
0.812586
1.251764
0.807856
0.896619
0.793566
0.737006
0.451413
0.556323
0.470536
-0.167307
-0.031970
-0.194199
0.369360
-0.212799
-0.178336
-0.107822
0.162694
0.583061
-0.237313
-0.141165
-0.051898
0.571092
0.087136
0.159232
0.574147
0.879473
0.629998
0.518009
0.920524
1.266869
0.497460
0.467484
0.355236
0.059366
0.941530
0.618894
0.555575
0.316430
0.429927
0.247399
0.567246
0.325663
0.028360
0.511800
-0.424430
-0.500714
-0.322714
-0.422385
-0.482213
-0.171690
-0.255154
-0.525708
-0.224767
-0.541102
-0.334077
-0.000949
0.061659
-0.655487
-0.491138
-0.685986
-0.643895
-0.727122
-0.741758
-0.706649
-0.037455
-0.401676
0.346149
-0.293700
-0.179456
0.079556
-0.202270
0.272748
0.313299
0.217965
0.369994
0.331717
0.044107
-0.363308
0.120892
-0.252462
-0.207934
-0.326680
-0.015640
-0.611304
-0.800784
0.225762
-0.499662
-0.005641
-0.217196
-0.796634
-0.157950
-1.320602
-0.809568
-0.514623
-1.047816
-0.357019
-0.207873
-0.673643
-0.095362
-0.543367
0.181723
0.586723
0.274943
0.227714
-0.114376
0.227557
0.430173
0.179439
-0.147848
0.282776
0.275355
-0.148180
0.057685
0.016752
-0.298774
0.530842
-0.697235
-0.104279
-0.085611
-0.853750
-0.296849
-0.415223
-0.500783
-0.836605
-0.762287
-0.855075
-0.538732
-0.748134
-0.384852
-0.282376
-0.308648
-0.375571
-0.261596
0.152480
0.380157
0.025210
0.642562
0.230507
0.220748
0.326569
0.062106
0.482529
-0.014395
0.415674
0.075769
-0.184730
-0.005713
-0.113569
0.155760
0.127407
-0.739045
-0.418355
-0.823843
-0.875678
-0.276053
-1.199367
-1.293689
-0.697626
-1.048979
-0.914776
-0.590648
-0.315859
-0.731789
-0.687987
-0.042217
-0.070654
0.290218
-0.058150
0.164958
0.414034
0.243480
0.341123
1.033274
-0.330048
0.673609
0.105990
0.325667
0.890089
-0.145945
0.111602
0.071467
-0.512215
-0.846581
-0.176432
-0.411440
0.056495
-0.594623
-0.675039
-0.224977
0.214483
-0.396613
-0.495605
0.009225
-0.087087
-0.057924
-0.035558
-0.322871
0.007648
0.114741
0.608619
0.494860
0.866618
0.840381
0.369707
1.218323
0.168616
-0.105064
0.452075
-0.292433
0.391012
0.119693
0.291028
0.176535
-0.517053
0.379507
-0.592519
-0.401094
-0.130823
-0.499710
-0.752378
-0.627940
-0.402490
-0.293820
-0.288689
0.056197
0.003722
-0.468123
0.205014
-0.809877
-0.357636
0.138595
0.427429
0.187403
-0.075816
0.523772
0.446419
0.600397
-0.253143
0.083345
-0.104605
0.228816
-0.043414
-0.421592
-0.104303
0.478410
0.667276
0.272430
-0.281856
-0.602312
0.241020
-0.753854
-0.878278
-0.603716
-0.229998
-0.127797
0.446021
0.188524
0.550133
-0.009292
-0.262257
-0.385521
-0.224459
0.312411
0.310287
0.045696
0.157849
-0.315378
0.425915
-0.274524
0.295581
-0.092942
-0.345064
-0.718949
-0.684611
-0.647714
0.248890
0.620204
-0.062736
-0.102600
-0.209962
0.315912
-0.026146
-0.619436
-0.333184
-0.300287
-0.404904
0.650187
0.520453
-0.282749
-0.063993
-0.351880
0.078665
-0.193396
-0.426770
0.413099
0.077894
0.220387
-0.105439
0.061555
-0.100360
0.078068
-0.018093
